2		-1.1868806021479157
3		-0.636409170481913
4		0.35922760853616337
5		-1.8639215414942296
6		-0.05829786795633017
7		-1.116505322648967
8		-0.06755727513159059
9		0.05318592622960727
10		0.3509002542600181
11		0.3263372170117419
0		-0.29137475274864416
1		0.5753519742685738
2		0.2632079543264273
3		-0.09741299511963945
4		0.5699110761377918
5		-0.21707726323283227
6		-0.9087183802759748
7		-0.4477373246022477
8		1.5589207696494367
9		2.0619956674195405
3		-0.6068002393966295
4		1.2010030280156023
5		-1.2906700607464774
6		0.21224527441447016
7		0.17622548923540543
8		-0.3188714962005341
9		-0.538267601642516
10		-1.4481217485455484
11		0.141226769636456
12		-0.5722525035769912
4		-1.2684818944271912
5		0.42940286783702153
6		-1.3858825906016534
7		-0.5258608748133123
8		-0.6061422669002391
9		1.9960465334929107
10		-0.7576517006626867
11		-0.8673919341349956
12		-2.008871548309417
13		-0.7652657346138667
6		0.16094247659080207
7		-1.0288675417602302
8		0.8427443190486508
9		-0.4072988789186973
10		-1.2904910525798832
11		0.6327261474743111
12		-0.32764479060826524
13		-0.27033789489896154
14		-0.1338442696283485
15		-0.20784964519743204
5		-2.638631625262925
6		-0.811585223311094
7		0.12281559769538838
8		-0.2635412706546609
9		0.18100883107534188
10		0.23937565185473578
11		-0.11531674721875283
12		0.6871712938962837
13		-0.8308623030617968
14		1.1814100470205753
7		0.6564174013061213
8		-0.12422568313883206
9		0.6632639691458435
10		-0.3118888909579975
11		-0.42605784949073944
12		0.06053709535187607
13		-0.5520638261480665
14		-0.390437260556829
15		0.11293743918712124
16		-0.5725489956164819
8		-0.29585991432351516
9		-1.2633398107791471
10		-0.08719549599528525
11		-0.5648969979979339
12		-0.6076076204322082
13		-0.23901818034403172
14		0.9021382762268385
15		-1.0840667875000676
16		0.9126664187174912
17		-1.6646963136876187
23		-0.7843199596293228
24		-0.9026276225305064
25		0.8090688992135098
26		0.07360222276393134
27		1.8514201782583972
28		-0.3223728391665849
29		0.1703461944183336
30		-0.027780076548433084
31		-0.5104460415757174
32		-0.48146148290389906
35		-0.8153678290811754
36		-0.6772578527224796
37		-0.2773150682544982
38		0.39368191086508064
39		-1.1428286238665846
40		-0.4582080686824182
41		-0.7938464978656465
42		-0.3574085730573643
43		-0.5815766584527166
44		1.2706393300164118
31		0.24567334863902934
32		-0.7232272176900818
33		-0.7091729211302981
34		0.0642186320742208
35		-0.07503637697180289
36		-0.5944094014784514
37		-0.5497113288099064
38		-0.16132459215739556
39		-0.2797843258797699
40		-0.6390197352322795
13		-3.044265637499637
14		-0.1387039516626729
15		1.3696968217521124
16		0.629368578356998
17		-0.03367328402091005
18		0.28010916066307834
19		0.5809395695571631
20		1.6483783227824818
21		-0.4740001229593831
22		-0.9437115164075011
9		0.9887396824382024
10		1.1099231197745214
12		-0.37357217069498244
14		-0.28816608503585894
15		0.46099967296641214
16		-0.22965801800302266
17		1.2244741258554817
18		0.8414009595414788
17		-0.2581377432014727
18		0.8819177099286243
19		0.4672795060462339
20		0.388534136618147
21		-1.372194352497219
22		-0.37746592714145644
23		0.23177823839698924
24		-0.8829402639972652
25		0.006568418695212729
26		-0.25516230061686174
36		-0.5119725473735924
37		0.1587033215598319
38		-1.1167226331331168
39		-0.6574290429989907
40		0.022978366521843395
41		-0.438697004083695
42		0.0015264392965156149
43		-1.2402351531506168
44		0.2250797776518463
45		-0.3506770955529719
24		0.4111310704863367
25		-0.39892219589902783
26		-0.3403373885576502
27		-0.056501019283414354
28		-0.17325853544359526
29		-0.27063735158171237
30		-0.40735783320511404
31		0.47144600993774166
32		-0.9297196123213948
33		0.3925235490301542
27		-0.493633861685809
28		0.9003606727120521
29		0.03301949515479113
30		1.0371067772688742
31		0.04243389116240655
32		0.11831133282634405
33		1.5225292916849449
34		-0.9538865178738499
35		-0.1269656208446256
36		-0.08302854718005474
12		0.014440907920390319
13		-0.07791656176990285
14		-0.43472475257404897
16		-0.14711815791143557
17		2.594757577640776
18		-0.5704613895727662
19		-4.137514217493215
20		-1.2386754293011337
21		0.22023165032306005
32		-1.3508397820301512
33		-0.42982286534984
34		-0.4834105130791812
35		-2.7090828434407874
36		-0.8900562383964513
37		0.9102075183257621
38		-1.3315419603159078
39		0.9513558755322153
40		-0.6293440373231661
41		-0.24522696999847876
11		0.2403350680167888
12		-0.10042777514989756
13		0.9550906171235062
14		0.4735512748983536
15		-0.28373941454418783
16		-0.40165138713630805
17		0.14777302876246903
18		-3.2766760098966485
19		-1.0968779278594432
19		-1.3444912069348858
20		-0.12555947575425086
21		0.3491702589423427
22		-0.013597527882375752
23		-0.10389770556142637
24		0.2970658419694591
25		0.20019374167458426
26		-0.6013319238043726
27		-0.4608911845945934
28		-0.20844162994510024
33		-0.46192170660419685
34		0.22179126959347406
35		-0.552663467508681
36		-0.04863190296545305
37		-0.03911354876621281
38		-0.0029581016282671613
39		-1.0511242435031065
40		0.25880097000284435
41		0.5254481744113783
42		0.5019248318085108
37		-0.030517029127187477
38		-1.007981352846785
39		-0.6418465428424331
40		-0.439860057251214
41		-0.16970072725568958
42		0.7157344906629716
43		0.1595613314371689
44		-0.2143575809786593
45		-0.5583801812031378
46		0.08782239003096522
11		0.6852185431567183
13		-0.12192984125515234
14		-0.3608527880582189
15		1.529131571978645
16		1.5786206269080636
17		-0.5965776501305402
18		-0.5661546812757877
19		-0.9793291657146653
20		0.6217289880300431
18		0.29277314653844394
19		-0.06023900534579515
20		-0.7406351138450262
21		1.2568790017272553
22		1.5757505247241654
23		-0.3691062401675612
24		-0.07858660298955844
25		2.234661678810076
26		-0.6065096563181748
27		-0.4850769919587745
25		-0.3221075443118565
26		0.5140183224757481
27		-0.487946648074986
28		0.13506735185452942
29		-0.8657365868467066
30		0.40947546808950913
31		-1.0250308683953189
32		-0.18894146434402592
33		-0.34305367297459666
34		-1.2595247332839965
26		0.24630389317482845
27		0.06968974789207984
28		0.0651227697724768
29		0.5618038065958885
30		2.049129737674885
31		-0.1965267709730395
32		-0.09556223491953798
33		2.176278940030909
34		-1.7299528843766312
35		0.7211975887613029
34		-1.1225566948334142
35		-0.9715938156459962
36		-1.0593542183386933
37		0.7349711857809157
38		-0.4039195895641913
39		0.09862188970365231
40		1.2196400254744395
41		0.693604037084892
42		-0.3054972481578282
43		-0.6640747342286255
20		-0.8474098695466251
21		-0.4042118565461817
22		0.24325747574852566
23		0.17668452350837474
24		-0.7864376297742561
25		-0.9224852872053588
26		-0.7120315477100221
27		-0.988668242071629
28		-1.0308743336721815
29		0.41591289739024645
16		-1.3265624122546007
17		-0.9314827366477965
18		-0.2350672422086892
19		-0.5754651279633554
20		0.15928589154599945
21		0.595156067671834
22		-0.48282953449721694
23		-1.1037877198410408
24		0.20612313963069784
25		-0.8822370899757852
14		0.08119305020663012
15		-0.6095312291209798
16		-0.5753288027414352
17		-0.9554727723964733
18		-0.025062527837302565
19		-0.7419997756295285
20		-1.539495658590436
21		-1.753722415190393
22		0.10931124713624644
23		0.8365603923038615
21		-0.6173621085076689
22		2.1062188368055943
23		-0.2937549759684354
24		-0.4650928195581008
25		-0.9473944174545926
26		-0.3026727310860333
27		0.010944876804188961
28		-0.18114438915598166
29		-1.1029734690192767
30		-0.24337208714335407
23		-0.4341016153376451
24		-0.49554171493718885
25		0.26726139744742905
26		0.921009051300415
27		-0.1932164416857841
28		0.1894186686412565
29		-0.4356177754391612
30		-1.0267988772955616
31		-0.42632197570665253
28		-1.9481534661011761
29		0.20323906450317197
30		-0.1463437469890094
31		1.1562801422614457
32		-0.11497137527215942
33		0.02169003880391757
34		1.7103229574490553
35		-0.4111236846827677
36		0.6672527169534586
37		-0.7546715055495424
29		-0.5990798084442619
30		0.4899651653922237
31		-0.05625913558560927
32		0.2929498947468269
33		0.9251555408487142
34		-0.44901630508257845
35		-0.06630218312774006
36		-1.1836542974609154
37		-0.5145352496425195
30		-0.25059236850289746
31		-0.724201531115357
32		2.3380548711526337
33		0.025129768568891014
34		0.012370782603784672
35		-1.505005917988283
36		-0.04298330654560564
37		-0.006813647959640856
38		0.9329402899741484
15		-0.5889064288891428
16		0.8396221462871932
17		4.0740702326793
18		-0.6453539425597492
19		-1.0122790099438228
20		0.17206724333641465
21		1.2595630357393506
22		0.2874914633028552
23		0.1717354313922728
24		1.229220574701131
65		-0.5996938636526461
66		-3.6001092548683262
67		-0.1499507000050113
68		0.008341641197396837
69		-0.3983563411910515
70		-0.14177940046282542
71		-0.7843247345450881
72		-1.4597046786862224
74		-0.9410760980337968
38		0.8476506285261634
39		-1.6663865795375785
40		0.025433912120685583
41		0.342241003823893
42		-0.6577784459372283
43		1.4089135203011198
44		-0.34236616489385385
45		-0.5143163693918247
46		0.05755544511489278
47		0.07784103101074404
63		-0.6655489036234647
64		-0.249911110602015
65		0.1852559160566449
66		-0.5973494514863205
67		-2.00090696495283
68		-0.22190086218601704
69		-0.18613181194717868
70		-0.13241131271283244
71		-0.05626666227844434
72		-0.04439256967890503
60		-0.4577736686766691
61		0.1746525136507421
62		0.3117604297962933
63		0.7333085266657905
64		-0.3273434897515114
65		0.7502988562432316
66		-0.9821488080541507
67		-0.35976787906380203
68		0.36467946415923874
69		-0.15583732333145695
69		-0.8160240066671134
70		-0.04360748319388711
71		1.5180472745987408
72		0.7809879524412789
73		0.9216476209742821
74		-0.3034911555357388
75		-0.5827688770886398
76		2.3512646805833084
77		0.6822574720831014
78		-0.5940675172696896
50		0.4806637756368578
51		1.0934819535830618
52		-0.8000147901997134
53		-0.0505548709120797
54		1.3356731628354532
55		-0.22785469957847396
56		-1.5680991974878158
57		0.08155597360182369
58		-1.0342643918154582
59		0.5911555694727885
49		1.4492153221829487
50		-0.4841142939218189
51		-0.07865976406148548
52		-0.21410308208785123
53		0.5551003358298575
54		1.5040214044380003
55		0.06484837144867041
56		1.50105808960831
57		-0.3480502030382951
58		-1.0793844314118823
72		-0.28832465456179995
73		-0.35004830923669455
74		-0.4204221517840894
75		-1.1816546373305978
76		-1.5242444933519605
77		-0.2345497028960857
78		-0.21566391272787866
79		0.6302568647909575
80		-0.8129166649328671
81		-0.25260311910542516
42		0.07634994518240179
43		-0.9075762456061811
44		0.7039335049846857
45		0.5844636830618007
46		-0.7250324500297147
47		-0.7629062959322892
48		-0.15054953843287106
49		-0.9033522588302381
50		-1.032813621601644
51		0.6295525146896037
47		0.9518778083653815
48		0.8394103701147304
49		0.667826124735495
50		-0.13295419654637136
51		-1.757167582805989
52		0.36188096286538257
53		0.3785705793493365
54		1.6368201881711661
56		-0.9324734468711972
51		1.684453206555872
52		-0.13220898727525285
53		0.022978453137551463
54		1.0267978762900238
55		0.5305700719261649
56		0.44247844726267976
57		-0.3234120382156496
58		0.06280270031141603
59		-0.008273710841221972
60		0.19165966492549935
39		2.3412918706593495
40		0.5796716303695609
41		-0.9073937598569299
42		-0.25022524074187097
43		-2.2776291793606225
44		0.8488039948369539
45		0.4314794309246234
46		-0.7758616102421539
47		-1.87149582429826
48		-0.4630718988014601
61		-0.13975470410342927
62		-1.6795857972303716
63		-0.8041014598060384
64		-0.6798051281298049
65		0.86479162263899
66		-0.9981769889699706
67		-1.0176222810032314
68		-0.19058162422948657
69		-0.10135151313633242
70		-0.7364955184539481
46		0.42877620624383905
47		-0.6249371516809796
48		0.23539844812139626
49		-0.552989775095452
50		-0.4933479868460437
51		-0.33570809209651187
52		0.01645324853594987
53		0.5016394888942164
54		2.2781053834385516
55		-0.11183095355675647
52		-0.505152618618487
53		0.02172860488293607
54		-0.06640745066912322
55		-0.7058833968216531
56		0.059143189441164805
57		-1.3491030180174604
58		0.32057594016254126
59		-0.4569806979858651
60		-0.2902036355784783
61		-0.732534822920089
57		1.107565792998521
58		-0.282163921198303
59		-0.22992616158258425
60		-0.7422045326030916
61		-0.09672302148969383
62		-0.19574368797695854
63		2.2734555573367605
64		1.3152220688390384
65		-0.6236320545177207
66		-0.5994865720058521
59		-0.12227010285756688
60		1.1711710032815124
61		1.3903320768796235
62		-0.5587481686320176
63		-0.09505166153866826
64		0.1990496643281319
65		0.17860954902989676
66		0.2096626914922833
67		0.6626619092838884
68		-0.9919270069341475
71		-0.4800539708378455
72		-0.33496823627953987
73		-0.10738946588308508
74		-0.41841382141047784
75		0.390853584748863
76		-0.7283404196688965
77		-0.06296110111125519
78		0.5741867240577914
79		-0.1628596005848333
80		-1.048764649430129
67		-1.0535546932046598
68		-2.024732361391552
69		-0.6364416986319882
70		-0.7405137517850067
71		-0.46396741329650254
72		-1.0251407625570514
73		-0.6801784499434297
74		-0.5091875733885256
75		-0.1564562994993542
76		-1.5422986675627919
66		-1.0447801659965783
67		0.07824903069087774
68		1.3306560484532837
69		-0.09830281809389635
70		-1.0133278531866232
71		-0.8250635353604454
72		0.9968435021480289
73		0.07906651181608987
74		-0.29850508385448066
75		-0.25054600316352893
53		-0.3106343704193901
54		-0.3737028843952284
55		0.663269631469836
56		-0.8341047888656257
57		0.10994189620910853
58		-0.6924545890647521
59		-0.19387719159375477
60		0.5727449904212722
61		-5.807385325521676
62		1.128287914732523
48		0.24813252919156945
49		-0.9015412800788485
50		-3.868973533302271
51		0.4617177215758083
52		1.943489165254654
53		-1.12998145259065
54		0.9556607854078168
55		-1.0479315386116685
56		0.7936694911015385
57		-0.3806871796986019
56		0.7707039112381899
57		0.31935916213594473
58		-0.2516889452365561
59		0.29147357547378744
60		-0.31753088325399786
61		1.110069127896856
62		-0.2308914637439709
63		-1.1508986173451459
64		-0.49321924216888524
65		-1.6693576580343656
41		1.063213470374567
42		-0.028434751878902036
43		-0.05856808275254755
44		-1.073395597340985
45		0.5052776958821067
46		0.10128538268079713
47		1.2893717430028249
48		-0.6636440233096833
49		0.07405440181211138
50		-1.5072030323319088
45		-0.20130673204722319
46		0.03963735810387221
47		0.6558889914695233
48		-0.7765103987178874
49		-0.0813359631559341
50		-1.0326322910685117
51		-0.2633667180727638
52		-1.9282378413252392
53		-3.347624637513755
54		-0.6925350770747177
44		-0.7998582336679136
45		-2.0904133438031614
46		1.2905585909552375
47		-1.0881175842190292
48		-0.3360709723880706
49		0.39517360706749405
50		-1.9156112605627806
51		-0.35682733356241253
52		-0.41780901068714693
53		-0.036271526340800525
58		-2.00059574926085
59		-0.10600856033813592
60		-0.26402566923059
61		-0.5823809710054887
62		0.3704318527928162
63		0.04927543644453281
64		0.7033768692319453
65		-0.7862948751026931
66		0.34314393826290035
67		-0.5776364108175271
40		-0.2492787500909523
41		-0.9023625843412612
42		0.7112637883366769
43		-0.6133371403095489
44		-2.071118327053151
45		0.5837137470795146
46		-0.46998041299692245
47		0.2237348028818916
48		0.34569612703596225
49		-0.6007603913084
70		-0.6319429345230122
71		-0.4412903235668008
72		-0.3416529186352386
73		1.035458099090559
74		-0.8983646006187156
75		-1.2437940687632876
76		-0.4976207194941476
77		0.06470067155235326
78		0.47445814351527715
79		-0.9374628964590799
62		0.7697580275894296
63		-0.861928777073439
64		0.3449634591474324
65		-0.5196565055453719
66		-1.115751410157444
67		0.9792346147863128
68		-0.7913373099969686
69		0.08949465649921842
70		0.6670151401962208
71		0.06241664802146526
56		-0.5080610772233941
57		1.6349079929484358
58		2.411033376646252
59		-0.3260272499699062
60		-1.4419563032004896
61		0.01932198087098158
63		-0.3716270811321364
64		-0.723377073843497
68		0.964577437293723
69		0.3889122857533571
70		-0.5369956862790325
71		0.38320056659682794
72		-4.0675424844473165
73		-1.0215067698784546
74		-0.5739626419408482
75		-0.896822239147662
76		1.094656279173579
77		0.30537347386409996
64		-0.9859974892038004
65		-1.2246537878117456
66		-0.4251102774820325
67		0.39915483890306835
68		0.00863416400522836
69		-0.7814640379439175
70		-0.5596275106212725
71		-1.4899661581915735
72		-1.2239332356811474
73		1.1562101128284512
73		-1.4158816945737835
74		-0.7229943257654504
75		-0.6336476894936731
76		-0.2199261963654928
77		-0.15669997041071373
78		-0.3579576297748116
79		0.2684681618323945
80		1.5403086947149895
81		-0.27857421891848483
82		0.05048533468379003
74		-0.24034566949947145
75		-0.8015633924162562
76		-1.1108676357454952
77		0.7017702129441995
78		-0.2763380205800029
79		1.0397366566969555
80		0.0440582567537026
81		0.09164576401999636
82		-1.8155291115831402
83		-0.5485591733383316
75		-0.6858445210178523
76		-1.164997712147454
77		-2.004434619455857
78		0.2656976327295162
79		-1.7345543693262369
80		-0.8641324761344861
81		1.605445066820564
82		0.9703465984341408
83		-0.932526667761631
84		0.5528123687861827
76		1.9671816789155714
77		-0.27232503851029083
78		-0.3363407474913585
79		-0.2988703682157217
80		-0.6975492592536788
81		-0.7912496102665715
82		-0.6256184642895171
83		1.9578224671782563
84		0.29993609697870083
85		0.6074545551852433
77		-0.8834112900258927
78		-0.18390486756485872
79		-0.09221764255668626
80		-1.1074220872777905
81		0.30052387526070945
82		-0.6468421537770537
83		-0.613392190588036
84		0.7213897574710597
85		-0.48362902031264227
86		1.9012743478421852
81		-0.3058488712808225
83		-1.3691352221753226
84		0.0015680039104299472
85		-0.47209967491186
86		0.41846623651348197
87		-0.31894675198316835
88		0.34722054981012357
89		0.3363013343751499
90		-0.058073286946959846
78		0.03607145370319449
79		0.085265174486395
80		0.24216484696081564
81		-1.6293569268831398
82		-0.4367657743389353
83		-1.4872032238000634
84		-0.6041036483440794
85		-2.05120754428675
86		0.9281431522265321
87		-1.6736039182828408
82		-0.7616274472938933
83		0.007393954433795698
84		-0.3172360931615551
85		-0.21225794011541185
86		-0.23107070663564352
87		0.393089740782171
88		-0.2670407966676775
89		-0.1056589674810657
90		0.3826574378890661
91		-0.020010352325299956
83		0.24740385245461236
85		-0.07629159902266813
86		2.6726191529493226
87		0.22044978961893236
88		0.7018517549186525
89		1.585803802760009
90		-0.42249106649097656
91		-0.4888575079470307
92		-0.0681620234649462
80		0.8239252631103239
81		-0.28995051018925255
83		0.7784658805361181
84		0.09928789472300889
85		-1.2878088214229069
86		0.46946209864071686
88		-0.5558710421819297
89		-0.2739527453953626
79		0.25599628390134804
80		0.05742362124163483
81		-0.1562793284447704
82		-0.6478137586174646
83		1.1815370359791713
84		-1.065700063223149
85		0.6030036160318055
86		2.144731954463372
87		-0.20646031355717692
88		0.014580297682773042
85		-0.9430955876024406
86		0.8190091017031474
87		-0.827984907559492
88		2.1436405892594648
89		0.45293298034033436
91		-0.559475561687031
92		-0.19107774469992944
93		-0.3435931682296371
94		0.9370947448185281
88		2.6999150740921634
89		-1.6442426288085732
90		-0.24911249872502603
91		-0.6509317948703002
92		0.08895987906065662
93		-0.35045815730046603
94		-0.6059198983735646
95		0.19960175457105667
96		-0.3008774281665439
97		-0.9756497088792208
87		-0.28849938384722623
88		-0.9080469237898252
89		-1.0731872556418443
90		-0.8111269869021389
91		-0.705761912275196
92		-0.1931286817270655
93		-0.3296031477503572
94		-1.2450519496001613
95		-0.07022445810663151
96		0.9849583307250086
86		-0.8918194431580658
87		-0.17375991984238412
88		0.4873961816752954
89		0.19968662243145618
90		0.23458434430850822
91		1.2197655684529694
92		-0.517483409548428
93		-0.3830952824357341
94		0.09508612847803466
95		-1.1138738186836068
84		-0.3407158879725209
85		0.333860158368021
86		1.3902095587469854
87		-0.40628432706966877
88		0.6096107838108966
89		-0.7300085088036439
90		-0.4956731740257492
91		1.8297871038851894
92		-1.2173312352979337
93		-1.3388367770109164
89		1.0297960515362057
90		0.1959417101682071
91		1.4152366915373924
92		0.042606111795024014
93		-0.6885500251545372
94		1.4205703705202264
95		0.6813689924411857
96		0.46066017629868194
97		-1.0644522759640866
98		0.6712389267447552
96		-0.621734346529978
97		-1.3829356232048833
98		0.38811580128473677
99		0.4697005807578668
100		1.2742608203321886
101		-0.3189455883780627
102		0.1658133605646254
103		0.41114526007423446
104		0.3484245583689603
105		-0.22873161152268265
97		1.0541536528676305
98		-0.8239223334304467
99		-0.44829511545997075
100		2.2349263674856754
101		-0.35018555977171545
102		-1.0551951021844415
103		0.32710833475748047
104		-0.15150570140128622
105		-0.28680186704559474
106		-0.48813893473972647
91		0.6384167596573099
92		-0.9375012317152734
93		-1.1346565887941487
94		-0.08216525717263141
95		-0.5187401476337828
96		0.30459393490273146
97		-0.1517428712174697
98		-0.8463008652949859
99		0.20609207337220803
100		-0.4469153650732102
98		-0.850932846280778
99		-0.39836499794387153
100		0.47696703682237507
101		-0.19290335338014847
102		-0.09412818625049443
103		-0.04131370981552491
104		1.3064977127062785
105		-0.4115937670788755
106		1.9792646632741397
107		-0.42853893987088876
93		-0.48005500964828907
94		-0.7698801543770298
95		0.7823719063023074
96		-0.8383112388004923
97		0.2957238582114498
98		1.1354316359162224
99		0.18622432380607168
100		-0.13711053501702597
101		-1.3148567459968978
102		-0.5750815743923203
90		-1.0408737975265652
91		-0.10151948115563887
92		0.4811358200734413
93		-0.40706353600424877
94		-0.11095436636844468
96		0.9069752662144887
97		-1.3989958309091277
98		-0.9563995569009331
99		0.6916819157117028
95		0.29423797177413086
96		-0.021310007475413548
97		-1.3252456684398575
98		-0.7792452426812955
99		-0.10268730223533319
100		0.39104980494422353
101		-0.1520491524941711
102		-0.6048329155017843
103		0.08503810914952324
104		-0.30275763735428723
94		-0.3237272430592872
95		0.0964230764205166
96		-0.8989921672235782
97		-1.2425297386285583
98		0.9559237254144008
99		-9.969147213310338
100		0.42503255848001625
101		4.114884888340171
102		-0.005821560328954069
103		-0.9458758677483498
92		-1.7117067857862571
93		-0.5463757095650104
94		0.31120580351614524
95		-0.9432815461671902
96		0.36181799363427897
97		1.6333050010071684
98		-1.165848384596898
99		0.21505952020977298
100		0.057896199123006094
101		0.4749779771553818
103		0.39808782882387245
104		-0.08920186465714458
105		-0.17723374547171958
106		-0.6505344603809771
107		0.34905383679824575
108		1.0150674501511117
109		0.22092391025339259
110		-0.4805134667001172
111		-0.3170659193179994
112		0.25286621588202735
108		-0.22456339830024383
109		-0.5206187218033039
110		-11.417580764841414
111		1.3786681122266193
112		-0.5813656274374893
113		0.26683812489395375
114		-0.03556996352458649
115		-0.12153336840092158
116		-0.2263241588150783
117		-0.5076832581896601
100		-0.06390441067982011
101		0.19663406742501027
102		0.06693314806109377
103		0.7980052155866567
104		-0.3163793008003032
105		1.1036423093482923
106		0.04262661096072338
107		-0.18573329846474074
108		-0.19789242678845775
109		-0.3918970972878807
105		-1.497442789343389
106		0.700467434798518
107		-2.131964800603214
108		0.14643044098521263
109		-0.6368234316265003
110		-0.24086510844013506
111		-1.7866701207084013
112		0.7456991616137401
113		2.0056074351539093
114		-0.1943604303687045
111		-0.7723781227116872
112		0.4109239471229084
113		-0.732505855621067
114		0.29154602143403435
115		-0.6015331719731921
116		0.4913509111084256
117		1.354274230375253
118		-0.5194255062397186
119		-0.8715283197198572
120		-0.485637208931347
104		0.14956612337430297
105		-2.455213546838803
106		0.7928087842766924
107		1.593059378791791
108		0.10619372196214137
109		-0.3063121186560423
110		-0.8405983121883012
111		-0.03121311678619511
112		-0.4282146760271679
113		0.49552322433620744
107		1.2654230770432708
108		-0.9283496794305394
109		-0.024567838022795736
110		-0.8442416526750447
111		-0.5107383970654135
113		-0.5210068979831701
114		-0.18241422023765308
115		-0.305999523072367
116		-0.1906516523015479
102		0.3780433785031525
103		0.896603016786641
104		0.0362673636524469
105		0.7681242802215313
106		-0.12370099829439393
107		-0.9194583685653669
108		0.40061581873456903
109		-2.2436857564482904
110		1.4302786875334075
111		0.5046729479352324
109		-0.29117720503348626
110		-1.422479848836894
111		-0.9397310481452436
112		-0.12234586258513425
113		-0.3193147534260334
114		-0.4688690970053686
115		0.24511457754760368
116		0.8655450715244791
117		-1.2362721560591627
118		-0.7730360453848167
101		0.1412665784243354
102		-0.5203417635068263
103		-0.5079689888051618
104		-0.21824698076072827
105		-0.8954112766565259
106		-0.17267915995211874
107		-0.6152246226174266
108		1.986678956047533
109		-0.15524412457275646
110		-0.22216276118159098
106		1.4453901668029845
107		-0.5730088759028563
108		-0.381014420559344
109		-0.718994854480266
110		-0.5704400452018945
111		-0.37876570629355133
112		-0.7432392393961151
113		0.2662030450093597
114		-0.9166655728397818
115		-0.7548644674537334
110		0.8501700787388949
111		-0.10132605359996816
112		-0.0666029511593168
113		-0.6108795468457289
114		0.09976351451910373
115		0.8355451835291292
116		-0.5694874280585703
117		0.21208251052520044
118		-0.3912303068426535
119		0.7200670072751088
99		-0.025533895108545902
100		0.7281099829725574
101		-0.7020454235847848
102		-0.35385731233776774
103		-0.2539192106997477
104		-2.778019212243853
105		-0.6948205278294274
106		-0.3268167564921148
107		-0.558054629052648
108		-0.2756365473096918
116		-0.41887726348837034
117		-1.0630152660619399
118		0.999166157058194
119		-0.0648141440817176
120		-0.353461553243784
121		-1.1425566826265539
122		-0.36393457149873043
123		-0.4988601986282701
124		-0.994548727707192
125		-0.4923189037277065
117		0.26478057271903965
118		-1.043992175130748
119		0.35533587688990864
120		-1.2226877912215883
121		-0.4904731274585983
122		0.25069702156670753
123		-0.3310255030351158
124		-0.07243827897663918
125		0.2074929706314299
126		-1.0632561386034036
120		-0.28787283865908125
121		-0.6091131038168172
122		-0.24883228619954825
123		2.2420997607614135
124		-0.510288008904717
125		-0.4110096835029108
126		0.18688109427759061
127		0.00398440010699353
128		0.15139785330215444
129		-1.0552519430551552
125		0.35312278899642324
126		-0.9740622649689109
127		-0.409037503339324
128		0.6034792626292086
129		-0.2326709245077426
130		-1.0435331640479142
131		-1.8427722380683798
132		-1.5752144911132153
133		0.6932403172468226
134		0.3362379546105266
113		-0.746524562725001
114		-0.08348015886075355
115		-0.28975254952844093
116		-0.15364613275234731
117		-0.43975197390983567
118		-1.751785235692939
119		-0.7629911434123536
120		-0.2879405394341284
121		-1.013837485476342
122		-0.1614522554816084
114		-0.22605374641731849
115		-0.22135645148847646
116		0.5512616849329168
118		-0.21186947231025363
119		-0.30674806896978646
121		-0.15973505543200855
122		-0.3382495743704507
123		1.0684909862262943
115		1.0923074637784131
116		-0.8805236079868708
117		0.23776136816525117
118		1.368046934297735
119		-0.6771056267408839
120		-0.8030807457290298
121		0.327746170555224
122		-0.15637827495317974
123		-0.6039990806374765
124		0.037078375214070515
126		-0.7377017293280296
127		-0.9422284094662001
128		0.5136913961918523
129		0.13173037413714203
130		1.032225203699481
131		-0.4123329187156119
132		-0.26820001253973025
133		1.1150276872561844
134		0.10521039824573669
135		-0.41000310171005944
119		0.3086395238539597
120		-0.39999737223682325
121		-0.26858397073608764
122		1.222248585747353
123		0.3093244187911903
124		-0.3774513871672771
125		0.47979913379013167
126		-0.27611234850065614
127		-1.4694171125065079
128		0.4978884818233383
122		0.8039460715196298
123		-0.28274513176297594
124		-1.0555471303254116
125		-0.8249296689807322
126		0.6061967818740578
127		-0.6463493664567324
128		-2.194948969023699
129		0.029291151326625384
130		0.17052657113965483
131		0.9777783952677466
124		-0.5206860595913217
125		-0.23435209897280568
126		-0.005874316807747532
127		-0.1381366514078009
128		0.491879431022563
129		-1.398668601954846
130		-1.6692169125213325
131		0.6666319358870826
132		-3.1378531957387215
112		-1.0003235288564412
113		0.09904603272086827
114		1.6235670707730014
115		-0.029866758822465127
116		0.17823470447770134
117		-0.9827003705723693
118		1.4003930561666265
119		-1.3970150803281174
120		-0.404149247353443
121		-0.6118624314695996
127		0.8246959569675704
128		0.052223688199742005
129		-0.2467951960544234
130		-0.09137356362309319
131		0.4330061785293797
132		-0.21202642876806882
133		-0.3396571540419917
134		-0.061510427801612255
135		0.7501361581650589
136		-0.773729849831001
124		-1.0462042474815616
125		0.6579498828614414
127		0.10979690077686603
128		2.9892300212761427
129		-0.7435178562559129
130		-1.195379381076089
131		-0.14877823538801987
132		-0.04540097374025356
133		0.00919367211646163
118		-0.900148447866471
119		-0.11392594371821445
120		-0.005341264457922824
121		-0.2075651419745649
122		0.3908802082525061
123		-0.24715812393322795
124		0.7664540751782437
125		1.8445055391325487
126		1.1199012781530668
127		0.7344346459814644
128		0.9023422224954705
129		0.2947927757526534
130		0.7190465336178276
131		-0.47446707572658914
132		-0.9449591051298092
133		1.6869668402103273
134		-0.1231844610226149
135		-0.6128222344837005
136		-1.094839156347099
137		-0.9263092194367669
131		-0.9182763104589865
132		-1.194628657940101
133		0.2336207687865478
134		-1.6495703621521465
135		-1.2739609081084002
136		0.6743261336628437
137		-0.9866047713883199
138		0.04985548817317061
139		-0.7432779720641215
140		1.927449282987812
132		-0.9747069310330897
133		-1.313998769692833
134		0.2070478243473809
135		-0.29017332912144905
136		-0.691419044678538
137		-1.577736480295012
138		-1.0460280904761896
139		-0.03402889005681327
140		-0.8076916860564035
141		-0.294281230563805
137		-0.05832255753240502
138		0.943177243384816
139		-0.24638569144541503
140		-0.28380402466702936
141		-0.3261452398142343
142		-0.15263941398432807
143		-0.12232824797508009
144		-0.5472245684099576
145		0.6392378115633264
146		0.17191774169157872
133		0.9565329309855685
134		-0.9538322472222542
135		1.2182105100331053
136		-0.1500542212978952
137		-0.5803079615327992
138		-0.4313990299507189
139		0.6442735677318564
141		-1.3044256681416833
142		0.6468735188696554
130		-0.9676084378465946
131		0.8919044510665923
132		-0.3848287157041185
133		-0.1493535400773948
134		1.2861917591941736
135		-0.317568782259102
136		-0.07147293431404937
137		-0.35334461482661034
138		1.2217195996182866
139		0.730288591403809
135		-0.39362319205194063
136		-1.079202471083561
137		-0.5940752141702865
138		-0.44349582154237593
139		-0.7260896273531786
140		0.04217006292559482
141		1.639359547655199
142		-1.0489111531155333
143		0.017129183892419506
144		1.7258676201740277
138		-0.7077247241267306
139		-0.8165410792297804
140		-0.4492115789989781
141		0.4244272976689798
142		-1.846058688008446
143		-0.4915324680515498
144		-0.3255968195783428
145		0.0793739168610723
146		-0.3846765527694896
147		-0.15159301750358192
136		-0.1999807929895261
137		0.6849550347284736
138		-0.07017768487707275
139		0.31122161234185514
140		1.3732759445323433
141		0.6282405380136743
142		3.6329664845778415
143		0.6556921317842197
144		-1.0905130029869539
145		-0.4536355921669819
134		1.477234494218445
135		-1.2505751707350925
136		-0.09961417848455385
137		0.009558135858813073
138		-0.2855064568941173
139		-0.6514697323702645
140		-0.4557344422391248
141		-0.27879649390593736
142		-0.9737373605089068
143		1.1295711298684437
129		-0.35463204788909175
130		0.12934661018577723
131		-1.5083060579033378
132		-2.230236320431405
133		-0.23416742910316893
134		-1.0345152253338803
135		-0.852383969584184
136		-0.21005303031853376
137		0.4394610949217517
138		-1.7723280604726264
151		-1.3951939313929744
152		0.19558842572617471
153		-0.13302438282304063
154		0.05765849264594163
155		-0.6711418162234684
156		1.273389033679494
157		0.1780754696878696
158		-0.30297318178166616
159		0.9227560473465342
160		-0.062041015183683476
145		-1.4586893888136365
146		0.24066525144423012
147		-1.0000485851358507
148		0.37546350000875384
149		-0.6879517052593934
150		-0.11473504477457958
151		-1.1063851032168814
152		-1.268102450052455
153		0.6860365561967205
154		0.023056104529082848
146		0.2972115669201044
147		0.2361127959949567
148		-0.8765439356145108
149		0.49129305685329805
150		0.07584499759338653
151		-1.1822320713768166
152		-0.8863131001700106
153		1.4443346828997448
154		-0.26028332834702506
155		-0.6961970821019606
147		-0.6816163463908655
148		2.1804694431372504
149		-0.34045561715588313
150		-1.245686178634257
151		-0.802529631161776
152		-0.5355666770427105
153		-0.24416558502966051
154		-0.1307099250816246
155		1.1974353304216487
156		-0.7335434360085161
150		0.08618845497820311
151		-0.8771329153213451
152		-0.7504392931901865
153		-0.9417913218975077
154		-0.34990831590883137
155		0.356258521833327
156		0.6075132480510268
157		-0.9894301684008264
158		0.25483805894257705
159		-0.7632485614104961
154		-0.9025103260131335
155		-0.5020761781580229
156		0.15563753672958308
157		-0.15774565368798552
158		-0.1981554489018897
159		-1.932902057180865
160		0.16999933725069152
161		0.3117233559759616
163		0.27902822435009894
155		-0.31008461345275723
156		0.3548240862544674
157		0.11752235229559484
158		-0.25824233677698616
159		-0.3561245070388493
160		-0.7069265176042789
161		0.41102385682263237
162		1.7103251175290932
163		0.2503039045373638
164		0.39199233836376224
141		-5.342240564449063
142		0.8120514508219469
143		-0.3115919112325
145		-0.08255997580131717
147		0.6489608880940267
148		-0.4756733437547146
149		-0.5969522583818595
150		-0.3513659781513969
144		-0.40566681665101895
145		-0.5907972981155709
146		1.0407047410174342
147		0.14387453020952296
149		0.4552776293687657
150		0.9925087622372057
151		-0.8851626711650121
152		0.09783929657109863
153		0.2540036628989214
148		0.18232225765107854
149		0.532626378320836
150		-0.7374791718952179
151		-0.6226695615312019
152		0.3368688826762015
153		1.999845152360218
154		-0.8796887482522577
155		-0.6132219873573591
156		-1.361719860027281
157		-1.378445275582899
149		-0.6388838920261853
150		0.5248160560715633
151		-1.0723554913529885
152		1.1861741208068803
153		0.0010171182963985114
154		-0.4034418595399394
155		0.3186204233386825
156		1.1333712514134666
157		-0.6980867108272519
158		-0.298619839284903
143		-0.7472433064692968
144		-0.5022663504747332
145		-0.7805559995105534
146		-1.0826213823597848
147		0.5212302865075166
148		0.15379380706225854
149		0.537550636702308
150		-0.05464147405694049
151		-0.3911574330573843
157		1.4396388664672204
159		0.5512796854485941
160		-1.6722877072006541
161		-0.05624656034879539
162		2.2057014488191427
163		0.3275745143470691
164		-0.8270184706843595
165		-0.49297590036794986
166		0.11140396239516433
156		-0.23460537913979654
157		0.07267476046347417
158		0.6191380663072243
159		-0.011095362683858044
160		1.2658904541366398
161		-0.07242893927599389
162		1.0641933913582495
163		0.23368308629118034
164		0.8045558255821651
165		-1.205906911126317
142		0.2517510457541339
143		-0.3202122086039088
144		-0.05731124879500083
145		0.7866534070456871
146		0.41109319168767894
147		0.33579633174943624
148		-0.4500028339347532
149		-1.3022000657883834
150		-1.003091927038384
151		0.591259600261828
139		-1.080510539085262
140		0.05066884854841648
141		-0.5725494973216454
142		-0.6040442618367682
143		0.2760197206824346
144		-0.2914734083517739
145		0.36783459206559854
146		-0.32559746589353583
147		-1.0852905248147255
148		-0.47018649773982396
152		-0.18483345364469442
153		0.2924601940585603
154		0.31593356503719433
155		-0.6126867918221108
156		0.05386975277653522
157		-0.1430467541000204
158		-0.5024248691252045
159		2.721673881399481
160		-0.8422353428866455
161		-0.9614994029912345
140		-0.4348308313954991
141		-1.2455367200534375
142		-1.7567979580577346
143		-0.6523070745588031
144		-1.1009304816935284
145		0.09879618581699011
146		-0.7998183385373465
147		0.33372478022092844
148		0.2667405843973964
149		0.08331309642588551
153		-2.1849747293584496
154		-0.49652756316656055
155		-0.11069781973804467
156		-0.5430236747035626
157		1.2594545079531576
158		0.31266035161243905
159		-0.030370808017923013
160		-0.4547572745564911
161		-0.579750336886069
162		-0.3700698310383081
171		-0.8145492629949767
172		0.2825434874203938
173		-0.6666654747601811
174		0.13571680329100777
175		-2.423943076881457
176		-0.17480998578898593
177		0.04729686297225001
178		-0.41234284758296125
179		0.7105173019851972
180		-0.7407770599937352
176		-0.7983421036855015
177		-0.24548704550339323
178		2.8892999204176366
179		0.8406130874434987
180		0.9560393792378596
181		-0.9672711690492292
182		-0.5118477793176877
183		-0.4627811614313364
184		0.8423712547333913
185		-1.217786952824573
159		0.45629005174002807
160		-0.8471947364526339
161		-1.116819563539909
162		0.5531379203107906
163		-0.38496076395013784
164		-0.007117275302748657
165		2.8635761363917887
166		-0.5565324333721933
167		-0.46967458893996106
168		-0.3114267713930491
161		-0.10156015866221622
162		0.6135811142631602
163		0.0742569306864676
164		-0.46083262518877993
165		-0.2067430675511396
166		-1.0874684186046133
167		1.6260438985853811
168		0.5152832601893499
169		-0.17918077297583673
170		-0.8855250452739143
184		2.4209088562118586
185		0.534137473212295
186		0.575098161740091
187		0.3380210205196246
188		-1.0581085969215365
189		-0.48278875412208144
190		-0.03993441222766772
191		0.053624758277957714
192		-0.8173244605169617
193		1.576484895431931
181		-0.2945004886616188
182		0.24287509331211374
183		1.7394890413251516
184		-0.2136578679213088
185		-0.6353763078906247
186		-0.9407096595554981
187		1.1216911437762471
188		-0.35665724556857076
189		-0.288079898715281
190		0.11546039140306248
163		-1.9420622758277177
164		0.34911339211389764
165		1.014052334023653
166		-1.0365739005120584
167		-0.7520573440514893
168		-1.7211522694819859
169		-0.09467062925446468
170		-0.1692427163494138
171		0.34339186663855303
172		0.5603864940889317
179		-1.6795970218210672
180		1.3377963194825067
181		-0.9755725869306953
182		-0.08070135120138087
183		0.5721171901118942
184		0.5158576174373768
185		-0.228792163978
186		1.1467011193890095
187		-0.5322168832562356
188		1.743818494276288
162		-1.4601037511224788
163		0.3824592402537261
164		-0.9134784121495337
165		-0.6413115531424111
166		0.032325940461570016
167		-0.23938635462308824
168		0.28667207473751966
169		-2.3934143958818623
170		-1.1678559772022732
171		-0.24370371918558492
172		-0.4244251820717602
173		-0.7264859686908145
174		-0.11263502049045379
175		-0.422243659735196
176		-1.9376082672151653
177		0.1973926241639005
178		-2.1083029458800593
179		0.2398380639713901
180		-4.893339128537437
181		-3.8759561278217136
182		1.2086221098118304
183		0.47070482077843345
184		-0.2735192536361576
185		0.41486623626627117
186		0.3905910308473617
187		1.4913778157015685
188		-1.053840518806926
189		-1.7991413487465613
190		-0.964444965820011
191		0.05643908946263721
185		-0.42384451341165563
186		1.1690045470841937
187		-0.14145427951323958
188		-0.08660905843153327
189		0.484465817043439
190		-0.041088797974065214
191		-0.42470019435449463
192		-0.6284673093280856
193		-0.568480911544193
194		0.14955422828172543
173		-0.5471611504863086
174		0.7047173493135724
175		-0.6664100007282754
176		-1.4550311396129572
177		-0.4479034705709779
178		-0.1912809363468466
179		-0.6551742365481139
180		-1.8334489017731626
181		0.8963898681444982
182		-0.12821218217281954
183		-0.3098974485315083
184		0.5103318438090219
185		0.34862037159750076
186		0.3952038221105749
187		0.1059284756250489
188		0.06443454889458114
189		-0.40954372550588514
190		-0.29176689208622625
191		0.19028823559978988
192		-2.4351000502752242
175		0.4064040325273516
176		0.4292486057701974
177		0.45004430851528027
178		-0.9955704773589286
179		0.3811794525150969
180		0.4323552275872982
181		0.41018611663441973
182		-0.46663392680448357
183		-0.4940160987691093
184		-0.34974531297102035
178		-0.16792121580245514
179		-0.8482244611516496
180		-0.21284707307331113
181		-0.6476956355607978
182		-1.6346449594332921
183		0.8234152658617245
184		-0.07816266735144636
185		-0.643202567314479
186		0.21415797659449992
187		0.25695932702362595
187		0.05417128595382548
188		-0.8669074845869126
189		-0.3087911856599286
190		-1.0360076263594336
191		-0.06569391510451875
192		0.3595800277411316
193		-0.0441856559549179
194		-1.1925123882186672
195		-1.2713895304258729
165		-0.7158614923203613
166		-0.1316905780764596
167		-0.37529459840518314
168		-0.16896538782788748
169		-0.345557620346692
170		0.7092764751128056
171		0.08851725917137442
172		-0.9698906685473944
173		-0.6368551011260564
174		-0.24942743052375269
168		-0.244367697569519
169		-0.062220289815035634
170		-0.001790917184522537
171		-0.019240166011652342
172		1.1116063152012856
173		-0.41460864624058746
174		-0.09933564790795374
175		2.921647931659583
176		-0.4604036783212768
177		-0.5634167065996692
164		1.21710323351513
165		-0.49868373987069226
166		0.11592601785293358
167		-0.6482626200914555
168		0.3649142124469844
169		-0.6948170900221933
170		0.3222596576956062
171		-1.0119009299775592
172		-0.0686063547262049
173		0.24811832605732956
170		-1.1131145906075115
171		0.563846674276316
172		-0.9169458328101086
173		-0.2819214513080366
174		2.4704218934256295
175		0.4453228246721717
176		0.05243773042681116
177		-0.0007350449353087758
178		-0.03980147699462871
179		-0.767888974402349
169		-1.7258848252357804
170		0.6775725644613524
171		0.10133226080303455
172		1.0034337519926142
173		-0.5210099146419576
174		-0.43424950931383
176		0.0723856523213672
177		-0.5673479288706653
178		-0.6411009818625509
167		0.20874574811125218
168		-0.4352624824077531
169		-0.8727008129318409
170		-0.056600455893778
171		0.15590749889847602
172		-0.4551051663663072
173		0.9890498295410283
174		-1.0589778562424308
175		-0.2133527418316668
176		-1.5143491318172948
160		-0.5350224946944837
161		-1.6025468732639974
162		-0.36391680172121477
163		0.686272363182697
164		2.59751817805791
166		-0.6993058875225114
167		-0.012275245319109234
168		0.16835476203157526
169		0.7947529117097981
166		-0.8998516134878697
167		0.11397887842471294
168		-1.8157002811604028
169		-0.7878537811675529
170		1.2550365322011048
171		-1.0410956268600617
172		-0.24569823570943233
174		-0.9184469161851004
175		-0.912472574884645
174		1.174078784659365
175		-0.11804418155882246
176		-0.6209208243409008
178		0.7016376108289883
179		-0.3243673832924416
180		0.06174765908562435
181		-0.4105856629926286
182		-1.6382772054082106
183		-0.425562249186439
177		0.25363199086169974
178		-1.5706235302309872
179		-1.1558860962612523
180		-0.04275183268923437
181		0.4876690357235127
182		-0.18879325676656036
183		-0.1635467343323518
184		-0.3644197853189505
185		-0.6079688274957228
186		0.2664328463361543
180		-0.0865200187382406
181		-0.28083865470749375
182		1.003177994052469
183		-1.1578911951168631
184		-0.8055649788693591
185		-0.1619640116603779
186		-0.21182135112764414
187		-0.4235310353080885
188		0.26069170831290134
189		-0.7463380845507823
194		-0.48191462035906163
195		-0.4159231548375624
196		1.0026941775592075
197		-0.533650558495924
198		0.05072971977241367
199		-1.2577770206646384
201		2.0586699956808925
202		-0.6673232281838853
203		-0.7884151270654537
227		-1.6906758978053722
228		-0.364066812412617
229		-0.022057761295802263
230		0.6819815506854722
231		0.7248439801816832
232		0.06834894084996418
233		-0.22138298203737006
234		-0.8625182162543393
235		-0.6520420102550054
236		-0.06802445962000545
225		-0.6367771410637793
226		3.0248699872572025
227		-0.8293113884413531
228		-0.9903964044943013
229		-0.23075760719577307
230		0.18738531853650134
231		-0.657209705863031
232		0.3270942250814345
233		-0.07576471781891082
234		0.0658964357660767
228		-0.015862468284778216
229		2.0889231487671136
230		-0.05706052302213788
231		0.9985857347433571
232		-0.08130655656711414
233		1.1791230170221736
234		0.1598270215435633
235		-0.38475376506630143
236		0.0352038983404273
237		-0.8955860466565065
209		0.6590870481442284
210		-0.09004908950519733
211		2.3414783285245364
212		0.11185006503168385
213		0.3810374060402789
214		-1.5896467399217367
215		-0.2242641614418426
216		0.698880767596843
217		-0.07329919657618111
218		-0.22034801817160615
203		-0.5143400415147197
204		0.3191482613516094
205		0.7688695129941501
206		0.1678100430154958
207		0.819813036628225
208		0.0895348235075032
209		-1.2815638380954677
210		-1.769066971696706
211		-0.6652680855978463
212		0.49238097353781496
192		1.4673373565227923
193		1.5724306677083173
194		0.28833723707630365
195		-0.5083636933322386
196		-0.14218016607318532
197		-0.6776468712827958
198		-0.39145553162631785
199		-1.2081576063239272
200		-0.041928498796479544
201		0.19587517898108733
266		-0.4016536471331127
267		-0.33505271527552505
268		-1.0908004474667528
269		1.5877269017269524
270		0.11532903394351708
271		-0.66757469987824
272		-0.1294854361201998
273		0.2523074413269242
274		0.12082105285689591
275		-0.2424395024322239
216		-1.0113950103155522
217		0.04544061797889002
218		-2.8024287450042595
219		-0.2927045439466006
220		-0.7410068668574763
221		-0.47425050599821805
222		0.23242126783277317
223		0.03324656834745961
224		0.5326059707731506
225		-0.7989584961632015
189		0.3959672337944026
190		-0.6865269736560525
191		-3.224520294498671
192		-2.3449800540166836
193		-0.6984401368995439
194		0.5662508405948249
195		-2.9835773971685158
196		-0.43390179333472484
197		1.2590773088710652
198		-0.41965984240381654
204		-0.2162885072096196
205		0.36039644630303624
206		-0.17076228908249302
207		-0.093988213358717
208		0.05820054275960885
209		0.15913533861667867
210		-0.9504766972204408
211		0.08667421184197897
212		-1.212560178694916
213		0.15487563695730894
191		0.02802965351969622
193		2.0971504655312603
194		-1.3007049524325405
195		0.3241728652553693
196		-0.7550567077146471
197		2.546507652243945
198		-0.030760637202221868
200		-0.936817670796029
198		0.01821337378493179
199		-0.6395882412431384
200		-0.07183475830560193
202		0.32418211148550513
203		0.22456170095903577
204		-0.019164606804943328
205		-0.8235844562936611
206		-0.19039223512784692
207		-0.570535638626285
226		-2.0605896851765757
227		0.3417788787161279
228		-0.46406197325356136
229		1.8992756419602403
230		-0.7491834889039863
231		-0.3531399873443408
232		-1.2996054737785616
233		0.36744964510598466
234		-1.0378304022135614
235		-0.13522680407107063
233		-0.7033473386053954
234		0.8470746625242435
235		0.641082671118458
236		0.4382055948067587
237		-0.12648828306129384
238		-0.7501601198294573
239		-0.3102662407124119
240		0.10967065939331823
241		-0.39065088770129597
242		-0.27170769073141204
263		-0.6041770196295634
264		0.808581352581
265		-0.03379282690675372
266		0.18844097167016396
267		0.3525380748531444
268		0.09935195240917992
269		-1.5988624201015706
270		-0.5703466538890174
271		1.0784352907078316
272		-0.511282112849188
235		0.389560053981331
236		-1.37597468754862
237		0.101494779773908
238		-0.408865204114485
239		-0.5379366629212861
241		-0.0887333214488035
242		2.412912185159243
243		-1.2929860755019544
244		-1.2267160034897826
205		0.2514658322018516
206		1.2633858226532364
207		-0.17859434252991385
209		0.6646373521954818
210		-0.5962939715757715
211		-1.0145408307997996
212		-1.2285981136322246
213		-1.0455553746819697
214		0.9406850025751361
278		-0.8947725866053048
279		-0.2698667046597592
280		-0.9740797518830402
282		0.13778387505473857
283		1.4075357452322084
284		1.1192191132407032
285		0.8331877467009874
286		-0.20471083512940702
287		2.153491801305474
237		-0.033176950266424685
238		0.18872914950015157
239		-0.42801388886348735
240		-0.389460264453061
241		-0.7713748738663989
242		-0.4461577494342398
243		-0.15183623971409313
244		-0.33303503530275863
245		-0.5308010002139111
246		0.8718347971196381
279		-0.5169970937352611
280		-0.17733043792576725
281		0.4936414408237774
282		-2.421036403114507
283		-0.8641017963407145
284		-0.47068192336545417
285		-0.881352710991463
286		-0.7675223978636107
287		0.18210941942495373
288		-1.3195871117729079
247		0.17760483492913068
248		-0.3418473963534083
249		0.506091452950501
250		-0.7725926238085096
251		-1.045726477719612
252		-0.2947648195877267
253		-0.7065873316731632
254		-1.3199554722380564
255		-1.108632526913785
256		1.7414884958799524
212		-1.2728059709566322
213		-1.1924145249815499
214		-0.5250342452536915
215		-0.15477583035630732
216		-1.0765752953452692
217		0.025678660271595793
218		1.3171081258099728
219		-0.4153253887869951
220		-1.1025436860522553
213		0.24471982109250076
214		-0.04981704308739867
215		-1.142681514084765
216		0.05636538787630001
217		-0.9012385772668943
218		-0.7160995481135024
219		0.39374560272387643
220		-0.16884574311532913
221		-0.6920410531485733
222		1.048954572802049
190		-0.6319002642701015
191		-1.129942662085209
192		0.8831431696564848
193		-0.083852271520946
194		-1.5822256255761336
195		-0.19561514655647103
196		-0.04144075935494202
197		0.3704685561618131
198		0.8520503269069001
199		-0.7197241766733263
224		-0.39507152601687334
225		-0.5205282130936337
226		-0.43360865129655835
227		0.0687783455001853
228		-0.1354908711181075
230		-0.4190934797691457
231		-0.5525091389265312
232		-0.24633129369862516
233		0.8066375041067441
232		-2.1727609068458857
233		-0.7360678487595905
234		0.3681767135464609
235		0.8057656752505303
236		0.5697333387995429
237		-0.7369589204147293
238		1.9544822188449325
239		-2.9167003490661343
240		-1.1449732148814418
241		0.18549109105977762
254		2.582498545709231
255		1.1010559614568207
256		0.31392907600749986
257		-0.10709956784815221
258		-0.5442731815379231
259		-0.10493738538841117
260		-0.7263646504856198
261		-0.08030111575450959
262		-0.8313836607817693
263		-1.0630879207726112
373		0.1127054818578067
374		-1.4838056466564433
375		-0.29460718281974174
376		-1.0337827891100615
377		-0.3213630832229663
378		0.26636359934660186
379		-1.1004300539227216
380		1.0104707160126365
381		1.735119950719797
382		-0.5593478378695849
249		-0.26812613247632394
250		-3.3848578995252607
251		0.06590325707722787
252		1.5873757596448024
253		1.0378868305909141
254		0.8467171806016963
255		-0.16542481197548178
256		-0.2008991348273788
257		0.5735184877373188
258		0.3291359784120292
234		-0.4946437169325277
235		-0.482042606123192
236		-0.7616255232768822
237		0.303070632394146
238		0.4787571481961665
239		-0.6637644607105375
240		0.005724701024605731
241		-1.2052294732209363
242		-0.09701396941747456
243		0.304780824457768
337		0.9615956824068347
338		-0.11871386250369377
339		-0.4698198950535573
340		-0.6011029604590336
341		0.27418257481340313
342		1.1515416529755669
343		1.6128210136385206
344		0.470962189409146
345		0.10877626441783232
346		-1.7418822597499601
240		-0.478344713067414
241		-0.9974791927600877
242		-0.40868238657605144
243		-1.7138589927957542
244		-0.7391950102523165
245		-0.12239362531618758
246		-0.991288969789291
247		-0.7154477635212229
248		-0.17870364031840374
249		-0.7828429326741878
338		-0.3024394039191421
339		0.3902976509162814
340		-0.36761343737321583
341		0.30238872930997246
342		-1.3307452343399697
343		-0.11051077549311061
344		0.1825401928003312
345		-0.6581017520280358
346		-0.4611246996636495
347		0.026288321108742647
206		-1.030666597375568
207		0.029120632622393887
208		-0.8561038590357726
209		-4.709928354805726
210		1.3260571640287508
211		-0.2482257700533652
212		1.6174077946393246
213		-0.386230415463263
214		-0.2836662382344196
215		0.4111027919104601
275		0.5165725561614789
276		-1.087966857112268
277		-0.9463265158258948
278		-2.1510556003211363
279		-1.7444256775749718
280		-0.2020942847282787
281		1.2741286341303553
282		-0.3913345906944735
283		2.095599784883951
284		-0.06717738116600906
270		0.0321536174743478
271		3.9340698331797554
272		-0.741827913581396
273		-0.846121781830631
274		0.4920777236151561
275		-0.5014576067638112
276		0.4856376702742629
277		-0.2831862841248483
278		0.08733729732117487
279		-0.20435287791634432
398		-0.8211017149238943
399		-0.22016876607092037
400		0.738419772766486
401		0.4228094226499324
402		0.7856289269771671
403		-0.36728586440122024
405		0.6631049627208632
406		-1.2624959547774706
407		0.03530589784282957
199		-0.13733646458294346
200		-0.5010417369389382
201		-0.6290254062094416
202		-0.2018658008386424
203		-0.4441901720076229
204		-0.18398546150087985
205		0.5320726834283751
206		-0.15413218920394606
207		-0.6071037229452777
208		0.10483170338878037
376		-0.7877600932241897
377		-0.13973326802237024
378		0.39987460620934767
379		-6.884394995486675
380		-0.6134277282133975
381		-0.27570364935983344
382		0.3432884104019331
383		0.007446890176681166
384		-0.4688107915813591
385		-0.7429428515089967
333		0.2203702624946239
334		-0.659627592391195
335		2.9158181235294145
336		-0.5484483423665077
337		0.3082975074205806
338		1.159139953010184
339		0.7793184523577578
340		-0.7618659041611604
342		0.3019104394023398
196		-0.6272995380515364
197		1.704335189797708
198		-0.17015053244527667
199		0.40238685819180736
200		-0.9916605225280849
201		0.06384132423264707
202		1.0524235204179508
203		0.1497875128268188
204		-0.060198407425884004
241		1.251959006706945
242		-0.16997572667672273
243		-1.0017894217912575
244		-0.8753359246950659
245		-0.394537132988979
246		-0.7537680034939476
247		-0.7063414611318547
248		-0.3403582554081358
249		-1.2531850699598799
250		-0.9122433400538964
281		-0.8916103205116103
282		0.04060603528754491
283		-0.0305448632990525
284		-0.21747341045627727
285		1.0578600376089953
286		-1.2269435135363194
287		-0.9987140208346816
288		0.2965699597961663
289		-0.2281376992425189
290		0.13704428662015336
366		-0.5725858307770779
367		0.40210085858282196
368		-0.25467586184946717
369		0.024924146940406743
370		0.5618123320401939
371		-0.7374718772487092
372		0.3324845572310909
373		-0.7793114249975711
374		-0.6952635163340836
375		-0.1888821161221606
379		-0.40878569597218806
380		-0.7123243631537219
381		0.43921555318180405
382		1.5422109873897865
383		0.339837985307274
384		0.060285119716631225
385		-0.5459434377519359
386		-0.6898838778667149
387		1.3554265178424283
388		-0.3003636866166102
218		0.28618228420814795
219		-0.5177647432914334
220		0.4152183320366509
221		-0.9173229711672359
222		-0.5941354133443035
223		-0.3019618978238126
224		-0.3972684198051199
225		-0.4792032295181551
226		-1.4382520203933407
227		0.12564274430819153
311		-0.28526729523550515
312		-0.5410743966400763
313		-0.9257847344401429
314		-0.7443538217679478
315		0.1888813548435935
316		-0.40244186880893174
317		-0.40475182209276783
318		-0.459393354419243
319		0.8030411552221787
320		-0.6063493132049623
365		-0.500142621520992
366		-0.9556341693001508
367		-0.6150328357306027
368		-0.6536606255943924
369		-0.4876512567263252
370		-0.3187606943978023
371		1.0907429192137221
372		0.9877699219682929
373		1.1089231901045944
374		0.5511940146935724
405		1.0790653973099686
406		-1.3125787207084292
407		-0.816536900270098
408		0.9974982119282
409		0.10760398125050125
410		-0.4393727052461429
411		-0.1787944064176
412		0.891103693318517
413		-0.3666375750155043
414		-0.09840062387727186
239		0.00390501096484295
240		1.5541057933733213
241		-0.4876864574985975
242		0.08404225097568505
243		-0.8516490972101868
245		-0.844305566385486
246		-0.02745616688523643
247		-0.4539569752843309
267		0.8462239255588011
268		0.40153254093872814
269		1.2591129389962115
270		-0.14395206906831196
271		0.06852902383214365
272		-0.6479472299180387
273		1.3563060711043018
274		1.7087838241421367
275		-1.2579735774081462
276		0.20286123521651653
407		0.3266769078421189
408		1.4363738476970556
409		-0.17948882334183192
410		-0.6126168110664265
411		-0.5090091269688344
413		0.263025140874859
414		-0.5905055316308554
415		-0.04714687599087034
416		-0.2775416157857761
331		-0.5846016761465065
332		1.2675520545850538
333		-0.5949776101847334
334		-1.286998530341981
335		-1.111896810188325
337		0.7986876926738461
338		-0.12497909931882696
339		0.47379601226589707
334		-1.5597712967700006
335		-0.08647008723633251
336		-1.9308146652446525
337		1.042079031294585
338		-1.1105665372151272
339		-0.36731092527522813
340		0.34749265175319455
341		-2.7176743246284985
342		-0.3613085289908119
343		-0.556119620450594
294		-0.16318751449665936
295		-0.9366592812979967
296		-0.0940464657131662
297		-0.2971666888650638
298		-0.058897892147461134
299		-0.013873475314234072
300		-1.0742506514442396
301		-0.9451394372200026
302		0.6218769091594482
303		-0.5884103872405264
332		-0.7434887715926125
333		-0.055713682564092995
334		0.003527988290439094
335		0.8644253192524947
336		-0.3278411403717218
337		-1.4072586000129321
338		-0.5516522792723901
339		0.12008548026568364
340		-2.4539072928072616
341		0.20800258118636086
380		-1.6036834680900849
381		0.664624646195347
382		-0.43640069680166277
383		0.01472670385276897
384		0.3699585510041838
385		-0.18645901436243234
386		-1.3266639290665951
387		-0.26090407739845295
388		-1.4307003543562287
389		0.49895384192008085
229		-0.7814340307051375
230		0.08904766119171949
231		0.8922664945510662
232		-0.19012017034019832
233		0.4748971528031186
234		-1.3237330045290938
235		-3.7485219803330314
236		-0.30866159828410655
237		-0.6919776248478642
238		0.3316355722527624
360		-0.4933591859988487
361		0.2602996713794261
362		-0.7878722565769505
363		-1.725219663477952
364		-0.2695010537315573
365		-1.3393740823287357
366		-0.3982293983196275
367		-0.6213976810301438
368		0.2607451349214131
369		0.35325256518948334
383		1.7240298537821648
384		0.7791957839286539
385		-0.631595819563504
386		0.05220810846518075
387		-0.2566661887403898
388		-1.096955856262502
389		0.053406213161797195
390		1.5838410028882732
391		-1.457063719086175
392		1.411453737256099
221		2.736244271610765
222		-0.43334611017556085
223		-0.7932780156140491
224		0.4845752770514848
225		-0.23675135650691417
226		0.23726533672348823
227		1.418902800071585
228		-0.10668379097708687
229		0.07182358453761875
230		-0.7075040801112477
409		1.4354164148526982
410		-0.5162957067998374
411		0.49726028220803437
412		-0.9440678381354332
413		-0.07685145871291194
414		-0.5384965719608853
415		0.028875653873737483
416		-0.6239901246636015
417		-0.3892779464441242
418		0.9500653908133855
329		-0.9278022936186725
330		-0.20840685827795313
331		0.16162756943985768
332		-1.6514668925551452
333		-0.19672127216995822
334		-0.17003696002736088
335		-0.70082162767041
336		-0.35888595811272944
337		-0.31299645076363564
338		0.15078905643296606
391		-0.5773862382168885
392		0.11843177323683507
393		-0.06804418397725226
394		0.6884925168886652
395		0.25509811059284365
396		0.8486618703644154
397		0.16183214828058914
398		-0.7930198007767538
399		-0.40905472660378644
400		1.052729149789902
306		-0.8301221559557358
307		0.5098167017298858
308		-0.29239718550945265
309		-0.437847563828391
310		0.13042030855823958
311		-0.07251794379536812
312		1.363537033194918
313		-0.22379663270262223
314		-1.692581448666471
315		-0.08162336764697353
364		-1.5362903678435547
365		1.3690916410290528
366		0.229829618148563
367		-1.2054387883890167
368		0.16133882009561887
369		-0.2981814781834026
370		-0.6581878988009404
371		0.03888273827704548
372		-0.8954488336611063
373		-0.559186044830516
412		-1.1397940960715929
413		-0.06750776437053876
414		0.3018963168675703
415		0.19255771970851088
416		1.2204450382652356
417		-1.0701225842941866
418		0.17314185696101136
419		-0.12891986956555207
420		-0.4328774409239781
421		-0.34137856425258084
414		0.630802226551674
415		0.1422079867107465
416		-0.29686661090513283
417		-0.5263086362743135
418		-0.4374004298260887
419		-1.2878706934792206
420		-0.9162523458306726
421		-0.38428435679184225
422		-1.0660501551347863
400		-0.819597196198379
401		-1.3083289066390151
402		0.08490705088791467
403		-0.5562336969348097
405		1.1419305595910876
406		-0.9365878312226598
407		0.2760200997102028
408		0.22775308049055545
409		-0.11441329902381277
325		-0.656166842168034
326		-1.0833267503132593
327		-0.6498141094752437
328		-2.2129090565267377
329		1.131032665810625
330		-0.018724817899592083
331		0.3341498002425232
332		-0.27394072447170176
333		-0.554445260113017
334		0.833622686175869
356		0.1042235363170217
357		-0.6578927828758897
358		-0.15030143232864054
359		-0.3033916243834139
360		-0.3711743552732291
361		-0.18474260743413384
362		0.8410966853761876
363		0.6724896216849096
364		-0.1885027404172094
365		0.725580851509498
348		-0.46228288857886807
349		0.6667603475321536
350		0.4174288669307695
351		0.24200481024887457
352		0.15638342920035378
353		1.3943897665274971
354		-0.4517478730696818
355		1.2290802827574525
356		2.2662365020934767
357		-0.41117301174614024
410		-0.17700211637179014
411		-1.0646032598222888
412		-0.5660514588068211
413		0.8533325429133046
414		0.5969765433779924
415		0.9255630284594454
416		0.17889347756252427
417		-0.6154508669038736
418		1.1247186411145003
419		3.092679833515701
406		-0.4674053525369242
407		1.6427173006606306
408		-0.13394739982616796
409		-0.6501708788744284
410		-0.8283353818285811
411		-0.4072697976622664
412		-0.4286370869247089
413		-0.39145153749136347
414		-0.843970377873486
415		-0.7451574923709494
382		0.011863242730266161
383		0.49413185717911656
384		0.18176939749537793
385		-0.6175410579682574
386		0.5393497975508981
387		0.5693436778090026
388		-0.3997328892524654
389		1.5160061414119723
390		-0.9829881789831654
391		0.5286642981164952
367		-0.4081472957824713
368		-1.0515228659665021
369		0.4889872608454571
370		0.5098836122942019
371		0.11802049475888071
372		-0.8198194213613954
373		0.06515100849229527
374		-1.5716176369482848
375		0.8368416110832861
376		-0.4094098309132528
358		-0.43567338948981854
359		0.06740540951827247
360		-0.07777172398900983
361		-1.526947651554438
362		-0.4239890843537902
363		-0.5340796054258895
364		-0.7344186710258894
365		-1.0593441050033723
366		0.06309919999304413
367		-0.22817306078841385
253		-0.24427716236828603
254		2.8036348534868885
255		-0.8022824710247608
256		0.47090914228932973
257		0.3079252680212965
258		-0.9738643638746576
259		-0.21464839832235244
260		0.09839272327951781
261		-1.1539057338627294
299		0.3962604989456341
300		-2.143296150968106
301		-0.2843899891308507
302		-0.7469574165846649
303		0.1552251617044158
304		-0.31726484301632
305		-0.8099463332728107
306		-0.34827416949533097
307		-1.2096336988034786
308		-1.4237493713579805
251		-0.9129286923217104
252		0.8765696569677762
253		-0.8356444364916255
254		-1.1445399172997586
255		0.18199189491500092
256		0.8674989783311081
257		0.1808875059247062
258		-0.3459258588235153
259		0.07602678318689109
260		-0.46927630755659655
377		-0.8522127941312512
378		0.5205645669901375
379		-0.21978588219848597
380		0.5405895425513298
381		1.9091925015472455
382		-0.7662305468115537
383		1.5137211925342355
384		1.4361662542950897
385		-0.4105264514925339
386		-1.7469875071932746
330		-0.6252798164047896
331		-3.1437072706997995
332		-0.6593145068437887
333		-0.33159930108810626
334		-1.6972147270221898
335		-1.3540026033725634
337		-0.9790067395141231
338		-0.6183603872154952
339		0.6654258707145024
320		0.6324860775401777
321		1.1007637022891488
322		-0.7679289216937832
323		0.07331400730660166
324		0.14883978744522136
325		-0.34450054445585876
326		0.522819720319704
327		-1.174019834587978
328		0.7476494447714921
329		0.8454460594245023
287		-0.7564601286484596
288		0.09302984896121475
289		-0.4522682802817858
290		-1.2726641166557322
291		-0.579309733498928
292		-0.7756338528565138
293		-0.3818212057297366
294		-0.20419693382551965
295		-0.2582087216651541
296		-0.3102565528998935
321		-1.3888818623257924
322		1.8978013261665108
323		0.638986896158661
324		0.28911034888007725
325		-0.3645363894647907
326		0.6915084209353213
327		-1.031984535965269
328		-2.6387723263202942
329		0.4932868733993671
330		0.4408494183509083
268		0.016436969985612216
269		-0.5478163712202387
270		0.5576418147683952
271		-0.41172260952856715
272		1.0764718095284087
273		0.47950720822184834
274		0.08030323123657315
276		0.8077253833133464
277		1.1498900621819474
264		-0.857075815478257
265		-0.3991287596659467
266		0.1619066810613531
267		-0.29605982234260736
268		1.06879839677124
269		1.505248409063971
270		-0.7193582084045556
271		-0.5461024312496817
272		-0.5598074314719345
273		0.9799440541876897
340		0.22643840065015447
341		-0.43294654741079286
342		1.0980733419483517
343		3.064751492265598
344		1.3019278145569604
345		-0.3097001194825962
346		0.031183174865909845
347		0.501335716064585
348		0.546619948100443
349		-0.09976490687313659
256		1.000754586135914
257		0.4861878240163196
258		-0.053310534977220006
259		0.006278863048284253
260		-0.23520316927842996
261		0.3821173048521339
262		0.979489670906014
263		-0.950548845336481
264		0.8364591309492393
265		0.35721449719906134
283		-0.4297882458576238
284		-1.5956707394573135
285		0.8381872421263232
286		-0.587926993478696
287		0.7871011140614321
288		-0.14721727891966715
289		-0.9088929697745575
290		0.06525531263437036
291		-0.0180330084300151
292		-1.0213274109253812
361		-0.27496567751184964
362		-0.30169313716673546
363		1.3974464214537747
364		-0.8213309071701221
365		0.4918682130118009
366		0.7628669989644115
367		-1.5134632897840288
368		0.7141249004460523
369		0.3122701853704497
370		-0.9378499437399701
368		-0.7742487878882145
369		1.8364171844371688
370		0.22969141718764507
371		-0.40173475623772403
372		-0.2353531994164965
373		-3.145739928562209
374		-0.3211482778963567
375		0.31804317039409125
376		-0.9110894570159421
377		-0.7692216596090473
384		0.003745166760224798
385		0.6233067921596778
386		0.40405733568953806
387		-0.7722509327195991
388		2.3676198017581984
389		-0.07842821505427805
390		0.6079619166838951
391		1.736880403057053
392		0.5967863032547777
393		-0.6471292473302832
401		-0.06542543262084993
402		-1.398324917681225
403		0.2172142336256989
404		0.799133379319806
405		-0.5028514603140887
406		2.8280796116019986
407		0.03892472154969648
408		0.6854430478673624
409		-0.6796096465738822
410		-1.550978138352428
255		0.07038916432043206
256		-2.0101286729957697
257		-0.8922762204921272
258		-0.11478336164091706
259		-0.05886394509745985
260		1.1910871742955942
261		-0.3421483920270139
262		0.36122632488427575
263		-0.5496696247296078
264		-0.13505678823229886
363		-0.3162792504603212
364		0.1427242560402302
365		-0.4179872534133523
366		-0.38393259131434193
367		0.17441967624992266
368		0.3596197972706015
369		1.425987657653338
370		-0.6575069466680185
371		-0.7600947245997033
372		0.7743010550353496
349		-0.04407345733159963
350		1.2189903222661767
351		0.010375281917664061
352		-1.067208312436977
353		-0.4552542001817645
354		-0.6505868581903272
355		-0.5226870082643258
356		-0.1518790923412595
357		0.7732744476012274
358		0.5457216120333355
269		0.27023940707238864
270		1.6654411960947069
271		1.3088331458945386
272		0.5707896605373115
273		-0.03322242239244627
274		-0.1475662991788163
275		-0.06220342731796661
276		-0.9256566852376188
277		-0.9098730078338658
278		-0.9488281580583496
231		-1.0084533740970576
232		-0.5175712491627252
233		-1.4187537606067286
234		-0.025607217949799043
235		0.168380543574851
236		-1.5728270039036285
237		-0.2697364270707422
239		-1.0107942410688184
240		0.4563282933766551
246		-0.6235002191102185
247		0.8400932113673073
248		-0.28474093787367105
249		0.6360449379415535
250		-0.048581809371456064
251		-0.5467212054996378
252		-1.8910579283866835
254		-1.418617369129224
255		-1.3011352410070314
411		0.45215546762991426
412		-0.415317335071989
413		-0.07679682098208827
414		2.5531928573110667
415		0.2599502220427812
416		-0.24736831029099596
417		-1.000399694700657
418		0.9865425449251897
419		-0.4584950771498775
420		0.6017454096263789
375		0.22455982332236327
376		0.004419418343339032
377		1.000952854089521
379		-1.0217287739718
380		0.6586154351802241
381		0.13558110547459326
383		0.12945196489073577
384		-0.16489411871317558
354		-0.7405113086981464
355		-0.5276428634054198
356		-0.4135628098731771
357		-0.3566399718619662
358		1.85250917912975
359		-0.5887152656930135
360		1.2240684015793508
361		0.06489981948134516
362		-0.5570960202225119
363		-1.16423082796723
243		0.18446260085412478
244		1.1998196988875487
245		0.5176774112398125
246		-0.09968661531779671
247		-0.35080319886780587
248		-0.0834346162163917
249		-0.04061836964348532
250		-0.5390025653662259
251		-0.15251729951147994
252		-0.3223534584710178
403		0.20293553444419757
404		0.30013273939721596
405		1.2262910540697898
406		-2.777529766502746
407		-0.775622933113572
408		-1.3755134918262601
409		-1.516830673766873
410		0.060961625792961494
411		-1.6521409885990084
412		0.7213571349573962
193		-0.40708367993914046
194		-0.8012079555121219
195		0.08027479969259277
196		-1.1603714185376481
197		-0.20343995919366026
198		-0.222059481498116
199		0.05973114017794862
200		-1.3899645705337262
201		-0.1015824317863
202		-0.522901448778577
202		0.3440092713007572
203		-0.9557352407230219
204		-1.2853420612239093
205		0.2524503524421646
206		-1.6158676762886912
207		0.34476066803672994
208		-1.0288053348523267
209		0.37882503585783595
210		-0.6825949293568391
211		-1.0410857118931915
371		-0.7818988004414952
372		-0.09895466476341815
373		-0.7492367132142737
374		-1.4937224305135128
375		-0.608267395845713
376		0.3663871712730768
377		0.06416110424471101
378		-3.3980472617356243
379		0.06339561434793034
380		-0.22141310166158298
344		0.016637124265503414
345		-0.4160843534581434
346		-0.18048911497129488
347		-0.913477030860346
348		-0.7935907067419095
349		-0.8061024102336495
351		0.129205497572486
352		0.028675163883358376
353		-1.4605280599137367
238		-0.7993274589701017
239		0.13219744104523617
240		0.8292910396394679
241		0.36628246073998755
242		-0.66098491439744
243		-0.39650247835767105
244		-0.6833375113472295
245		-0.2510600952376113
246		0.7269683224511532
247		-0.16072161371837596
316		-0.3621124650848247
317		-1.4181628066653567
319		-0.9676059028726357
320		-1.474879562011854
321		0.1615299681102049
322		-0.5618316686328835
323		1.0147770858926513
324		0.45580419545683537
325		-0.3629284316374696
261		0.616769225500921
262		-1.6872997890609711
263		-0.11705694522228587
264		-0.4782610964838923
265		0.6109330227717066
266		-0.9589787413752181
267		0.2637505383484622
268		-0.9932834215689649
269		-0.5080380758586711
270		1.0677832551525293
277		-1.021756079021588
278		-0.0426138898997093
279		0.06732430227701201
280		-0.11132633158311298
282		-0.9537213910397887
283		-0.16846216770455036
284		-0.42760883170562325
285		0.1387126753098376
286		0.09202405402751417
326		-1.4199561927500552
327		-0.06173201003782548
328		-1.1247373355063637
329		-0.012580932904613183
330		0.3525533129388021
331		-1.4176666373859887
332		-3.551433642032995
333		-0.6839821243793427
334		1.2620222158870038
335		-1.1051967448787539
245		0.943142408708266
246		0.8130311881683221
247		0.24001301581766216
248		-0.4925371698336747
249		-0.06753036183105252
250		0.787433431077093
251		-1.0113085417638903
252		-0.10748866175677695
253		-0.13441047690802482
254		-0.6812088843654015
413		-0.6986552336630968
414		-1.80637374386374
415		-0.45989263646899936
416		0.45015973492936545
417		-0.42485019217235365
418		-0.2116777625061893
419		4.047397604446037
420		1.8224028158771723
421		-0.7955933057166756
422		-1.510444239751699
230		1.4321293266282966
231		2.5492724219774057
232		0.5570755847474304
233		1.1928147230997554
234		0.04180879429128058
235		0.055900445272231335
236		0.056861026055465766
237		0.09256845348958091
238		-0.5700995442489762
239		0.049730992476208456
378		0.10446464455475502
379		0.23773831981895832
380		-0.6517640682779614
382		-0.27764650956835135
383		-0.979476636107058
384		-0.33245214889782515
385		-0.12053064509457495
386		0.5316958881826106
387		-0.5908932303631512
408		-0.3557306116259243
409		-0.042006161976131176
410		0.7618097057186856
411		0.8663731403639334
412		-0.14967386395467192
413		-0.5016612677545708
414		-0.20956060858502476
415		-0.6452032558500777
416		0.45076552104366113
417		0.7712613508886389
352		-1.1325526964545303
354		-0.4503966327864023
355		-4.800810450367575
356		-0.27331072599300255
357		-0.4182072540445489
358		0.06203154669342289
359		-0.6643510866780268
360		0.6351075021886137
361		-0.11556479662397764
385		0.7446994608625183
386		-1.5651142480334523
387		0.2623533732152599
388		-0.3721563664833486
389		-0.9253769816517033
390		0.0443320774781587
391		0.07508913821481492
392		-0.3000604387654206
393		0.38142983692402477
394		0.9479635296964393
285		0.12280302471072264
286		0.19119190010291065
287		0.9123795832747505
288		0.2980462847401162
289		1.0381981044153243
291		0.712877169629373
292		-0.3782112101705572
293		0.15439178370385406
294		-0.8944066377540245
323		1.0910767730386324
324		-0.4447459133295527
325		0.17499176426136684
326		0.20751320840322154
327		1.0194966050348666
328		0.18278505757316743
329		0.34137707605186796
330		0.035852139097503274
331		-1.0567177774804313
332		-0.3198697080951339
283		0.06871997818940323
284		-0.29067480678031415
285		-1.8277713468733985
286		0.9238924643999892
287		-0.1708698836509706
288		0.8949369279073355
289		-0.08805352040260314
290		0.9020720951045945
291		0.04888655908507549
394		1.006469415456119
395		1.0837251839169095
396		-0.212324192042844
397		-0.8576275198268656
399		-0.34779415005617265
400		-2.4617233266364944
401		-0.7713987364648186
402		0.485367681798283
403		0.3958225363401811
322		-0.027620611825492657
323		0.4899845660952605
324		-0.5643579858096945
325		-0.2560325926253659
326		1.895632619089017
327		-0.10229601735867783
328		-0.3157401200339104
329		-0.24667192785012151
330		0.14676337004055398
331		-0.8347061236113968
274		-0.4849318696759025
275		0.15287698168938785
276		1.1476521053432256
277		1.051587569907067
279		0.5009893390077165
280		0.7185555171501468
281		0.5525267392730183
282		-0.8000133272204144
283		1.0104833196557843
374		0.4678903801497718
375		-0.6160975681069422
376		0.7041048009592215
377		-1.186692412032652
379		0.49920123214308837
380		-0.2879102287389717
381		-0.8230110091983427
382		-0.5031309829231698
383		-0.9944239254283277
273		-1.1578641299896932
274		-0.05166885289116194
275		0.7738253937627735
276		0.02712965128276108
277		0.5017102585983026
278		-0.8402671739108335
279		0.5047127627383766
280		-0.7627571001277478
281		0.6071624646691176
282		0.8948144746351296
222		-1.2196525162524854
223		-0.5241526537281727
224		2.2135863419566584
225		0.7650920047690449
226		-0.9950665786516572
227		0.9042031548596751
228		-0.7987152582700204
230		1.2452580767626633
231		-0.9693874547250405
286		-0.29658549683898344
287		0.6335071537445824
288		1.323665238902447
289		-0.3937471948809802
290		-1.1469341692563497
291		-0.609206458705189
292		-0.5867073921093107
293		-0.8611019473470618
294		-0.3228178154360687
295		-0.33866843652792344
210		-1.0299138246630606
211		1.163882976610988
212		0.1193801365012635
213		-0.5938735213830038
214		-0.11643038265909753
215		0.7827497804743191
216		0.7039547918862027
217		-0.23821601120215746
218		0.1398024322115773
219		0.31843703241075055
280		-0.7316035963263297
281		-0.5588200439156707
282		-0.9681690302507072
283		-0.30590736010579006
284		0.17125039243125628
285		-0.5932121337762706
286		1.2052628942506156
287		0.08846558504928934
288		-0.6680476696523596
289		-0.6666634116374175
392		-0.7523009155180259
393		0.483684794928462
394		-1.2923103242313438
395		-0.8198458735230725
396		-0.209825250267179
397		1.1259080907205565
398		-0.6702951362830594
399		-1.122355902083384
400		-0.6748690953832361
401		-0.25445031408665364
310		-0.27229090737341033
311		-0.9397566842060164
312		-0.45511940103647536
313		-0.12666998858704473
314		0.10109761939629293
315		-0.504861904324549
316		-0.6077986288917335
317		-0.449052783763196
318		-0.29927104394971454
319		-1.4674186325571608
258		-0.3092601851546507
259		0.2753181484402547
260		-0.1623756427729959
261		0.6077744429829961
262		0.32832584312656077
263		0.07738365379943474
264		-0.4637013326641627
265		1.09790339777528
266		-0.015636892290561557
267		-0.3792152573638361
248		0.2720439700681779
249		0.8035123130544339
250		-0.3846972172887267
251		0.05776022728069883
252		0.2758746560448561
253		-0.2975273176336717
254		-0.7478908597197348
255		0.18827464852914033
256		0.01946951222952494
257		-1.086566143835453
347		2.0493999685689888
348		-0.5292026058213001
349		0.4809376480767254
350		-1.030898921160422
351		-0.020704405357862568
352		0.05089242253071153
353		0.2603150753861992
354		-1.721636829114919
355		-0.4321984593515709
356		-0.1936966245597481
197		1.2680514953367585
198		-0.5347330538038415
199		0.36179989602816387
200		0.36716365960579883
201		-0.07089760294115525
202		-0.09577119406488518
203		0.36215305104028706
204		-0.7314772498971714
205		-0.8319264259567175
206		-0.6284900046335904
357		0.05710139661146017
358		0.26079845967718684
359		0.9796212636874609
360		1.6797294223964963
361		-0.04582964807071641
362		-0.11414188894920309
363		0.19018960178300046
364		-0.7183712982846007
365		0.020881140651461648
366		-0.2302110454821327
158		-0.14496939906490408
159		-0.7048981506065662
160		0.5560614092567875
161		-1.167457338216353
162		-1.4792765302001947
163		-0.5051310678017531
164		0.7091176130686849
165		1.1688052237203703
166		0.6186510425088212
167		-0.17984994486775194
351		-1.351654371529916
353		0.4358802567497288
354		0.8874323739602087
355		-0.36339750360010736
356		0.19191119411140145
357		-0.3622460605749549
358		-0.4381465846817113
359		0.3409453978824433
360		-1.1132004631866228
289		-0.13045751689734342
290		-0.12080080162854612
291		0.7026938438854097
292		-0.4512442895683348
293		0.9748849908087043
294		-0.04300840908327494
295		0.7935371621366313
296		-0.9058557965523565
297		0.05069488416079099
298		0.24835335603113154
315		-2.072247611063922
316		0.6762231546048585
317		-0.5522762795349031
318		0.9695117267628767
319		-0.004247823979722547
320		0.2711207327067229
321		-0.7967711873504907
322		3.9340411020385133
323		-1.329675816424848
324		-1.2739903148920995
250		-0.42771095655641667
251		1.1953105671444146
253		-1.38619809343152
254		-0.30519225143338585
255		-1.0369480030861657
256		-0.5580348057001796
257		-0.7351945214212435
258		0.10677107240309267
259		-1.0355654965892416
207		-0.8485417419949368
208		-3.6972708035132857
209		0.018145460927786967
210		0.21722737144916207
211		-1.3195276776140255
212		-0.9677216868482232
213		-0.11689468470022162
214		1.597427729627896
215		-0.03590951399905114
216		-0.3897938570834631
314		0.45036169290090033
315		-0.956639623268435
316		0.3552793294425493
317		-0.23583711762074747
318		0.6001300938163877
319		-0.17656825036451876
320		-0.8754527752325336
321		-1.1466794879391113
322		0.12428927461598563
323		-0.17487235528116424
341		-2.2919637309647043
342		0.3737336691667582
343		-0.2515604100527557
344		-0.4049432919399008
345		-0.17354311464046196
346		0.39746651688990964
348		0.19200723960440252
349		-0.5527264328688544
350		0.26514828125504947
272		0.3552286759097113
273		0.3432017738475158
274		-0.09467497077249862
275		0.6120350427332659
276		0.13934634976937912
277		0.4806115306456114
278		-0.26536133962874064
279		-1.3724067183508182
280		-0.630689941624228
281		-0.407925989612413
313		-0.1730036600520449
314		-0.0017676995303162084
315		-0.23300889058330795
316		-0.4938031579875973
317		-0.690933351438691
318		-1.7846831070074949
319		0.46737790970076665
320		-0.1634295796369372
321		-0.5055950064188174
322		-0.3721020765469561
328		0.14135277007559804
329		-1.311347209509685
330		-0.8336957691725134
331		0.15301366820670875
332		-0.14898446206496468
333		-0.6015045692104604
334		0.6018039810282737
335		0.8677417728619674
336		0.03720788313886759
337		-1.7021762974002665
303		0.1345588205841378
304		1.556685145108709
305		0.8062805805786843
306		-0.33190986455944765
307		-0.15111504806836112
308		-0.6150590695869539
309		-2.9819851599201144
310		0.6878678745676682
311		-0.22803508675890147
312		1.1521375071516842
291		0.14783452266369587
292		0.9227917518531824
293		0.022620939741988907
294		0.6716356960228799
295		-0.1328059904628795
296		0.21653539329696977
297		1.6904733322691596
298		-1.1253688651740035
299		-1.065446121395407
300		-1.453046220175164
395		0.39536162784000023
396		0.9977521982299201
397		-0.6311345702104625
398		-1.8225813330039813
399		-0.1990987008983418
400		-1.6025358731638601
401		-0.04723535766694967
402		-0.1668806351784264
403		-5.59960979041281
404		-1.2714675308270458
324		-1.2062048903203835
325		-0.6076096828172546
326		0.5087928220851139
327		0.007573047043921243
328		-1.7476996783456522
329		-0.3684406104379995
330		-0.35190472580920984
331		-0.20642491292670007
332		-0.1751796653029705
333		-0.5010782593325604
211		-0.06807139573822135
212		-0.27055068966240853
213		-0.5818831294106337
214		-0.45609881443591943
215		0.19691858734397227
216		1.582275046402099
217		-0.8989156808824184
218		-0.3166857706238921
220		0.4987024719155774
307		-0.28524594342694326
308		1.9530284814150465
309		-0.4184256495396008
310		-0.15874460648214492
311		0.21518947439448638
312		0.5593850754468443
313		-0.7612951387559246
314		-0.1506100289910337
315		-0.39155478149087486
316		0.684782139743855
335		0.5910083294298297
336		-0.03660879747589066
337		-0.30260737118675446
338		-0.18249108263235125
339		-0.8065108598399855
340		-0.29544603104434924
341		0.434237331137053
342		-0.04742661545314024
343		-0.39612343186226306
344		0.8362979341339791
187		-0.23048474728436735
188		-2.896113402357154
189		0.022901189077640462
190		-1.4914822106885037
191		-0.0466312853886663
192		-0.08232034986912691
193		-0.3919003899075902
194		-0.8297140261884074
195		-0.09290128794131057
196		-0.9079401770642906
259		-0.8180461324338709
260		1.7066548824169676
261		0.29070536395305707
262		-0.05379597726107742
263		-0.5366878151132431
264		0.46219280887349024
265		-1.1662245245324567
266		-0.4798485114630342
268		-1.07270231336608
397		0.007258644983334218
398		0.5794226724236331
399		-0.25031738334946
400		-1.2039845518038204
401		-1.2966539989352999
402		1.489123809989785
403		-0.769614453981925
404		-0.016895185787987158
405		0.8423938162026919
406		-0.40851562820017856
346		0.25198559003630894
347		-0.6865668447337315
348		-0.5141278063212391
349		1.164021771485339
350		-0.38668564576659303
351		-1.1970652237740382
352		0.37150824995929255
353		-0.3746862692265072
354		1.3597862748139176
355		-0.6908566681497791
297		0.7805515956354954
298		-0.2631346921866033
299		0.3265898545775737
300		-0.6380595210106219
301		0.17299445183710813
302		-0.1972449211948125
303		0.1884230813372567
304		0.6461875296474535
305		0.6256698677792454
306		-0.9654692241924341
214		-0.2710635439850215
215		-2.4859289481689886
216		0.34189745749772676
217		-0.22383058099489822
218		-0.16068428652103814
219		-2.3877456775588146
220		2.9076707249813483
221		-0.1051720136504132
223		0.03611061364215494
387		-1.7352415030778139
388		1.6258066804483478
389		-1.0155941743946313
390		-0.840534983977995
391		-0.8072787446420564
392		-0.1674482963055975
393		0.5477680733054839
394		0.5100552106898266
395		-1.803490004254397
396		-0.4443094124501307
386		0.41311351155060155
387		-0.011111277619009628
388		-1.059868588565835
389		-0.43028885033907066
390		-1.5806945655111766
391		0.12049760716923598
392		2.578057496841614
393		-0.8209315028294794
394		-0.06649672605476459
395		-0.0056058897565945155
292		-0.10849702857462218
293		0.2642187759313026
294		0.7181636423876925
295		0.29773925394416406
296		-0.34588801161639227
297		-1.098568231871672
298		-0.18715706027611362
299		-0.22470747233543847
300		-0.018460378516779678
301		-0.40861882770810176
343		-1.0688435610267328
344		-0.4868879952200781
345		-0.39500959105867806
346		-0.512825386617957
347		-0.5073906704015412
348		-0.45792486286302225
349		-1.9633093464544589
350		-0.2272788155558018
351		-0.8316891191149206
352		-1.1711667557221257
217		0.9537628440942852
218		-0.147581128894759
219		1.9249009571871882
220		-1.375732493602559
221		1.1786555329509645
222		1.1045032926609348
223		-0.17664397160530904
224		-0.7142832749870345
225		-0.07632818263772304
226		-1.4122964442506862
293		0.12245865688785182
294		0.028093027098697477
295		-1.212464916085798
296		-1.0458047488318118
297		1.3824853626346634
298		0.026727294945065625
299		1.1962951092022682
300		0.2274731131435343
301		-0.2841788315768578
302		-0.4070219275468816
396		-1.1121327886062706
397		-0.32052763993131167
399		-0.20439319809959203
400		-0.36732627485464325
401		0.17671710678908314
402		-0.4166888711932464
403		0.16924673558471506
404		-0.6216191037289074
405		-1.1176792839123153
327		0.046893308489200994
328		-2.0601007479637388
329		0.15727755133395405
330		-1.211605906812165
331		-0.7235125527094024
332		-0.4264226578190175
333		1.0439367730217788
334		-0.3081313021814787
335		-0.37668427658187326
336		0.12032318985676006
262		0.5103764693369327
263		-0.0768495749096891
264		-0.42164723170419
265		0.8263818846444536
266		1.384267632988882
267		0.8495260948006145
268		0.19047498469453
269		-0.13600857113045045
270		0.7761235941741977
271		-0.6974026404097003
370		-0.37516789602302425
371		-2.231774231454168
372		-0.8967154568401341
373		-1.3001313767943599
374		-0.6303094670886257
375		0.515569647368391
376		0.9022744839675553
377		0.20755516661568324
378		1.0416534867003755
379		0.27193450840627054
219		0.4884791128369282
220		0.5243351448687478
221		-0.4813652573270269
222		-0.06747070657531672
223		0.38539915283176174
224		-0.006734469455702271
225		-0.9416244744176521
226		-0.3514955018083754
227		-0.22103294181613214
228		-1.035419588799853
350		0.5856608543337262
351		-0.41959607744477767
352		-0.3248575202666568
353		-0.6240705734708586
354		-0.09334730029297662
355		-0.3190165885998053
356		0.3616650612872938
357		-0.5604730191211603
358		0.9217411754906372
359		0.5311117245187167
345		0.22359037119724334
346		0.09178161040356983
347		0.7798606588053866
348		0.6367659415766781
349		-0.08954346866892887
350		0.3813057746945064
351		-3.1648758162850377
352		0.7077725180634963
353		-1.1603709737005299
354		-0.15941448855696022
402		0.039832794905865845
403		2.226381099408956
404		-1.184455419309336
405		-0.12952850173783467
406		-1.3438161168384348
407		1.2880796392370106
408		-0.5226761613252868
409		0.00949177225596316
410		1.005639962164163
411		0.03822218253575247
353		0.7909324520072566
354		-0.5542165145361835
355		0.08684301550444237
356		0.7969052800117087
357		-0.5252667873857974
358		-0.21680439643007313
359		-1.8321636839993818
360		-0.14436170749161475
361		1.8602365467017117
362		-0.4045824857582672
312		-1.4049299193212679
313		-0.933922589275467
314		-0.7840996722140774
315		-0.07240962020004618
316		0.46702110636008665
317		0.4891676362906351
318		-0.37421682028233705
319		0.12941333424454843
320		-4.691747729684234
321		0.17835266374464825
393		-0.04275009709529259
394		-0.5207969665665058
395		0.5468989613465418
396		-0.23357809234888527
397		-0.29225700296435947
398		-0.7697287608010724
399		0.33251131064591277
400		-1.2469315299026318
401		1.183432296305475
402		-0.7254037321829038
295		0.04092235703303383
296		0.8745679843645684
297		-0.34809080322009367
298		-2.1199336872762102
299		-0.056880424351922795
300		-1.460761568684712
301		-0.5920740650107579
302		-0.19324638425574733
303		-0.641718292196616
304		-0.2642912383826541
215		0.5900651274639921
216		-0.48433661808843587
217		-0.7398158212146295
218		1.354087004975458
219		-0.17388410515111238
220		0.6026069623430759
221		0.11483391057944481
222		-1.1167591467975777
223		-0.21464853067436088
224		2.953867447487779
336		0.2723672804331923
337		-0.047095732716614186
338		0.8765078388525513
339		-0.4328088205475527
340		-1.0839566625691408
341		-0.4812738738441371
342		-0.7888477006407513
343		-0.3136390593291581
344		0.5938265682441167
345		0.7156306309488338
318		-0.5981645809490628
319		-0.8271987142747597
320		0.012019400937113116
321		-0.7806876206854648
323		-0.6829499223278191
324		1.9000274699830182
325		-1.1186524234757333
326		-0.4222492295166135
327		-1.1520997781355473
319		-0.032115758884595676
320		0.08412390636673325
321		0.35358143107069345
322		-0.13745556105842
323		-0.5195439174595622
324		-0.20476103295259876
325		-0.3602146053644567
326		0.5371502609113962
327		0.15538484867278515
328		0.04859914551787551
362		-0.9668461741797987
363		0.37567276210702455
364		-0.9944946060913182
365		-0.051952206102344314
366		-2.640373828969995
367		-1.3077059454670101
368		0.5243511787505867
369		-0.22929996640171768
370		0.6913700280239925
371		0.6704603916775018
244		-0.6786731647136656
245		0.48998805518860505
246		-1.034412739897336
247		-0.6217524983025235
248		0.2410145036293009
249		0.18759920617192552
250		-1.6115270194992741
251		-1.4686149521927274
252		0.3033933381066981
253		0.4353855222118528
301		-0.1330537692910231
302		0.5343214906553231
303		0.02261147758065591
304		-2.3483611131522544
305		-0.7706789590129534
306		0.4604580193388309
307		-0.132112560345139
308		0.1702688863149348
309		0.3792669290111713
310		-1.7338050291976896
389		0.28986372462882265
390		-0.6800306029424137
391		-0.6153368516891038
392		-1.0148344173380637
393		1.748391229830439
394		-0.7466977276722554
395		0.09899798957299241
396		0.7686574890914948
397		1.0404473089468211
404		-0.7659816243455514
405		-0.2657901198238531
406		-0.02450226615750139
407		0.06217782149116564
408		0.385996463714193
409		0.07688224772778472
410		-0.6562105928138943
411		-1.1302636626560612
412		-0.4319519630651291
413		0.5897667416932266
355		-0.8887326577351728
356		-1.2216035850450655
357		0.05064507512716835
358		-0.9362233222147366
359		-0.7365711637520307
360		0.1560821294710056
361		-0.349714449748617
362		-1.0800705199175216
363		-1.1112883851723951
364		-0.34287227240760537
242		0.6946795132505236
243		-1.2787639455499342
244		0.44659398951716217
245		-0.8038129042989043
246		-1.9305205143600608
247		-0.07556290654324968
248		-0.8395631143318104
249		0.782850022882326
250		-0.4596220350163285
260		-0.11684378891385985
261		-0.38889021433088083
262		0.004351119667295919
263		0.24281105115442228
264		-1.0768922973374149
265		0.555017897618391
266		1.4867851739911822
267		-0.9101502469974615
268		-1.4059340927889352
269		0.4573911183398077
369		-0.6493466510195733
370		-0.08167249426479428
371		-1.1383673805924766
372		-0.6763591325658194
373		-0.6429437452726463
374		-0.4092875060145396
375		0.6345245032869901
376		1.3798593526796539
378		-0.8733695183714534
298		-0.6861428674062706
299		1.0669338450712653
300		-1.0406933817581199
301		-0.20961109878960157
302		1.429629039187781
303		-0.7185374724706826
304		-0.6392310826977979
305		-0.17672048083789335
306		0.12617253914271193
307		-0.8863136214889771
388		-0.9201816665397606
389		-0.5892252279909131
390		-0.00732895573514806
391		1.209430760962509
392		-0.5802565033721335
393		0.9172736831104177
394		-0.09948323436666301
395		-0.3546430524720083
396		-0.08136631680725552
397		1.5930021103559766
265		1.3734102675461628
266		0.24766672669538034
267		-0.7592831054554684
268		-0.9056454705173267
269		-0.7614256100039104
270		-0.21233899258311098
271		0.13789518149000526
272		0.39513119454221735
273		0.7344436246714254
274		0.5105423256818707
372		0.3265021469927445
373		-0.15323736261905002
374		-1.2099281769957946
375		-0.2018424645389911
376		0.7170876271686846
377		-0.9095223051861331
378		-0.18582919382043805
379		-0.2923361244555627
380		0.1741336922976205
381		0.7101494557159362
220		-0.6230430301656927
221		1.2906252291083247
222		-0.5930391119832863
223		-1.1697867004144058
224		0.28694267828238934
225		0.3076037646785989
226		0.14754931105044347
227		0.13256404073441302
228		-0.6514011942061707
229		-0.843372802795294
188		0.2939765253832609
189		0.939951202207809
190		-0.4332850875729751
191		0.13049575114844358
192		-0.8348427802885319
193		-0.6082845265891041
194		0.5485841089425498
195		-0.45721946045558776
196		1.6779242044545053
197		-1.3090340500869613
381		-1.2009559700882444
382		0.3515725397958468
383		-0.15318823337612872
384		-1.7628837281154786
385		-0.19183455317603199
386		1.0581877686488232
387		0.0389081676956211
388		-0.3807144537099408
389		0.9266691477511583
390		-0.17389580900180787
276		-0.26851481676881706
278		0.24891629664161263
279		-1.8179680347618543
280		0.9794222896664075
281		-0.7156992265872004
283		0.0061388715068151755
284		0.1374146585280785
285		-0.7810391559109529
257		-0.3711519979734052
258		-0.4314039086786728
259		-0.18464624986498387
261		0.2710995349489363
262		1.3572820346402124
263		0.04374263448381564
264		-2.1806523498466133
265		0.33475833814573713
266		-0.688992701794143
302		0.6011857188746733
303		0.4655690450607296
304		-0.46728507951091214
305		1.8662363412832863
306		-0.9578129865610798
307		-0.08317741824886228
308		0.14097182944827746
309		2.048953208022494
310		0.39794993562542647
311		-0.29984540958028943
390		0.06690747584368152
391		0.9236002621402476
392		-0.20053695687136128
393		0.30632469321925104
394		-0.646121495912404
395		0.47403188197700385
396		-0.019163449150136055
397		-0.9586613505915738
398		-1.6071719850869566
399		0.35093073670377267
296		-0.41413223630077095
297		-0.2962205820605328
298		0.7068778598365649
299		-0.8093681706839023
300		1.1464700867563296
301		-0.10765253046270698
302		0.5154847202094934
303		0.1287497445965132
304		-1.3544798762535395
305		-1.7663522380561043
252		0.4804397046234797
253		0.3716991570797952
254		-0.6742328243463963
255		-0.8107921223829102
256		-0.42245197007561464
257		-0.7063543609932371
258		0.2246562438137722
259		-0.531913011895067
260		1.1512509887078552
261		0.5090948839315351
289		1.2261547535269406
290		-0.3989399652000378
291		-0.2498171932932835
292		-0.7450472034574195
293		-0.5971687486105025
294		1.3023932078797866
295		0.4584555308424875
296		-1.0670708721350772
297		-1.7945266869495378
359		-0.5000637477382992
360		0.16349235960421749
361		0.7627707026064959
362		-0.2969071478538393
363		-0.6381570968028661
364		-0.43677348967383306
365		-0.5868705634293175
366		-0.8801020036845265
367		0.0963791875685825
368		0.7826800527233693
309		0.8510315689614292
310		0.4763110829834158
313		0.18529884544177402
314		1.0736081377403963
315		-0.12269438403004217
316		1.8001420793241845
317		-0.3446238913377696
318		-0.8945593319711297
300		-0.9770941102942187
301		-0.010544453299037535
302		-0.7712374991127181
303		0.14186147638725044
304		-0.976379422750139
305		1.2966768875080494
306		2.5952508851667524
307		-0.46155168381728406
308		-0.2905807138044735
309		-0.9756048394720372
399		-0.850598866856275
400		-0.15538874496442376
401		-0.6759862328806229
402		-0.43031508668872015
403		-0.39060670108833745
404		0.7138809583984893
405		1.6441470257043116
406		0.9788204164188455
407		0.6537723664270854
408		0.3843723787408688
339		1.7065561044982918
340		0.17813366224029703
341		1.2068348228094097
342		-0.845938692078103
343		-0.16977605234261944
344		1.7733995568525036
345		-1.6131308300425504
346		0.5101824290638051
347		-0.3470219613507493
348		0.956113297844866
317		-0.8436141290721106
318		0.21286729256478953
319		-0.5151733349286621
320		2.2269007505160636
321		0.7096418556406621
322		-0.008718014832312878
323		0.5557624485097745
324		0.2633507986453929
325		-0.8008831901146084
326		-0.3799879119917042
200		0.19543601637302072
201		1.9826241897545327
202		0.22830143760902255
203		0.12513520891803545
204		0.5332576529233075
205		-0.13826850224666898
206		1.2551632184457857
207		-1.7016869743407168
208		-0.9399399718434983
209		1.585336125089823
304		0.3160398808350942
305		-0.4982779430242226
306		0.06508460278985628
307		-0.0544326352435644
308		0.925581767782326
309		-0.30681350581965117
310		-1.6247059945632925
311		-0.5921672671460062
312		0.26169803517716955
313		-0.8698928143071295
305		0.5911467070827382
306		-0.7174339230055394
307		-0.11448680459856678
308		0.0059718231600073245
309		-0.5529151016017799
310		0.025228999760929165
311		-0.3108086364829065
312		-0.8861897386861305
313		-0.29312998579569327
314		0.025383492018701107
201		-0.20419079338316873
202		0.022616826675027006
203		1.1483066936535593
204		-0.9632068510388065
205		-0.6899994593375444
206		0.4084880755990248
207		-0.6296984899181807
208		0.5120705204250839
209		0.20132619542635158
210		0.01743546390477833
208		0.7250755090984549
209		1.022125346732816
210		-0.2454488595126739
211		0.8536089930296871
212		1.9805914053296425
213		-1.8552605977756886
214		0.30763537958936765
215		-1.079535214972374
216		-4.215943569809678
217		2.319242235245149
195		-0.3133933756645682
196		-1.1676944795638011
197		-0.07005578853419889
198		-0.1236326936362936
199		-0.16127584200069553
200		-0.8151856785481694
201		-0.7704380827103421
202		2.5512679712214577
203		-3.6173257709396256
204		0.101228485390016
236		-0.028507889555191068
237		0.3901631635536413
238		-2.6155168035872096
239		-0.2693456587144141
240		-2.0245992144456952
241		-0.5808070725251261
242		-0.7868035377727961
243		0.803462237897321
244		0.4319125047543086
245		-1.0508455570333621
284		0.08977856094487957
285		2.547520069354184
286		-0.07832494462635244
287		-0.8524097272527424
288		-0.16994413865438923
289		0.2053512299757291
290		0.06467161228647371
292		1.2734405983697819
293		0.3513370359144201
309		-3.517545013691484
310		-1.0439418732614067
311		-0.9252245792563842
312		-0.18759211068735923
313		-0.7959352145412821
314		0.6192909136459065
315		-0.06788946360449447
316		-0.30495963465919096
317		0.014148129820593396
223		-0.44881829521727906
224		-0.6888899449096085
225		-0.8127445501202656
226		1.278071800638809
227		0.0442295774599
228		1.3715378321359735
229		-0.566217358280341
230		-1.370605598645175
231		-0.8200637224229667
232		-0.3821568082839394
290		0.08624525173671659
291		0.1149652120923588
292		-0.6878474864718411
293		1.1248337932179195
294		1.5503213239857225
295		0.6890925233853492
296		-0.3933477281500067
297		-0.9031145989666025
298		2.5289409052874423
299		0.9389577440469519
342		-1.5989661014468208
343		0.7105766653760612
344		0.9685662572388651
345		0.09638749681541393
346		-0.3941397366515055
347		-0.0038745604385123185
348		-0.4560389912283807
349		-0.2507569729862202
350		-0.3675318719076639
351		-0.6854532610021208
449		-0.2979375008230987
450		-0.6483068268526099
451		-2.086941038912333
452		-0.1650845891566245
453		-0.9005695346253018
454		-0.9406746118239615
455		-0.37416233280878475
456		-0.19591034764626128
457		-0.6035016015376161
467		1.1228947843694428
468		1.0556442564591921
469		-0.02142614595939439
470		1.4754599207214507
471		0.05914927626634894
472		0.07280863812924235
473		-2.22379726183743
474		-0.5644517751753149
475		-2.353175453940726
476		-0.09843458305151
426		-0.7145540769135267
427		-1.0411560564943227
428		-0.6613822422396659
429		-0.2557358499242201
430		0.6040344199709589
431		0.20616786943298687
432		-0.9171640090134464
433		0.15079743909848273
434		-0.6265480006441223
435		0.4220995706156181
483		0.597308531578471
484		0.2262417651593142
485		0.78686288365234
486		0.7917081173867898
487		-0.16290072664413083
488		-2.443774708706168
489		-0.08028964661262558
490		-2.605956237856276
491		-0.19167917617677255
492		-0.21428220211620427
479		-1.3500942262988542
480		-0.5423668307096715
481		0.048428205654197365
482		-0.4460764982868625
483		-1.496191538315516
484		0.1889173342635311
485		0.923012090429132
486		-1.6081468923136708
488		-0.0552503497358112
470		-0.325767743850574
471		0.4405090846530964
472		-0.9943541719925603
473		-0.40983450831507506
474		-0.010074337658490017
475		-0.10521629820609436
476		-0.7221228001826355
477		-0.8976927779514121
478		2.0568166932931127
479		-0.5444207749779602
