2320		-0.0005750441740826516
2322		0.4348952115585085
2323		-0.08451782915756918
2324		-0.16813994072999994
2325		1.1541928099436238
2326		-0.0506570557063102
2327		-0.15133634276471916
2328		-0.48347053046877114
2329		-1.1253111804554892
7150		0.4670243898566405
7151		-0.2111538642663255
7154		-0.5149626549628786
7155		-0.36892487540301555
7159		-0.5725467154941052
4591		0.566234733977171
4592		0.24108257793508436
4594		-0.2122327233519087
4596		0.48880499696950563
4599		-0.49657704668302255
4600		-0.23871958372105895
4602		0.3375535368336203
4603		-0.5696121100663593
4606		-0.09374100407642033
4608		-0.21874787718933222
4609		-0.0963505670934971
3102		-1.196864989862096
3104		0.6558899675363016
3105		0.20966364308501853
3109		-0.820870863798318
2830		-1.0271724708182284
2833		-0.4497409701984217
2834		0.0028201473558117033
2835		-0.17261552262008176
2838		0.6105563719948908
4782		0.3224207026634413
4783		-0.3854222787040116
4784		0.01698121588191734
4785		-0.35209650815834936
4787		-0.09308475611183879
4788		-0.28160247586415216
4789		-0.002533676193939471
2771		-0.016873053522136267
2774		1.431823354003847
2775		-0.5773614076236449
2776		-4.079865029668453
2777		-0.5282738524994421
2779		0.6071642479015559
7651		-0.015215902724540343
7652		0.3490627427645105
7657		0.5428538614747895
7659		-0.49913317438067345
3540		-0.5892945857914698
3541		-1.0000190943121092
3544		-1.0696924279288174
3547		0.5234222053032624
7592		1.4003800857068294
7594		0.14010154527865526
7598		0.5163007939985802
7599		-0.41369955271547254
2200		0.14487037979643638
2204		0.8833528968214984
2205		1.4007285467493493
2206		-0.8990904462398588
2209		-0.6769384216769139
7030		0.1261750797781922
7031		-0.7977245581423624
7032		-0.5070364333520886
7035		-0.8567811245733532
7037		0.17119432114830643
7038		0.05569730064057106
7039		0.14900360986065786
3270		0.25582247606163905
3272		-0.670825073766027
3274		-0.006585231423161252
3276		0.6135794217536402
3277		0.527712286087196
3279		-0.12322395211223025
7165		-0.24895692357008453
7168		-2.0365503934934104
7169		-0.6075716931802764
2330		-0.29024101405374697
2331		-0.23377285907559037
2333		-1.1865654310483242
2337		-0.1289776457407666
2338		-0.03470337071580266
3070		0.5548766303292846
3071		-1.2864572660515339
3074		0.006273951314372153
3077		0.37576313260601907
1732		1.4041198628065639
1733		0.4997370310192008
1735		-0.44742569150939104
1736		-0.31400443187545135
1737		-0.06681489148057723
1738		0.39037328290637824
1739		0.30573029007729285
6560		-0.977875095106689
6561		0.48426235085193065
6563		-2.4753231540368117
6565		0.2806259347795061
6568		0.23621260081239492
6569		0.24193078598917805
7220		-0.7620697469335985
7222		0.05021522651876315
7224		-1.8690115316840719
7225		0.07880907640916755
2390		-1.7041994249628427
2391		0.26706798469869886
2392		-1.2898267635413985
2397		-0.10216156354791271
2398		-1.4839800053650962
2850		0.5853392539511824
2851		0.5041816179934924
2854		-0.6643186835063625
2857		0.11108832560140981
2858		0.5975111969916408
2859		-1.0108023724150303
2440		-0.8629502667922827
2441		2.23906757182155
2442		-0.16413137423963975
2445		-5.114539209417302
2447		0.5083760265899606
7275		0.2187565869765897
7277		-0.5436738308092447
7278		-0.23930682153478508
7279		0.6740216990513663
7024		-0.5667421928756289
7025		-0.04131618803430511
7026		-0.9070826664216333
7028		0.16719787330178754
2190		-0.3590781305441727
2192		-1.0140172006760158
2193		0.03415720118565945
2194		-1.0883291367523604
2195		0.2850221713228834
2198		-0.1546458502391479
4010		-0.36665485346120186
4011		0.2822378657223075
4012		0.18531813279757928
4015		0.04636118582034723
4016		0.6195529267194482
7884		-0.3881980175418344
7885		-2.147141986875527
7886		-0.8754237085843005
7887		-0.024823544804513945
7888		0.7551835521443597
7889		-0.1637883714351006
7911		-1.125463575702777
7914		-0.7253405178723471
7917		0.8621993858327599
7918		-1.179196822399862
7670		-0.1005332620509755
7672		-0.4842441412677545
7675		0.1529528916434865
7676		-0.5246252514295516
7678		-0.9521148228289545
7679		-0.3953382900534556
4000		-1.5072456334798832
4002		-0.15399744563558973
4003		-0.5124640545930608
4005		-0.55120322846832
4007		0.34585221194989657
4009		0.8531498089758857
2930		0.41644883210832406
2932		-0.1463984805146341
2935		1.2623562262683234
2937		0.9557684337833838
2462		0.21812487034354547
2463		-3.2265669490948232
2464		1.3448909903115736
2467		-0.4574099985864066
7292		1.327324527693804
7294		-1.2275377094698896
7296		0.359598903145867
2780		0.0857168198986678
2782		-0.08668291774440623
2789		-0.5522834428451378
7600		0.736930902669125
7605		-0.8958684234319967
7607		0.3570159505345151
7608		1.3359759643129332
3882		0.21605911721273055
3884		0.666293487117956
3887		0.7400588400765448
3888		-0.09639123009392492
3889		-0.1734919186795654
4340		0.15900858246210953
4343		0.15996725327764122
4345		-2.309516478880454
4346		-0.05243426368745593
4347		0.38275115919719904
4348		-0.43954641731277944
3491		-0.4545928941435515
3495		0.23601060435884041
3497		0.6530029988351934
3499		-0.24879754438434526
7503		0.13120041997452125
7504		-0.24009090179223086
7508		0.03333811800351971
7509		-0.08020176843663206
2680		-0.2769515547842714
2684		0.23326657494885117
2687		-0.5387404813450547
2689		0.7220143235590838
3741		-0.2446195471794199
3743		-0.7145378629208435
3745		0.0656781139824208
3747		0.657958087351837
3749		-0.4780256240569184
3781		-0.8287086080469747
3783		-1.0233996803151217
3786		-1.7061106512878437
3787		-0.833458927015311
3788		1.4783243609549939
3789		-0.3191944058742933
8074		-0.5047040663021968
8075		-0.18505103116689695
8076		0.6526341147624558
8079		-0.8564791830498557
7214		-1.345519859503114
7217		-0.47911108807868286
7218		-4.021661030433407
8331		0.000767320028763851
8332		-0.4928526720134507
8335		0.03919595514682242
8336		-1.6803676496928326
8339		0.4363070971721593
2380		0.234536916925668
2381		0.594980417211004
2385		-0.06271410262689629
7741		-0.2202195365547272
7742		0.9004990968991661
7744		0.8381496450085189
7745		2.9258369344702326
7746		0.1204352857793155
7749		-1.5000968805167643
4106		0.11122540115177687
4107		0.9035425241522249
3610		0.9921449660031346
3611		-0.4022276753814915
3612		0.06727250466014538
3615		0.9217283172419147
3619		0.6404300760361396
3840		-0.3531801480266682
3842		0.3304440491710734
3846		-1.619203070558029
3848		0.2945876455166121
3849		0.9431052334056749
3190		0.417633172990271
3192		-2.836916343503123
3193		-0.04232961830521959
3195		-0.048966961198916366
3196		-0.7786953858384891
3199		0.16531482693578883
3580		-0.1866325215607979
3584		0.25220810335223215
3585		-0.25441450370746427
3587		1.4471008406242885
2630		-0.036699484503804856
2631		0.281782098331281
2633		-1.1537624761333853
2634		0.12738645212755592
2635		0.14901568304759014
7460		0.31687538716996455
7463		0.3998776963640887
7465		-0.9829618472830269
7467		-0.18200102361340456
7468		0.011489394499803974
7469		0.08174210917732562
3620		0.12115208773780335
3621		-0.32653495947576444
3622		1.0937470230558912
3623		0.04676829244091834
3624		0.07065953152542094
3626		0.029199606920743092
3628		0.23967510417153795
3629		-1.2469396309510807
3200		-0.3782198205366227
3201		0.56202400492512
3202		-0.054527981820733165
3204		0.6167234651695301
3206		-0.12836568345323748
3207		-0.05673076877961198
3209		0.7526756922119023
3530		0.6626699116473853
3531		-0.6182329884244383
3532		-0.09049934130639001
3533		-0.08138985107163603
3535		0.35989755445197896
3537		-0.35778324347014423
3984		-0.10130634014443372
3985		-1.0855840299217017
3987		-0.3819945255554964
3988		0.25122407459960455
3989		0.8482842356014102
3590		-1.5444195255766482
3597		1.4022920801158896
3598		-2.024960969230553
3599		-0.37554066774185646
4190		-0.7189196623070013
4193		-0.7398205467111851
4194		1.0180392694414038
4197		-0.3879431471816688
4198		-4.963024696425384
4199		-0.03552576097847988
9362		-0.08967642166362719
9363		-0.14252868917978417
9364		0.4380520123356557
9367		0.670643480916042
9368		-0.13711362537902475
9369		1.6757436460072466
3750		0.13996646547426767
3752		-0.6808267260806221
3753		0.5292224110610224
3754		0.08094991057992439
3757		0.7528449851860584
3758		0.2725167752472969
8280		-0.3293993561758115
8281		0.9596232603138548
8282		0.08301115875479377
8283		-0.048965162868933626
8284		0.25618224572123904
8285		-2.788843291736949
8288		0.5656041128557044
8806		-1.4755589684378594
8807		0.2319854512038463
8809		-0.08624839290737146
8000		0.3752790580922019
8001		0.39744293607082487
8002		0.29385611955254853
8003		0.2044654326145848
8004		0.4424627858389233
8007		0.12695395823293487
8008		-2.730207940726787
8009		-0.20882356996784024
9370		-0.7864992426176797
9373		0.6462454397573902
9375		0.6564527017936342
9376		-0.11623767456239026
9377		-1.1623214052253643
9378		-0.659060973405787
9379		0.09356040182464448
8530		-0.30295238270878017
8531		1.473553004190432
8532		-1.3316084415283274
8535		-1.07140203750858
8537		-1.6352515039107522
8672		0.48674593841422714
8677		-1.765652321037955
8678		-0.019192800586343664
2601		-0.6157632193433037
2606		-0.3507237291694682
2607		-1.477826549940241
7434		0.2391436928877866
8370		-0.5041887431803302
8371		-1.2107543248624142
8373		-1.2917187191249797
8374		0.19590218461770195
8376		0.2867619021910456
8378		0.06066677848574348
8630		1.0098419664961433
8633		1.78121115165269
8634		0.6072258295922732
8639		0.06535273656681281
8011		-0.5611467773146419
8012		-0.4007068098260679
8015		0.9147136340290192
8017		0.4570031660552995
8380		-1.0236386053979452
8382		-0.29932173085038705
8383		0.698110858164636
8384		-8.721324240898399
8387		1.1573992512935896
8400		-1.4533966876414293
8403		0.10736622990907214
8404		-1.484566601229515
8408		0.5890151234762161
8083		-0.828227575250173
8085		0.3379731042115781
8088		0.6402135169326052
9136		0.46511582924470096
9137		0.2555076231415713
9139		-0.9255688973986416
8323		-3.165131742180753
8324		-0.35775661862188085
8325		0.436178940091581
8328		-0.5009077053683549
2423		0.04882113945491158
2424		-0.11266754281675542
2426		-0.03659957878327754
2427		-0.6925836948030922
8573		-0.8020757337278055
8574		-0.40273422006811893
8576		-0.028181322047872364
8577		-6.6928639831060694
8578		-0.8306717929018133
8579		0.3002645587956962
4250		-0.026868850029990718
4252		-0.8685362678547696
4253		0.05629499164968283
4254		1.504238176904882
4258		-1.9416700308287957
4259		0.0904196514181518
3382		-0.10278369494730676
3388		-0.7248812061534781
3389		0.15373791772348966
3443		0.25954812114328585
3444		0.736315414169176
3449		-0.08221083846925613
8772		-0.16697739539684556
8773		-1.2236200040695038
8774		1.3566455019505157
8775		-1.099389540191539
8776		0.36509080575234315
8777		-0.9237578772050401
8779		0.46224238209772117
3320		0.4189761226115073
3321		0.7635732976402446
3324		0.9573734073295985
3325		2.028277835631831
3328		-1.0504034723824174
7450		-0.52291104700564
7452		1.2412251171936668
7459		-0.3617281108757647
8450		-0.02422311795680182
8455		-0.10392533109673814
8456		0.699292903938145
8458		-3.6105655842477997
8459		-3.258105529727346
3150		0.18299346444121153
3151		0.4938601503432188
3152		-0.2633382937963081
3153		-0.6351695973231052
3154		-0.584561366752695
3157		0.1890464425731609
3158		0.17852617999937376
2171		-0.17763605224465112
2175		0.18197209733782962
4741		0.2922123677904481
4743		0.14200148259812329
4744		0.6357485078012336
4745		1.183784134630402
4746		0.7489779694000633
4749		0.052893773315567556
3900		0.051293554856514115
3901		0.22963333143153256
3902		1.020009616605049
3904		-0.9795706618346303
3905		0.2454161327384382
3906		0.5187917958898683
3907		0.1304991106848619
3909		0.9668973845611291
2351		-0.45288415912229124
2353		0.06151700602977935
2354		0.6179016871859068
2355		-4.908285462418411
2357		-1.3949585250742498
2358		-0.09199615239844458
7873		-0.47767178291005835
7874		-1.8427054519052586
7877		-0.014166152605667313
7878		0.4269538597258379
1861		-0.484405262557857
1863		-0.5217071154513077
1864		-0.7263540871376516
1865		0.6337164871981674
1866		-0.15057655005263904
1867		-0.6990917237400048
1869		0.23095157698863053
7400		-0.3590736476110221
7405		0.2138275590871706
7409		-0.6713962993428906
3560		0.15159828187091107
3561		0.45156556605494186
3562		0.5889400716650269
7982		0.5420171575679263
7983		0.36564978298718886
7987		0.34522167169629897
7251		0.6824406902979773
7252		-3.1719112867056087
7253		0.9913526641515084
7254		0.4275789755767211
7256		-1.345297267907027
7258		-0.9414463894781325
7259		0.023618412520603312
3120		-0.291777062691829
3121		1.2115713642576362
3122		-0.07091972897642
3124		0.773089872637795
3125		0.4646424513953927
3126		0.9953162247291604
3127		-0.2936737971812574
3128		1.1417243228661453
3129		-0.03133542441234034
8180		-1.1099929509793456
8181		-0.3427081561580791
8183		-0.0524036281715008
8184		-4.951638836720447
8186		0.3343907719520098
8188		-1.7196747182831935
8189		-1.3900933788653624
4311		-1.149779396495949
4312		-10.037090085154281
4314		1.2275863100457642
4315		-0.329715341307991
4317		0.6799667316296342
4318		0.4925715568572533
7480		-0.10198558702756792
7484		1.2700587385941304
7485		0.5310721697321339
7486		0.003182376986904666
7487		-0.207266653816665
7488		-0.5587575351400743
8790		0.5254521733628007
8791		-0.9909047988504232
8792		0.16679466774308271
8793		-1.2426912828317627
8796		-0.047360195068756376
8797		-0.9695849708606661
8798		-0.2515527436136908
8799		0.8360433439368238
3960		0.3960140567225557
3962		1.0664179760733605
3963		0.4854873488113004
3966		0.7869059840714713
3967		0.34140204960669196
3968		-0.9341272798647672
3969		0.4500422814744578
7531		-0.833676811223634
7534		0.2781010242068171
7535		-0.6302615851457525
7536		0.5794119426513885
7537		0.6598505448266929
7538		0.6880447312633411
3420		-2.8253850472483775
3422		0.40784682598383026
3423		0.6405266077060738
3424		0.5033077096015846
3425		0.5664004201927447
3427		0.39607194089932696
3428		0.3850288781686271
7310		0.17229224716756614
7312		0.30395975960674093
7314		0.4740210211401301
4630		-0.5528974430765305
4631		0.556839190475956
4633		0.7167213967821794
4634		0.26645695425715493
4637		-1.7292175878003617
4638		-0.46706159472352404
4639		-0.4764750008877422
8122		-0.5094389324630672
8126		0.018660581233468136
8127		-1.1751578819604285
8128		1.7544381665098234
2620		-1.067803344129662
2621		-0.05966021826130145
2622		-0.14652311487878017
2624		1.5863161012100757
2625		-0.28745915630279956
8980		0.6662596330158738
8981		0.4401715807237143
8983		0.2948031269107298
8984		-0.01665354139780824
8985		0.5521133047783554
8986		-1.094781183581874
8987		-0.6775538578050867
8988		0.5386229756533698
3662		-0.010559208119025068
3664		-0.18816967960031133
3665		0.6181593689831736
8941		1.727312079203877
8942		1.0982744531086694
8945		-0.0564674230151544
8948		1.4358599015412286
8949		0.06758839877355337
7960		0.13221778994316416
7962		0.21005712767021217
7966		-0.19196522902000496
7967		-1.4982317751776117
7968		0.5153113045856719
7969		-1.3514880068087183
7000		-0.14972052638269534
7001		-0.8024890680989789
7002		-0.760793968445307
7003		0.03616965541200801
7005		-1.0487855349826534
7009		0.7440183696417989
3063		-1.1722890299446644
3066		-0.041003167341998034
3068		0.25512038104122575
3069		0.2511461671366609
3652		-2.6071500181796097
3654		-2.0835317521593297
3655		0.1563733008755448
3656		-0.8755141890235174
3657		0.13860711387737307
3658		0.7369603884585263
3659		-6.876119893274565
7180		-0.028219465038249198
7181		1.3180299066309282
7183		0.49061497095245743
7184		0.5103392136875498
7187		-0.4149508298122831
7189		0.4384650293306041
8350		0.5602089333519389
8352		-0.6877294228125513
8354		0.37123751750235845
8355		-1.8109185354738677
8358		-2.2014503002946637
8359		0.25280885144039744
6691		-0.44992426682815373
6692		-1.5607445312111594
6696		0.7224897754331056
6699		-1.5314316431799269
2572		-0.17344892986454005
2574		0.2984634662065257
2575		-0.8263890750114692
2579		-0.04330872967492464
3172		0.870984399913665
3174		-0.10691841578460443
3177		1.5233448876260673
3178		0.38779066976927457
3701		0.5639993473260585
3703		-2.474203382637683
3704		0.10326368503104691
3708		-0.5045118636490281
4533		0.05036340645816359
4538		-1.1283871382857884
2950		-0.8068025328116482
2951		0.31735876036570965
2952		1.1379346278102698
2954		0.31938311854823537
2957		0.5860851619733908
4444		0.16364906551094657
4446		0.7204834063291108
2662		0.6848472543667062
2663		-0.4180185805531826
2665		0.32605233529283373
2667		-1.3108762413902608
2668		-0.9024181008816545
2669		-0.04284878199725702
8750		0.5601993918877529
8751		0.12241497627553798
8755		0.6483356500910616
8756		-0.29424390068529366
8757		0.05349202827339855
8758		0.5185817288434076
2710		-0.4947106223833502
2711		0.6493973250267943
2713		0.3103456849274008
2484		0.48967714976738075
2486		-0.9401941001944853
2487		-0.4091338431232802
2489		0.8724691812445731
1903		0.12682795985665335
1904		0.3664272301384167
1906		0.3059092430406374
1908		0.6625653522659666
1909		0.3061263105746916
1911		0.4531298760771463
1912		0.16170412547415927
1914		0.44255451967132897
1915		-0.8532235830905838
1917		0.074498129168338
1918		0.1591369622800861
1919		0.6865725218556423
8440		-0.7153656041050245
8443		0.0707326228996763
8444		1.2614742277905049
8445		0.511735832553458
8448		0.1403092280817707
8449		-0.4599586043271657
9180		0.30039543331049035
9189		0.9455528492976383
8733		1.0536086734691206
8735		-0.18158477167670614
8737		-1.1859607555844314
8739		-1.433502559355983
9122		0.2956761732983122
9123		-1.00346956227642
9124		0.4581979734354449
9125		0.3094367093234723
9126		0.33769186565051607
9127		0.5341672435252874
9128		-1.1745878518924084
6932		-0.004986937103187472
6934		0.859376925899586
6935		-0.12073726434006093
6937		0.5620351459699209
6938		-0.027931992489738267
6830		0.07999187691920975
6831		-0.34938326554298005
6832		-0.018307223513300334
6834		-0.4215397032463449
6839		-0.7676293375012231
6901		-1.9096699846466625
6902		-0.3322427434261775
6903		-0.2868982111168297
6906		-0.4889625072898675
6907		0.4508290030869374
2820		-0.23942594910779458
2822		0.21551079841869447
2826		-2.405029947740232
2828		-0.701518319931183
3571		0.24573384123686676
3572		-1.33222000377793
3573		0.5617587407764484
3577		0.21399651455746918
3578		0.3844506691762235
3240		0.7174818990822989
3243		0.1255869831992505
3714		0.8010779731261802
3716		-0.006387235214598176
3717		0.673135546463073
2991		0.9842334165456312
2993		0.3896544397768759
2999		0.6693048564826395
6730		0.4582762204154651
6733		0.1890321453112452
6734		-0.11684444882692975
6735		0.45393878043523367
6737		1.0806487020657145
6739		-0.208521498115545
2863		0.6957207622296824
2865		0.15090270835801545
2866		0.41850142428878473
2867		0.05127029570811047
2869		-0.45366055264450894
6741		1.037487882681022
6742		0.5546346222347294
6744		0.7206421697640897
6746		0.5030872880555626
6749		0.8654838053108648
9266		0.12634462757931886
9267		0.2941270276150786
9268		0.012395889389873944
9269		0.055341510548063286
3940		1.6508288654535341
3943		-0.4916463240472993
3945		0.16373731708183772
3946		0.4233006133859235
2102		0.05352883685387259
2105		0.565717939383163
2107		-0.9309110425845358
2108		0.15300950559008147
2109		-1.2719470856840562
2552		-0.9274702576665697
2554		0.07014127572668329
2555		-0.1335516130048794
2558		-1.129726875477938
2070		-0.1106503077867762
2071		0.6120293027779116
2072		-1.1355490391542478
2073		0.2716921751138517
2078		-1.394339200199061
2079		0.4346628190879477
7641		-0.48519860660688524
7643		0.79423723648143
7644		0.09722966892303579
7645		2.655192191770186
7649		0.730704865941723
2750		0.4638036433998933
2751		-0.408943418610072
2752		0.7899923647748484
2755		-1.637680946248084
2756		0.24026687941958247
2757		0.2091577801484596
8360		-1.4551374716902168
8367		-0.11204729962236683
8368		0.4957645430215798
8501		-0.5399548202186178
8502		0.3856313600515632
8503		0.5619574813993938
8505		-0.33648992263534794
8506		0.7651949296619143
8509		-1.0499904142721912
8040		0.5529019843762596
8043		0.11178596334100052
8044		-2.0465849839138
8046		0.8674472567484597
8047		0.39729015877361396
8048		-0.10785469918378914
2090		-0.6447486070430489
2091		0.29281858558678975
2095		-0.6759189256545152
7682		0.5026087060194764
7686		-0.31428233927263066
7687		-0.14465324788706907
7688		-0.525213288377993
2233		0.6863294247054371
2234		-0.12506067626980644
2236		0.7348597325517359
2237		0.26309587303871923
2238		0.5740022001358426
2239		0.798343666373469
7763		0.15823336524463427
7764		0.2817472155545367
7766		-0.7746108509131254
7571		-0.09448055308541696
7574		-0.5573553984329596
7577		-0.272830187043574
7578		2.4896032833810953
7579		-0.3687006383559203
6920		0.5101947556279025
6922		-0.9678548530667802
6923		0.10240854146155151
6924		0.5764937574937629
6925		0.2571060842340983
6929		-0.4776132770918285
7060		-1.086211518053116
7061		-0.12779735806294523
7062		-0.45480016757495545
7064		-1.1799808937679954
7068		0.8220366791626894
7526		-0.37271322406592183
7528		-0.36826293016927825
2700		0.28932224023976255
2703		-0.4948982998336157
2704		-0.34681229381875467
2709		1.8229070550726763
9030		-0.3369102230452438
9031		0.1133716935499764
9033		0.22373398645614379
9037		0.2672247079144686
9039		-1.8903449842532103
8830		-0.0700337129124524
8834		0.8475495592855761
8835		-0.04938876364212021
8836		-0.41375369810839424
9070		1.208656011042499
9072		0.08010791921932751
9073		0.45792278234327466
9074		0.7700803200100806
9079		0.17082276336090804
4281		0.5152535540896811
4283		-0.660487332338758
4285		0.256054197402411
4288		-0.4670235517754793
3210		-0.9052399304431787
3211		-0.14298154428224466
3216		-0.4325361228235597
3218		-1.7775302164682076
3219		0.8399581592181947
8023		0.13018360998640735
8024		-0.5647022390160015
8025		1.152383446287739
8026		-0.2783327054436617
8028		-0.8071507412445611
7372		-0.9270638506717473
7373		1.0317778070989307
7374		1.7075363902530045
7375		-0.24113495885129302
7377		0.8171466691226591
7378		0.25253605793894907
7379		0.39619935192671896
9190		0.6432239206008652
9191		0.3127652884517771
9194		-0.7527388599372637
9195		0.21298661101011837
9198		-2.673688764989066
9199		-0.5182617589009884
9390		0.3690174610143099
9395		-2.401703896931916
9396		-0.9805935350371581
9397		-0.10125612412580182
9398		1.4090460386573926
9399		0.3947784568143376
4042		0.8197478461679898
4044		0.18068820264365498
4045		0.7112756716426055
4048		0.7949330381953708
8311		0.5221860989847923
8312		-0.5356725360201569
8314		0.5754722100243121
8317		-0.16845739136530832
8318		0.17740752395650775
8319		-1.6345901652408759
9480		-0.6031495586444624
9483		-0.6990189439395844
9484		-0.3497722856099735
9486		-0.4502961633466032
9487		0.8411281728291844
9488		0.1265033845724152
9454		0.3754305074389049
9458		-0.22541441108743476
3520		0.8947883237297908
3523		-1.9889550546625867
3524		-1.29343170877561
3525		0.5218654641272259
3526		-1.87764797613112
3527		0.70558426006958
3528		0.32522691052539715
3529		0.3833478534526922
2000		0.1417881591914593
2002		-1.134589319296404
2004		0.534863526402413
2006		0.4081803596847649
2007		-2.7628054173409153
2009		0.06324203063866171
8140		-0.5693955850988772
8144		1.1969154913922269
8147		0.37379697068017304
8149		-0.793699827630276
6800		0.833488070834918
6802		-0.128201762685178
6803		0.44554145616328217
6805		0.6164600103361229
6806		0.04346132731091583
6808		0.41635850259881513
3341		-0.2676289915293344
3342		0.41852471454197404
3343		-0.6230805584740462
3344		1.2511922749899207
3345		1.4837744481497863
3346		0.35494763404740964
3347		-0.09646401233661478
3349		0.5288331732874206
1974		-0.2933888030788151
1978		-1.1984039330206098
1979		0.23792973680322202
3375		-0.05297628922415723
8173		0.4891967455570012
8175		-1.6353558443081486
8176		-0.2986539527078974
4301		-0.6847715268004828
4302		0.010313594154188003
4305		-0.9473005861972711
4307		-0.14637706081394813
9090		1.188129772748345
9091		1.3068682374154243
9097		0.3202416093481454
7380		0.9127637518840841
7382		0.05834969884596187
7384		0.4947698792695726
7385		-1.2840898399413485
7388		0.06325743184448832
8890		-0.6372306344756677
8891		-0.42433302641204984
8895		-0.23057160901778695
8896		-0.08174385743201285
2490		0.5540585343162818
2491		-0.6521980010676859
2493		-0.06937647368848689
2494		-0.17397370088767386
2499		-1.5868406286896823
9102		-0.13930439972315678
9105		0.44340409705476946
9109		-1.717187558848596
9380		-0.78583198045029
9384		-2.7591629498664103
9386		0.493235244565464
9387		0.6239492833521526
8690		-0.6048563614642974
8692		0.1893004849141332
8694		0.09626535259826802
8695		0.4317366018001898
8696		2.195832156572041
8698		0.023061025697446755
7322		0.8786510251895068
7323		-1.299403275920138
7326		0.05905020175583183
7328		-0.03202203162802565
9400		-0.014854223916130624
9401		-0.3679752870065621
9403		1.3768657161919935
9404		0.2595114217235236
9406		-0.14259881134010133
9408		-0.6360783632173156
9409		0.8231737956223031
9041		0.9640415814720019
9042		-1.3025904650044824
9044		-2.032077619131231
9045		-0.2125735016659545
9046		0.01728156985539042
9049		-0.10343406475291672
7931		0.27415891834024303
7935		0.5430699317624269
7938		0.09018391312178874
7939		-0.6218791281412989
4461		-0.2819610683913388
4464		0.24322826359369118
4469		0.5430176230395062
4330		0.14120985560442179
4337		0.36878318007943434
4338		-0.2672359030074716
4339		-0.8583282551741782
7802		0.4605404503892083
7803		-0.48178625995877583
7805		-0.28498346149894427
7806		-1.5409460836224385
7807		0.48577795771050647
7808		0.48050692915692633
7809		-0.7332648727037524
6613		-0.8179140356158001
6614		-0.9325719567202491
6615		0.11987499694461624
6616		-0.09781694546540809
6617		0.7794423154603476
6619		-0.7212423853975993
4711		-0.2398254025221297
4714		0.18621880888652095
4715		0.13370819653929922
4717		-3.3954515547806774
1780		-0.3415898863018685
1782		-2.0538155599786334
1784		0.8850167933907969
1786		0.16103491449693688
1787		-0.24111092328026754
1788		0.6217614265019066
1789		-0.2556902133325543
8540		0.1696035026794651
8542		0.7201801008981924
8546		1.0995504581937552
8547		-1.6633847300429334
8491		-0.2888857274799944
8492		0.2317124438081276
8495		0.46287743808736914
8498		-0.8531076294688572
9311		-0.6967352461095088
9313		0.6332667020592462
9314		0.9562147464694936
9315		0.4173363886639362
9316		-0.7447155069871239
9318		-0.23883862919859664
9319		-0.20023985604302097
9231		0.7634562782417589
9232		0.3685545642533656
9233		0.6781387533745428
9235		-1.0133483469862952
9236		0.23746379851154095
9238		-0.07227367783898324
9300		-1.3598820838116072
9301		-0.42178147975037034
9303		-0.6512595383207609
9305		-0.8911466112012706
9306		0.5071273853448818
9308		0.1113438171874472
4541		-0.17591254254635963
4542		0.19159978988806875
4545		-1.900257763428631
4546		-0.26627766472525133
4549		-12.460056913394546
9540		0.0590752702247154
9541		-1.039547604798834
9542		0.2355516565099346
9543		-0.6164260915025701
9546		0.0880876857101822
9547		-3.8101939520409887
9549		-1.529229465252039
4110		-15.260335151541147
4115		0.22674715595308978
4117		-0.6792051405825441
4118		0.21052230806374683
4119		-0.6023131541930913
4680		-0.6390267716061488
4681		0.29792046233784025
4682		-0.002628346329298452
4683		-0.08758945391951915
4685		0.022362788495031982
4686		-0.8812621038037657
4687		-0.17316636537542565
4611		-0.372486526428729
4612		-0.07944948906648541
4613		-0.8492341954875113
4615		0.5334004264187653
4619		-0.16435198202599277
8902		-0.2467533139438429
8905		-2.0136089647267648
8906		0.10287712275961676
8908		-2.099859665068038
8909		-0.5698106432246295
4391		-0.7938030309081202
4393		1.0158459733486978
4395		0.9030714095828707
4396		0.4661852711494746
4398		-0.11767403533070507
4399		-0.6787442017616514
9504		-1.2693880721892048
9505		-2.7911939322941834
9507		0.5131853664239097
9508		-0.9598615778890942
9509		0.3367024424611436
8221		-0.3201678626442205
8222		-0.8123786548282617
8224		0.4338669681480004
8226		-0.9250054420731186
8227		-0.29579958684153557
8240		-0.5524323833266257
8242		-0.3865630992293555
8247		0.7690926640740193
8248		0.43589843246235477
4406		0.6821053200899926
4407		-0.4532871017181375
8411		-0.2049409381515582
8412		0.6156922322325757
8413		-0.16417303931738728
8414		-0.4479135250997591
8416		0.19851158827897442
8417		-1.725217193924161
8418		0.12757445178675628
8419		-4.460989259999995
4152		-1.1300935335902378
4153		-2.9954520281206394
4158		-0.7171802660229682
4240		-0.5066950224049517
4243		-0.32178673500884464
4244		0.20483934249366703
4249		0.56352933379569
4321		-0.35870313502501616
4322		0.4425668654080705
4323		0.3060841779521182
4324		-0.873673964087105
4325		0.9251154900797344
4326		-0.1559885768849838
4327		0.190045132918055
4328		-0.49621296264190823
9110		-1.228336506337759
9111		-0.05735668513074913
9112		0.08783515054559098
9114		-0.24020119496687475
9115		0.6280439388757955
9116		0.015734207256733964
9119		-1.7513549482543849
4620		1.0000583405425656
4621		0.7367916411077746
4622		0.10883061167117489
4623		0.582018738497207
4625		-0.9232279827360547
4627		0.34982692965996814
4628		-1.3994334873766194
9250		0.031029407057762005
9251		-0.1395318525786909
9253		-1.4429134412020788
9254		0.6227127118656594
9255		-0.9568364371028065
9258		0.5471769392873386
2542		-0.5248084521100222
2543		0.28816447649051974
2544		-0.1836079818513239
2545		-1.5019146177909581
2547		-0.10028713431409621
4473		0.09544478027903536
4474		0.08376374929242705
4476		-0.6007869382889045
4478		0.5444477060030626
4479		-0.8738157591576362
7052		0.08914918672443269
7055		-1.7569713343647
7058		-1.0612496770567392
2220		-1.8735910598801557
2221		-0.9178729407852215
2222		0.35889464033991014
2223		-1.2760658388147574
2224		2.386208027808772
2226		-0.6463224533845124
2228		0.5406899490756757
2229		-0.6884185039483065
2432		0.2057271517249592
2439		0.11189348856477152
7261		0.2552896248634006
7262		0.525452003581033
7266		0.3248890509694451
7267		0.3314892813893891
7269		0.08486626364034315
2916		0.06065752525764728
2917		-0.6320956441664053
2918		1.2872932637992611
7723		0.5829835252268268
7724		-2.2291795399515637
7726		-0.013689653858563681
7729		-0.910261534701385
8911		-2.095383383107642
8915		-0.01597339647272965
8916		0.3283733913979494
8919		-2.3331827867548967
4120		-0.25086040241690194
4124		0.7475321626065458
4126		-0.36260916840363294
4127		-0.8911631765531918
4128		0.8469243029300135
3631		-0.4113355392143302
3632		-4.295870394208286
3633		-1.468579016413883
3638		0.7333435314582846
3639		-1.6641578474150502
8420		-1.9851148845149624
8421		-0.27033930090795016
8422		-0.0752500281247209
8423		-0.9237647559028083
8426		0.12688717060560203
8427		0.6627028277389727
8302		-0.46240385382747734
8305		-0.1318805283785934
8307		0.28536622205379025
8309		-0.0815196705425189
3510		0.07979631778352993
3512		-0.7442119591429228
3514		-2.380574027611703
3515		0.312861911902457
3517		0.7247415617095058
2262		0.019850040171023996
2263		-0.5951102532281002
2264		0.5207725422267615
3310		-0.7185255738274817
3311		0.1186349372389887
3312		-2.107075441055753
3313		-0.7406619608128019
3315		0.7293431290185473
7093		-0.7407566545923289
7095		-0.11128968999136601
7096		0.1727398233385389
7097		0.032476471131675025
7098		0.5708505395542414
7099		0.4192304917389122
8112		0.2416327113356013
8115		0.8437709668449658
8116		-0.3969577543502784
8117		1.604695963418488
8118		0.3332847827316093
8119		0.0057782102970667625
4770		-0.3229119882089226
4772		-0.4589814319416219
4773		1.8362444186674396
4775		-0.23222839883461482
4776		-0.05072416231920153
4779		-0.33567571044869643
9511		0.5452062963044072
9513		0.14353256400737735
9515		1.5783821613847222
9516		-0.19793708467883622
9517		0.2767743868342707
9518		0.2985003795707313
4752		-0.2851654301699412
4753		-0.519868428102647
4755		-8.168785456141336
4757		-1.6410994266150112
4758		-0.14481943036633216
4759		0.32695637519869053
4272		0.792704996676563
4273		-0.7594499739449907
4274		-0.16774688274819058
4276		-0.11304598969394979
4278		0.44437160181881435
9061		0.5860458249334596
9063		-0.4501765560593112
9066		0.18326032179320514
9067		1.4321767631111548
9068		0.4367183801972608
3501		0.8136011482907249
3503		0.4272782273413263
3509		-10.673199230072436
8294		-0.5461579955934676
8296		0.3557293422702903
8298		0.6080348522642091
8299		0.40338137434867516
7195		0.8840927143679597
7196		-2.8555958569833106
7197		0.5262154261088465
7199		0.37716658723865903
2360		-0.10559706926511724
2361		-0.8783344719509425
2362		-0.6054242358774766
2363		0.15324871476054888
2366		0.9474638439603059
2368		0.3244333978558379
7630		0.15524747904139824
7632		-0.05652444808724917
7633		0.24712158070483856
7634		-1.6648035967768435
7637		0.14636249238226395
7639		0.052360950932788225
2810		-2.342573229287084
2811		-0.6057471580826658
2812		-0.2951180647984239
2816		-0.031947036646774715
2817		0.43746222165637
8061		-0.08385180958853643
8062		-0.20012743209912193
8064		-0.2046212278311015
8066		0.14697873485237117
8069		-0.37529732482948247
9291		0.47340809012022284
9292		0.4423989021020286
9294		0.08854211467216666
9296		-0.6401622166934734
9297		-0.6725645509055198
9298		-0.6600756565857298
2401		0.18109111143375473
2402		0.2573227810890008
2405		-0.3442265556730712
2407		-0.0002942916285221416
2409		0.4774909853058954
3676		1.0177814861169896
3677		-0.15669615613515595
3261		0.3267634254622216
3263		0.4288545512550658
3264		-1.6160961432185057
3265		1.0126369647977624
3267		-0.789009847560402
3268		0.014551649291668555
4521		0.01702645735852015
4522		0.056714561448879625
4526		0.253563418845593
4527		-0.7478695226471946
4528		-1.110793542615868
8461		0.2680827050970225
8462		0.24406475938536804
8463		-1.2115743932584493
8464		0.9018680261527966
8469		0.6199452376453616
3891		0.19226641605841968
3896		-0.6530163572824985
7231		0.34568444089706507
7232		0.4626577762727298
7233		-0.6397759039405303
7234		-0.1935911335498524
7237		-0.13890649803852578
8681		-0.4337293102618519
8685		0.331818805237267
8688		0.5118105116554355
2411		0.4412182074162095
2412		1.0277532745938913
2413		0.617643061849643
2640		0.1838528434358721
2641		0.4025886484336238
2642		-1.6332088081022813
2643		0.754570458058903
2644		0.3201353535889785
2646		0.8054448584430793
2647		0.30463519856725696
2648		-0.23751631213417734
2649		-0.5379258098728585
7241		-1.4125367694041167
7244		0.32111062505055427
7245		-0.34938292803706833
7247		1.0666169948982778
7950		-1.0522137289626075
7951		0.9032910644415693
7953		-2.0194875899275724
7958		-1.4995858770726789
7959		0.30052703678985754
3792		-1.6975093345618038
3796		-0.28551400631777546
2132		0.399547542348919
2133		0.3689953704947707
2136		0.42824972410702083
2139		0.18451362081810527
3141		-2.6988751388897323
3142		0.30780446652461335
3143		-0.21901964308150804
3144		0.7135974034118492
3147		0.729361012762016
3148		0.6403477476874733
3149		-0.1164161346121325
8580		0.6938538823615366
8582		0.6371548450411169
8583		-1.4215165457138665
8584		0.5134150299793245
8586		-0.4736802435341034
8587		0.5250467948309792
8588		0.8349244617082174
7410		0.17953385687494783
7411		-0.5886014694520451
7415		0.23985531894169668
7416		-1.529251772173389
7418		-0.49519470099071483
6963		-0.49790700592624165
6964		0.8904862557627463
6966		0.5263850252050358
6967		0.5865651720088494
6969		0.07995585412252548
8825		0.10997966718674239
8826		0.38633653803253204
8827		0.486326614063754
4363		0.40024910082460996
4364		-0.7829874517141657
4365		-5.556328729920401
4367		-0.25672521448506436
3023		0.3313907757452993
3026		0.01687709447421466
3029		0.7793639437893095
1961		-0.09705129856732596
1963		-0.24339610314919682
1964		-0.6172529803256824
1968		0.20320816616342752
2580		0.3107404997714345
2581		-0.4570639670799613
2582		1.050351541411808
2583		0.1720844229893994
2584		-0.8505178039216789
2585		0.4009570239497103
2587		-0.03945006628905646
4730		0.40490824338603226
4732		-0.9243204183057279
4734		-0.5172245951577201
4735		-0.11510335476784589
4737		-1.613482279599323
4738		0.20108054061480668
8100		-0.04428685747702521
8101		0.15160934667448187
8102		-0.09602582002132262
8106		-1.0950210273245518
8108		-1.5791241698255922
8109		-1.088528600177327
4031		-0.01816215180637137
4034		0.9323132842020263
4039		0.5748971144998665
9153		0.09831942263929655
9154		0.5646624583641269
9156		0.13987588426970962
9157		0.569061611464124
9159		0.3024147310218866
8950		-0.8028011501777014
8954		-1.1770975241952508
8958		-0.5736869034089941
3301		1.0484701723441678
3303		1.0700199484834159
3304		-0.3797650300055725
3305		-0.9993232911667717
3306		0.333474552258032
3309		-1.0858485879269122
7830		0.4851290823093619
7831		0.30405715174539893
7832		0.680583887232401
6793		-0.5375752295349522
6794		0.5151375727256055
6797		0.10351404119009514
6799		0.14268697651943568
4162		0.4139898897677282
4164		-0.8034887437992612
4165		0.09536217432690842
4168		-0.5737727313578098
3331		0.3169527565701468
3334		-0.9475671841785434
3335		-0.3275845266263615
3337		-0.8508182158791844
3338		0.20424493203843264
8712		-0.26685545943203925
8716		-0.9856865143155673
8718		0.028363942004061074
8131		-0.0073375345298912365
8132		0.6348457955530855
8134		1.8065122006698726
8136		-0.10399976713329255
8137		0.47332359911898797
8139		0.6744634383856228
3830		0.9982356259331007
3834		-0.11785966276902997
3836		-1.4501732872511042
3837		-0.9068577463210362
3838		-0.9998121323840982
3839		0.6296935330693308
3470		-0.44719323390873805
3473		1.2237446354022112
3475		0.5385917727470496
3477		0.7705974408469073
3479		0.15914716585401376
3920		-3.9808397533172917
3921		0.2330484234968713
3923		-0.8374256843915799
3925		-0.3591415252414505
3926		-1.3448675943820798
3928		-0.2790334640915501
3812		-1.0722132685166026
3816		-0.9197112687103722
3817		-0.11645526463985263
3818		0.6801135685542391
3819		1.00541916153593
3181		0.05874716319533709
3183		-0.18970961902369352
3184		0.20470996086770027
3185		0.5094343909230528
3186		-0.7846556126427124
3187		0.2810073560711807
3188		0.5953929300591869
3189		1.0292128303565953
8261		0.38538336800147976
8264		-2.413859461354213
8267		0.32589135246065487
8620		-0.8339804177508248
8623		0.0681088870036308
8624		-0.27324774234165355
8626		0.055076035260145983
2982		-0.9536534292470257
2983		-1.5911362991365683
2986		-0.040750243242583736
2987		-0.9916199626661919
2988		0.062478710474473245
4650		-0.12674121928681828
4651		0.11298456232731814
4652		2.06373019992234
4654		0.36466296030540707
4656		-0.16610536362692482
4657		-0.31390705063906527
4658		0.3582798371124969
3870		-0.7253791647298146
3874		-1.7906629499748785
3877		-0.9595842553919631
8600		-0.7860477863463223
8607		0.2808730608780175
8609		0.46809542454505154
3400		-0.1899571896478341
3402		-1.0069848238417438
3404		1.4611655509346342
3408		1.6106768009824597
3409		0.10520378527094126
7991		0.7042483877854925
7995		0.4012473763208651
7996		0.23119730244956796
7997		0.5080285608845129
7999		-1.0306050242988616
9221		0.522158336178013
9223		0.39596139199310754
9224		0.32103553397041373
9225		0.3068543382723639
9228		-0.5908673092102626
4372		-1.7792264404393803
4376		-0.6915980279998175
8480		-0.34954043232698534
8482		0.2025701286487343
8483		0.8760064725334007
8487		0.7231690850709306
8489		-0.24436353270728456
4505		0.47597968341179986
4506		-1.491377589040078
4508		-0.9681231765686313
4509		-0.4103317283196646
3130		-0.5329759900941486
3131		-2.57933699015065
3133		0.49947408074825855
3135		0.28998104525039764
3137		0.8131081739014425
3139		0.07746475064283259
7840		0.2673042576324886
7841		-0.4661908449274135
7844		0.7102581090357207
7845		0.049183660499522455
7847		-0.5432972171405185
7848		-0.5792723981441925
2530		0.04699726146537472
2531		-1.214469571309852
2533		0.11165230589978273
2535		-0.04444828541247002
2536		-0.28960178616716553
2539		0.4639940386270691
8470		-0.5988470877049794
8471		0.6363431551552381
8472		-0.28118169320399955
8473		0.7152100604669558
8474		0.038247376867546506
8475		0.2351153802878496
8476		-0.2742960043125501
7792		-0.3435116519201196
7793		0.28676121453129777
7794		0.6419679594696655
7796		-1.5693182059567397
7798		0.15255017178941446
2740		0.4891357977096759
2748		0.4074679194826756
3600		-0.5372185266893725
3601		-0.1781165204128588
3602		0.9486624496760756
3604		-6.219042372627034
3606		-1.4646429458515575
3608		0.10464810724701372
8930		-0.3244201319183457
8933		-0.1977630428438525
8934		-0.48211792900293415
8935		-0.7283242409081467
8937		0.6788150085910103
8938		-0.7994416829407807
8660		0.4016929753724101
8662		0.6018644606984028
8666		-1.1110185870129057
8669		0.13773375091327691
3691		0.6655692197063459
3693		-0.5089187055499709
3694		-0.6607332680327892
3695		-0.6668547992971298
3699		-0.022500921300776643
8200		-1.7477136979066485
8201		0.32937203792717334
8202		-2.6356364567569446
8205		0.6739359289480922
8208		0.1560067275897844
8209		0.023469012297365456
9161		0.46248870620999516
9162		-2.5002698209652854
9163		0.07732530307859835
9164		0.15890670620444813
9166		0.5798643355159057
9168		1.8690889402065876
9169		0.297243409162598
2840		-0.24046227438982992
2841		0.5217255267870674
2842		0.4972898210708984
2845		-0.2852182758355816
2848		0.49113937117045353
2849		0.8703034198697189
7940		-0.06871570232496198
7941		0.33777484718301737
7943		-1.1854437222244416
7944		0.5426104504213096
7946		-0.17575633036155952
7947		0.7607646313730974
3030		-0.6557883963557917
3033		-0.8494585841167034
3034		0.8530333993728084
3036		0.5141959372078936
3038		0.1259330730836273
4431		-1.823686696001946
4434		0.5394115554359751
4435		0.4867777817388115
4438		-4.835956279598335
4439		-0.3423155026126089
4260		-0.5502240677528404
4261		0.7167959774024405
4262		-0.8241192168196478
4264		-0.6954029944214654
4265		1.4988488472851513
4268		-1.261162706825261
4269		1.1396635165304416
7360		0.09464636537469681
7361		-0.4187837516328994
7363		-0.05793560782215672
7364		-0.3685391228433939
7365		0.9609815103212991
7368		-1.8390305831887805
8390		-0.17317418078156435
8391		-2.0201312331883012
8394		-0.9941818783864282
3681		-0.32069667468823126
3682		0.4608259690652004
3687		-3.056882609631687
3689		0.43614607920791754
7562		1.6340011437293
7563		-0.754249208934583
7565		-0.40386860537642977
7567		-0.32239122189262437
7568		0.7739028429097686
7569		-1.1357132598648387
3641		-0.7070260652461557
3642		-1.3600498401471781
3645		-0.4529064976208845
3647		-0.022533693148717848
8051		0.6971175194637202
8052		-1.4679707466708274
8054		0.1894250144552748
8056		0.8993038625268485
8057		-0.14945083730790018
8059		0.3981861488360223
4140		-0.8742110963225231
4142		-0.5793864876931364
4144		-0.6162272659688675
4145		0.41941655596229127
4146		-0.24055206687088831
4147		-0.2768659310291561
4149		-0.503564543791222
2940		-0.38467402646370624
2942		0.20913086949288787
2945		0.15254835912048034
2947		0.024036715853022427
2949		0.03300672138860598
8560		0.17341743516945382
8563		0.10603366149398058
8564		0.48674089432470674
8566		0.3000672812705379
8567		-1.5120587823460772
8569		0.4763432265480496
7662		0.28366152087486274
7663		-1.8807353793941313
7664		0.6618637257021907
7665		0.23686126272437985
7666		0.9034192025198667
7669		-0.7765740373572018
8640		-0.09430047905435748
8642		0.349551360411354
8643		-0.5906463071974052
8644		-0.5508189516039951
8645		-0.3251803566592379
8649		0.6741649496987518
9051		-0.11864253132473611
9052		1.0130131805859848
9053		-4.93450079011748
9054		-0.5219582826991349
9055		-2.8445761874672577
9056		0.7675325455947671
9057		-0.6600692408825307
9059		0.6340492529210924
8842		-0.4905915863077347
8843		0.28515931016645635
8845		0.5794139730821313
8846		0.2037108797376723
8847		-0.4419622476985294
6781		-0.4784758918808097
6782		-0.8083912550704754
6784		0.3355207064660947
6785		0.10403034244813734
6787		0.7368178425614764
9443		0.562669561073337
9445		0.22277961910859828
9446		1.3692711892354166
9447		-0.4458983454807411
9449		0.30943446927720336
7753		-0.21690732811918126
7756		-0.09487274502106456
7758		-0.6526483470507229
7759		0.38444264241136805
3250		-0.07396436322955154
3251		0.13959185348855724
3253		0.5811210117793792
3254		0.5596833883777471
3258		-0.8602459516572296
3259		0.14107215404638884
3772		2.0084479432515856
3774		-0.20860356590788276
3777		0.08248391399664824
3778		-0.7319285413188813
3779		-1.3170547248502678
3481		0.7663764150774501
3484		0.15895679241515315
3486		0.42240761470504073
3487		0.17826157491099912
3488		-0.5514429399332944
3489		0.5991299029690884
3851		0.12392031052776153
3852		-1.1689940642653733
3855		0.16605879931913306
3856		1.9805657209477021
3859		0.07961223626851749
8430		0.39918381818851967
8432		0.18304327453355254
8433		-0.9473147292980897
8434		0.2077242597035615
8437		-0.018670970456709603
8438		-3.41529167000957
8439		-2.0481147505504147
4050		-0.02760433076076484
4054		0.8944335843416823
4055		0.20463718385953997
4059		0.9563931146927506
1952		-0.6714499353260682
1954		0.3708037378491235
1955		0.8296246646913591
1957		0.6771731888042438
1958		0.49565390502269896
4671		0.6540476488582194
4673		-0.5598713205985731
4676		-0.7366176455054154
4677		-0.47795639743747903
4678		0.029574895446612983
8274		-0.044716023977380705
8276		0.612276089953747
8278		0.5110961198576006
1990		0.3741454730725157
1991		0.7031343566250069
1992		0.5444726457426708
8811		0.20135701553628438
8812		0.6390074303314499
8818		-0.8675037791091357
8819		-1.287497606707197
8972		0.12565395455896472
8977		-1.1747725181171504
3730		-0.20869016110558467
3731		-3.3301246377625384
3732		0.11571819930421469
3734		0.3507557925295506
3735		0.7964297576327407
3737		0.2367449260243189
6822		-0.23252726867102405
6829		0.37295457636359824
4022		0.22910775825934382
4023		0.19007841934056338
4025		-0.8340085794358596
4026		-2.708120387937187
4028		0.4127280540982292
4029		-3.833951592758305
2800		-0.7830031539293331
2801		0.20847604417760043
2802		-0.019156952229529782
2803		-0.42659615518230226
2805		0.8396881384447631
2806		-0.5820932555441065
2808		0.40185662723738996
2809		-0.12156035922870252
7490		0.5911265703007105
7492		-0.6630340439372356
7495		-1.4571903244698372
7499		0.887246057093176
4180		-0.2839939447960935
4181		0.8633105750332162
4183		0.6852762873978229
4185		0.15837935081404617
4186		0.1463015842586651
4188		-1.1091795078150308
6522		0.9816015782133501
6524		-0.04323389305729545
6525		0.5564785167709223
6526		0.7601830346741679
6527		0.0865724611731252
6528		0.5971810638989786
7620		0.5149861940571934
7621		0.44954368245421605
7625		-0.5344528694931068
7626		0.5574071884235354
7627		0.22375868100146212
7629		-0.0012637391721423998
8521		0.17823044092886656
8522		0.667089296663208
8524		-0.6479067194922067
8525		-0.7321807475404767
8526		-0.2013355563641382
4414		-0.051524047287108736
4415		-0.35304950430710447
4418		0.9682320796967089
4419		0.3432890367269171
2611		0.25596339352750697
2613		0.28049094943706954
2615		-0.26745877525954076
2617		-0.7770666112927626
2618		0.5440101628498681
4221		-1.3836747785752719
4222		-1.3457794800454959
4223		-0.3375254432549267
4224		0.5233099061943912
4227		1.6801731907705906
4228		0.177482571785682
1700		-0.08637186140934064
1704		0.5993248574110015
1706		0.3038292012265009
1707		1.0033738898094293
1708		0.5969913942092719
2670		0.46567504885931155
2672		-4.709148823213057
2673		1.1195151562369126
2674		0.8764386847765631
2675		0.14171820819911424
2676		0.47727314048217806
2679		0.19630944445501156
6892		-0.07068467087064213
6893		1.389909195954362
6894		-0.32809653998431865
6896		0.5688946060712446
6898		-0.0194001513240027
9201		0.58142172945731
9203		-0.30891920321611005
9204		0.5992672822046555
6620		0.6458359214739199
6622		-0.2930530411072077
6624		0.21486790897855385
6626		-0.5816174106157622
6627		0.5520512865100071
6629		0.06895062299042244
7441		-0.3890687107022666
7443		0.5209788876082156
7444		0.6598156700083352
3081		0.09644461298149014
3084		0.44716995888212124
3086		1.1696294077608653
3089		0.32625116204927374
9010		0.14372566676415666
9013		-0.1543664847987103
9014		-1.2832937138753788
9018		0.8220993440041142
2060		-0.9785438714056999
2062		0.641720104668872
2063		-0.7690141919292283
2066		-0.9259939208473633
2068		-0.15132537495940462
2069		-0.01459579320253707
3861		-0.7386001045043508
3863		0.21192085818516843
3864		-0.6475512320751655
1790		-0.7521436688423881
1791		-1.4015317537461098
1793		0.30110615308889604
1795		0.2673690354138693
1797		-0.02686094178410718
1798		-2.4972487938488697
8720		-0.11708730831444404
8722		0.01920082993490563
8723		-0.047369745812588175
8725		0.6299416694544189
8726		1.577165337498808
8727		0.42004674631907707
8728		-1.6846700568122286
8729		-0.3984106858850106
7891		0.09253195421219818
7893		-1.5741635359410682
7895		-0.24006451049872374
8650		-2.5390008884059356
8651		1.258093072199767
8652		0.38627728398864103
8653		0.6162529490206982
8656		-11.07893181067182
8657		0.11522955233415758
8659		-0.2766811654213559
7863		0.06189240952795497
7867		-0.970046532103455
7868		0.04995831776013848
3930		0.0635974607398475
3936		-0.5900070044598519
3937		-0.09779781860060655
3938		-0.06516208306457541
2593		0.0998787872813879
2597		-1.1020440425639535
2598		-0.0305681384560132
2599		-0.020546560518500102
3395		-1.0930122590763627
3396		-1.364123646304122
3398		-0.13780031987026917
8761		1.8267525471247563
8763		1.0428307150298373
8766		0.338655308625558
8768		-4.39492007432355
8769		-1.8983326833973315
3050		0.1259537870294695
3055		-0.021725475581733926
3059		-0.22672317828937305
4230		1.9816859056884928
4231		-4.199499596686293
4232		-0.3275352569923828
4233		0.1018809701289952
4234		-0.29610390799027375
4235		-0.33319698642458995
4238		0.48493712037218306
4239		-1.2379253637427277
3950		-0.27105363384336223
3951		0.19321584929230926
3952		-0.031314000098940614
3953		0.08149840903852784
3954		0.6571794320187515
3956		0.5590625635336413
3957		0.5482363756966047
3958		0.12965095597495835
3973		-0.060751431287993145
3974		0.21431957205761515
3976		-0.41662166091287123
3978		-0.16999400684039565
3979		-0.8448411718340585
7201		0.3364811360230128
7202		-0.2844225392730067
7203		-0.9792339423709194
8191		0.2670276376085597
8192		0.5247377280319647
8194		0.4700304267248608
8195		0.31465025009449604
8196		-1.9124008098839462
8197		0.19150640528848709
8199		0.6146264283021389
7420		0.20055240756853207
7422		-0.2155260099081081
7423		-0.25392488582077555
7425		-0.026554277171612895
7426		1.65801406314495
7427		0.32593198115228245
7428		-0.9482437580019932
7429		-1.4517158400368075
9340		-0.08106358119212441
9341		0.5367762116359879
9346		0.8439670558892602
9349		0.9316369957287638
7611		0.2649433492178356
7614		-0.5544907071328293
7618		0.3389557113363758
8990		-1.1195477366066202
8991		0.7534653518575193
8996		0.5300811818332342
8997		0.8437791590641349
8999		-0.21864380483573034
8781		-0.6080137327630931
8785		-0.34253359270683176
8789		0.16720346573884987
9020		-0.9531592148732556
9021		-0.6678434712870933
9023		0.3121352775178364
9024		-0.15076116977194542
9025		-1.5926854396921541
9026		-0.17440919173456326
9027		-0.20488692712600332
2160		1.43881221477437
2161		-2.38564312000668
2162		0.7340307579403516
2166		1.1853113360342786
2168		0.28012798020197227
2169		-0.18535110823750633
8741		0.7423648504142877
8742		-0.5916014790673696
8744		-5.160352867708417
8747		0.08940795117046815
8748		-2.4489754214039827
9430		0.19262185294721015
9432		0.5411627627605101
9433		0.5899969660389158
9434		-0.520481165836967
9436		0.2669069346489519
8230		0.06862899286132233
8231		-7.158037965633946
8232		-1.7113077630444107
8234		0.34079243181762164
8235		-0.006231986042745332
8236		1.1558894233920034
8237		-1.2183381043150643
8238		1.3683996549048738
8239		-0.38392437070880575
2370		-10.425499460257724
2372		0.010008093917142923
2373		-0.1991067717999796
2375		0.5556496484579687
2376		0.26860259115680934
2379		-6.59308466566659
4571		-0.8713421691259194
4573		0.5162350763759735
4575		-0.22082766600205608
4577		0.46002494096045937
4578		0.3127478136788243
4579		-0.24148773637920362
4200		-0.16157415306916545
4202		-0.32270084002508065
4206		-0.5316624487327488
4207		0.8109115025706934
8340		-1.5674085504242579
8341		0.17911477608376206
8342		0.6850857516711155
8343		0.5503073928384065
8345		1.1536216298069135
8346		-0.3821316044437074
4660		-0.8885259181491972
4661		-9.363785373733736
4662		-0.45275453404069327
4664		-0.026429415076982207
4665		0.012623484817722323
4666		-0.5505114273558708
4669		1.0705907603598472
3430		-3.174254881235615
3432		0.7969059995134944
3433		0.9568313475784901
3434		0.37233621915096243
3435		0.1971463577878256
3436		-1.0134559073605578
3438		0.2574903753290418
3439		0.5285921894797553
6990		-0.510665638695066
6993		-1.57666020006437
6994		0.20899689488276638
6995		-1.8299910853023225
6996		-2.1530513216926543
6998		-0.5450272573770512
6999		-1.5676012531772319
3991		0.5916957815201902
3993		-0.5242283640140981
3994		-0.2847370775804778
3995		0.14283234055905064
3997		0.7899772087029194
3550		0.2922374830876255
3553		0.5714045847617024
3556		0.5068399624892812
3557		-0.41671221189635954
3558		0.5881623074258242
8592		0.08040251070801688
8595		0.06382543934227394
8597		0.21178488310427912
8598		-0.8829850034193832
2893		0.6140502439045635
4091		-0.04660840522515644
4092		0.0314027382218955
4094		1.0117418222219576
4098		-0.03859030972768901
6590		0.4490851061995839
6593		-0.04715703342525092
6594		0.45150877086960417
6595		-0.9758542129903356
6596		0.6603314701901026
6597		-1.468484999046088
6598		-0.7767226751393147
8921		-0.19467280857675467
8922		0.045791177296868185
8923		0.44105739368855573
8925		-0.4537230354840067
8926		-1.104158786646553
8927		1.0900735258812368
8928		-0.0953791930212954
3800		-0.05280801429110875
3804		-0.9469864465012572
3805		-0.7444344641956459
3806		0.9597334188532998
3807		0.8351908041661871
3808		-1.567450879597697
3809		-1.6010772338921633
7540		-1.7428323077675196
7546		0.4958620460355727
7548		0.5855781751074642
8255		0.48119229308921824
8256		-0.38520453494965146
8257		0.9403262263311184
8258		-0.4858235865123088
8259		-0.10893658567422945
8550		-0.8219192780941506
8554		-0.25510655127523585
8555		-0.04724450555887452
2791		-0.041292873958546604
2793		-0.17844260392018835
2794		-0.4728348722460334
2796		-1.1243150856704724
2797		0.5520174698361158
8882		0.5683425598587278
8884		0.2428872347157941
8885		-0.16044343741531622
8887		-0.3953852985839887
8888		0.5659663724883391
8889		0.6139296115061472
1761		-0.4241376929858161
1762		-0.35887780064828645
1763		-0.18941789627521818
1764		-0.44413138245169964
1766		-0.2751831136440509
1769		0.12963480055386997
4131		-0.30359860955346046
4132		0.09990967300556611
4134		0.0731322920690396
4135		0.42366384467394747
4137		0.043444713408435615
4138		0.4851179290776378
4139		-0.28625299232682727
7700		0.1298887075401765
7701		-0.5318595550685215
7703		1.6935338802177569
7705		-0.0691950236949231
7706		0.7923086696564523
3465		0.5019870360171881
3468		0.21282175757259383
3469		0.20695981529659094
6483		0.2289173642176709
6485		1.3373373812934053
6486		1.1280373518294786
6487		-0.1629842840798486
6488		1.1610811640731022
6489		-0.41709987549209976
1660		0.02249174708206929
1661		0.14933512140664568
1662		-1.12428534468603
1664		0.5997356075070243
1665		0.6593090754455574
1668		0.770205356199661
1669		0.08791225817361512
2724		0.5362574733936929
2725		-0.1530384145866824
2727		-0.18251274343981813
2728		-0.9146882264238612
2729		-1.7417441570533094
3760		0.3197775903493026
3761		0.01852566673100345
3763		-0.08280938712585827
3766		-1.1021008513448458
3768		1.2052379996763936
3821		0.9104615868516526
3823		1.1574298263181841
3824		0.45176205555688403
3825		0.27151919956457854
3826		0.7662307323969302
3827		-1.0714389906301593
3828		0.9106652995715002
3829		-2.247897833475428
8611		1.0314112145847847
8612		0.4544815157343919
8615		-0.6996559249116567
8616		0.8590974312282826
8618		-2.727178082221816
8619		0.2244781241594644
2140		0.2794424290676536
2142		-0.20848250925990647
2146		-0.3776251351858722
2148		0.5021701045662843
2149		0.2309539589897103
4702		0.6576141509399693
4703		0.2085226852749916
4704		0.5870096984371023
4706		-1.0583482651437588
4707		0.2186377300680995
4709		-2.029011932457351
9471		-0.28345123157216556
9473		-0.29163536713802574
9474		-0.5278511989464724
9475		0.1585940385267989
9476		-0.2871599786101872
9479		0.5392655907540675
6970		-1.5502470200806617
6971		-0.10290378867459204
6973		-0.19985766320301457
6974		-0.39721532193610365
6978		-0.5799875402076272
6979		-0.4634186254504603
2514		-1.6816056552153171
2516		-2.0897708723828186
2517		-0.7414105415356915
2519		-1.4482597083516815
7340		0.33714582640945007
7343		0.9139275697960202
7344		0.6666517696866556
7346		-0.11578125282358169
7347		-1.4642239588656076
7349		-0.1655808263479781
1671		-0.9778069601618131
1672		-0.0416084777295918
1673		0.4391235530138833
1674		0.7173501301106229
1675		-1.7905004172119992
1679		0.07579659832188497
790		-0.9577267451067569
792		-0.6195283354507093
793		-0.23031545256820263
7140		0.6925430338360862
7141		0.3631227131405775
7142		-0.031642573088760804
7148		0.769539955212024
7149		0.9536822728453123
6492		-0.019250001293776582
6493		0.03312186574838649
6496		0.6337998736120068
6497		-0.5738870206096198
6498		-0.942272472960949
6499		0.9590256511520816
5942		0.4036902360637966
5944		0.22161023137459235
5946		-1.642847038315258
5947		0.698855053583679
5948		0.08099033368244482
2311		-0.7824837078612641
2312		-0.5522481655715104
2314		0.27856516920777313
2315		0.6265654078390908
2318		0.22520790001556298
7510		1.549198743173349
7511		0.0015359347042477461
7512		-0.020232524475200547
7515		-0.7427429234859249
7518		-0.0011673623962021944
7519		-0.04709776922527367
1480		0.3891093777608461
1482		-2.3445789066669507
1484		-0.3881645044423747
1486		0.3009313550653944
1488		0.36391466174209225
7470		0.37494091264654156
7471		-0.3342360036869102
7473		0.6732482096380005
7476		0.011852735251000104
7477		0.5112262363489102
7479		0.44453782884708076
2691		0.610321746632558
2694		-1.1540240833886073
2698		0.7257052805560096
2650		-0.5740434240645825
2653		1.1791939550277322
2655		0.633341955477738
2656		-1.604588302729602
2657		0.33957507893615485
6810		0.4534351361352373
6811		-0.49287822599247527
6812		-0.37348790514538627
6814		-0.6168914351565244
6818		0.36901851131857544
6819		0.34712189551603884
1981		-0.39155938523857886
1983		-1.3698715282849654
1985		-2.347018729407218
1987		0.20787769675379753
1989		-1.1663102648882104
8871		0.5860538755396166
8876		-0.08147562854079049
8879		0.905439175790274
1800		-0.35813277793065484
1801		0.4626649367225951
1804		0.664343121636978
1805		-2.1311645598520634
1807		0.045273218707811626
1808		-0.156673405285005
4081		-2.456127511629061
4083		-0.22809859214030825
4088		0.08364491909098447
4089		-1.260764558057581
3458		-0.563790873527222
3459		-0.6579188439830327
6630		-2.275852841460112
6631		0.021656992991054412
6633		-1.6289279047234018
6634		-0.7086681648723342
6639		-0.2954400503774621
4070		-0.38239524632477817
4072		0.7117088632236969
4073		0.37623262493265486
4076		0.021156366650869927
4077		-1.872519175098779
4079		0.5890356774379397
8861		-0.41588841670817817
8862		1.5894465414546268
8864		0.35096417120851825
8865		0.9741954784620199
8866		-1.8172667103073008
8868		-0.24065796231990835
1740		0.29401243753544687
1743		-1.0432611526259932
1744		0.29289165702034387
1746		0.07517241539022808
1747		-0.4249437490272695
9490		0.2773959138605067
9491		0.3092563491598541
9493		0.09164640178162878
9494		-0.39007403149456993
9497		-0.15540728342067606
9499		0.3790732184390765
6570		-1.3007984148987324
6572		0.8314303876291833
6575		0.1481698320367141
6578		0.512425816102668
6579		-0.5109968922838543
4721		0.6978854491636607
4722		0.4190078022328729
4723		-0.15117727639329262
4725		-0.4050506975931211
4727		0.35959062157718014
4728		0.1713567607070477
2150		0.3034061386453227
2152		-0.7867836876355322
2155		0.3909401978907955
2157		-0.47600942918724254
2158		0.23486236080583703
2159		-1.066194006192681
6981		-0.736280264744887
6982		-0.23240300030391556
6984		0.5668789047693233
6985		0.708387077496699
6986		0.39478733308872055
6987		0.44643575625186366
10750		-0.6016587990508053
10751		0.1662193066683162
10753		0.04354366036500863
10754		0.43542671585521975
10757		-0.475607752644853
10758		-0.26811950055715555
4490		0.2166019213859412
4491		-1.6580669923060183
4496		-0.29947788422647076
4498		0.8493559934559167
4790		0.3066153447220401
4791		-0.3085152277699106
4793		-0.07154728334274553
4795		-1.1993308843414923
4796		-1.0809926522451503
4799		-1.686066093117205
9551		-0.27693381744749357
9554		0.40408313978354293
9556		-1.1232623322160482
9557		0.2890876304213291
9351		-1.0290380822482847
9352		1.9452426333387502
9354		0.387119864548193
9357		-0.975196616696465
9358		0.14429683415513983
9359		0.22993518013318132
4580		0.2793142180658369
4582		-0.4812669693860793
4584		0.31967918965514047
4585		0.5415219144103265
4587		0.8912980579212012
1751		-0.5965838371500035
1755		0.5935187123296984
1758		0.3573022601218904
6580		0.7754045514810874
6582		0.5706114849764261
6583		-0.2589150236503908
6584		0.062942196462997
6586		-1.8227907704783948
6589		0.10778074809177896
690		-1.437202291999996
691		-5.670215836524553
692		-1.0928061143805667
693		-0.8718577995374661
695		-1.1885444815761594
699		-0.12958957836565915
1383		0.24803364325291172
1384		0.4848920971510834
1386		-0.6646564743614897
1387		0.07191173604402692
1388		-0.33028753907312963
5842		0.489015960228056
5847		0.31869423178891093
8212		-0.1524032271228704
8215		-1.7095762307621853
8216		-0.5225536668943818
8217		0.8359512616275908
4451		-0.5923833278928676
4452		-0.1955701519101394
4454		-1.2817564154982093
4455		0.0035785486210387837
4457		-0.4376147907840621
4459		-0.23908806219437873
3410		1.1051182578459466
3411		1.7032325811630316
3412		0.8338049016068023
3415		-0.4874817538939248
3416		0.35260240111087215
3418		-1.1361245491754635
9240		0.9691651281363198
9241		-0.7647041777354711
9245		-0.2252600370211335
9247		-0.3004525971432066
9248		-1.753857942313887
1881		-0.27791351589108626
1882		0.18949359519287073
1885		0.06146620416135943
1886		0.5246718855120195
1889		0.1926852199988835
6710		0.1026755124953436
6711		-2.8208916423409174
6713		-1.0283216801294481
6714		0.38085006067371746
6715		-0.15845778574084868
6716		-0.2636403260237006
6718		0.9626267942871995
6719		0.5401799672849128
1920		0.08657533219462303
1923		-0.23745082042677565
1926		-0.8668244880233302
1928		-0.7172268634109786
1929		-0.3731620921893448
6753		0.06686635872719163
6754		-6.9302200879047335
6757		2.309563334076835
8091		0.8883546172421075
8092		0.8239395473545078
8095		1.3710221131755402
8096		0.10807302492217893
8098		-0.7412647813609371
8099		0.7215642819937488
723		-0.6295397834364228
724		0.548675329822134
725		-1.4522087864923645
728		-0.6205704446230953
729		0.43228849278593645
1411		0.1686440157486581
1413		0.3859343804384942
1414		-0.450177825822148
1415		1.6696798474597787
1417		-0.8952246080425231
2032		0.1893484498084189
2033		-1.4623640900563095
2034		-0.2142576231118546
2038		0.10406633250453735
2039		-1.1110703725894604
5870		0.16253077514876166
5873		0.39248448636613975
5874		0.860119518178087
5875		0.06282732549588642
5876		-0.2318407155577192
5877		-0.1297971768468714
5878		-0.5091841808930394
5879		0.31727195892798615
6861		-0.7697933902594755
6862		-0.16674720719163452
6863		0.6411653512791212
6865		0.031168196344671766
3292		1.056704837619207
3293		-0.20901611145800153
3298		-0.09879980075713059
2733		-0.15651737776989597
2736		0.19161262908321483
2738		0.6950124606925356
7731		0.5198269845683303
7733		0.954272586656269
7737		-0.5986855732941884
7550		-2.11001376823868
7551		1.407391860222237
7552		-0.7781757315798072
7553		0.35547478407149546
7554		0.2580772039079281
7556		0.09157316244349371
2922		0.3602619598210643
2923		0.5644818806616315
2924		0.6746334644861774
2926		-1.2071529114313373
2927		-0.46899541028507713
2929		-0.07771698571793101
7393		0.2286608069810366
7394		0.7669356837697359
7396		-0.0065186970612250116
7397		0.12244497528149909
5910		0.7159294903952557
5912		0.2521103144767543
5913		0.7787226885721347
5918		-0.3010947169798869
5919		-0.8582919559933627
2560		-0.9517296881167463
2561		0.20589793984831745
2562		0.6221144347958895
2563		-0.7054347966167477
2565		0.15810918030881746
2566		0.3703991059061202
2567		-0.8352179329910662
1450		0.6375279643109513
1452		0.42350830323983374
1453		-0.12267095982851567
1454		0.5836467416206623
1455		-0.21825364977022804
1456		0.2398348615584183
1457		0.20160381170710331
1459		-0.07146641367121212
761		-0.3602289966973654
769		-20.39706725541199
711		-0.17049740552390483
712		0.11713168427541343
713		-0.01787390884805818
715		0.06205100274760657
718		-0.1569545033695171
6460		0.37113499027762753
6466		0.2414091418520306
6467		0.14751061434737647
6469		-0.1968456659919238
830		0.3562519262301663
833		0.7029679178289013
836		0.6760431841753566
837		0.3447756404304068
839		-0.07139594948627451
5601		-0.7552998223240031
5604		-1.202129882376288
5605		-0.11095677828671119
5609		-1.2013259022971383
1400		0.7590728990377409
1402		-0.524983423767486
1404		0.7718322596362532
1406		-0.34733569622730104
1408		0.10832599630024128
1520		0.31843133528817574
1523		-0.07722787283016969
1528		-0.43262924281088505
1529		-0.05327827926968484
5821		0.7482784152188954
5823		0.0027413649279487353
5825		0.24233901354096635
7780		0.1758733982001337
7784		-1.2384362698862992
7785		0.08445228795207844
7786		0.5279351372641172
7788		-2.129652017695756
7789		-0.2621239600133741
430		-0.14027399189400275
432		0.9793080204262549
433		-1.4000170920080983
436		0.040308631855948115
437		-1.606756742248672
439		0.6780904283514244
7113		-0.1726177869382958
7116		-0.5876757870470634
7117		-0.8190115926959596
7118		-0.8064106900106535
7119		-0.10347007747965342
2974		0.9761501321551074
2975		-0.3126614819951444
2976		-1.7775654934196368
2979		-1.2253743742880931
2280		0.09290674082476882
2281		0.7346170589088163
2282		-0.2994013914680305
2288		-0.725568971867665
1145		0.5559245224835307
1146		-0.3325187404731971
1148		-1.0051783978472202
6851		-0.2212399850660983
6852		-0.08810306931621685
6855		0.8518802793663904
6859		0.370217450190146
1820		0.3409874741438099
1821		-0.6094970495492905
1823		-0.7165598269109112
1824		0.7551520860168345
1825		0.9265664508200016
1828		-1.041579722216445
1829		0.06331058418529192
6651		-3.0231431674951956
6653		1.1539685979671532
6657		1.089492143998563
2023		-1.3137159523313815
2026		-0.870167636543496
2027		-0.38176312843322086
2028		0.5844747106893108
7770		0.8196501224808456
7771		-1.46724423385382
7772		-0.06600044845965677
7775		-0.16663556586977654
7776		0.06401680705411773
7777		0.024294633840691183
7779		1.116506488193662
9281		0.013166232912881312
9282		-1.0023553595133725
9283		-0.7661539316403837
9288		0.5897300422874737
2961		-0.7623000318821183
2962		0.31116765851064887
2964		-1.445879798859685
2967		0.3229126192577001
2968		0.34094421771836636
4510		0.5472887213643276
4513		-3.224951470342499
4514		-0.2857451571414898
4515		-0.44776127326259857
4516		-0.7739507126653417
4519		-0.3161950723050099
4760		-0.7577631517161452
4763		0.10354955194725728
4765		1.1205952702404542
4768		0.26110371827326917
9522		-1.4179316628785157
9523		-0.22791211885394475
9524		0.07970706177103958
9525		-1.175859054120666
10360		-0.5671578297489973
10361		1.0263800150915063
10362		0.41452585208701037
10366		1.304764179338699
10367		1.3676801355327646
10369		0.859699263766863
9273		-0.2370423527192318
9274		-0.44862806937984906
9276		-0.0664985743939781
9277		0.1550943010003748
9278		-0.10486118262853539
9279		-0.7855870435370477
1533		0.30748255962204607
1535		0.5436577370780858
1537		-0.9761618619423075
1539		1.0819870409512788
5862		0.49777819143217816
5863		-0.23001885529205227
5864		0.5723238282124866
5865		0.0957173187286012
5869		0.34373876913872276
5985		-0.3291079279657894
5987		-0.730571754696949
5988		0.42763306317147504
5989		-0.5637683509236073
670		0.8059026594812466
672		0.9302698245199529
673		-0.1135833210761314
674		0.16280875184296623
676		0.32019512340248374
677		-1.2683207858012158
678		-0.8043898770696623
679		-0.3609503256535404
1250		0.33105653251124745
1252		0.8998413434719759
1254		-0.18317742263910602
1258		0.06240722359450944
560		0.7611522790005176
561		0.1285993462573444
564		0.12875134729459423
565		0.5071462058648023
566		0.6063080972159877
568		0.6017099030048108
840		0.3939667497377119
842		-0.7359399555976689
843		-0.8076729307981776
845		0.6295099567797715
848		-0.5099825679323462
5710		0.5974613646402182
5712		0.38038153944797115
5714		-0.5854938527110141
5715		-0.27575472602453704
5717		0.4304072088893215
5719		-0.3135621270821593
1360		-3.2294196885833104
1361		-0.6700088430433546
1363		0.2781222043050089
1364		-0.45830396713714805
1367		0.9772665520041423
7280		0.4648381961691412
7281		0.1366159400634117
7283		-0.4624083032973647
7286		0.28204702624370825
7287		-0.9148311070895133
2450		0.4058807617171841
2452		-4.8752767364561
2455		0.27999732563685115
2456		-0.9954099507016817
2457		0.11660619823925265
2459		0.5479166507486678
1720		0.7078791240255142
1724		0.6086577331657663
1727		-1.7017031109769385
1729		-0.22051373801603355
6552		0.6883266822757164
6553		0.19067861292679014
6554		-0.06865982361946397
6557		0.04408219507963548
3723		-0.6916187484525487
3726		-0.8462266817018832
3729		-1.4260582969990734
8511		-0.3183124625589781
3002		-0.24771295139227884
3004		-0.322077897570245
3005		0.9349474338809922
3008		0.21185690822845474
7810		-1.7852018077446041
7812		0.3242873570210435
7813		0.8320990878029128
7814		0.17534686959730159
7815		-0.277766469019407
7817		-0.6689336559460598
7819		-2.628586965545749
11210		0.9989578657831046
11211		0.7112190367902452
11213		0.4458885907302736
11214		-0.423638386737863
11215		0.6380597946092331
11216		-0.6083070248062871
11218		-1.5762474303626082
10720		-0.0015117923301354538
10721		-0.2525087645056742
10722		-2.678465349362672
10723		1.3445527873284704
10724		0.15474316962753765
10726		0.09144998639123424
10728		-0.863569922752675
10729		-0.23218231988530685
11351		-0.4592469561270928
11353		0.8037667895200712
11357		0.18439390784479356
11358		0.8922148049411698
11359		-0.7584374221334738
10340		-0.0060063940254921466
10341		0.6453516074019454
10342		0.37477225113204676
10344		-0.6720688205521658
10345		-1.6633326529007149
10346		-0.05524395234135375
10348		-0.12327869217881987
10349		-0.20283650590097607
10642		-1.672069140540755
10643		0.3234771519205283
10648		0.4373846791340848
10670		0.7563847082125112
10671		0.07746908592494604
10672		-0.05099699199882574
10673		1.1049705557344756
10675		-1.0473376590614736
10676		-0.7424964624305239
10677		0.9676461271305287
10921		-0.2595574667555725
10922		-0.22251134427506894
10923		-0.36904151925010564
10926		-3.9745717367629365
10928		0.026953445075172895
10623		-0.006469407609069648
10627		0.05756301732766708
10628		-0.06960674057020452
10629		-0.7804008519718799
9421		-0.4012577273586779
9423		-0.4301169853148348
9424		0.03524946120213843
9429		0.11877776995203779
11290		0.5549187659521955
11299		0.2734759750465168
10817		-0.13046847586145338
10818		-0.022135470839339647
11191		-0.18793930315889684
11192		-1.278315453901207
11193		0.010430641494372842
11196		-0.11748501580230936
11198		0.6306386027654481
11199		0.8912334350006046
11360		0.49794961246184305
11364		0.5637456030837404
11365		1.1100861885667346
11366		-0.15441363300911656
9177		-0.2993613903723327
9178		0.3701973663874493
10980		0.06039367174981834
10984		-0.444314233106642
10987		0.27535511894016207
10500		-0.5367486071949525
10503		-0.8220986640501291
10508		-0.654535195388431
10509		0.4057274752331242
10430		-0.6645699418376044
10431		0.38662163348484724
10432		0.4573278272878368
10434		-0.1506529540176092
10435		0.5586006615599581
10437		0.9109431932352016
4382		0.4919340295987748
4383		0.7020414336123961
4384		0.83524673559276
4387		0.056457894222937836
4388		-0.7655501077640184
10392		-0.1901408046283106
10396		-0.03408401203759277
10930		0.20344730392356533
10932		-1.384738301242939
10933		-0.7786731836542011
10936		0.0949886780284875
10938		-0.912012826565246
10939		-0.3537017611444879
10650		0.2378599185756758
10652		-0.41996214932061643
10653		-0.015260531586915272
10654		-2.4591630993094125
10656		-1.6824626383800183
10658		-0.3887445254196492
10659		-0.3031215219810101
8960		0.5569345648154819
8961		-0.14655872968171124
8962		0.6627820998820392
8963		-1.1255317512272303
8965		0.6577960029219929
8966		-0.02633010456562795
8969		0.04045101418361069
10880		-0.6887461485944916
10881		0.7892224738308254
10882		-1.4323073828405326
10886		-2.4687226223117182
4171		0.029889533497445935
4173		-0.1829008643426959
4174		-1.4374994499626756
11010		0.18321274141510915
11012		-2.5754545627307075
11013		0.483758825842162
11014		-0.05650473374064515
11015		-0.054099791726690695
11016		0.10718728798830715
11017		-0.13581554864313955
11018		0.8328256108739084
11220		-0.2765007849159683
11221		0.7617822252378023
11222		0.27841815962968003
11223		0.6030055172546137
11224		-1.0799040594216325
11226		-1.3609606325430867
11227		1.0791391351036341
11228		-0.08757273620581814
7330		-0.4605009011231786
7331		-0.32183986604237474
7334		-1.249067519162361
7338		-0.6721037779893295
1852		-0.052115881466757885
1856		0.1844957647172733
1858		0.8430742538629068
6682		0.3521866911799615
6683		-0.8192154476329688
6687		0.9443523982048097
6688		-0.14998571639052394
10421		-0.23802522162254597
10424		-0.5806622942786256
10426		0.5080241032558418
10427		-1.3842569581449158
11470		-0.3481876493112066
11471		0.0898123626435767
11472		0.3799371499041687
11475		1.0066872123772368
11476		0.5359764519568949
11477		-0.4946306252312297
10970		0.6450990274847925
10975		-0.4522713502871589
10978		-0.1844668280228113
10770		-1.6279493990887968
10772		0.9114164614559266
10773		0.1792783231821065
10774		-0.563391765415214
10777		0.5351969071731362
10778		0.22362701308729302
10761		-1.4132591416520524
10763		-0.31571246333979436
10764		-3.1182111757635984
10769		1.210568565317492
11110		0.1493054233180828
11113		-0.2380120022033759
11114		0.33408494356705776
11116		-0.14330145615864662
11117		0.37008204169535086
11118		0.40072427958795537
11119		1.2155360069254744
11020		0.11638590634808361
11021		-0.4142484094397142
11026		-0.699692587245395
11027		-0.9716154057118251
11029		1.519225229462866
11251		-0.00809977724175005
11252		-1.7294153857971066
11253		1.2540496994363763
11256		0.2484161471725704
11258		0.07507604338000641
5902		-0.17837971574985556
5904		0.06530937407318672
5905		-0.20298678564758646
5906		-0.27692983820536926
5907		-0.2728456659009228
5908		0.06939247078561393
11580		1.2603381729931442
11583		-0.009409990343126355
11584		0.10893454044213063
11585		0.12497226199616569
11586		0.38139602204681056
11587		-12.411983508472115
11588		0.9835536810310705
11790		-0.7072174151104442
11792		-0.20339084450983133
11794		0.041455718840366834
11796		0.05456030376039679
11660		-0.12594016201472627
11662		0.5413408762388523
11665		-0.14120714866170955
11668		0.47587990629450433
11669		0.6237144054502878
11441		0.5837700079175409
11442		-3.142241080959093
11446		-2.2229177394020216
11448		0.15782672153228197
10604		-1.0031744219346719
11850		1.2247270117075237
11851		-1.346073162837362
11852		0.2572749310834984
11856		0.19693271282597116
11857		0.04716582860077007
11859		-0.7715889178299596
2010		-0.21697351097503254
2013		-0.6002023495278657
2017		-0.11078103223547565
2018		0.0297501535262573
10681		-1.2105472591130415
10683		-0.10097832999570877
10684		-1.0269606556626298
10685		-1.518043177566975
10686		-1.9773221008924833
10689		0.967640786159447
10995		-0.3497207749736446
10997		0.8444232376596168
10998		-0.457204724360206
10999		-1.9863917925868944
11180		-1.2611279420340393
11182		0.26675822950840483
11186		-0.8760686459255477
11187		-1.3097325078207664
11650		-0.7578525659178846
11652		0.42830544903756934
11658		0.2530423881531758
11659		0.22858426210945496
3360		0.7694770098966587
3361		0.22129057120776358
3362		-1.4359923412889337
3363		-1.072535292927878
3366		-2.553117037799628
3369		-0.24996699431488506
11082		0.11918114951693012
11087		-0.2896950271925401
10785		0.509331997145176
10788		-0.036060136345187815
10789		0.23451397340559516
11421		-0.22218774121464221
11423		-1.813175966658453
11427		-0.028867707649372853
11428		0.01711540227969279
11429		0.1918074687130486
10460		-1.5713588948060513
10461		0.22460589292241773
10463		0.5420149816397422
10464		1.3644082957431787
10466		-0.8926981136035048
10467		0.04688763151531457
10468		0.3218115988010213
1440		-0.5576080178297411
1442		0.49714216777840753
1443		-0.08883341556280903
1445		-0.5370247113146772
1446		0.07033043061927335
1447		0.19770796122843934
1448		-0.5226090436330251
1449		0.43659400806560833
6840		-0.6924766290997734
6842		-0.8692226139301564
6843		0.2010790566845289
6844		0.19738069570252892
6846		-1.77674908026721
6847		0.11032793156345569
6848		-0.9230806433633818
8161		-0.021010536237212395
8163		-0.7409661367703598
8166		0.49473715561406895
8169		0.006605272289580747
11451		-0.006297625426884362
11453		-0.07464437713849259
11455		0.36239276611828536
11457		0.34013277476143655
11458		1.0680922672791133
11459		0.30880388881553494
752		0.25353166783009
756		0.5552093031974445
757		-0.0815582933383668
759		-0.0716578412963874
5033		-0.8028831813164694
5034		0.9588691204514508
5036		-0.6042120006098489
2500		-1.4883758935735285
2503		-0.5655730607872369
2504		0.11673753858975895
2505		-0.12805486340196467
2507		0.43387210014588573
2508		0.16580510351611633
11681		0.46947733673613895
11684		-0.08323742131580938
11687		0.5321993177839768
11688		-0.33536157021503304
11689		0.15136695556627994
11340		0.2351372911585948
11342		0.2654943711591092
11344		0.030928198320553043
11346		0.00597187088335518
11348		-0.014648293400002382
9670		0.7053116508352142
9672		0.27500532313322423
9673		-0.5724961792719571
9674		0.3826950873977639
9676		0.9870618935703742
9677		0.11818475983652861
4910		-0.8295050034166151
4911		-2.379720472104985
4912		-1.2196419419804856
4916		-0.08088520090316083
4919		-0.8869276162293607
4854		-0.15316194123024865
4856		0.8545379233445732
4857		-0.2533229902566418
4859		-0.9068060001820195
5050		-1.3817053564989548
5051		-1.3982893006897015
5055		0.5834393122913722
5056		-1.4289721720484572
5058		0.6834969841123325
5059		-0.3282682396817085
11152		0.43684819870103336
11153		0.38855286043267184
11155		-0.23050162665709809
11158		-0.2948025607626633
11159		0.8188284463855615
11631		-1.2038306868903825
11632		0.2986166846099024
11636		-0.05461210843435065
11639		-0.058571939160825565
9610		0.3078103752522406
9611		-0.20951764399642434
9612		0.17947338631522036
9613		-0.728367528132492
9615		0.34254001689124597
9616		0.23037299755611465
9618		0.348476497872744
632		1.070171265847793
633		-0.8310226074973176
634		1.2506495703313105
639		-0.37495521858714
5061		-0.09408582615848603
5062		0.2165046638452673
5066		-1.6477263667980455
5067		-0.5877999744849332
5069		0.7128739841836605
1323		-0.664926152843589
1324		0.5267860319898622
1326		0.07904678022492004
1327		-0.05837670650497379
1329		-2.5519571942918717
9820		-0.41910181328215845
9822		-1.5989569476250203
9823		-0.053721116956593755
9827		-0.5240438159021361
5781		-2.8071822572680616
5782		-1.885849632162719
5784		-1.0710042358387328
5786		-2.4525557357031116
5788		-0.4695879314408626
5789		-4.90428655157295
9750		0.07423281486987193
9753		-0.48271110559450864
9754		-0.8645661973984405
9755		-0.2762091369897475
9757		0.8722746167628473
9758		-1.0362343598215438
9759		0.3680764453266865
9140		0.4096297340843341
9142		-0.7637802383894641
9143		0.20168278130066267
9145		0.6613359670813717
9147		0.3734123301235736
9149		-3.1124776981096196
11600		-0.5201444750048764
11603		0.9988733119794857
11605		0.7763924995287156
11606		-1.6075411170356746
11607		-0.49118402542121264
11608		0.5647839754970626
11609		0.35466034639064037
4990		0.17513670843612722
4996		2.0214665872151514
4997		-0.42966175504435977
4998		0.670353133512214
4999		-0.6799735746824112
4842		-0.227373920806869
4843		0.09934097002142199
4844		-0.012348510086509437
4845		-0.0014600768615098932
4846		0.8010904328096352
4848		-0.1254255168537028
4849		0.004305645031699535
4350		-0.10787058800968585
4351		0.10279839205875549
4357		-0.4511381980847503
11091		-0.4090069598578451
11093		0.31782271492176006
11094		0.6075332397266568
11097		-0.47245669694314973
860		0.5913231905764088
861		0.38099115303599534
864		0.8682225099013047
866		0.5824684645266826
869		-0.6311139511193455
6770		0.9928803350193075
6771		1.573524515237237
6772		0.3093660928828988
6777		0.17474357583703837
6778		-0.9533072880757913
6779		0.576991213822599
4861		-0.12189264491958142
4863		-0.6120384283519219
4864		0.1241518833381947
4865		-1.3962160548685585
4867		2.1118565380061454
4868		-0.06903157414062605
4869		0.4425070930407282
9700		-0.832059474130098
9701		-0.4458652503690456
9702		0.1687758244291445
9705		-0.5116551086572172
9706		0.27606056597197715
9707		-0.5842313784607873
1940		-2.1980746910832845
1942		-1.1918734894496736
1947		0.9729753376807045
1948		0.6882361349938335
1550		0.13900363668013135
1553		-4.524974604567135
1554		0.40319975119791
1557		-0.2707305795842275
1558		-0.725850109442943
1559		0.06121140852394065
9620		0.4716160155977555
9622		-0.6099643654914898
9629		0.9628401120868545
4942		0.13970797688691725
4944		-1.017445187606407
4945		0.3189622736849026
4946		0.6267797206678513
4947		-1.4591355663493735
4948		-1.5547215019508236
4949		-0.8171271727534257
11571		-0.5507898506729585
11574		0.19435023057722148
11575		-0.4798351130442435
11578		0.4673027445779288
10300		-0.466214169316132
10302		0.5979865166010913
10303		-0.2509690486579851
10304		-1.6127007167262095
10305		0.17576219841131585
10306		-0.9237324373263659
10307		0.30616952020438115
10309		-1.415897393170366
7302		-0.01859654392804471
7303		0.6656399748958066
7305		0.4432943305715175
7308		-0.7219783831377938
9601		-1.0128445932550343
9602		-0.02724600583846667
9605		-0.9963122777669522
9608		0.6279638631755183
6000		-2.19835095956749
6001		-0.2591070885363088
6003		-0.040787380187995166
6005		-1.0271451498148638
6006		-0.5173319446681027
6007		0.7832266252213556
6009		0.5140330261678301
4803		-0.776687918677582
4804		0.5073341590435604
4806		-0.04338157154458783
4807		0.2651879756452751
4808		-0.376193490406434
4809		0.35753196713741353
9710		0.029087036754661514
9714		-0.2334427253779953
9715		-1.0904604743837616
9718		0.4044521956970944
9582		0.43120576736870825
9583		0.22818330442342177
5151		0.0023973527906777535
5154		0.9087016320501955
5157		-0.3526645986421269
5130		-0.7528868666604697
5132		0.014176516781596463
5136		0.8296283345876043
5138		0.0945612518386374
5139		-1.3174005701295814
5170		0.5931520345012801
5171		-1.2056727432244025
5173		0.06668460522526631
5174		-0.6445053507309731
5176		-0.1349809953638218
5178		-0.13257238702677068
5179		-0.5143128158881466
4881		-0.3063772808956992
4882		-8.133613322283358
4883		0.614850859766068
4885		0.13097378365712337
4886		-0.6949511463237028
4888		0.6037346735870134
4889		0.4473223102631178
4950		-1.5357166526572947
4952		0.7196460476582559
4953		-0.5921874753867857
4955		-0.512359206257304
4958		0.119667221239053
5000		-0.4498771871168069
5003		-0.9492738660097282
5004		-0.4860225087536581
5007		-0.9490986639699217
5008		-1.2416415565667196
4893		-1.2228451608339992
4894		0.17180958114390954
4895		-0.18670585531502754
4897		-0.250447907598432
4898		-0.3846428922370513
4821		-0.11685537012524748
4824		-0.3833266881645579
4825		-0.04487846863907285
4826		-1.3529425111580564
4827		-0.9029694410601479
4829		-0.32782493975182364
9690		0.4906396423886802
9693		-0.16336623009473747
9694		-0.12882973486219412
9695		0.6719540752017032
9697		0.3261427022029301
9699		0.33736875375423725
9741		-0.2652206417086537
9743		0.8153541305166047
9744		0.4442430130162183
2471		0.39781353375209205
2477		-1.1746286150113623
2478		0.4363383246382154
2120		-0.4116403115423931
2122		0.23332149919300274
2126		-1.479695693282802
2127		-0.028393828966136462
2129		-0.029258316273535923
9640		-0.5539826545631944
9641		0.317488534062414
9642		-1.6360687034615624
9644		0.13187493510700382
9646		1.0760479161080125
9647		-0.1333475260259074
9649		0.13253118404739608
1371		0.06420433724472094
1374		0.5711502799891913
1375		-0.3593957190444818
1376		-0.087145253933292
1377		0.15462493878218167
1378		-0.5628685101672891
1379		-1.2601977483473055
1240		0.030356957372268786
1243		-1.0704772234320967
1245		0.19377705452407418
1246		-0.5956821075194193
1247		0.20001528394467716
1249		-0.2037490169944725
9760		0.6189708192945326
9761		0.6074615641511405
9764		0.8806123580672267
9765		0.001760736096671711
9767		0.9528103096982682
9769		0.09902103092000186
9652		-0.5294442381322784
9655		-1.1908620469112263
9657		0.1416323161592034
9658		-0.29398173903488795
9659		0.24573141956085695
4931		-0.23200488709440903
4932		0.10831401497450097
4934		-0.002071399180286587
4938		-0.19469084334506095
4939		0.4831391933565684
5160		0.6511371805193127
5165		-0.8968549476162498
4981		0.49310715303520186
4982		0.26966704055974117
4985		0.6443188298126289
4988		-1.9089239780375016
4989		-1.0153237974327638
681		-0.4000568182637874
683		0.7576770826085208
685		-3.9854920277877532
687		1.7896622221267464
689		-1.0866140589044744
6950		0.36593476342785947
6953		0.9500548167065428
6954		0.12950538285183796
6955		0.10397379421613986
6956		0.2305191278884423
6957		-0.17376991773010478
980		0.04752716041764295
981		0.06556585180386167
982		0.1566368291637985
983		0.45863892833338776
985		-0.23599330727621323
988		-15.75069706517228
5700		1.2285475820162024
5701		-0.26534988318288744
5702		0.11232652058131208
5703		0.7705326864066891
5708		-1.7430198106338954
5042		0.5620584518966953
5044		0.9077593717070799
5045		-0.20885255068344327
5046		1.4080386353391463
5047		0.22457208124915942
5048		-2.3251201472125596
5049		0.32261924666382
9630		0.457519478222516
9633		-0.06094547862121508
9634		-0.16719602804612052
9636		1.5015552245786188
9637		0.42649212465660985
9638		-0.529796334867601
9639		0.8011341177057129
5124		-0.02039815714679657
5125		-0.2521243150689318
5127		-0.09528649601884248
5129		0.5395112215134983
4973		-0.556211612425994
4975		1.0186826211506028
4977		0.30783715568528774
4979		-0.9234942213360449
10521		-0.5239160433877357
10525		-0.2842400739070004
10526		0.5239053399737837
10528		0.7481798447874711
9213		-0.46225029213280866
9214		-0.4597169660172845
9215		0.6850642614744222
9216		0.6901149878822656
9218		0.6312262374986128
4870		-0.7094652539942419
4871		-1.860278793480349
4872		-0.07701000414447591
4878		-0.05497675093511927
4879		0.1680257318311787
4901		0.03997537240120777
4902		-1.980930462827887
4904		0.5749282270037634
4905		-0.6962039334389457
4907		-0.3416506792966307
4908		0.0447813925685586
490		0.8099312271916184
492		0.5090465529709691
497		-0.292126275441018
498		-0.026628857183171248
13		-1.3230436257980667
15		-1.008835787990835
18		-0.5877239940127674
19		-0.647209496733857
9733		-1.6572256032652046
9734		1.1894862307678746
9735		0.4308945777755672
9736		0.030777173518511683
9737		0.5707460784197221
9738		-0.3005847383551772
9739		-0.5640726030806141
5071		0.15601845187872426
5072		0.9780900964299345
5073		1.0313109319985656
5075		0.30021722275801793
5076		-2.4082110508888532
5079		-0.08358081150466659
1894		-0.6191512433440189
1895		0.530104457697506
1896		0.14029712538703115
1897		0.2304325551411414
1899		0.32682183883568877
4422		-0.9949064314627315
4423		0.18499905437103803
4428		1.2358481230633487
4830		-0.5553014427508948
4833		0.35101442345294487
4835		0.2708072664344679
4836		0.2873099072839711
4838		-0.4530844881802811
4839		0.44544998675210623
1204		0.5896987506946251
1205		-1.0858300775153344
1206		0.5430820796293909
1207		-0.0510455844508604
1208		-0.1155372452114083
1209		0.5834880511906397
5673		-0.8333969862139943
5674		-0.2408254146698024
5679		0.18316820790785612
9660		-0.7996548517197346
9661		-0.6114207909213879
9662		-0.48182252915100104
9665		0.2708140419476468
9666		0.22080429606286633
9669		-2.5901710945064083
4642		0.15039883331264803
4643		-0.7458887604460578
4644		-0.15146084142368405
4645		-0.32799337575649556
5020		-0.041301709123764435
5023		-1.5272778683846302
5024		-2.64201310582567
5027		0.30369944196098103
5028		-1.0621899275215851
540		0.5961130903627253
543		-0.22993683740389295
547		0.5561340002997252
501		0.5092283126176949
502		0.0498527865391064
503		-0.5514032321750207
504		0.5063314870817268
505		-0.6161232438296106
506		0.05864620512602695
508		0.3965896894807382
509		-0.10995142219385923
9410		-1.5981488839305447
9411		0.2716259695090294
9414		-0.3267793437066162
9415		-0.30974119709519204
9416		-0.6714192249865873
9417		0.600905528093273
9419		-0.37421876359363176
5090		0.4522464333613974
5091		-0.8286852121405907
6725		0.20235499464777057
6726		0.22765096650151664
6729		-0.015757270914103293
1490		0.1675086081371336
1493		0.022470797294794242
1494		-0.6193897360285722
1495		-5.206610446951974
1499		-0.40731207940330677
706		-1.1820352425817096
707		0.3505583327201801
708		-0.10617585169054582
709		2.3217416431379685
2301		0.3138675702281983
2302		0.20428983639281445
2303		-0.4228002751069611
2305		1.21341773880895
2307		-0.1458306039185436
2308		-0.5974654418690849
5140		-3.3670927032088565
5141		-0.46592764019259836
5142		0.02263497449414994
5143		0.587232058191215
5146		1.0628863507833575
5147		0.22245739881203513
5148		0.31125082588342484
5149		-0.27846870060260087
4922		-0.9507546307972025
4923		-2.086841698415683
4924		0.2600093988638422
4925		0.746567233229693
4927		0.04592549280842545
4928		0.9739479716719819
4929		-0.046988169100937824
5951		-1.1366927382360588
5953		-0.21543901559804365
5956		-0.4135605550061805
7131		-2.2408813343290626
7133		0.9275584152180323
7134		0.1152638366631505
7136		-2.4398147486070494
7137		0.9293040495053047
4960		-10.201463941374454
4962		-0.26557680146580576
4967		-0.3300205612747853
4969		0.4401248366257256
5083		-0.17758192185605445
5084		0.5365997146638237
5086		1.2259770738623457
5087		-4.299121646274442
5851		-13.327561813347948
5854		0.8374399222515262
5855		0.33467449245617953
5857		-0.3590187595742844
5859		-0.39769110163595306
9722		-0.1714929578234953
9725		-0.7861356502617481
9728		0.0248176409698249
9729		1.681517494278688
10541		-5.412221272214771
10542		-0.8013223662129006
10543		-1.0840602580472136
10546		0.09095445191796431
10548		0.31907768355806937
10549		0.29518809881961566
7041		0.1446411615899319
7042		-0.6607677280753967
7043		0.3551169527330295
7044		-0.0674287498492999
7046		0.07937030169143258
6380		-0.18437885734920306
6385		0.6983124644187089
6386		1.2820072392363278
6387		-1.4057478145519242
6389		-1.6831835065717822
5740		-0.6606488959637421
5743		0.36561427677937824
5744		0.26612925517006913
5745		0.34704136113179723
5746		0.4529805495909354
5748		0.2826262641674165
5749		0.4417349796225444
10170		0.007151779767496953
10174		-0.40920496364036635
10175		-0.865927595680948
10177		-0.15492961721042287
10178		-0.35588855603121916
2210		0.11843266175759641
2211		-0.5608952766817061
2214		0.04843632743348837
2216		-0.11321119059150594
2218		-0.8316857001933027
2219		0.05588372431900093
5662		0.5458900281265442
5664		0.9937235931859446
5665		0.2616263777904218
5666		-1.2278139772132024
5668		-0.4809261658025824
5669		-5.786564875319601
6370		-0.19134095621042368
6375		-5.894540494935711
6376		0.8631496957345457
6377		0.38146055838908643
6378		0.9066603888310945
6379		-0.7434031062974157
5180		0.08467699350681049
5181		0.4611469681984226
5183		0.5973742907913896
5186		0.5621675652366812
731		0.5042412897394043
733		-1.3328512783951756
734		0.42398120073953477
735		0.05052591355251991
737		-0.12549246645939344
591		-2.080232299542522
592		-1.3400185590165812
594		-0.6581141985455967
595		0.6046536716994555
596		0.5917856786743648
597		-0.24646553823773323
11870		-0.11567665676237808
11873		0.5544040763469692
11877		0.06193207274459319
5830		-1.773869277256186
5831		0.3619873467004368
5832		0.3145038429620293
5834		-0.4123126106905949
5835		-2.378187990353988
5837		-0.5541255739794415
5839		-0.21063466077204282
9800		-0.3730040781644656
9801		-0.6546022790013484
9803		0.32378103688677934
9805		-0.8494589033219161
9807		-0.7687298789465251
2340		0.34975125137490765
2341		-0.42593988939950916
2343		0.3662571682040833
2345		-0.8461970531076406
2346		0.6811971271249053
2347		-0.4869049776193234
2349		-1.4845398406446713
1592		-1.4700162506111991
1593		1.1319359736292536
1595		1.6756385893454564
1596		0.03504302379272055
1599		-0.03731370438585455
7170		-0.07016381646727957
7171		0.7929275268972769
7173		0.41727062513121843
7174		0.3638057509633779
7177		0.05859747951053622
7178		-0.04878168436791377
210		-0.3759468224339943
213		-0.039168615019375005
216		-2.265221354899046
218		0.6597506393021757
219		0.07517214574272553
5350		-0.39031530135741743
5352		-3.4050270355374557
5353		0.2461166353319764
5355		0.039140165083753065
5357		0.13468878727472705
5358		0.6620260351276989
800		0.028164650459947597
802		0.18137712830888195
803		0.1814778652453765
804		1.4224204410783008
807		-0.5832388736747139
808		-1.041452742994249
809		0.9354362204920376
1282		-0.52736019400855
1283		0.07589146897495073
1284		0.4192384891344512
1286		-0.33048425503460743
512		1.4883887967751663
513		-1.2060900864450128
516		-0.9569333288545344
518		-1.178717625534023
6020		-1.3941617173655059
6023		0.8832481886257331
6024		-0.9491480207629406
6026		1.2192618333021599
6027		-0.35026605113810994
5591		-0.10969543374400792
5595		-1.052274075770354
5597		0.22051850589679334
1584		0.8489241443231218
1586		0.7011779188205776
422		-0.6394639892174043
423		-0.6977246215630976
426		0.29507298205463883
427		0.4234963526226732
428		-1.1996182313496695
429		0.4287650687933252
6440		-0.06654135367634961
6443		-0.5350072792012833
6444		0.5666760035787659
6447		2.369525004522766
6448		0.17965607468640338
6449		-0.6759130981684629
1132		-0.9457491270974115
1134		0.3791255282486832
1138		-0.2750990582624089
1139		0.1243393755193149
2902		-0.36494198435483244
2904		0.8384062066918186
2905		0.415985422522505
2906		0.10303600356863643
2907		0.5394023653922803
2908		-0.026215596755093405
1210		-0.9832248525217111
1211		-0.5556197626029818
1213		0.05549646092392536
1214		1.3018487666511518
1216		-8.692795466598183
1219		0.40073953437571763
7710		0.22594163243096108
7714		0.7876143859124771
7715		1.2687457233234272
7716		-0.40710017054930286
7717		-0.07773212572334458
3231		0.45143513156813075
3233		0.9025738639482777
3234		0.4227552381784678
3236		-0.03313242845660921
3238		0.5413978413936452
3239		1.0193204313177362
1421		-0.03973771596093052
1423		0.09735755417552314
1424		-1.3925313175083915
1425		0.7827789093947468
10232		-0.0458559183863907
10237		-1.22303349451024
10238		-1.6255759299960457
380		0.5442727686974783
385		-1.1670817131267628
388		-5.431473103363499
389		-1.9273476363249389
890		0.6525926882053137
891		-2.473218777997581
892		-0.419036967168768
893		-1.4173444327445304
894		0.02171170516833072
896		0.41611959784110014
898		-0.05252515620901981
5551		0.667013177257805
5552		0.37685474693878523
5556		0.08051065882328381
5557		0.5913332777851296
5558		-0.03259613360864212
5559		-0.8002760494628156
8032		-1.6411072337312147
8033		-1.326585995667611
8034		-0.5474374641844434
150		-2.2405634383968316
151		-0.1435146462552022
154		0.11759181479209407
155		0.6887704763426876
158		0.10238500457460738
7121		0.14505816616186237
7124		0.005454926781506883
7125		0.1954987238288651
7128		1.109933717186051
7129		-0.25413291470254057
1711		-0.8364521378758648
1712		0.7342545937364056
1713		0.6078399494233097
1717		0.8059193907594446
1718		0.705226926226005
171		0.671949318135812
175		0.45010842701135007
176		-1.2003154287696558
6540		0.2669303904645591
6541		0.10497006681902064
6542		-0.8932938986522867
6544		0.0156314720123823
6547		0.11985910718660929
6549		0.28087341592974424
1393		-0.04189203168044079
1394		0.25026177303847197
1395		0.3127055201350056
1398		-0.18919724661465023
930		-0.1188061726546211
931		-1.4015592551252176
932		0.1320610221068826
933		-0.27935984049128004
934		0.5485076601582677
935		-0.7174181907026829
937		1.1213311307674512
938		-0.44061512042783313
939		0.4776604193117313
92		-0.08157392859157052
94		0.6155558854869457
96		0.11003593248099353
2291		-0.5684750332504742
2292		0.21492943600052078
2293		-0.5045735628213636
2294		-0.07646133601308025
2295		0.34282634207260276
2298		-0.023446444166787154
2299		-0.3797353516266327
200		1.697136400576748
201		-0.7976169399157996
204		0.30947147568765276
205		-0.020560762121314177
206		0.3217108341115434
207		-0.45680844894048767
209		-0.01807308706254776
1640		0.36634851281976777
1641		-0.8068169611162926
1642		-0.26459546887076446
1643		0.2813682148028714
1645		-0.6230310152877668
1647		-0.035140676891897746
1648		-1.0665067908772394
1649		0.08789324133350089
10401		-0.05230685582703321
10403		-0.018166991898816213
10405		-5.721345559695156
10406		-0.3900201247926007
10409		-5.946286299070885
1150		-1.1083919736339711
1152		0.5630598742321935
1154		-0.12287192068038967
1157		0.84957245827481
1159		-0.3474247807354601
5882		-2.6895191511023504
5883		0.4795421516331872
5884		0.2475330956616819
5885		-0.490854193177714
5887		0.12772460786901618
5888		-0.6876700030492936
5889		0.1723159907364442
2082		0.42208141178046815
2084		0.09615175462486364
2086		-0.4745374997442882
2087		-1.7520237247311168
2089		0.42084434894311107
442		0.02121375805510726
443		-0.26577442863670797
445		0.5328518112406367
446		0.700120807113606
449		0.4050203739543882
11172		0.42299374381518545
11176		0.30041031202693574
11177		-0.10837802229816691
11178		0.12173296037313841
11179		-1.8187909436949603
7900		0.7084541940495263
7901		-1.417994341756687
7902		-0.561207338914877
7906		-0.16408502877030132
7907		-0.1360985759583883
7909		0.3399691581901884
6401		-0.2364393986928999
6405		0.7726912757188749
6409		-0.3181383157121191
1091		-0.1738211856006704
1093		0.1540240469591679
1094		0.18986894487038342
1095		-0.6930946493912943
1096		-0.21137514712351035
1097		-0.12685839457497622
5610		0.873355338297219
5612		-0.7410050326448269
5613		0.04120432052403526
5616		-0.17550467622570814
5617		0.18230657831313435
5618		-0.17966311041374744
5619		0.32924965594109445
3090		-0.2925704320172244
3091		-0.44754590415684775
3092		0.2541768182887787
3093		-0.6258787823784117
3094		0.06841588859961172
3097		-0.39481819024336956
1190		-0.31962113858642094
1191		0.36730539072515556
1194		0.10219661417194947
1196		-1.2616512319206197
1199		0.008047472732123858
11721		0.24052692288565675
11722		0.05866013854446194
11723		0.5584586307851201
11727		0.7505692589370123
11728		0.05924666796777485
6911		-0.9643639918956413
6914		-2.373612479587949
6918		0.2757656437344971
6919		0.6599549222549338
1291		0.38391585660636024
1297		-3.7031102413987615
1298		0.4720147297171129
1621		-0.6732644732812233
1623		-2.1187139492762097
1624		-0.7389051589638338
1627		-1.4531657446498873
1629		0.16561799539225447
1600		-1.1917232376096363
1601		-0.23803094388948462
1603		0.1148981667282607
1604		0.045952579523203356
1605		0.6766909754608308
1606		-1.2547054320417887
1607		-7.2780361672551495
1608		0.13076801335359034
1609		-0.2240421533644644
5521		-0.21844206495539042
5524		-0.06924115957706516
5528		-0.0586333246147674
5530		0.6257491768597789
5532		-1.2809517393426548
5538		-0.5252099335847594
332		-0.4445131206748253
334		-0.36335383243586233
336		-0.24430912559014764
337		-1.0446061414046885
339		0.5438894220206576
6390		-0.35795766200553963
6392		0.06995589324495012
6394		0.7105105564566734
6398		-0.19909834186484632
5750		1.2175905681318067
5752		0.6627413918964772
5754		-1.5151994359298535
5758		0.3213357621342886
360		0.0460490001143512
362		-0.5605145214742235
364		-0.461230715286483
365		-0.7900442725733275
369		-0.4640331670830156
1472		-0.06057500799833619
