232		-0.0005750441740826516
234		0.4348952115585085
235		-0.08451782915756918
236		-0.16813994072999994
237		1.1541928099436238
238		-0.0506570557063102
239		-0.15133634276471916
240		-0.48347053046877114
241		-1.1253111804554892
715		0.4670243898566405
716		-0.2111538642663255
719		-0.5149626549628786
720		-0.36892487540301555
724		-0.5725467154941052
460		0.566234733977171
461		0.24108257793508436
463		-0.2122327233519087
465		0.48880499696950563
468		-0.49657704668302255
460		-0.23871958372105895
462		0.3375535368336203
463		-0.5696121100663593
466		-0.09374100407642033
468		-0.21874787718933222
469		-0.0963505670934971
312		-1.196864989862096
314		0.6558899675363016
315		0.20966364308501853
319		-0.820870863798318
283		-1.0271724708182284
286		-0.4497409701984217
287		0.0028201473558117033
288		-0.17261552262008176
291		0.6105563719948908
480		0.3224207026634413
481		-0.3854222787040116
482		0.01698121588191734
483		-0.35209650815834936
485		-0.09308475611183879
486		-0.28160247586415216
487		-0.002533676193939471
278		-0.016873053522136267
281		1.431823354003847
282		-0.5773614076236449
283		-4.079865029668453
284		-0.5282738524994421
286		0.6071642479015559
766		-0.015215902724540343
767		0.3490627427645105
772		0.5428538614747895
774		-0.49913317438067345
354		-0.5892945857914698
355		-1.0000190943121092
358		-1.0696924279288174
361		0.5234222053032624
761		1.4003800857068294
763		0.14010154527865526
767		0.5163007939985802
768		-0.41369955271547254
220		0.14487037979643638
224		0.8833528968214984
225		1.4007285467493493
226		-0.8990904462398588
229		-0.6769384216769139
703		0.1261750797781922
704		-0.7977245581423624
705		-0.5070364333520886
708		-0.8567811245733532
710		0.17119432114830643
711		0.05569730064057106
712		0.14900360986065786
327		0.25582247606163905
329		-0.670825073766027
331		-0.006585231423161252
333		0.6135794217536402
334		0.527712286087196
336		-0.12322395211223025
721		-0.24895692357008453
724		-2.0365503934934104
725		-0.6075716931802764
233		-0.29024101405374697
234		-0.23377285907559037
236		-1.1865654310483242
240		-0.1289776457407666
241		-0.03470337071580266
307		0.5548766303292846
308		-1.2864572660515339
311		0.006273951314372153
314		0.37576313260601907
175		1.4041198628065639
176		0.4997370310192008
178		-0.44742569150939104
179		-0.31400443187545135
180		-0.06681489148057723
181		0.39037328290637824
182		0.30573029007729285
656		-0.977875095106689
657		0.48426235085193065
659		-2.4753231540368117
661		0.2806259347795061
664		0.23621260081239492
665		0.24193078598917805
722		-0.7620697469335985
724		0.05021522651876315
726		-1.8690115316840719
727		0.07880907640916755
239		-1.7041994249628427
240		0.26706798469869886
241		-1.2898267635413985
246		-0.10216156354791271
247		-1.4839800053650962
285		0.5853392539511824
286		0.5041816179934924
289		-0.6643186835063625
292		0.11108832560140981
293		0.5975111969916408
294		-1.0108023724150303
244		-0.8629502667922827
245		2.23906757182155
246		-0.16413137423963975
249		-5.114539209417302
251		0.5083760265899606
732		0.2187565869765897
734		-0.5436738308092447
735		-0.23930682153478508
736		0.6740216990513663
706		-0.5667421928756289
707		-0.04131618803430511
708		-0.9070826664216333
710		0.16719787330178754
219		-0.3590781305441727
221		-1.0140172006760158
222		0.03415720118565945
223		-1.0883291367523604
224		0.2850221713228834
227		-0.1546458502391479
401		-0.36665485346120186
402		0.2822378657223075
403		0.18531813279757928
406		0.04636118582034723
407		0.6195529267194482
792		-0.3881980175418344
793		-2.147141986875527
794		-0.8754237085843005
795		-0.024823544804513945
796		0.7551835521443597
797		-0.1637883714351006
792		-1.125463575702777
795		-0.7253405178723471
798		0.8621993858327599
799		-1.179196822399862
767		-0.1005332620509755
769		-0.4842441412677545
772		0.1529528916434865
773		-0.5246252514295516
775		-0.9521148228289545
776		-0.3953382900534556
400		-1.5072456334798832
402		-0.15399744563558973
403		-0.5124640545930608
405		-0.55120322846832
407		0.34585221194989657
409		0.8531498089758857
293		0.41644883210832406
295		-0.1463984805146341
298		1.2623562262683234
300		0.9557684337833838
248		0.21812487034354547
249		-3.2265669490948232
250		1.3448909903115736
253		-0.4574099985864066
731		1.327324527693804
733		-1.2275377094698896
735		0.359598903145867
278		0.0857168198986678
280		-0.08668291774440623
287		-0.5522834428451378
760		0.736930902669125
765		-0.8958684234319967
767		0.3570159505345151
768		1.3359759643129332
390		0.21605911721273055
392		0.666293487117956
395		0.7400588400765448
396		-0.09639123009392492
397		-0.1734919186795654
434		0.15900858246210953
437		0.15996725327764122
439		-2.309516478880454
440		-0.05243426368745593
441		0.38275115919719904
442		-0.43954641731277944
350		-0.4545928941435515
354		0.23601060435884041
356		0.6530029988351934
358		-0.24879754438434526
753		0.13120041997452125
754		-0.24009090179223086
758		0.03333811800351971
759		-0.08020176843663206
268		-0.2769515547842714
272		0.23326657494885117
275		-0.5387404813450547
277		0.7220143235590838
375		-0.2446195471794199
377		-0.7145378629208435
379		0.0656781139824208
381		0.657958087351837
383		-0.4780256240569184
379		-0.8287086080469747
381		-1.0233996803151217
384		-1.7061106512878437
385		-0.833458927015311
386		1.4783243609549939
387		-0.3191944058742933
811		-0.5047040663021968
812		-0.18505103116689695
813		0.6526341147624558
816		-0.8564791830498557
725		-1.345519859503114
728		-0.47911108807868286
729		-4.021661030433407
834		0.000767320028763851
835		-0.4928526720134507
838		0.03919595514682242
839		-1.6803676496928326
842		0.4363070971721593
238		0.234536916925668
239		0.594980417211004
243		-0.06271410262689629
775		-0.2202195365547272
776		0.9004990968991661
778		0.8381496450085189
779		2.9258369344702326
780		0.1204352857793155
783		-1.5000968805167643
416		0.11122540115177687
417		0.9035425241522249
361		0.9921449660031346
362		-0.4022276753814915
363		0.06727250466014538
366		0.9217283172419147
370		0.6404300760361396
384		-0.3531801480266682
386		0.3304440491710734
390		-1.619203070558029
392		0.2945876455166121
393		0.9431052334056749
319		0.417633172990271
321		-2.836916343503123
322		-0.04232961830521959
324		-0.048966961198916366
325		-0.7786953858384891
328		0.16531482693578883
358		-0.1866325215607979
362		0.25220810335223215
363		-0.25441450370746427
365		1.4471008406242885
263		-0.036699484503804856
264		0.281782098331281
266		-1.1537624761333853
267		0.12738645212755592
268		0.14901568304759014
746		0.31687538716996455
749		0.3998776963640887
751		-0.9829618472830269
753		-0.18200102361340456
754		0.011489394499803974
755		0.08174210917732562
362		0.12115208773780335
363		-0.32653495947576444
364		1.0937470230558912
365		0.04676829244091834
366		0.07065953152542094
368		0.029199606920743092
370		0.23967510417153795
371		-1.2469396309510807
320		-0.3782198205366227
321		0.56202400492512
322		-0.054527981820733165
324		0.6167234651695301
326		-0.12836568345323748
327		-0.05673076877961198
329		0.7526756922119023
353		0.6626699116473853
354		-0.6182329884244383
355		-0.09049934130639001
356		-0.08138985107163603
358		0.35989755445197896
360		-0.35778324347014423
402		-0.10130634014443372
403		-1.0855840299217017
405		-0.3819945255554964
406		0.25122407459960455
407		0.8482842356014102
359		-1.5444195255766482
366		1.4022920801158896
367		-2.024960969230553
368		-0.37554066774185646
419		-0.7189196623070013
422		-0.7398205467111851
423		1.0180392694414038
426		-0.3879431471816688
427		-4.963024696425384
428		-0.03552576097847988
938		-0.08967642166362719
939		-0.14252868917978417
940		0.4380520123356557
943		0.670643480916042
944		-0.13711362537902475
945		1.6757436460072466
375		0.13996646547426767
377		-0.6808267260806221
378		0.5292224110610224
379		0.08094991057992439
382		0.7528449851860584
383		0.2725167752472969
828		-0.3293993561758115
829		0.9596232603138548
830		0.08301115875479377
831		-0.048965162868933626
832		0.25618224572123904
833		-2.788843291736949
836		0.5656041128557044
886		-1.4755589684378594
887		0.2319854512038463
889		-0.08624839290737146
800		0.3752790580922019
801		0.39744293607082487
802		0.29385611955254853
803		0.2044654326145848
804		0.4424627858389233
807		0.12695395823293487
808		-2.730207940726787
809		-0.20882356996784024
937		-0.7864992426176797
940		0.6462454397573902
942		0.6564527017936342
943		-0.11623767456239026
944		-1.1623214052253643
945		-0.659060973405787
946		0.09356040182464448
853		-0.30295238270878017
854		1.473553004190432
855		-1.3316084415283274
858		-1.07140203750858
860		-1.6352515039107522
869		0.48674593841422714
874		-1.765652321037955
875		-0.019192800586343664
261		-0.6157632193433037
266		-0.3507237291694682
267		-1.477826549940241
747		0.2391436928877866
837		-0.5041887431803302
838		-1.2107543248624142
840		-1.2917187191249797
841		0.19590218461770195
843		0.2867619021910456
845		0.06066677848574348
863		1.0098419664961433
866		1.78121115165269
867		0.6072258295922732
872		0.06535273656681281
802		-0.5611467773146419
803		-0.4007068098260679
806		0.9147136340290192
808		0.4570031660552995
838		-1.0236386053979452
840		-0.29932173085038705
841		0.698110858164636
842		-8.721324240898399
845		1.1573992512935896
840		-1.4533966876414293
843		0.10736622990907214
844		-1.484566601229515
848		0.5890151234762161
811		-0.828227575250173
813		0.3379731042115781
816		0.6402135169326052
919		0.46511582924470096
920		0.2555076231415713
922		-0.9255688973986416
835		-3.165131742180753
836		-0.35775661862188085
837		0.436178940091581
840		-0.5009077053683549
245		0.04882113945491158
246		-0.11266754281675542
248		-0.03659957878327754
249		-0.6925836948030922
860		-0.8020757337278055
861		-0.40273422006811893
863		-0.028181322047872364
864		-6.6928639831060694
865		-0.8306717929018133
866		0.3002645587956962
425		-0.026868850029990718
427		-0.8685362678547696
428		0.05629499164968283
429		1.504238176904882
433		-1.9416700308287957
434		0.0904196514181518
340		-0.10278369494730676
346		-0.7248812061534781
347		0.15373791772348966
347		0.25954812114328585
348		0.736315414169176
353		-0.08221083846925613
879		-0.16697739539684556
880		-1.2236200040695038
881		1.3566455019505157
882		-1.099389540191539
883		0.36509080575234315
884		-0.9237578772050401
886		0.46224238209772117
332		0.4189761226115073
333		0.7635732976402446
336		0.9573734073295985
337		2.028277835631831
340		-1.0504034723824174
745		-0.52291104700564
747		1.2412251171936668
754		-0.3617281108757647
845		-0.02422311795680182
850		-0.10392533109673814
851		0.699292903938145
853		-3.6105655842477997
854		-3.258105529727346
315		0.18299346444121153
316		0.4938601503432188
317		-0.2633382937963081
318		-0.6351695973231052
319		-0.584561366752695
322		0.1890464425731609
323		0.17852617999937376
218		-0.17763605224465112
222		0.18197209733782962
475		0.2922123677904481
477		0.14200148259812329
478		0.6357485078012336
479		1.183784134630402
480		0.7489779694000633
483		0.052893773315567556
390		0.051293554856514115
391		0.22963333143153256
392		1.020009616605049
394		-0.9795706618346303
395		0.2454161327384382
396		0.5187917958898683
397		0.1304991106848619
399		0.9668973845611291
236		-0.45288415912229124
238		0.06151700602977935
239		0.6179016871859068
240		-4.908285462418411
242		-1.3949585250742498
243		-0.09199615239844458
790		-0.47767178291005835
791		-1.8427054519052586
794		-0.014166152605667313
795		0.4269538597258379
187		-0.484405262557857
189		-0.5217071154513077
190		-0.7263540871376516
191		0.6337164871981674
192		-0.15057655005263904
193		-0.6990917237400048
195		0.23095157698863053
740		-0.3590736476110221
745		0.2138275590871706
749		-0.6713962993428906
356		0.15159828187091107
357		0.45156556605494186
358		0.5889400716650269
800		0.5420171575679263
801		0.36564978298718886
805		0.34522167169629897
726		0.6824406902979773
727		-3.1719112867056087
728		0.9913526641515084
729		0.4275789755767211
731		-1.345297267907027
733		-0.9414463894781325
734		0.023618412520603312
312		-0.291777062691829
313		1.2115713642576362
314		-0.07091972897642
316		0.773089872637795
317		0.4646424513953927
318		0.9953162247291604
319		-0.2936737971812574
320		1.1417243228661453
321		-0.03133542441234034
818		-1.1099929509793456
819		-0.3427081561580791
821		-0.0524036281715008
822		-4.951638836720447
824		0.3343907719520098
826		-1.7196747182831935
827		-1.3900933788653624
432		-1.149779396495949
433		-10.037090085154281
435		1.2275863100457642
436		-0.329715341307991
438		0.6799667316296342
439		0.4925715568572533
748		-0.10198558702756792
752		1.2700587385941304
753		0.5310721697321339
754		0.003182376986904666
755		-0.207266653816665
756		-0.5587575351400743
879		0.5254521733628007
880		-0.9909047988504232
881		0.16679466774308271
882		-1.2426912828317627
885		-0.047360195068756376
886		-0.9695849708606661
887		-0.2515527436136908
888		0.8360433439368238
396		0.3960140567225557
398		1.0664179760733605
399		0.4854873488113004
402		0.7869059840714713
403		0.34140204960669196
404		-0.9341272798647672
405		0.4500422814744578
754		-0.833676811223634
757		0.2781010242068171
758		-0.6302615851457525
759		0.5794119426513885
760		0.6598505448266929
761		0.6880447312633411
342		-2.8253850472483775
344		0.40784682598383026
345		0.6405266077060738
346		0.5033077096015846
347		0.5664004201927447
349		0.39607194089932696
350		0.3850288781686271
731		0.17229224716756614
733		0.30395975960674093
735		0.4740210211401301
463		-0.5528974430765305
464		0.556839190475956
466		0.7167213967821794
467		0.26645695425715493
470		-1.7292175878003617
471		-0.46706159472352404
472		-0.4764750008877422
814		-0.5094389324630672
818		0.018660581233468136
819		-1.1751578819604285
820		1.7544381665098234
262		-1.067803344129662
263		-0.05966021826130145
264		-0.14652311487878017
266		1.5863161012100757
267		-0.28745915630279956
898		0.6662596330158738
899		0.4401715807237143
901		0.2948031269107298
902		-0.01665354139780824
903		0.5521133047783554
904		-1.094781183581874
905		-0.6775538578050867
906		0.5386229756533698
368		-0.010559208119025068
370		-0.18816967960031133
371		0.6181593689831736
895		1.727312079203877
896		1.0982744531086694
899		-0.0564674230151544
902		1.4358599015412286
903		0.06758839877355337
796		0.13221778994316416
798		0.21005712767021217
802		-0.19196522902000496
803		-1.4982317751776117
804		0.5153113045856719
805		-1.3514880068087183
700		-0.14972052638269534
701		-0.8024890680989789
702		-0.760793968445307
703		0.03616965541200801
705		-1.0487855349826534
709		0.7440183696417989
309		-1.1722890299446644
312		-0.041003167341998034
314		0.25512038104122575
315		0.2511461671366609
367		-2.6071500181796097
369		-2.0835317521593297
370		0.1563733008755448
371		-0.8755141890235174
372		0.13860711387737307
373		0.7369603884585263
374		-6.876119893274565
718		-0.028219465038249198
719		1.3180299066309282
721		0.49061497095245743
722		0.5103392136875498
725		-0.4149508298122831
727		0.4384650293306041
835		0.5602089333519389
837		-0.6877294228125513
839		0.37123751750235845
840		-1.8109185354738677
843		-2.2014503002946637
844		0.25280885144039744
670		-0.44992426682815373
671		-1.5607445312111594
675		0.7224897754331056
678		-1.5314316431799269
259		-0.17344892986454005
261		0.2984634662065257
262		-0.8263890750114692
266		-0.04330872967492464
319		0.870984399913665
321		-0.10691841578460443
324		1.5233448876260673
325		0.38779066976927457
371		0.5639993473260585
373		-2.474203382637683
374		0.10326368503104691
378		-0.5045118636490281
456		0.05036340645816359
461		-1.1283871382857884
295		-0.8068025328116482
296		0.31735876036570965
297		1.1379346278102698
299		0.31938311854823537
302		0.5860851619733908
448		0.16364906551094657
450		0.7204834063291108
268		0.6848472543667062
269		-0.4180185805531826
271		0.32605233529283373
273		-1.3108762413902608
274		-0.9024181008816545
275		-0.04284878199725702
875		0.5601993918877529
876		0.12241497627553798
880		0.6483356500910616
881		-0.29424390068529366
882		0.05349202827339855
883		0.5185817288434076
271		-0.4947106223833502
272		0.6493973250267943
274		0.3103456849274008
252		0.48967714976738075
254		-0.9401941001944853
255		-0.4091338431232802
257		0.8724691812445731
193		0.12682795985665335
194		0.3664272301384167
196		0.3059092430406374
198		0.6625653522659666
199		0.3061263105746916
192		0.4531298760771463
193		0.16170412547415927
195		0.44255451967132897
196		-0.8532235830905838
198		0.074498129168338
199		0.1591369622800861
200		0.6865725218556423
844		-0.7153656041050245
847		0.0707326228996763
848		1.2614742277905049
849		0.511735832553458
852		0.1403092280817707
853		-0.4599586043271657
918		0.30039543331049035
927		0.9455528492976383
876		1.0536086734691206
878		-0.18158477167670614
880		-1.1859607555844314
882		-1.433502559355983
914		0.2956761732983122
915		-1.00346956227642
916		0.4581979734354449
917		0.3094367093234723
918		0.33769186565051607
919		0.5341672435252874
920		-1.1745878518924084
695		-0.004986937103187472
697		0.859376925899586
698		-0.12073726434006093
700		0.5620351459699209
701		-0.027931992489738267
683		0.07999187691920975
684		-0.34938326554298005
685		-0.018307223513300334
687		-0.4215397032463449
692		-0.7676293375012231
691		-1.9096699846466625
692		-0.3322427434261775
693		-0.2868982111168297
696		-0.4889625072898675
697		0.4508290030869374
282		-0.23942594910779458
284		0.21551079841869447
288		-2.405029947740232
290		-0.701518319931183
358		0.24573384123686676
359		-1.33222000377793
360		0.5617587407764484
364		0.21399651455746918
365		0.3844506691762235
324		0.7174818990822989
327		0.1255869831992505
375		0.8010779731261802
377		-0.006387235214598176
378		0.673135546463073
300		0.9842334165456312
302		0.3896544397768759
308		0.6693048564826395
673		0.4582762204154651
676		0.1890321453112452
677		-0.11684444882692975
678		0.45393878043523367
680		1.0806487020657145
682		-0.208521498115545
289		0.6957207622296824
291		0.15090270835801545
292		0.41850142428878473
293		0.05127029570811047
295		-0.45366055264450894
675		1.037487882681022
676		0.5546346222347294
678		0.7206421697640897
680		0.5030872880555626
683		0.8654838053108648
932		0.12634462757931886
933		0.2941270276150786
934		0.012395889389873944
935		0.055341510548063286
394		1.6508288654535341
397		-0.4916463240472993
399		0.16373731708183772
400		0.4233006133859235
212		0.05352883685387259
215		0.565717939383163
217		-0.9309110425845358
218		0.15300950559008147
219		-1.2719470856840562
257		-0.9274702576665697
259		0.07014127572668329
260		-0.1335516130048794
263		-1.129726875477938
207		-0.1106503077867762
208		0.6120293027779116
209		-1.1355490391542478
210		0.2716921751138517
215		-1.394339200199061
216		0.4346628190879477
765		-0.48519860660688524
767		0.79423723648143
768		0.09722966892303579
769		2.655192191770186
773		0.730704865941723
275		0.4638036433998933
276		-0.408943418610072
277		0.7899923647748484
280		-1.637680946248084
281		0.24026687941958247
282		0.2091577801484596
836		-1.4551374716902168
843		-0.11204729962236683
844		0.4957645430215798
851		-0.5399548202186178
852		0.3856313600515632
853		0.5619574813993938
855		-0.33648992263534794
856		0.7651949296619143
859		-1.0499904142721912
804		0.5529019843762596
807		0.11178596334100052
808		-2.0465849839138
810		0.8674472567484597
811		0.39729015877361396
812		-0.10785469918378914
209		-0.6447486070430489
210		0.29281858558678975
214		-0.6759189256545152
770		0.5026087060194764
774		-0.31428233927263066
775		-0.14465324788706907
776		-0.525213288377993
226		0.6863294247054371
227		-0.12506067626980644
229		0.7348597325517359
230		0.26309587303871923
231		0.5740022001358426
232		0.798343666373469
779		0.15823336524463427
780		0.2817472155545367
782		-0.7746108509131254
758		-0.09448055308541696
761		-0.5573553984329596
764		-0.272830187043574
765		2.4896032833810953
766		-0.3687006383559203
692		0.5101947556279025
694		-0.9678548530667802
695		0.10240854146155151
696		0.5764937574937629
697		0.2571060842340983
701		-0.4776132770918285
706		-1.086211518053116
707		-0.12779735806294523
708		-0.45480016757495545
710		-1.1799808937679954
714		0.8220366791626894
758		-0.37271322406592183
760		-0.36826293016927825
270		0.28932224023976255
273		-0.4948982998336157
274		-0.34681229381875467
279		1.8229070550726763
903		-0.3369102230452438
904		0.1133716935499764
906		0.22373398645614379
910		0.2672247079144686
912		-1.8903449842532103
883		-0.0700337129124524
887		0.8475495592855761
888		-0.04938876364212021
889		-0.41375369810839424
907		1.208656011042499
909		0.08010791921932751
910		0.45792278234327466
911		0.7700803200100806
916		0.17082276336090804
429		0.5152535540896811
431		-0.660487332338758
433		0.256054197402411
436		-0.4670235517754793
321		-0.9052399304431787
322		-0.14298154428224466
327		-0.4325361228235597
329		-1.7775302164682076
330		0.8399581592181947
805		0.13018360998640735
806		-0.5647022390160015
807		1.152383446287739
808		-0.2783327054436617
810		-0.8071507412445611
739		-0.9270638506717473
740		1.0317778070989307
741		1.7075363902530045
742		-0.24113495885129302
744		0.8171466691226591
745		0.25253605793894907
746		0.39619935192671896
919		0.6432239206008652
920		0.3127652884517771
923		-0.7527388599372637
924		0.21298661101011837
927		-2.673688764989066
928		-0.5182617589009884
939		0.3690174610143099
944		-2.401703896931916
945		-0.9805935350371581
946		-0.10125612412580182
947		1.4090460386573926
948		0.3947784568143376
406		0.8197478461679898
408		0.18068820264365498
409		0.7112756716426055
412		0.7949330381953708
832		0.5221860989847923
833		-0.5356725360201569
835		0.5754722100243121
838		-0.16845739136530832
839		0.17740752395650775
840		-1.6345901652408759
948		-0.6031495586444624
951		-0.6990189439395844
952		-0.3497722856099735
954		-0.4502961633466032
955		0.8411281728291844
956		0.1265033845724152
949		0.3754305074389049
953		-0.22541441108743476
352		0.8947883237297908
355		-1.9889550546625867
356		-1.29343170877561
357		0.5218654641272259
358		-1.87764797613112
359		0.70558426006958
360		0.32522691052539715
361		0.3833478534526922
200		0.1417881591914593
202		-1.134589319296404
204		0.534863526402413
206		0.4081803596847649
207		-2.7628054173409153
209		0.06324203063866171
814		-0.5693955850988772
818		1.1969154913922269
821		0.37379697068017304
823		-0.793699827630276
680		0.833488070834918
682		-0.128201762685178
683		0.44554145616328217
685		0.6164600103361229
686		0.04346132731091583
688		0.41635850259881513
335		-0.2676289915293344
336		0.41852471454197404
337		-0.6230805584740462
338		1.2511922749899207
339		1.4837744481497863
340		0.35494763404740964
341		-0.09646401233661478
343		0.5288331732874206
201		-0.2933888030788151
205		-1.1984039330206098
206		0.23792973680322202
342		-0.05297628922415723
820		0.4891967455570012
822		-1.6353558443081486
823		-0.2986539527078974
431		-0.6847715268004828
432		0.010313594154188003
435		-0.9473005861972711
437		-0.14637706081394813
909		1.188129772748345
910		1.3068682374154243
916		0.3202416093481454
738		0.9127637518840841
740		0.05834969884596187
742		0.4947698792695726
743		-1.2840898399413485
746		0.06325743184448832
889		-0.6372306344756677
890		-0.42433302641204984
894		-0.23057160901778695
895		-0.08174385743201285
249		0.5540585343162818
250		-0.6521980010676859
252		-0.06937647368848689
253		-0.17397370088767386
258		-1.5868406286896823
912		-0.13930439972315678
915		0.44340409705476946
919		-1.717187558848596
938		-0.78583198045029
942		-2.7591629498664103
944		0.493235244565464
945		0.6239492833521526
869		-0.6048563614642974
871		0.1893004849141332
873		0.09626535259826802
874		0.4317366018001898
875		2.195832156572041
877		0.023061025697446755
734		0.8786510251895068
735		-1.299403275920138
738		0.05905020175583183
740		-0.03202203162802565
940		-0.014854223916130624
941		-0.3679752870065621
943		1.3768657161919935
944		0.2595114217235236
946		-0.14259881134010133
948		-0.6360783632173156
949		0.8231737956223031
905		0.9640415814720019
906		-1.3025904650044824
908		-2.032077619131231
909		-0.2125735016659545
910		0.01728156985539042
913		-0.10343406475291672
794		0.27415891834024303
798		0.5430699317624269
801		0.09018391312178874
802		-0.6218791281412989
447		-0.2819610683913388
450		0.24322826359369118
455		0.5430176230395062
433		0.14120985560442179
440		0.36878318007943434
441		-0.2672359030074716
442		-0.8583282551741782
782		0.4605404503892083
783		-0.48178625995877583
785		-0.28498346149894427
786		-1.5409460836224385
787		0.48577795771050647
788		0.48050692915692633
789		-0.7332648727037524
664		-0.8179140356158001
665		-0.9325719567202491
666		0.11987499694461624
667		-0.09781694546540809
668		0.7794423154603476
670		-0.7212423853975993
472		-0.2398254025221297
475		0.18621880888652095
476		0.13370819653929922
478		-3.3954515547806774
178		-0.3415898863018685
180		-2.0538155599786334
182		0.8850167933907969
184		0.16103491449693688
185		-0.24111092328026754
186		0.6217614265019066
187		-0.2556902133325543
854		0.1696035026794651
856		0.7201801008981924
860		1.0995504581937552
861		-1.6633847300429334
850		-0.2888857274799944
851		0.2317124438081276
854		0.46287743808736914
857		-0.8531076294688572
932		-0.6967352461095088
934		0.6332667020592462
935		0.9562147464694936
936		0.4173363886639362
937		-0.7447155069871239
939		-0.23883862919859664
940		-0.20023985604302097
924		0.7634562782417589
925		0.3685545642533656
926		0.6781387533745428
928		-1.0133483469862952
929		0.23746379851154095
931		-0.07227367783898324
930		-1.3598820838116072
931		-0.42178147975037034
933		-0.6512595383207609
935		-0.8911466112012706
936		0.5071273853448818
938		0.1113438171874472
455		-0.17591254254635963
456		0.19159978988806875
459		-1.900257763428631
460		-0.26627766472525133
463		-12.460056913394546
954		0.0590752702247154
955		-1.039547604798834
956		0.2355516565099346
957		-0.6164260915025701
960		0.0880876857101822
961		-3.8101939520409887
963		-1.529229465252039
411		-15.260335151541147
416		0.22674715595308978
418		-0.6792051405825441
419		0.21052230806374683
420		-0.6023131541930913
468		-0.6390267716061488
469		0.29792046233784025
470		-0.002628346329298452
471		-0.08758945391951915
473		0.022362788495031982
474		-0.8812621038037657
475		-0.17316636537542565
462		-0.372486526428729
463		-0.07944948906648541
464		-0.8492341954875113
466		0.5334004264187653
470		-0.16435198202599277
892		-0.2467533139438429
895		-2.0136089647267648
896		0.10287712275961676
898		-2.099859665068038
899		-0.5698106432246295
440		-0.7938030309081202
442		1.0158459733486978
444		0.9030714095828707
445		0.4661852711494746
447		-0.11767403533070507
448		-0.6787442017616514
954		-1.2693880721892048
955		-2.7911939322941834
957		0.5131853664239097
958		-0.9598615778890942
959		0.3367024424611436
823		-0.3201678626442205
824		-0.8123786548282617
826		0.4338669681480004
828		-0.9250054420731186
829		-0.29579958684153557
824		-0.5524323833266257
826		-0.3865630992293555
831		0.7690926640740193
832		0.43589843246235477
446		0.6821053200899926
447		-0.4532871017181375
842		-0.2049409381515582
843		0.6156922322325757
844		-0.16417303931738728
845		-0.4479135250997591
847		0.19851158827897442
848		-1.725217193924161
849		0.12757445178675628
850		-4.460989259999995
417		-1.1300935335902378
418		-2.9954520281206394
423		-0.7171802660229682
424		-0.5066950224049517
427		-0.32178673500884464
428		0.20483934249366703
433		0.56352933379569
433		-0.35870313502501616
434		0.4425668654080705
435		0.3060841779521182
436		-0.873673964087105
437		0.9251154900797344
438		-0.1559885768849838
439		0.190045132918055
440		-0.49621296264190823
911		-1.228336506337759
912		-0.05735668513074913
913		0.08783515054559098
915		-0.24020119496687475
916		0.6280439388757955
917		0.015734207256733964
920		-1.7513549482543849
462		1.0000583405425656
463		0.7367916411077746
464		0.10883061167117489
465		0.582018738497207
467		-0.9232279827360547
469		0.34982692965996814
470		-1.3994334873766194
925		0.031029407057762005
926		-0.1395318525786909
928		-1.4429134412020788
929		0.6227127118656594
930		-0.9568364371028065
933		0.5471769392873386
256		-0.5248084521100222
257		0.28816447649051974
258		-0.1836079818513239
259		-1.5019146177909581
261		-0.10028713431409621
450		0.09544478027903536
451		0.08376374929242705
453		-0.6007869382889045
455		0.5444477060030626
456		-0.8738157591576362
707		0.08914918672443269
710		-1.7569713343647
713		-1.0612496770567392
222		-1.8735910598801557
223		-0.9178729407852215
224		0.35889464033991014
225		-1.2760658388147574
226		2.386208027808772
228		-0.6463224533845124
230		0.5406899490756757
231		-0.6884185039483065
245		0.2057271517249592
252		0.11189348856477152
727		0.2552896248634006
728		0.525452003581033
732		0.3248890509694451
733		0.3314892813893891
735		0.08486626364034315
297		0.06065752525764728
298		-0.6320956441664053
299		1.2872932637992611
775		0.5829835252268268
776		-2.2291795399515637
778		-0.013689653858563681
781		-0.910261534701385
892		-2.095383383107642
896		-0.01597339647272965
897		0.3283733913979494
900		-2.3331827867548967
412		-0.25086040241690194
416		0.7475321626065458
418		-0.36260916840363294
419		-0.8911631765531918
420		0.8469243029300135
364		-0.4113355392143302
365		-4.295870394208286
366		-1.468579016413883
371		0.7333435314582846
372		-1.6641578474150502
842		-1.9851148845149624
843		-0.27033930090795016
844		-0.0752500281247209
845		-0.9237647559028083
848		0.12688717060560203
849		0.6627028277389727
832		-0.46240385382747734
835		-0.1318805283785934
837		0.28536622205379025
839		-0.0815196705425189
351		0.07979631778352993
353		-0.7442119591429228
355		-2.380574027611703
356		0.312861911902457
358		0.7247415617095058
228		0.019850040171023996
229		-0.5951102532281002
230		0.5207725422267615
331		-0.7185255738274817
332		0.1186349372389887
333		-2.107075441055753
334		-0.7406619608128019
336		0.7293431290185473
712		-0.7407566545923289
714		-0.11128968999136601
715		0.1727398233385389
716		0.032476471131675025
717		0.5708505395542414
718		0.4192304917389122
813		0.2416327113356013
816		0.8437709668449658
817		-0.3969577543502784
818		1.604695963418488
819		0.3332847827316093
820		0.0057782102970667625
477		-0.3229119882089226
479		-0.4589814319416219
480		1.8362444186674396
482		-0.23222839883461482
483		-0.05072416231920153
486		-0.33567571044869643
952		0.5452062963044072
954		0.14353256400737735
956		1.5783821613847222
957		-0.19793708467883622
958		0.2767743868342707
959		0.2985003795707313
477		-0.2851654301699412
478		-0.519868428102647
480		-8.168785456141336
482		-1.6410994266150112
483		-0.14481943036633216
484		0.32695637519869053
429		0.792704996676563
430		-0.7594499739449907
431		-0.16774688274819058
433		-0.11304598969394979
435		0.44437160181881435
907		0.5860458249334596
909		-0.4501765560593112
912		0.18326032179320514
913		1.4321767631111548
914		0.4367183801972608
351		0.8136011482907249
353		0.4272782273413263
359		-10.673199230072436
833		-0.5461579955934676
835		0.3557293422702903
837		0.6080348522642091
838		0.40338137434867516
724		0.8840927143679597
725		-2.8555958569833106
726		0.5262154261088465
728		0.37716658723865903
236		-0.10559706926511724
237		-0.8783344719509425
238		-0.6054242358774766
239		0.15324871476054888
242		0.9474638439603059
244		0.3244333978558379
763		0.15524747904139824
765		-0.05652444808724917
766		0.24712158070483856
767		-1.6648035967768435
770		0.14636249238226395
772		0.052360950932788225
281		-2.342573229287084
282		-0.6057471580826658
283		-0.2951180647984239
287		-0.031947036646774715
288		0.43746222165637
807		-0.08385180958853643
808		-0.20012743209912193
810		-0.2046212278311015
812		0.14697873485237117
815		-0.37529732482948247
930		0.47340809012022284
931		0.4423989021020286
933		0.08854211467216666
935		-0.6401622166934734
936		-0.6725645509055198
937		-0.6600756565857298
241		0.18109111143375473
242		0.2573227810890008
245		-0.3442265556730712
247		-0.0002942916285221416
249		0.4774909853058954
373		1.0177814861169896
374		-0.15669615613515595
327		0.3267634254622216
329		0.4288545512550658
330		-1.6160961432185057
331		1.0126369647977624
333		-0.789009847560402
334		0.014551649291668555
453		0.01702645735852015
454		0.056714561448879625
458		0.253563418845593
459		-0.7478695226471946
460		-1.110793542615868
847		0.2680827050970225
848		0.24406475938536804
849		-1.2115743932584493
850		0.9018680261527966
855		0.6199452376453616
390		0.19226641605841968
395		-0.6530163572824985
724		0.34568444089706507
725		0.4626577762727298
726		-0.6397759039405303
727		-0.1935911335498524
730		-0.13890649803852578
869		-0.4337293102618519
873		0.331818805237267
876		0.5118105116554355
242		0.4412182074162095
243		1.0277532745938913
244		0.617643061849643
264		0.1838528434358721
265		0.4025886484336238
266		-1.6332088081022813
267		0.754570458058903
268		0.3201353535889785
270		0.8054448584430793
271		0.30463519856725696
272		-0.23751631213417734
273		-0.5379258098728585
725		-1.4125367694041167
728		0.32111062505055427
729		-0.34938292803706833
731		1.0666169948982778
795		-1.0522137289626075
796		0.9032910644415693
798		-2.0194875899275724
803		-1.4995858770726789
804		0.30052703678985754
381		-1.6975093345618038
385		-0.28551400631777546
215		0.399547542348919
216		0.3689953704947707
219		0.42824972410702083
222		0.18451362081810527
315		-2.6988751388897323
316		0.30780446652461335
317		-0.21901964308150804
318		0.7135974034118492
321		0.729361012762016
322		0.6403477476874733
323		-0.1164161346121325
858		0.6938538823615366
860		0.6371548450411169
861		-1.4215165457138665
862		0.5134150299793245
864		-0.4736802435341034
865		0.5250467948309792
866		0.8349244617082174
741		0.17953385687494783
742		-0.5886014694520451
746		0.23985531894169668
747		-1.529251772173389
749		-0.49519470099071483
699		-0.49790700592624165
700		0.8904862557627463
702		0.5263850252050358
703		0.5865651720088494
705		0.07995585412252548
887		0.10997966718674239
888		0.38633653803253204
889		0.486326614063754
439		0.40024910082460996
440		-0.7829874517141657
441		-5.556328729920401
443		-0.25672521448506436
305		0.3313907757452993
308		0.01687709447421466
311		0.7793639437893095
197		-0.09705129856732596
199		-0.24339610314919682
200		-0.6172529803256824
204		0.20320816616342752
258		0.3107404997714345
259		-0.4570639670799613
260		1.050351541411808
261		0.1720844229893994
262		-0.8505178039216789
263		0.4009570239497103
265		-0.03945006628905646
473		0.40490824338603226
475		-0.9243204183057279
477		-0.5172245951577201
478		-0.11510335476784589
480		-1.613482279599323
481		0.20108054061480668
810		-0.04428685747702521
811		0.15160934667448187
812		-0.09602582002132262
816		-1.0950210273245518
818		-1.5791241698255922
819		-1.088528600177327
404		-0.01816215180637137
407		0.9323132842020263
412		0.5748971144998665
918		0.09831942263929655
919		0.5646624583641269
921		0.13987588426970962
922		0.569061611464124
924		0.3024147310218866
895		-0.8028011501777014
899		-1.1770975241952508
903		-0.5736869034089941
331		1.0484701723441678
333		1.0700199484834159
334		-0.3797650300055725
335		-0.9993232911667717
336		0.333474552258032
339		-1.0858485879269122
783		0.4851290823093619
784		0.30405715174539893
785		0.680583887232401
682		-0.5375752295349522
683		0.5151375727256055
686		0.10351404119009514
688		0.14268697651943568
418		0.4139898897677282
420		-0.8034887437992612
421		0.09536217432690842
424		-0.5737727313578098
334		0.3169527565701468
337		-0.9475671841785434
338		-0.3275845266263615
340		-0.8508182158791844
341		0.20424493203843264
873		-0.26685545943203925
877		-0.9856865143155673
879		0.028363942004061074
814		-0.0073375345298912365
815		0.6348457955530855
817		1.8065122006698726
819		-0.10399976713329255
820		0.47332359911898797
822		0.6744634383856228
383		0.9982356259331007
387		-0.11785966276902997
389		-1.4501732872511042
390		-0.9068577463210362
391		-0.9998121323840982
392		0.6296935330693308
347		-0.44719323390873805
350		1.2237446354022112
352		0.5385917727470496
354		0.7705974408469073
356		0.15914716585401376
392		-3.9808397533172917
393		0.2330484234968713
395		-0.8374256843915799
397		-0.3591415252414505
398		-1.3448675943820798
400		-0.2790334640915501
383		-1.0722132685166026
387		-0.9197112687103722
388		-0.11645526463985263
389		0.6801135685542391
390		1.00541916153593
319		0.05874716319533709
321		-0.18970961902369352
322		0.20470996086770027
323		0.5094343909230528
324		-0.7846556126427124
325		0.2810073560711807
326		0.5953929300591869
327		1.0292128303565953
827		0.38538336800147976
830		-2.413859461354213
833		0.32589135246065487
862		-0.8339804177508248
865		0.0681088870036308
866		-0.27324774234165355
868		0.055076035260145983
300		-0.9536534292470257
301		-1.5911362991365683
304		-0.040750243242583736
305		-0.9916199626661919
306		0.062478710474473245
465		-0.12674121928681828
466		0.11298456232731814
467		2.06373019992234
469		0.36466296030540707
471		-0.16610536362692482
472		-0.31390705063906527
473		0.3582798371124969
387		-0.7253791647298146
391		-1.7906629499748785
394		-0.9595842553919631
860		-0.7860477863463223
867		0.2808730608780175
869		0.46809542454505154
340		-0.1899571896478341
342		-1.0069848238417438
344		1.4611655509346342
348		1.6106768009824597
349		0.10520378527094126
800		0.7042483877854925
804		0.4012473763208651
805		0.23119730244956796
806		0.5080285608845129
808		-1.0306050242988616
923		0.522158336178013
925		0.39596139199310754
926		0.32103553397041373
927		0.3068543382723639
930		-0.5908673092102626
439		-1.7792264404393803
443		-0.6915980279998175
848		-0.34954043232698534
850		0.2025701286487343
851		0.8760064725334007
855		0.7231690850709306
857		-0.24436353270728456
455		0.47597968341179986
456		-1.491377589040078
458		-0.9681231765686313
459		-0.4103317283196646
313		-0.5329759900941486
314		-2.57933699015065
316		0.49947408074825855
318		0.28998104525039764
320		0.8131081739014425
322		0.07746475064283259
784		0.2673042576324886
785		-0.4661908449274135
788		0.7102581090357207
789		0.049183660499522455
791		-0.5432972171405185
792		-0.5792723981441925
253		0.04699726146537472
254		-1.214469571309852
256		0.11165230589978273
258		-0.04444828541247002
259		-0.28960178616716553
262		0.4639940386270691
847		-0.5988470877049794
848		0.6363431551552381
849		-0.28118169320399955
850		0.7152100604669558
851		0.038247376867546506
852		0.2351153802878496
853		-0.2742960043125501
781		-0.3435116519201196
782		0.28676121453129777
783		0.6419679594696655
785		-1.5693182059567397
787		0.15255017178941446
274		0.4891357977096759
282		0.4074679194826756
360		-0.5372185266893725
361		-0.1781165204128588
362		0.9486624496760756
364		-6.219042372627034
366		-1.4646429458515575
368		0.10464810724701372
893		-0.3244201319183457
896		-0.1977630428438525
897		-0.48211792900293415
898		-0.7283242409081467
900		0.6788150085910103
901		-0.7994416829407807
866		0.4016929753724101
868		0.6018644606984028
872		-1.1110185870129057
875		0.13773375091327691
370		0.6655692197063459
372		-0.5089187055499709
373		-0.6607332680327892
374		-0.6668547992971298
378		-0.022500921300776643
820		-1.7477136979066485
821		0.32937203792717334
822		-2.6356364567569446
825		0.6739359289480922
828		0.1560067275897844
829		0.023469012297365456
917		0.46248870620999516
918		-2.5002698209652854
919		0.07732530307859835
920		0.15890670620444813
922		0.5798643355159057
924		1.8690889402065876
925		0.297243409162598
284		-0.24046227438982992
285		0.5217255267870674
286		0.4972898210708984
289		-0.2852182758355816
292		0.49113937117045353
293		0.8703034198697189
794		-0.06871570232496198
795		0.33777484718301737
797		-1.1854437222244416
798		0.5426104504213096
800		-0.17575633036155952
801		0.7607646313730974
303		-0.6557883963557917
306		-0.8494585841167034
307		0.8530333993728084
309		0.5141959372078936
311		0.1259330730836273
444		-1.823686696001946
447		0.5394115554359751
448		0.4867777817388115
451		-4.835956279598335
452		-0.3423155026126089
426		-0.5502240677528404
427		0.7167959774024405
428		-0.8241192168196478
430		-0.6954029944214654
431		1.4988488472851513
434		-1.261162706825261
435		1.1396635165304416
736		0.09464636537469681
737		-0.4187837516328994
739		-0.05793560782215672
740		-0.3685391228433939
741		0.9609815103212991
744		-1.8390305831887805
839		-0.17317418078156435
840		-2.0201312331883012
843		-0.9941818783864282
369		-0.32069667468823126
370		0.4608259690652004
375		-3.056882609631687
377		0.43614607920791754
758		1.6340011437293
759		-0.754249208934583
761		-0.40386860537642977
763		-0.32239122189262437
764		0.7739028429097686
765		-1.1357132598648387
365		-0.7070260652461557
366		-1.3600498401471781
369		-0.4529064976208845
371		-0.022533693148717848
806		0.6971175194637202
807		-1.4679707466708274
809		0.1894250144552748
811		0.8993038625268485
812		-0.14945083730790018
814		0.3981861488360223
414		-0.8742110963225231
416		-0.5793864876931364
418		-0.6162272659688675
419		0.41941655596229127
420		-0.24055206687088831
421		-0.2768659310291561
423		-0.503564543791222
294		-0.38467402646370624
296		0.20913086949288787
299		0.15254835912048034
301		0.024036715853022427
303		0.03300672138860598
856		0.17341743516945382
859		0.10603366149398058
860		0.48674089432470674
862		0.3000672812705379
863		-1.5120587823460772
865		0.4763432265480496
768		0.28366152087486274
769		-1.8807353793941313
770		0.6618637257021907
771		0.23686126272437985
772		0.9034192025198667
775		-0.7765740373572018
864		-0.09430047905435748
866		0.349551360411354
867		-0.5906463071974052
868		-0.5508189516039951
869		-0.3251803566592379
873		0.6741649496987518
906		-0.11864253132473611
907		1.0130131805859848
908		-4.93450079011748
909		-0.5219582826991349
910		-2.8445761874672577
911		0.7675325455947671
912		-0.6600692408825307
914		0.6340492529210924
886		-0.4905915863077347
887		0.28515931016645635
889		0.5794139730821313
890		0.2037108797376723
891		-0.4419622476985294
679		-0.4784758918808097
680		-0.8083912550704754
682		0.3355207064660947
683		0.10403034244813734
685		0.7368178425614764
947		0.562669561073337
949		0.22277961910859828
950		1.3692711892354166
951		-0.4458983454807411
953		0.30943446927720336
778		-0.21690732811918126
781		-0.09487274502106456
783		-0.6526483470507229
784		0.38444264241136805
325		-0.07396436322955154
326		0.13959185348855724
328		0.5811210117793792
329		0.5596833883777471
333		-0.8602459516572296
334		0.14107215404638884
379		2.0084479432515856
381		-0.20860356590788276
384		0.08248391399664824
385		-0.7319285413188813
386		-1.3170547248502678
349		0.7663764150774501
352		0.15895679241515315
354		0.42240761470504073
355		0.17826157491099912
356		-0.5514429399332944
357		0.5991299029690884
386		0.12392031052776153
387		-1.1689940642653733
390		0.16605879931913306
391		1.9805657209477021
394		0.07961223626851749
843		0.39918381818851967
845		0.18304327453355254
846		-0.9473147292980897
847		0.2077242597035615
850		-0.018670970456709603
851		-3.41529167000957
852		-2.0481147505504147
405		-0.02760433076076484
409		0.8944335843416823
410		0.20463718385953997
414		0.9563931146927506
197		-0.6714499353260682
199		0.3708037378491235
200		0.8296246646913591
202		0.6771731888042438
203		0.49565390502269896
468		0.6540476488582194
470		-0.5598713205985731
473		-0.7366176455054154
474		-0.47795639743747903
475		0.029574895446612983
831		-0.044716023977380705
833		0.612276089953747
835		0.5110961198576006
199		0.3741454730725157
200		0.7031343566250069
201		0.5444726457426708
882		0.20135701553628438
883		0.6390074303314499
889		-0.8675037791091357
890		-1.287497606707197
899		0.12565395455896472
904		-1.1747725181171504
373		-0.20869016110558467
374		-3.3301246377625384
375		0.11571819930421469
377		0.3507557925295506
378		0.7964297576327407
380		0.2367449260243189
684		-0.23252726867102405
691		0.37295457636359824
404		0.22910775825934382
405		0.19007841934056338
407		-0.8340085794358596
408		-2.708120387937187
410		0.4127280540982292
411		-3.833951592758305
280		-0.7830031539293331
281		0.20847604417760043
282		-0.019156952229529782
283		-0.42659615518230226
285		0.8396881384447631
286		-0.5820932555441065
288		0.40185662723738996
289		-0.12156035922870252
749		0.5911265703007105
751		-0.6630340439372356
754		-1.4571903244698372
758		0.887246057093176
418		-0.2839939447960935
419		0.8633105750332162
421		0.6852762873978229
423		0.15837935081404617
424		0.1463015842586651
426		-1.1091795078150308
654		0.9816015782133501
656		-0.04323389305729545
657		0.5564785167709223
658		0.7601830346741679
659		0.0865724611731252
660		0.5971810638989786
762		0.5149861940571934
763		0.44954368245421605
767		-0.5344528694931068
768		0.5574071884235354
769		0.22375868100146212
771		-0.0012637391721423998
853		0.17823044092886656
854		0.667089296663208
856		-0.6479067194922067
857		-0.7321807475404767
858		-0.2013355563641382
445		-0.051524047287108736
446		-0.35304950430710447
449		0.9682320796967089
450		0.3432890367269171
262		0.25596339352750697
264		0.28049094943706954
266		-0.26745877525954076
268		-0.7770666112927626
269		0.5440101628498681
423		-1.3836747785752719
424		-1.3457794800454959
425		-0.3375254432549267
426		0.5233099061943912
429		1.6801731907705906
430		0.177482571785682
170		-0.08637186140934064
174		0.5993248574110015
176		0.3038292012265009
177		1.0033738898094293
178		0.5969913942092719
267		0.46567504885931155
269		-4.709148823213057
270		1.1195151562369126
271		0.8764386847765631
272		0.14171820819911424
273		0.47727314048217806
276		0.19630944445501156
691		-0.07068467087064213
692		1.389909195954362
693		-0.32809653998431865
695		0.5688946060712446
697		-0.0194001513240027
921		0.58142172945731
923		-0.30891920321611005
924		0.5992672822046555
662		0.6458359214739199
664		-0.2930530411072077
666		0.21486790897855385
668		-0.5816174106157622
669		0.5520512865100071
671		0.06895062299042244
745		-0.3890687107022666
747		0.5209788876082156
748		0.6598156700083352
309		0.09644461298149014
312		0.44716995888212124
314		1.1696294077608653
317		0.32625116204927374
901		0.14372566676415666
904		-0.1543664847987103
905		-1.2832937138753788
909		0.8220993440041142
206		-0.9785438714056999
208		0.641720104668872
209		-0.7690141919292283
212		-0.9259939208473633
214		-0.15132537495940462
215		-0.01459579320253707
387		-0.7386001045043508
389		0.21192085818516843
390		-0.6475512320751655
179		-0.7521436688423881
180		-1.4015317537461098
182		0.30110615308889604
184		0.2673690354138693
186		-0.02686094178410718
187		-2.4972487938488697
872		-0.11708730831444404
874		0.01920082993490563
875		-0.047369745812588175
877		0.6299416694544189
878		1.577165337498808
879		0.42004674631907707
880		-1.6846700568122286
881		-0.3984106858850106
790		0.09253195421219818
792		-1.5741635359410682
794		-0.24006451049872374
865		-2.5390008884059356
866		1.258093072199767
867		0.38627728398864103
868		0.6162529490206982
871		-11.07893181067182
872		0.11522955233415758
874		-0.2766811654213559
789		0.06189240952795497
793		-0.970046532103455
794		0.04995831776013848
393		0.0635974607398475
399		-0.5900070044598519
400		-0.09779781860060655
401		-0.06516208306457541
262		0.0998787872813879
266		-1.1020440425639535
267		-0.0305681384560132
268		-0.020546560518500102
344		-1.0930122590763627
345		-1.364123646304122
347		-0.13780031987026917
877		1.8267525471247563
879		1.0428307150298373
882		0.338655308625558
884		-4.39492007432355
885		-1.8983326833973315
305		0.1259537870294695
310		-0.021725475581733926
314		-0.22672317828937305
423		1.9816859056884928
424		-4.199499596686293
425		-0.3275352569923828
426		0.1018809701289952
427		-0.29610390799027375
428		-0.33319698642458995
431		0.48493712037218306
432		-1.2379253637427277
395		-0.27105363384336223
396		0.19321584929230926
397		-0.031314000098940614
398		0.08149840903852784
399		0.6571794320187515
401		0.5590625635336413
402		0.5482363756966047
403		0.12965095597495835
400		-0.060751431287993145
401		0.21431957205761515
403		-0.41662166091287123
405		-0.16999400684039565
406		-0.8448411718340585
721		0.3364811360230128
722		-0.2844225392730067
723		-0.9792339423709194
820		0.2670276376085597
821		0.5247377280319647
823		0.4700304267248608
824		0.31465025009449604
825		-1.9124008098839462
826		0.19150640528848709
828		0.6146264283021389
742		0.20055240756853207
744		-0.2155260099081081
745		-0.25392488582077555
747		-0.026554277171612895
748		1.65801406314495
749		0.32593198115228245
750		-0.9482437580019932
751		-1.4517158400368075
934		-0.08106358119212441
935		0.5367762116359879
940		0.8439670558892602
943		0.9316369957287638
762		0.2649433492178356
765		-0.5544907071328293
769		0.3389557113363758
899		-1.1195477366066202
900		0.7534653518575193
905		0.5300811818332342
906		0.8437791590641349
908		-0.21864380483573034
879		-0.6080137327630931
883		-0.34253359270683176
887		0.16720346573884987
902		-0.9531592148732556
903		-0.6678434712870933
905		0.3121352775178364
906		-0.15076116977194542
907		-1.5926854396921541
908		-0.17440919173456326
909		-0.20488692712600332
216		1.43881221477437
217		-2.38564312000668
218		0.7340307579403516
222		1.1853113360342786
224		0.28012798020197227
225		-0.18535110823750633
875		0.7423648504142877
876		-0.5916014790673696
878		-5.160352867708417
881		0.08940795117046815
882		-2.4489754214039827
943		0.19262185294721015
945		0.5411627627605101
946		0.5899969660389158
947		-0.520481165836967
949		0.2669069346489519
823		0.06862899286132233
824		-7.158037965633946
825		-1.7113077630444107
827		0.34079243181762164
828		-0.006231986042745332
829		1.1558894233920034
830		-1.2183381043150643
831		1.3683996549048738
832		-0.38392437070880575
237		-10.425499460257724
239		0.010008093917142923
240		-0.1991067717999796
242		0.5556496484579687
243		0.26860259115680934
246		-6.59308466566659
458		-0.8713421691259194
460		0.5162350763759735
462		-0.22082766600205608
464		0.46002494096045937
465		0.3127478136788243
466		-0.24148773637920362
420		-0.16157415306916545
422		-0.32270084002508065
426		-0.5316624487327488
427		0.8109115025706934
834		-1.5674085504242579
835		0.17911477608376206
836		0.6850857516711155
837		0.5503073928384065
839		1.1536216298069135
840		-0.3821316044437074
466		-0.8885259181491972
467		-9.363785373733736
468		-0.45275453404069327
470		-0.026429415076982207
471		0.012623484817722323
472		-0.5505114273558708
475		1.0705907603598472
343		-3.174254881235615
345		0.7969059995134944
346		0.9568313475784901
347		0.37233621915096243
348		0.1971463577878256
349		-1.0134559073605578
351		0.2574903753290418
352		0.5285921894797553
699		-0.510665638695066
702		-1.57666020006437
703		0.20899689488276638
704		-1.8299910853023225
705		-2.1530513216926543
707		-0.5450272573770512
708		-1.5676012531772319
400		0.5916957815201902
402		-0.5242283640140981
403		-0.2847370775804778
404		0.14283234055905064
406		0.7899772087029194
355		0.2922374830876255
358		0.5714045847617024
361		0.5068399624892812
362		-0.41671221189635954
363		0.5881623074258242
861		0.08040251070801688
864		0.06382543934227394
866		0.21178488310427912
867		-0.8829850034193832
292		0.6140502439045635
410		-0.04660840522515644
411		0.0314027382218955
413		1.0117418222219576
417		-0.03859030972768901
659		0.4490851061995839
662		-0.04715703342525092
663		0.45150877086960417
664		-0.9758542129903356
665		0.6603314701901026
666		-1.468484999046088
667		-0.7767226751393147
893		-0.19467280857675467
894		0.045791177296868185
895		0.44105739368855573
897		-0.4537230354840067
898		-1.104158786646553
899		1.0900735258812368
900		-0.0953791930212954
380		-0.05280801429110875
384		-0.9469864465012572
385		-0.7444344641956459
386		0.9597334188532998
387		0.8351908041661871
388		-1.567450879597697
389		-1.6010772338921633
754		-1.7428323077675196
760		0.4958620460355727
762		0.5855781751074642
830		0.48119229308921824
831		-0.38520453494965146
832		0.9403262263311184
833		-0.4858235865123088
834		-0.10893658567422945
855		-0.8219192780941506
859		-0.25510655127523585
860		-0.04724450555887452
280		-0.041292873958546604
282		-0.17844260392018835
283		-0.4728348722460334
285		-1.1243150856704724
286		0.5520174698361158
890		0.5683425598587278
892		0.2428872347157941
893		-0.16044343741531622
895		-0.3953852985839887
896		0.5659663724883391
897		0.6139296115061472
177		-0.4241376929858161
178		-0.35887780064828645
179		-0.18941789627521818
180		-0.44413138245169964
182		-0.2751831136440509
185		0.12963480055386997
414		-0.30359860955346046
415		0.09990967300556611
417		0.0731322920690396
418		0.42366384467394747
420		0.043444713408435615
421		0.4851179290776378
422		-0.28625299232682727
770		0.1298887075401765
771		-0.5318595550685215
773		1.6935338802177569
775		-0.0691950236949231
776		0.7923086696564523
351		0.5019870360171881
354		0.21282175757259383
355		0.20695981529659094
651		0.2289173642176709
653		1.3373373812934053
654		1.1280373518294786
655		-0.1629842840798486
656		1.1610811640731022
657		-0.41709987549209976
166		0.02249174708206929
167		0.14933512140664568
168		-1.12428534468603
170		0.5997356075070243
171		0.6593090754455574
174		0.770205356199661
175		0.08791225817361512
276		0.5362574733936929
277		-0.1530384145866824
279		-0.18251274343981813
280		-0.9146882264238612
281		-1.7417441570533094
376		0.3197775903493026
377		0.01852566673100345
379		-0.08280938712585827
382		-1.1021008513448458
384		1.2052379996763936
383		0.9104615868516526
385		1.1574298263181841
386		0.45176205555688403
387		0.27151919956457854
388		0.7662307323969302
389		-1.0714389906301593
390		0.9106652995715002
391		-2.247897833475428
862		1.0314112145847847
863		0.4544815157343919
866		-0.6996559249116567
867		0.8590974312282826
869		-2.727178082221816
870		0.2244781241594644
214		0.2794424290676536
216		-0.20848250925990647
220		-0.3776251351858722
222		0.5021701045662843
223		0.2309539589897103
472		0.6576141509399693
473		0.2085226852749916
474		0.5870096984371023
476		-1.0583482651437588
477		0.2186377300680995
479		-2.029011932457351
948		-0.28345123157216556
950		-0.29163536713802574
951		-0.5278511989464724
952		0.1585940385267989
953		-0.2871599786101872
956		0.5392655907540675
697		-1.5502470200806617
698		-0.10290378867459204
700		-0.19985766320301457
701		-0.39721532193610365
705		-0.5799875402076272
706		-0.4634186254504603
255		-1.6816056552153171
257		-2.0897708723828186
258		-0.7414105415356915
260		-1.4482597083516815
734		0.33714582640945007
737		0.9139275697960202
738		0.6666517696866556
740		-0.11578125282358169
741		-1.4642239588656076
743		-0.1655808263479781
168		-0.9778069601618131
169		-0.0416084777295918
170		0.4391235530138833
171		0.7173501301106229
172		-1.7905004172119992
176		0.07579659832188497
79		-0.9577267451067569
81		-0.6195283354507093
82		-0.23031545256820263
714		0.6925430338360862
715		0.3631227131405775
716		-0.031642573088760804
722		0.769539955212024
723		0.9536822728453123
651		-0.019250001293776582
652		0.03312186574838649
655		0.6337998736120068
656		-0.5738870206096198
657		-0.942272472960949
658		0.9590256511520816
596		0.4036902360637966
598		0.22161023137459235
600		-1.642847038315258
601		0.698855053583679
602		0.08099033368244482
232		-0.7824837078612641
233		-0.5522481655715104
235		0.27856516920777313
236		0.6265654078390908
239		0.22520790001556298
751		1.549198743173349
752		0.0015359347042477461
753		-0.020232524475200547
756		-0.7427429234859249
759		-0.0011673623962021944
760		-0.04709776922527367
148		0.3891093777608461
150		-2.3445789066669507
152		-0.3881645044423747
154		0.3009313550653944
156		0.36391466174209225
747		0.37494091264654156
748		-0.3342360036869102
750		0.6732482096380005
753		0.011852735251000104
754		0.5112262363489102
756		0.44453782884708076
270		0.610321746632558
273		-1.1540240833886073
277		0.7257052805560096
265		-0.5740434240645825
268		1.1791939550277322
270		0.633341955477738
271		-1.604588302729602
272		0.33957507893615485
681		0.4534351361352373
682		-0.49287822599247527
683		-0.37348790514538627
685		-0.6168914351565244
689		0.36901851131857544
690		0.34712189551603884
199		-0.39155938523857886
201		-1.3698715282849654
203		-2.347018729407218
205		0.20787769675379753
207		-1.1663102648882104
888		0.5860538755396166
893		-0.08147562854079049
896		0.905439175790274
180		-0.35813277793065484
181		0.4626649367225951
184		0.664343121636978
185		-2.1311645598520634
187		0.045273218707811626
188		-0.156673405285005
409		-2.456127511629061
411		-0.22809859214030825
416		0.08364491909098447
417		-1.260764558057581
353		-0.563790873527222
354		-0.6579188439830327
663		-2.275852841460112
664		0.021656992991054412
666		-1.6289279047234018
667		-0.7086681648723342
672		-0.2954400503774621
407		-0.38239524632477817
409		0.7117088632236969
410		0.37623262493265486
413		0.021156366650869927
414		-1.872519175098779
416		0.5890356774379397
887		-0.41588841670817817
888		1.5894465414546268
890		0.35096417120851825
891		0.9741954784620199
892		-1.8172667103073008
894		-0.24065796231990835
174		0.29401243753544687
177		-1.0432611526259932
178		0.29289165702034387
180		0.07517241539022808
181		-0.4249437490272695
949		0.2773959138605067
950		0.3092563491598541
952		0.09164640178162878
953		-0.39007403149456993
956		-0.15540728342067606
958		0.3790732184390765
657		-1.3007984148987324
659		0.8314303876291833
662		0.1481698320367141
665		0.512425816102668
666		-0.5109968922838543
473		0.6978854491636607
474		0.4190078022328729
475		-0.15117727639329262
477		-0.4050506975931211
479		0.35959062157718014
480		0.1713567607070477
215		0.3034061386453227
217		-0.7867836876355322
220		0.3909401978907955
222		-0.47600942918724254
223		0.23486236080583703
224		-1.066194006192681
699		-0.736280264744887
700		-0.23240300030391556
702		0.5668789047693233
703		0.708387077496699
704		0.39478733308872055
705		0.44643575625186366
1075		-0.6016587990508053
1076		0.1662193066683162
1078		0.04354366036500863
1079		0.43542671585521975
1082		-0.475607752644853
1083		-0.26811950055715555
449		0.2166019213859412
450		-1.6580669923060183
455		-0.29947788422647076
457		0.8493559934559167
479		0.3066153447220401
480		-0.3085152277699106
482		-0.07154728334274553
484		-1.1993308843414923
485		-1.0809926522451503
488		-1.686066093117205
956		-0.27693381744749357
959		0.40408313978354293
961		-1.1232623322160482
962		0.2890876304213291
936		-1.0290380822482847
937		1.9452426333387502
939		0.387119864548193
942		-0.975196616696465
943		0.14429683415513983
944		0.22993518013318132
458		0.2793142180658369
460		-0.4812669693860793
462		0.31967918965514047
463		0.5415219144103265
465		0.8912980579212012
176		-0.5965838371500035
180		0.5935187123296984
183		0.3573022601218904
658		0.7754045514810874
660		0.5706114849764261
661		-0.2589150236503908
662		0.062942196462997
664		-1.8227907704783948
667		0.10778074809177896
69		-1.437202291999996
70		-5.670215836524553
71		-1.0928061143805667
72		-0.8718577995374661
74		-1.1885444815761594
78		-0.12958957836565915
141		0.24803364325291172
142		0.4848920971510834
144		-0.6646564743614897
145		0.07191173604402692
146		-0.33028753907312963
586		0.489015960228056
591		0.31869423178891093
823		-0.1524032271228704
826		-1.7095762307621853
827		-0.5225536668943818
828		0.8359512616275908
446		-0.5923833278928676
447		-0.1955701519101394
449		-1.2817564154982093
450		0.0035785486210387837
452		-0.4376147907840621
454		-0.23908806219437873
341		1.1051182578459466
342		1.7032325811630316
343		0.8338049016068023
346		-0.4874817538939248
347		0.35260240111087215
349		-1.1361245491754635
924		0.9691651281363198
925		-0.7647041777354711
929		-0.2252600370211335
931		-0.3004525971432066
932		-1.753857942313887
189		-0.27791351589108626
190		0.18949359519287073
193		0.06146620416135943
194		0.5246718855120195
197		0.1926852199988835
671		0.1026755124953436
672		-2.8208916423409174
674		-1.0283216801294481
675		0.38085006067371746
676		-0.15845778574084868
677		-0.2636403260237006
679		0.9626267942871995
680		0.5401799672849128
192		0.08657533219462303
195		-0.23745082042677565
198		-0.8668244880233302
200		-0.7172268634109786
201		-0.3731620921893448
678		0.06686635872719163
679		-6.9302200879047335
682		2.309563334076835
810		0.8883546172421075
811		0.8239395473545078
814		1.3710221131755402
815		0.10807302492217893
817		-0.7412647813609371
818		0.7215642819937488
75		-0.6295397834364228
76		0.548675329822134
77		-1.4522087864923645
80		-0.6205704446230953
81		0.43228849278593645
142		0.1686440157486581
144		0.3859343804384942
145		-0.450177825822148
146		1.6696798474597787
148		-0.8952246080425231
205		0.1893484498084189
206		-1.4623640900563095
207		-0.2142576231118546
211		0.10406633250453735
212		-1.1110703725894604
587		0.16253077514876166
590		0.39248448636613975
591		0.860119518178087
592		0.06282732549588642
593		-0.2318407155577192
594		-0.1297971768468714
595		-0.5091841808930394
596		0.31727195892798615
687		-0.7697933902594755
688		-0.16674720719163452
689		0.6411653512791212
691		0.031168196344671766
331		1.056704837619207
332		-0.20901611145800153
337		-0.09879980075713059
276		-0.15651737776989597
279		0.19161262908321483
281		0.6950124606925356
774		0.5198269845683303
776		0.954272586656269
780		-0.5986855732941884
755		-2.11001376823868
756		1.407391860222237
757		-0.7781757315798072
758		0.35547478407149546
759		0.2580772039079281
761		0.09157316244349371
294		0.3602619598210643
295		0.5644818806616315
296		0.6746334644861774
298		-1.2071529114313373
299		-0.46899541028507713
301		-0.07771698571793101
742		0.2286608069810366
743		0.7669356837697359
745		-0.0065186970612250116
746		0.12244497528149909
591		0.7159294903952557
593		0.2521103144767543
594		0.7787226885721347
599		-0.3010947169798869
600		-0.8582919559933627
256		-0.9517296881167463
257		0.20589793984831745
258		0.6221144347958895
259		-0.7054347966167477
261		0.15810918030881746
262		0.3703991059061202
263		-0.8352179329910662
145		0.6375279643109513
147		0.42350830323983374
148		-0.12267095982851567
149		0.5836467416206623
150		-0.21825364977022804
151		0.2398348615584183
152		0.20160381170710331
154		-0.07146641367121212
77		-0.3602289966973654
85		-20.39706725541199
72		-0.17049740552390483
73		0.11713168427541343
74		-0.01787390884805818
76		0.06205100274760657
79		-0.1569545033695171
646		0.37113499027762753
652		0.2414091418520306
653		0.14751061434737647
655		-0.1968456659919238
83		0.3562519262301663
86		0.7029679178289013
89		0.6760431841753566
90		0.3447756404304068
92		-0.07139594948627451
561		-0.7552998223240031
564		-1.202129882376288
565		-0.11095677828671119
569		-1.2013259022971383
140		0.7590728990377409
142		-0.524983423767486
144		0.7718322596362532
146		-0.34733569622730104
148		0.10832599630024128
152		0.31843133528817574
155		-0.07722787283016969
160		-0.43262924281088505
161		-0.05327827926968484
583		0.7482784152188954
585		0.0027413649279487353
587		0.24233901354096635
778		0.1758733982001337
782		-1.2384362698862992
783		0.08445228795207844
784		0.5279351372641172
786		-2.129652017695756
787		-0.2621239600133741
43		-0.14027399189400275
45		0.9793080204262549
46		-1.4000170920080983
49		0.040308631855948115
50		-1.606756742248672
52		0.6780904283514244
714		-0.1726177869382958
717		-0.5876757870470634
718		-0.8190115926959596
719		-0.8064106900106535
720		-0.10347007747965342
301		0.9761501321551074
302		-0.3126614819951444
303		-1.7775654934196368
306		-1.2253743742880931
228		0.09290674082476882
229		0.7346170589088163
230		-0.2994013914680305
236		-0.725568971867665
119		0.5559245224835307
120		-0.3325187404731971
122		-1.0051783978472202
686		-0.2212399850660983
687		-0.08810306931621685
690		0.8518802793663904
694		0.370217450190146
182		0.3409874741438099
183		-0.6094970495492905
185		-0.7165598269109112
186		0.7551520860168345
187		0.9265664508200016
190		-1.041579722216445
191		0.06331058418529192
666		-3.0231431674951956
668		1.1539685979671532
672		1.089492143998563
205		-1.3137159523313815
208		-0.870167636543496
209		-0.38176312843322086
210		0.5844747106893108
777		0.8196501224808456
778		-1.46724423385382
779		-0.06600044845965677
782		-0.16663556586977654
783		0.06401680705411773
784		0.024294633840691183
786		1.116506488193662
929		0.013166232912881312
930		-1.0023553595133725
931		-0.7661539316403837
936		0.5897300422874737
297		-0.7623000318821183
298		0.31116765851064887
300		-1.445879798859685
303		0.3229126192577001
304		0.34094421771836636
451		0.5472887213643276
454		-3.224951470342499
455		-0.2857451571414898
456		-0.44776127326259857
457		-0.7739507126653417
460		-0.3161950723050099
476		-0.7577631517161452
479		0.10354955194725728
481		1.1205952702404542
484		0.26110371827326917
954		-1.4179316628785157
955		-0.22791211885394475
956		0.07970706177103958
957		-1.175859054120666
1036		-0.5671578297489973
1037		1.0263800150915063
1038		0.41452585208701037
1042		1.304764179338699
1043		1.3676801355327646
1045		0.859699263766863
930		-0.2370423527192318
931		-0.44862806937984906
933		-0.0664985743939781
934		0.1550943010003748
935		-0.10486118262853539
936		-0.7855870435370477
156		0.30748255962204607
158		0.5436577370780858
160		-0.9761618619423075
162		1.0819870409512788
588		0.49777819143217816
589		-0.23001885529205227
590		0.5723238282124866
591		0.0957173187286012
595		0.34373876913872276
603		-0.3291079279657894
605		-0.730571754696949
606		0.42763306317147504
607		-0.5637683509236073
67		0.8059026594812466
69		0.9302698245199529
70		-0.1135833210761314
71		0.16280875184296623
73		0.32019512340248374
74		-1.2683207858012158
75		-0.8043898770696623
76		-0.3609503256535404
125		0.33105653251124745
127		0.8998413434719759
129		-0.18317742263910602
133		0.06240722359450944
56		0.7611522790005176
57		0.1285993462573444
60		0.12875134729459423
61		0.5071462058648023
62		0.6063080972159877
64		0.6017099030048108
84		0.3939667497377119
86		-0.7359399555976689
87		-0.8076729307981776
89		0.6295099567797715
92		-0.5099825679323462
571		0.5974613646402182
573		0.38038153944797115
575		-0.5854938527110141
576		-0.27575472602453704
578		0.4304072088893215
580		-0.3135621270821593
136		-3.2294196885833104
137		-0.6700088430433546
139		0.2781222043050089
140		-0.45830396713714805
143		0.9772665520041423
728		0.4648381961691412
729		0.1366159400634117
731		-0.4624083032973647
734		0.28204702624370825
735		-0.9148311070895133
245		0.4058807617171841
247		-4.8752767364561
250		0.27999732563685115
251		-0.9954099507016817
252		0.11660619823925265
254		0.5479166507486678
172		0.7078791240255142
176		0.6086577331657663
179		-1.7017031109769385
181		-0.22051373801603355
657		0.6883266822757164
658		0.19067861292679014
659		-0.06865982361946397
662		0.04408219507963548
375		-0.6916187484525487
378		-0.8462266817018832
381		-1.4260582969990734
852		-0.3183124625589781
302		-0.24771295139227884
304		-0.322077897570245
305		0.9349474338809922
308		0.21185690822845474
781		-1.7852018077446041
783		0.3242873570210435
784		0.8320990878029128
785		0.17534686959730159
786		-0.277766469019407
788		-0.6689336559460598
790		-2.628586965545749
1121		0.9989578657831046
1122		0.7112190367902452
1124		0.4458885907302736
1125		-0.423638386737863
1126		0.6380597946092331
1127		-0.6083070248062871
1129		-1.5762474303626082
1072		-0.0015117923301354538
1073		-0.2525087645056742
1074		-2.678465349362672
1075		1.3445527873284704
1076		0.15474316962753765
1078		0.09144998639123424
1080		-0.863569922752675
1081		-0.23218231988530685
1136		-0.4592469561270928
1138		0.8037667895200712
1142		0.18439390784479356
1143		0.8922148049411698
1144		-0.7584374221334738
1034		-0.0060063940254921466
1035		0.6453516074019454
1036		0.37477225113204676
1038		-0.6720688205521658
1039		-1.6633326529007149
1040		-0.05524395234135375
1042		-0.12327869217881987
1043		-0.20283650590097607
1066		-1.672069140540755
1067		0.3234771519205283
1072		0.4373846791340848
1067		0.7563847082125112
1068		0.07746908592494604
1069		-0.05099699199882574
1070		1.1049705557344756
1072		-1.0473376590614736
1073		-0.7424964624305239
1074		0.9676461271305287
1093		-0.2595574667555725
1094		-0.22251134427506894
1095		-0.36904151925010564
1098		-3.9745717367629365
1100		0.026953445075172895
1065		-0.006469407609069648
1069		0.05756301732766708
1070		-0.06960674057020452
1071		-0.7804008519718799
943		-0.4012577273586779
945		-0.4301169853148348
946		0.03524946120213843
951		0.11877776995203779
1129		0.5549187659521955
1138		0.2734759750465168
1088		-0.13046847586145338
1089		-0.022135470839339647
1120		-0.18793930315889684
1121		-1.278315453901207
1122		0.010430641494372842
1125		-0.11748501580230936
1127		0.6306386027654481
1128		0.8912334350006046
1136		0.49794961246184305
1140		0.5637456030837404
1141		1.1100861885667346
1142		-0.15441363300911656
924		-0.2993613903723327
925		0.3701973663874493
1098		0.06039367174981834
1102		-0.444314233106642
1105		0.27535511894016207
1050		-0.5367486071949525
1053		-0.8220986640501291
1058		-0.654535195388431
1059		0.4057274752331242
1043		-0.6645699418376044
1044		0.38662163348484724
1045		0.4573278272878368
1047		-0.1506529540176092
1048		0.5586006615599581
1050		0.9109431932352016
440		0.4919340295987748
441		0.7020414336123961
442		0.83524673559276
445		0.056457894222937836
446		-0.7655501077640184
1041		-0.1901408046283106
1045		-0.03408401203759277
1093		0.20344730392356533
1095		-1.384738301242939
1096		-0.7786731836542011
1099		0.0949886780284875
1101		-0.912012826565246
1102		-0.3537017611444879
1065		0.2378599185756758
1067		-0.41996214932061643
1068		-0.015260531586915272
1069		-2.4591630993094125
1071		-1.6824626383800183
1073		-0.3887445254196492
1074		-0.3031215219810101
896		0.5569345648154819
897		-0.14655872968171124
898		0.6627820998820392
899		-1.1255317512272303
901		0.6577960029219929
902		-0.02633010456562795
905		0.04045101418361069
1088		-0.6887461485944916
1089		0.7892224738308254
1090		-1.4323073828405326
1094		-2.4687226223117182
418		0.029889533497445935
420		-0.1829008643426959
421		-1.4374994499626756
1101		0.18321274141510915
1103		-2.5754545627307075
1104		0.483758825842162
1105		-0.05650473374064515
1106		-0.054099791726690695
1107		0.10718728798830715
1108		-0.13581554864313955
1109		0.8328256108739084
1122		-0.2765007849159683
1123		0.7617822252378023
1124		0.27841815962968003
1125		0.6030055172546137
1126		-1.0799040594216325
1128		-1.3609606325430867
1129		1.0791391351036341
1130		-0.08757273620581814
733		-0.4605009011231786
734		-0.32183986604237474
737		-1.249067519162361
741		-0.6721037779893295
187		-0.052115881466757885
191		0.1844957647172733
193		0.8430742538629068
670		0.3521866911799615
671		-0.8192154476329688
675		0.9443523982048097
676		-0.14998571639052394
1043		-0.23802522162254597
1046		-0.5806622942786256
1048		0.5080241032558418
1049		-1.3842569581449158
1147		-0.3481876493112066
1148		0.0898123626435767
1149		0.3799371499041687
1152		1.0066872123772368
1153		0.5359764519568949
1154		-0.4946306252312297
1097		0.6450990274847925
1102		-0.4522713502871589
1105		-0.1844668280228113
1077		-1.6279493990887968
1079		0.9114164614559266
1080		0.1792783231821065
1081		-0.563391765415214
1084		0.5351969071731362
1085		0.22362701308729302
1077		-1.4132591416520524
1079		-0.31571246333979436
1080		-3.1182111757635984
1085		1.210568565317492
1111		0.1493054233180828
1114		-0.2380120022033759
1115		0.33408494356705776
1117		-0.14330145615864662
1118		0.37008204169535086
1119		0.40072427958795537
1120		1.2155360069254744
1102		0.11638590634808361
1103		-0.4142484094397142
1108		-0.699692587245395
1109		-0.9716154057118251
1111		1.519225229462866
1126		-0.00809977724175005
1127		-1.7294153857971066
1128		1.2540496994363763
1131		0.2484161471725704
1133		0.07507604338000641
592		-0.17837971574985556
594		0.06530937407318672
595		-0.20298678564758646
596		-0.27692983820536926
597		-0.2728456659009228
598		0.06939247078561393
1158		1.2603381729931442
1161		-0.009409990343126355
1162		0.10893454044213063
1163		0.12497226199616569
1164		0.38139602204681056
1165		-12.411983508472115
1166		0.9835536810310705
1179		-0.7072174151104442
1181		-0.20339084450983133
1183		0.041455718840366834
1185		0.05456030376039679
1166		-0.12594016201472627
1168		0.5413408762388523
1171		-0.14120714866170955
1174		0.47587990629450433
1175		0.6237144054502878
1145		0.5837700079175409
1146		-3.142241080959093
1150		-2.2229177394020216
1152		0.15782672153228197
1064		-1.0031744219346719
1185		1.2247270117075237
1186		-1.346073162837362
1187		0.2572749310834984
1191		0.19693271282597116
1192		0.04716582860077007
1194		-0.7715889178299596
201		-0.21697351097503254
204		-0.6002023495278657
208		-0.11078103223547565
209		0.0297501535262573
1069		-1.2105472591130415
1071		-0.10097832999570877
1072		-1.0269606556626298
1073		-1.518043177566975
1074		-1.9773221008924833
1077		0.967640786159447
1104		-0.3497207749736446
1106		0.8444232376596168
1107		-0.457204724360206
1108		-1.9863917925868944
1118		-1.2611279420340393
1120		0.26675822950840483
1124		-0.8760686459255477
1125		-1.3097325078207664
1165		-0.7578525659178846
1167		0.42830544903756934
1173		0.2530423881531758
1174		0.22858426210945496
336		0.7694770098966587
337		0.22129057120776358
338		-1.4359923412889337
339		-1.072535292927878
342		-2.553117037799628
345		-0.24996699431488506
1110		0.11918114951693012
1115		-0.2896950271925401
1083		0.509331997145176
1086		-0.036060136345187815
1087		0.23451397340559516
1143		-0.22218774121464221
1145		-1.813175966658453
1149		-0.028867707649372853
1150		0.01711540227969279
1151		0.1918074687130486
1046		-1.5713588948060513
1047		0.22460589292241773
1049		0.5420149816397422
1050		1.3644082957431787
1052		-0.8926981136035048
1053		0.04688763151531457
1054		0.3218115988010213
144		-0.5576080178297411
146		0.49714216777840753
147		-0.08883341556280903
149		-0.5370247113146772
150		0.07033043061927335
151		0.19770796122843934
152		-0.5226090436330251
153		0.43659400806560833
684		-0.6924766290997734
686		-0.8692226139301564
687		0.2010790566845289
688		0.19738069570252892
690		-1.77674908026721
691		0.11032793156345569
692		-0.9230806433633818
817		-0.021010536237212395
819		-0.7409661367703598
822		0.49473715561406895
825		0.006605272289580747
1146		-0.006297625426884362
1148		-0.07464437713849259
1150		0.36239276611828536
1152		0.34013277476143655
1153		1.0680922672791133
1154		0.30880388881553494
77		0.25353166783009
81		0.5552093031974445
82		-0.0815582933383668
84		-0.0716578412963874
506		-0.8028831813164694
507		0.9588691204514508
509		-0.6042120006098489
250		-1.4883758935735285
253		-0.5655730607872369
254		0.11673753858975895
255		-0.12805486340196467
257		0.43387210014588573
258		0.16580510351611633
1169		0.46947733673613895
1172		-0.08323742131580938
1175		0.5321993177839768
1176		-0.33536157021503304
1177		0.15136695556627994
1134		0.2351372911585948
1136		0.2654943711591092
1138		0.030928198320553043
1140		0.00597187088335518
1142		-0.014648293400002382
967		0.7053116508352142
969		0.27500532313322423
970		-0.5724961792719571
971		0.3826950873977639
973		0.9870618935703742
974		0.11818475983652861
491		-0.8295050034166151
492		-2.379720472104985
493		-1.2196419419804856
497		-0.08088520090316083
500		-0.8869276162293607
489		-0.15316194123024865
491		0.8545379233445732
492		-0.2533229902566418
494		-0.9068060001820195
505		-1.3817053564989548
506		-1.3982893006897015
510		0.5834393122913722
511		-1.4289721720484572
513		0.6834969841123325
514		-0.3282682396817085
1117		0.43684819870103336
1118		0.38855286043267184
1120		-0.23050162665709809
1123		-0.2948025607626633
1124		0.8188284463855615
1164		-1.2038306868903825
1165		0.2986166846099024
1169		-0.05461210843435065
1172		-0.058571939160825565
961		0.3078103752522406
962		-0.20951764399642434
963		0.17947338631522036
964		-0.728367528132492
966		0.34254001689124597
967		0.23037299755611465
969		0.348476497872744
65		1.070171265847793
66		-0.8310226074973176
67		1.2506495703313105
72		-0.37495521858714
507		-0.09408582615848603
508		0.2165046638452673
512		-1.6477263667980455
513		-0.5877999744849332
515		0.7128739841836605
135		-0.664926152843589
136		0.5267860319898622
138		0.07904678022492004
139		-0.05837670650497379
141		-2.5519571942918717
982		-0.41910181328215845
984		-1.5989569476250203
985		-0.053721116956593755
989		-0.5240438159021361
579		-2.8071822572680616
580		-1.885849632162719
582		-1.0710042358387328
584		-2.4525557357031116
586		-0.4695879314408626
587		-4.90428655157295
975		0.07423281486987193
978		-0.48271110559450864
979		-0.8645661973984405
980		-0.2762091369897475
982		0.8722746167628473
983		-1.0362343598215438
984		0.3680764453266865
914		0.4096297340843341
916		-0.7637802383894641
917		0.20168278130066267
919		0.6613359670813717
921		0.3734123301235736
923		-3.1124776981096196
1160		-0.5201444750048764
1163		0.9988733119794857
1165		0.7763924995287156
1166		-1.6075411170356746
1167		-0.49118402542121264
1168		0.5647839754970626
1169		0.35466034639064037
499		0.17513670843612722
505		2.0214665872151514
506		-0.42966175504435977
507		0.670353133512214
508		-0.6799735746824112
486		-0.227373920806869
487		0.09934097002142199
488		-0.012348510086509437
489		-0.0014600768615098932
490		0.8010904328096352
492		-0.1254255168537028
493		0.004305645031699535
435		-0.10787058800968585
436		0.10279839205875549
442		-0.4511381980847503
1110		-0.4090069598578451
1112		0.31782271492176006
1113		0.6075332397266568
1116		-0.47245669694314973
86		0.5913231905764088
87		0.38099115303599534
90		0.8682225099013047
92		0.5824684645266826
95		-0.6311139511193455
677		0.9928803350193075
678		1.573524515237237
679		0.3093660928828988
684		0.17474357583703837
685		-0.9533072880757913
686		0.576991213822599
487		-0.12189264491958142
489		-0.6120384283519219
490		0.1241518833381947
491		-1.3962160548685585
493		2.1118565380061454
494		-0.06903157414062605
495		0.4425070930407282
970		-0.832059474130098
971		-0.4458652503690456
972		0.1687758244291445
975		-0.5116551086572172
976		0.27606056597197715
977		-0.5842313784607873
194		-2.1980746910832845
196		-1.1918734894496736
201		0.9729753376807045
202		0.6882361349938335
155		0.13900363668013135
158		-4.524974604567135
159		0.40319975119791
162		-0.2707305795842275
163		-0.725850109442943
164		0.06121140852394065
962		0.4716160155977555
964		-0.6099643654914898
971		0.9628401120868545
496		0.13970797688691725
498		-1.017445187606407
499		0.3189622736849026
500		0.6267797206678513
501		-1.4591355663493735
502		-1.5547215019508236
503		-0.8171271727534257
1158		-0.5507898506729585
1161		0.19435023057722148
1162		-0.4798351130442435
1165		0.4673027445779288
1030		-0.466214169316132
1032		0.5979865166010913
1033		-0.2509690486579851
1034		-1.6127007167262095
1035		0.17576219841131585
1036		-0.9237324373263659
1037		0.30616952020438115
1039		-1.415897393170366
732		-0.01859654392804471
733		0.6656399748958066
735		0.4432943305715175
738		-0.7219783831377938
961		-1.0128445932550343
962		-0.02724600583846667
965		-0.9963122777669522
968		0.6279638631755183
600		-2.19835095956749
601		-0.2591070885363088
603		-0.040787380187995166
605		-1.0271451498148638
606		-0.5173319446681027
607		0.7832266252213556
609		0.5140330261678301
483		-0.776687918677582
484		0.5073341590435604
486		-0.04338157154458783
487		0.2651879756452751
488		-0.376193490406434
489		0.35753196713741353
971		0.029087036754661514
975		-0.2334427253779953
976		-1.0904604743837616
979		0.4044521956970944
960		0.43120576736870825
961		0.22818330442342177
516		0.0023973527906777535
519		0.9087016320501955
522		-0.3526645986421269
513		-0.7528868666604697
515		0.014176516781596463
519		0.8296283345876043
521		0.0945612518386374
522		-1.3174005701295814
517		0.5931520345012801
518		-1.2056727432244025
520		0.06668460522526631
521		-0.6445053507309731
523		-0.1349809953638218
525		-0.13257238702677068
526		-0.5143128158881466
489		-0.3063772808956992
490		-8.133613322283358
491		0.614850859766068
493		0.13097378365712337
494		-0.6949511463237028
496		0.6037346735870134
497		0.4473223102631178
495		-1.5357166526572947
497		0.7196460476582559
498		-0.5921874753867857
500		-0.512359206257304
503		0.119667221239053
500		-0.4498771871168069
503		-0.9492738660097282
504		-0.4860225087536581
507		-0.9490986639699217
508		-1.2416415565667196
492		-1.2228451608339992
493		0.17180958114390954
494		-0.18670585531502754
496		-0.250447907598432
497		-0.3846428922370513
483		-0.11685537012524748
486		-0.3833266881645579
487		-0.04487846863907285
488		-1.3529425111580564
489		-0.9029694410601479
491		-0.32782493975182364
969		0.4906396423886802
972		-0.16336623009473747
973		-0.12882973486219412
974		0.6719540752017032
976		0.3261427022029301
978		0.33736875375423725
975		-0.2652206417086537
977		0.8153541305166047
978		0.4442430130162183
248		0.39781353375209205
254		-1.1746286150113623
255		0.4363383246382154
212		-0.4116403115423931
214		0.23332149919300274
218		-1.479695693282802
219		-0.028393828966136462
221		-0.029258316273535923
964		-0.5539826545631944
965		0.317488534062414
966		-1.6360687034615624
968		0.13187493510700382
970		1.0760479161080125
971		-0.1333475260259074
973		0.13253118404739608
138		0.06420433724472094
141		0.5711502799891913
142		-0.3593957190444818
143		-0.087145253933292
144		0.15462493878218167
145		-0.5628685101672891
146		-1.2601977483473055
124		0.030356957372268786
127		-1.0704772234320967
129		0.19377705452407418
130		-0.5956821075194193
131		0.20001528394467716
133		-0.2037490169944725
976		0.6189708192945326
977		0.6074615641511405
980		0.8806123580672267
981		0.001760736096671711
983		0.9528103096982682
985		0.09902103092000186
967		-0.5294442381322784
970		-1.1908620469112263
972		0.1416323161592034
973		-0.29398173903488795
974		0.24573141956085695
494		-0.23200488709440903
495		0.10831401497450097
497		-0.002071399180286587
501		-0.19469084334506095
502		0.4831391933565684
516		0.6511371805193127
521		-0.8968549476162498
499		0.49310715303520186
500		0.26966704055974117
503		0.6443188298126289
506		-1.9089239780375016
507		-1.0153237974327638
69		-0.4000568182637874
71		0.7576770826085208
73		-3.9854920277877532
75		1.7896622221267464
77		-1.0866140589044744
695		0.36593476342785947
698		0.9500548167065428
699		0.12950538285183796
700		0.10397379421613986
701		0.2305191278884423
702		-0.17376991773010478
98		0.04752716041764295
99		0.06556585180386167
100		0.1566368291637985
101		0.45863892833338776
103		-0.23599330727621323
106		-15.75069706517228
570		1.2285475820162024
571		-0.26534988318288744
572		0.11232652058131208
573		0.7705326864066891
578		-1.7430198106338954
506		0.5620584518966953
508		0.9077593717070799
509		-0.20885255068344327
510		1.4080386353391463
511		0.22457208124915942
512		-2.3251201472125596
513		0.32261924666382
963		0.457519478222516
966		-0.06094547862121508
967		-0.16719602804612052
969		1.5015552245786188
970		0.42649212465660985
971		-0.529796334867601
972		0.8011341177057129
516		-0.02039815714679657
517		-0.2521243150689318
519		-0.09528649601884248
521		0.5395112215134983
500		-0.556211612425994
502		1.0186826211506028
504		0.30783715568528774
506		-0.9234942213360449
1053		-0.5239160433877357
1057		-0.2842400739070004
1058		0.5239053399737837
1060		0.7481798447874711
924		-0.46225029213280866
925		-0.4597169660172845
926		0.6850642614744222
927		0.6901149878822656
929		0.6312262374986128
487		-0.7094652539942419
488		-1.860278793480349
489		-0.07701000414447591
495		-0.05497675093511927
496		0.1680257318311787
491		0.03997537240120777
492		-1.980930462827887
494		0.5749282270037634
495		-0.6962039334389457
497		-0.3416506792966307
498		0.0447813925685586
49		0.8099312271916184
51		0.5090465529709691
56		-0.292126275441018
57		-0.026628857183171248
4		-1.3230436257980667
6		-1.008835787990835
9		-0.5877239940127674
10		-0.647209496733857
976		-1.6572256032652046
977		1.1894862307678746
978		0.4308945777755672
979		0.030777173518511683
980		0.5707460784197221
981		-0.3005847383551772
982		-0.5640726030806141
508		0.15601845187872426
509		0.9780900964299345
510		1.0313109319985656
512		0.30021722275801793
513		-2.4082110508888532
516		-0.08358081150466659
193		-0.6191512433440189
194		0.530104457697506
195		0.14029712538703115
196		0.2304325551411414
198		0.32682183883568877
444		-0.9949064314627315
445		0.18499905437103803
450		1.2358481230633487
483		-0.5553014427508948
486		0.35101442345294487
488		0.2708072664344679
489		0.2873099072839711
491		-0.4530844881802811
492		0.44544998675210623
124		0.5896987506946251
125		-1.0858300775153344
126		0.5430820796293909
127		-0.0510455844508604
128		-0.1155372452114083
129		0.5834880511906397
570		-0.8333969862139943
571		-0.2408254146698024
576		0.18316820790785612
966		-0.7996548517197346
967		-0.6114207909213879
968		-0.48182252915100104
971		0.2708140419476468
972		0.22080429606286633
975		-2.5901710945064083
466		0.15039883331264803
467		-0.7458887604460578
468		-0.15146084142368405
469		-0.32799337575649556
502		-0.041301709123764435
505		-1.5272778683846302
506		-2.64201310582567
509		0.30369944196098103
510		-1.0621899275215851
54		0.5961130903627253
57		-0.22993683740389295
61		0.5561340002997252
51		0.5092283126176949
52		0.0498527865391064
53		-0.5514032321750207
54		0.5063314870817268
55		-0.6161232438296106
56		0.05864620512602695
58		0.3965896894807382
59		-0.10995142219385923
941		-1.5981488839305447
942		0.2716259695090294
945		-0.3267793437066162
946		-0.30974119709519204
947		-0.6714192249865873
948		0.600905528093273
950		-0.37421876359363176
509		0.4522464333613974
510		-0.8286852121405907
677		0.20235499464777057
678		0.22765096650151664
681		-0.015757270914103293
149		0.1675086081371336
152		0.022470797294794242
153		-0.6193897360285722
154		-5.206610446951974
158		-0.40731207940330677
76		-1.1820352425817096
77		0.3505583327201801
78		-0.10617585169054582
79		2.3217416431379685
231		0.3138675702281983
232		0.20428983639281445
233		-0.4228002751069611
235		1.21341773880895
237		-0.1458306039185436
238		-0.5974654418690849
514		-3.3670927032088565
515		-0.46592764019259836
516		0.02263497449414994
517		0.587232058191215
520		1.0628863507833575
521		0.22245739881203513
522		0.31125082588342484
523		-0.27846870060260087
494		-0.9507546307972025
495		-2.086841698415683
496		0.2600093988638422
497		0.746567233229693
499		0.04592549280842545
500		0.9739479716719819
501		-0.046988169100937824
596		-1.1366927382360588
598		-0.21543901559804365
601		-0.4135605550061805
714		-2.2408813343290626
716		0.9275584152180323
717		0.1152638366631505
719		-2.4398147486070494
720		0.9293040495053047
496		-10.201463941374454
498		-0.26557680146580576
503		-0.3300205612747853
505		0.4401248366257256
511		-0.17758192185605445
512		0.5365997146638237
514		1.2259770738623457
515		-4.299121646274442
586		-13.327561813347948
589		0.8374399222515262
590		0.33467449245617953
592		-0.3590187595742844
594		-0.39769110163595306
974		-0.1714929578234953
977		-0.7861356502617481
980		0.0248176409698249
981		1.681517494278688
1055		-5.412221272214771
1056		-0.8013223662129006
1057		-1.0840602580472136
1060		0.09095445191796431
1062		0.31907768355806937
1063		0.29518809881961566
705		0.1446411615899319
706		-0.6607677280753967
707		0.3551169527330295
708		-0.0674287498492999
710		0.07937030169143258
638		-0.18437885734920306
643		0.6983124644187089
644		1.2820072392363278
645		-1.4057478145519242
647		-1.6831835065717822
574		-0.6606488959637421
577		0.36561427677937824
578		0.26612925517006913
579		0.34704136113179723
580		0.4529805495909354
582		0.2826262641674165
583		0.4417349796225444
1017		0.007151779767496953
1021		-0.40920496364036635
1022		-0.865927595680948
1024		-0.15492961721042287
1025		-0.35588855603121916
221		0.11843266175759641
222		-0.5608952766817061
225		0.04843632743348837
227		-0.11321119059150594
229		-0.8316857001933027
230		0.05588372431900093
568		0.5458900281265442
570		0.9937235931859446
571		0.2616263777904218
572		-1.2278139772132024
574		-0.4809261658025824
575		-5.786564875319601
637		-0.19134095621042368
642		-5.894540494935711
643		0.8631496957345457
644		0.38146055838908643
645		0.9066603888310945
646		-0.7434031062974157
518		0.08467699350681049
519		0.4611469681984226
521		0.5973742907913896
524		0.5621675652366812
74		0.5042412897394043
76		-1.3328512783951756
77		0.42398120073953477
78		0.05052591355251991
80		-0.12549246645939344
60		-2.080232299542522
61		-1.3400185590165812
63		-0.6581141985455967
64		0.6046536716994555
65		0.5917856786743648
66		-0.24646553823773323
1187		-0.11567665676237808
1190		0.5544040763469692
1194		0.06193207274459319
583		-1.773869277256186
584		0.3619873467004368
585		0.3145038429620293
587		-0.4123126106905949
588		-2.378187990353988
590		-0.5541255739794415
592		-0.21063466077204282
980		-0.3730040781644656
981		-0.6546022790013484
983		0.32378103688677934
985		-0.8494589033219161
987		-0.7687298789465251
234		0.34975125137490765
235		-0.42593988939950916
237		0.3662571682040833
239		-0.8461970531076406
240		0.6811971271249053
241		-0.4869049776193234
243		-1.4845398406446713
161		-1.4700162506111991
162		1.1319359736292536
164		1.6756385893454564
165		0.03504302379272055
168		-0.03731370438585455
717		-0.07016381646727957
718		0.7929275268972769
720		0.41727062513121843
721		0.3638057509633779
724		0.05859747951053622
725		-0.04878168436791377
21		-0.3759468224339943
24		-0.039168615019375005
27		-2.265221354899046
29		0.6597506393021757
30		0.07517214574272553
535		-0.39031530135741743
537		-3.4050270355374557
538		0.2461166353319764
540		0.039140165083753065
542		0.13468878727472705
543		0.6620260351276989
80		0.028164650459947597
82		0.18137712830888195
83		0.1814778652453765
84		1.4224204410783008
87		-0.5832388736747139
88		-1.041452742994249
89		0.9354362204920376
130		-0.52736019400855
131		0.07589146897495073
132		0.4192384891344512
134		-0.33048425503460743
53		1.4883887967751663
54		-1.2060900864450128
57		-0.9569333288545344
59		-1.178717625534023
602		-1.3941617173655059
605		0.8832481886257331
606		-0.9491480207629406
608		1.2192618333021599
609		-0.35026605113810994
560		-0.10969543374400792
564		-1.052274075770354
566		0.22051850589679334
162		0.8489241443231218
164		0.7011779188205776
44		-0.6394639892174043
45		-0.6977246215630976
48		0.29507298205463883
49		0.4234963526226732
50		-1.1996182313496695
51		0.4287650687933252
644		-0.06654135367634961
647		-0.5350072792012833
648		0.5666760035787659
651		2.369525004522766
652		0.17965607468640338
653		-0.6759130981684629
115		-0.9457491270974115
117		0.3791255282486832
121		-0.2750990582624089
122		0.1243393755193149
292		-0.36494198435483244
294		0.8384062066918186
295		0.415985422522505
296		0.10303600356863643
297		0.5394023653922803
298		-0.026215596755093405
121		-0.9832248525217111
122		-0.5556197626029818
124		0.05549646092392536
125		1.3018487666511518
127		-8.692795466598183
130		0.40073953437571763
771		0.22594163243096108
775		0.7876143859124771
776		1.2687457233234272
777		-0.40710017054930286
778		-0.07773212572334458
324		0.45143513156813075
326		0.9025738639482777
327		0.4227552381784678
329		-0.03313242845660921
331		0.5413978413936452
332		1.0193204313177362
143		-0.03973771596093052
145		0.09735755417552314
146		-1.3925313175083915
147		0.7827789093947468
1025		-0.0458559183863907
1030		-1.22303349451024
1031		-1.6255759299960457
38		0.5442727686974783
43		-1.1670817131267628
46		-5.431473103363499
47		-1.9273476363249389
89		0.6525926882053137
90		-2.473218777997581
91		-0.419036967168768
92		-1.4173444327445304
93		0.02171170516833072
95		0.41611959784110014
97		-0.05252515620901981
556		0.667013177257805
557		0.37685474693878523
561		0.08051065882328381
562		0.5913332777851296
563		-0.03259613360864212
564		-0.8002760494628156
805		-1.6411072337312147
806		-1.326585995667611
807		-0.5474374641844434
15		-2.2405634383968316
16		-0.1435146462552022
19		0.11759181479209407
20		0.6887704763426876
23		0.10238500457460738
713		0.14505816616186237
716		0.005454926781506883
717		0.1954987238288651
720		1.109933717186051
721		-0.25413291470254057
172		-0.8364521378758648
173		0.7342545937364056
174		0.6078399494233097
178		0.8059193907594446
179		0.705226926226005
18		0.671949318135812
22		0.45010842701135007
23		-1.2003154287696558
654		0.2669303904645591
655		0.10497006681902064
656		-0.8932938986522867
658		0.0156314720123823
661		0.11985910718660929
663		0.28087341592974424
142		-0.04189203168044079
143		0.25026177303847197
144		0.3127055201350056
147		-0.18919724661465023
93		-0.1188061726546211
94		-1.4015592551252176
95		0.1320610221068826
96		-0.27935984049128004
97		0.5485076601582677
98		-0.7174181907026829
100		1.1213311307674512
101		-0.44061512042783313
102		0.4776604193117313
11		-0.08157392859157052
13		0.6155558854869457
15		0.11003593248099353
230		-0.5684750332504742
231		0.21492943600052078
232		-0.5045735628213636
233		-0.07646133601308025
234		0.34282634207260276
237		-0.023446444166787154
238		-0.3797353516266327
20		1.697136400576748
21		-0.7976169399157996
24		0.30947147568765276
25		-0.020560762121314177
26		0.3217108341115434
27		-0.45680844894048767
29		-0.01807308706254776
164		0.36634851281976777
165		-0.8068169611162926
166		-0.26459546887076446
167		0.2813682148028714
169		-0.6230310152877668
171		-0.035140676891897746
172		-1.0665067908772394
173		0.08789324133350089
1041		-0.05230685582703321
1043		-0.018166991898816213
1045		-5.721345559695156
1046		-0.3900201247926007
1049		-5.946286299070885
115		-1.1083919736339711
117		0.5630598742321935
119		-0.12287192068038967
122		0.84957245827481
124		-0.3474247807354601
590		-2.6895191511023504
591		0.4795421516331872
592		0.2475330956616819
593		-0.490854193177714
595		0.12772460786901618
596		-0.6876700030492936
597		0.1723159907364442
210		0.42208141178046815
212		0.09615175462486364
214		-0.4745374997442882
215		-1.7520237247311168
217		0.42084434894311107
46		0.02121375805510726
47		-0.26577442863670797
49		0.5328518112406367
50		0.700120807113606
53		0.4050203739543882
1119		0.42299374381518545
1123		0.30041031202693574
1124		-0.10837802229816691
1125		0.12173296037313841
1126		-1.8187909436949603
790		0.7084541940495263
791		-1.417994341756687
792		-0.561207338914877
796		-0.16408502877030132
797		-0.1360985759583883
799		0.3399691581901884
641		-0.2364393986928999
645		0.7726912757188749
649		-0.3181383157121191
110		-0.1738211856006704
112		0.1540240469591679
113		0.18986894487038342
114		-0.6930946493912943
115		-0.21137514712351035
116		-0.12685839457497622
561		0.873355338297219
563		-0.7410050326448269
564		0.04120432052403526
567		-0.17550467622570814
568		0.18230657831313435
569		-0.17966311041374744
570		0.32924965594109445
309		-0.2925704320172244
310		-0.44754590415684775
311		0.2541768182887787
312		-0.6258787823784117
313		0.06841588859961172
316		-0.39481819024336956
119		-0.31962113858642094
120		0.36730539072515556
123		0.10219661417194947
125		-1.2616512319206197
128		0.008047472732123858
1173		0.24052692288565675
1174		0.05866013854446194
1175		0.5584586307851201
1179		0.7505692589370123
1180		0.05924666796777485
692		-0.9643639918956413
695		-2.373612479587949
699		0.2757656437344971
700		0.6599549222549338
130		0.38391585660636024
136		-3.7031102413987615
137		0.4720147297171129
163		-0.6732644732812233
165		-2.1187139492762097
166		-0.7389051589638338
169		-1.4531657446498873
171		0.16561799539225447
160		-1.1917232376096363
161		-0.23803094388948462
163		0.1148981667282607
164		0.045952579523203356
165		0.6766909754608308
166		-1.2547054320417887
167		-7.2780361672551495
168		0.13076801335359034
169		-0.2240421533644644
553		-0.21844206495539042
556		-0.06924115957706516
560		-0.0586333246147674
553		0.6257491768597789
555		-1.2809517393426548
561		-0.5252099335847594
35		-0.4445131206748253
37		-0.36335383243586233
39		-0.24430912559014764
40		-1.0446061414046885
42		0.5438894220206576
639		-0.35795766200553963
641		0.06995589324495012
643		0.7105105564566734
647		-0.19909834186484632
575		1.2175905681318067
577		0.6627413918964772
579		-1.5151994359298535
583		0.3213357621342886
36		0.0460490001143512
38		-0.5605145214742235
40		-0.461230715286483
41		-0.7900442725733275
45		-0.4640331670830156
149		-0.06057500799833619
151		-0.11371603805338894
152		-0.7845507697973518
154		0.13269626553976654
156		0.47273978079723744
55		-0.5277398975793611
57		-1.4632215803075304
58		0.3943111101911862
59		0.18597067711658705
60		-0.4094876238260218
552		-1.381489005135514
553		0.18755618438503585
554		-0.4345788062768165
556		-0.8703358437535266
558		-1.8185647663283502
559		0.36127222741363246
1140		-0.2793435132365038
1142		-0.6229050988204818
1144		2.0371781412781003
1145		-2.669801334445591
1146		-2.527151426259927
1148		-0.3181262215406073
57		-0.22691016496716232
59		-0.6017711336508147
60		0.4850236211926415
62		0.5150668855984104
63		-0.2588096768818074
64		0.0816778535200652
65		1.151107142660215
66		-1.1193526476894753
570		-0.8024153376332588
575		-0.9255611005572831
576		-0.7066675388745365
578		-0.5031656355814069
597		-0.21992769984636398
598		0.35657924817528935
601		-0.2638765832132365
1188		-0.4536389097067912
1189		-0.19342947018874876
1191		0.2941588452182607
1193		-0.31711223917139497
1195		-0.24547604193818542
1196		-0.08765463778199882
1197		0.5100423316651027
45		0.2764785465530463
47		-4.029612101889985
48		-1.0271324702272153
50		-1.8714888179367224
52		-0.2677024675490648
53		-0.025336355077404282
64		0.2661659218551678
65		0.4517058734959124
66		-1.0818993832392005
67		-0.30929227639514645
69		0.3514995911552474
1024		-0.2955262143450537
1027		0.04247979696743601
1028		-0.7851425023279737
1030		-0.36149265321304186
1032		0.5631931114697112
563		0.0007266335715150859
564		-0.16661035928447804
566		-0.3507359517246267
567		-0.7082914286589307
570		0.27140084266991843
565		-0.5351647782436313
569		-0.8698762895053682
570		0.12113028169117357
571		-0.7129270583552767
573		-16.228912238085424
78		0.12897306278290482
79		-0.023284954598471706
83		-0.4447369907892821
85		0.008414627689237885
87		0.9179082621287386
88		-0.7160552461368033
459		0.7869818599661925
462		-0.3585563012053849
463		-9.10611574481981
464		0.5639360567362063
48		1.1803028947382677
51		0.6257629925974232
55		-0.4142838022802893
56		0.27296401470020465
1084		-1.5152051331099063
1085		0.8202510983638182
1087		1.1120044611772455
1088		1.2227036114858034
1089		0.5178584524871843
1091		0.21227261734069403
1092		-0.7414507905969678
1093		1.1178112330384093
55		-2.0964546844948724
57		-1.878613341614905
58		-0.05543343770784732
62		-0.9959599402505458
63		-10.727290365880915
1049		-1.118235308283408
1050		1.3216298115746705
1051		0.6170141473006053
1052		-7.297686441508418
1053		-0.3777200019400708
1054		0.36641243692135805
151		0.5640615806713861
156		-0.6092019033135114
157		-0.9153315311483003
158		-0.27700795179547216
159		0.12827618585339623
36		-1.0041329446741818
39		0.3078971751149916
40		0.7450133290874953
42		-0.05937623038566061
43		0.620813333271448
44		-0.4488960320094367
788		0.6270479897409441
105		0.02125887266887967
107		-0.5384082975901069
109		0.21624468983240594
110		0.6367334784639217
111		0.12548519497706398
112		-1.0422327551641193
932		0.5200405173492606
933		-0.09365378139893712
936		0.42823534545329095
937		-0.07059694367951497
938		-0.6360207255540066
939		-0.8550535537474239
940		0.9152072793446762
647		-1.1148080917350203
650		-0.6694329530825402
651		0.6552733298691075
653		0.027580447072153184
654		-0.3834897751683071
574		-0.10075581158524381
576		-0.8431400301185773
578		0.6756334138154257
580		0.4461133586883948
581		0.3836159804727988
598		0.917060365818373
599		0.2267142214871606
601		-0.4619962611318612
602		-0.3202799474941874
606		-3.249625499751957
304		-1.7663736254102573
305		-0.4126354395990845
308		-1.047912002576528
309		-0.15999942582715654
310		0.08331881525519926
312		0.5958444512208659
98		-0.6598597567858938
99		-0.8838388930096606
100		-0.42926220714863633
103		-1.424448576549596
104		-2.751291724900206
107		0.484387783058012
127		0.48109300283236955
128		0.5089993768611332
131		1.6348146997147257
