1		-1.049839040204738
2		-0.04532677077076433
3		-1.037440078316722
4		-1.3888780536327618
5		-0.6586310928629233
6		-0.08797769767407798
7		-0.5877541267832227
8		-0.1288950954282364
10		0.0497961434890135
2		-0.3586814383737573
3		-0.1076133076764587
4		-0.34655506535418945
5		-1.048676472064355
7		-1.5652546183034435
9		-0.6191746853929507
10		-0.359337554572036
11		-3.12697671529201
0		-0.38322523552324306
1		-1.2268173725266425
2		-0.6115477211131182
3		-0.4175545511295471
4		-0.592726377082849
5		-0.4219464467364889
6		-0.9116517325226365
7		-0.5532238627554269
8		-15.387244196542728
9		-0.39223484948147813
7		-0.5437569365528401
8		-0.02512050307715201
9		-0.5555942495931638
10		-0.696340059317122
11		0.16088111475598815
12		-0.524748714432079
13		-0.6653514623439304
14		-0.7473159394314456
15		-0.28810232440405725
16		-0.09522554875843948
4		-0.41040447989864903
6		-0.12415653747232006
8		-0.2304388224404163
10		-0.15741720953135566
11		0.13930154384462126
12		-0.7499867314044363
13		-0.022290782526996532
3		-0.7479636419371473
4		-0.29682548493059063
5		-0.15155542055782306
6		-0.3557536852100191
7		-0.8879186932373715
8		0.07816931034219249
9		-0.08000986738791457
10		-0.7532692301531119
11		-0.7673619545556544
12		0.5168421459428809
5		-1.1634704931783666
6		-0.01099653697557309
7		-0.09299256547867621
8		-0.46181858178860086
9		-0.46450760356861087
10		-0.8718800788171044
11		-0.31434617273201554
12		-0.04127576297458499
13		-0.1308064654667662
14		0.6426975281031063
6		-1.3861603580685304
7		-0.3093770980565297
8		-0.36777119325127255
9		-0.1083323228813071
10		-0.04117983340017453
11		-1.0061778812181195
12		-0.3618829822934588
13		-1.3180102654920147
14		0.7872351678936786
15		-1.129203446999864
9		-0.7355139099686734
10		-0.20604574918682025
11		-0.48453036547295497
12		-0.4275718553156908
13		-0.2749555178605168
14		-0.07033796218488375
15		-0.8000371930868452
16		0.3923503434341254
17		-0.09504053709729851
18		-0.1857501703302351
8		-0.6378972521862042
9		-0.06457863776057114
10		0.33635528827127215
11		-0.15293885391345677
12		-0.36040917724414584
13		-0.4826757930785787
14		-0.4082524108620345
15		-0.37880140039038857
16		-0.004918036726895192
17		-1.0232094844306865
13		-0.33608132501502846
14		0.36636871217179584
15		-1.1238291710927872
16		0.28002408380087523
17		0.05082719365214408
19		-0.24153716084246407
20		0.35597011901943776
21		0.45991519502576683
22		-0.3925226911924841
12		-0.9931159233970966
13		0.1793986031697666
14		-0.039807764873901676
15		-0.04018793794138763
16		-0.34615856144625223
17		-11.541745300932876
18		-0.5240572405775239
19		-0.2516080694526578
20		-1.199764090869691
12		-0.18059150673209068
13		-2.0370052004464445
14		-0.7122651616538089
15		0.8935821354385352
16		-0.04319424584452118
17		0.07215213061422923
18		-1.3474564543453618
19		0.3363874504990568
20		-0.1349279186393654
21		-0.7879352796861784
15		-0.2156524319524349
16		-0.2532212365575624
17		-0.15489173302199682
18		-0.42550334189827893
19		-0.15821865576818447
20		-0.42899825971527555
21		-0.3135840428949586
22		-0.897262917429497
23		-0.7350674677330852
15		0.12478910718736495
16		-0.47766313435698887
17		-0.059813037183626426
18		-0.04540067865671211
20		0.20912401196166602
21		-0.13094234222592505
22		0.044585578695234156
23		-0.17870117618813258
24		-0.13799282941671273
18		-1.9851046027428858
19		-1.2983238971282167
21		-0.41406244167515893
22		-0.8171169768902553
23		-0.37427381172924834
24		-0.1589758717628109
25		0.030475204621559126
26		0.05860739190876782
27		-0.1455862035776305
16		-0.4034907247159579
17		-0.1735909203561454
18		-0.48133800063789134
19		-0.38161720004393906
20		-0.2112139957037761
21		-1.801887591471597
22		-0.5965511320434724
23		-1.2456664273447793
24		-0.36425237371180236
25		-0.1699195800945087
10		-0.7843797826845075
11		-1.009313506189467
12		0.6124132964804431
13		-0.11042148177429725
15		-0.03943271407869653
16		-0.2357147510384229
17		-0.7787902501152306
18		-0.2016107613999648
19		-0.524197074337454
17		-0.6135559042063052
19		-0.5992316463943401
20		-5.790637253088834
21		-0.254256323212262
22		-1.2877965667138378
23		0.04692151153358238
24		-0.04669953030952032
25		-0.9572649830849821
26		0.23767202685797406
20		-0.5071542197487003
21		-0.6510218441328004
22		-0.2595660051824787
23		-0.29428230788359233
24		-0.5837604170338333
25		-1.6857260890126777
26		-0.076883996846013
27		0.13936304877751254
28		-0.7533548022279366
29		1.144705950950286
22		0.11049472340793477
23		0.2541758846551137
24		-0.4626508349127243
25		0.040074979724387054
26		0.26918615343166713
27		-0.9636733105540553
28		-0.9363718422056106
30		-0.4981025002195261
19		-0.9196538000284495
20		-0.35016923074924733
21		-0.5485382722950216
22		0.049884229742273085
24		-0.9466381003510068
26		-1.285615988305624
27		-0.39631788828472103
28		-0.9254289584614664
22		0.12580592426352344
23		-2.02749130057377
24		1.6006385030315375
25		-1.16707923708896
26		0.3453729366203165
27		-0.8416350467749041
29		0.014598998606101924
30		-0.1784834073738064
31		0.9765759553717426
27		-0.04565908478587373
28		-0.3869477731066587
29		-0.7824443178534982
30		-0.207093024516593
32		-8.681287528385461
33		-1.355180838507282
34		-0.20137251469797962
35		0.5217857007828319
36		0.3828260534808197
30		-0.15391396960071344
31		0.06914336041205886
32		-1.4608397904767427
33		0.45927948590255946
34		-1.2775280349274438
35		0.22114906709061335
36		-0.04408866361352757
37		0.7716968128114778
39		0.25249131714389245
25		-0.2797419391869124
26		-0.20666013758739704
27		-0.860107852617994
28		0.04912197537355771
30		0.37797300820647006
32		-0.49638192198562137
33		-0.5645235274259083
34		-0.24403397869409152
31		-0.14406088249148702
32		1.5215944384852444
33		-0.4117303968868953
34		0.1337512251942503
35		-0.24949683717244503
36		-4.8179144808494785
37		-0.6463673995121927
38		-0.1357172885934664
39		-0.28519436040859414
40		-0.15811184547081233
29		-0.19753119939535072
30		-0.49290413491295443
31		-1.820682269139058
32		-0.3206790814057925
33		-0.9364090666962683
34		-0.16086804780860967
35		-0.20219338991550984
36		0.028110944874703503
37		0.6082463714181141
23		0.0584665221593851
24		-0.05141509293716525
25		-0.1449895151214338
26		-3.32559688044681
27		0.2503141360998449
28		-0.8029364476194011
29		-5.329602461301775
31		-0.31924376638104723
32		-0.6135104808939558
29		-1.0480299706989376
31		-0.2547018569841599
32		-0.9603562981270086
33		-1.2221391899078196
34		-0.740374034568114
35		-0.3679232344807327
36		-0.4934333974912996
38		-0.2147620066098948
32		-1.3753245466971187
33		-0.09301656454809773
34		-0.9706936408667292
35		-1.7419949024402057
36		0.11639229282524263
37		-2.106453605161767
38		-0.828823839831725
39		0.1955067999393728
40		-26.66023805644871
41		-1.3108087504080062
35		0.016533550482204295
36		-1.3228124912886945
37		-0.10372049772597765
38		-0.3374689329562053
39		-0.08574687436401353
40		-0.03451598488935966
41		-0.3496821215413203
42		0.342374139098876
43		0.01678075858117343
44		-0.19012394489345139
34		-0.5200507082790568
35		-1.0168243698801163
36		0.725117561508312
37		-3.7305721826911413
38		-0.9017094917340633
39		-1.7058028948279742
40		-1.0350355806722964
41		-0.19095960717282706
42		0.7066259247070469
43		-0.24343616795207418
33		-0.006490977076002453
35		0.13054659105084257
36		-1.526294938188259
37		0.37145993949403494
38		-0.10782884156896771
40		-1.1934933076440903
41		-0.07709598301492233
42		-1.0283227542527766
24		-0.17370613814535063
26		-1.9042322377098755
27		-0.3738004988829848
28		-0.6898691985790631
29		-0.6656271483581606
30		-1.5348376061756857
31		-0.9645424364602426
32		-0.2863482709175693
33		0.09058703649529681
26		0.7175745921838701
27		-0.35225962366792885
28		-1.0230302598265817
29		-0.11935960738814413
30		-0.386020268079692
32		-0.8877029396350965
33		0.8144239246394229
34		-11.402026581806492
35		0.4506414061575594
36		-1.3268870564263853
37		0.21477415284623413
38		0.16802520204225427
39		-0.7723101251464873
40		0.01658439879306943
42		-0.4424580344886648
43		-0.5292879511559774
44		-0.8381836919433019
45		0.19774403130247814
37		-1.8931169248456077
38		-1.1173538688876392
40		-0.14064436158891583
42		0.37023826461675297
43		-0.20235491994876637
44		0.01998946205517987
45		-0.28377233904354104
46		-0.140502256901096
39		-0.17507228824990828
40		0.6531011046908185
41		-0.4532138875120452
42		-0.19930401186554203
44		-0.34923670063477874
45		-0.7705827479095175
46		0.022853476021925362
47		-0.8726156182027588
48		-0.004461614753569008
38		-0.8780751108508563
40		-0.8693544704582751
41		-1.0667447272414765
42		0.21061361464701467
43		-0.3923266692801295
44		-0.09236505970477721
45		0.3055825344040034
47		-0.8694354471125155
40		-0.49234496806231126
41		-0.3688212570933693
42		-0.7384473936377826
43		0.3960843229567472
44		-0.2029852096391574
45		-0.03953967708318604
46		-1.121549030666869
47		-0.6621401903952996
48		-0.6290062945541165
49		-3.858715427494343
41		-11.631359758193744
42		-0.8676615117256566
43		-0.904458980098907
44		0.3799719820039762
45		-0.13491315281629665
46		0.11468277798011382
47		-0.48984863989500743
48		-0.21770166821776568
49		-3.809988726705188
50		-0.8880629382883514
42		-0.052630381885656864
43		-0.6566805514442493
44		0.7199587372275168
45		-2.156717025169805
46		-1.069008282014107
47		-7.550061473807464
48		-1.3920462824683106
49		-0.4066313662888284
51		-0.3443919640989326
43		-0.3445868702625374
44		-0.9584082734061653
46		0.1200594925589574
47		-0.9163817574087887
48		-0.23520591296319363
49		-0.8000041786859536
50		-0.3537123856096963
51		-1.3357816241040126
52		0.1566352499198645
44		-0.791887106814181
45		-0.5034093305043159
46		-0.3324436279199122
47		-1.4718504371596013
48		-0.2471374277241277
49		-0.2570943092488237
50		-0.15349100590633435
51		-2.1168773321083187
52		-0.779656806168216
53		-0.6524717224724268
45		-0.7091031298735507
46		-0.9265696062598461
48		-0.3271075788331372
49		-0.09802278280474006
50		-0.2141435465739969
51		-0.6798103351001027
52		-0.531668369536965
53		-0.6708572009475391
54		-0.6826375415356174
46		-0.49143173207083307
47		-0.497055212339692
48		0.008003202264652641
49		0.11135670426595196
50		-0.23793784170697532
51		-0.8362048342760845
52		-0.015646368687724562
53		-0.10014944298140889
54		-0.5706734557831352
55		-0.15422826943229342
47		-0.9724968697943298
48		-0.16568988426663392
50		-0.11898365414678247
51		-0.533676139820427
52		0.2793414909938345
53		-0.15344696698358748
55		-0.8480313588767101
56		-1.0935483234638401
48		-0.077871656899614
49		-0.7318399972421319
50		-0.7857010025463508
51		-1.6105473214676538
52		-0.6465375230894054
53		-0.9096102570182445
54		-0.7822470966792973
55		-0.6644204523245612
56		-0.4873691045624188
57		-0.13148221931448117
49		-0.31449385852773026
50		-0.7163763646171756
51		-1.2044615662094877
52		0.12687395006202407
53		0.7638301386351236
54		-0.37976114069073075
55		-0.4531935584988244
56		-0.03734956939272827
57		-1.1615806046042438
58		-0.07436128339229092
51		-0.3225621647309269
52		-0.08162808404689041
54		0.22276895455351703
55		-0.49861248930487084
56		-1.0768417575667462
57		0.15948490135306423
58		-1.2170772698446148
59		-0.7561158359476812
60		-0.3879364744891156
50		-0.5372368813878657
51		-0.33213882653912646
52		-0.5681833843890629
53		-0.4915584004124643
54		0.14812059137016717
55		0.4123969174735226
58		-0.2220419532977634
59		0.2040010760342846
52		-0.749684165730837
53		0.05799906104077303
54		-0.2204059599584208
55		-0.4957367627218823
56		-0.10425611800792053
57		0.19929746999002837
58		-0.8063178879616485
59		-0.4129188943864951
60		-0.46071062284713543
61		-0.5737100804956333
53		-0.2957108675995985
54		0.4284079451056477
55		-0.5187083696377445
56		0.23979752279931815
57		-0.22344689626237665
58		-0.8071453680410545
59		-0.26455643297975556
60		-0.36369618658036257
61		-0.4573747643859402
62		-3.645369241623734
55		-0.5777620624480431
56		-0.2688547662927908
57		-0.16958830925433988
58		-0.6073761087121617
59		-2.650064950649492
63		-0.1822542229470812
64		-0.12674425795991767
57		-2.0004147881993117
58		-0.161583241285306
59		-0.25799919719746545
60		0.046838815252596394
62		0.41077199304975237
63		-0.6036074286793675
64		-0.7321380459964937
65		-0.054150482196078535
66		-0.7532828722359932
56		-0.09348695405772157
57		-0.942327031421939
58		-0.012196811670642087
60		-0.08200624334173748
61		-6.733690986987984
62		-0.38564090193688366
63		-0.8201150007075371
64		-0.09400622650930848
65		-1.7379719622324363
54		-1.876104331538642
55		-0.4294078697801726
56		-0.995062391339542
57		-0.8049036209784266
58		-0.6218128641485092
59		0.2600800091296972
60		-0.22808320201189797
61		-0.7441855336977592
62		-0.2706182880709781
63		-1.067351779375088
59		0.13972415156369342
60		-0.16583030646104013
61		-0.3380285034603488
62		-0.5107065245044474
63		-1.2650549577717178
64		-1.4825034296771396
65		-0.18636010871021266
68		0.09110429304222738
60		-0.8244735359932094
61		0.17866815896914523
62		0.006418214819828916
63		-0.09823965382002375
64		-0.6369140479741286
65		-1.5972985826125636
66		0.05529380825697288
67		2.049362330103514
68		-0.5041574602707187
69		-0.21242478970828374
58		-1.1158272332131136
59		-2.322890168926692
60		0.23857033611515727
61		0.06401003211535472
62		-1.0242930382487132
63		-0.09940740013524335
64		-1.039254971488437
65		0.03533039046386338
66		-1.299130672093621
67		-0.4386243246081484
61		-0.20745827780409798
62		-0.03112810640054302
63		-0.8105472196384937
64		2.792184363400113
65		-0.9236611991845164
66		0.03270469095322435
67		-10.545869194501623
68		0.2966334752990029
69		-0.5853951632574114
70		0.47263748462311794
63		-0.2090050907157214
64		-0.4238640560828721
65		-0.6214719132986419
66		-0.06557219576648157
67		-15.582277022299552
68		-1.12350457444984
69		-0.8917407114275963
70		-0.9144073440914284
72		-0.08044452229886485
65		-0.8439781695899785
66		-2.925274763816054
67		-1.0841992500563353
68		-0.29585252561416536
69		0.06699882292657403
70		-0.4427242490930026
71		0.27409338629391694
72		-2.247238020046779
73		-0.9183754095050908
74		-0.25759671065847556
64		-0.38161444146991597
65		-0.20948177449627
66		-0.3336442521052395
67		-0.2851569207083756
68		-1.8901199674691072
69		-0.7429787938766141
70		-0.1862787930973713
71		-2.3512070431233023
72		-0.11123074077048319
73		-0.09333107740822572
62		0.04429622510229716
63		-0.2234428550826343
64		-0.09570760253883538
65		-0.4735703544841128
66		0.08985598825972432
67		-0.38320780667950743
69		0.42540579122120037
70		-0.49778542701697576
71		0.14287662145614222
67		-0.7303450963080473
69		-1.292236708213651
70		-0.7944268155846899
71		0.09109878232831436
72		-0.37608898227685617
73		-1.0449092810036853
74		-0.17248088578135914
75		-0.29970079691883994
76		-1.0881097401791269
69		-0.5835462243411202
70		-0.18806259596927113
71		-0.9065290257275266
72		-0.5248081252104172
73		-0.8403890043793715
74		-2.0141969106141255
75		-0.7955163003041476
76		0.08086320823246138
77		-1.139893478965259
78		0.21177180618617283
71		-0.11007763300381886
72		-0.6229036760591672
73		-0.32320257694847326
74		-0.33755353335951616
75		-0.5808416491010712
76		-0.41230656127219084
77		-0.05931876125761127
78		-0.7479436905935447
79		-0.8294609212679085
80		0.019842318819887093
70		-1.5203030583329742
71		-0.22019790729041336
72		-0.07654395584008303
73		-0.9648224793526822
74		-0.5577323166491672
75		-0.43508566715970853
76		-0.03896398742173507
77		-0.7480110915617083
79		-0.38583398368686245
72		-0.051621112676840795
73		-0.40330566661637096
74		-16.82429667934099
75		-0.46049240004652253
76		-0.47325856205512296
77		0.6412229912977419
78		-0.44814612467278686
79		1.0327358374783158
80		-0.40252048816008795
81		-0.4529925617143256
66		0.17074332937028677
67		-0.19751553354289664
68		-0.4757179094037741
69		-0.34925105042255905
70		-0.04988051879139365
71		-0.08257665337490767
72		-0.6698627817086441
73		-0.5415537142645198
74		-0.5658377704774056
75		-0.29155556350511147
68		-0.6645450267773443
69		-0.07870915326945951
70		0.4897519851579137
72		-0.1386824443824497
73		0.03376041277291058
74		0.0006277394536573627
75		-1.3174101031350043
76		0.5412697284652531
77		0.2248289580314591
73		0.07705546164978097
74		-0.7247699193711659
75		-0.087258480068139
76		-3.9779490084073728
77		-0.15119446027872602
78		1.907233862218781
79		-0.27307500439548005
80		-0.7685880292084912
81		-0.2456318411069725
82		-0.29166200052780306
74		0.014569254706124241
76		-0.6049267775783188
78		-0.0883754150099769
79		-0.39331885296036734
80		-0.1997375082955709
81		-0.4687684724437637
82		-0.1913385993400347
83		-10.863690826596121
75		-1.7677871821097613
76		0.7956348180384598
77		-0.023508405058205832
78		-0.9946522296429801
79		-0.5702006679426208
81		0.530643426448955
82		-9.259600734265106
83		-0.348697634666603
84		-0.2329219897924818
76		-1.3584158050815254
77		-0.06564150240055888
78		-0.6018893577095153
79		0.06453914787163655
80		0.35267672096990677
81		-0.5529575890835644
82		-0.9741275500082535
83		0.41454095174519434
84		-0.19209728080370625
79		-0.8351355349331055
80		-0.17838912535227114
81		-0.18621698801099829
83		-0.6916080873729602
84		-7.362577512063957
85		-0.3700380207366732
86		-1.2868434691514754
80		-0.2851602734748013
81		-0.821487608634287
82		-0.7849659069784131
83		0.15881257666888277
84		0.175980753763014
85		0.1764660326319301
86		-0.266956065765637
87		-0.7999248559974719
88		-0.2759782260295384
89		-0.7655216244368929
82		-0.3243914117671607
83		-0.3349734890238903
84		-0.060539919812016736
85		-2.5345028795604203
86		-0.2802159153333836
87		-0.10610652146397387
88		-0.3812285542853362
89		0.6172491001635342
90		-0.2928429695274462
91		-0.21439182196586692
83		-0.42578589568169234
84		-0.0759284287079789
85		1.6345676939478313
86		-0.39366346619695597
87		-0.5543304915112037
88		-0.7161208077937099
89		0.05932343310315442
90		0.08744170667677263
91		0.09419543991440618
92		-0.24116527997573556
78		0.15374782600163045
79		-0.4779891078096793
80		-0.5195711080864825
81		-0.08885702006661084
82		-0.33798207345455783
83		-0.5921743995838603
84		-0.0780015707924001
85		-0.39556094588678187
86		0.22201083374779815
87		-0.14460039557970397
79		0.011933625873670955
80		0.08592735223267439
82		-0.7511632197674428
83		-0.06919904946622205
84		0.08826601638894783
85		-0.3709683297470345
86		-0.07420283689620262
87		-0.6555758274649404
88		-0.7456736907014926
86		-1.760156239605559
87		-1.0820207086266815
88		-0.3807306959811481
89		0.13866267282070638
90		0.17951913581388088
91		-0.1898204364044712
92		-0.22544865556273033
93		0.144763254692329
94		-0.17825225855656707
95		0.12806550331756303
87		-0.7279708023939314
88		-0.7479573328542453
89		-0.4508395660176752
90		-7.6242892229644585
91		-1.6071109480805101
94		-0.19326776815214738
95		-3.764391416070427
96		-0.04522801039921215
84		-0.8392812162543545
85		-1.20654661953084
87		-1.8327912408895057
88		-0.4904711815561871
89		-0.15047275398102114
90		0.022791993859597223
91		-0.5935778335713033
92		0.1530648623041594
93		-0.27585624623270694
89		-0.5996265486545794
90		-0.17882856204037978
91		0.03387022999200826
92		-1.4492653240458138
93		-0.42878742056892943
94		0.21508525486981012
95		-0.7724881572013514
96		0.28443397207402543
97		-0.3014711736665429
85		0.44862590451311585
86		-1.281579084030312
87		0.4709252272511448
88		0.13280858067780207
89		-0.734906187000324
90		0.0801473398118051
91		-0.2448974707235701
92		0.09130253264254506
93		-0.49555136263824406
94		-1.1345539784915317
92		-0.37456221567473663
93		1.1703826306749978
94		0.3872051194719219
96		-0.6147870201212879
97		0.47674596756589194
98		-0.41862481465992657
99		-0.9639509428960785
100		1.122049937517765
101		0.387967868749814
90		-0.27084234035110594
91		-1.6848277453718543
92		-0.12121950508105397
93		-0.48300449852220156
94		-0.3760141800553877
95		0.06966066189915028
96		-0.5459889172901023
97		-0.9171342907039375
98		-0.25680131753965796
99		0.09751838821684328
91		-0.14830766798453676
92		-0.15826651732462024
93		-1.5457604977280601
94		-0.8147757625168857
95		0.21328290618054954
96		-0.14638869400531304
97		-0.3702795822628581
98		-0.9668126755874233
99		-1.4691236243535866
100		0.4548271019327092
81		-0.5879159948488991
82		-0.3425362143730866
83		-0.33366159148838914
84		0.8153964175623314
85		-0.7909496534397153
86		-0.04520340025770934
87		0.17908131224649512
88		0.49690851930378865
89		1.063481763238579
90		0.04294561472604699
89		-10.54882397719051
90		0.8160974473825229
91		-0.2790511368136483
92		-0.2576499499719585
94		-0.4311573215520062
95		-0.9343754551229679
96		-0.07033291100536504
97		-0.7488151558886983
98		-7.322593300782244
93		-0.6238929200167588
94		-0.48356225554181687
95		-0.7618646409831619
96		-0.20146222378459253
97		-9.026669286991998
98		-0.9855654966468627
99		0.03947415211218038
100		-7.844385795921019
101		-0.2503838678026336
102		-0.8528155723474036
95		-0.5843991552518254
96		-0.5274982535413596
97		-1.7170856615355345
99		-0.11104816352078341
100		-0.1306402627492418
101		-0.5420924275184303
102		-0.029586279415244995
103		0.6095522255436238
104		0.05168173077130432
96		-1.616095635373281
97		-1.278471430820468
98		0.94506065952716
100		0.37080111211399663
101		-0.11224374945057637
102		0.5682708872385098
103		-0.2560040537491613
104		0.6900895746217777
105		-2.2234043176903358
94		-1.3642039843841005
95		0.11088629748068682
96		0.5162486716346877
97		-1.1240409417984312
98		-0.37734561103518266
99		-1.254667672944651
100		-20.49879423812676
101		-0.5095580705296961
102		-0.3443588781310578
103		-0.8734092459098121
98		0.015195409599662502
99		-0.18936632734366066
100		-0.6393067840847155
101		-2.734528964063713
102		0.1352726374453512
103		-0.9783037628431472
104		-0.40100959414162013
105		-0.10829140525955581
106		-0.1872026802159227
107		0.020474715371908658
100		-0.6786347901714496
101		0.034194870187481866
102		-0.5979042747314822
103		-1.1484432986655602
104		-2.7560628801367186
105		1.2919740610853232
106		-0.5130014973268349
107		0.021165926126960683
108		-0.45961142741121425
97		0.2400191282674535
98		-0.33107880573466775
99		-0.0343866832325502
100		-1.658538464827717
101		-0.5279781901575389
102		-1.181427018339256
103		-0.32449396081699905
104		-2.798535344734358
105		-4.546411549948136
106		0.09941803507327732
101		0.006182712075840459
102		0.9684715339798854
103		-0.8847534863298276
104		-0.8447954967173658
105		-2.0635077999398472
106		-0.12958238986488324
107		0.21323343960062766
108		-1.1454502423985873
109		-0.4164056238199016
110		0.25501835661647454
100		-2.6533632828712097
101		-1.5292048427168814
102		-0.7104023017885324
103		-0.7728613520683729
106		-0.7585981297949245
107		0.08487460321938362
108		-0.2931086231818835
109		-0.07104948903822714
103		0.06992736001254268
104		-0.548852520446146
105		-0.7777406320320884
106		-0.3655118733095193
107		-1.5175743300156936
108		-0.8657905920770095
109		-0.0676852569147124
110		0.17643029953715575
111		-0.03278759526545911
103		-0.05066932334077125
104		-0.15799198072703918
105		-0.018643939375989044
106		0.05905877116529011
107		-0.523237969596176
109		-0.044795830306404195
110		-1.1280467130159761
111		-0.9355593958175618
112		2.253526256055652
104		0.014033937382334888
105		0.05533701409677615
106		-4.596286156828952
107		-0.40288593359973685
108		-0.05185234005919753
110		-0.6555894440716835
111		-0.15684212041604012
112		-0.9198278873292183
113		0.06265513548930456
106		-1.5794272414068553
107		1.5839673956434481
108		-1.53132857992909
109		-0.6278346405488511
110		-0.673190658598307
111		-2.1129722364409758
114		-0.495151712838482
115		0.8990020858629624
105		-0.05134757358071326
106		-0.012461812445851529
107		-0.1673708662947032
108		0.18968765336472554
109		0.10640057933574149
110		-0.8796464271310118
111		-0.6232493574389216
112		-0.5573034089936472
113		0.05528572998301402
114		-1.7929568063952186
107		-1.1104260932109404
108		0.601370730942775
109		-0.6197978193809457
110		-0.6385997515231637
111		0.1821621374308612
112		-1.1077939652836606
114		0.34826180313590477
115		-10.329472994819858
116		-1.6690323452501004
108		-0.31259649671513495
109		-1.3780794932757319
110		-3.457568419592799
112		-1.7506623927652574
113		-0.41700980440664187
114		1.9443428727149923
115		-0.36189398310932813
116		-0.8112050277458656
117		-0.14265741977159185
111		-0.808946789644067
112		-0.5114479006950273
113		-0.20778197936785792
114		-0.014813110435379704
115		0.7471225963940611
116		-0.9240712234017353
117		-0.4646881450126913
118		-0.07960491837983398
119		-0.7450732121360419
120		-0.38174781304270156
112		-0.354150079004764
113		-4.5613651521128995
114		-1.8275389135786029
115		-0.31066576596662837
116		-0.3998580587385807
117		-5.903828057680227
119		0.0873758681236356
120		0.14735069192474268
121		-1.1001298866497788
110		-0.6092356468289541
111		-1.0335955775197447
112		-0.2519404878422594
113		0.7081817911287375
114		0.2006703221793303
115		-0.9346751581600973
116		-1.3593806484796138
117		-27.986292898303187
118		-0.5083265949394411
119		-0.39556065830495674
113		0.2803466853906356
114		-0.7327499951316111
115		-0.121103597785023
116		0.566425413856257
117		-0.1762219122367644
118		-0.9617976814277772
119		0.19722162309093932
120		-0.14604410942223772
121		0.06984304044949532
122		-0.4547690793649619
109		-5.368049691621713
110		-1.1449672681642054
111		-0.39539631104106837
112		-0.19414984788028022
113		-0.2736257511548495
114		-0.6853939866562596
115		-0.5641189331757168
116		-24.287491251922116
117		0.017670172439223773
118		-0.7543122631494231
114		0.0772394759498737
115		-0.46577392088965847
116		-1.9630174648101595
117		-0.7049703048066381
118		-0.2701402139422308
119		-0.978625476958801
120		1.6938523776113203
121		-1.4442827074850129
122		-7.322943463442502
123		-0.8825442363520695
118		-0.14994460566548878
119		-1.3836710190020818
120		-0.6625252361877912
121		-0.3669030573565085
123		-0.2062879699842455
124		-0.22816899786895506
125		0.21549384837404245
126		-0.14057368540775944
127		-0.16491941707262095
117		-0.23269931184042392
118		-0.13657997872196467
119		-0.13520766655296443
120		-0.03341732674408171
121		-0.7244517337416577
123		-0.8176544218701918
124		-0.10567416914733874
125		0.6038944872471275
115		-0.7250899865557608
116		-6.935466478053911
117		-0.20134117352690606
118		-0.0652936715258254
119		-1.2067701032115674
120		-4.958821129517027
121		-0.24856656632996618
122		-1.9100965035558306
123		-0.6553489567162143
124		0.025037467522802743
116		-1.1419934383229318
117		0.23144858736914012
118		-0.6041092891256772
119		0.006834254476505909
121		-0.8127612138968225
122		1.9610485839259317
123		-0.1508825122267566
124		-0.1812425809592208
125		-0.5524269424096212
119		-0.5433849214116996
120		0.06123124225450743
121		0.7369565711673334
122		1.0481451779681605
123		-0.12638798726487152
124		-1.9449354025254275
125		-0.05210638634504222
126		-0.015097532362233303
127		0.2582779407775482
128		-0.3000917399728893
120		-1.5591462654940753
121		-0.1775304566978308
122		-1.7082073509847882
123		2.3971392258785778
124		-0.09306635898631355
125		-0.7669072335547858
126		0.0755629022756309
127		-0.11772311695067478
128		-0.1526065759340196
129		-1.4315494452962347
123		-0.5000856050662202
124		-0.36350918356071243
125		-3.8383802076702804
126		-0.8710833163001178
127		-0.12391139476058353
128		-0.8377282773346234
129		-0.22401721903380656
130		-1.9756810311911244
131		0.2708952746261109
132		0.01788571974228351
122		0.04386383361046261
123		0.03183510980640624
124		-0.4584955733719086
125		-0.43435369297888654
126		-0.6574627421969925
127		-0.628547424213782
128		-0.24609526418938715
129		-0.39325976884287733
130		-0.19787310323612795
131		-1.6909354121934435
128		-6.423584038573529
129		-0.08497654905672114
130		0.8480414995800222
131		-0.7478423136325756
132		-0.3436882129586877
133		0.22079467335603337
134		0.2522530896689232
135		-0.4727280718583107
136		-0.24574913081068797
121		-0.8590590520299274
122		-0.3116126604980129
123		-0.16894256313817216
124		0.018595716473355298
125		-0.785551260577154
126		-0.263364647082781
127		0.08939193133458863
128		-13.787333887799438
129		-0.06438283079104917
130		-0.9673733718055231
124		-0.5488338365318461
125		-0.19061003326036896
126		-0.15303010403574563
127		-0.1762496223709284
128		-0.43400259910300654
129		-0.3001406065344551
130		-1.3442793250240137
131		-0.004805370178551383
132		-0.4901366131109242
133		-1.1963634727822576
126		-0.6174939077278889
127		-0.5361541430304739
128		0.43204289056282547
129		-2.4574499987643605
130		-0.560128315511883
131		0.013806767950649421
132		-0.3879607892276367
133		-0.026745543770227764
134		-0.3468308381162119
135		-1.0894075860921781
125		0.4077515182152258
126		-0.383650526895581
127		0.3424182314875529
128		-0.16202092915518151
129		-12.050961925790844
130		0.06245863302516762
131		-0.39888186234176826
132		-0.6765804248874404
133		-0.07066528880513276
134		-0.2873698307147603
128		-0.03035184680464212
129		-0.4257338152638679
130		0.08720226620517971
131		0.18597394039452517
132		-0.8728945526469303
133		-0.43181475780351014
134		-4.221169534594167
135		0.06620063828555203
137		-0.4089904149357168
130		-0.8707609624046544
131		-0.4271008108093085
133		-0.022823024895401705
134		-0.47511160863494933
135		-0.03691905761188764
136		0.0015674252383822223
137		-0.11411706105138875
138		-0.49656760470864036
139		-0.29812209789076877
129		-0.29773890016822296
130		-0.4865418326573243
131		-0.24223422141672438
132		-0.14669538200682294
133		-0.751162554831064
134		-0.258205564841277
135		0.43381299447233107
136		-1.4229859144423513
137		-1.2669126616621256
138		-0.5669017450085005
131		-0.6828958475103583
132		-0.7260835876346265
133		-9.381480140549657
134		-1.1327947151374584
135		-1.4897538551270364
136		-0.02382690814299681
137		-0.3539340551017619
138		-0.05218871432765478
139		-0.057889111261913685
140		-0.17565047449156593
133		-0.5095875888837688
134		-1.3466953573172789
135		0.2791252800000516
136		0.021834970035727087
137		0.5788507381309465
138		-0.46665335873328445
139		-0.17719335294231725
140		-0.4982894406244876
142		-0.7507924155598924
132		0.2777821498312063
133		-1.6624386135809708
134		-0.44800293089605875
135		-16.586716290615772
136		0.08318737544749746
137		0.05373538847612722
138		-1.20130762162715
139		0.8154218292256725
140		0.40031659767984157
141		-0.6738301087544577
135		0.11612631164042175
136		-0.044379763191964385
137		-0.41098707656175587
138		-0.19811091042613144
139		-0.3611253631523732
140		-0.5248414107265286
142		-0.1337580691690038
143		-0.17511624551560023
144		-0.9905801947119076
134		0.2433256690960773
135		-0.09173193761288599
136		-1.1359099601375888
137		-0.5891705517461254
138		0.14768126657363775
139		-1.3691763954699336
141		-0.9640902996373427
142		0.21448513964577126
143		-0.40500791595393393
137		-0.12373269348141966
138		-2.1310762064343396
139		0.8882946135198773
140		-0.8255762430261048
141		-0.06808033032217829
142		-0.5641064914912177
143		-0.13809920531654712
144		-2.296979615744282
145		1.0916008944715163
146		-1.5910545194716028
138		0.1916437045696379
139		-1.1246615457500009
140		-0.9265772277490768
141		0.45858185036815574
142		-0.3001482132316198
143		-0.26365870158813254
144		0.16815701632336852
145		-0.8414842061974613
146		0.7658770789598487
147		0.2488732329387499
136		-0.04018540342872577
137		0.4572087706566359
138		-0.4354352680143713
139		-0.3975096051417515
140		-0.1891490587548265
141		-0.98754508503279
142		-0.46198448769957023
143		-1.541900305191218
144		-0.7019152379792906
145		-0.12161141432418465
139		-0.2611738512035904
140		0.011435756211392784
142		-0.861048384055368
143		-0.25279122924457187
144		-0.1506693435278359
145		0.8264038479096968
146		-0.30955250427929176
147		-0.8614778879696012
148		0.0340861922684451
141		-0.022217898013016834
142		-0.07190539146338566
143		-0.2829801584301319
144		0.8205875124647056
145		-0.011746782753096735
146		-1.9094736754026098
147		-13.850514905474496
148		-0.8995714153289762
149		0.14712676588591822
141		-5.924576167089493
142		-4.348188720183408
144		-0.09680632597412624
145		-0.6681985347194782
146		0.6903637778686041
147		-0.05415357058046776
148		-1.7717685041816538
149		-0.4979277952247915
150		-0.5807187356000485
143		-0.34656510697944065
144		-1.2299071043569623
145		-0.6107411614998376
146		0.2182956541292508
147		-0.0022046548377317073
150		-0.39879210989927794
142		0.3313035637503287
143		0.36690342521169983
144		0.0012436747929444295
145		-1.8114162293467235
146		-1.5717654108381638
147		-0.28212672815891043
148		-0.3194087606093748
149		-0.5427128159198942
150		-0.23009667564512
151		-0.10972930731828463
144		-0.2321889831353355
145		-0.9334336625357469
146		-0.017819089564673374
147		-0.4884368190854097
148		0.13596834428239943
149		-0.5248486162800977
150		-0.7630092077314112
151		0.08725220607851432
152		-0.45810013952250284
153		-0.43527313552957586
148		-0.39767332223912105
149		-0.392220370941147
150		0.01786599119979175
151		-0.8646223653978283
152		1.8577355837127683
153		0.05200703968493332
154		-0.41432124841903745
155		-1.2994019824004026
156		-0.05584970699157156
157		-1.0429009846653847
147		0.17020918847737154
148		-0.12359666354631631
149		-0.9282393203313769
150		-0.20087568954554
151		-0.022338604130396997
152		-0.9502775841916118
153		-0.2393423722302214
154		-0.28109680218414745
155		0.014447422692034884
156		-0.08809077154032359
149		0.06734093185130541
150		-0.46925125263691986
151		-0.35714212478920165
152		-0.6891399027151929
153		-1.4224852865192217
154		0.24252393407074388
155		-0.31746045745790924
156		-1.1638752517803659
157		-3.216190091259555
158		-0.3418422708152627
151		0.1486582602252699
152		0.07511591241470102
154		-0.7636816458301235
155		-0.38093257648962786
156		0.32978754538617094
157		-0.08802412712839829
158		-1.033576392641779
159		-0.9309654371648187
160		-0.22878792244083881
146		-0.24641049740064977
147		-0.12373411494601512
148		-1.572051226125423
149		-0.07065970670343444
151		-0.5522752884930744
152		-0.5302469966330025
153		-0.14667474061459407
154		-2.414001363119739
155		-0.3199414146092803
150		-0.5498850539412614
151		0.8249642305364708
152		-0.12399497881352828
153		-0.04874774851954524
154		-0.6015508564291643
155		-0.19416043611035905
157		-0.47855424800633795
158		1.7493697778943234
159		0.23770979256203761
145		0.1513488524964365
146		0.602829201600626
147		0.3240507316838395
148		-0.06268096468351099
149		-0.11396791374578422
150		-0.5375255241536931
151		-0.3159363877579412
152		-0.6407894533712787
153		0.10440410982238317
154		-0.04686534174751362
152		-0.16067831160272514
153		-1.2717073190365267
154		0.020307997187582316
155		-0.48970967726641557
156		-0.6722254968688021
157		0.21781992320813712
158		-1.5821020930364575
159		-0.23950014601069722
160		-0.5114059567964859
156		-1.8575768627675173
157		-0.28538623866755747
158		-0.6957579610663748
159		-0.2422027709929063
160		-0.08994790898461615
163		0.19732289949586482
164		1.013209382629347
165		-0.3500884104401886
155		-0.5291314597351088
156		-0.23458334336721356
159		-0.9399440362057819
160		0.14460042497025397
161		-0.4123155263085265
162		-0.03693922629398077
163		-0.4155327620381548
164		-0.16047279562508407
154		-0.5688231017737143
155		-23.34568576774325
156		-21.471969177776465
157		-1.4293716994284622
158		-0.9874848550074168
159		0.11542229548428455
160		-0.5966209793838555
161		0.011257683280932684
162		0.1555093165901284
163		0.17917270802477375
153		-0.556875546130801
154		-1.3117828007051153
155		-1.0099735038220816
156		-0.2986999291929763
157		-0.37806473468761
158		-0.782209807630232
159		-0.2626123781634526
160		0.24964049028165214
161		-1.0002954754376325
162		-0.17459941589993733
157		-0.6840954225479147
158		-0.22097330920626387
159		-0.2053820159326465
160		-0.6966485013832083
161		-1.526917257163442
162		-1.0386414953619216
163		-0.8465086137232168
164		0.4593804229373021
165		0.093638145868402
166		-0.052583989232928494
158		-2.071805535372201
159		-0.38410106334387
160		0.17959143145222556
161		-1.0852270165435003
162		-0.44166159881001765
163		-0.9058315615461225
164		-0.06383775423715544
165		-0.8566012543617961
166		-0.08412017647514435
167		-0.16695815655996676
159		0.015004273047480528
160		1.0915431222705134
161		-0.6659656651326418
162		-0.45338411443744536
163		-0.5985536437999684
164		-0.5129359483327077
165		-0.09146114607350861
166		-0.3776652850306245
167		0.10271902394537727
168		-0.3383158984264383
161		-3.713765894002713
162		0.5297888291813213
164		-0.5299468955752227
165		-0.9559853362708071
166		-0.6141328772422214
167		0.3795962521166396
168		-0.5015990040323465
169		0.611561356824037
170		-0.36427798914572235
160		0.49898814939487873
161		-1.3058164369545495
162		0.897452802448731
163		0.11436588430270683
164		-0.11522823781841111
165		-0.6148980593233552
166		0.06550943666678606
167		-0.0023302067802089947
168		-0.12311279322447943
169		0.45857885567284334
163		-1.2145738911671469
164		-0.15678208466018523
165		-2.7670139507302944
166		-0.059710357055975764
168		-1.2711525807708426
169		1.0674073548235006
170		-0.6570931994378075
171		0.42311698274719856
172		0.07769415073603617
163		-1.1935518085313637
164		-2.2338574243499236
165		0.013340322384694991
166		-1.428608307879501
167		-0.31986884328023096
168		-0.12808208918242056
169		-15.191923626420685
170		0.4385509145313336
171		0.121924952288033
165		-0.36327113474502637
166		-4.07937579845405
167		-1.131339548667602
169		-0.26129956429904594
170		-2.2923225265426335
171		-0.17867725476472743
172		-1.2255604893803385
173		-0.008837719810257019
174		0.33062138215639936
166		-0.5070272390312627
167		-0.4425612797863174
168		-15.699741746064737
169		-0.408290342981049
170		-0.5305603007562111
171		-0.517376572954574
173		-0.048242736478410264
174		0.24871353779970398
175		0.1035285718868572
164		1.4927027114372948
165		-1.5235501301175889
166		-1.3508745617747455
167		-2.454283024592811
168		-0.27121573633952945
169		-0.2540387756968998
170		-2.5295425551725517
171		-7.129434477110734
172		0.31021335502108727
173		-0.5234263632507232
167		-0.7964245095658541
168		-0.003793734666087367
169		-0.10029075886522852
170		-0.3670486067753021
171		-0.1868662790146494
172		-0.21584092118095688
173		-0.45409613474142546
174		-0.18603826034535906
175		-0.5879687825840377
176		0.09645424990995209
168		0.007323481591019724
169		-0.5239596177916763
170		-1.76198349560266
171		-0.10866612575094795
172		-0.26829224808349855
173		-2.667045471902719
175		-6.741402563937312
176		-0.9660838656556112
177		0.023166385658820524
170		-3.2889583645639324
171		-0.628915352466109
172		-0.8138048855994082
174		-0.2135312227038031
175		-0.3793953100518554
176		0.2692792246630511
177		-0.430046767108842
178		0.1967034604331484
179		-0.33287705959769387
170		-21.087945806992305
171		-9.40316118445525
172		-0.18368757820113044
173		-0.9964967411965066
174		-0.1106080687253095
175		-0.7053234073194562
176		-0.2829425782124311
177		-1.009348279113243
178		-0.7131345627930455
172		0.06504395851619588
173		-0.2578820631365511
174		-0.494091016755624
175		0.48382975834512565
176		-0.6767110790432047
177		-0.7291165408586182
178		-4.976204834811336
179		0.21335024347278708
180		-0.5422229495345531
171		-0.8738505229701102
172		-0.37330690528748856
173		-2.8333182282031104
174		0.3153427352453726
175		0.36681561950005076
176		-0.35175277244142067
177		-0.9239942607476913
178		-0.3443989684093837
179		0.15323764449574287
180		-0.12983419280813407
173		0.018861319202711224
174		0.43419463706050787
176		0.3967486948373403
177		0.08980960786807964
178		-0.7688253009670563
179		-0.45300493311030404
180		-0.5217993642814469
181		-0.6093864196898711
182		-0.5592138052350313
175		0.5602961260709222
176		-0.905758227922216
177		-0.5860218241608545
178		-0.14367074751563344
179		-0.9670837758056783
180		-0.11947077954830786
181		-0.8473165086460263
182		0.053989390991745496
183		-0.26277693721180556
184		-0.8823722292482348
174		-0.015509729012302917
175		-3.523615415961626
176		-0.6732731453473632
177		-0.5381704230372629
178		-0.13567015273395075
179		0.22550836635798172
180		-0.470248935883578
181		-1.014364411789154
182		-0.26848388004115514
183		-1.8054897627749602
176		-0.7521460167280207
177		-0.6783829847421488
178		-1.819620114477571
179		-0.21009580479126524
180		-0.06856142508479823
182		0.527640966659163
183		-0.1825428991448979
184		0.3837608417559032
185		-0.36522392445551954
177		-0.42038305605037474
178		-0.829289205728476
179		-0.6986174804701035
180		-0.5567511337744258
181		0.8511204093854904
182		-0.3747124686101774
183		-1.7698226840087465
184		-0.44704153890638065
178		-0.6681824951438405
179		-0.6428595991938445
180		1.8332634312960845
181		-0.24402813043050361
182		0.08884525061498424
183		0.047571045779592966
184		0.23672072735523056
185		0.3582322810924886
186		0.675785769167467
187		-0.8081023163709351
179		-0.5022528717522029
180		-0.7040101718041755
181		-0.797379807475551
182		-1.0215137881037726
183		-0.5772618859410871
184		-1.3357842758454512
185		-0.14966664698842094
186		-1.9431606948205944
187		-0.9192111517519256
188		-0.18900049495177695
180		-0.39082285845976594
182		-0.2652782598833013
183		-0.1768756967852488
184		-0.2451701988424609
185		0.11613791235297811
186		-0.8338777847818398
187		-0.0464285260020733
188		-0.20355790313931843
189		-0.7318296178419859
182		0.11938208071772714
183		-0.25950603877575884
184		-1.140813023560776
185		-4.287145550382497
186		-0.4210345386019461
187		-0.1479640820541777
188		-1.3076932460708164
189		-0.30761012073310456
190		-5.0402174350206055
191		-1.2841119373931476
184		-0.15167426831812134
185		0.18273580375166773
186		-0.7379685724262479
187		0.13884786686493455
188		-0.2027735833975497
189		-0.30012848471269593
190		-0.1627691974686394
191		-4.140081481008417
192		-0.15628724078030873
193		-8.656810923585725
184		0.16142530108587802
185		-0.39079479773190706
186		-0.5843922359401822
187		-0.2747292967630291
188		-0.6154787204107094
189		0.3015039687846284
190		-0.5895474034072778
191		-1.4644181423431735
192		-0.35985242400186257
181		1.2772239002080545
182		-0.9007660489958096
183		0.05884598815248237
184		-0.32332096102989294
185		-0.22511004643098134
186		-1.965121145010784
187		-0.7069667760646309
188		-0.39370629317032874
189		-1.5011529350847999
190		-1.9001767493841688
185		-1.4380992634656682
186		-1.062846408734614
187		-0.167675338459253
188		-0.16710520966994527
189		-0.882140913580945
191		-1.4423779454116932
192		0.018631536616713535
193		-0.6092330235408832
194		-3.6834193418595933
186		-0.201776992071173
187		-0.6143215144227313
188		-0.3502357236276263
189		-0.6121527083073507
190		-0.0357541255726846
191		-1.553514723467947
192		-1.4930142243307178
193		-0.58439215318366
194		-0.847425656789275
195		-0.09855724405171185
187		-0.22606988049505544
188		-2.186903900738181
189		-0.8383314409879107
190		-2.3926081721168697
192		0.06794606847589921
193		-1.0684531158073294
194		-0.47890652807368295
195		-0.4516539185587572
196		0.03615967647204298
188		-0.4434102891161707
189		0.43451149406626455
190		-0.4915156519127512
191		-13.618553758788499
192		-0.24217672158710074
193		-0.15315253814390853
194		0.238604604769626
195		-0.16019538353984678
196		0.7231842890943689
197		-0.4411165617287271
191		-0.7277179515220172
192		-0.6965057272195387
193		-9.241725069398608
194		0.13030151973063098
195		-0.6062944330981336
196		-0.2799581655697771
197		-0.8962193930730272
198		-0.09318004187412729
199		2.1999594007657612
200		-0.6181850852421206
190		-0.10488186922950885
191		-0.4288484167602653
192		-0.9087244833738302
193		-2.6837482121534966
194		-0.17862011832393754
195		-0.006278754972234656
196		0.1921188928262382
197		-1.3742765710063432
198		-1.2225440993284145
199		-0.6108103744817596
190		-4.28489229344936
191		-0.3863128202681146
192		-0.35139648901246456
193		-0.6037309717768596
195		0.31243472409069495
196		-0.24731257638157314
197		0.013368341439949756
198		-0.08530097383668633
192		0.06478147507499678
193		-0.36072604449371964
194		-0.030335128897391025
195		-0.5484157624067469
196		0.8638023504028892
197		-0.10021349345469804
198		-0.7455065049897922
199		-0.5849259288019787
200		-0.08482613130052806
201		-0.5791553621018244
195		-1.2257654738181811
196		-0.7497287075337269
197		-0.5018805269013211
198		-0.5806328394941688
199		-0.5418282870350312
201		-3.1244976796541706
202		-0.8186110883525985
203		0.4433345311307569
204		-0.21610890536378796
194		-0.034229806916566054
195		0.4126559457740464
196		-0.4932643885086013
197		-0.04541064930805403
199		-0.5649484018993353
200		-0.7447319145718013
201		-1.3675043319404758
202		-0.5763934602629771
194		0.003520602337932581
195		-0.4084214654084677
196		-0.927390586474216
197		-12.55516219160243
198		-2.60801709446907
199		-0.37303637008429075
200		0.4588825764652366
201		-0.8204627073823255
202		0.4211470892597178
196		-0.7302942095586602
197		-0.09935161157071411
198		0.5332258958012659
199		-2.34547283020883
200		0.1900422492944651
201		-0.47207176062334427
202		-1.0005646615864
203		0.6207254014780401
204		0.73583887791062
205		-0.9525838565831408
197		0.22574311005019573
198		-0.2647891233496315
199		0.6665378004475757
200		-1.0414918521638916
201		0.8448535147779913
202		-0.08962225354249037
203		-1.553801109152315
204		-0.5968206220215934
205		0.13587692840242419
206		0.7824957227642616
201		-0.4565653963040619
202		-0.5376532379238166
203		-0.2941442933100644
204		0.19247477660137768
205		-0.48092438894261275
207		-0.16042001061852168
208		-0.25570032123431274
209		-0.15331948112388413
210		0.03190331131619045
199		0.9763930300717524
200		-1.8903644073290766
201		-0.2081025172903531
202		0.03156434962684226
203		-0.3551254195894552
204		-0.22690401344472533
205		-0.1321141481081369
206		0.03635389668077866
207		-0.055659876847353504
208		-0.43363702084869915
203		-0.4801089869648651
204		-0.24638804324473834
205		-0.2713403488878265
206		-0.8262371464361209
207		-0.4547173997150036
208		-0.6931748326230529
209		-0.24689277830911682
210		-0.40751514068605504
211		-0.16128279040125548
212		0.6266477227203454
200		-0.5487892301949338
201		-2.7900052157292183
202		-0.3647767011802459
203		-0.38759929705469776
204		-0.7530154504508133
205		-1.2338921729535084
206		-1.9465301959741461
207		0.0858915532821544
208		-0.1525811316372314
209		-0.3456319415673311
204		-0.26553730284708393
206		-0.4051724166425365
207		-0.3447597041475184
208		-0.26639464854802564
209		-0.09045087542575293
210		-1.712944697659603
211		-0.16452170609853403
212		0.004564370181759808
213		0.26130903681652273
202		-0.6069854719643601
203		-0.1697370831538011
204		-0.07762518354115425
205		0.06609426870561487
206		0.10258067187180457
207		-0.4700272113472401
208		-1.1028900381078068
209		-0.06128673492591768
210		0.0753827844134528
211		0.15760214790862798
205		-4.6653677980426975
206		-2.353476592893429
207		-0.6476016811260467
208		-0.26999429911496087
209		0.11414577472086253
210		-1.0558282297096788
211		-0.1522913212361043
212		-1.5631943120483633
213		-2.8561958223009163
214		-3.395107333438015
198		-0.583809015409573
199		-0.6225512312510105
200		-0.43157759345307883
201		-0.929661467303879
202		-0.3941322743501498
203		-1.089724184563691
204		-0.0032812103590316383
205		-0.5864302163418033
206		-0.22051227345143704
207		-0.4961216982876657
206		-0.42039597827561376
207		-0.29350304656406667
208		-0.12950341718808683
209		-0.7193437006502089
210		0.8144520586110717
211		-0.7965388957515437
212		-0.8405405064009103
213		0.7290307178824327
214		-0.09607333128339217
215		-0.6371855971921402
207		-1.4206131492997556
208		0.5107358950783394
209		-0.4740538327579104
210		-0.059499583141708536
211		-0.07160101369524156
212		-0.6158362398536034
213		-1.3222924039352533
214		-1.1971260684291276
215		-0.11786102426853184
216		-0.7163243599346956
208		-0.1815047997338098
209		-7.690537253544401
210		-1.7610762148581607
211		-0.877435901867022
212		-0.6064590239293034
213		-0.0676891041174104
214		-0.22288809210298155
215		-0.2761927830245445
216		-0.1661463647743511
217		-0.26931813439730895
210		0.024853204145255447
211		-1.1340429333523483
213		-0.662493502092703
214		-0.1452289445537388
215		-1.1935256863691537
216		-0.15380667777382157
217		-0.05449880899409346
218		-0.23006423829936568
219		-0.6776662821291906
209		-0.7527621741835336
210		-0.49422383825324023
211		-0.31701750404449747
212		-0.008788296502627229
213		0.08204581218817793
214		-0.9340927213612776
215		-0.28071901958476136
217		0.48462597741971464
218		0.28535567070696816
212		0.524608284451831
213		-0.0674102523370187
214		-0.09909487502672429
215		0.3902434196070737
216		-0.4065505934630516
217		-0.7909615834125429
218		0.477593885029916
219		-3.4508214695755983
220		-0.14226295820697854
221		-1.3059959627322113
211		-0.3112610350463178
212		0.12091358090589911
213		-1.0304212507849135
214		-0.2121239404515044
215		-0.2173631146155228
216		-3.61597971973289
217		-2.007028293297373
218		-0.2611503607514837
219		-0.4526292131754348
220		0.11400853632186529
213		-0.13667094072245842
214		-0.600589175692102
215		-0.09038408195174037
216		-0.21684288361999937
217		-0.22091458754919968
218		-0.6506170057165589
219		-0.1823235882028464
220		-1.2956121797375149
221		-0.10810706205247199
222		-0.5901639637378953
215		-0.3583066036045049
217		-1.8156366634959757
218		-0.13918778311752641
219		-2.7477482760765226
220		-0.14622427467830315
221		-0.7131393222099853
222		-0.22546375352777284
223		-0.18252220119610485
216		-0.2143109388200289
217		-0.8660887604371875
218		-0.3899594441228515
219		-0.6509801571932553
220		-0.49004651145764233
221		-0.37090262582140676
222		-0.8447390320086711
223		-0.4459133527396754
224		-0.9280337952737622
216		-0.7978532881006389
217		-0.5266782039819834
218		0.12110957808047301
219		-0.3924377577665387
220		0.013297730409313802
221		-0.34769698542855904
222		0.9510716693800265
223		-0.4239388045937087
224		-0.08220835618723278
225		0.016192720542291258
217		-0.8068243839422101
219		-0.23957982473030692
220		-0.22590737383731718
221		-1.320572686244761
222		-6.916545513239506
223		-0.9633403630299693
224		-0.7776365066693363
225		-0.2259221334920804
226		-0.37034453060787653
218		-0.36924130699535507
219		0.13388113705387247
220		-0.9974742629559971
221		0.8102249435999938
222		-0.646704561141999
223		-1.0005557957235296
224		-0.31617879895896484
225		-0.3576153859118041
226		-0.47292486123348976
227		-0.5839304316452002
219		-0.8014820732179597
220		-0.17067448704457916
221		-0.40235146329182087
222		-0.7770935152353093
223		0.42478160306864304
224		-2.418170366000187
225		-1.0359087417287791
226		-2.4521238901865767
227		-0.0624055874934645
228		-0.27481978520128575
221		-0.44740008825371835
222		-0.8793844816515338
223		0.06774481047866965
224		0.41557985325493146
225		-1.7941357101938515
226		0.05708797573909248
227		-0.28550016756474306
228		-2.3695463378572836
229		-0.44759056149178883
230		-1.082342948091186
220		-0.2785763780845557
221		-0.00593345079634586
222		-1.1139100283305359
223		0.050005246719926046
224		-1.8673057817160816
225		-2.015557520326008
226		-1.931548052000569
227		-0.8748624009076557
228		-0.4244687661703271
229		-1.8130728810806795
222		-0.8019313817164437
223		-1.2508432912809335
224		-0.12471463069631797
225		-1.483002904050987
226		-1.4935132286673733
227		-0.1505866756542706
228		-1.5341361970082945
229		-2.1968425787808092
230		-0.47496228863307954
231		-1.0460928532819354
223		-0.2413911363347992
224		-0.6766838272049558
225		-1.6964136975651682
226		0.3888926609491496
227		-0.15418157399645666
228		-0.21459642359521006
229		-9.05374360994771
230		-0.4866861441291643
231		0.3025524055696917
232		-0.027561125068332266
224		-0.4672871793094209
226		-0.09142147830350918
227		-0.2319503649761031
228		-3.2869494198473825
229		-0.5803050463009128
230		-0.4595614704094287
231		-0.08291135708971129
232		-0.05817118500198277
233		0.10437843840290101
225		-0.6070891060803729
226		-0.8497826223521289
228		-0.2982114287507941
229		-0.5840571058676702
230		-0.685061356811211
231		-1.7880727051116991
232		-0.806220768087092
233		-0.8476257018208294
234		-0.5462549569571469
227		0.0520902941647669
228		0.1928148889387249
229		-0.3903449393326652
230		-3.8882839553696664
231		-8.434558076751884
232		-0.025564939714966584
233		-0.4965363454872997
234		-1.4321069353514724
235		-0.12103036971884222
227		-0.2332064425340941
228		0.125428990938051
229		-0.32423345035458956
230		-0.20645471703485754
231		-1.171586326678538
232		-0.3824252695550383
233		-0.3818115914151898
234		1.6865447257354154
235		0.05254138797153468
236		0.367486471782843
228		-0.13969037911947654
229		-1.148117265615501
230		-0.361743558738937
233		-2.700163135279181
234		-14.604945855592435
235		-0.9692392969434205
236		-0.29323867623735483
237		-0.1709691752298946
229		-0.19790444590741538
230		-0.3236603633646531
231		-0.5686165444927167
233		-0.7150576460250615
234		-0.5412150897496323
235		-0.3947881888721298
236		-0.3389960300787959
237		-0.4402764183791686
238		0.20535282361386495
230		-1.0180038189400589
231		-3.2751291502266473
232		-0.47654366846890656
233		-0.11649991411592119
234		-0.2512166117057345
235		-0.31256351631495866
236		-0.6092663899677536
238		0.23992699934848444
239		-0.8410449086545805
233		-0.606365059986547
234		-0.13920925646952245
235		-0.17462768277020704
236		-0.1604345299971396
237		-0.3377988095836518
238		-0.3426161340098328
239		-1.3718407391506184
241		-0.1515413682731445
231		-1.323602750323102
232		-0.04953308903047816
233		-0.1636092208014351
234		-0.8049835502378302
235		0.1992964256190561
236		0.5176208493345282
237		-0.3954736652804493
238		-0.2967154364363258
239		-0.7979013150296977
240		-0.3136126268982089
234		-0.9164177398874516
236		-0.5229786290925721
237		1.291990844626649
238		-0.2543252117090845
239		-0.4268732744298295
240		0.04330238244580847
241		-0.1516603217424636
242		0.06254760064712957
235		-0.9089360102647727
236		-0.09772377152098177
237		-0.43259593153152825
238		-0.892179285681569
239		-0.752630747901742
240		-0.5103999433191605
241		-0.023847901292428246
242		-0.6202911902064506
243		-0.8367097049741535
244		-0.9838579919177233
234		0.5973003493505277
235		-2.861135457453888
236		-0.37031786707827635
237		0.2622156903698705
238		-0.5503332907245062
239		-1.3221364107463411
240		-3.991648361684966
242		-0.3785749119579141
243		-1.7957441311397297
236		-1.0340053376152034
237		-0.4903887071040447
238		-9.153932397107155
239		-0.24164674527774443
240		-0.7806287763620181
241		0.04054797304403903
242		0.43141700041094677
243		-0.4768348349196675
245		-0.3969141088284189
237		-0.5174537468384256
238		-1.478407979810473
239		-7.848631358057335
240		-0.42009875382378664
241		-0.49106219256361905
242		-0.1186801880586874
243		-0.07737708474657543
244		0.08810312309903806
245		-0.09141724049123084
246		-0.2402240896822979
238		-0.5176104997201124
239		-0.011627146019635215
240		-0.602282184256453
241		-0.10424206648484373
242		0.23962761332965682
243		-0.2618853716645561
244		-0.17971879380389863
245		-0.5812077684903012
247		0.028330776496995336
239		-1.057372174342547
241		-9.043898739006334
242		-0.7185160326003149
243		-0.5780812189011537
244		-2.274420368300827
245		0.04841252924639912
246		-1.0561063981745102
247		-0.6677774126993861
248		0.08336204845991645
321		-0.4712749774212995
323		0.8783463326710356
324		0.02379260929939945
325		0.29721134457765996
326		-0.5426629285878709
327		-1.41883430998244
328		-0.0538626893708065
329		-0.2462789620228868
330		1.2683940888626184
240		-0.07606752171184945
241		-0.23394040477025238
242		-0.16372556048010417
243		1.1710024590405734
245		0.04612054465184951
246		0.6435923640418362
247		0.7719249344132267
248		-0.6970757655330769
249		2.0943917107342958
241		-0.0883001987781558
242		-0.19527547747940333
243		-0.5044351462059466
244		-0.27753820320376105
245		-0.00551537642657098
246		-0.051304372358177704
247		0.03144420051144274
248		-0.43171015632580634
250		-0.5498755899716634
242		-0.2793163514874334
243		0.2715356535164962
244		0.011339631902840524
245		-1.559722264972621
246		-2.1025026060570844
248		-0.24488369293442894
249		0.39480034112222384
250		-0.4627527269878481
251		1.5867275362798972
243		-0.4986235658160368
245		-0.8914101596829336
246		-0.18151653659030997
247		-0.4355341773411702
248		-0.3352010442531379
249		-0.1514640854298377
250		0.44806868439155756
251		-0.5897899253517529
252		-1.4067980745103663
245		-0.2286464095633527
246		-0.48378810547740797
247		-0.9085444936445509
248		-0.7045589048516107
249		-0.3642808909977569
250		-0.5051818359193903
251		0.017476744096878962
252		-0.7498886363662616
253		-0.5802578132531828
254		-0.3764052595468311
244		-0.3566479782293719
245		-0.8769376146417003
246		0.45336963581802375
247		-0.05373878044836055
249		-2.082538950380937
250		-0.053910134311181634
251		-0.13825318190308353
252		-0.8301369559738132
253		-0.14772610658571567
246		-1.0217672118135863
248		-3.825101428407644
249		-0.43675313496085744
250		0.11272074871954482
251		-0.29666935347312273
252		-0.19491834630618501
253		-0.6933936388979864
254		-0.10568655388726463
255		-0.41254400282159054
247		-0.31108607964144513
248		-0.3404995962550581
249		-0.6584182700373074
250		-10.288977016940573
251		0.13824592305975325
252		-0.24753938416055035
253		-0.0038096375220599637
254		0.38589145653252627
255		-0.466668621594716
256		-0.6647333268403429
248		-0.45729808016910095
249		-0.48734242419261986
250		-0.8141314944268632
252		0.05250905370627176
253		-0.566892064519564
254		-0.18052478257683713
255		-0.469578081348277
256		-0.44818465056711654
257		-0.3526024460378063
249		0.1719086904311455
250		-0.1264628150697244
251		-2.076424273904211
252		-0.2781793946793683
253		-0.34574137489912415
254		-1.027376022266794
255		0.11035513800842794
256		-0.23388323969922598
257		-3.3694414432859525
258		-0.1263731050013149
250		-1.6490221685090476
251		0.09358228308911339
252		-0.6784998198365306
253		-0.4841112881043846
255		0.5766452528701758
257		-0.8219979191141166
258		-0.15885298334049774
259		-0.6967523115087685
252		-4.880056550835218
253		0.2020167222793922
254		-0.124801223904919
255		0.5226654521868142
256		0.1681663793205409
257		-1.166738133764052
258		0.34652162613347703
259		-1.4940214173247637
260		-0.7310195374117976
261		1.0943859537202925
251		-0.03510835364926539
252		-0.9262276663340555
253		-0.17661210509708386
255		-0.46406498089902626
256		-0.32190905583520224
257		0.7924167023424536
258		-0.7059511076739358
259		-0.5257287849025408
260		-1.3348417074221492
253		-1.7894902644342034
254		-1.1005234989213701
255		-0.0770749504529215
256		-0.4686756387887254
257		-2.533840772997208
258		-0.24389835008765384
259		-1.6818442822618231
260		-1.7076766970992345
261		-0.09909752216876223
262		-0.14496505459133263
254		0.14586937951735232
255		-0.3635613373055557
256		-0.2741860914407797
258		-0.15973808099697137
259		-0.476795045989289
260		-0.7231510725620358
261		-0.22068311556608255
262		-0.5064125981632037
263		0.16839743739693291
255		0.04494099446326278
257		-5.962665793574944
258		-0.1860742927405835
259		-0.48240403497414625
260		-0.3254745476878653
261		-0.47346562557066557
262		0.19314164290418487
264		0.0682471091143772
256		-0.10752265157451446
258		0.21226788371212757
259		-0.7429325668042219
260		-7.057238781969081
261		-9.489089799602253
262		-0.37951045661627536
264		-0.61019241186058
265		0.5123785285867423
257		-0.1168427947809137
258		-0.5346564652935955
259		-0.7074074058493501
260		-0.6430356292228466
261		-0.5390598233440026
262		-0.20467062416028925
263		-0.781112771636724
264		-0.09620857861123353
265		-1.0884989426923484
266		-0.6191665315896984
258		-0.5679568843794215
259		-0.2479744392841016
260		-0.48220696213919356
261		-0.8086461232151602
262		-7.05526960710926
263		-0.5049980049383167
264		-0.014821489532715913
265		0.528477420533994
266		-0.8067284635748326
267		-0.6338732492404224
259		-0.31264840129515786
260		-0.7033448759826627
261		-0.4202742556795402
262		0.36708101043083496
263		0.07160046709375302
264		-0.33419046754264076
265		-1.0724530770945682
266		1.119347022050924
267		-0.11227835563017376
268		-0.3923194044291682
261		-0.19624936730525427
265		0.19408998144141332
266		-0.9904164592501633
267		-0.6617571211375257
268		-0.6585724059198372
269		0.09582244011569141
270		0.11739770106697378
262		-0.24113712310480034
263		1.9899677167208052
264		-0.4151122701473011
265		-0.016978881564512188
266		-0.37486205156951413
267		-0.1547372621354353
268		0.11348647070740511
269		-2.319578262717788
271		-0.31287775370656273
260		0.5561104263508388
261		-0.6836473198836027
262		0.7844306870566344
263		-0.4263212784280879
264		-0.7807136340563251
265		-0.6947547693811442
266		-1.990056345583769
267		0.009966374017189309
268		-20.19028335696047
269		0.23886418064126125
263		-0.16517002506131054
264		0.8077037351520581
265		0.01105772066363512
266		0.3636454968498553
267		2.294757749068578
269		-0.04585618079269877
270		0.07336781581815349
271		-1.1239894041356355
272		-0.15207413733319655
264		-23.407781781685177
265		-1.0064893617242672
266		-0.9290121470927581
267		0.20586718460453876
268		-0.09377310359438167
269		-0.2547422152031203
270		-0.6717792482755328
271		-1.3066665816190273
272		-1.5364762784313755
273		-0.016749339052030143
265		-0.2829688054696776
266		-0.3779345976185637
267		-0.827566379388896
268		-0.9551634089005892
269		-0.5340580182456394
270		0.157481927626104
271		0.45217881782289504
272		-0.3355597185092343
273		-0.3202546592902337
274		-0.665942518230459
266		-0.4933489343391713
267		0.718996245444795
268		-1.0364294582404074
269		-1.4564163358814386
270		0.267339860873428
271		-0.17812329537333604
272		-0.06641028999942311
273		-1.3271369274351617
274		0.28187755675982973
275		-0.43422238629317156
267		-1.4120923681678168
268		0.18782915127920174
269		0.05764513457587318
270		0.04531847371343515
271		-0.7792389318461744
272		-1.1564948836165758
273		0.6494167133225648
274		-0.49152372653280885
275		-4.34361431619816
276		-0.5763488801366743
268		-0.8327242248594378
269		-0.06605085512394643
270		-0.9844769939760369
271		-0.6821254348378786
272		-2.3374995568256427
273		-0.16727402991848866
274		0.21479812425760178
275		0.5389320133851739
276		1.4467413193614078
277		-0.3191837545709653
269		-1.6314298309407427
270		-0.4291464615990369
271		-0.3700379966121067
272		-0.9751063773486582
273		0.3443434336829377
274		0.06109551600681276
275		-0.01671218209144662
276		-0.1766852322250996
277		-0.12361302338903679
278		0.03946953968779006
270		-3.7955811040792233
272		-0.42407464818923424
273		-0.4434351064936887
274		-0.8918764618208387
275		-6.26567419191549
276		-0.5399462546379227
277		-1.4962707125154437
278		-0.2816245167592171
279		-0.7427969848494752
271		-0.2853011669620676
272		-0.1342533431520478
273		-0.825721926452795
274		-1.292727495302437
275		-0.7362319035747347
276		-0.17462101537971106
277		-0.12630128543342387
279		-0.6550514442700245
280		-6.6110239545105784
272		-0.29538004418676134
273		-0.8400685480155701
274		0.19022296240064707
275		-0.13416950290742952
276		-0.10789353973855235
277		-0.14707450463527336
278		0.17529615170476054
279		-0.558766284306523
280		-0.7641047688492655
281		-2.680528511034474
273		1.5736312500158145
274		0.2683818685917774
275		-0.13058617721654184
276		-0.22084595162801315
277		-0.4702237422861602
278		-0.8938708386547684
279		-0.15645848177219707
280		-0.021262473018526892
281		-1.3472323231957024
282		-0.5295820104661688
274		-0.23117571306685156
275		-1.0915952077070932
276		-0.6460163858370389
278		-0.2532970650831824
279		-0.130802138693765
280		-0.41291916231582515
281		0.19584578871756858
282		-0.7627870572526527
275		-0.20070515528443508
276		-0.13497742111772149
277		0.32430741100115035
278		0.5367966392264726
279		-3.273881134578707
280		1.0240420809808721
281		-0.43210524325279126
282		-0.8609455638685649
283		-1.094065458948686
284		-0.8609790066736693
276		-0.20306937187661622
277		-1.05983512528688
278		-0.7006441726912442
279		-0.37848551539434616
280		0.28086428187223633
281		-0.7059749690334844
283		0.24888737513628106
284		-1.0188251939818442
285		-0.27757261416203444
278		-1.213519016056975
279		0.02022081388579264
280		-0.059666205738900045
281		-1.0508181370905243
282		0.4022406719453365
283		-0.2936862751283359
284		0.003313690248189072
285		-0.3606113423547516
286		-0.7553065427298989
287		0.0520238628200454
277		0.07876934342010032
278		-0.34476489080190886
279		0.3798986761954817
280		-0.08998129914351737
281		-0.04997536951868742
282		1.867423622413517
283		-0.265125737631681
284		-0.05721541952472155
285		-0.3544846645575053
286		-0.07074460732528885
279		-0.1460151143101354
280		-0.0576492520567778
281		0.3820075121928032
282		-0.5080221627995479
283		-0.6876079271863091
284		-0.5263685804813879
285		-0.3903522763825957
286		-0.18356132667999034
287		-1.1414508335610307
288		0.04062428771985296
280		-0.6344928745241023
281		0.5475837836935896
282		-2.709866051903138
283		-3.781258409023321
284		-0.0241242922618333
286		1.0642837244759247
287		0.0696677467085277
288		-0.17453607073716443
289		-1.278298778164206
281		-0.17109410334178668
282		0.17276515493962089
283		-0.17760713478096682
284		-0.31824206067118177
285		-0.01794238922431037
286		-0.24755749448684866
287		-1.728096115104971
288		-1.2371508630225851
289		0.08537751656371075
290		-14.683551306512717
282		0.04454433478704963
283		0.2057738135180756
284		-0.1560263389722626
285		-0.790229431547311
286		-0.10665031177025797
287		-2.895517320763952
289		-0.17842453238989217
290		0.12735370804135226
283		-1.4826309591207025
284		-1.0861164726119603
285		-0.4904750447185254
286		-1.0684067713629084
287		-2.792644364025378
289		-0.2020657873472173
290		-0.29383490484474184
291		-0.303067833194896
284		-0.6088691692354021
285		-1.7299634667138835
286		-0.015770462307821545
287		-0.6498212009351835
288		-0.5327981473237197
289		-0.7167260473563164
290		0.5258111329672457
291		-0.8482137221979351
292		-0.5451723711972027
293		-0.056248337267141256
285		0.34995256248266143
286		-0.029087665904172385
287		-1.04228400778354
288		-0.6078384016231195
289		-0.7462727214595214
292		-1.3925656779350175
293		-0.804462940296509
294		-1.7046004087060782
286		-1.453186705429807
287		-0.017352799187983922
288		-0.22694530608826086
289		-6.368962364646466
290		-0.4218485496809381
291		-0.36065246818391494
292		-0.18480230560584998
293		-0.5909953748749622
294		-0.19930398667261942
295		-0.018519319088528045
288		-3.426647551459706
289		-0.279050393995715
290		-9.830796547712527
291		0.029321269329087112
293		-0.9394257999093646
294		-2.847313856900709
295		-6.30766766208738
296		-0.24339830343768346
297		-1.3949135408161235
287		-0.08530219126744039
288		-8.74608803803688
289		-0.5215658008424854
290		-0.38978491303698515
291		-0.8408198393542649
292		0.7303534865767136
293		-0.6164462819647464
294		-0.366115689074403
295		-0.3922758483298312
289		0.04661313709212921
290		-0.6342198448926594
291		-6.397019665048955
292		-0.918580676560649
293		-0.2385609150463266
294		0.044366225502615354
295		-0.42094376232153613
296		-0.5331209483152682
297		-1.2056921675571919
298		-0.7547668214972622
291		-1.103099276327273
292		-0.9967155848953422
293		-0.12031350779268198
294		-0.03052478413945295
295		-0.8834802102755223
296		-0.7754678690901179
297		-0.1603006643801292
298		-0.7124011590590837
299		-4.958427554501598
300		-0.12552590170337885
290		-0.9682022681732507
291		-0.5663153365175918
292		-0.8525739094818335
293		-0.300890485272667
295		-0.5980008145973387
296		-0.10246045508024015
297		-0.15927200945217954
298		-5.488966387814777
299		0.016908666942216894
292		-0.18992850949854723
293		0.495468053302227
294		-0.40065298672195593
295		-0.4388645387461673
296		-0.21485771015359276
297		-0.2535213714635942
298		0.6792218804442204
299		-0.4411987011256083
300		-0.7761815243727761
301		-0.4485994484912836
293		-0.37294124884249275
294		-0.25398314788658843
295		-1.021278677968015
296		-0.6917639763781659
297		-0.05301769010402659
299		-0.038377917469812305
300		-1.5790167146579208
301		-1.1937800667889582
302		-0.48321204485036157
294		-2.2641612456856994
295		-0.39184222529392454
296		-0.4002153707759044
297		0.4418688585549374
298		-0.3583507582846078
299		-0.2361157678034278
300		-0.10014172645247518
301		-0.686691548073155
302		-0.36383314061533717
303		-0.22474630591283384
296		-0.1139137539886657
297		0.31822005362902894
298		-0.22421152387746196
299		-0.16061117216359685
300		0.8491346280734893
301		-0.9953345429483392
302		-4.145358763977433
304		-0.3634987204080878
296		-0.8594380773384193
297		0.13131488264314906
298		-0.026286485843391126
299		-0.6327199730903521
300		-0.04339537258218423
301		-0.20154377488184327
302		-0.2972380133290037
303		-0.28656279011548824
304		-0.5006833658555192
305		-0.3309206704996858
298		0.113939495596523
299		0.2161488037139445
300		-0.32400499125212606
302		-0.803591460596592
303		-5.242863793359132
304		-0.0797609642472993
305		-0.4334365803467016
306		1.1430665565044196
302		-0.20722427394204476
303		-0.04419689501851997
304		-7.254316248376402
305		-0.022524568485028762
306		0.4954821812151109
308		-0.18619616769732417
309		-0.47565113111652674
310		-1.5669770349496446
311		-1.265875841163098
300		-1.3997073754232805
301		0.1462715722322737
302		-0.40465653468036555
303		-0.010203569913463807
304		-1.443495135865366
305		-0.5133832892807888
306		0.40231275194592636
307		0.1919641181342827
308		-0.29701008739946877
309		-1.0031275723155977
298		-0.4708791431501318
299		-0.27620525657867206
300		-5.987400221906782
301		0.5195130535714336
302		-0.03269632639849386
303		-0.0855800278524762
304		0.5187343724248423
305		-0.6738368992272193
306		-0.5275321328681306
307		-0.5083294768898686
301		-0.01570143303297396
302		-0.6215544745951364
303		-0.6034087849999369
304		-0.20459496831676496
305		0.580042979458538
306		-2.034569860608318
307		-0.9567395080759137
308		1.547959118103796
309		-0.5248793443993729
310		0.05594704120869577
300		-6.599626265663706
301		0.5545472943841022
303		-1.2283375165913692
304		-0.35002533133784774
305		-0.7402324847204864
307		-0.15772611997660155
308		-0.9620659173171814
303		-0.8269864492835585
304		-0.2029145263221874
305		-0.5635193682385324
306		-0.30669121064048854
307		-0.3056005982469468
308		-0.7131609178717895
309		0.05034757606498325
310		-0.026672323675936083
311		-0.25409149208225573
304		-0.6463552507475023
305		0.3485389420697811
306		-0.4594407620539797
307		-1.81599873798569
308		-0.8560361091865988
309		-0.17460313907994623
310		-1.2032089327575468
311		-0.6586833800832917
312		0.48959487269874163
313		-0.11954521100484787
305		0.04956339684483491
306		-1.0080521743551103
308		-0.9003180584733448
309		-0.34310476233330567
310		-0.252910206502158
311		-3.5771766157972813
312		-0.1741953185085393
313		0.14181353336733538
314		-7.61221027426012
307		-0.1741005660032828
309		-0.22667085991371577
310		-1.0113372215921677
311		-0.5402167232072025
312		0.7061867652130719
313		0.17928652049344979
314		-0.9088530329235676
315		-0.3158313884204387
307		0.03919646826926555
308		-0.9594627134778423
309		0.7104682790107452
310		-0.4279022087536493
311		-1.5034686029760747
312		-0.1284338831779894
313		-0.03573681223188408
314		-0.07670945906478371
315		-1.1346363727766295
316		-0.7597659001399691
308		-0.30277962286188426
309		0.029641753393686188
310		0.042361758944058026
311		-1.3851859556241273
312		-0.005854723030583469
313		-16.53309454211138
314		-0.46033045642269727
315		-1.3319773954803256
316		-0.44463492033288626
317		0.1907347448659401
309		-0.18907470496590123
310		-1.5642465381791053
311		-1.0242924356594096
312		-0.5460207480332273
313		-0.5828751135091892
314		-0.6492499170732885
315		-0.6838305047894299
316		-0.39380019535229216
317		0.3286914463813384
318		0.09367603058324284
312		-0.06311650389375009
313		-0.324134742882712
314		-0.2599411408563801
315		-0.14166403689359397
316		-0.9975229123352346
317		-0.40322258871661915
318		-1.019192810448371
319		-0.9230764785745564
320		-1.941913455079715
321		-0.807798568316389
311		-0.1749282384023184
312		-0.02627216561403358
313		-1.463794830873326
314		-0.021462190070632377
315		-0.056287656349369844
316		-0.2188568740399771
317		-0.17096803582524261
318		-0.1671688078873784
319		-0.05831998089989689
320		-0.21838741154993913
310		-0.5268836319221901
311		-0.5143394400504709
312		-0.4786518272840142
313		-0.1585805446410248
314		-2.311067233778935
315		0.022053568847921676
316		0.03172797949067205
317		-0.37014776450439074
319		-0.14216594593347895
313		0.3783824732581658
314		-0.2886053651848058
315		-0.5268387163368512
316		0.03966973205712017
317		-1.0060944839461765
319		-0.6344564540338656
320		-0.07076203090624954
322		-0.08124439674735161
314		-1.2769207604389579
315		-0.053958438400337864
316		-0.650263002690868
317		-0.035948194071149284
318		0.01594101122541826
319		-0.6886479891204105
320		-0.3682695915488336
321		-0.6250012364087482
322		-0.23850078867963878
323		-14.536347532189158
315		-0.6963676764722014
317		-0.30194744116212835
318		-1.7770029944442813
319		0.9540130583600397
320		0.11813750518464966
321		-1.442319739301266
322		-0.03947538842827339
323		-2.388660236022897
324		-0.565078661236406
316		-0.07203831576912262
317		-0.437567779596594
318		-0.18008604696016367
319		-0.11642082355248967
320		0.12099225020907245
321		-0.06030545040441298
322		-0.4107429233866808
323		0.28344506945523135
324		-0.5258555243208413
325		-1.0923963884679422
317		0.4207342477497785
318		-1.345063594799163
319		-0.01719054953998985
320		-1.6100748086917593
322		0.603402742952182
323		-0.37874607108439
324		-3.819042945519171
325		-1.9437579301210215
326		-0.2521093974919493
319		-0.046326987570953736
320		0.08611460067275481
321		-0.4565051014365307
322		0.04231773625514862
323		-0.299110707105681
324		-1.1160165364102228
326		0.041180412064958025
327		-1.5650268202234046
319		0.3019656406205484
320		-1.074906249351865
321		0.2614233120524977
322		-1.3912024653440498
323		-0.5820015982787609
324		-1.046766254518493
325		-0.16179549301528073
326		-0.5138400080871879
327		-0.7906112475785572
328		-1.560375645060905
320		0.01912330150093158
321		-0.1921487035794088
322		-0.5555945761782214
323		-3.8463021209129717
324		-0.26328862102767114
325		-0.499093359702599
326		-1.7755961089773493
327		-1.5321958404389475
329		-8.132732900640097
322		-0.20367451973019776
323		-1.5610821799384407
324		-0.4501279421635837
325		-0.03938760562191366
326		-0.11534209969101228
327		-0.005563369355781059
328		0.22063439983477381
331		-0.4996997244526302
324		-0.027886925759117713
325		-0.12671441725736973
326		-1.583019431906457
327		-1.2011608406957892
328		-0.2226939054392111
330		-0.34813641639521375
331		-0.30659990846702523
332		-0.0193924855534072
325		-1.6009086873912255
326		-0.4139129979462712
327		-1.2370458446209414
328		-0.32505811088957526
329		-0.5183401645160073
330		0.8759953985620614
331		0.04113017584606496
332		-0.0732702767415657
333		-1.6785278687258778
334		-0.20866479580227754
324		-0.07644393790675301
325		-0.12558589789632355
327		-0.05169603797076852
328		0.6623562509135272
330		0.0830974222408949
331		-0.1773017845815144
332		0.26261885316374095
333		-0.03926757550987324
327		-0.1184913593688831
328		0.9965767785952453
329		-1.1132154395135168
330		-0.06681658695660644
331		-0.88032717661927
332		-6.733109688396684
333		-0.6540057214769655
334		-0.5967279924375659
335		-0.36108739193812217
336		-1.0602659629506954
326		-0.021319737586262984
327		0.011371791922617794
328		-1.0897832474796114
330		-0.6442870082391179
331		-0.89289158662396
332		-0.22629359168685578
333		-0.22828888479989395
334		-0.8687589183710932
335		0.10618906686726357
328		-0.9268745767252544
329		-0.14118487139034452
330		-0.35363670205373093
331		0.04780790318230708
332		-0.17915441635739476
333		-0.5285494177867943
334		-0.24306650940838867
335		0.03017131976482447
336		-0.6501420509766317
337		0.0873649961184612
330		-0.10743250749003748
331		-0.5050249878787169
333		-0.1785263851321439
335		-0.12381208998844913
336		-5.685702209469337
337		-0.8914741436150537
338		-1.385955260770564
330		-0.495115363089589
331		-2.7657773227313522
332		-3.63656893074871
333		-0.3907887881128221
334		-0.6346772167145117
335		-1.001847492511261
336		-1.0503542594488748
337		-1.501203455994346
338		0.3382645637206289
339		0.31624233463376417
331		1.0812562283668636
332		0.1564772863772734
333		-0.1957291250137326
334		0.24300223591555437
335		-0.9299345799033839
336		-0.14856848301952497
337		-0.43793382611663756
338		0.8707612637610427
339		-0.18208090861032078
340		-0.15043814122140228
333		-0.3470929814302073
334		-0.5671831641968903
335		0.5370393633239928
336		-0.37395384061067705
337		0.3913292305109129
338		-0.4697239152867459
339		-0.29788012186940144
340		-0.12482124804699431
341		-0.790975508483548
342		-0.16229242483957756
332		-0.33891956699581494
333		-0.12681429366099475
334		0.3419963661289549
335		-1.002299518107516
336		-0.9813692665284324
337		0.05273589009061571
338		-1.3422774155726027
339		-0.4427473939002062
340		-0.017629278972568822
341		-0.031193154242469427
335		-0.6611035972078083
336		-0.5633811535368999
338		-3.427772377605671
339		-0.04850561306743624
340		-0.5314552881363103
341		0.22979028458828676
342		-0.6167327459224674
343		-0.14818290635957876
335		-0.299866690189619
336		-0.45811037265395677
337		-0.10720432470430434
338		-0.4508607971617675
339		-0.4850874476552822
340		0.19366859063351902
341		-0.7105831844327524
342		-2.787558369215073
343		-2.0894946650280066
344		0.07143204924030573
337		-0.6229347263833047
338		-1.2465654347574062
339		-0.119053257243121
340		-0.4716908553242719
343		0.553136733295562
344		-0.4780491574380649
345		-0.8691151656812005
338		-1.2059619609259025
339		-0.4015651552489159
340		-2.683523323369735
341		0.04514611913522559
342		-0.1123377907863677
343		-0.3839715997427808
344		-0.27365163723252767
345		-0.20795265625147993
338		0.5719440402788274
339		-0.5761080589041968
340		-3.7360067850947414
341		-0.057610957669932156
342		-3.4827292149902487
344		-0.12356119498836791
345		-0.6909661001046831
346		-3.5813784036533636
347		-0.0047980252980943236
339		-0.11386675056008107
340		-1.8020397621758106
341		-0.4543050215200689
342		1.530744714741833
343		-0.6205266729482891
344		-0.17246713260936222
346		-0.08923973963108439
347		-0.18271268620204137
348		0.1720638651785747
340		0.4364113727581311
341		0.012054338872033499
342		0.14104513907127986
344		-0.8452950272050935
345		-0.10226363229456041
346		-1.356212465703647
347		0.1511488879938304
348		-3.323517860374966
341		-0.308410657278085
342		-1.475377588520613
344		-12.296700577780511
345		-0.34556101440027187
346		0.03287483106334516
347		-2.960609726830952
348		-0.33571413205019407
349		-0.5253142592825948
350		-0.7140611187851208
342		-0.11295095141411106
343		0.06970701660274642
344		0.13722432167728843
345		-0.9449368547575278
346		-4.645445894024017
347		0.1286424074412933
348		-0.12833254029204313
349		-0.4104711781091287
350		-1.614496349645527
351		-0.08090725676897717
343		-0.15290272063483465
344		0.14093220202415788
345		-0.7548185852906724
347		-0.683352834481171
348		-0.19512936093051322
349		-0.020654494760090326
351		-0.008807363492454224
352		-2.3143324427204304
344		-1.1354621910449574
345		-0.16669590169451315
346		-0.1243150693826103
347		0.33111106784696925
348		-0.13723641845391596
349		-0.7040715242662396
350		-0.2822911481159684
351		1.3979660722024203
352		-0.19702644123228646
353		-0.9422809442687545
346		-0.24026041741804788
347		0.3503757736314149
348		-0.35308185127328606
349		-1.2587966232331602
350		-0.9147869820134426
351		-0.18304427148710983
352		-0.2249105633838484
353		-0.39846940634859873
355		0.021068536216864837
345		0.6456014238929656
346		-0.7250434475239781
347		-1.0300281887140146
348		-0.3233074694585552
349		-0.18692832505728865
350		0.6695043777566801
351		-0.1689740320957709
352		-0.14415718293787563
353		-1.0536070755378795
354		0.08473799428904227
348		0.06648193267383652
350		-0.33589046283352786
351		-4.2241665095378105
352		-0.7453707539586676
353		-1.2635351252247353
354		-0.8263292819539729
355		-0.03762715216144553
356		-0.19027475365584678
348		-1.2818087023905709
349		-0.1095107184712646
350		-1.1138761981339702
351		-0.21297065238923102
352		-0.16476062049499476
353		0.07656637266263028
354		-0.2974868265292337
355		0.9551718063399207
356		-0.18182561035940992
357		0.11813109093810169
349		-0.048944904038348384
350		-0.9076467910427948
351		-0.40454867261145544
352		-0.4757546171433087
353		-0.7652012986969593
354		-0.18242578527481226
355		-0.8438309273656741
356		0.5721278466905011
357		-0.29758089628344697
358		-1.0229645759559864
350		-0.3990953951710474
351		-1.0802553635713084
352		-0.4944302895806239
353		0.34023019996964715
354		-0.9862855843023817
355		-0.6038000186731224
356		-0.2072841029632109
357		-0.04804810037955675
359		0.42935611420173214
352		-0.1695490720351225
353		-0.6032267423843359
354		-2.579447672666808
355		0.17167117715296087
356		-9.867129271449588
357		0.5622254720010925
358		-1.4621449475129498
359		-0.3684633098354815
360		-0.006834875094908486
351		-0.5085908315861903
352		1.2084809340478933
353		-0.4359886338198075
354		-0.3265892713600272
355		0.45193258204537107
356		-0.6276351321614693
357		0.17350162022722335
358		-0.3734570437089302
359		-0.346945363771146
360		-0.16274139894373865
354		-0.4596180267135504
355		0.2148192279647746
356		0.10267436227867152
357		0.050512398397322356
358		-0.19577673007328145
359		-0.46880582854423997
360		-0.07230516991452741
361		-1.0302061838813474
362		0.14347706259312848
363		-0.14816339720423138
353		-0.4286796389372235
354		-1.2792317213832003
355		-0.493629689471752
356		0.10886009817694313
357		-0.4073182324650817
358		-0.15184818291831287
359		0.22022451812625365
360		-0.8621392758320581
362		-0.3279637039775144
357		0.1634120649529681
358		-0.17328436333392544
359		-1.0836898656021983
360		-0.6885003911051027
361		-0.6047265430823516
362		-0.1066086287736405
363		-0.4254799837852859
364		-0.4250018339422239
365		-0.3535651057378966
366		0.5653543570952972
355		0.4531499091761565
356		-1.2546707824504575
357		-19.51906106989868
358		0.00986445642333203
359		-0.6069539893035913
361		0.4103992007318585
362		-0.44124097321810873
363		-0.064833270034219
364		0.2331967905281339
356		-0.5193308832816202
357		-0.03613373367523137
358		-0.7162523410698121
359		-1.9020913526617593
360		-0.6107938840808307
362		-0.11079273992310482
363		-0.7453541945235489
365		-0.008252402913791578
358		-7.8656982898287815
359		-0.7266948815207482
360		-1.410680465771109
361		-0.4666284731614916
362		-0.9229593500301383
363		-0.17537494111207222
364		-1.2697182196912165
366		-0.49175467974773707
367		-0.12112546995774495
359		-0.11443695122315926
360		0.2915035106299948
361		-9.671735064703505
363		-0.7574740806346889
364		-0.13906612061579093
365		-0.3237290436056042
366		0.18451654438713988
367		-0.16035426412331763
368		0.16144678895165734
360		0.15506144533556043
361		-0.48651626788436503
362		-6.441949610871734
363		-0.46739417684787093
364		0.024457383139496545
365		-1.0394717720847837
366		-0.6886527498399859
367		-0.34990395506286764
368		-0.3325833336174465
369		-0.8263992194101091
361		-0.33952404360804356
363		-0.05293879176014474
364		-0.8118245106329652
365		-0.14278663394293808
366		-0.4452424356837915
367		-0.17325485143874958
368		-0.31631636082423215
369		-1.8541262821785809
370		-0.14460765743095946
362		-4.986520656788417
363		-0.6902190921390653
364		-0.12279717855587122
365		-0.21910527039243663
367		-0.24171314827990809
369		-0.9289287005495827
370		-0.21134771293780524
371		0.07814147397272701
363		-0.7615111215783368
364		-0.22688815190430828
365		1.0592318341238658
366		0.033912618925782276
367		-11.34582308106116
368		0.10062279411338537
369		0.010917118439714331
370		-1.6227035122804083
371		-0.28273077900866356
372		-0.19499458860575475
364		-0.05831633158707021
365		-0.20875745521937317
366		-0.17182656619353778
367		-0.23762033761241388
368		-0.2875683303504772
369		-0.6068338110872586
370		0.1160335622555101
371		-7.444097241311149
372		-0.1333910844430159
373		-0.8486221974485392
365		-0.3892357859808416
366		-0.28632434094077985
367		-0.2342098322833693
368		-0.8816072253450619
369		-0.45807735156510787
370		0.9758154477594253
371		-0.8071371194134573
372		-0.7508311471445925
373		-0.0546995056435165
374		1.0662826444907425
368		-0.13551757067653633
369		0.10753458921946027
370		-0.34761735908144215
371		-1.6103433153042706
372		-0.44688802754496215
373		0.057079469723716844
374		0.011478915016570196
375		-0.524101214349405
376		-0.6257951076393602
366		-0.5913964378959271
367		-0.8560447598748394
368		-4.341142905882679
369		-0.44489511757598726
370		-1.8012765099929355
371		-0.6543028729909404
372		-1.5390303179443974
373		-0.817491432076113
374		-0.0830132360042238
375		-0.6964068731582915
368		-0.001835127058257487
369		-1.4572878667089726
370		-0.2948106730836714
371		-0.4253536312261394
372		-0.3405291114662963
373		-0.168679997757875
374		-0.01159119106962462
375		-0.4307978373149016
376		-0.2685972036957777
377		-0.0426925557162022
369		0.08700462155016402
370		-0.8733906468274094
371		-1.9560014734917077
372		-1.313972922675155
373		0.04499446410748264
374		-0.6947898463650668
375		-0.7795731356712567
376		-1.3026050816596806
377		-0.39108553462252044
378		-0.21847707978362793
370		-0.35686387533025515
371		-0.05610198101332855
372		-0.39170747959322083
373		-0.9947860326167617
374		0.07990818230771772
375		-0.579128322359703
376		-1.1802054204095536
377		-17.016585668826423
378		-0.6717342081287294
379		-1.1607037799740805
373		-1.0977686204676915
374		0.3934890848909698
375		0.7178944843148881
376		0.07265419306925354
377		-1.041350959501774
378		-0.44536529802570485
379		0.39861883735628145
380		-0.9522763983763359
381		0.14833531569190825
371		0.32216666241897934
372		-0.18495777324422738
373		-0.4395039555922683
374		-0.09183711987705954
375		-0.35394851472259126
376		-0.14531135494110417
377		0.09332016347496061
378		-0.761805927635319
379		0.06448001338077662
380		-0.26770691245711714
373		-0.30880061155915817
374		-1.3030700116778617
375		-0.701061418236137
376		-0.9086972353779189
377		-0.7455959316181809
379		-3.0673327343943924
380		-0.8434987141412607
381		-0.7798511967458153
382		-0.49515213057442775
374		-0.25603355763125746
375		-0.08672467745667138
376		-0.5333462611159104
377		-0.22791127207584266
378		-0.4805107883130512
379		-0.3282966849263295
380		-0.6914432005264755
381		-1.015309010901368
382		0.39690299121947975
383		-0.8528762261940095
375		-0.4676071030476519
376		0.09533788452948887
377		-0.20723290979517506
378		-0.010137065702515881
379		0.017207686509271562
380		-0.12482623853311217
381		-0.11815212570505591
382		0.36170689867127004
383		-1.0884432832976
384		-0.4462050858553868
376		0.06920921933565702
377		-0.7623597001753639
378		-0.495053534531178
379		-0.5805358907064816
380		-0.3793613098483062
381		-0.53166276485112
382		-0.24579313993256988
383		-0.47593501263869037
384		-1.258167621664809
385		-1.3743955197949134
379		-0.2984334490011654
381		0.07153658987316475
382		-0.05305917059477753
383		-9.186557843712368
384		-0.3292316319277227
386		-0.47845307138726084
387		-0.14870164956017182
388		-0.05526863165828488
377		-0.965862012141972
379		-0.47313248484494885
380		-0.46365289166523965
381		-0.017787901018806843
382		0.007939059935899663
383		-0.4402448650314405
384		-0.13822931312701336
385		-0.8397597361706831
386		-0.3425465852550869
379		-0.28643743877199535
381		-0.3270500120977002
382		1.777638797941698
383		0.012140441367475366
385		-0.9142488326609582
386		-0.8440609721160184
387		0.361947810825768
381		-0.6141079396864171
382		-1.3979976884573608
383		-0.7955768992751501
384		-0.9527921897724289
385		-0.39052891582062177
386		0.05906223257172257
387		0.042274896968406736
388		-0.060241009395036675
389		-1.0496114670212764
381		-0.34972483593792714
382		-1.0263580568826522
384		-0.8235399528376607
386		-0.2186253190135738
388		-1.0460121522550345
389		-0.8747504385552998
390		0.012762224819787628
382		-0.8037023888425822
383		-0.07526458271914312
385		-2.014320967793776
386		-0.09719282812245766
387		0.0839007272153911
388		-0.43050142843004113
389		0.4395736799119259
390		-1.0244487162479465
391		-0.4176679591092493
383		-0.6959537479428998
384		-0.10041467139921532
385		-0.9585504202929739
387		-0.2267522533625598
388		-1.9466660999510694
389		-2.662425723990929
390		0.0151779943994792
391		-1.615762806572687
384		-0.013175184317479069
385		0.12068021166951966
386		-0.28078342434124093
387		-9.868083278117524
388		-0.9379782481307932
389		-0.804148000040333
390		-4.577276451611677
391		-12.61056567109555
392		-0.1319286445095466
393		0.2727140715570988
386		-0.5939770040879033
387		-0.7536116896135489
389		1.1827096543447573
390		0.06862782395487227
391		-0.6571094922988439
392		-0.932918422766039
393		-0.12024745046725473
394		-0.5912030110724765
395		-1.8073530966305489
385		-0.6171482268239672
386		0.02185689829160348
387		-0.4118628131056234
388		-2.1689134899479927
389		-6.972431455009548
390		-0.28395070707792136
391		0.7097133844724269
392		-1.2788692963029251
393		0.1626688114419601
394		-0.23514226464115043
387		-0.21298427036307596
388		0.11393690349031177
389		-0.9931128688699866
390		-0.3963934913131083
391		1.7931021237697544
392		-24.61530996904704
393		-0.44845296782549715
394		-0.9962695420169116
395		0.07112590520966135
396		-1.387067871426234
388		-1.096528482554605
389		-1.0712599117199246
390		-0.8749559021750303
391		-0.4526611034488654
392		-0.1893550270567986
393		-0.1572208502356065
394		0.04175947465586142
395		-0.15949526856333684
396		-0.393178343201436
397		-0.15729231544169822
389		-0.5972239067155702
390		-0.24677083579023834
391		-0.5547760456064613
392		-1.221687321692771
393		0.48146141097551276
394		-0.03225234579296809
395		-0.26921206086859906
396		-1.054760681008444
397		1.1129908906140151
398		-1.8647412910822854
391		-3.5023160634208224
392		-0.7065046963410887
393		-0.2680304150888808
394		-0.25326254442693097
395		-0.3540432756882733
396		-1.3648942388677394
397		-0.17653673046982635
398		-0.3287569407082574
399		-0.15218070936663355
400		-0.01641163110613084
390		-1.862416523829669
391		-0.22687281626999564
392		-0.34656035646620137
393		1.8375287406713827
394		-1.2021168641038544
395		-1.072070270310221
396		-0.6576769799556959
397		-1.533194657367744
398		-0.22365582579170787
399		-0.5853388287348332
392		0.5264436831940755
393		-1.4075956416008744
394		-0.7812998000894096
395		0.29104028227085316
396		-3.347669699081049
397		-0.7277165267535808
398		0.009423698994800838
399		-1.1491469062816329
400		-0.9137926513638113
401		-0.05816470506964543
394		-0.7445403227315274
395		0.5333011717421994
396		0.2667950588719389
397		-0.2909608738771002
398		-0.8686480051001658
399		-0.3265537256318513
400		-0.2436404067365812
401		-0.09354048496309889
402		-0.49925303701196305
403		-0.36634980929382976
393		-0.41793511065487154
395		-0.3916707599004115
396		-0.6122932962640024
397		0.7145952299212861
398		-0.5876162725261936
399		-1.1603026053179242
400		-2.149450081126023
401		-1.6016324748840276
402		0.05665198467791675
395		-0.5537421901765913
396		-1.4435583556602354
399		-0.7944769378775003
400		-1.1518319158953043
401		-1.1793470289839592
402		0.09440127036942861
403		-0.5434187271471159
404		-1.198580336178036
398		-0.08715195739622367
399		-1.7670247997664545
401		-0.0019076291283123745
402		1.1685596987713904
403		-0.17526536068535148
404		-0.18918005162474663
405		-0.3810298773696524
397		-0.08289253468450608
398		-0.39234159042367983
399		-0.46150352761076774
400		-0.7278765285173542
401		-0.10320225741898544
402		-0.7680482659195889
403		-0.5380389851026618
404		-0.3949770495620273
405		-0.18304954017939642
398		-0.2816211675442348
399		-0.8503807096324106
400		-0.08617571164607019
401		-0.007676404440833217
402		-0.534179103338856
403		-0.5886013427497667
404		-0.15567594665445278
405		-0.9644180705439398
407		-1.766181864133576
399		-1.4174601825099373
400		-6.330295545916456
402		-0.21653211659455482
403		-0.3540706603463487
404		0.055357854131304174
405		-0.5362846205069126
407		-7.195216353740063
408		-0.07407846697302402
400		-0.7622613983793596
401		-0.23439448962665893
402		-0.5509932511359116
403		-0.643668737599951
404		-0.2151659833282927
405		-0.24452511362291843
406		-0.6905783098200728
407		-0.971946500563156
408		-0.08318688991125314
409		-0.023258376611021016
401		-0.8382278119574996
402		0.4655177200028633
403		-1.042862829798858
404		-0.8289574925781285
405		0.2539444181993924
406		-0.09507615202335709
407		-0.7136756041901126
408		-0.4640405014048503
409		-5.126711718232277
410		-0.45787624274356625
404		-0.0714303038943963
405		-0.6698406399023653
406		-0.1408378549820813
407		0.15859234652829846
408		-0.6304946884742363
409		-0.9485255614692788
410		-0.17529179061414235
411		-0.06507880739658019
412		-0.6098807962219164
413		-0.23146454263113783
403		0.3626231501680551
404		-0.28851675640529156
405		-0.09281862207569629
406		-0.03987095928557315
407		-0.22348584085994705
408		0.01169747620429154
409		0.0987047476599022
410		-1.0937920280197198
411		-0.06914190458309304
412		-0.23454677169776705
402		-0.03115568379761894
403		-0.38227765003480935
404		0.502926550387575
405		-11.632382982941039
406		-0.34533185846889425
407		-0.12652416912610157
408		0.1807832819693967
409		-1.0270984903485858
410		-0.51352165828499
411		0.21327458601537044
406		-0.37665486438618057
407		-4.58480929973195
408		-0.044653875924074556
409		-0.6172355294950282
411		-0.4331651454436943
412		-0.8427919216742091
414		-0.05257251114617352
415		-0.06525059080196453
405		0.08883766033580802
406		0.3783783450333008
407		-0.5407528670133661
409		-0.5050447883227885
410		-0.23570521715549267
411		-2.48973306173113
412		-0.0433968539251715
413		-0.009096145484336484
414		-0.4543472666012249
407		0.113171295913302
408		-1.859904620484386
409		-0.07345124720353544
410		-0.22251022280396723
412		0.5331284671363905
413		-0.33512092732100934
415		-0.7593249730685145
416		-0.16683922998425757
408		-1.9394806380128102
409		-0.7431460686650951
410		-0.14169126389761388
412		0.11875412178575151
413		-2.6486143490347045
414		1.1935070137799604
415		0.3083672787164449
416		-0.7673050337971993
417		-0.550429037022156
409		-0.39868001015909216
410		-0.6925293971880535
412		-0.11939015607308939
413		-0.04684178842694755
414		-0.5571791362779492
415		-0.6915596981136444
416		-0.9909174830076922
417		-0.24656226615109125
418		-0.5487614516466781
476		-0.410771475696851
477		0.10054344890404415
478		-0.6919504328217989
479		-0.7726041768045115
480		-0.3734171620295285
481		-0.5382537027671648
482		-0.048567869134993766
483		0.08420941984251268
484		-0.8204578894156772
485		0.6071968643685701
411		-1.6880207710331716
412		-0.4440491179598213
413		-0.04829649852063176
414		0.01913539788758861
415		-0.0433583990271527
416		0.025383672609749823
417		-0.2722501554538623
418		-0.5323312302721026
419		-1.1043300563054403
420		-0.17917910492559314
410		-0.6809337722611322
411		-2.2888597996913425
412		0.0400012289536493
413		-0.1685812407106061
414		-0.09500960639015901
415		-0.8850449318180685
416		0.13537525752490995
417		-0.11951460938677336
418		-0.25314194683804986
419		-0.0260468906623804
413		-0.5619301730491099
414		-0.0020204887917808683
415		-0.6403644255137365
416		-0.92380824735983
417		-0.05880768750105122
418		-0.4916598854370069
419		-0.02086766666563206
420		-1.075329895513325
421		-2.136077157774349
422		-1.5113171241571328
412		-1.1351163106753943
413		-0.0695912773179693
414		0.2677529679090218
415		-0.10386531185807546
416		-0.8824767144380483
417		-1.4232442334174593
418		-1.0991881019069163
419		-0.2890944681805759
420		-2.785103086929756
414		-0.5332655506454989
415		-0.3853577328929571
416		-1.4096673225033354
417		-1.2479465073889902
418		-1.6450098098007613
419		-0.11795853138854456
421		-0.438992194472748
422		-0.9495304462291235
423		-0.8017302446768843
415		-0.4822991852251238
416		-0.4248409435610964
417		-0.9152992060780494
418		0.06733378393741045
419		0.16938540164319846
420		-0.09526635722851325
421		0.6386741676265845
422		0.2215789554990431
423		-0.01087956809395311
424		-0.6880130792489162
419		-0.05809158848527411
420		0.14361451015782906
421		-7.42843861560935
422		0.8134111078928937
423		-0.5592992071823661
424		-0.6099678854831434
425		-1.037779414210784
426		-0.045307650756638604
427		-0.40202242586349696
428		-4.322612232930116
420		-0.7246617772497166
421		-0.515524395901455
422		-0.3235007854593611
423		0.03581167660584386
424		-0.40877890769347325
425		-1.4618225863721621
426		-0.32813663020904493
427		-0.33935618863024075
428		-0.5725482483166732
429		-0.7537195360354799
418		-1.5960300580819076
419		-0.32327222278545087
420		-0.838231312320182
421		-0.18238731790060755
422		-1.9168721776768807
423		-0.871718896385084
424		-4.342015249598625
425		-0.6443552380805166
426		-0.3892996093668831
427		-1.299577906231076
416		-0.6511087105547303
417		-0.08490918040843609
418		0.19493951525302897
419		-0.11223795855303932
420		-1.2912854523166442
421		-0.25529118455950595
422		-1.395626964234342
423		-0.4408044920715407
424		-21.45733957335036
425		0.015236300306814355
421		-0.4008035966696662
422		-0.503616465625325
423		-0.33793263105244936
424		-0.5598794390560329
425		-0.27512858395015766
426		-0.273948665527748
427		-0.7926397084135771
428		-0.48256941319970453
429		-0.5630489552881048
430		-0.27786530926501446
417		-0.5605029790866952
418		-1.0697354257554563
419		-0.14796107668007316
420		0.003856061989098285
422		-0.11662350480515557
423		-0.04552714764683173
424		1.1865957056439105
425		-1.556385219902353
426		-0.14107994484336817
423		-1.0543927004132827
424		-1.056156315084869
425		-0.6165660741823966
426		-0.15918781037481355
427		-0.509534770394382
429		-0.6608046957349399
430		0.2797632296196924
432		-1.23306720748517
422		-0.5975835414404204
423		-0.13156048157980108
424		-0.26055832344922314
425		-2.0674095604833043
426		-3.4922862735147118
427		-0.18371988800945233
428		-0.3819004516557975
429		-0.33084481407223143
430		-0.020649625427767167
431		-0.060173166225199796
425		0.3350648343390286
426		-0.6752262828400797
427		-0.836264378451174
428		-0.6617682673879811
429		-0.23300000960643977
430		-0.6536993973086465
431		-4.65681823434461
432		-0.206527969136514
433		-1.0950679132255032
434		0.09704647430893415
424		-0.3832023764237173
425		-0.400327394699381
426		0.04669276990649134
427		-0.45574491176463783
428		-0.0652882616641563
429		0.1479615097747856
430		0.48014962584124066
431		-0.11979768443854674
432		-1.1216203815781638
433		-0.2339811257605527
426		-0.7923176529712039
427		-0.2066397907297439
428		-0.03693112646770808
429		0.14173646097959355
430		-1.246804999340688
431		-2.661460664827916
432		0.7945268928276759
433		-0.38005100128218916
434		-0.28193591359523823
435		-0.48624623284139
427		-1.2725943981768864
428		-0.2231895721484835
429		-0.36245464408256867
430		-0.874095145925245
431		-0.8743690227713141
432		-0.18905903254454107
433		-0.1890619052357556
434		-0.7268142402383748
435		-0.13097223254068177
436		-3.7390107748478463
430		-1.0202396844284596
431		-0.0014077180464986336
432		-0.4895466850550984
433		-0.8608370337353758
434		-0.13622760198651176
435		-0.42870023291124926
436		-0.275630803918229
437		-1.053859444637498
438		-0.8043324921337042
439		-11.90624557220176
429		-0.06444222578167441
430		-1.213533090226981
431		-0.26642971093513435
432		-0.30570271347477473
433		1.7716579695156414
434		-1.00257682494042
435		0.013592101030813613
436		0.3111022714676956
437		-0.17280300801073123
438		-1.9529285850446296
428		-11.97180447177625
