0		-0.2332343302332223
1		-0.4383231954369556
2		0.41072254919372747
3		-0.0041360737588939135
4		0.08364565293061567
5		-0.5363194237894781
6		-0.461713496313719
7		-0.1461484008930553
8		0.30973510951220695
9		-0.647354309017372
2		-0.22893393230050044
3		-1.0515392343522754
4		0.1049648768948957
5		0.028459258648373186
6		-0.30511507493823586
7		0.29640702948563097
8		0.6272497080365692
9		0.6508637664645681
10		-1.8384422771094915
11		-0.19537357122200388
1		0.25812111081954053
2		0.6275360032764338
3		-0.5819288517974606
4		0.3973074190561759
5		0.16727530774117821
6		-0.02000270629759013
7		-0.09300750919830693
8		-0.37316176345362523
9		-0.22044225098863798
10		0.34098009926399875
3		0.028293587882457515
4		-0.2746804582671005
5		-0.17023312047062625
6		-0.13073845820309574
7		-0.317622983191397
8		0.32248316468919463
9		0.5709498262675197
10		-0.9183343138437646
11		0.43313459677852084
12		-0.05431714325260341
4		-0.07733222901887049
5		-0.08246560384186878
6		-0.044583910675460636
7		-0.1593885968910842
8		-0.3869605654458348
9		-0.12533318657399764
10		0.41604877167404425
11		-0.44380173777267756
12		0.01300962701129996
13		0.27603853689633623
5		0.04101448884105286
6		-0.024700550367829463
7		-0.08255529480929824
8		-0.647754968638655
9		-0.3059802729548931
10		-0.4208452229852899
11		0.22514168926719025
12		0.618527773197504
13		-0.49191895025974197
14		-1.2103056571230129
6		-0.05269929490506813
7		-0.665899245827166
8		-0.027800010897638738
9		-0.8112818501983496
10		0.09759360051223373
11		1.2424541075875177
12		0.06483563925321605
13		0.059890185917214234
14		-0.1317920594714124
15		-0.23301256740273366
7		0.06992791667804092
8		-0.2907498157170984
9		-0.45338294917898403
10		-0.17857292342894635
11		-0.46968087239689654
12		-0.17640929818032372
13		0.20536168397369603
14		0.051431675097734365
15		-0.07269217244568733
16		-1.0050806673837809
8		0.2807368179577347
9		-0.6118104246511468
10		2.0363415783529195
11		0.01523696730163229
12		0.21420506926650718
13		0.1748742616328059
14		0.5667375701481462
15		0.14525560444868646
16		0.5787394367221904
17		-0.1690796912623143
9		0.5239826245884158
10		-1.214276888748354
11		-1.3635812738104316
12		0.4201441497344665
13		-0.968761633355624
14		0.5189779072400638
15		-0.39993274363851006
16		-0.06286726380604188
17		-0.6210367811244734
18		-0.2843182623443002
11		0.4021684254773441
12		0.06186039510554119
13		0.27922851059600545
14		-2.2308680948168957
15		0.6952344332224509
16		-0.3585514528685965
17		0.19583349801012062
18		0.11407469849016316
19		0.34962378791804827
20		-0.09107654331468927
10		-0.018362864838972627
11		0.04493403836854442
12		-0.5343960953924102
13		-0.9032475355583716
14		0.2501721645197854
15		0.02251843134628559
16		-0.0956824491653526
17		0.14106906125309301
18		0.5493996876556557
19		-0.2589221135941513
12		0.24339853378458234
13		-0.01561537293711185
14		0.312715422395105
15		-0.1508073627748476
16		-0.07774045928596593
17		-0.05797517967502582
18		0.1726806871211931
19		-0.30968682777652096
20		-0.30323853761767305
21		0.06415817908907939
13		-0.15199036341282954
14		0.689347505718653
15		0.13035799092588402
16		-0.4012120248786026
17		0.19503319503075567
18		0.003635675679130739
19		0.32550871060469583
20		-0.6728829392588134
21		-0.07286712946824613
22		-0.6782183579591334
14		-0.22715707998157234
15		0.0992230902803446
16		-0.12356864188021086
17		-0.1472183043559187
18		0.5305542458069722
19		0.12815454377656182
20		-0.7850848691652805
21		0.04599986847861159
22		-0.5864712838116436
23		-1.0298160594262524
15		-1.1752039959051257
16		0.03560028583641536
17		-0.16182948809999076
18		0.34734585062294726
19		-0.5971198681211554
20		0.05546522994748283
21		-0.364094946535574
22		0.2737088834956161
23		-1.1992690235516792
24		-0.8737573609681063
16		-0.2849838007602174
17		0.3125324855980651
18		-0.3686860307465887
19		-0.12198742085003769
20		-2.4183570847640796
21		-0.3330536960948535
22		-0.7527865782459058
23		0.744705713297558
24		0.4276870752588781
25		0.09925483813879807
18		-0.1560713789325967
19		-0.7311893076514693
20		-0.6602641341897785
21		0.09919010563609003
22		0.5303360136502016
23		0.05909909596966212
24		-0.3829983027567698
25		-0.6478141066888132
26		-0.36552885961626097
27		-0.1486924338187781
17		0.19375918917237742
18		-0.28709465080922425
19		-0.08047603751644399
20		-0.05663040012688454
21		-0.8256059076766903
22		-0.21441266011289142
23		0.3986852742802292
24		-0.4982122598504376
25		0.34307295068494464
26		-0.6386047900451701
19		0.025703051393294627
20		0.014939747929749055
21		-0.16545703433352804
22		-0.30645399533286694
23		0.5330616261161458
24		0.10712593182291598
25		0.7007385695117146
26		-0.014528708973854628
27		0.29399973150344505
28		-0.33319713048762106
20		-0.565158724782581
21		-0.12783959281076332
22		0.013211423990022796
23		-0.2843468790033235
24		-0.2054749016266749
25		-1.1403662069442915
26		-1.5446323677303997
27		-0.6360330301739411
28		0.2768970121383014
29		-0.8590244278924047
21		0.10304558705960878
22		-0.11796193897563659
23		-0.6562430602869346
24		-0.07656403476457088
25		-0.41188201571912175
26		0.5057784238029329
27		-0.43255152519835716
28		-0.48725093971891437
29		0.3907910603284221
30		-0.11531206428770055
22		-0.9978438913815257
23		-0.10101983065573573
24		-0.19827342355376415
25		0.75017505703067
26		-0.2685786994457115
27		-0.07398437352965509
28		-0.3759212725649435
29		-0.4384647466902886
30		-0.038220007081433596
31		0.3183478278388461
23		-0.6088866173223683
24		0.09189925639154602
25		0.4631253002662897
26		-0.49919301579090475
27		-1.2379390635178416
28		0.5446261744632495
29		0.05406534546607131
30		0.07626885118546456
31		0.23127623199889308
32		-0.971962779949291
25		-0.003591225610708985
26		0.06194201487912818
27		0.10451150624159906
28		-0.4861131650414827
29		-0.07482379611088233
30		-0.386286408087864
31		0.26091462324075243
32		-0.460593024760439
33		-0.5184196353494427
34		-0.7267939974650083
26		-0.526254862330573
27		-0.24998574936257983
28		0.531515194382713
29		0.1574072975191838
30		0.2599478066894291
31		-1.364389385541521
32		0.4392714554582131
33		-0.19556712347956048
34		0.718093224959071
35		-0.6883518158084854
24		0.3575955544277962
25		0.4272739362971353
26		-0.16894692309941386
27		0.08601753302977094
28		-2.4533831515925235
29		-0.38708926475461064
30		-0.4486111586628627
31		-0.3226959381658972
32		-0.41388343303845476
33		-0.5234447424706885
27		0.010410995296913023
28		-0.2981731185906174
29		0.26068135078475807
30		-0.7771387150281012
31		0.04849578821034388
32		0.33685393743794867
33		-0.03004854195742893
34		-0.01699924736342067
35		0.45339734694319406
36		-0.7156498688151096
28		-0.31374502883627975
29		-0.9180325367880598
30		0.0052203088193301895
31		1.101052037792537
32		-0.35125265959085766
33		0.0018535654380732317
34		-0.13754784620574328
35		-0.5115600158407687
36		0.5158168474703567
37		-1.0877522922629612
30		0.16747520686612383
31		-0.2905228230555209
32		0.22148437652866296
33		-0.3381239310686664
34		-0.4104879410245266
35		-0.05684115120697632
36		-0.1689924056432111
37		-0.4490143836077288
38		0.28315570557899383
39		0.9844055084786603
29		-0.1751854911579391
30		0.16102365432620144
31		-0.09588254653710192
32		0.3610478100013787
33		1.050656214810431
34		-0.30866914947103624
35		-0.1281396613317327
36		0.34569262314301186
37		0.3296874037238504
38		0.5288264379867169
31		0.29651731366465145
32		0.007393107629639903
33		-0.6754028476915577
34		-0.2791782625667288
35		0.7057938197725737
36		-0.33686270326252116
37		0.32408231995766557
38		-0.16063369333116986
39		0.3456926411930796
40		0.5370440728183277
32		-0.039758148140128693
33		0.03019983261994675
34		-1.145337457312523
35		-0.015392779044701932
36		-0.4556919063426835
37		-0.3754845229023739
38		0.008615279219690077
39		-0.3158257068179182
40		0.27668100459445955
41		-0.324986125685311
33		0.10295852697230441
34		-1.603553442049898
35		-1.035147790951331
36		-0.4622226599407121
37		-0.19055840459242843
38		-0.4207591273531369
39		0.5253840438662749
40		-0.9927666669720998
41		-0.009621670593589976
42		-0.611682526920609
34		0.23459689489877014
35		0.1662529504292078
36		-0.5002406835966007
37		-0.041407489695220345
38		-0.5149649642200582
39		0.01820520320231996
40		0.7473733601802259
41		-0.7211953708166612
42		0.2936506991784046
43		-0.3416203294085578
35		-0.2830437495188585
36		-2.1376804604303694
37		-0.30531558041278545
38		-0.6936952720922901
39		-0.1212836281284749
40		-0.5027780771109563
41		-1.5077208059854763
42		-0.47453970638902604
43		-0.5051040772008654
44		-1.7567737102771535
36		-0.3437654095690854
37		0.4673014269965439
38		-0.07097792673602321
39		0.8286856645952356
40		-0.26665775417624177
41		-0.48748160902585264
42		-0.1744661059787984
43		-0.4037290616335955
44		-1.67181174753569
45		-0.7518638542208617
37		0.7511919279588096
38		-0.23579660621251186
39		0.1092956450856711
40		0.5253276436334352
41		0.634757175776368
42		0.2646410728339455
43		0.8145366297633722
44		0.18114315913807458
45		0.8109482664847317
46		-0.15010429480629026
38		0.3573114263086766
39		-1.2130785160503612
40		-0.7170674970393879
41		-0.6561500054160452
42		-0.2225810118563888
43		-0.7327644762110774
44		-0.06099143599631205
45		0.20668331296158415
46		0.3614852591826777
47		-0.8576224740904368
39		0.3539571908355569
40		-0.05760434649465186
41		-0.034787081077116255
42		0.003630968976079955
43		0.7705431475287176
44		0.19700134317943047
45		0.17470920343842877
46		-0.7954745728313192
47		0.04942880835112236
48		0.3924544952702419
40		-0.0955390115812052
41		-0.06502384348009634
42		-0.18266840299768464
43		-0.5210292717724363
44		0.2037060196827155
45		0.10351096483513192
46		-2.544436814752664
47		-0.36207033383480186
48		0.043118062344654054
49		-0.2114651968481671
41		0.4596951479714935
42		0.1310345519122382
43		0.19109318760294353
44		-0.5696969746273667
45		-0.2869582355697592
46		-0.5375745257949069
47		-0.5135063429895229
48		0.32286281718299753
49		-0.5706277909230981
50		-1.6204222545865652
42		0.7090074700624486
43		0.10505768835000356
44		0.2552053838582226
45		-0.15217953711271126
46		-0.6420165667079032
47		-0.5738738866203097
48		-0.7656092215251392
49		-0.5557028325754335
50		0.3026852412110367
51		0.20982157539476864
43		0.012143939535609426
44		-0.09913032054781411
45		0.6271654949206787
46		0.3636852309791466
47		-0.9192484029935195
48		-0.46304515033627014
49		-0.48694038084165747
50		-0.15954700404470268
51		0.4058867079710391
52		-0.0030721013411317217
44		-0.03714289141837689
45		-0.19577398211310604
46		0.16099774045301454
47		-0.06639264200685481
48		0.024682575409928263
49		-0.15936143381026083
50		-0.16916070021599797
51		0.13314060981546638
52		0.3809417086345863
53		-1.3712121742377654
45		0.10282438256287262
46		0.18145692078008152
47		-0.07000451411205612
48		-0.8913787994004609
49		-0.10571119917036405
50		-0.432795030721929
51		0.06650453243355105
52		0.16743801422537632
53		0.24155236312311873
54		0.3146169315708986
46		-1.121824916476264
47		-1.2557145910122267
48		0.003722794384134174
49		0.5698031411774218
50		0.6131454308813037
51		-0.18225467620839603
52		0.3536049631694608
53		0.8577143528398125
54		0.18626359335040352
55		-0.631180787525515
47		0.33786499818673116
48		0.36519154262993014
49		0.21281115332365183
50		0.0270096954245632
51		0.3966049009206402
52		0.9249607832613281
53		-0.05988225456600917
54		0.5409597539059469
55		0.6428158846117672
56		-0.991201739995409
48		-1.038746986925921
49		-0.05419950626489467
50		0.836518896782215
51		0.18050863895068164
52		-0.6659432051880214
53		-0.4413094699947723
54		0.13015132431834214
55		-0.3407501443428533
56		0.4032015465677332
57		-0.07807938943791107
49		-0.4167287489979158
50		0.16289277517925857
51		0.40874956262580503
52		1.3102781668632797
53		-0.24889193615010635
54		-0.0407169732339852
55		0.27426583568407326
56		-0.1957642499845054
57		0.40729489780374223
58		-0.25195963673184696
50		-1.2162120346422647
51		0.15602886736518026
52		-1.2439161509848322
53		0.1347157572260628
54		0.24033076441909035
55		-0.2767043572102318
56		0.15275084242246217
57		-0.1569346949090553
58		1.4245629743003603
59		0.11970804830786215
51		0.8377464260251446
52		0.6060928007550147
53		-0.6386583001133359
54		-0.6815124623846868
55		-0.1717681635058775
56		-0.5147333168430849
57		-0.5631909558376325
58		-0.9458872386785648
59		-0.049529015796579215
60		-0.6117941358933096
52		-0.7044342499500472
53		-2.207131219187963
54		-0.3679593581343242
55		-0.27793823912536036
56		-0.3629050670824504
57		-0.5738924428931137
58		-0.3728032404884101
59		0.803178244473613
60		-0.09915451597390271
61		-0.3256690537883641
53		-0.9197606714345459
54		0.29776230199632
55		-0.3276132352351484
56		-0.04727494863621373
57		0.300689442113147
58		0.6657282057852042
59		-0.41303027420205746
60		-0.5889841850650267
61		-0.6459359968240131
62		0.506245170366351
54		-0.2643976357616281
55		-0.08944054975774794
56		-0.3068000452985078
57		-1.2342577116300941
58		0.27426585774155243
59		0.5275618995795143
60		-0.9132452666334835
61		-1.5790369449073753
62		0.21543539785904728
63		-0.07949815734200359
55		-0.3777146511250154
56		-0.20101257416547502
57		0.1071219659088012
58		-1.7546908198584736
59		-0.22258103943615504
60		0.5004988405034714
61		-0.021785350668775762
62		-0.744666306193412
63		-0.7845797720207146
64		0.14797611497954186
56		0.9007397239173526
57		-0.4704087354115412
58		0.2873617723784695
59		-0.8252445730401344
60		0.015455784277175835
61		-1.4621558345134957
62		0.1969983165307477
63		0.15897249204314046
64		-0.9687619072876378
65		0.9294683146293617
57		-0.7965638062887975
58		0.06572854913368607
59		-0.4024185144745683
60		-1.3178277306919701
61		-0.19176902029689294
62		0.3497604427261974
63		-0.6464752643076032
64		-0.3342517735225055
65		-0.39783674993889756
66		0.40023398760655304
58		0.1691934221885622
59		-0.9376153910032632
60		-0.16343061408722537
61		-0.7955231925433327
62		0.36284807279512843
63		-0.12355101632928614
64		0.5446262288626047
65		-0.0746723538170102
66		-1.9155961750515758
67		0.829358078971888
59		0.01715214891520686
60		-0.3649263740505196
61		-0.059883556481038595
62		-0.6659432731797008
63		-1.3946889772368816
64		-0.8459119192102784
65		0.0896166849946752
66		0.15911005073273327
67		-1.8059794669381484
68		0.26499539908762776
60		-0.6606980304995337
61		-0.3339456053934801
62		0.018262971751754963
63		-1.423270801613827
64		-0.2522486310239361
65		-0.6003103704695967
66		-0.644505149126391
67		-0.011658148952813354
68		0.7294612553430391
69		0.4991701529404525
61		0.20607961900650468
62		-0.6722717873415399
63		-0.46701198727167537
64		-0.20927372592818125
65		0.09260216280274512
66		0.11306922648039106
67		-0.28231134558352705
68		-0.06883222253489148
69		0.2675970392494712
70		-0.5326763877103519
63		-0.24874349664244325
64		0.19498813652918814
65		-0.5251756791571395
66		0.21176756836810337
67		1.7736285263137392
68		0.33074901467542267
69		0.13556552629583285
70		0.6374470539804015
71		-0.2610818254260916
72		0.12509174220091746
62		0.16527006239506495
63		-0.03951599677190431
64		-0.9898788731740594
65		-0.29968591474216544
66		-1.1949493528208102
67		0.5542152602342693
68		-0.22160855707239335
69		-0.3974332062280276
70		0.15959807033520648
71		0.5937627168745845
64		-0.1712464807824565
65		0.0025433053904878157
66		-0.20093762378332458
67		0.060700359499447354
68		-1.2900700492165227
69		0.32929191840093974
70		-0.11819548454385381
71		0.2556632134335977
72		-0.6210367831667384
73		-0.3503340344417225
65		0.30029894568269033
66		0.12783651535727536
67		-0.7400402758250962
68		0.25832615534756465
69		-0.7241323156828094
70		-0.5126146126343932
71		-0.8440526001289504
72		0.4688565003473754
73		0.9709356340661847
74		-0.12281296118421606
66		-0.1464976796663292
67		0.5919003947377108
68		-0.07310548254244789
69		0.44717857886654777
70		-0.10582665268936937
71		0.5059472176192804
72		-0.3690008575544586
73		-0.5180357637503568
74		0.9891183493681772
75		-2.508608820255995
67		-0.23380154250465957
68		-0.24706244721235374
69		-0.9805592134096527
70		-1.5052771908311142
71		-0.597624733998071
72		0.13005085529426746
73		-0.20817217309265337
74		-0.082324301625683
75		-0.9670880111763581
76		0.6812745259196141
69		-0.6283681647433064
70		-0.12774283038784767
71		0.1760760780968587
72		-0.35195661459057154
73		-0.19763880625871577
74		-0.019129913399224027
75		-0.7854754785792444
76		0.28377850600159504
77		-0.09031947023237646
78		-1.0076875716325375
68		0.1471805227195341
69		-0.4184625359284975
70		-0.05506447340382413
71		-0.7652314251869606
72		-0.0637312704512335
73		-0.464267031435983
74		0.7957088500337853
75		-0.4301303872630721
76		-0.6123234631716121
77		0.48094750644130607
70		0.1769587983579675
71		0.1914618582072806
72		0.5696921535029114
73		0.23751548562984334
74		0.11703664425017335
75		-1.1487262953798327
76		0.12579094521363735
77		0.37965827157469606
78		0.08004054790150086
79		0.05759138675721875
71		0.8115461535743306
72		0.22457570493304133
73		0.4304841313480052
74		-0.15412703279428808
75		0.2685208811295278
76		0.47010151271030576
77		0.45790790327649056
78		0.08679009895265781
79		-0.33715238379741386
80		0.8224385806833192
72		-0.1920961848727122
73		0.10482864950632764
74		0.5902886204991173
75		-0.057580982752768135
76		-0.20776125463400666
77		-0.6831271335004604
78		0.37376299820470904
79		-0.22068337215909606
80		-0.7947105147989115
81		0.1286505252304479
73		-0.7605748998856592
74		-0.30569262470681985
75		-0.4908440290808484
76		-0.30084896502868774
77		-0.6129021525269045
78		-0.01166807945903693
79		-1.4228552098711738
80		-0.2555445985597335
81		-0.2964932340451741
82		-0.5191014656825894
74		-0.6503108613390853
75		-0.5085285745445727
76		-0.21780562627918432
77		0.3426346959992065
78		-0.5401260214974808
79		-0.5514634485955925
80		-0.2081481296933648
81		-0.3055765004373352
82		0.1445574020723359
83		0.0027785421619522833
75		-0.1699629907248116
76		0.07116891184939007
77		-0.3953027982277868
78		-0.8783013848777551
79		0.19871000226182242
80		-0.09473492744630435
81		0.050182738940258056
82		0.13267815985442652
83		-0.15168740542110207
84		0.4749301197694789
76		0.5213500327416759
77		0.028289871097029958
78		-0.016724710877754248
79		0.6721682355035125
80		0.1426735567789295
81		-0.048949658314490434
82		-0.4680563281914776
83		1.352421166107905
84		-0.2688447332056464
85		-0.1603920673893761
77		-0.5297600103329497
78		-0.09577785911573837
79		0.30251429412147246
80		-0.28464600390336103
81		-0.34624456574667556
82		0.11880963984793708
83		-1.5134978309668274
84		-0.43961277306350593
85		-0.4273620501531924
86		0.42159444067798374
78		0.765170119525083
79		0.8510363517578691
80		-0.05210694495215177
81		-0.1441422176191365
82		-0.2978643481183246
83		-0.21431983994336368
84		1.1138733716320544
85		-0.19891962596399596
86		-0.6810310778513383
87		0.03403335848671723
79		0.4818551627900763
80		-1.468039054495562
81		-0.06484677362245189
82		-0.5208144753368507
83		-0.5853372929411911
84		-0.13924710323301231
85		-2.470905069093937
86		-0.8143369284307354
87		0.5564274066606942
88		-0.814324957209493
80		0.10045053085545586
81		-0.2600160159965622
82		-0.5150176158778899
83		-0.016280688612052598
84		0.12141724900994863
85		-0.06655918307834398
86		0.7801031765580072
87		-0.06642419415282139
88		-0.4898539713258739
89		0.3567711629549033
81		-0.18794785042082235
82		0.17131352045285508
83		-0.13991999533486438
84		-0.6026662017781744
85		0.3048104476844242
86		-0.5997299381892711
87		-0.526802607776067
88		0.428243371983404
89		0.13698480200699037
90		0.68426591688994
82		-0.25138786291309473
83		0.09079921920190835
84		-0.07891838436693135
85		0.012626808260274873
86		-0.1411772573659716
87		-0.5092497036116223
88		0.8407285081813085
89		0.33706703082546724
90		0.4750532413786119
91		0.013876066442650449
83		-0.9159425130706272
84		-0.53632179625769
85		-0.07229608806984647
86		0.24775328430607318
87		-0.22904756723888375
88		0.25453615078633657
89		-0.8088495972756782
90		0.7048193286699013
91		-0.5687506038883299
92		-0.31787073079180844
84		0.3676475483699278
85		-0.035210783455739234
86		-1.267823833891469
87		-0.2548273798159764
88		-0.6366902191472
89		-0.7926019382504343
90		-0.4837824488792412
91		0.8911509120609491
92		-0.09751632984176589
93		-0.27408090922526984
85		-1.1120851709609736
86		-0.09257762456387075
87		-1.1258323400050934
88		-0.2592214938461108
89		-0.024881967048401794
90		0.8298643243163154
91		-0.2638807883670788
92		-0.27816179105292593
93		0.060186394736618125
94		-0.053110839846624056
86		-0.26210308283756895
87		-0.20742278196864647
88		0.45315877439274227
89		-0.22218302488784475
90		-0.2652133930437084
91		-0.3205159548590252
92		-0.536025722824816
93		0.2136758481310857
94		0.6441145035541467
95		0.08743381248344603
87		-0.3582166321131688
88		0.21613389569756877
89		-0.1956685388542467
90		0.1711254387484331
91		0.16920334417920563
92		-0.3759078092823286
93		-0.33571016041459606
94		0.4993619493730083
95		-0.04449658651275855
96		0.0204170381300269
88		0.9864147091088106
89		-0.49762598360630783
90		-0.5873893916490804
91		0.26205216027865114
92		0.16449086604195043
93		0.26303842187152754
94		0.1871885199945135
95		-0.11291152564931363
96		0.26222447462336285
97		0.7040221505085864
89		-0.29555336665952736
90		-0.369438698023235
91		0.5337727517507408
92		0.015857595109038995
93		-0.38137301306169685
94		-0.07867853310374771
95		-0.7906692998357608
96		0.07391372240697189
97		0.04615787993106312
98		-0.039039355845721165
90		-0.0074757898128780115
91		-0.6498487411091598
92		0.3977172817633824
93		-0.5408395061258694
94		-0.16736231597224077
95		0.5165102449012087
96		0.0317527136278917
97		1.1959821727090016
98		-0.946058393361984
99		-0.3740462264098949
91		0.4561614373305139
92		-0.21066591160578346
93		-0.07409634060124554
94		-0.6874067623822842
95		-0.3122175038089396
96		0.5877938109562376
97		-0.5568900604364105
98		0.3559075921129261
99		-0.7370456500031375
100		0.4693865486735633
92		0.0794815307492116
93		0.06021331997971865
94		1.2374293191404624
95		-0.5567805156660568
96		-0.9779133500523668
97		-0.5412657450809499
98		1.0967797686968461
99		0.6454062866336795
100		0.8455885331364428
101		-0.2412991437448218
93		0.6303485463145704
94		0.11481266545101161
95		-1.077105668715826
96		1.7891554271668275
97		-0.32426854812346095
98		-0.11930401439060992
99		0.5998500829122638
100		0.22988382834475893
101		-0.7263279675810084
102		0.18936166936298268
94		-0.011047068090859116
95		-0.14997984024970626
96		-0.6051493201312125
97		0.1115527956616774
98		0.6657612532584777
99		0.011571275368684408
100		-0.3805105031332323
101		-0.5074467453942539
102		0.158739049074164
103		0.26291295712659174
95		-0.42757770309371074
96		-0.007759289672529095
97		0.9803970348956991
98		-0.00888980346138433
99		-0.9500472655571028
100		0.7207148649908193
101		-0.7515148780980847
102		-0.3225393680391929
103		0.23266606742327364
104		-0.9916043304335357
96		0.2930659951033146
97		0.4423344737146566
98		0.1720796565513434
99		-0.26209185934001467
100		-2.02475467724844
101		0.27031772485940475
102		0.0587831991806333
103		0.22932934813045086
104		-2.232852677707399
105		0.1250252711907346
97		0.01683387527549178
98		0.33734141300723697
99		-0.11099823302465808
100		-0.37948192643942996
101		0.42219146855046674
102		-1.2589930019966962
103		-0.0867075730108002
104		0.25272691785698653
105		0.5461925041789327
106		-0.27202301642124466
98		0.023731774029305666
99		0.43922002627531576
100		-0.40063627364554494
101		-1.314395422719756
102		0.06588254409798464
103		-0.32566872461357527
104		-0.053173519196831505
105		-0.41737552642314346
106		-0.31788652180203697
107		0.3786096003929907
99		1.0138765783444754
100		-0.2834659887355074
101		0.37507400776821204
102		0.22481428254263258
103		-0.1412633235346345
104		-0.1087104238995976
105		-0.3456946681508006
106		0.1833784972124167
107		-0.3686860142894204
108		-0.0631304744392491
100		0.1390896654134977
101		-0.09213780912003901
102		-0.45624989058862336
103		-0.6530211671228067
104		-0.6512637813132163
105		-0.3522766212956266
106		-1.2129061690876886
107		-0.09832609552524532
108		-0.4037290616754323
109		-0.6369727104273426
101		-0.10463338511606417
102		-0.3152100036565612
103		-0.154943569343943
104		-2.4040190099221284
105		-0.4064295087614308
106		-0.18579524001067832
107		0.0013581193522326522
108		-0.7057872029429079
109		-0.012867501728971924
110		0.4671480879996973
102		-0.01817628418405235
103		0.0717288762643444
104		0.9043983955429832
105		-1.3925385058113517
106		-0.6161161277641082
107		0.9050489019149095
108		-0.08207076016970072
109		0.5790612071270177
110		-0.7955231763850068
111		-0.07939129661787662
103		0.2662510698320383
104		0.23824796026748996
105		0.15117113287228262
106		0.8003588993850578
107		-1.0269691702056207
108		-0.5229789523973905
109		-0.906292533277155
110		0.4969284457417828
111		-0.27817847706201854
112		-0.5482643176179609
104		-0.12839402312884732
105		0.23967681808374
106		-1.2993650944691246
107		0.839007668410574
108		0.16522518930337535
109		0.6356041943097064
110		-0.13454764595135327
111		0.1305482543382014
112		-0.15564039434851584
113		-0.30870760699356203
105		0.32340997077296885
106		-0.2400265787774499
107		-2.3496972834690486
108		-0.2274452105314129
109		-0.41200374480883006
110		-0.2373382326205892
111		0.37233356263659784
112		-0.7031046580528015
113		-1.0428835792757727
114		-0.6195658991483657
106		-0.04838765667623582
107		0.3410408935030084
108		-0.7301082756809507
109		0.721857740049728
110		-0.03965071161900285
111		-0.2862461073746663
112		-0.49304142998891237
113		-0.40351866088705357
114		0.13648040898686742
115		0.8103605027774372
107		0.019594704582351102
108		-1.813106649526443
109		0.15030645546035873
110		0.41811824172094336
111		-0.4027326360833411
112		0.5113162617661079
113		-0.42917785044266527
114		-0.4363549358335937
115		-0.5393283951534377
116		0.27032001326138716
108		0.14685524534664168
109		-0.06786093128093543
110		-0.4105577279150374
111		-0.7585003012581425
112		-0.7605456745430547
113		-0.6726812037149379
114		-1.0836181395779154
115		-0.7120543740556781
116		-0.3165343797076852
117		-0.7913451194626003
109		-0.1463208292703041
110		0.338816433382132
111		0.22628653409657817
112		-0.8648015093892361
113		-0.8491295477097957
114		0.05906907368953522
115		0.19680436922577377
116		-0.31026196311690457
117		-0.0018706936831374237
118		0.7970584776843376
110		0.536722392095164
111		-0.6708657682854441
112		0.14390728070556266
113		-0.46238248072146787
114		-1.3132256770664807
115		0.1395697306660776
116		0.047535899880234024
117		-0.6780281804990969
118		-1.6212692926845615
119		0.1848959705260713
111		-0.47018423134817994
112		-0.44600598086097126
113		-0.07974229993263897
114		0.7181176047810357
115		-0.42906322081028136
116		-0.00766791048314917
117		-0.2448178150224465
118		-0.6584508275534511
119		-1.4729529851870717
120		-0.7026691155605154
112		-0.7797257590047786
113		-0.8231624818887845
114		-0.15450380859702442
115		-0.7841332301553052
116		-0.002693052146919616
117		-1.5595605108490491
118		-0.016241208828956036
119		-0.06733755555482493
120		0.7122756535091848
121		0.3471911861707514
113		-1.4860277453629103
114		-0.04375496827477379
115		-0.6745854422730154
116		-1.2251448701121987
117		0.10150330102689611
118		-0.4688663878366926
119		-1.432968725092302
120		-0.10012158264513188
121		0.05500603441392417
122		0.0069011658971567
114		-0.220640845982052
115		0.18754819350729818
116		0.7423738366230372
117		-0.29070969320001827
118		-1.8857275154252622
119		0.13099298932173356
120		0.2192376957717633
121		-0.7632518835440945
122		-0.2624782431973833
123		-0.33530825180524315
116		0.7840448940616302
117		0.26291335353367434
118		-0.14179557746263743
119		0.1349959357959668
120		0.1868038527936065
121		-0.17067392229870476
122		-0.5650708476324982
123		-1.0249154446522395
124		-0.3433134899865438
125		-0.4130302748182352
115		0.022450700013695167
116		-0.4192898686986525
117		0.33604741413012634
118		0.5364626058392988
119		0.17348212219163883
120		0.13046862421103064
121		0.1315551203241843
122		-0.300569119265858
123		-0.23579651787886163
124		0.7936093965955539
117		-0.46305150030488385
118		-0.6167545259622883
119		0.5094835884195177
120		0.021391417669934572
121		-0.10454971802792147
122		-0.07531875927419765
123		0.4784504467175538
124		0.20844706486452422
125		0.48534076874283005
126		-0.41342591009755403
118		-0.3051151329244639
119		-0.7643135557919779
120		-0.5591190705549278
121		-0.33395667796069683
122		-0.18329348301908072
123		-0.18062054121954066
124		-0.6342016673355386
125		0.7063854330386311
126		0.16862979318723487
127		-0.025548696544098276
119		-0.24808421331996003
120		-0.5859440654768229
121		-0.4508096747728719
122		0.3251459731257236
123		0.47110360644630406
124		0.2172477618705446
125		0.9131420092313515
126		-0.3391795460313046
127		-0.015404665019956769
128		-1.1534973153639463
120		-0.3051372344783478
121		-0.5967729109748903
122		-0.4118898572465664
123		-0.436729522384842
124		-0.5797507707410762
125		0.19658877838120725
126		0.15141337335295796
127		-0.1659491535869415
128		0.47196377854619903
129		0.4151075405628439
121		0.10915942376973116
122		-0.05291897274669341
123		0.13176903349457908
124		0.0018403972065319312
125		-0.09754560168011321
126		0.18716731929455427
127		0.07668272836184734
128		-0.3353593143625769
129		-0.5289505448582823
130		-0.029068723896546706
122		-0.020854716962810667
123		-0.11457180436009594
124		-0.052616954824476966
125		-0.31734269109515006
126		-0.13874998640497113
127		-0.09466845573675184
128		-0.14254539238445632
129		0.5375754226815834
130		-0.0027974431279437022
131		-0.2998493353531241
123		-0.4210961592930341
124		-0.3552690144490766
125		-0.49147739316664424
126		-0.010802557982388581
127		-0.14878571058267726
128		0.19963613426667967
129		-0.16042771943810358
130		0.24250199134550007
131		-0.8518357130337011
132		-0.17380058410498786
124		-0.718608899825572
125		0.2587708980112797
126		0.837746402236242
127		0.781601503097065
128		0.24128222150646242
129		0.17788590050013942
130		-0.19613089183770976
131		-0.4340434151230659
132		-0.9421563492095029
133		-0.17019396864552785
125		-0.0015329322418444436
126		-0.19170248498518644
127		0.25554305519375986
128		-0.05839033708231917
129		-0.6708657683658638
130		-1.0417793744027894
131		-0.842713088123547
132		0.8002699515081948
133		0.6596599252950164
134		-0.686859316979817
126		-0.4282535768617823
127		-0.6476367866133387
128		0.014278314824374506
129		-0.19120533758602098
130		-0.47391331179542706
131		-0.02464293336092272
132		-0.372479369133085
133		-0.6868593166408058
134		-1.0549596687555967
135		-0.2074227794092258
127		0.2573953433398055
128		0.08364760029633886
129		0.02643188438507644
130		-0.14305589057063878
131		0.18875960252561738
132		0.4477186275655435
133		-0.49194982811605875
134		-0.2578472362768902
135		0.10194237950729573
136		-0.6242723114363948
128		0.3006056226059746
129		0.5578428026184153
130		-0.27840795187325995
131		-0.4928899579128063
132		-0.23333895816704533
133		-0.028349651834804677
134		-0.6466360359880395
135		-1.2448935192839126
136		-0.22763457162761752
137		-0.8977695508015088
130		0.16303362563381774
131		0.05992379213366877
132		0.45988369468711365
133		-0.11406917882300707
134		-0.14351119082749494
135		-0.8909352635508797
136		0.13328098126220259
137		-0.8660554963856885
138		0.26575560617020955
139		-0.1372250586899304
129		0.34520386044423435
130		-1.6156376924781102
131		-0.31804519231765443
132		0.305137598648785
133		-0.4983452355520902
134		0.543167983139472
135		0.2452785523869947
136		-1.6156371082411245
137		-0.18536002340872698
138		-0.5239956824607773
131		-0.00831265965024185
132		-0.07404481569438698
133		-0.014788641361827757
134		-0.544560758895233
135		-0.3421103367761321
136		-0.10689387963045921
137		0.90364196890902
138		-0.3019543236767937
139		0.08872343796975214
140		-0.3681521509116227
134		0.4360529687466937
135		0.30385889903418933
136		-0.401376112556053
137		-0.2051519937696363
138		-0.37534404236950775
139		0.438221758758111
140		-0.5259360360975206
141		-0.22203322740039885
142		-0.6034118654909262
143		-0.23683250241722906
132		0.11803356844075384
133		-0.34871409510402873
134		-1.0570596507623202
135		0.14149574005304608
136		0.18895431816709268
137		-0.4678225657644223
138		-1.5666688263212916
139		0.4919026651088247
140		-0.148152493666738
141		-0.3450669730459588
133		-0.03098264265460962
134		-0.3989357526810013
135		-0.038634230183616995
136		1.1187758633547649
137		-1.2087765510989121
138		0.32284416110857
139		1.0962727470357343
140		-0.16630291508077016
141		-0.0020821743739630897
142		0.06765264825373696
135		0.6965173239625918
136		-0.24400626902712447
137		-0.8198187066531527
138		-0.01248394702538158
139		-0.2760577924408589
140		-0.1968500957803312
141		0.1877733573595344
142		0.046520174667754044
143		-0.24656405651755267
144		-0.0378858495102151
136		0.28025345451312295
137		-0.8984398607219783
138		0.4874548074054521
139		-0.21483137870122182
140		-0.47830610947403035
141		-0.4715923398944002
142		-0.14159808539010996
143		0.5897303012342389
144		0.30001612096571567
145		-0.2654220674428884
137		-0.13349305403508727
138		0.25990250271973103
139		1.041103125886645
140		-0.08014456703955405
141		0.4303014979193452
142		-0.31991692900768376
143		-0.9576744701115792
144		0.41800804474380315
145		0.26063096543194175
146		-0.6522999918776637
139		0.7655462620652044
140		-0.37502822491797055
141		-0.5532234169059967
142		-0.6037406241650214
143		-0.2520558438268475
144		0.32374651957186706
145		0.00222054375068076
146		0.07328258620045239
147		-0.100563604879806
148		-0.11118171085621618
138		0.23864387251060015
139		-0.5520895725973335
140		-0.17640912215928328
141		-0.05035259484477774
142		0.1875479750064808
143		-0.8887532781028789
144		0.5822200885545602
145		-0.33171742731725784
146		-0.4493107225630142
147		-0.4723128359817032
140		0.09563531681975854
141		0.22901439670534574
142		0.14895111831854796
143		-0.409804102992301
144		-0.637693012566458
145		-0.45892736110743176
146		-1.5956332606294519
147		0.6747535422063387
148		-0.08528645503601957
149		-0.25795820404341807
142		-0.44693427826686666
143		-2.4142978634996743
144		-0.4862664654817174
145		-0.39845970889919347
146		-0.45373162670142925
147		0.2827400402111089
148		-0.32203304981268605
149		-0.03532297908148952
150		0.012038265894850173
151		-0.6803574608746487
141		-0.3051151263254074
142		0.2890674917542877
143		-0.33115965203830183
144		0.5391277242341702
145		0.024432108131285664
146		-0.414549185479073
147		-0.04754225097918158
148		0.004794195885741014
149		-0.24603133586376116
150		-1.383691297478443
143		0.23433686564082637
144		-0.8442927535852413
145		-0.23413763975379223
146		-0.6893527880812758
147		0.005146995374733336
148		-1.3914560451472753
149		-0.15378511242759088
150		0.43523575581158813
151		-0.9407543632749952
152		0.3778741173219756
144		0.21658888886445743
145		-2.009448024411568
146		-0.3710241579247598
147		-0.8159785925146315
148		-0.3969437545462457
149		-0.29424424075914
150		1.0382162911075126
151		-0.31801179489872033
152		-1.2036122400318556
153		-0.2732779220356916
145		-0.11843409188971568
146		-0.7238299754367123
147		0.06115432413109817
148		0.8981037115088717
149		-1.2620909749084244
150		-0.2862669737010751
151		0.3234098048455833
152		-0.5561065078490436
153		0.0374679681625574
154		-0.16510133350991188
148		0.3006894428394282
149		-0.19084474962193773
150		0.07118906499119132
151		-0.2370605526308522
152		0.11092178710597243
153		-0.4374651879309013
154		-0.06926902376290892
155		-1.2230775811546142
156		0.5385489811602491
157		-0.27713688659868935
146		0.17595356519239805
147		-0.14401764789953786
148		0.07967101481724222
149		0.09515308021253252
150		0.41623116915000563
151		0.2157127620981133
152		0.4274146553873158
153		0.5051376465668863
154		-0.7260155127993148
155		-0.20721716887990113
147		0.7667644074256609
148		-0.3154415072429284
149		-0.2863803149821695
150		0.034157933775005866
151		0.6483505188943987
152		0.16326843930780346
153		-0.07778004866093911
154		0.4843314586837474
155		-0.07419310932083906
156		-0.117058542155815
149		0.6502886648801844
150		0.26571131542341897
151		-0.4210961775131825
152		-0.0293100424401463
153		0.2292613847463099
154		-0.23133946264412683
155		0.5059971272525113
156		-0.6755235313306381
157		0.29577931788328493
158		0.6735566839489265
150		-1.5489383738909124
151		-0.6460796093137782
152		0.7963884764684971
153		0.5629572511376145
154		-0.4559584397030018
155		0.16458412573439105
156		1.001609564368706
157		-0.7961518764342201
158		-0.8369014390344628
159		-0.047848779632272145
151		0.2223061313414156
152		-0.15193891714397953
153		-0.1794947784991045
154		-0.5855233813034992
155		-0.3985279313864123
156		0.26310968427899767
157		-1.2048540153838072
158		-0.1272465167657619
159		0.4084240993191358
160		-0.49791672708517326
152		0.027081413479967432
153		0.27380405902044763
154		-0.31544297586674963
155		-0.005447282688132397
156		0.6843856574811131
157		-0.32467895024868293
158		-0.39134398886265837
159		-1.275277708382314
160		0.0018535706159813665
161		-0.6132857277148092
153		0.5244510466873522
154		-1.4601083823857668
155		0.6878301749034235
156		-0.24359671443186848
157		-0.5370236064079391
158		-0.7853950765734369
159		0.11671470007315526
160		-0.03845528595075821
161		0.6520865579074707
162		-0.1223108537756307
154		-0.40132107259677163
155		0.12344398182752245
156		-0.2739023470309761
157		-0.23605738034624874
158		0.43793051827937024
159		-0.7639164051556657
160		-1.0127486354591557
161		-0.048195852012348266
162		0.13872961782817658
163		-0.39713730700990824
155		-0.29781522883271755
156		0.36133701503195664
157		0.3533468470942391
158		0.9889982084555863
159		1.3094128434076786
160		-0.48434788719568767
161		-0.050908277780441005
162		-0.03980710730140363
163		-0.12362476720202192
164		-0.24313633875875748
156		-0.7153557914021833
157		-0.4052001976499354
158		-0.1294231758964454
159		-0.3007979690926553
160		1.0411034639583645
161		0.7954132291846653
162		-0.2945370061703486
163		0.08523396265979792
164		-1.9231666716186713
165		0.2280273247301365
157		-0.03701675056228329
158		0.5698007696554936
159		-0.15378510483441563
160		-0.4208451521053396
161		0.01616483863978862
162		0.3595512157130381
163		-0.40289218806941235
164		0.15073705587474487
165		-1.0267920405039481
166		-0.5385683757206529
158		0.3836862429524653
159		-0.5843988455954748
160		-0.28941751506462865
161		-0.09970682908574374
162		0.011648913484126678
163		0.366248496703074
164		0.24311551714275567
165		0.21509115956950153
166		-0.6459895365131066
167		-0.6959640419817167
159		0.42936621390524654
160		-0.8533944480920367
161		-0.5380496625632325
162		-0.37590780962743764
163		0.391259418131798
164		-0.7302343181861127
165		0.16753494418006515
166		0.09926183913582098
167		0.5188400096922247
168		0.1139148049666377
160		-0.5906598645613692
161		-0.46274002473509457
162		-0.19819139792999463
163		0.062301481555833794
164		0.30646263482908487
165		-1.5134979858857012
166		0.2776228363067881
167		-0.17893684021768708
168		0.0330085308015484
169		0.2687728480288191
161		0.09875337937192892
162		-0.5577597503330829
163		-0.6200663640814094
164		0.2804955055734546
165		-0.44136555545395295
166		0.5330573157969198
167		-0.6738252182381234
168		-0.43961446049616365
169		-0.01829098719453933
170		-0.3983106432823551
162		-0.027619988223041934
163		-0.542257056885816
164		0.010676536586776225
165		-0.21503183367155715
166		0.4517994959525211
167		-0.2917957560661129
168		-0.5585381757490445
169		-0.43095782415869316
170		0.3695153411018554
171		0.09823986967577522
163		-0.17846136579701807
164		0.3642191076664157
165		1.0079338959734372
166		-0.809285746142796
167		-0.14492217498975382
168		0.3525043473493333
169		0.2552053959715172
170		-0.319734124977855
171		-0.152280846468611
172		-1.0377926716889943
164		-0.851779959378151
165		0.5816291918100639
166		0.26708580596405523
167		0.280324091157421
168		-0.4088926649026576
169		0.747186720613706
170		-0.23634034166648646
171		-0.05299548452414067
172		0.12168063328101156
173		-0.39860774128572757
165		-0.8415731673115283
166		0.5860356089932652
167		0.12311517417807644
168		0.379743045574043
169		-0.774617037658699
170		-1.6014296478425896
171		-0.24339921558523722
172		0.07220857624453253
173		0.22832053904170246
174		-0.22887098133117334
166		0.32338916004193274
167		-0.27330966367158394
168		0.14357825555898973
169		-0.05159011038213294
170		0.061281009735599835
171		1.1650305154480833
172		-0.0842521791710428
173		0.39091769157668005
174		-0.23498656441859522
175		0.27163246681496755
167		-0.718369968788647
168		-0.13737217817209132
169		-0.25546608913030033
170		-0.4631680470888444
171		1.1096167192122164
172		-0.04072936805943339
173		-0.4865380392011205
174		-0.7775320996724467
175		-1.0033321561649329
176		-0.16239358845940036
168		-0.2130177298189328
169		0.11374499526878244
170		-0.22446091693271064
171		-0.35390411113560666
172		-1.1461754953996466
173		-0.5653732901749835
174		0.17218710506468046
175		0.40761604113102856
176		-0.204721902739668
177		-0.3220080019783995
169		-0.293552669926915
170		0.03522861780602363
171		-0.7096487923212199
172		0.3263284538200783
173		-0.07017827075091737
174		0.10681420364263215
175		-0.41827390698828504
176		-0.16895867361864755
177		-0.42355389518589104
178		-0.9978438924166511
170		-1.819440534949442
171		-0.7410817134666657
172		0.1159612386847603
173		0.4186679305629845
174		0.47533802239016265
175		0.2682796275587923
176		-0.270174464718132
177		0.9622933179493574
178		-0.41979773714523
179		-0.48414290430607515
171		0.7165840356896922
172		-0.3908939983364255
173		0.2517904873809068
174		-0.33208123415743795
175		0.2710033287970047
176		-0.303748122919684
177		-0.823161130789264
178		-0.18547798520172376
179		0.7496271944174614
180		0.08282579210536399
172		-0.24840129986585913
173		0.0957167044291542
174		-0.02137111104051497
175		-0.6634006575098167
176		-0.06010646822418192
177		-0.4646802663280041
178		0.4103947321917346
179		-0.7860999289077618
180		-0.15609799279784115
181		0.05960662397103607
173		0.15348151430089704
174		0.7412184481099325
175		0.6533045060284095
176		-0.27236359927087966
177		0.2892220516980614
178		0.1389731258670103
179		0.12801607884026503
180		-2.8266395404239573
181		-2.196315389532543
182		0.5916928183405529
175		-0.36094551594561947
176		-0.4380254634800578
177		0.4010284181205551
178		-0.4361528233712024
179		-0.08708283001692159
180		-0.4207591273339062
181		-0.33774850957049357
182		-0.20077830385476864
183		-0.6698301800005478
184		-0.6756806962690804
174		-0.2870276285838316
175		-0.5715761037672799
176		-0.25037441102522523
177		-0.43266228625333714
178		0.7889315390643931
179		-0.0362363007159896
180		-1.4009005172112057
181		0.26291317080910426
182		-0.47363872922878625
183		-1.2868096897559254
176		0.24166994171784514
177		0.6932274129193295
178		0.7886549884862721
179		0.05515158612717868
180		0.1377648255264136
181		0.3237465437689318
182		-0.2763705133735342
183		-0.1979374025714575
184		-0.35465990713410517
185		-0.1705444818368992
177		-0.07317999774092361
178		-0.5824409271225821
179		-1.3312221174923686
180		-0.10331300941540984
181		-0.06496799246728062
182		-0.03562786891627324
183		-0.818015807463564
184		0.4117413619759917
185		-0.03285407930630526
186		-0.2920868062427062
178		-0.2787870215511677
179		0.9067540930930981
180		-0.221698699833303
181		-0.10196606617198171
182		-0.06609151912602436
183		0.309748538151007
184		-0.2540963285272976
185		-1.4419745109985367
186		-0.429058139583689
187		-0.5000748465842235
179		0.049665112809336796
180		-0.6826676832123414
181		-0.5418777267329632
182		-0.19175285111215187
183		-0.13876259364796853
184		0.9628333404879136
185		0.21795604797947973
186		-0.5788361367594409
187		1.074746639666092
188		0.09808349214605311
180		0.07718140229913519
181		-0.1709995423113764
182		0.2609149819436783
183		-0.06074399050716712
184		-0.189766921162981
185		-0.15836650320195694
186		-0.42431958518537016
187		0.8297225146289051
188		-0.5229668140087486
189		-0.08072349369230193
181		-0.3398218655088614
182		0.21562340561062557
183		-0.4060381128405543
184		0.4543442029951265
185		-0.8648016551037926
186		0.09218814656065583
187		-0.919467140768298
188		0.034362638392307146
189		-0.5557029864102554
190		0.33009184900751815
182		-0.33281123249334266
183		-0.4878070910887344
184		-0.48692921225596636
185		-0.21654955414918062
186		-0.18849574290378115
187		-0.3433134817022032
188		-0.49334818502608374
189		-0.7052935608008836
190		-0.6748331049394616
191		0.10150330198761554
183		-0.3125666765975024
184		-0.47089375480659884
185		-0.3519566009321048
186		-1.2305754278922179
187		0.1110070327475316
188		0.19108282224795684
189		-0.3180448679833831
190		-0.21641399420717816
191		-0.2260154396565233
192		-0.46887079296738093
184		-1.3947375301682785
185		-0.12659764925915531
186		0.38959259173701244
187		0.6238647346970954
188		0.17591398330489094
189		0.27636828185971996
190		-1.3837715747101271
191		-0.11194675176998248
192		0.47124045225124706
193		0.21350370696889678
186		1.1224878866272703
187		-0.23301074418242276
188		0.24204752568878513
189		-0.0880332772903915
190		-1.0867875075385918
191		-0.2826441475803186
192		0.3932300068921027
193		-0.3331662540542263
194		-0.24880877059539566
195		0.27422648649366715
185		-0.012090842313162672
186		1.076106795754719
187		-0.11659919900200978
188		0.2189374336983826
189		-0.6424439553758349
190		0.3357503639851201
191		-0.09848129246355992
192		-0.1081727526604746
193		-0.21709002200511504
194		-0.14608584494557025
188		0.01596215845758481
189		-0.6520511892932336
190		-1.2588182934585823
191		0.19668352347595866
192		-0.04592811858623921
193		-0.07511757292495708
194		0.10342296917287838
195		0.9968915975237388
196		-0.15501227539927234
197		0.29664915503331846
187		0.05577660423817587
188		-0.05330573362113146
189		0.20809210034108566
190		-1.0293748978238415
191		-0.3239375947353249
192		0.8659369256860705
193		-0.4822420115304123
194		-0.19209631961287293
195		0.34495707738653614
196		-0.27090193581627836
189		0.03782392437782462
190		0.27286558334247185
191		-0.40904090823281103
192		0.47625672993361806
193		-0.5567390053111718
194		-0.518124893404305
195		-0.01658364910509055
196		0.357230337940144
197		-0.8398636744645251
198		0.199431111599837
190		-0.40390601272406296
191		0.3931252181891864
192		-0.13474543036913836
193		-0.5233356996436657
194		-0.17089840520785446
195		0.17276007795304085
196		-0.6606980328348798
197		-0.15244059537834773
198		-0.32925399673752087
199		-0.950453639711222
191		-1.0791718568067197
192		0.64342270099483
193		-0.4187990112667307
194		-0.39868503362788554
195		0.24417238233570776
196		-0.1709123773153625
197		-0.8586054339141053
198		-0.6476366853280723
199		0.05750850753437387
200		-0.2683096433361239
192		-0.2929328504322227
193		0.6953060928431888
194		0.3586359666784014
195		-0.5424162490963299
196		-0.20877759692141348
197		0.2208433454034271
198		0.10895179834968644
199		-0.20149244732790741
200		0.27493388778075245
201		-0.21877269532595706
193		-0.7694469345269834
194		-0.30359033020760917
195		-0.6974806032539362
196		-0.8471651417891147
197		-0.019957173986105168
198		0.28269390803356315
199		-0.0253652074131714
200		-0.2972317449959538
201		0.04374280014652842
202		0.27714323947326486
194		-0.45056938603056235
195		0.23093899848768612
196		-0.751129483306324
197		-0.1323090478582354
198		0.32484528658600836
199		-0.05638558475770897
200		-0.12686323489467294
201		-0.2797778633078235
202		-0.3778685187802335
203		0.041994197107157315
195		-0.035510931830879576
196		-0.5595159954603065
197		0.5660207911213249
198		0.716673709209754
199		-0.20966975915440778
200		0.938434731813137
201		-1.6438993571641103
202		-0.8239027592635836
203		-0.3051372592731811
204		-0.30904063060636244
196		-0.5175412739315784
197		-0.3527322942331611
198		-1.486026140562771
199		0.33919717599799487
200		-0.2670563039562418
201		0.7934981341349718
202		0.12785215979522788
203		-0.3195250015269444
204		0.363264024946146
205		-0.4488641100175376
197		-0.19228485867809128
198		-0.48892784325626143
199		0.12133786272849224
200		-0.5202629718333189
201		0.23979103026437484
202		0.03362361191216629
203		-0.27935738737934324
204		-0.15189923547070147
205		-2.2882592300297966
206		-0.7911787258529346
198		-0.8612090356471988
199		-0.0012766469395363504
200		0.5275619202395905
201		-0.5227568333571685
202		-0.07180659605356049
203		0.17833611124937687
204		0.5915209910502358
205		-0.27494708706034704
206		0.3423535944908306
207		0.23267836863024452
201		0.16483215258029668
202		0.4969325106141798
203		-0.49291733998616644
204		0.3017697609871307
205		-0.16823468593971275
206		-0.31986777125686505
207		-1.0583222324790393
208		-0.9447149774142529
209		-0.09930812933404673
210		-0.7558435984464381
203		-1.0921001449495478
204		-0.46895706146718774
205		-0.2902717256221155
206		-0.06543253412324247
207		-0.7635883395763751
208		-0.2814894366081726
209		-0.33153740028274226
210		0.18342406186763338
211		-0.7465875854741897
212		-0.10222043517944718
200		-1.5067958228338099
201		0.547486499009386
202		0.9724350282818274
203		0.5035725491263788
204		-0.5545965225856452
205		-2.5550001785130316
206		-1.7768104270857004
207		1.52905626345717
208		-0.14819655859347072
209		-0.20937663352996302
199		0.2839396583560846
200		-0.3409591828773859
201		-0.5418777340259116
202		0.3790006517757951
203		0.006922736221293235
204		0.005259189060560314
205		0.18433391754543496
206		-0.11223543970474731
207		0.2558303146638299
208		-0.5129175859736199
202		-0.22719207812250192
203		-0.6169931522529355
204		-0.4769714375816974
205		-0.4047644748110335
206		-0.3378498010991634
207		0.7560251969449475
208		-1.6337386902735134
209		-0.40342302850257666
210		0.061365399723151706
211		0.03052632751057886
204		0.24451568125871728
205		-0.4546525512599832
206		-0.2624022830693674
207		-0.5948421504708776
208		0.3359524890838431
209		0.44238184825398386
210		0.24547168408510367
211		-0.05075976711642309
212		0.2978445660511528
213		0.304368067747924
205		-0.15071772766544997
206		-0.2826130838852861
207		-0.5328674922207334
208		0.6145936829182133
209		-0.5891217915874551
210		0.14278843882600503
211		-0.9374763005151782
212		-0.0325181701876652
213		0.553691192664704
214		0.4498899091468011
206		0.4518101801344068
207		-1.2420416939430823
208		0.6426604251173422
209		0.027254254625707963
210		-0.22525930256222493
211		-0.2523956854775439
212		0.4324476499903818
213		-0.12919722933980513
214		-0.1055702798709731
215		-0.3869605672856444
207		-0.1640887083771326
208		0.3154413532051865
209		-0.2843851945566692
210		-0.7678677779142423
211		0.10282442127030457
212		-0.22671636095640688
213		-0.08410593867856798
214		-0.9649693673280823
215		-0.4855994317168472
216		0.13866452197148849
208		0.7608475473335552
209		-0.26537382808490617
210		0.7865277160585974
211		0.037650494332332515
212		-0.5068116443683398
213		0.4025168302476604
214		-0.40207282447545845
215		-0.5545683259698225
216		-1.3370215673682386
217		0.6045424391102234
209		-0.9780852543686712
210		-0.3578974496033754
211		-0.24984439753137122
212		0.6113447948073603
213		-1.2266016668832331
214		-0.4579199719883065
215		-0.00767840778803603
216		-0.2170691435496008
217		0.35841554247838736
218		-0.12686323493757068
210		-0.012048858499019873
211		0.6561754792229961
212		-0.25539887645798054
213		-0.20807998449628773
214		-0.6544639796941728
215		0.1705054186987961
216		0.08282491482924019
217		-0.3443672424572127
218		0.09215660942742511
219		0.28204450965708106
211		0.03267116270958038
212		0.619266465510497
213		0.7104168767325477
214		0.07142349092488176
215		-0.14388705241157732
216		-0.24345367105393598
217		-0.4027326549303275
218		-0.15009211378321707
219		0.4833238028380889
220		0.7274405459352324
212		-0.520159631600893
213		0.1850839904652399
214		-0.34314504799937634
215		-0.6293482277469757
216		0.770272282708396
217		-0.3748047292540393
218		-0.12894705527493308
219		0.40242525167935755
220		0.29713564316103663
221		0.13749305464015454
213		0.014685543811352413
214		-0.01077195379038308
215		-1.022015059156711
216		-3.4093975098847484
217		-0.46252896873012733
218		-0.7019301450829093
219		0.5705345197808508
220		-0.3183547986812608
221		-0.04974880137576628
222		-1.709490019956567
215		-0.5507551676410279
216		-1.1529448109391318
217		-0.31212293912184397
218		0.4382412042562629
219		-0.07689848523768822
220		-0.3329532051380458
221		1.1666405264230304
222		-0.5813332083148256
223		0.08122654416819093
224		0.11557710724853912
214		0.7048193406945943
215		-0.3556325041172541
216		-0.18992872111786885
217		-0.6623543752072101
218		-0.5499879043222289
219		-0.1856389394588093
220		-0.07319143732919002
221		-0.7204255717387409
222		-0.17915744940620026
223		0.3356996026724141
216		0.4217087134966327
217		-0.5916162869585755
218		-0.49075665536788415
219		0.44522707216236307
220		-0.09986441268662276
221		-1.6575773149697355
222		-0.09833055597888564
223		-0.27206171525699635
224		0.026388006375713254
225		1.1491495697248177
217		1.0411034480574852
218		0.2735960004084908
219		-0.5515267205038397
220		-0.6633083172319543
221		-0.437884469943155
222		0.6333239720665736
223		-0.6800318034440012
224		-0.1406257899067448
225		0.9656014275096382
226		0.589856622946107
218		0.08491167384099833
219		0.1499542885535924
220		-0.1945762077576241
221		-0.3297667405802031
222		0.263532199011843
223		-0.03110190272785029
224		-0.4081793986480801
225		0.6725153333294206
226		0.05991978178983265
227		-0.3699672102640303
219		-0.8812841699938913
220		0.6596599491991425
221		-0.8247405864134573
222		0.024039471434905153
223		-0.6466389702137971
224		-0.31224006981042735
225		0.2805955787616933
226		-0.40013310125033896
227		0.3528384153549991
228		-0.14206099376065387
220		-0.29365722768045194
221		0.009641455292556058
222		0.8990160725254654
223		-0.2983584687118541
224		-0.27244002939705964
225		-0.25155165534075774
226		-2.173713795083189
227		-0.0705266033899581
228		-2.2057884399522383
229		-0.36040018891735315
221		-0.20520751274818205
222		-0.25586470872624345
223		-0.31020237705147985
224		0.6407141277859301
225		-0.7605749351116854
226		-0.29817312071268565
227		0.23152993780280956
228		1.6910982406711388
229		-0.1688381518069585
230		-0.3378497759703218
222		-0.8663344890029159
223		-0.0591782307131371
224		-0.2837708973341108
225		-0.5130196547761233
226		0.4846192296923567
227		-0.22699925259714576
228		-0.03139824976779675
229		0.4229693236567623
230		0.12380659205863516
231		0.16774813533623611
225		0.04933271792416536
226		-0.1433196196186723
227		0.24296289442177266
228		-0.19660980740628803
229		-0.7033169262907274
230		0.05176178656749392
231		-0.5958469226454788
232		-0.8127183410534549
233		0.16863871399099103
234		-0.2520534846226087
223		-0.9329942548284047
224		0.2415560327933406
225		0.08176615586267053
226		0.26690335736517723
227		0.865683190593607
228		-0.21057046876757027
229		-0.43632461440194453
230		-0.548495593949092
231		-0.41708967691761506
232		-0.979590561764549
224		-0.1839338309912815
225		0.2609141059277592
226		-0.4968232653186436
227		-0.4546524732359908
228		-0.41561666754475063
229		-0.6343857162903489
230		0.06318639763463299
231		-1.2628046433937063
232		-0.3190671470353584
233		-0.46369858107478484
227		0.018249073971255744
228		-0.1717680690065754
229		0.3067188944231314
230		0.03517141593979821
231		0.07394250871793027
232		-0.2835487798824054
233		-0.7706847274372753
234		-0.2302512369574293
235		-0.2814851086389301
236		-0.5479186016094165
226		-0.35513451025830695
227		-0.681476149998382
228		0.634647350519625
229		-0.10475737441550699
230		-0.2885325049189028
231		-0.19227711135866132
232		0.2733276559594635
233		0.2102853407525604
234		-0.4070008003176065
235		3.085830687477362
228		-0.2581485166754873
229		-0.35860753314876004
230		-0.14882155728700663
231		-0.5171188637389467
232		0.6349393240986954
233		0.4699125884229753
234		0.18754832714745012
235		-0.3841505941493587
236		-0.05689929857497505
237		0.6033074984531258
229		0.3472290855442548
230		0.3556183447526121
231		-0.05429180043016853
232		-0.7429677386033778
233		-0.7927361709858752
234		0.2842104760423784
235		0.02715866690875438
236		0.09918808486745102
237		-0.43869211079642656
238		0.21028532996625
230		-0.27432867525261556
231		-0.34116891883204964
232		-0.5365372469147898
233		0.12296080518237308
234		0.1604188880232328
235		0.1466317668298748
236		-0.5386928888032335
237		-0.4161438821133473
238		-0.15693480749128533
239		1.6567906706285787
231		-0.8644536066595472
232		-0.3961407230746899
233		-0.4764122345757163
234		0.03598719032904043
235		0.4751952838514467
236		-0.4072381148696146
237		0.4756104367817062
238		0.2759919540983258
239		-0.5192742404573385
240		-0.367422582629827
232		-0.6578466143327465
233		-0.631017643495193
234		0.4608227746819625
235		0.02739322644255008
236		0.25771778776748805
237		-0.459757611703236
238		-1.433541970061096
239		-0.11898379376002709
240		-0.08411224702172351
241		-0.09986440540673847
233		-0.361577917963684
234		-0.9118864488693242
235		0.8719168758597985
236		-1.1543837243249129
237		0.02086408999003497
238		-0.5880832408415703
239		-0.3051372472574837
240		-0.6087368661795869
241		0.1489611714025891
242		0.018261873784929057
234		0.34263522485249637
235		-0.17666222532324316
236		-1.267788054800655
237		0.6168105418841825
238		0.42881854291670085
239		-0.2237230194479205
240		0.8413021906505121
241		-0.18310498967575453
242		0.35761908742807136
243		-0.7060207076848638
235		0.04087843854148873
236		-0.20453000154697623
237		-0.14517795565635805
238		-0.1440283445530552
239		-0.1597259321247217
240		-0.2481661554986179
241		0.08643820150015077
242		-0.49317063953064205
243		0.21013132370330487
244		0.08002210783402572
236		-0.22910254387585938
237		-0.6799686565192357
238		0.3668457209054699
239		0.41073435717908663
240		0.5593896917318592
241		-0.18261653235776773
242		0.3677010263170517
243		-1.8870292210832451
244		0.3854990961750399
245		-0.587041318074212
237		0.20387293662056333
238		-0.7809942459503323
239		-0.03254238816334146
240		-0.40702171752346117
241		-0.5930733096125416
242		-0.20390515276754403
243		-0.36799704685133416
244		0.42760125273614985
245		-0.46063883329345473
246		0.30176824985399586
309		0.18598279594201528
310		0.3409802459736916
311		0.31689246320818315
312		0.360070803310649
313		-1.2156027249426677
314		-0.44368079353574275
315		0.9335134874697747
316		0.32160049176900785
317		-1.7799817553574375
318		-1.3382982456331758
238		-0.16194157205319007
239		-0.3662202317374216
240		0.3227792726179732
241		-0.8700110020714201
242		-0.3754147500952396
243		-0.026787433089803754
244		0.4381015743283081
245		-0.2011776472134577
246		-0.15803896288520472
247		-0.305869902326668
240		-0.7362614093507226
241		0.049468296347490934
242		-0.5493392130701382
243		0.5262734733853919
244		-0.0901196282211438
245		-0.06025519407168708
246		-1.050840764263755
247		0.37545239695151544
248		0.19482108208339882
249		-0.1396348873602414
239		-0.29960723225368874
240		0.4246158593446823
241		-0.45273994295453074
242		-0.6149484481986405
243		0.29510984251099454
244		-0.21691418734403303
245		-0.3907531739574113
246		-0.7970655351692323
247		-0.15074938972485558
248		0.3926018457831149
241		0.1639228386247477
242		0.18448239409632705
243		0.13267659911993318
244		0.27599279208717176
245		-0.1618169849135625
246		0.3474937081400184
247		-0.3737188220458299
248		0.0005748786930179931
249		-0.39910574782119934
250		-0.5145480022209538
242		-0.7862870450975297
243		0.04100224743946198
244		0.8468608793222482
245		-0.9774002018011861
246		-0.6568653081773891
247		1.0570359004534111
248		0.5170665182450073
249		-0.948448262363173
250		0.013664037251261857
251		0.242139296552611
243		-0.007457790413334621
244		1.7634353575414556
245		-0.30200368773912384
246		0.6038063855649286
247		-0.12740662582676365
248		-1.0600617839304542
249		0.3658752389188261
250		-0.13603453465221257
251		-0.3409286700373587
252		-1.0118130836394172
244		0.43857437684792344
245		0.21639674205672954
246		-0.33478690712129994
247		0.11494566086845505
248		-0.5249077197281465
249		-0.2289698344702207
250		-0.03105629944017693
251		-0.370790426101514
252		-0.02111364137574836
253		0.06504362029750578
245		-0.31824775575861514
246		0.10464021219789299
247		-0.18051436452098865
248		0.014094833372120667
249		-0.5051335098113835
250		-0.445637045653042
251		0.12448273952360182
252		-0.3060052566075783
253		-0.4260210446830059
254		0.4204281041314703
246		-1.6361695906243778
247		-0.4508099732089532
248		-0.3832970339538598
249		-0.1848978726685801
250		-0.32362102289836786
251		1.3731101694007097
252		0.12768151281454054
253		-0.6836000788465225
254		-1.1487262837077203
255		-0.5026132251703566
247		-0.6952469438089658
248		0.3084664375652726
249		-0.27527140428684405
250		0.33471964303545004
251		-1.290622564025134
252		-0.3910489354635331
253		1.4168470235971184
254		-0.39688740353300045
255		-0.05315667503613259
256		0.047535812830430305
248		0.021849582602759775
249		0.21324639192942652
250		-0.29080398136991753
251		-0.2330904884014949
252		0.1909765442199393
253		-0.35799662017619843
254		-0.37461405537936154
255		0.8540987928144277
256		-0.006340922928398017
257		-0.7351747695554972
249		-0.2781808386120867
250		-0.10620296940141556
251		0.3695816856332273
252		0.13183635289274473
253		-0.6540617940061116
254		-0.19929294068535217
255		-0.45152558249791375
256		-0.31890707734526125
257		0.022279539326256544
258		0.16582417180690046
250		0.3347223474734555
251		-0.18618842108155612
252		0.06982826878508663
253		0.9320311747140859
254		-0.8597421619520725
255		0.4203106953935412
256		0.12797128200403082
257		-0.41422336452744785
258		0.7433928615792896
259		-0.06942902338621137
251		-0.20891051900287372
252		-0.506147778192826
253		0.2118613869805232
254		0.05405890094767752
255		-0.36826108710240596
256		-0.8411684363036431
257		-0.21039884286315602
258		-0.4072263461116644
259		-0.42202989420774556
260		0.014278287262518181
252		0.03247652974276591
253		0.8709822191942799
254		-0.438185031474833
255		0.1151681071982977
256		0.3112387422782945
257		-0.0543284671714804
258		-0.29270435867907785
259		-0.45426314525084166
260		0.16801998667135237
261		0.44685517634582284
253		-0.6592633593614953
254		0.5239202250735109
255		0.13923762995243338
256		-0.48911178001621786
257		-0.3633079376267596
258		0.2950654588621841
259		-1.1404046393625225
260		0.3237615387495459
261		-0.5651585746334267
262		-0.3220064224696957
254		0.11477759842333889
255		-0.011777631301631786
256		-0.011084762929644472
257		-0.3668334266703516
258		-0.2704565859821826
259		-0.17570783526240788
260		-0.475839857858474
261		-0.7002338517152883
262		0.05011915444320386
263		0.1538159345923568
255		-0.24212069784464912
256		-0.1232895740637959
257		-0.5488890969138038
258		-0.3190671465785615
259		-0.20221884796797757
260		-0.4333956850382004
261		-0.08515972154086475
262		-0.4387129296713247
263		-0.42572610482156803
264		-0.4790962436175495
256		0.1832511334186545
257		1.4299761540669538
258		-1.095708176980595
259		-0.17377931357956244
260		0.17591132722341044
261		-0.1884850534652689
262		-0.1739214453283395
263		-0.16433168394368564
264		0.9059677338244827
265		-0.037361313902797615
257		-0.0771978719337817
258		0.29937513192710463
259		-0.7518639421055218
260		-0.6497935244324818
261		-0.8119466918702194
262		-0.8114915664362186
263		-1.204717552910323
264		0.4039195937605125
265		-0.6952987766036872
266		-0.04586034645356913
258		-0.05552728611377778
259		-0.8517799410577463
260		-0.4786912713382673
261		0.140194064981003
262		-1.2142230057920012
263		-0.20547489927461307
264		-0.2611180612194242
265		-0.9470783073049597
266		-2.121484318228515
267		-0.9183702525643702
259		0.20604643623948912
260		0.5319429590393692
261		-0.43963783395988315
262		0.3710864751316127
263		-0.430714647536333
264		-0.7764669436393601
265		0.48859127823107795
266		-0.10064513906783461
267		-0.35331684283942183
268		0.0025741299606557026
260		-0.11258374801448601
261		-0.25347316897409394
262		-0.4368551587395623
263		-0.20175783325400842
264		-0.19041866963510898
265		-0.1682611847748186
266		-0.21273962624208267
267		0.04457233553501648
268		-0.8633490929826135
269		0.18563557854749346
261		-0.018377674953550492
262		-1.7671073281844305
263		0.19667484936028604
264		0.6545548773694928
265		0.17247233015479232
266		-0.22056308088237195
267		-1.4669018174076678
268		-0.13041117564357146
269		0.3712002134079743
270		-0.015370327714748232
262		-0.700461451517238
263		-0.4075007337992893
264		0.584269544070227
265		-0.1670315854415714
266		-0.2436412034818723
267		-0.1614519130465138
268		0.556736790751039
269		1.4760593954451877
270		0.7244663818674998
271		-0.5773246785414756
263		0.6284941446204054
264		-0.5667209377759844
265		-0.27816183327784155
266		-0.7536445189080263
267		0.4753241732088835
268		-0.5910254156745267
269		0.6302733175278639
270		-0.5909237516324711
271		-0.6682378079231651
272		0.15915545668691197
264		-0.5134555402807727
265		-0.2395371453978528
266		-0.23094489125869735
267		0.14749207029476505
268		-0.1660670949413673
269		-0.10114181900700825
270		-0.3832964447890076
271		-0.26346350081427816
272		0.18340817740957405
273		-0.24132707498770473
265		-1.1494559918983316
266		0.3912793986487992
267		-0.0148160431241641
268		0.39016565654757135
269		-0.2998013979628729
270		0.23296213398843282
271		-1.3681980625597583
272		-0.18529989908850056
273		-0.8336028638583376
274		-0.3686862305026153
267		0.060082473730420756
268		-0.08741731828622996
269		0.12620656140983028
270		0.20840348531569403
271		-0.3497342079380215
272		-0.1632383810105479
273		0.3170571195636106
274		0.07298127660039906
275		-0.174073262547909
276		-0.11357222529651952
266		-1.080011953436755
267		0.29388988790872056
268		-0.13149148055804874
269		0.010410858510838207
270		-0.3253016623043896
271		0.5941488553595816
272		0.23492717358344276
273		-0.08178318153027025
274		-0.1343660650527743
275		0.22242106399433087
268		0.4794836487507974
269		0.05591830043266804
270		-0.1676760470578914
271		0.08523404172378302
272		-0.5158549745020884
273		-0.3498499312010249
274		0.015122698516143413
275		-1.740587437483651
276		0.2629100438898329
277		0.1579498806945065
269		0.7383040092006128
270		-0.01111757878506883
271		-0.5383108577537187
272		-0.40096391359020905
273		-0.8151802004900833
274		0.5063497600706477
275		0.32030909004724956
276		-0.6778620668809597
277		-0.9591647849832488
278		-1.023879768878045
270		-0.40813456601792825
271		-0.6725532850879762
272		-0.12537959677319938
273		0.5369481185209055
274		-0.9500481802272503
275		0.07706313877968686
276		-0.2661388304387728
277		0.22467709148567075
278		-0.09888580966512876
279		0.01237947032477526
271		-0.13961592225633934
272		-0.42431211744581393
273		0.36684581470836186
274		0.06997688212625361
275		-0.18765850791310498
276		0.12020842989653761
277		-0.12630290309468745
278		-0.5867477289361015
279		-0.18859763665121093
280		-0.2726315585124419
272		0.07697348349845021
273		-0.1382816164880746
274		0.2987044949857292
275		-0.18014076346099148
276		-0.8163776324291295
277		0.12695440516531148
278		-0.22936505885882247
279		-0.009504292712910511
280		-0.25688035254800773
281		-0.36627963932988344
273		-1.7152470306509489
274		-0.4229242628395126
275		0.1954187054815912
276		0.4537960472355727
277		0.562246470780158
278		-1.6035445845145888
279		-0.06637336296414362
280		-0.09227166208407418
281		-0.5633625814001073
282		-0.3498911066166357
274		-0.13801720789565697
275		-0.14954939854365165
276		-0.15236513953860714
277		0.3012232841071321
278		0.10870617147659577
279		0.5340531380319917
280		0.378365758736853
281		-0.4982403466634195
282		-0.3969954371862227
283		1.424795120736783
275		-0.1657606473580895
276		-0.43746525957560184
277		-0.6711349878536149
278		0.21030940662856373
279		-0.2245470590415146
280		0.13850140151541046
281		-0.7048148561635248
282		-0.692657775435679
283		0.22254462037463027
284		0.14694399765756327
276		-0.21751298525918253
277		0.56271592830256
278		-0.32306893734027614
279		-1.082782127500805
280		0.17382938378057938
281		0.36366016231072534
282		-0.17624844802417033
283		0.7574393471093411
284		0.755233220331628
285		0.15616207718924732
277		0.31435643895923837
278		0.436649427941677
279		-0.2896785838983493
280		-0.4767181240854414
281		-0.5832829975096724
282		0.025435255947370193
283		0.24081150325846407
284		0.38691562282723424
285		0.02763281993630523
286		-0.052332208197744416
278		0.09775069037060233
279		0.12428352995686505
280		-0.28662060641281306
281		0.48982453641577456
282		-0.4245271530830728
283		-0.27562126318622665
284		-0.12048598767760942
285		-0.3857202997069926
286		0.6175668822522014
287		0.14990673034134622
279		-0.5840104173019307
280		-0.0686887678671009
281		-0.22635004277596074
282		0.6377168516053094
283		0.25016562247245566
284		0.15734126542520804
285		-0.25981789550685325
286		0.26846397946629885
287		0.2286927966846471
288		-0.15936707190306457
280		-0.005411332336010782
281		-0.165837830833615
282		-0.032611537583743584
283		-0.12057762001298367
284		-0.43715150133959335
285		-0.6184689048164966
286		-0.6790403844430587
287		0.028974468536980665
288		-0.05420788981785526
289		0.20176703424718723
281		-0.544982826608228
282		-0.10984839126907542
283		-0.30027865388032215
284		0.4323505804851721
285		0.3790023880960203
286		0.15442483974537366
287		0.6259826562471498
288		0.46645528244848433
289		0.013718367377655673
290		-0.3704536773785046
282		-0.661829933202479
283		0.19280432758917118
284		-0.5365907399257965
285		-3.0107970752955953
286		-0.0012233149296648714
287		-0.08097466332364306
288		0.24646015705349003
289		0.5348008664580212
290		-0.8569827545815795
291		-1.3854857641087843
283		-0.31526650308262844
284		0.9288023117503781
285		-0.9533163242656043
286		0.40027075490455055
287		0.2067422105399223
288		-0.10448297730658047
289		-0.21233821176528514
290		-0.8533421274794182
291		0.04451347091395397
292		-0.40731347016936104
284		-0.7282400155150645
285		-0.7232816500884579
286		-1.0575711564112704
287		-0.5204879136303128
288		0.4214905771837005
289		-0.4659926932586094
290		0.28439563455838085
291		0.9020655727296942
292		-2.444841668531355
293		0.047074746213484404
285		-0.2312748920709378
286		-0.05542801912076612
287		0.3318540376652414
288		-0.08472092535704168
289		0.09053717231349866
290		-0.11458076114014575
291		0.10757936257147835
292		0.24446066847375678
293		-0.7228755425739056
294		0.04712276698393998
286		0.12999087336647988
287		-0.040549901937476235
288		-0.27842729060237253
289		-0.3098443766943846
290		0.0042190303490529735
291		0.29590753015353277
292		-0.4569397254597468
293		0.0847171946827058
294		-0.9978438919284489
295		-0.18991511223034083
287		0.016342434836099807
288		-0.6318115633146828
289		-0.19645839358442632
290		0.1325146343390127
291		0.6204100126525435
292		-0.17090944822968554
293		0.19037347541685684
294		-1.551757840269931
295		-0.4710759850074183
296		-2.5735122572137556
288		0.043002294691351306
289		-0.36099276652975587
290		-0.7738318673274537
291		0.1942863448103444
292		-0.23529157467218953
293		-0.49757863139416725
294		-0.38963836036842325
295		-0.20944359319242253
296		-0.1968742407981243
297		0.5850292036060463
289		0.018248913409411895
290		-0.1743564938935694
291		-1.0366465883473144
292		-0.03520208352975038
293		-0.42033231470281585
294		0.08908422099953114
295		0.5073720548333485
296		-0.2412821819551202
297		-0.17817812840782588
298		-0.4640728370735651
290		0.3275251482064994
291		-0.28227345842308293
292		-0.09171931103840096
293		-0.4050449144133585
294		-0.28825783166381175
295		0.029217488949241966
296		-0.4322201275061163
297		-0.2527930536521596
298		-0.37448028089752466
299		0.5840078263197291
291		-0.026606416002507297
292		-0.7326257526163826
293		-0.17493699082587572
294		-0.27612771079697485
295		0.03963509430533403
296		-0.12494602247192942
297		-0.4150090594499438
298		0.7940975066946054
299		-0.1676359056536603
300		0.6579115861684249
292		-0.17742002865681317
293		-0.27768886353296435
294		-0.35027484898008665
295		0.0030429993078389364
296		-0.2658044442692859
297		0.2704273730797149
298		-0.14632005946934057
299		-0.1999760320888661
300		-0.39877135759637106
301		0.12195085011271496
293		-0.5750620816733425
294		0.27665696724531247
295		-0.07057178905175217
296		0.05213774827973137
297		-0.8128250942094136
298		-0.5153506319537627
299		0.2612075582489806
300		-0.4787003014199316
301		-0.12076738659534722
302		0.4542078751041665
295		0.007952738470750492
296		0.061802682236204894
297		-1.464114085255491
298		-0.09133412397317403
299		0.23643892916177117
300		0.2311437583160796
301		-0.10616920246174351
302		0.47934045637186157
303		0.985102828764007
304		-0.2948281246189171
294		0.5653139147656839
295		-0.6009459603855306
296		-0.6051493227408838
297		-0.025329054250971726
298		-0.5340646173212386
299		-0.9277630916459924
300		0.2255888314584519
301		-0.09331783716267807
302		-0.571680740262368
303		-0.7233055619826885
296		-0.8353537917574292
297		-0.4224178219322984
298		-0.4457269769402636
299		0.20517622808947036
300		-0.11285892577541609
301		-0.22857455695531442
302		-0.5074748383558416
303		0.3584155414514331
304		0.47641595103731477
305		-0.16826206748271916
297		-0.5096961176164279
298		0.5285594846083828
299		-0.8654836367801638
300		-0.4874717486558803
301		-0.24270363279133753
302		-0.8309027308758952
303		1.8792575507543319
304		-0.5881154939746583
305		-0.027011743307089157
306		-0.4403197244315685
299		0.04078393157342416
300		-0.21387484584154903
301		-0.5629724023821766
302		-0.09678585507342966
303		-0.310945805975955
304		-0.8394979846312781
305		-0.44603833001958226
306		-0.5994349705180004
307		-0.23095697077805363
308		0.15740729747012852
298		-1.0575711300387296
299		0.33395891952878015
300		0.3838789513157961
301		0.08282572028003352
302		-0.5250968271179067
303		-0.2465306349537803
304		-0.271771252733582
305		0.09335178769051992
306		-0.171768000971233
307		-0.10532040516115303
300		0.8934443787860811
301		-0.1746825866422269
302		0.27354780142284896
303		0.930229280743746
304		-0.6703370252044613
305		-0.3294499161957104
306		0.4242493785974307
307		-0.40117402329578994
308		-0.09028378307689854
309		-0.6649057833685329
303		-0.20434489258774566
304		-0.6060074065830867
305		-0.01921227372726881
306		0.20056269011887926
307		-0.38344092663035323
308		-0.2955533663867985
309		0.36624553684002886
310		-0.09715131411377749
311		0.397950557718377
312		-0.5208144705772172
301		-0.6649905183378455
302		-0.8258126758984846
303		0.41147104478243424
304		-0.9948658412914131
305		-0.21928271071994282
306		-0.5605357270073532
307		0.3658752090733168
308		-0.18585631344073936
309		-0.28749851277782373
310		0.787876287087809
304		-0.7248445259575942
305		0.0013459840201700021
306		-0.24391813319720898
307		0.0594279319026651
308		0.39146007339384714
309		-0.48766492062972727
310		-0.2700810199426095
311		-0.5110675982485955
312		-0.81128186455562
313		0.16826425439111026
302		-0.09912913964135885
303		-0.2896341207635669
304		-0.31589070372820965
305		0.09153925984782278
306		-0.4072381685557665
307		-0.4092390406391947
308		-0.035000651752848555
309		-0.18451461873954372
310		0.4599678680855559
311		-0.4138238496737596
305		-0.4661296469400974
306		-2.051681799668572
307		0.16598154733213177
308		0.6508702338274434
309		0.6450488397822551
310		0.018854882575475573
311		0.08290075600604291
312		-0.3386590569835803
313		-0.3283091999294421
314		-0.7188578465386583
306		-0.845911918835045
307		0.12106038363842388
308		-0.2835487804148551
309		-0.02334933980811421
310		0.26401010187425905
311		-0.19980570024399977
312		-0.47074242511605663
313		-0.7308387532403016
314		0.2558303044151576
315		0.14147840938813516
307		-0.7615009154888412
308		0.2318716791987271
309		0.07728530469078349
310		0.03450749765766202
311		0.439774424662815
312		0.18160337518717645
313		0.34548247738857135
314		-0.3174275673191252
315		0.07598249029439097
316		0.3253830165855044
308		-1.2478876684902307
309		0.08893645052931051
310		0.6429780950339271
311		0.5332173360139897
312		-0.46050044295500486
313		0.40168675091623884
314		-0.07768606291977218
315		-0.34857665050444614
316		-0.15536031159125482
317		-0.38914122212682656
310		-0.5994349800007711
311		0.4454044756068664
312		-0.15028010416782603
313		0.7559442548753011
314		0.418056619411503
315		-0.39583831330550984
316		0.224474467049265
317		0.0535403203177577
318		0.7994953810792864
319		0.10877656569899342
311		-0.5258535184566095
312		0.20944237136885538
313		0.28301117468718806
314		-0.1836097064589083
315		-0.9212367615486278
316		0.10784889141435217
317		0.8676010043409783
318		-1.69185435310214
319		-0.3216003308371675
320		-0.47409857338888467
312		-0.5340677574571234
313		0.36419155521183094
314		-0.08858115540018849
315		-0.28652314827020636
316		0.09775166742633584
317		0.1150886222672694
318		-0.003142943965107563
319		-0.3440763393993209
320		0.052488653416096695
321		-0.4201092078788638
313		-1.2230776544083148
314		0.1436685583910501
315		-0.14567048802838656
316		-0.05035259052833256
317		-0.17279717989066312
318		-0.17054445718870423
319		0.5445224293731443
320		-1.0656295299547611
321		-0.43383247901399885
322		0.866386242410597
314		-0.6403758479385219
315		-0.05969596624126703
316		0.9890101610666455
317		-2.235514843300117
318		0.14637372681218266
319		-0.10012246329442
320		0.04707465734702257
321		-1.0800119558544636
322		-0.4919184681745854
323		-0.46441763191625685
315		0.20855908659213945
316		0.684900998986455
317		-1.132578683357586
318		0.4016357490285543
319		-0.007179703030085863
320		0.8699413387793004
321		-0.29234562291684496
322		-0.24205924942299747
323		-0.7868007749181364
324		-0.09335070492439762
316		0.6439250077284606
317		0.3536803007249967
318		-0.2608887197495443
319		0.4911536349139704
320		0.1434583968225501
321		0.25711271856575546
322		0.3354694990878671
323		-0.7927361419134437
324		-0.5603213383634622
325		0.35601651214787555
317		0.13392905983813694
318		-0.357620515301196
319		-0.14126308758811443
320		-0.9197577239295177
321		-0.13436606038410348
322		0.38321501365794913
323		0.13699350050593362
324		-1.6277575037399232
325		-0.33015048388325374
326		-0.2240523539745977
318		-0.6419977407759317
319		1.0609270123028647
320		-0.3655107251996969
321		0.6131535963077087
322		0.5505302415620656
323		-0.3717253362229303
324		-0.25365546511554565
325		-0.40802167370496306
326		0.34582301830341783
327		-0.15682073165767602
319		-0.8323641137645303
320		0.3618192821009915
321		-0.6932554693960346
322		-0.6366902200968292
323		0.18477009940655656
324		-0.0354504599982377
325		-0.3788921519814228
326		0.1272259494231226
327		-1.1735798264219601
328		1.7427849885288043
320		-0.5756559407272733
321		-0.659642318784184
322		-0.7209132608460592
323		0.38071278098832445
324		-0.46801148028188433
325		0.4673014413553546
326		-0.5737309645177395
327		-0.04034117069731111
328		0.31585203412997453
329		0.474307445463793
321		0.08490217100203287
322		-0.2925937852111704
323		0.14385433473621517
324		0.5011051482899199
325		0.2085736024714637
326		0.6677975082762642
327		-1.4518309409084296
328		-0.28776269772749646
329		0.4058867255555321
330		-0.4143665647448972
322		-0.05504894827080454
323		-0.32662244103089194
324		-0.17197308257691396
325		-0.25491741746513746
326		0.3242207518597549
327		-0.08906675991621306
328		-0.20219350658067406
329		-0.6988352444107934
330		-0.4770125644148296
331		-0.17515043902601335
323		-0.6494235027112887
324		0.1846100658877551
325		-0.3551909553290597
326		-0.18058500313498552
327		-0.2907097788929793
328		0.09571305474608444
329		0.26058918169143686
330		-0.2710668919827156
331		-0.16389774540594085
332		-0.353057118602569
325		0.1133324897997481
326		0.5018518452961509
327		1.7911373757297295
328		-0.5887473842718259
329		0.07642835930368355
330		-0.3396166173450229
331		-0.021070203410285367
332		0.057259115730015867
333		-0.5960395667848273
334		-0.3448273924893367
324		-0.11201676754514013
325		-0.08411225147915237
326		-1.2718790378822125
327		0.9664900493119373
328		-0.1758357314447013
329		-0.08713867980806489
330		0.25016489277667053
331		0.0015508987749453592
332		0.11568219325684827
333		1.4291257920278246
326		0.8485950040543455
327		0.18680389802954067
328		-0.7963692808945508
329		-0.36454774106844834
330		-0.5696513200935551
331		-0.0562867621285167
332		0.3979103318876021
333		0.16862978773644768
334		0.004319526234950977
335		-0.4389769679165957
327		-0.07300223823879749
328		0.014684606364521255
329		-0.5303735577539173
330		-0.05999959186799317
331		0.4084247921195042
332		0.1437749624956706
333		0.05577666387250928
334		0.021425559155976014
335		-0.18451456142253136
336		0.16534966186787467
328		0.4883626440077795
329		-0.8274976752422218
330		-0.2413570054668549
331		-0.5227055114530887
332		-0.02636147937245084
333		-0.4992119155258805
334		-0.46693210362935383
335		0.032263622923351505
336		-0.3398976165799691
337		-0.5263999985986628
329		-0.2856624023387979
330		0.41826808114306024
331		0.02922668939847386
332		0.7048193433182655
333		-0.23735338863732364
334		-0.0718064471096484
335		-0.34108686110246433
336		-0.5065449929634839
337		-0.25614473119916004
338		-0.2613171726199939
330		-0.39834504149914074
331		0.1582116791957519
332		-2.0415289172769375
333		0.7251843609439802
334		1.8611708884686557
335		-0.253794410616637
336		-0.8184853578782342
337		-0.11935253869006913
338		-0.23225325057853208
339		0.04385438403950678
331		-0.01584262502225242
332		0.6304948036474052
333		0.8298643419192302
334		-0.9434350789506628
335		0.18680392077075825
336		-0.4999673328867891
337		0.5520940712132191
338		0.6508705859966488
339		-0.6301353485217863
340		0.5396728976788545
332		-0.19227969885498664
333		0.07555390920020932
334		-0.46136614880475085
335		-2.427350695897614
336		0.32231260880778667
337		0.2929605062519291
338		-0.09448546007298413
339		0.3430727996062588
340		0.4673013392506256
341		-1.4170729923177063
333		-0.952385419287478
334		-0.7762654375465844
335		0.06362337733510758
336		-0.40250624494906506
337		-0.8311372972021998
338		-0.4506768501681421
339		0.7077363796647785
340		-0.6294396202226341
341		-0.15572172251318414
342		-0.10399193965640882
334		-0.09953681817399489
335		-0.11448619037344031
336		0.031400883804960554
337		0.1966849820171873
338		-0.08708281902747289
339		0.5189783049683758
340		-0.8140206229305181
341		-0.6640654443796672
342		-0.014442839963846127
343		-0.20854065677814143
335		0.713736860776848
336		-0.0010990654061080658
337		-0.27291327046813635
338		-0.11853447882689043
339		-0.4206509242404602
340		0.18637950183674087
341		0.049586815790640094
342		-0.6708904056292441
343		-0.2533683059525606
344		0.28962842347754886
336		0.3807126598596738
337		0.24514649694877766
338		-0.16834420773979417
339		-0.49984984160214313
340		-0.08724671048329098
341		-0.31141194632705504
342		-0.3368625088749957
343		-0.027689909331147566
344		-0.16240466242328508
345		-0.7868164749983092
337		-0.184349117974343
338		0.7556051635666423
339		-0.3559010976098409
340		-0.5177210613192861
341		0.21136375771059573
342		-0.42645056124100894
343		0.45616126687669784
344		-0.6778024888640017
345		0.11324990506102453
346		0.12828872936970712
338		0.7865264339292891
339		0.1068425145148943
340		-0.06043098233570887
341		0.12502547739976339
342		-0.12515414386050036
343		-0.13650791744402127
344		-0.08318370701975687
345		-0.257393966858531
346		-1.3748079459942064
347		-0.5606447475827587
339		-0.39605211720413463
340		-0.9299443868628111
341		-0.053019330203341444
342		-0.5865960076662455
343		-0.613285820588163
344		-0.37982022321429776
345		-1.2223637686752213
346		-0.5512337794501276
347		-0.23041418319116957
348		-0.4574146348184874
340		0.47157989778209264
341		0.23925511291172472
342		-0.5358040380707413
343		0.6554741682369276
344		-0.5377777548603377
345		0.15948769923524858
346		0.2684190356062343
347		-0.06868850841087337
348		1.504968648659871
349		0.03931488921889505
341		-0.024540096138192562
342		-0.48419565534646464
343		0.3676533413673497
344		-0.3083349665370538
345		-0.28372006416547824
346		0.74147684452517
347		-0.3705495405541509
348		-0.01517323709322361
349		-0.4790672319081627
350		-0.4541854966009061
342		-0.7606949570363749
343		-1.45317143498653
344		0.556860261481815
345		-2.0823645320278015
346		-0.22532609402507675
347		0.09617383975071742
348		-0.10211984796743785
349		0.40823320836605326
350		0.4455314469289238
351		-0.3324735869407785
343		0.06604232239824068
344		0.05579537195101139
345		0.9859651886341715
346		0.013170725928623955
347		-0.5211658997407552
348		0.35231840616515636
349		0.06566115503157623
350		-0.8092818233472557
351		0.1950329618574641
352		0.10927490348211673
344		0.4872486260035535
345		-0.9822781601497181
346		-0.7619434068615305
347		0.2987573257810976
348		0.3525834812687359
349		0.46067677223162634
350		-0.011584277293051393
351		0.2855305538710629
352		-0.3717315445445712
353		0.2074894917538895
345		0.11327323201022002
346		-0.07222083386801409
347		0.18473128336323194
348		0.09159009882492025
349		-0.41679914611776053
350		0.13122246955089664
351		0.10261825352133305
352		0.3292665502045135
353		0.1498287598270599
354		-0.3279591733036203
347		-0.17096128256111143
348		-0.34624688475212034
349		-0.09682225445226755
350		-0.44323736909148853
351		-0.27951958407594224
352		0.09065064856403952
353		-0.21639284918566581
354		-0.1702674824165689
355		-0.33784975685822577
356		-0.7283596916621604
346		-0.021600369596181064
347		0.16623672155995084
348		-0.7191173928990402
349		0.3901655774119085
350		-0.4680114743292675
351		-0.10588965191342731
352		-0.17978838925239776
353		0.44750174096086454
354		-0.3023061656565798
355		-0.9830263012962608
348		0.2400961784089254
349		-0.1926937331226344
350		0.17394424362834746
351		-0.725558547812976
352		0.7622846927909348
353		0.2006069996018189
354		0.6657281526056762
355		-0.6615418972334416
356		-0.042062478023597895
357		0.834708100750292
350		-0.08472069729643736
351		0.5628274702689103
352		-0.04576705199164077
353		0.8627872091631988
354		0.02176541744580415
355		-0.40182815446661074
356		0.17756852941315907
357		0.2640544491577129
358		0.47272543188832433
359		-0.7767113139710818
349		0.07701567220831855
350		-0.29837532281521134
351		-0.034972053856657886
352		1.3975371898285445
353		-0.10396282709146855
354		-0.11723314003191508
355		-0.11723196736020457
356		-0.061024322008532486
357		0.27947436737426823
358		-0.5912848668649267
352		0.6991102017915826
353		0.25289071696345256
354		0.054802271410960314
355		0.07242488236729011
356		-0.5030327967505788
357		0.03442612709165934
358		-0.09592379659801427
359		-0.49522573312563717
360		0.25599511530009444
361		-0.6992453225487291
351		0.1688357443048142
352		0.29053827903205837
353		-0.6460799934625041
354		0.30797619647286834
355		0.03121128649528196
356		0.4638275725359885
357		-0.22413016646405734
358		-0.5068126999769028
359		0.555906638779469
360		0.2071187450520406
353		-0.1897658685238977
354		0.4195148366688006
355		-1.4980914564601966
356		0.04908465067276154
357		0.11029371154843898
358		0.8981059367839146
359		-0.3849890488133843
360		0.3947129925544646
361		-0.5816855683589295
362		-1.205712998048976
354		-0.7519350565508424
355		-0.27596016090217274
356		0.19797840174308012
357		-0.639539544895745
358		-0.027766493836009494
359		-0.7305560609494725
360		0.5304361858349499
361		-0.31285831811483367
362		0.05269147841167761
363		0.37200272661440176
355		-2.077977282621294
356		-0.07008494633021874
357		-0.7085378187007132
358		0.7336466078270799
359		-0.18245928961931526
360		-0.11179320727712908
361		0.11252457103784559
362		-0.19150240565658602
363		0.6241964372066847
364		-0.3061382113778255
356		-0.4665580083986778
357		0.24780960159919252
358		-0.9782566522186881
359		0.42231311590378007
360		-0.5121388042544072
361		0.1646711800713759
362		0.6060747227417472
363		-0.1571359832159591
364		-0.23667057920293555
365		-0.657258360872197
357		0.2720155104612645
358		-0.2913807710300242
359		-0.9158571828866723
360		0.5577329760764751
361		1.2126794090384296
362		-0.5649533726400919
363		0.44402237838200453
364		0.400863510446222
365		-0.1580388279396482
366		1.7858133305998574
358		0.2884548431678951
359		0.10553959983508564
360		-0.9949944963231895
361		-0.04211077586714053
362		-0.3709861316297679
363		0.6574336054666127
364		0.7116446548006815
365		0.7591464185350664
366		-0.2064651342466592
367		-0.3478407525642191
359		-0.2332331393790695
360		0.6333012177228822
361		-0.38467907243409455
362		-0.3281111036133095
363		-0.5192596585228499
364		-0.6935004422948111
365		-0.2303564329358654
366		-0.07796085128098504
367		-0.596039558226005
368		-0.13240779997347632
361		0.10892703728121678
362		-0.960583251474749
363		-0.09537082508999725
364		-0.1601652958349309
365		-0.08832911900548725
366		0.039379835873678555
367		-0.2699880375328989
368		0.3128135855254645
369		-0.1293381285300193
370		-0.07404480439865721
360		-1.37789702910139
361		0.6392701781854607
362		-1.0012499942493445
363		0.18834454919787655
364		-0.8442927530860105
365		-0.10571124477317333
366		-0.17078840974912218
367		-0.7715051217577162
368		0.9465798892354057
369		0.43788878049380253
362		-0.020896802022580447
363		-0.4519462396157408
364		-1.056846957023225
365		0.046598134156728685
366		-0.2597832053053514
367		0.07274360571921164
368		-0.4560525865042026
369		-0.501527007233429
370		0.23966506515089558
371		0.6835735168481556
363		0.18492906089890127
364		0.321272598815813
365		-0.7374905922265843
366		0.41584227181193517
367		0.6917887334164751
368		-0.47583991475222837
369		-0.6128404003276118
370		0.9663421769398646
371		0.7361422705932686
372		-0.4051847589162032
364		-0.26416907748725177
365		-0.13389064858014812
366		0.36768090622589633
367		-0.1595841567005285
368		0.3408969025260137
369		-0.2738523301808946
370		0.21660320747894757
371		-0.6869709344801193
372		-0.7960644825508654
373		1.0221556484493681
365		-0.017530474722811475
366		-0.7556867637965743
367		-0.6278754027491124
368		-0.24654841989190399
369		-0.8143250582889537
370		-0.784628789042508
371		0.3848210160382412
372		-1.0065927070850391
373		-0.652297742542886
374		0.15319448322897947
366		0.043738675477906545
367		-2.505335241832773
368		-0.7080405799595181
369		-0.20436814971391062
370		-0.08887531433342809
371		-0.5812632549634583
372		-0.01878110720595802
373		0.05062199061641513
374		0.12614227015852947
375		-0.12073548763492625
367		-0.48129172881765997
368		0.015929102071446544
369		0.4002709856112495
370		0.18787586100883716
371		-0.7113861041510484
372		-0.6952469438504081
373		-0.7260155004176096
374		-1.0493341325148895
375		-0.34979326327177485
376		0.4734602537892633
368		0.6033072318067699
369		0.47597612582673776
370		0.04392583549936193
371		-0.8134504001784091
372		-1.6367905570145402
373		0.30864540652771455
374		0.5709511563706681
375		-0.3695441570720551
376		-0.04038904953410228
377		0.4651230719562429
369		-1.2193863690573483
370		-0.9340958773983123
371		-0.7111533724659735
372		0.14393921652212677
373		-0.3240803550110468
374		-0.7552238513715814
375		0.3947983809418491
376		-0.3869605679988918
377		0.301862952832745
378		-0.3703008609857633
371		-0.49026570829710825
372		-0.5971396428012672
373		-0.49055251448680515
374		-0.6116908860097732
375		0.29241471487947407
376		-0.9836518021193782
377		-0.4837754231156487
378		0.23679840589089463
379		-0.20146901891411292
380		0.11896944198474446
370		1.3553252570447663
371		0.6963632083960462
372		0.8784203358966184
373		-0.35704342930650046
374		-0.1461648331068465
375		-0.651305905918012
376		-0.11825390814463602
377		-0.32821030021873926
378		0.8298644574909242
379		0.2766793317268158
372		1.9151986620641686
373		0.16364806350018526
374		-0.15189923016559267
375		-0.21663725152605076
376		1.1422653358470023
377		-0.43344563114782836
378		-0.6004871547039348
379		-0.8472720252571004
380		-1.0930068346441733
381		-0.42098677876450186
373		0.3411682950028072
374		-1.1226181261410926
375		0.34877420163503264
376		0.326078237651318
377		-0.8443578025924171
378		-0.30269866564469455
379		-1.098627052116181
380		-0.4631680999772946
381		-0.3345984945052249
382		0.10023173994321337
374		-0.0837277257738639
375		-0.4442089691375849
376		-0.40383687186889233
377		0.38480559260126285
378		-0.39972095578350403
379		0.1420151654264227
380		-0.2555969031815238
381		-0.2686325292630134
382		0.4523100204174471
383		-2.535849706294364
375		0.515948655306083
376		-0.13702011428602964
377		-0.5231500482725087
378		0.47130979050021543
379		0.22714930514185927
380		-0.044037189883142626
381		-0.17055376824786464
382		0.1131554325483501
383		0.04218201665021181
384		-0.331010330410445
376		0.06546378216824343
377		1.0554276225659596
378		0.5508237596075436
379		0.013996710094644274
380		0.29452977020774285
381		0.5962317903209172
382		0.18719601784875317
383		0.0106117745443154
384		-0.34079716923556214
385		-1.5067958549759937
377		-0.10103484782374
378		-0.028552623321180574
379		0.3900478135405235
380		0.20245715707049666
381		-0.4422745677494155
382		0.7859547593014764
383		-0.47671814140612473
384		0.8970836413292107
385		0.6612450383989777
386		-1.0867875075824356
378		-0.6214596160554683
379		0.3433464095412144
380		-3.0953075542662822
381		0.22242667013086131
382		-0.41822039930609917
383		-1.1419466990738478
384		-0.2984537385527109
385		0.5620259495754281
386		-0.3805804550736036
387		-0.35887832522733104
379		0.3248723956052224
380		-0.5007515266718265
381		-0.40800552323958683
382		0.10702175927274384
383		0.5713453591997784
384		-0.3095671262654263
385		-0.2010763398372147
386		0.6561478467245231
387		-0.19208660552112924
388		1.7857692959886884
380		-0.5822879172651392
381		-0.27625093668836637
382		-0.2153022816140781
383		-0.6109723774111416
384		0.27622159736498997
385		-0.2518563165336958
386		-0.7143003834770237
387		-0.2543879137535815
388		0.6943962405435465
389		0.4436368336898388
381		-1.3544902186354257
382		-0.7417651595616431
383		-0.2436412034986644
384		-0.5967314000126401
385		0.036652005969739
386		-0.03254238557119448
387		-0.45649007544403075
388		-0.6491507030974135
389		-0.7446206012983854
390		-0.018362853419756128
382		-1.9688826159861632
383		-0.8061162061141306
384		-0.43377951824153926
385		-0.38272848503034457
386		0.20284672938346815
387		0.03535379050807795
388		-0.32388899125161236
389		-0.007793158702472127
390		0.16812254854412853
391		0.45858205583944234
383		0.10403889509840059
384		-0.10265556392836783
385		0.29966476443875223
386		-1.2533231278731718
387		0.6138218649254616
388		0.7392702106504959
389		-1.2930727113897855
390		0.43801452082425363
391		1.002587944746524
392		0.3411054861813767
385		-0.18761006782221895
386		-0.4822852767670748
387		0.27593041456083023
388		0.12739142791571362
389		-0.8298110575388413
390		-0.3890191091900984
391		-0.5181096242385944
392		0.1613316553343759
393		0.17585211504499326
394		-0.38193870317909917
384		-0.047678288747386284
385		0.3706361815618827
386		0.5797894330251149
387		-1.607398724635724
388		0.2520133796343811
389		-0.6461850398775995
390		-0.22681954896306247
391		-0.45582496856764837
392		0.3446202534382118
393		0.6000710158584096
386		-0.4644737384559008
387		0.6509488743479871
388		-0.1401984658345124
389		0.0621345845767473
390		0.08654618450710609
391		-0.07691106607036455
392		-0.07357202779039469
393		-1.164290387407857
394		-0.01785763553474739
395		0.10630024682297357
387		-0.5185066928155572
388		-0.4903645928804999
389		0.17332346363953666
390		-0.951190644933154
391		-1.1645390787622338
392		-2.4342745908696606
393		0.26253076855639496
394		0.252021413210656
395		0.739136152196594
396		0.15964848749952243
390		1.332530551687265
391		-1.8207946242035404
392		-0.23050711633097512
393		0.33573806192261496
394		-0.48342801368590865
395		1.7551272693981426
396		0.6263277076274364
397		0.09476925258192166
398		0.30309868107924787
399		0.30743147280720745
389		-0.47408487418551837
390		0.18403044975037283
391		-0.5298690947668522
392		0.3807126757596037
393		-0.8533944480920869
394		-0.9578975631591333
395		-0.14415617736578307
396		0.4385077485062045
397		-0.022492946529905584
398		-0.18847161474164062
388		-0.6604300051613927
389		-0.5829955595909608
390		-0.41829155059732165
391		0.2434019156723284
392		-0.5046009028734452
393		-0.41840415554288146
394		0.02735890498605405
395		-0.3530571173582905
396		0.03223768127673844
397		0.4505916004192746
391		0.35091681118353946
392		-0.6977485242746853
393		-0.8409779368950535
394		-0.07398440172370632
395		0.15301985851632557
396		0.7423702797014322
397		-0.9701972253983463
398		-0.5665626040540394
399		0.44130556849905583
400		-0.3818038833848889
392		-0.7913920854553174
393		0.3547887443876809
394		0.17281908064136225
395		-0.40928341316244754
396		-0.7591240652740772
397		-0.15421431933224092
398		0.3270309743449761
399		0.31678622688991875
400		-1.4320029861321768
401		-0.3849922112206562
393		0.11285121171224019
394		0.732999615981789
395		1.1290128922158198
396		-0.16856594458547727
397		-0.12940291744171234
398		0.14653060078101113
399		-0.30864051233254336
400		0.7187405202279439
401		-0.30230646807189754
402		0.7963411688636259
394		0.0758209213628805
395		-0.3283588692260683
396		-0.2732779140174056
397		-0.2525378054030662
398		0.6208379832085014
399		-0.68125003639043
400		-2.4438282164972382
401		-0.7881419901402246
402		0.1414957517703206
403		-0.4176664909798161
395		-0.19801731048638574
396		-1.5956339839597915
397		-0.8989452701647002
398		-0.7771390105392005
399		-2.613209029034411
400		1.042198035296057
401		-0.25570310559099824
402		-0.8382185377525482
403		-0.40800556013481803
404		0.7561317156367428
396		-0.20966975929003498
397		0.3719539391890471
398		-0.05836083653465504
399		0.17073397966433865
400		-0.21978651923655138
401		0.34206040875228166
402		-0.023193781000471037
403		-0.8603502854398384
404		0.01739238998214181
405		0.29338142498497105
397		-0.44834355997635367
398		-0.6868593165994762
399		-0.30269811157433235
400		-1.173831087464343
401		0.19032593692537572
402		1.2856294309895355
403		0.3859827984547498
404		0.17513306930417366
405		0.030902006886506538
406		-0.5630755911867079
398		0.19638437366062703
399		-0.37506753458860326
400		-0.4339939205485191
401		0.11111467849949755
402		-0.6227096795319981
403		0.17162777551462916
404		0.2679642220285275
405		-0.08425225224447244
406		-0.30108929883629804
407		-0.26746241400184895
399		-1.6921472885738744
400		0.45713261401949096
401		0.17986080485186878
402		0.3378876982496384
403		0.3203482007516844
404		-0.2817109966001753
405		-0.9527711896684382
406		-0.5644981517165877
407		-0.15102035142462386
408		-0.16016231864216243
400		0.5998500755946917
401		-0.3409477104481964
402		-0.36530837844577213
403		-0.7609530748524241
404		-0.719916195384129
405		1.215482263369687
406		0.10271705032875206
407		-0.5657088418277125
408		-0.32354019810591916
409		0.28121834709455734
401		0.08674597280499008
402		0.2829252426325031
403		0.38380098800798756
404		-0.4679936559036568
405		-0.41308046842485174
406		-0.5319948796047247
407		-0.33914910892682537
408		-0.12142218451465363
409		-0.18169789236337355
410		-0.6784058042906758
402		0.5285201766375486
403		-0.6360239034687596
404		-0.8742808103673714
405		-0.5607392950850318
406		-0.9061017543434238
407		-0.6543342227859666
408		0.28069514064678164
409		-0.14726347650494034
410		-0.10803016633771965
411		-0.631620019324751
403		0.3859465664211854
404		-0.043329995421887896
405		0.440887538706144
406		-0.7705151168200078
407		-0.930001908291325
408		-0.5566212240578231
