1		-0.6957492132700412
2		0.8506532150442007
3		-0.4725731379913465
4		0.08768910289661393
5		0.18740951279567797
6		-0.3578620002995588
7		0.19654050670938525
8		-0.9881229821464946
9		-0.772704605312014
2		-0.3714707807345698
3		-0.42805154033394155
4		-0.41554497387121797
5		-0.632514298192369
6		0.3452784583797646
7		-0.06174655840878298
8		-0.43791692419409967
9		-1.4487872750633874
10		-0.2949183349085468
11		-0.17059530024798364
3		-0.8409145034679678
4		-0.3195601753450946
5		-6.833690631534472
6		0.6875202217346282
7		-0.6192282892066798
8		-0.3401388742447649
9		-0.06297823549285572
10		0.03528491357888632
11		-1.731063556391565
12		0.5762188659847395
4		-0.06799069897385712
5		-0.42999037351350167
6		-0.34767859979912424
7		-0.28915800426325855
8		-0.12670606572353124
9		-0.5128605347413526
10		0.0439542820029142
11		0.23285672389804268
12		-0.7781930877930635
13		0.07889793187230178
5		-0.1652595600527809
6		0.0013069135831533269
7		0.1582819008265149
8		-0.08611849219108934
9		0.4517359841086128
10		-0.2590141940216678
11		-0.6767474289793457
12		-0.05613006662286369
13		-0.1404588161629603
14		0.12496786179981868
7		-2.631918860080393
8		0.1972627451374562
9		-0.9909829263059197
10		-1.0911858226846247
11		-0.15114190364687383
12		-0.4824556797486235
13		0.06360580667280218
14		0.15030389863821964
15		-0.202104029290154
16		-0.4456236390219621
6		-0.1488589217140245
7		-0.21945032190034994
8		-0.49661042368972086
9		0.04766323265228587
10		0.2105740523777784
11		-0.36367632426882657
12		-0.3673424858030185
13		-0.3333766934207148
14		-0.6026703077542922
15		-0.07679330166517988
9		-0.03625677318688989
10		0.1138533963618556
12		0.31498552366109017
13		0.10625563290119458
14		-0.6057838965856028
9		-0.24621791240635382
10		-0.3827907764943459
11		0.01033350596945585
12		0.21062053967737865
13		0.07976028532320309
14		-1.3932813295916002
15		-0.15268827699043383
17		-2.2099921344845708
18		-0.033224757520020576
10		0.2428361896810776
11		0.008885462210968907
12		-0.03536445013573709
13		-0.17839188615257315
15		0.026623975396883496
16		-0.5096549332057031
17		-0.2709340328899662
18		-0.8657789296289252
19		-0.24344011412982947
12		-0.1960527520237232
13		-0.9573783958349603
14		0.5422722310111533
15		-0.21648270106445625
16		-1.0273148001888714
17		0.8038359403067952
18		-0.2138346885107521
19		-0.6260112444254469
20		-0.36205879165698146
21		-0.2972312195429308
11		-0.6743272368310465
12		0.0076231757634694424
13		-0.6225089290924946
14		0.3840535699820468
15		0.2543197664522731
16		0.12604887370785012
17		-0.13543240236671103
18		0.4976516148396027
20		-0.6256831895022353
14		1.298267924711075
15		0.14674660480891089
16		-0.5365864085987148
17		-0.8563397763429457
18		-0.4077806740939213
19		-0.43369229653213226
20		-0.8716182335475005
21		-1.4658674617124656
22		0.14279247003269677
23		-0.46182715789538237
13		0.16236403991406817
14		-1.4051671915918789
15		0.017309813798500086
16		0.6111384403600356
17		0.11578619087971478
18		-1.1499079103258225
19		0.21448125792483133
20		0.23990140921292225
21		-0.10032267522774148
22		0.18292313251026796
16		-1.33116422275438
17		-0.08168886927573733
18		-0.31119122930402165
19		0.06785972270331776
20		-0.04780484124289226
21		-0.44577888750386074
22		-0.6788767560763709
23		0.3751131785427161
24		0.17552154940042405
25		-0.5359945465083951
15		-0.15804379195994644
16		0.04398338729116435
17		-0.1029548116727697
18		-0.19192242019734163
19		-0.4495493377023085
23		-0.6475151308431866
24		0.09530552366843761
17		-0.09029990398576888
18		-2.399799766264981
19		-0.0036801748364853255
20		-0.0507153396332838
21		0.07487468249524858
22		-0.5032813425012117
23		-0.09190942319025482
24		0.0985812188680229
25		0.005133595520535709
26		-0.38291164308183107
18		-0.5537795065484605
19		-0.4620073080029445
20		0.091067292728195
21		-0.0017390597729156348
22		0.3450680113847803
23		-0.6968506154303333
24		-0.3084572871393398
25		-0.6550454737848471
26		-0.14365300261060035
27		-0.03339253588111721
19		-0.16823096565225582
20		-0.172961229377338
21		-0.11526726291111802
22		-2.866278666154974
23		-1.4465307065320991
24		-0.3806830239889995
25		-0.11960977859429878
26		-0.44518427593289994
28		0.2891248981014319
20		-0.15762543970604728
21		-0.29707782513317355
22		-0.27305999167571327
23		0.09558149005111916
24		0.07303168820430377
25		0.0852471483082884
26		-0.13458670391222696
27		1.1130782669660435
28		-2.430337351044612
29		0.6443584419227619
21		-0.403634024820324
22		0.05038166706211254
23		0.6885139608103166
24		0.2918975392962592
25		-0.9957513919509164
26		-0.04852796916333904
27		-0.27298911534901626
28		-0.16046841404782664
29		-0.04423495021931104
30		-0.8417889139103439
22		-0.6137753369391661
23		0.852752480332688
24		-1.2819812704043552
25		-0.7405263112465647
26		-0.20840317229470573
27		-0.09678987203886964
28		0.21184334417912545
29		-1.6726572307853387
30		-0.025567498032424668
31		-0.8068893128429913
43		0.16965356619452918
44		0.16480978792542547
45		-0.5276430860894851
46		-0.32919289294107273
47		-0.39421792659709093
48		0.042388722297555706
49		-0.06154445823552829
50		-1.2864867908451623
51		-1.542741670863433
52		-0.1625312550987834
37		-0.08824020942883724
38		0.5854943151170489
39		-0.2854034686435836
40		0.36015685054667435
41		0.6219651903107252
42		-0.4311697909335454
43		-0.1822455655011367
44		-0.055833372994487956
45		-0.19802958000382723
46		-0.4328974780399917
42		-0.27247074459394227
43		0.038645062663000426
44		-0.6118857025152018
45		-0.3591965113133116
46		-0.3506407311060643
47		0.3397982299827218
48		-0.49964298311613964
49		-0.47240186086767594
50		-0.15630181029488283
41		0.09196412320662958
42		0.24832232306027277
43		-0.30659270009304157
45		-0.2331234038756855
46		0.19365417368994398
47		-0.495904591808133
48		0.40801257057280144
49		0.05538661926878612
50		-0.5015148631322345
29		-0.17446248802812242
30		-0.2611667234760123
31		0.5319380946647386
32		-1.5638184786429543
33		0.049227448805681806
34		0.14836333071885013
35		-0.4719706610164476
36		-0.42428124468689615
37		-0.16112543898460077
34		-6.604225065537821
35		-1.0049670047494197
36		-0.012043442374151794
37		-0.8557289525921123
39		-0.006768886079547501
40		-0.4172453320243087
41		-0.06308791219448052
42		-0.23269159995384384
24		-0.2668308809377907
27		-0.03753094808821481
28		0.5714800183164266
29		-0.7112569147860028
30		-0.9940565450860126
31		0.2357747118323852
32		-1.4472430543972548
33		0.2855440766943255
26		-0.30359159059151275
27		-0.6440068060936052
29		-0.13276442422335397
30		-0.18413930205983942
31		0.7497602474212426
32		-0.150917449421433
33		0.5183468078506466
34		-0.1722692176872357
35		0.06799890803501822
39		-0.6194248645012955
40		-0.20417600003065206
41		-0.6461451416284746
42		-0.4527736021961002
44		-0.14015405397444486
45		-0.19622685067369308
46		-0.0026165682251631144
47		-1.0002969800971426
48		-1.9669958715272113
27		-0.7464245325694245
28		-0.024356897423727927
29		0.6009239822796639
30		0.3298646459913239
31		-0.21713997067762067
32		0.2937147566438974
33		0.14222496402435916
34		0.06281236457000068
35		-0.4147717480451873
36		-0.8099789602660674
32		0.05661280793367378
33		-0.030520383907485592
34		-0.42280612224292335
36		1.2581369753199898
37		-0.1267577692524626
38		0.2638312930728631
39		0.46551679581221345
40		-0.2203381891246405
41		0.11558439412606074
38		-0.17784478208760687
39		-0.046403240252758146
40		-0.04883951628056257
41		-1.2884072861869829
42		0.5664618753222798
43		-2.3905665007132426
44		0.11977789920704221
45		-0.6241842810533255
46		0.2662684815936083
47		-0.41723206817495295
36		-0.20457764799940878
37		-0.2617595060404755
38		-0.04468870595196787
39		0.39387552406197124
40		0.07754683269289733
41		0.5645901708993876
42		-0.072394567796617
43		-0.2646936771707613
44		0.1393342470572024
45		0.14453069143282088
31		0.21947587217691888
32		0.10523264984929885
33		-0.007532493261868233
34		-0.20705776849817617
35		-10.79492914822362
36		0.05890495232257684
37		-0.42376354181699943
38		-0.12160307179073498
39		-0.5113258920746447
40		-1.4027425189991505
40		-0.3842077707860689
41		-0.42448554030844965
42		0.7416821067836002
43		-0.3108558054588268
44		0.10891079621425502
45		0.2949749907164385
46		-0.22025460819778897
47		-0.477773787322398
48		0.029743828218863927
49		0.3035948878678077
30		-0.513817398990546
31		-0.3123852682688733
32		-0.2952504455167257
33		0.011607224932709373
34		-0.9532480377498309
35		0.25009276680942266
36		-0.12178677878685097
37		-0.6684597265573108
38		-0.08221379401341583
39		0.6473666813320986
28		-0.4978006848071496
29		-0.5176715491981486
30		0.30665045980807776
31		-0.11224799567851107
32		0.20514665614109176
33		-0.2600804154809211
34		-0.3367511836411047
35		-0.6555015533847619
36		-1.4537369570898446
37		-1.3953052708102238
23		-0.5622495064813211
24		-0.23792981509011532
26		-0.520733769374895
27		-2.7404824331329003
28		0.8421223336330421
29		-0.8352430780355201
30		-0.3835293221753534
31		-0.12150088916075544
32		-0.23607295251846694
35		-0.28988719915620337
36		-1.6624508705933516
37		-0.14491187413282403
38		-0.10587613646655124
39		-0.22029408870126962
40		-0.16777766520804727
42		-0.01744534800794973
43		0.25433689433178974
44		0.29127865749552934
25		-0.009076661209804065
26		-0.17577224481114584
27		-0.01406655734677124
28		-0.042447513291287826
29		-0.3044721230771521
30		-0.6889018506923884
31		-0.39448059465073015
32		-0.015817276024428565
33		-0.08725696200878515
34		0.7663492848735262
34		-0.2897655993655624
35		0.14027425124147846
36		-0.2999454047744338
37		-2.1879891205010784
38		0.26174598604304006
39		-0.546383888926149
40		-0.3463945966940502
41		-0.9241417889075357
42		0.04848866502448633
43		-0.7689786408262707
52		-0.5062245251924434
53		-0.30687789571388885
54		-0.7655589609623067
55		0.17462866510312824
58		-0.47162008442823433
59		-0.14925494118051827
60		0.11818091713376247
61		-0.9878056219766355
53		-0.08562468829634003
54		-0.062039892778503226
56		0.10644092908884477
57		0.42375026914058755
58		-0.7149170926039041
59		0.028139138208747
60		0.4866792879241203
61		-0.06588177770399874
62		0.12732533980831037
47		-0.560160011930105
48		-0.008931168960605352
49		-0.12618945388415936
50		-1.0885102036822365
51		-0.9016375883356883
52		-0.6727882902438853
53		0.13931271606462114
54		-0.6372334470208856
55		-0.12859243410761265
56		-0.71079786571551
44		-0.3059264255653141
45		-2.554747046503504
46		-0.7674709374658027
47		-0.10929570348664858
48		0.07439891588555934
49		0.17011865131173864
50		-0.40210563900276913
51		-0.12069655219587545
52		-0.25322904391738055
53		-0.782399752811749
45		0.20393541951963173
46		0.6818189365390227
47		0.09838583128759394
48		0.03472871576248581
49		-0.18636677646111516
50		0.05352950852295512
51		-0.02407704498856566
52		-0.6098856485130804
53		-0.30766792513639546
54		-0.3225656087156472
50		-0.2715149083139251
51		0.007680746371217837
52		0.04979489951337648
53		-0.040657499647493975
54		0.05848215642826251
55		0.7231881248200641
56		0.18471404629195903
58		-0.20111620969003915
59		-1.0791627491258593
49		-0.147593440887654
50		-0.6490570116780745
51		0.5347548727331497
52		0.054922831550824405
53		-2.8042456639890174
54		0.03799030670836246
55		-0.4041628051348243
56		-3.6471979066822557
57		-0.2681691211249117
58		-0.5481623056788419
46		-0.30275237644171504
48		0.16753382196312797
50		-0.18245156750651112
51		-0.7296185748147079
52		0.33954084972237214
53		0.23492984443993697
54		0.005311932628303252
55		-0.39161632096135807
48		-0.6991047483651771
49		-0.28783456935769564
50		-0.6320555332104602
51		0.3345312601571753
52		-0.3218243635136436
53		-0.4769181751991604
54		-0.12218358325217744
55		-0.010552855103598381
56		-1.7220440525893408
57		-0.1669072919409358
51		-0.2201954213506402
52		-0.09562465625285242
53		0.022279825919598952
54		-0.2437786978044279
55		-0.17074210522837802
56		-0.25980353190417127
57		-0.12001043048762391
58		0.2906447106527871
59		0.06159625991066841
60		-1.2371005587604689
54		-0.1407747416339158
55		0.007284733265941127
56		-0.2969454684241069
57		-0.07550673324654515
58		-0.7462547000238314
59		-0.4533473312345656
60		0.8711928925866509
61		0.07938948924269386
62		0.011015240244798687
63		0.0078031669437163805
55		-0.47455282531831483
56		-1.14588958179403
57		-0.20189203656746027
58		-0.22102362424196212
59		-0.42088803751544346
60		0.3633709147318848
61		-0.07539376580759341
62		-0.14402908736298872
63		-0.29910751447477607
64		0.007582271407234848
67		-0.16849341492669254
68		-0.3318475504392246
69		-0.13805073428773432
70		-0.15410980861148627
71		-0.11521652123024424
72		0.3117792761421094
73		-0.34324958293155217
74		-0.7684719107756083
75		-0.23200491001612977
76		-0.9932016250240779
61		-0.3642198481157351
62		0.06701111230731453
63		0.12682874976725822
64		-0.19183781175890915
65		0.18590153040163146
66		0.5807603462500528
67		-0.5196778302681966
68		0.2526282805599156
69		-0.100360544459046
70		-0.0834083736957005
66		-1.1572842836166515
67		-1.3048817050482315
68		-0.02243480176978147
69		-0.3171033806640733
70		-0.003901339199080318
71		-0.023061618714430018
72		-0.03980569079889465
73		-0.0178622128868297
74		-0.10492158224544802
75		-0.07196764890995772
59		-0.5984400382372236
61		0.6760953426352075
62		0.05796608285656617
63		-0.4544877730439985
64		-0.033093009416675534
65		-0.027574581833843752
66		-0.18242947617481736
67		-0.17929678202931948
68		0.14396542845009427
57		0.04232796953734518
58		0.7014760324616786
59		-0.06671533543830248
60		-0.026358811754219186
61		-0.3781926363963099
62		-0.43554541054574647
63		-0.09464170814093933
65		0.31973484148452436
66		-12.522807238132403
60		0.14473693579048696
61		0.2593392617911247
62		0.080510857433839
63		-0.3382712093798456
64		-0.11868475129203092
65		-0.3149961019040633
66		-0.4981368973854847
67		-0.6314161056248876
68		0.2734471632903138
69		0.02421475874304456
63		-0.9360436214508883
64		-0.2210600299735596
66		-0.01057433898919188
67		-0.8967606650407479
68		-0.09984964784889655
69		-0.11415084284096075
70		-0.0903966149764428
71		-1.309125834981203
72		0.2848499699123138
68		-0.49521149981378265
69		-2.3379392225818014
70		-2.1761212250384747
71		0.08606306245634393
75		-0.5077605131805484
77		-0.27485968649276094
62		-0.8737966351252925
63		-0.10215367332443766
64		-0.238249052368281
65		-0.1890999733491044
66		-0.3588113962121722
67		-0.17475413914669233
68		-0.9580597963546641
69		-0.21523061291487883
70		-0.250129688931702
71		-0.38403777920632864
59		0.12239414648100676
60		0.10709271317504353
61		-0.20283901688968342
62		-0.5530521721645127
63		-0.17113334841506145
64		0.32509241954750323
65		-0.5034104697729305
66		-0.7416081274715198
67		0.40913510322983976
65		0.16295927292563678
66		-0.14446068665367157
67		-0.005025387451158134
68		0.17268692494560708
69		0.47130466522576503
70		0.10116242499772164
72		0.2848004230129204
73		-0.1305570073985982
74		0.6593468365820956
64		-0.26959115966181746
65		0.24797141745523302
66		0.08408735114611206
67		-0.25681675713587215
68		-0.632921585562476
69		-0.22212324256008806
70		-0.5830341455411406
72		-1.4908199629876635
73		0.14161678099024647
56		-2.2705374047851516
57		0.6474869609334687
58		-0.4690996461553421
59		0.10056439455260893
60		-0.712752865081161
61		0.030424337228924042
62		-0.8014473034835562
63		-0.3525524548438049
64		-1.5841474153328732
65		0.13529629869369814
74		-0.7095500438294919
75		-0.493039674076414
76		-0.851707349474619
77		-0.20791280785341884
78		-0.3584315171229424
79		0.07557706077051987
80		-0.4057654636181944
81		0.29766282663849747
82		-0.7244643367319195
83		0.008013344304742572
73		0.5217218061480889
74		-0.39553621398973454
75		0.17826529845550376
76		-0.18244398067606116
79		-0.3779345060078118
80		-0.19580806474669055
81		0.18204585651369012
82		0.16792030398405644
75		-0.22484636325084975
76		-0.5421836140855346
77		-0.40431804058257637
78		-0.15479427525742592
81		-0.05876221506977919
82		-0.41146500012286474
83		-0.3366547711858192
84		0.0808244160490834
70		0.3807630418584539
71		-0.19524760417979214
72		-0.16969771112567525
73		-0.7430208822239691
74		0.04540836364008272
75		-0.29545045181129254
76		-0.12405770023130197
77		-0.5904160125241723
78		-0.6115918977854308
79		-0.15446311647223962
72		-0.5224886228978918
73		-1.3508025267434427
74		-0.9132252966603852
75		-0.1199602659936096
76		-0.7355464541576758
77		0.13921655942812233
78		0.1204298806288044
79		-0.10119461464676796
80		0.016791072230791914
81		-0.8179835546767904
71		0.22176813231511364
72		-0.599262760630541
73		0.3634294830407693
74		-0.6189994285671857
75		-0.21128707003418906
76		-0.8945274679396706
77		-0.08319721784303445
78		-2.226629270685554
79		-0.562524726559299
80		0.09563537624916273
69		-0.3814706991573765
70		-0.33006024282851104
71		-2.666492160847312
72		-0.09543494880616885
73		0.9223229590123064
74		-0.6165768026730174
76		-0.2467032470950078
77		-0.8507211738520143
78		0.24586672329903994
77		-0.034823423874745504
78		-0.025628769626895583
79		-0.631203701350255
80		-0.7896829710871505
81		0.32846088710268345
82		0.19294289767839526
83		0.5801057847032878
84		-0.19324249820512304
85		0.22780002066421312
86		-0.3219272484367679
76		-0.23830907441329968
77		-0.12490856087658639
78		-0.35552890117677755
79		-0.4129664588542667
80		-0.5337192414740844
82		-0.12443309035694718
83		-0.4961955630269289
84		-0.042501378417683686
85		-0.42141580127577444
78		-0.4230064612468837
79		0.20948274049513743
80		0.06139786577726705
81		-0.21973057572892615
82		-0.13281463173968486
83		-0.5169747527899987
84		-0.13400392516005355
85		-0.15493032200407467
86		-0.09533510501738472
87		-0.6611788965966046
79		-0.4433568027968293
80		-0.9875447874257117
81		-1.2013210597012207
82		-0.15940004248793999
83		-0.5208121917658731
84		0.16288028415949626
85		0.3332759810138413
86		0.5456483998985309
87		0.3469227577729224
88		-0.16442280072525622
81		1.6227680260498687
82		-0.13255827002422188
83		0.25575335340037353
84		-0.24416296341819047
85		0.2964749438449073
86		-2.2693786347501534
87		-0.03447538203011514
88		-0.13868816236634998
89		-0.8606555638444083
90		-0.13173456616757714
82		-0.6296397391294656
83		-0.31514486286237414
84		-0.7390466119394224
85		-0.31971198348433727
86		-0.4296734184889527
87		-0.3757298250181602
88		0.06604918144973136
89		0.4871137084918615
90		0.09206078433277466
91		-0.5196938505021252
80		-0.05039178712193874
81		-0.3016069362592098
82		0.20850364692137635
83		-0.12652773957401292
84		-0.061643827257356384
85		-0.047810869740365566
86		0.24186934635660026
87		0.10016594314296744
88		0.05489015871399161
89		0.05347738897060909
85		-0.5928416187002864
86		-0.03867758580469269
87		-0.9700964666016746
88		0.2396826076263727
89		-0.06419533457180837
90		-0.283665332581014
91		-1.8898082761053054
92		-0.3008752948864265
93		0.2129328154236921
94		0.11844322782945818
84		-0.10896947105145162
85		0.06705196293814311
86		0.19908312878850404
87		0.08068701382987954
88		-0.4890604609926798
89		-1.059352884646648
90		0.08045748387569229
92		-0.9942992002893069
93		0.3040231153281575
83		0.2792894774373814
84		-0.6628317007059732
85		0.17060514592581089
86		0.02208332918972817
87		-0.03268530684162138
88		-1.1102341175316213
89		-0.45614532234664634
90		-0.21141793165372028
91		-0.09078400631697735
92		-1.0900734393139118
86		-0.5471367301252225
87		-0.20406445226171868
88		-0.666469964037236
89		0.04717941687297919
90		-0.001610994308811812
91		0.08141480973695532
92		-0.04695973393560368
93		0.06835299008151079
94		-0.6345422671913766
95		0.20012887556971462
88		-0.508438952506435
89		-0.19089170164866098
90		0.06555462480664215
91		-0.3934990111251903
92		0.01949080189589783
93		-0.1489230313283771
94		0.21759631129780257
95		0.525186335647846
96		0.29242390705931604
97		0.5137924122137405
87		-1.6237201178837921
88		-0.2056672306677906
89		-0.744023825988646
90		0.36821791131321585
91		-0.10706883266402109
92		-0.19023803161544206
93		-0.5404354376637951
94		0.24532243411975513
96		-0.00021606542426860084
89		1.430237534835161
90		-0.8413153785753593
91		-0.281886947837968
92		-0.07233308588755925
93		-0.0313535167900361
94		-0.7624433193870499
95		1.3227798022526975
96		-1.2539471566933629
97		-0.37562150847470077
90		0.5633204937633972
92		-0.30921637416430536
93		0.21859345535724675
94		-0.647556020109156
95		0.4472901299540802
96		-0.6528049645758902
97		0.45818616230384523
98		-0.5543730206256859
99		0.10798874834672925
92		-0.6610495505911608
93		0.10591397758669262
94		-0.029473875737043728
95		-0.274032480734724
96		-0.20373825007978416
97		-0.22742586154858807
98		0.2540679586750515
99		0.010702499037745726
100		-0.030294004280648316
101		-0.09284379015141336
91		0.12800135395602047
92		0.43712769644289606
93		-0.30175830386224484
94		-0.15512249826865285
96		0.06283046051131709
97		-0.18790509169206973
99		-0.25721080118932754
100		0.9912062306231167
93		-0.22072053214906465
94		-1.4611988334307884
95		0.034549561075079956
96		-0.01742176136330521
97		0.2671576939579393
98		-0.28833869623881686
99		-3.913433288820035
100		0.6027881033714334
101		-1.0768750850829039
97		-0.4083861490254156
98		-0.08508507206416185
99		0.18342187265345855
100		0.0928443632638466
101		-0.07311994610265177
102		-0.005445895696319083
103		0.22991041520015462
104		-0.4143891994988236
105		-0.7738409637094079
106		-0.3126578151751826
107		-0.1669202264222533
108		-0.577071926833736
109		-0.054372979953871345
110		0.3365237468060525
112		0.22405548700590894
113		-0.4431168283983705
114		0.19439563378601354
115		0.05282219785975299
101		-0.12542586149757914
102		0.08665548145894279
103		0.02449570364482077
104		0.4580166719142115
105		-1.7802479376325178
106		-0.2150545605889793
107		-0.3179266577350372
108		0.13107707787307446
109		0.36368558008240215
110		-0.0968932999125906
106		0.020458849170502863
100		-0.07046348903230848
101		-0.44202484924724594
102		-0.18057355642071438
103		-0.7590681270595303
104		-0.640072670889355
105		-0.10786634369983632
106		-0.23348074160239612
107		0.28605513033666596
108		-8.107308336615603
109		0.05420311607247767
102		-1.1688008671046701
103		0.40124893992554045
104		0.008158024875915297
105		-1.6314945011152913
106		-0.3931870425021677
108		0.08131216458964512
109		-0.01776634187857938
110		-0.6068310190862236
111		-0.18384930878118128
104		-0.10886172845878671
105		0.11747549865211394
106		-0.07815363614452857
107		-0.5354527532843513
108		0.019607040256502662
109		0.042711021316796445
110		-0.46148441418052155
111		0.1000550742214329
112		0.5050273616919392
113		-0.2949544621104789
105		-0.33769385373752775
106		-0.09210504841053263
107		0.4305816671104063
108		-1.2707090697986811
109		-0.24242072978016405
110		-0.46965485188539535
112		0.5766911790831208
113		-0.35865168933662983
114		0.38918305506050077
95		-2.5505775446944647
96		-0.21956341603679455
97		-0.4371759972133518
98		-1.1952366401275487
99		-0.10700335264392316
100		0.4426991870131539
101		-0.6833453409001884
102		0.09308611612070121
103		-0.5186779659408464
103		0.004168586001956183
104		-0.7390871679622562
105		-0.20413456845247316
106		-0.3762452989633329
107		-0.30953205178913273
108		-8.412460746577242
109		-0.36435946950424963
110		0.07148651211466166
111		-0.02755441795124299
112		-0.39918298128589985
97		0.14005197456337076
98		0.4246572690397704
99		-0.36928503046458977
100		-0.02228618761564437
101		-0.5479701279633663
102		0.12422345466026832
103		-0.10197305174826161
104		-0.13011464396691538
105		-1.0429339166753717
106		-0.20151377517343053
94		0.21298373499886958
95		-0.4134554758125649
96		-0.7188303047102479
97		-0.09044323819491996
98		0.2076761196293983
99		-0.9946225805443426
100		-0.3614472067824937
101		-0.5002869264992434
102		-0.004129302622179683
103		-0.0341089459333565
98		0.09237968963896219
99		0.12780381131922428
100		-0.2685279271151978
101		0.2862982303830472
102		0.043754176012138775
103		0.34297642273700624
104		0.8772703909351744
105		-0.9866643789863292
106		0.2628189389430858
107		-0.38137560821819166
108		-2.8172638376635164
109		0.1727246867619238
110		-0.21189180162078544
111		-1.1241961173773911
112		-1.6496671551060056
113		-0.5591571507510728
114		-0.30921794468670527
115		0.019354354279757607
116		-0.6425980328540971
117		-0.06182353619299639
109		-0.21359005708425058
110		0.02856652945842601
111		-0.5900763054044126
112		-0.4162184092683759
113		-0.2791318837638336
114		-0.1083147132366128
115		-0.589142593586569
116		0.6968617819718316
117		-0.3600467231971256
118		-0.11278268700235529
110		0.32933906555760645
111		-0.6969171605775542
112		-0.5716384547675208
113		0.053242002873945496
114		-0.5935158692570994
115		-0.06986246932817482
116		0.11698528407058761
117		0.2726632883604944
118		-0.4856773480227019
119		-1.4522462951626494
107		-0.8428200769548578
108		0.04118537380631128
109		-1.108767186868129
110		-0.17043929145637768
111		-1.330637043515242
112		-1.7704383837495445
113		-0.0667389127058213
114		-0.16415152260786842
115		0.18910850493024678
116		-0.3826958989235463
112		-0.19900799241965503
113		-2.470159789144761
114		0.1017441248851031
115		-0.27248299844983
116		-0.5194755328599318
118		-0.22365247259301374
119		-1.1405880379868314
120		-0.17470282797788103
116		0.9462255040350946
117		-0.10119928844607168
118		-0.2336609718189698
119		-1.6805929760188585
120		-1.119833486822834
122		-0.8470468833773475
123		-0.15011559199753813
124		-0.41564179344800695
125		0.5971344413507117
117		-0.007474945803614657
118		-0.6273909166434256
119		0.08660423750679885
120		-0.10618011075116042
121		0.16052579551865132
122		0.011372399968157396
123		-0.10072416254295377
125		-0.7257574251443539
121		-0.18324452134103364
122		-0.0447117093362265
123		-0.27232879412364985
124		-0.0389861366963303
125		-0.897908653102821
126		-1.1027087063920644
127		-0.15269861948637067
128		0.07776263915096492
129		-0.33705597864580916
130		0.10880082691018898
120		-0.0978513270387829
121		-0.224482836131497
122		-1.1774753109063747
123		-0.04471215963726049
124		0.284218154754262
125		-0.07534041143441854
127		-0.6112393516148561
128		-0.3042815104251548
129		-0.09595519659605217
115		-0.07228255911356447
116		-0.5901684816310531
117		-0.7929570229987484
118		-0.24393703723187443
119		-0.07270648481529471
120		-0.676560474305887
121		-0.5264667396357016
122		0.12045778199838954
123		-0.014608456199810061
124		-0.6686687362323032
113		0.2926667299097999
114		-0.4237463754561147
115		-0.1316075746462013
116		-0.6573606906740119
117		0.25970929870259646
118		-0.25573532445985525
119		-0.5950490417778566
120		-0.3042977735855506
121		-0.38887075777204133
122		-1.02250044421819
112		0.24325018063903434
113		-0.11622035811482484
114		-0.8442068272143294
115		-0.3066437961249362
116		0.3823508905059418
117		-0.20257328406354247
119		-0.13070253426575767
121		0.022293810879476208
122		-0.24017416394112065
123		0.3965730528714425
124		-0.3958304408623938
125		-0.26501470719472986
127		-0.07540438284141669
128		-0.5311226019903106
129		0.20379157850334048
130		-0.5513035822837752
131		0.47639874166703056
119		-0.228014278935005
120		0.3663608653302567
121		0.1129658614160924
122		-1.0734882631818037
124		-2.084564865834673
125		-0.4049446212222974
126		-0.6100624630499555
127		-0.41957814365205565
128		0.698651214201275
118		-0.058681682302412934
119		0.009882541937098812
120		-0.3329966409749156
121		0.03782019553428035
122		-0.9981858670544732
123		-0.6123325496174088
124		1.0058622538000728
125		0.1298550251069567
126		0.07376773246217125
127		-0.2911133364422165
114		-0.0881717919773106
115		-0.022763676572266432
116		-0.09181965369933154
118		0.011427699123332136
119		0.27963851048933586
120		-0.22100278484878685
121		-0.4117159394241435
122		-0.16785659469495529
123		0.2941405834457834
124		-0.16066298224106462
126		-0.8119311142849969
127		0.14402893929355254
128		-0.9164022658896063
129		0.35458121701565176
130		1.1281672539404433
131		0.01592993342142845
132		-0.2768479311893127
133		0.38366077954916106
126		0.28985696372597464
127		-0.6326355392190945
128		-0.28749757812025306
129		-0.16117451349705184
130		0.15170033035431654
131		0.1367947903727866
132		-0.09078556773125013
133		-0.21745132298405478
134		-0.4584669407037878
135		0.05859607102108644
125		-0.11978641043275137
130		-1.514078790527169
131		-1.3310232422504977
133		-0.4347928495015527
134		-0.541190261226884
123		-0.3563362825259697
124		-4.702785715130177
125		0.22185510205655698
126		-2.8412483822387324
127		-0.12470657362395568
128		-0.12279152092850013
129		0.22125793625059487
130		0.13107064039905558
131		-1.1461044224815553
132		0.21701760265046105
127		0.0644788068866831
128		0.35953105954504044
129		0.039856206387311285
130		-0.22654557319945193
131		-0.030507544382960612
132		-0.10904221521111028
133		-0.34810832601778646
134		0.06850825899942484
135		-1.8881855617895074
136		0.34552980656590315
131		0.26650479278353356
132		0.05355943595559487
133		-0.2806672553461215
134		-0.6596991108753715
135		0.010488012852199366
136		-1.4052525497708532
137		-0.32097760516491564
138		-0.11324151362681506
139		1.9920712605800466
128		-1.5886677264553295
129		-0.5289529793963869
130		0.12201420776454315
131		0.3963609879809622
132		-0.5964135513679532
134		-0.9897194571836408
135		0.05554294629683778
136		-0.29375314978656253
137		0.13968664154627608
129		0.11320864423652308
130		-1.2204893225524636
131		-0.027384004463692033
132		-0.5270871971295121
133		-0.4094531029857976
134		0.07811228114562985
135		-0.3147051495365272
136		0.19265959187604967
137		0.65074766576109
138		0.20672018728488367
133		-0.7104764942481984
134		-0.4166963442110819
135		0.13663236645708748
137		-1.7920067700901534
138		0.1356035484846049
139		-0.805857284143281
140		0.25639800434895316
141		0.08644754126923496
142		-0.4339911302610963
134		-0.6211379593651971
135		-0.5116176109933926
136		0.18643228380286314
137		-0.8869079221335762
138		0.2797882259500899
139		-0.0753488685315536
141		-0.13541486465829122
142		-0.5833893659833582
143		-0.44429986074490124
131		0.09139124316998608
132		0.12745629501942463
133		0.0990179851849446
134		0.15304377261232535
135		0.20728029081761856
136		-1.001254743671258
137		-0.45408878153325494
138		0.03233722954846801
139		-1.213803217361903
140		-0.014608542308532877
132		-0.8428355277118822
133		-0.25794971324849075
135		0.3952054077497189
136		-0.17840930711948386
137		-0.9371488007248995
138		1.4005965669711256
139		-0.10385986887806228
140		-0.4533020232410144
141		-0.40632741558715996
135		0.006090179616284893
136		-0.38468468180076065
137		-0.3782972793146715
138		-0.12252050840888713
139		-0.5764282500965822
140		-0.2933556875304595
141		-0.852282396430972
142		-0.1694355777978288
143		-5.953274849013411
144		-0.19604046511034331
140		-1.0875590984676082
141		1.0145565620272754
142		-0.24886420542327825
143		-0.5654705118485726
144		-0.07572939611652946
145		-5.77526891690285
146		0.12757625971697814
147		-0.2629817520034586
148		-1.1706692853061893
149		-0.30116669100563936
139		-0.3273491582277822
140		-0.08445714476014965
141		0.8290506306281417
142		1.0664114296704634
143		-0.2976653350781053
144		-0.8902211484993878
145		-0.0810230599902544
146		-0.30002244932527095
147		-0.08695160924360869
148		-0.7635757951603898
137		-2.35165551126244
138		-0.4904208850926737
139		-0.035625065409003724
140		-1.3318540365571319
142		-1.310794101621902
143		-0.24886037060972133
144		-2.1975863649193728
145		0.2011945284804616
146		-0.8698883754431694
138		-0.1260790177437433
139		0.3939197871806943
140		-0.8143919169821516
141		0.2541058356382926
142		-0.2223595700546507
143		-0.2504237208451141
144		-0.26122371190554994
145		0.5228288765912692
146		-0.48088429040182307
147		0.15592584347366065
136		0.09404111498264664
137		-1.164740864693041
138		-7.518232490716214
139		-0.7001757700019746
140		-0.1694018692679831
141		-0.4328538932640146
142		-0.49325996458533966
143		0.9825893165318604
144		0.13915402346961356
145		-0.6682774333505755
142		0.4087555036605272
143		0.08527751085650381
144		-1.857887956600416
145		-0.2569382865501545
146		-0.09331760836240595
147		-0.9622952749236291
148		0.09496790315268565
149		-0.5551337738578385
150		-0.07154141896795921
151		0.528356515723363
141		0.14816263547184638
142		0.02268155692888938
143		0.05036530349515018
144		1.0874107247620775
145		-0.6476446675593495
146		-0.5768770412336912
147		0.28386748202552237
148		-0.641011510732802
149		-0.37162097305172304
150		-0.20636567358402638
145		-0.5184697955599133
146		0.16933965777330048
147		-0.008012604883022405
148		-0.24472481704936427
149		0.5307843178930234
150		-0.20473520302643358
151		0.23894799140357298
152		-0.373213263683736
153		-0.13554710225220712
154		-0.1073966796849365
144		-0.30438045097713107
145		-0.007779465046472001
146		-0.023626868398965845
147		-0.5972994198306548
148		-0.522921461842135
149		-0.18740296659668693
150		0.46990502578509746
151		-0.9277000948309421
152		-0.9707278693999363
153		-0.16123629172441487
146		-0.2032579222305497
147		-0.21067273713057505
148		-0.384216873431646
149		-0.7012368705781797
150		-1.202645447199408
151		-0.5335990732008734
152		-0.14919136371633498
153		0.10473940656596832
154		-0.27893184306381047
155		-0.23125100958229247
148		-0.008844943878060944
149		0.03355396667246189
150		-0.1988996722687873
151		0.2796021832604688
152		-0.28300819548783895
153		-0.06111488767125404
154		-0.27471581779293924
155		0.0617875827476646
156		-0.5769097920312523
147		0.11915045225494532
148		-0.0029547250566011266
149		-0.09373052946247544
150		0.014517979048186441
151		-1.0683382911646313
153		0.6467524735987908
154		-1.010842105697768
155		0.40312906088249545
156		-0.2078268320182287
143		-3.404448596339629
144		-0.17296552700730386
145		-0.19456641959629536
146		0.2721770408010018
147		-1.2296887191307249
148		0.05021196004388863
149		-0.1611023215681779
150		-1.132496432434075
151		-0.4518217286297505
152		-0.3677958267888732
150		-0.06258678472936126
151		-0.8585660957065298
152		-0.1519515687945257
153		-2.552323884870761
154		-0.36606454812804523
155		2.2799022175513217
157		0.08226072766487386
158		0.3803095291409674
156		-0.6938567563703875
151		0.9015214004161325
152		0.05911736119608525
153		-0.4649061937388835
154		-6.1323536794568465
155		0.021128991801497576
156		0.40533075459848056
157		-0.26026459080151915
158		-1.1031011526966754
159		-0.14762794562947662
152		-0.6190249864632721
153		-0.6752809515670263
156		-0.502803495060945
157		-0.488661367135014
158		0.21820812548602594
159		0.01628321866842116
160		0.4656576700241897
161		0.18918930554481192
153		-0.5532792339226854
154		-0.40928450277550416
155		-0.8218984024935343
156		0.0896132193768782
157		-0.552109208206238
158		0.6693510101906128
159		0.018292524131251976
160		-0.06081942364078497
161		-0.13518468894294525
162		-1.3215604400434988
158		0.4596756614257515
159		-0.17429744105583622
160		-0.2593357509487688
161		-0.46772421669088604
162		-0.13614849394082368
163		-2.326909644797906
164		-0.20992906804141057
166		-0.13630429688755208
160		0.5319070268961228
161		-0.16747150894474164
162		0.024726154022689278
163		-0.1590300886971274
164		-0.3058762690627751
165		-0.5828372592563341
166		0.7421004054471724
167		-0.38555779406867413
168		-0.07967657371368557
169		0.06349068088517701
162		1.0013044943028757
163		-0.31171154589866207
164		0.09432708319241574
165		0.00020712806525942108
166		0.48171239551813416
168		-0.511581816798801
169		-0.7399012979008431
170		-0.09556695186159954
171		-0.3434898580577364
158		0.10406043543212118
159		0.12159907544301506
160		-0.3793196874644985
161		-0.27840234417025694
162		0.00824077332739183
163		-0.02462121299222807
164		-0.11406020415696724
165		-0.53735813967352
166		-0.019061454437524994
167		-0.29760761319733076
161		-0.41083051045465085
162		0.37308081940967563
163		-0.2817507651964991
164		0.5518699038337461
165		-0.48215168027780525
166		0.18063384859817566
167		-1.0981256348693074
168		-1.4893142096247922
169		-0.7167315401384909
170		-0.3887590983018182
160		-0.8490795956981535
161		0.11508378893517099
162		-0.593395228595833
163		0.38517263423951836
164		-0.9051124843907143
165		-0.06429617826351892
166		-0.45671412836976816
167		-2.1298561297817296
168		0.8913996256740235
156		1.435815902932869
157		-0.8870908461162371
158		-0.1403380221159855
159		-0.33344362176759407
160		0.47714534249653306
161		-0.21478801964835426
162		0.10749993805958284
163		0.7746166498628154
164		0.18948959031945925
165		-0.0946823371086418
154		0.9528833351882663
155		0.18994739023724105
156		-0.2953747571788682
157		-0.3091791832264287
158		0.0947335213630887
159		-0.220410663190408
160		-0.7514059861099334
161		-0.3797734028518958
162		-0.6469157321906395
163		-0.5472113518589661
155		-2.1531937940775174
156		-0.6702742640274802
157		-0.02158272625531474
159		-0.03127475063540727
160		-0.429251251570697
161		-0.008541569562459108
162		0.23654463116967128
163		-0.2056116777299416
164		-0.23263214536126323
164		-0.5226770216651362
165		-1.0008312146469593
166		-0.5012816976456367
167		-0.1230646975930497
168		-0.045040889973396676
169		-0.23222500351600966
170		-0.3318415828522159
171		-0.08239545575420722
172		-0.24036022250435207
173		0.44608907242393575
163		-0.31569052788300805
164		-0.6355909360236612
165		0.23579288762688191
166		-0.16471428219131026
169		-0.651131586222995
170		-1.1706434009366884
171		-0.34096391484853705
172		0.35018375365606036
165		-0.1994411691337148
166		-0.11388849964537485
167		0.04533323493957533
168		-0.29753158427461024
169		0.07164644085863177
170		-0.9332610792870617
171		-1.1237384393098884
172		-0.4358510906019195
173		-1.033757455450666
174		-0.02934557606536042
167		0.6762135498069108
168		0.5309582256362689
169		-0.7234031531208802
170		-14.671561500269432
171		-3.6537681426613204
172		0.735251989385929
173		-0.3517777340200094
174		0.575920760194262
175		0.1344792986188153
176		-0.12860007622935052
166		-0.15884427909973192
167		0.25630601235235206
168		-0.23799481211628637
169		0.21749365582669553
170		-0.09297196599867412
171		0.3510908705471493
172		0.5590192421269893
173		-0.42738945974625475
174		-0.09620824918996652
175		-0.41357162821250826
168		-1.3152219492356156
169		-0.3329902998277032
170		-0.7668596751367028
171		-1.5304408461968038
172		-0.19355219206911986
173		-0.5711739843109012
174		0.3699832188104474
175		-0.12079643543689697
176		-0.017998187377584945
177		-0.7608981800412935
169		-0.08058158444545277
170		-0.4153625621144436
171		-0.19579465012502828
172		0.1367609125826193
173		0.09575655928435339
174		0.16493767797907102
175		-0.8361196732950067
176		0.4808798972108735
177		-0.7146092246159146
178		-0.48956701037155576
173		-0.10983804748627554
174		-0.6360074636096835
175		-0.7955656826129889
176		0.06480426825046696
177		0.3611385276926812
178		-0.5967290751441449
179		-2.3402571117053643
180		-0.048050580573845626
181		-1.2343851780134454
182		0.4052191477364715
174		0.10388545517267575
175		-0.8929228130868957
176		-0.9318477589231787
177		-0.1359230293686067
178		-2.5313094036504844
179		-0.8479376187273605
180		-2.1789282538855885
181		-0.22163675995716894
182		-0.33236554604112256
183		-0.2930916473224391
172		-0.34550425186981315
173		-0.05018514465070799
174		0.09628982024205536
175		-0.175377156798618
176		0.2314001782938079
177		-0.10770191212432664
178		0.5612680608039732
179		-1.0323380985780264
180		0.3935422434220842
181		-0.05052587755417152
171		-0.6057479123433402
172		-1.3421762689011951
173		-0.5526304484195786
174		0.47324784679844845
175		-0.2089052353898977
176		-0.8629728863028496
177		0.06316323043310312
179		-0.35149876585485595
180		-1.1864628289683576
170		-0.3942966899142357
171		-0.82753507729349
172		0.013959258560889696
173		-0.253786222594894
174		-0.4312124700496921
175		-0.19466667439743823
176		0.12698900609036928
177		0.5811805867152624
178		-1.0135800020151475
179		-0.6395238375645247
176		0.15883428959797774
177		-0.12837757750781525
178		-0.2861879908030417
179		0.28259024444573155
180		0.2966560391077202
181		-0.5576217105855236
182		-0.4536864846851147
183		-0.16881139974272355
184		0.5295944746150975
185		-0.054571602961405834
175		0.17577128747620593
176		-0.1958922968847947
177		0.26516767759055887
178		-1.4845723443512056
179		-0.1983498903253417
180		-0.5415207691408761
181		0.0382086130774404
182		-0.1615202057218623
183		-0.13960004554822514
184		0.2724379645690802
177		-1.2741720982863576
178		-0.3645832208459205
179		-0.0827814626483447
181		-0.3900010259834716
182		-0.665593055451627
183		-0.3342625181395484
184		-0.35312817940088653
185		0.0772541337969762
186		-0.47672257178409116
178		-0.347334642041892
179		-0.30178959286681617
180		0.3840975691795271
183		0.17003303078571283
184		-0.22913528777065229
185		-0.041011700327762676
186		0.5877442137398823
187		-0.5788630311337516
182		-0.27679454835458756
183		0.026735247204850775
184		-0.49387510163622744
185		0.13979722909011663
186		-0.7755006943448182
187		-0.03208956288537641
188		0.49450317220474527
189		0.04690393483906232
182		-0.2620647453698603
183		-0.6309646685261957
184		-0.8928001896363114
185		-0.05757074247777603
186		0.4826676365812509
187		-1.227517846714017
188		0.41072955619034146
189		-0.08867416230663715
190		-1.4502684409536142
191		-0.15289192828023435
179		0.46258330050744034
180		-0.38943974549227056
181		-0.9574513248447383
182		-0.5176343946861036
183		0.3089818306223558
184		-0.20389753858254703
185		0.05624775934606055
186		-0.17291822488930694
187		-0.334119729677695
188		0.10091909162067862
184		-0.12577923527392995
185		-0.6084875770768801
186		-0.10519410245316797
187		-0.39835804368575034
188		-0.3617923564529617
189		-0.7838022048520806
190		-0.5035256521218073
191		0.007161846759593323
192		0.14939134439817012
193		0.05359753324920778
183		-0.442852151669854
184		0.12411214253547784
185		-0.03109111141236238
186		-0.18396694077388137
188		0.2410705408011879
189		0.08361571589382336
190		-0.001890418739303504
191		0.047954826708063815
192		-0.22000444136564082
180		-0.38906258475366706
181		-0.35871097621407355
182		-0.499338158724516
183		0.32494573422627
184		-0.5000209595703707
185		-0.36930714914865886
186		0.0006866822551939661
187		0.41250033527782504
188		0.1609490056862278
189		-0.20532609332809712
186		-0.4806060242709939
187		-0.11471188154154008
188		0.3214897828020257
189		-0.37644345505640453
190		-0.09000088261499954
191		-0.26004583730484204
192		-0.08885616705085066
193		-0.34538928811449265
194		0.06765520129798572
195		0.05257369575792419
185		0.5133084411543282
186		0.20779371175242123
187		-1.4971244449670693
188		-0.6626969514873434
189		-0.856435353615328
190		0.03534603112192633
191		0.5788046320011052
192		0.028681763281954948
193		-0.5256535065715239
194		0.13771788745292624
188		-1.0202982201583448
189		-0.3557864100607224
190		0.1508296549081083
191		0.5016553678160708
192		-0.5036398066091533
193		-0.08016588532859314
194		-0.0722680025792076
195		-0.3823237818760104
196		-0.22363893620143865
188		1.3680902763785607
189		-0.12022414337175832
190		-0.35314926789232554
191		-0.1318262214864947
192		0.14959208476087693
193		-2.7238889823401604
194		0.5000667642845146
195		-0.7453620019967477
196		-0.3214894743413492
197		-2.8155136969636807
189		-0.1761525382840793
190		-0.9100415156975207
191		0.6502733224976641
192		-0.252614274464089
193		0.6937906704373189
194		0.7220697266407006
195		-0.7312758633062325
196		-0.7410094365992527
197		-1.7608454830648792
198		-1.9872507060077076
190		-0.5747973085063823
191		-0.2441032505153899
192		0.0026026117751285407
193		-0.7197044115279143
194		0.18435649718516833
195		0.3738290632820854
196		0.5684370483705328
197		-0.19887733388074486
198		0.07231143188781633
199		-0.5257827744131117
192		-0.7665347557080714
193		-0.3867359480932263
194		-0.07283033265679711
195		-0.4525411014552774
196		-0.16484674799147897
197		-0.20865494684942607
198		-0.15276126977735877
199		-0.3952067057739738
200		-0.2719194439869172
201		-0.08450973992725735
191		-1.3486082377801372
192		-1.1127935389522978
193		-0.40893258565914514
194		0.027100584024902914
195		0.30263503125733576
196		0.00708755207144498
197		0.27437824313336545
198		-0.12533842730370334
199		-0.15256693797838938
200		-0.8776864361131682
195		0.043275234266611506
196		-0.09066189440694403
197		-0.2703113812434743
198		-0.6615400232278528
199		-0.356502448990254
200		-0.24010757727166276
201		-0.28989339970960976
202		-0.8951576986589348
203		-0.19275597448773482
204		0.03478812285462386
194		-0.07869812414383603
195		-0.6282877629742427
196		-0.13830439772969216
197		-0.606616240838507
198		-0.6477745518849981
199		0.10084172426055109
200		-0.4046164897852267
201		-0.19791477668044088
202		-0.3043942944050271
203		0.983561130662872
193		0.06231965565206192
194		-1.0201282138813035
195		-0.4735999434768715
196		0.5124686671651234
197		0.2860512032510376
198		-0.13290978343729104
199		-1.1011624279044125
200		-0.35316435212628317
201		-0.517942267950824
202		0.3428539363405288
196		0.1294644250434663
197		-0.29128137928023323
198		0.1702666412750786
199		-0.6138458469096578
200		-0.10271420170851518
201		0.03644916971026467
202		0.2774162345795677
203		-0.013132092860054796
204		0.12184879671034038
205		-0.702166372291382
197		-0.3803198346600586
200		0.4996167423917007
201		-0.40662606706881066
202		-0.39104737145339097
203		-1.3063696247256682
204		0.19698271420594063
205		-0.35054870140987276
206		0.5015906020492088
198		-0.8782908630197197
199		-0.4918912353459961
200		-0.33029787846060443
201		-0.6437334602455588
202		-0.11546893827362284
203		-1.4326431242958932
204		-0.5199483291241063
205		-0.35112033361581513
207		-1.004995012598692
199		-0.28270237871760395
201		0.02506515656380864
202		-0.20631172538085082
203		-0.492032494674876
204		-0.301366372235215
205		-0.11295299114167172
206		0.4619589288747632
207		-0.39971784324540327
208		-0.00621748446454912
200		0.16301893976914247
201		-0.2945508930403366
202		-0.20695106066067642
203		0.20432378692372136
204		-0.24107309412838693
205		0.25176819217356755
206		-1.2094523055977608
207		0.596512603467942
208		-0.3255610139003984
209		-0.07415213570076966
202		-1.1926245541000973
203		-0.4243344923669844
204		-0.018729983973236015
205		-0.15387365830222333
206		1.5410375550375581
207		-0.4269996145031149
208		-1.7198464904023707
209		-0.7293581511911449
210		0.16194582143305755
211		-0.1976107226871721
201		-0.17191775158790046
202		-0.6010789772297013
203		0.4082344445777556
204		-0.059139179987654694
205		-0.9207427756797635
206		-0.2970553770714468
207		0.24646487987412352
208		-0.7267316925133025
209		0.33716230862654634
210		-6.940739068741452
203		-0.050676982380158296
204		-0.6836264011389016
205		0.03245139256268153
206		0.03622606589018243
207		1.9667035018002519
208		0.7346542714485302
209		0.33798664026428804
210		1.6482532083843446
211		-0.1175566469589295
212		-1.4027362582866423
204		0.16882038212394673
205		-0.26105180565719177
206		-0.32201593886579954
207		0.07075224011039023
209		-0.469487031752482
210		-0.2008773347830527
211		0.004917552456500091
212		-0.5943559709243211
213		0.027692434683290634
206		-0.3791772059786475
207		0.11710166911493167
208		0.2676347873735668
209		0.1084338615912142
210		-0.024705771480840813
211		0.41487040834917593
212		-2.0237851426027675
213		-0.20694130036707178
214		-0.6154496721745936
206		0.19004621354116283
207		0.03670550278497471
208		-1.7200346998882263
209		-0.5670806067891212
210		0.064637124492619
211		-0.32454400597190475
212		-0.1299273644937471
213		-1.1306103825139324
214		-0.8110958828520636
215		-0.17222565997232836
207		-0.2926897820385493
208		0.42476595447898907
209		0.0636958173510342
210		-0.2233156389255401
211		0.16953426012393563
212		-0.4715014983419249
213		-1.2417061034003518
214		-13.316712949023673
215		-0.4074534752922617
216		-0.6925929435114094
208		-0.8608970151308484
209		-0.277374687792717
210		0.18006950050842066
211		-0.2323758318623054
212		-0.5938000617219857
213		-0.18616901913238743
214		-1.625531984213115
215		-0.4042621139976523
216		-0.004033550553718828
217		-0.4176545724441079
209		0.5610281008702166
210		-0.031193430006156167
211		0.6999300714862849
212		-0.16673148699464946
213		0.056128698360181584
214		-0.20614287063713746
215		-0.57230215115849
216		-3.1460388397028045
217		-0.39822002158342235
218		-0.32946674963709494
211		-0.1720120730794087
212		-0.1781369836840889
213		0.3377597466465372
215		0.6864324351560338
216		0.27342857029787776
217		-0.27858791060337734
218		-0.2076031362824147
219		0.2252710837488009
220		-0.0017610529205134655
210		-0.3652066243676325
211		-0.4219063661557282
212		-2.254959674814861
213		-0.5488825055372183
215		1.435432674890801
216		-0.21582338292663691
217		-0.41576896437817473
218		-0.2705101606642488
219		-0.4082047632615866
212		0.15841941436354734
213		0.3354886668740555
214		-0.06606014137491041
215		-0.8736402471578019
216		0.11206796704383915
217		-0.031938863516627315
218		-0.30876500779449656
219		-0.8954978310890929
220		-0.2020681348075133
213		-0.4129190274555615
214		-0.08273212444823093
215		0.2894937050401097
216		-0.06831094827435563
217		-0.9383685499101184
218		-0.14401490876246095
219		-0.141108910544664
220		-0.17502112904374187
221		-0.007091234271480707
214		-0.17408089336287183
215		-0.2983439144876502
216		-1.106314765445687
217		-0.1800005005195816
218		-1.0252554609533528
219		0.07825105881377586
220		0.10290206836179495
221		0.3814279209075925
223		-0.1459227710660326
215		0.1083203175050041
216		-1.2172914196800853
217		-0.13623472029260508
219		0.15789092117347928
220		-0.6503477284950213
221		0.056269393272574464
222		-0.615006192906356
223		-1.5014996143865753
224		-0.32827300608430465
216		-0.5342905372146425
217		-0.6005315940263036
218		0.4805875942819789
219		-0.13021911567043676
220		-0.09790156739749101
221		-0.2738600815536142
222		0.018354626509811116
223		0.265308667515515
224		0.2586162763419679
225		-0.8784603599354214
220		-0.46153634802544496
221		0.07678010527048645
222		-0.5189164202918672
223		-0.1940481226107747
224		-0.20721874778323351
225		-0.12355054368028891
226		-0.2663141508366462
227		-1.7144002206393132
228		-0.41009720407705674
229		0.03725590957497763
221		-0.333392262305005
222		-0.23544112755532165
223		0.18328032159840704
224		0.07425411105763009
225		-2.023148043344182
226		-5.88654889198708
227		-2.7193722335796533
229		0.38139323870620606
230		-0.4125880975893861
217		-1.600329484488974
218		-0.29093498230981174
219		-0.31508628652190573
220		-0.17417552242386974
221		-0.46576004241071906
222		-0.36581293277010546
223		-0.037145155995455204
219		-0.5906206834907032
220		0.16055541044976576
221		-0.08886301435860429
222		-0.3568366551589367
223		-0.5725099079176568
224		-2.4917818931707876
225		0.45667729431698545
226		-6.959834959960162
227		0.1172079027194449
228		-0.04349289178188153
222		-2.4732775010040395
223		0.5990885751763437
224		-0.15457583766346616
225		-0.16165823843510432
226		-0.15828968595820894
227		-0.6818253481206265
228		-1.0449444267935173
229		-0.15370032316971077
230		-0.6198110944721568
231		0.34010882821933947
218		-0.30849694345417045
219		-0.25399242151621776
220		0.6311444754129647
221		-0.3386226943651838
223		0.11945770444210806
224		-1.5974444931467093
225		-0.10295813916353894
226		-0.883621020298579
227		0.07803057656114559
223		0.4123301185680928
224		-0.3045937516683391
225		-6.2930597822460195
226		-0.6737594857870444
227		0.3125493195909431
228		-2.925808143781785
229		0.10743724723866481
230		-0.013596855278020462
232		-0.2846712436234311
224		-0.21988859085192553
225		-0.4157574365497997
226		-0.9841837671176513
227		-0.12838504073738352
228		-0.8357191693020585
229		-0.41049706234650735
230		-0.29648689903144865
231		-1.1706629764086949
232		-0.3110080507018479
233		-0.11697999194388821
225		-0.6218091249522234
226		-0.3388617425062227
227		-0.10550751382320889
228		0.04646228944071318
229		-0.11981332841837822
231		-0.3874929126089
232		0.7318346026014565
233		-0.6948922508654142
234		-0.49826612426724304
226		0.17214892635485046
227		0.012102539355382481
228		0.23082535111001307
229		-0.10649452492535441
230		-0.18410353695461684
231		-0.24736685338672
232		0.35428050443181136
233		0.42597515201379765
234		-0.6023441833509392
235		-0.2082362644957865
227		-0.1223602012849557
228		-0.48656096030679463
229		-0.3700570073925397
230		-1.0030263375114812
231		-0.1786073234673041
232		-0.6620220312921519
233		0.3208636667711751
234		-0.03655423483561635
235		-0.5793805010008445
236		-0.2864721382114629
228		-0.2780437350461701
229		-1.3823824171324233
230		-2.037708170940507
231		0.44947752830017784
232		-0.10715893833344615
233		0.4968758037952427
234		-0.08947641578665964
235		0.08105968661018535
236		-0.04067719496727551
237		0.8570488961111236
285		0.16712190861399434
286		-0.378490868897261
287		-6.183414245640989
288		0.3205372740477242
289		-1.6758804986890425
290		-0.3488455761234931
291		-0.10279175053307438
292		-0.2165483228478309
294		0.3367016380279047
232		0.7906293000154954
233		-0.2888485177282083
234		-0.5845563653807027
235		-0.3246150271998043
236		-0.3098490390274385
237		-0.25185564471820127
238		-0.1194399501516387
239		0.4227225667668125
240		0.6030798930582223
241		0.025280421827406113
231		-0.28918681583113964
232		-0.1652919029699934
233		-0.8940815191609389
234		-0.5443424776411273
235		-0.8762613283735381
236		0.1382389346041778
237		-0.026546292958485002
238		-0.13891027721233953
230		0.0739409990269761
231		0.10561465681719365
232		0.09442879788380461
233		-0.37760772324926484
234		-0.7473433814410585
235		-35.15206946121378
236		-0.2931727580480942
237		-1.0277212695837912
238		-0.8876115092003637
239		-0.02188976868626545
229		0.13326948282640433
230		-0.24032354456508617
231		-0.013309036608918733
232		-0.17675351417857546
233		0.6661012880379151
234		-0.47816589184624436
235		0.12636608974623595
236		-10.444878454447379
237		-0.8495020217822459
238		-0.20053002775569723
233		-0.6381405481810313
234		0.07602988369238178
235		-0.09839032217770331
236		-0.08809487792206741
237		-0.20548370826719745
238		1.0513964934785287
239		0.7026532684186259
240		1.0426493041335383
241		0.13546442329415975
242		-0.0199543101721027
234		-0.18434889099377721
235		-0.307061090780387
236		0.8954965915845055
237		-0.17782615729350765
238		-0.535814218007632
239		-0.7494039133594625
240		0.015051101514841543
241		-0.835509914474042
242		-0.14011857364853728
243		0.3826805019550377
235		-0.4168880549196333
236		-0.13188619998046666
237		-0.32376674487535495
238		-0.0724754298188004
239		-0.4056174432582708
240		-0.2077746309098735
241		-0.02228707964081358
242		-0.02487385020749487
243		-0.05014542979385072
244		0.35583652059213616
236		0.34740840264407075
238		0.033137163132342835
239		-0.1538585367600812
240		-0.588769050649174
241		0.7582480321894662
242		0.07523861286663958
243		-0.5311879261270909
244		-1.3123297124647422
245		0.5717498887259145
237		-0.03257484347186294
238		0.013921288118731947
239		0.08831222959563496
240		-0.09562110452146001
241		-0.6372227959856795
243		0.03891569864496579
244		0.0009902574935577696
245		-0.13323716525927443
246		-0.28349168869088076
238		-1.097966500072363
239		-0.7860906044863024
240		-0.11557466389243608
242		-0.570452244920965
243		-0.26489174129553444
244		-0.2589759933611397
245		-0.4133145762075838
246		-0.9349196201690871
247		-0.8512021755765036
239		-1.2395470618650122
240		-0.9786375473752983
241		0.19031668686499165
242		-0.5427336214694686
243		-1.0912516211238903
244		-0.26628670027868445
245		-1.1447069158107508
246		0.008091534702299435
247		-0.3941371257175414
248		-0.019883732860604113
240		0.5974695384732799
241		-0.6066836524261746
242		-0.4226932102451964
243		-0.2633817907610283
244		-0.03997498835106347
245		-0.1610609548364812
246		-0.2713166051985649
247		0.5305841144976426
248		-1.0628096381548786
241		-0.4331197049645371
242		-0.11635777112445123
243		-0.5114611524475868
244		-0.7074127314720855
245		-0.326301778840141
246		0.0029800558864913717
247		-0.317029383875274
248		-0.2728953734368066
249		0.11781231973747994
250		-0.27694636729829597
250		0.3195742512690421
251		-0.12838667135936455
252		-0.07505199818206787
253		-0.06563499939810949
254		-0.1422809761820536
255		0.06616263228363607
256		-0.857453199500478
258		-0.5842637157041938
259		0.05334400494430441
249		-0.06643041580202427
250		-0.4789465039319872
251		-0.21884797568502698
252		-16.608307429133518
253		-0.296323137220564
254		-0.20771910512974573
255		-0.3821184201248899
256		-0.11195396599310693
257		-0.5907595074254881
258		0.31802580016056775
251		-0.2132679239846812
252		-1.0159261821552905
253		0.05191934849382752
254		-0.29861196559284997
255		0.09957930173751472
256		-0.2682396725919969
257		-0.24465225032198426
258		-0.27880249366587323
259		0.011124406814194843
260		-0.9412985339538427
243		-1.845208477832869
244		-0.45746796039617055
245		-0.3823973894219113
246		-0.133772368389401
247		0.11220823119011968
249		0.02202880496283571
250		0.1219201153132553
251		-0.11120481675848251
252		0.8475208737147989
242		-4.332463537340113
244		0.1623062264631023
245		-0.1624671914569588
246		-0.7787136954810641
247		-30.028204491294385
248		0.015748621794096588
249		-0.42625596852487513
250		0.3075211719983331
251		-10.013422985981597
245		0.4976613407391544
246		0.1333860084681394
247		0.14689658667502992
248		-0.05336157461557059
249		-0.20326815377684887
250		0.22015372202159295
251		-0.061040104910796436
252		-0.20136629799195882
253		0.06381628556251602
254		-1.3941660507036266
246		-0.447786735228671
247		-0.6518887587574477
248		-0.33166123994951824
249		-0.3469878615440349
250		-0.059516216281721844
251		-0.15500417082927306
252		0.06553726311608274
253		-0.025596021194716188
254		0.1672588639440011
255		-0.03224829478198904
247		0.3131831326057665
248		0.06932636937198892
249		-0.4895343620354272
250		0.2216017689961733
251		0.006045392100949489
252		-0.15329748957698275
253		-0.782282336107541
254		-0.3648574310634205
255		0.18612263897040338
256		-0.27763767048983246
248		-0.17199251135271482
249		-2.2520920231773482
250		-1.2424210216855986
251		0.378973250749253
252		-0.566262774816461
253		-0.27250904871580794
254		-0.048564180872868574
255		-0.5878147463088117
256		-0.2514975469632311
257		-2.953279398223608
244		0.029399008817849365
245		0.14211552802472
246		-0.5133874544816972
247		0.3189401812463199
248		0.12232226080315102
249		0.7637962615574234
250		-1.3796131799141145
251		0.03457591540014329
252		-1.1372883510446494
253		-0.4898016581156948
252		-0.7166478578034362
253		-0.5816499675004884
254		-0.2666524237521075
255		-0.618912670800468
256		-0.41047481786554896
257		-0.50225406507151
258		-1.5896150142896968
259		-0.26526588354741437
260		-0.4970657798916841
261		-0.6102968424263264
259		-0.3487467073202388
260		0.4061569366841735
261		-0.02665859314230487
262		-0.4797081663829231
263		-0.20883599220407298
264		0.1800444615181645
265		-0.2882535440261244
266		-0.18118815538855165
267		-0.3535068016994003
268		-0.15940000663122247
256		-0.4178608533188631
257		-0.330727541713077
258		0.13682039147552733
259		0.01206543939030704
260		-0.13526086352036518
261		0.2472120927302858
262		-0.18646007838182602
264		-0.3279671338833688
265		0.031467998432451585
253		0.29846732441813173
254		0.704337959389067
255		0.25830651795974285
256		0.18232322824718963
257		0.3682224822905195
258		-0.1340879716262656
259		0.7128221900600189
260		-0.6974131563599167
261		0.19040596537283974
262		-1.020281298625183
255		0.16453075617551302
256		0.5261097344988607
257		-0.9975353581708303
258		-0.23267538987950187
259		0.6293851750039509
260		-0.34348124800702556
262		0.01431962724872357
263		-21.028832995974827
264		-0.8241502711136302
258		-0.6957391828593844
259		-1.1109844548510661
260		-1.414980225977639
263		-0.13878811556400142
264		-0.41018307080326466
266		-0.059505717083581766
267		0.31235097243550036
254		-0.8734785625934476
255		-0.3822153899657201
256		-0.4258043469104002
257		-0.19396288302834985
259		-0.04252705365391401
260		-0.6960615489453797
261		1.097230217689386
262		-0.7864062354659327
263		-0.6133298529001424
257		-0.0040494303582645835
258		-0.038498915692987155
259		-0.8049972258580563
260		-0.340808308766742
261		0.6858951053094988
262		-1.5547030407444642
263		0.07133583201215256
264		-0.46691656214687083
265		-1.0238845900649858
266		0.14994542721113768
260		-1.3481061160346877
261		-0.7048887818182699
262		-0.23796655886149057
263		-0.6939112397298596
264		-0.38001296139866725
265		0.5633863192584857
266		-0.6333077538091647
267		-0.3165859815699757
268		-0.7274158103794348
269		-0.9561593129425441
261		-0.6360656990143726
262		0.1763517859061576
263		-0.11173515309416653
264		0.5542080480399889
265		-0.26536986974187715
266		-0.38551621122476726
267		-0.6822788185386016
268		0.013765253486933292
269		0.4191117658054101
270		-0.48940062347884616
264		-0.11228711710978033
265		-0.8934017066901335
266		0.13789209824737605
267		0.6439016173712212
268		-0.2761179211646628
269		-0.42978169998115384
270		-0.31183388874165646
271		-0.001790128368808651
272		-0.07989182915729567
273		0.17793943929918263
262		-0.20413593531137428
264		0.3289665371303462
265		0.06441249875135453
266		0.6306751026696811
267		0.052044966249063226
268		-0.40205418071059246
269		-0.36533363826906784
270		-0.3880368309307214
271		0.17393500425997493
263		-0.747886689131142
264		0.5277445139987577
266		-0.5693753679304111
267		0.06451645227743673
268		-0.012455398167485431
269		-1.977864910486965
270		-0.1211263947806372
271		0.09932062958183409
272		-0.3879235910386793
272		0.659721787440618
273		0.31176213865754504
274		0.4971899008837902
275		-0.5722405021906463
276		-0.823069495582454
277		0.006264531220307305
278		0.38926646618879845
279		0.5529504808561261
280		-2.599234632718676
281		-0.29218628605045016
269		-0.21695044156288049
270		-1.020031269042808
271		-0.7135034614933331
272		-0.5296618007440318
274		-0.40284980770303236
275		-0.18367593801762305
276		-0.8477768934669414
270		-1.5701579012343954
271		-0.9744915734859624
272		-0.06703482190973076
273		0.15839277781329847
275		-0.01208308767314927
276		-0.07058589325385918
277		-0.22339811205800322
278		-0.17461359313907557
279		-0.29297029280837655
268		-0.5136973513444335
269		-0.8862749551427846
270		-1.6988922762771173
271		0.19099456460271433
272		-0.2283713323781302
273		-0.05910556260833341
274		-0.029795082806808513
276		-0.09930625211631762
277		0.09173944880039563
271		-0.6386332735077708
272		0.17456537464676875
273		-0.3919397551932487
274		-0.0869122443977407
276		-0.3964190467364544
279		0.4077851329951125
280		-0.26626671135638885
267		-0.8378977292928059
268		0.14835095072824145
269		-0.7518049832353787
270		1.3204831565791426
271		0.08958791808566284
272		0.14490725255341952
266		-0.2273474740476705
267		-0.020244272549808977
268		-1.7107940367136345
269		0.4689267689488721
270		0.37231777351736983
271		-0.82743453192716
272		-0.07368479135880719
273		0.49033170067603626
274		-0.24418674014208822
275		-0.4391791407571404
265		0.1611047212594018
266		0.3055021439754432
267		-0.233262974517788
268		-1.1025745423518842
269		0.13595139858929475
270		-0.49953385232525527
271		-0.8316070172935964
272		0.23493526530570064
273		-0.45214351137418884
274		-0.012278515967543568
274		0.18736509397950926
275		0.09112915731437826
276		0.0998557807009534
277		-0.22854992076431457
278		0.009871421366655798
279		-0.42173541809795084
280		-0.8442085366028116
281		-0.15100062249612517
282		-0.42108590577246163
283		0.3833780248342541
273		-0.07447936070858051
274		-0.18715779369232236
275		0.2587336035975428
276		-0.36829892377991896
277		0.13357690949426498
278		0.017270038200915713
275		-0.004822216517623812
276		-0.30361295341605576
277		-0.30599553147906416
278		0.6970631853417424
279		-0.1755139830812987
280		-0.8389036081041684
282		-0.02350524958565892
283		-0.20762120502876819
284		0.19018027682831687
282		-0.11405466010202038
283		0.5853200764481248
284		0.5524458108706273
285		-0.4908983810126476
286		-0.14969496891524078
287		-0.21920639081528437
288		0.03956148142664539
289		0.47747125192196976
290		-0.7952957709487765
291		-1.764068384750069
288		-0.35911335560667307
289		-0.41485804849318
290		-0.4830764347220035
291		-0.1375091798475957
292		-0.9232288852303221
294		-0.0343616498658851
295		0.666698143260969
296		-0.09895695091828165
297		0.017130745514978465
286		-0.49779829276666976
287		-0.2649965853529198
288		0.6236978624836602
289		-0.9150563385863952
290		-0.21292253210622528
292		-0.09227561796644107
293		0.8183609475971465
295		-0.29881421969202515
277		-0.3555533411377837
278		-0.14080263216841854
279		0.22592380628142755
280		0.2988524099787306
281		-2.0266762168450008
282		-0.6907830553847136
283		-0.13003774041750096
284		-0.3297315889084916
285		-0.06494698414090205
286		0.2873448831944411
284		-0.7023757935467523
285		-0.47990623469320925
286		0.2524678065671549
287		-0.03753291654412759
288		-0.6069799745545726
289		0.15722895385318816
290		0.04391157342737881
291		-0.25322620657716316
292		-0.39495697142953057
293		-0.25482531400970704
287		-0.082970206726087
288		-0.3378821077449749
289		-0.07755400600932387
290		-0.21870981376542648
291		-0.08598861516213935
292		-0.30681300803558625
294		0.7966852226227668
295		0.39361862334935016
296		0.8335661660055672
283		-0.4036163555380956
284		0.08603395320810416
285		-0.2818319022521022
286		-0.5451351308079679
287		0.44162413076839824
288		-0.07553838735778001
289		-0.16239195285867442
290		-0.0127190738214161
291		-0.4635553081386274
292		-1.0181503216092678
281		0.7955840077283857
282		-1.8216896958821078
283		-0.1698246596317255
284		0.2741774867412493
285		0.7596567354531821
286		-1.1636972492953652
287		-0.05588316076977264
288		0.6242905172015517
289		0.1330145323835105
290		-0.028490693044656457
279		0.13698255784941846
281		-0.5305470324647464
282		-6.326195136868658
283		-0.5620355213336957
284		-0.043082618374164515
285		-0.381596349277628
286		0.18253157328796216
287		-2.2431480823550034
288		-0.17779770195292546
280		-0.6489603414688144
281		0.24828074471473804
282		0.23923818904328514
283		0.041550341934600964
284		-0.16654198811494123
285		-0.6644146453852711
286		-0.49702333172426216
287		0.004508596779856655
288		-0.4289099693030679
289		-1.0455042859151373
294		0.22636157607850904
295		-0.19948200517928968
296		-1.2852265747408071
297		0.016959535846924317
298		0.22436513848874862
299		-0.02434834509492736
300		-0.20771758219588773
301		-0.11945767010535017
302		-0.05405461689630588
303		-0.2318359080455331
293		0.10170081125320439
294		-0.5425971992170763
295		-0.15882716799502405
296		-0.7148905314403973
297		0.2609110219211705
298		-0.6808337008782516
299		1.1860346064084997
300		-0.41433279082446056
301		0.016909378085100762
302		-1.292718072879002
278		0.4074492404825995
279		-1.0913138260373194
280		-0.4492373831622663
281		-0.323029852990968
282		-1.3320790940968825
283		-0.09850718407843945
284		-0.3128685305564309
292		-0.032748343311748244
293		-0.5946752328987391
294		-1.04425729168542
295		-0.1080934267892203
296		-0.10736788246421967
297		-0.8187040738972863
298		-0.04647841934175064
299		0.11666671344521831
300		-0.3222454198156807
301		-0.09190650912228089
295		0.09963383231529643
296		0.5117376724985945
297		-2.6270359111936927
298		0.16337364231293633
299		-0.9323130181521226
300		-5.723678544844497
302		-0.2734742500388671
303		0.19691128141044645
304		-0.8370068982729054
296		-0.7398217558767104
297		0.40652837318195756
298		-0.7629987378454041
299		-0.23580355788405097
300		-0.5112863431748148
301		-1.2429339854417536
302		-0.11658336692486206
303		0.46104217062653546
304		-0.8886499918361622
305		-0.29153345082287035
297		-0.528263416608768
298		-21.15454857534186
299		-2.6043091421426467
300		0.6545435982976306
302		0.4037962781897821
303		-0.4519502061182547
304		-0.13983765724229455
305		0.07226027011451588
306		-1.296674572724757
309		0.08408186219267921
310		0.12323739229881242
311		-0.1322938699136856
312		0.24429134433568253
313		0.3123885126787981
314		-0.7021313393119537
315		-0.20853951572867274
316		-0.4025989098824231
317		-2.047156610679379
318		-0.19377292903207877
303		-0.2981404906728044
304		-0.09924035469000259
305		0.33394909251770694
306		-0.03264846459901197
307		0.11932410032161206
308		0.18939416872302
309		0.7587447945122661
310		-0.16457545149218797
311		-0.3204070489661745
312		-0.6327778081980242
302		-0.31012562765175905
303		-0.1235655609215589
304		0.16395075704605128
305		1.4762147501428693
306		-0.039833728562066274
307		-0.01966986653791471
308		0.10726883558230815
309		-0.04132609034664246
310		-0.20055160263410024
311		-3.686415158870623
310		0.008207095805817917
311		-0.7370268361127766
312		-0.3003033592471685
313		-0.393608323911097
314		-0.8163099739746992
315		0.04534317116170536
316		-0.8017375625063703
317		-0.29185966102784267
318		0.20363478579482291
319		0.5735174348115086
306		0.1951842943435562
307		-0.27546317277543797
308		0.5622032278322837
309		-0.1603614568690106
310		0.3031699825285668
311		0.020025147123506906
312		0.33087058365904604
313		-0.3995332785371587
314		-0.5488270151438029
315		0.03866751994650557
311		-1.3295411948003073
312		0.011950256283335787
313		-0.4377095915582354
314		-0.11120122068898819
315		-0.14905237537021318
316		-0.1639437552231051
317		0.7736899043875887
319		0.055180058634379844
320		0.1366168011696209
301		-0.9561263137807536
302		0.7761291961171752
303		0.45085716361949496
304		0.5996369099938951
305		-0.48752139380328563
306		0.4030846646713026
307		0.12641964232003394
308		-0.3311882539299001
309		-0.6075793124137636
310		-0.07603373677072925
308		-0.07178254947076398
309		-0.3138827656421711
310		0.6913332857374218
311		-0.20120067601286012
312		-0.23017732828534673
313		-0.31206838669103176
314		0.5663353412591884
315		-0.3364316080036785
316		0.20640376202260272
317		0.330071909477417
307		0.0008001793127467843
308		0.07587275759266376
309		-0.09388590784605372
310		-0.5969960188405883
311		-0.12044776723471556
312		-1.4563654360212355
313		-0.04975904135984357
314		-1.008327735346571
315		0.021684287303954015
316		0.17936061623363717
298		0.5360353021444267
299		-0.5044759482411999
301		-0.09882908836004188
302		-4.23690739310031
303		0.16291684392192918
304		-0.03894049292799263
305		-0.21423578573755062
306		-0.7004822445089974
307		-0.376625857623428
305		0.13076242729663853
306		-0.46213466044655505
307		-0.09670711620315478
308		0.18706556680528685
309		0.7614222541825175
310		0.011663180327817942
311		0.05357709785633764
312		-0.056853980134341994
313		-0.15604437079134953
305		-0.1142557790700273
306		-0.37414163151223434
307		0.03677849560368434
308		-1.946433541195102
309		-0.06141997728187223
310		0.248411900084151
311		0.1128247725562789
312		0.07819257994975834
313		0.563799738384982
299		-0.6319724268811975
300		-0.03695310659916322
301		0.01594163954758674
302		-0.5305207110284189
303		0.1074590907630937
304		-0.8605111017372185
305		-0.9172359362755864
306		-0.5174932406698822
307		-0.020697104741209286
308		-0.011047366251608735
314		-2.060197229497765
315		-0.5384306166416494
316		-0.25922822000849016
317		0.16053662709123367
318		-0.10430746850792431
319		-0.46580424692314765
320		-0.051948522145573564
321		-0.7387114762276504
322		0.09497889389921774
323		0.275144462847455
313		-0.2273623283300144
314		-1.3631762040352549
315		-0.15881755331122172
316		-0.4470506604293213
317		-0.020136846509313803
318		-0.5909491283799776
319		-0.46908282241064
320		-0.20611029148892787
321		-0.2063284711621104
313		-0.3068719669011213
315		-0.33163112651315585
316		-1.6788570868892119
317		0.3749079165813152
318		0.42568406744830767
319		-0.20010153715555257
320		-0.29820608475660604
321		-3.4599624359671513
322		-0.883866829440344
300		-0.4588219970423298
301		0.2393723055065876
302		-0.43547157779561324
303		-1.7090303088841765
304		1.133834119746956
305		-0.07406159791134784
306		0.21439079058628896
307		-0.1584812556448443
308		0.026070981000920198
309		0.4309491064085073
316		0.944681295692277
317		-0.5942766897810154
318		0.13103834656226818
319		-1.3855381685833976
320		-0.8052406636205793
321		-0.14788000650991584
322		-1.3505150141229927
323		-0.5594798699173257
324		-0.480774281738093
325		-3.071652772265731
315		-0.9763197747242667
316		-0.1937390958160869
317		1.3254623055506707
318		0.46038213677017914
320		-0.749969792138514
321		0.766500885737247
322		-1.1121053956538498
323		0.0033986871341613258
324		0.15064259465051658
317		0.18198792785360549
318		-0.3469436042023167
319		-0.1381295657260191
320		-0.8381739222563848
321		0.01865525404836071
322		-0.9665432278233105
323		-0.49928881272958275
324		0.23541836316137157
325		-0.12938486987369044
326		-0.37500939252568904
320		0.04686258698086532
321		-0.11643074469963854
322		-0.3004274746180135
323		-0.38027600133374384
324		-0.11201899915146783
325		0.1988687398697482
326		0.55863602310607
327		-1.7017214291369165
328		1.1024870736670798
329		-0.25070889787994655
319		-1.0408872435250776
320		0.08546070249310643
321		-0.1007312776485176
322		-0.22226992486832128
323		0.008983541331700384
324		-0.3175603436389279
325		-0.42456179822144174
326		-0.08993434663297505
327		-0.07369077102979558
328		-0.5675807412428867
323		-0.13302688851495667
324		0.05327131253975954
325		-0.7104787419894045
326		-1.3732551404504727
327		-0.5918234984992234
328		0.23643357412622548
329		-0.3816094728215388
330		-1.4637818820646196
331		-0.5345464411331692
332		-0.42634694271846807
318		0.2743236419193906
319		0.026084440064069472
320		-0.4500130199062214
321		0.44940746577792906
322		-0.031600123829141596
323		-1.39782543143077
324		-0.17759560233643432
325		0.3336798072571687
326		-0.6476595754620256
327		0.29049240519206626
322		0.17806213135321983
323		-0.02335437333118025
324		-0.5373279853789925
325		-1.1812065329092396
326		-0.5460925799826477
327		0.0007144140023181278
328		-1.1981776167854923
329		-0.15674216745641115
330		-1.4046517136605985
331		-0.15706109252780642
321		-0.38065630737059175
322		-0.43727445240067836
323		-0.19110811430336228
325		-0.5308593909952316
326		-0.2315934680075954
327		0.7619824313840735
328		-0.0040324277089144505
329		-0.3873637636074386
330		0.46161820210087084
325		0.342271070762676
326		-0.00043491403465510095
327		-0.353893135015406
328		-0.2768416427726454
329		-0.33825311720913565
330		-0.4402879923892162
331		-0.43025143967006285
332		0.21169005081564274
333		-0.20807103861702728
325		-0.1771971631615415
326		-0.28050048433154695
327		0.18365335261538399
328		-0.06979852254480923
329		-0.924559412494479
330		-0.31014545104415164
331		0.8398416255498791
332		-3.1508567159703507
333		0.03989635792757992
334		-0.7265841613640296
370		-0.6026416595765492
371		-0.24294344902030285
372		-0.24119914254559588
373		-0.1200466157336927
374		-5.971362540371961
375		-0.5696482696687905
376		-0.466533460841133
377		-0.12244210481103718
378		0.24990527029159648
355		-1.2623179393622288
356		-5.675628347453848
357		0.023171874158005652
358		-0.3408547783501975
359		-0.018202584761998736
360		-0.49054441075574845
361		0.08229214151571286
362		-0.24323156252006067
363		-0.09332686339565148
350		-0.42436917625662746
351		-0.07992643456459926
352		-0.8470509300970938
353		0.33579712777778653
354		0.01752302139706638
355		0.38417092140973697
356		0.6137269650163791
357		-0.7526444268376298
358		-0.4504104508073945
359		-0.12555361478617208
393		-0.41528898483562443
397		-0.03098937330133276
398		-0.52714732753377
399		-0.3580824789730468
400		-0.07877713504207456
401		-0.8340947045378311
402		-0.29422698079170123
367		0.1642831509823201
368		0.24476952982807942
369		-0.26798982029148094
370		0.176731573265059
371		0.01793412647824478
374		0.27846335856170024
375		0.3697491787103864
376		-0.06997615419406913
368		0.03059285748458266
369		-3.04667315541569
370		0.8245243633654802
371		-0.35780882091683375
372		-0.4269857162580638
373		0.352820146406513
372		0.9003119107800015
373		0.09078226418226379
374		-1.7967090124892995
375		0.787833399249115
376		0.49900974849190344
377		0.2918686620176732
378		-3.6776793679036475
379		-0.06898166612131401
380		-0.07665123294744386
381		-0.012545746331339577
376		0.01338671528482707
377		0.38557525429059664
378		0.032455216336262006
379		0.10427335414908549
380		-0.24164717461129276
381		0.33427383662399396
382		0.3176840478417135
383		0.29152950277361944
384		-0.4616762408663626
366		-0.2675657598401488
367		-0.30766947904838443
368		-12.775335237777869
369		1.452688891798527
370		-0.48253196049057706
371		-0.10816723358790702
372		0.19403746381845452
373		-0.04670333327500917
359		0.26955921443840464
360		0.1970561790488709
361		-0.47874213497867274
362		-0.20858732520173703
363		-1.3792281854588853
364		-0.5425698683504633
365		-0.27419585769360855
366		-0.015167675308166657
367		-0.18412096105690806
368		0.15028325377814333
358		-0.1875359423877284
359		-0.16232716334857972
360		-0.9182562500133655
361		0.48726000884217874
362		-4.991780323075876
363		-0.3690577486630974
364		0.30320037789807647
365		-0.14229542607895404
366		-0.03374176793630468
367		-0.04506406608196341
370		-0.37673803761291075
371		-0.07637141879337339
372		-0.10295717721561265
373		-0.13573259484072916
374		0.03322437236713339
375		0.2549593660963852
377		0.0702118825834763
378		-0.23762070461900034
379		-0.14363267099502747
398		0.03168680142132928
399		-0.10240946622651939
400		-0.14618003578356614
401		-0.30441746243871504
402		-0.04618872628395395
403		0.11983023587050125
404		-0.06314660946089833
405		0.00039749993300867374
406		-3.1100822082650557
407		-0.2643886913336297
346		-0.03215294490266459
347		-0.017362478047982213
348		-0.42648492993791515
349		0.10716049917669837
350		0.18243740569915984
351		-0.21608670517784048
352		-0.7725862662988696
353		0.2395841579290467
354		-0.5818552021134089
355		0.9802144211254588
345		0.05448849554983574
346		0.06674016918714777
347		-0.29624120605317483
348		-1.8321734164499366
349		-0.8158093594992972
350		-0.09970470400718374
351		0.3346211430233982
352		-0.125772891704769
353		1.4306037348062857
354		1.805097733801295
364		-0.08137434494320615
365		-0.06597786417450259
366		-0.39243382851727565
367		-0.26877091298905753
368		-0.89346834853785
369		-0.442202447872139
370		-0.13839832380966102
371		0.729008638371494
372		0.2773831942543772
373		-0.3308229880451397
385		-0.021682711859576074
386		-0.4324321011062663
387		-1.903829564739932
388		0.13050571010768497
389		-0.30912775699333733
390		-0.07609154989200902
391		-0.3029578516512144
392		-0.05533969138172281
393		-0.28545238113787147
394		0.25901262804239616
373		-1.3572395305751086
374		-0.049737141101396154
375		-0.3223915116583711
376		-0.3306262676559341
377		0.19218692625326295
378		0.2557459351269905
379		-0.015548364664071838
380		0.09941343281260835
381		0.1070341120229829
382		0.13140506585047415
388		0.008784273101559034
389		0.02397769451328292
390		-1.8632477631099622
391		-0.2220513546447619
392		-0.7303338747161213
393		-0.7761766351742689
394		-0.732040102432999
395		-0.49474981163338594
396		0.1739029559121209
397		-0.21249078768069946
362		-0.00353210617545818
363		-0.5323706338055507
364		-0.12748518000468467
365		-0.8139029216573682
366		-0.1387261357061663
367		-0.2875073891569026
368		-0.9556532484366649
369		-0.9664258268557195
370		-0.08293444373193903
371		-0.0018578601838736338
339		-0.07710319410920556
340		-0.47893553170607284
341		-0.7399716542278395
342		0.25025889623683956
343		0.18478809838955323
344		-0.5171061344593537
345		0.16448928481247588
389		-0.005437628596035036
390		-5.011931474726182
391		-0.21189463898520167
392		0.03895143668705982
393		-0.8333721421236425
394		-0.45799168949758023
395		-0.6704994411218029
396		0.022828221318689626
397		-0.5326657164392241
398		0.05391053912423226
339		-0.5626823469707287
340		-0.15437879542586952
341		-0.05157932679648999
342		-0.47110365013512034
343		-0.11830929125395025
344		-0.36149444924139723
345		0.3722023928423256
346		-0.28123088658978224
347		-0.3045972821176962
363		-0.10263053896109807
364		-0.21980725144514668
365		-0.3774273444621358
366		-0.10984703675518197
367		-0.7753934323608535
368		-0.4119874543523358
369		0.17854127936711137
370		-0.7461298228662161
371		-0.5781731979585766
372		-0.1935372133063806
390		-0.7014217699284109
391		-0.23106221464171325
392		-0.8918457702832443
393		-0.5559941297700803
394		-0.3018561101750853
395		0.2054538702256781
396		0.3500763091800813
397		0.047983505664357766
398		-0.469107028980479
399		-0.16833326616805278
342		-1.8377722718451983
343		-1.0217859696489102
344		0.008572740690829772
345		-0.5273792416605214
346		-0.39431198071738194
347		-0.305560247346177
348		-0.1849468635095058
349		-1.9934814490711632
350		-0.47430693142725266
351		0.5080593383565855
329		-0.13385590719896462
330		-0.2781708730801369
331		-8.513852631803028
332		-0.06941649606028123
333		-0.09675619276082309
334		-0.5610270744775285
335		-0.25663886637010347
336		-0.4367350173867925
340		-0.36978483227306236
341		-1.0083597085311846
342		-0.060092936723262935
343		-0.10659021137030217
344		0.2729931706945937
345		-0.29038250161011153
346		-1.07338808982149
347		-0.1097360656366544
348		0.07039899966404567
349		-0.20555150087443158
387		-0.2673342477599404
388		-0.31218970464926943
389		0.24550964344426127
390		-0.0460999975066718
391		0.5018963468120506
392		0.02838777402657847
394		-0.2052122747645239
395		-0.20546403824538337
396		-0.020346189334141857
399		-0.0724250989329493
400		-0.2145344739621653
401		-0.006907724359637954
402		0.29624252376643023
403		0.2791521819327271
404		-0.4836340610834822
405		-3.0320770088887037
406		-0.5170721519724771
407		-16.807671112694305
408		-0.04232724587899065
383		-0.2452044646776636
384		0.29286520499776003
385		-1.695776796868938
386		0.6741574916614121
387		0.5811464937259926
388		-0.32513437760056035
389		0.04912888242655128
390		-0.15276803273700015
391		-0.046213095819907735
392		-0.000531746900146413
377		-0.47842374813828825
378		-0.0807601910338963
379		-0.30249218097358554
380		-0.02125209093889168
381		-0.33996663205428107
382		-0.1273588251348545
383		-0.2610493835011048
384		-0.4960182615765628
385		0.1658146898857913
386		-0.7888226806972263
375		-0.005900422707696579
376		-0.17305196964983396
377		0.30290677407699623
378		-0.23561236264031016
379		-1.0473708282766196
380		-0.587819605603027
381		-0.07459436224017069
382		-0.22826417954061087
383		-0.6575241707043143
361		-0.41368950634565993
363		0.08297699506062925
364		-0.0061668302330064526
365		0.05753619157453408
366		0.6130131575735409
367		0.5912610912103965
368		-0.11509881477792014
369		-0.15821846674085693
370		0.8452346947057082
401		-0.5625226938981079
402		-0.3829097716735758
403		-0.9400695665975077
404		0.466910990376709
405		-1.4786930826921945
407		-0.4193566630828697
408		-0.8679796730159719
409		-0.2660679299662045
410		0.4044551463423649
401		0.05935953928294562
402		-0.09696580055764933
403		0.2675004548745197
404		-0.2206831555244881
405		-0.956053701548008
406		-0.4857396425436907
407		-0.2085100796257404
409		-0.0953165835978511
379		0.13453852013812556
380		-0.22127669154573454
381		-0.6027247036489238
382		-0.7916767785038015
383		-0.5974540129407024
384		-0.2219908902120202
385		-0.7090037759019117
386		0.25493688395129493
387		0.3626843177105806
388		0.2426825016225646
384		0.14842088625141917
385		-0.06848329144735965
386		-1.0274839722145632
387		0.056783665619232815
388		-0.1293116575617154
389		-0.7468734688700535
390		-1.4864143865821027
391		0.36590612771292663
392		-0.5955378168568267
392		-0.6214466892165544
393		-0.21205007942449697
394		-0.3880664119359069
395		-0.4849558642694664
396		0.40205617216884254
397		0.10788045459398989
398		0.13467647351413936
399		-0.4561521599421177
400		-0.2084087994214644
401		-0.7212460135748221
405		0.16543734000343788
406		-0.0965057594356613
407		-0.9232246724747906
408		0.19112423585458865
409		-0.19607124627212105
410		-1.233623023131634
411		-0.09660204186832685
412		-2.1931515164941384
413		-0.2584922715735072
414		0.028650373894213273
402		-0.5374873350164304
403		-0.035666069655367776
404		0.20671862244715755
405		-0.6004974835537825
406		0.06046164625480899
407		0.04432637861493141
408		0.23252410660418024
409		-0.31380640017891015
410		-0.33269712317223443
411		0.04282280650627904
404		-0.5171632789463158
405		-0.6649629582050032
406		-0.073544282461267
407		-0.40615993499488373
408		-0.4012636132783906
409		0.17827542700824384
410		-0.11481868554561309
411		-0.13817413224443786
412		-0.06023412600504849
386		-0.004405147917075643
387		0.003401220557703484
388		-0.24229017846850653
389		-0.017050790380771574
390		0.09549051042997006
391		0.27405176000547166
392		0.0030997566891323622
393		-0.03609272851522862
394		-0.6796857693556565
395		-3.5396014724676528
391		-0.6222388495495818
392		0.6909567683893633
393		-0.08468385659223207
394		0.1266789719799982
395		-0.7358698780490509
396		-0.34451648014909014
397		-0.19575410975490662
398		-1.001654847539735
399		-0.022413023255054655
400		-1.1129146044077545
374		-0.26680345098805114
375		0.19660069461063873
376		-0.37371661109564874
377		-3.061840113291941
378		-0.02033718201355968
379		-0.3284756421999104
380		-0.2688916639266866
381		-0.304397075236146
382		0.5609455338345782
383		-1.1514950391551302
347		0.3749896175646181
348		-0.013041523361868007
349		-0.4116771842730676
350		-0.6117884358839005
351		-0.20146978036476115
352		-0.6296805160343973
353		0.8035271892356156
354		-5.923861745759143
355		-0.07499841391079667
356		-0.0455772198196192
380		-0.18967081971720115
381		0.2596711476180918
382		0.1430901647571085
384		0.05016275565549863
385		-0.04212391079171623
386		-2.9214145986204723
387		0.10256641885300888
388		-0.644760864558462
389		-0.14635667566213595
354		0.34313645159916356
355		-0.5559445377020518
356		-0.14228287937423836
357		-0.27306470531074994
358		-0.4332273327443084
359		-0.1547215840583138
360		-0.12332586285148836
361		-0.8851906986531697
362		-0.3271078000130008
363		0.3804832918738932
326		-0.02800125592149546
327		-0.1879841124295415
328		-0.9801128189938698
329		-0.1581621405854832
330		-0.18790170573978762
331		-0.4459361269024242
332		-0.3437419220688701
333		0.1478279693781424
334		-0.16003227162364553
356		-0.5751371521016341
357		-12.703486903709363
358		0.1593290257460049
359		-0.1880014810769486
360		-0.19726868682209717
361		-0.29703765237026414
362		-0.3462287945548345
363		-1.0772842353827472
364		-0.05899394075746515
365		-0.4540007854925246
383		-0.31115853245291164
384		0.12033220408487401
385		-0.20672526367652902
386		-0.21838568201240657
387		-0.03695041537682678
388		-0.36239500683799253
389		-0.5407160997189102
390		-2.3770527487628113
391		0.015064147039383673
343		-0.36432395419323793
344		0.1983583791815789
345		-0.21735911383253897
346		-0.24528495024076002
347		-0.4444949119462643
348		-0.15555353011009485
349		0.15882072615995765
350		-0.18079131281254088
351		-0.44511559124033423
352		-0.8182889590419804
378		-0.1904970786047231
379		-0.09385514972474088
380		-0.39105054207629336
381		-0.2439097382127787
382		0.4218385351766339
383		-0.16567345038912912
384		0.12011273084308904
385		-0.7181613490107339
386		-1.348710823977508
387		-0.20935735370754563
328		-0.7025941815815594
329		0.27434101747694645
330		-0.9548988156892584
331		0.1590881917927847
332		-0.178560936103212
333		0.09405412141997586
334		-0.8038476245593081
335		0.37996341896796776
336		0.11567823447558705
337		-0.05896014472492183
381		0.3040679010292684
382		-0.12357152364568155
383		0.20966952715437212
384		0.4524577407501982
385		-2.1850274634279936
386		0.5649834425179507
387		-1.0692896402271983
388		0.08757282129974193
389		-0.3180730578471112
390		-0.4769882977908332
353		-0.3535701214561979
354		-0.16842489049645812
355		0.36818579621705166
356		-0.2773349460098166
357		-0.1394316719112238
358		-1.0974400691176307
359		0.07271083273016579
361		-0.19204476689494857
362		-0.45901109605353513
404		0.30125296444118566
405		0.297061630974307
406		-0.19387747318352896
407		0.1401786394679642
408		0.054398612777164984
409		0.19735793302958904
410		-0.21323468104885712
411		-0.6731078663955081
412		-0.017133732064768144
413		0.9188144306239309
371		-0.0019656581138121822
372		0.2927342085262998
373		-1.1897467558751647
374		-0.0883892276161514
375		-0.2954236406239065
376		-0.25771249443525046
377		-0.10506785984879682
378		-0.29863252535876894
379		-0.058214149425259716
380		0.5281562781495938
397		-0.017916280585122277
398		0.4385396367526004
399		-0.29141157801840395
400		-0.2877564254751069
401		-0.1809396305542097
402		-1.677459363018751
348		1.1051365661395722
349		0.00627897394744191
350		-0.11131536051482568
351		0.013158887174546108
352		-0.22807088503363676
353		0.7664168148422819
354		-0.29182649552683687
355		-0.2824586611339123
356		1.2639559227302881
357		-0.08444202924517635
406		0.07256372633489859
407		-0.8122153684026107
408		-0.1279385797050877
409		-0.034595234226952785
410		0.09253197659224482
411		-0.48349042478714815
412		-0.2086002866433759
413		-0.054331123790190075
414		-0.3995621159652968
415		-0.824652802277752
357		-0.28377069804626326
358		-0.19019335278406455
359		0.6288042500962798
360		-0.3112074286627548
361		0.056525136326138016
362		-0.6620526885784378
364		-0.45059206451314593
365		-0.13643627663504146
366		-0.16464703547615497
396		-0.047858005887761394
397		-2.589036324124615
398		-0.2781115342635982
399		0.23329314380207428
400		0.662375283110663
401		-0.5048185339883413
402		0.1417466828088945
403		-0.1769783576066884
404		-0.4059820705400818
405		-0.2943481551889369
345		0.6537563217275082
346		0.19667454326901757
347		-0.5487145881676149
348		0.15007384945242114
349		-0.6618373554625384
350		0.09610004347615245
351		0.1784389517060594
352		-0.42435130442314667
353		-0.036890003269383104
349		-0.2014760827403794
350		-5.823011027580073
351		-0.3447397312166862
352		-0.21635052020320086
353		-0.37954594798771185
354		0.06452345264185057
355		-0.8107738883783762
356		0.3739803116037589
357		-0.3512246702031132
358		-0.04495184739098728
341		-0.10438698548496818
342		-0.4941238661868615
343		-0.3279472835236799
344		0.2650111579784906
345		-1.5811525975135614
346		0.15854144857573899
347		-0.2898752854304851
348		-0.13757590609362325
349		-0.1342786863508306
350		0.2190807452668929
335		0.5846932198594561
336		-0.27088975823920686
337		0.574073918740347
338		-0.13510360913160055
339		-0.3137973011461018
340		-0.5499785414009861
341		-0.4449985606554628
342		0.06718679828096429
343		-0.599815826779991
344		0.6977449537555145
334		-1.5401589247983343
335		0.06881361549337488
336		0.04269327187573831
337		-0.7625143637583018
338		-0.13470231380034967
339		0.1747458385389541
340		-0.9779645743770989
341		0.4695395457436251
342		-0.005587757280643272
343		-0.5201404255685417
337		-0.2804348267684882
338		0.19456553668304824
339		0.3880924891417232
340		0.3001906422717917
341		-0.0639155617517245
342		-0.13894840627046107
343		-0.35091667039652374
344		-0.6654426078929884
345		-0.08648537389388468
346		0.030424805245273218
351		-0.3473387787062128
352		-0.5430511077798899
353		-0.1796483374223025
354		0.003668646649298627
355		-0.5155172979165176
356		-0.09456355086243004
357		0.000455982131168409
358		-0.13340410829701246
359		0.16905998165755542
360		-0.6902906046845672
329		-0.42742722358774926
330		0.25860607435889243
331		-0.15282738169541138
332		-0.18052533567195547
333		-1.3135490857216345
334		-1.0668212320122
335		0.036767004073060106
336		-0.656569473265457
337		-3.297927214221486
338		-0.20897534925505365
333		0.8456346148022059
334		0.47099068958508705
335		-0.5284748079367616
336		0.5898597271807408
337		0.1284651387768031
338		0.16364249747752257
339		0.28451544812542523
340		-0.05408248654434155
341		-0.24240851697685373
342		-0.7194428239420236
395		-0.3964926130343605
396		-0.2617892274988108
397		-0.10439426986156473
398		-0.5971614029155999
399		-1.001840472788434
400		-0.04347366878028425
401		-0.05590884662590237
402		-0.11567526159035652
403		-0.36679324639053734
404		-0.3635117044756124
331		-0.2658547284982438
332		-0.22269473114132599
333		-0.4759084299107895
334		-0.758462500436092
335		-1.5957429176885547
336		0.10346092908866139
337		-0.4819100931712063
338		-0.027444028704098615
339		-0.38067484811005076
340		0.11995761417892678
336		-0.2105572074369861
337		0.2924121952595847
338		-11.64181639946837
339		-0.36543149319599194
340		0.341740805243877
341		-0.37042320352358205
342		-0.20549525943347044
343		0.37440189128252543
344		-0.2829107034708222
345		-0.39832139589355803
330		0.3896951531525307
332		-0.29079036826979926
333		0.5705889308506716
334		-2.311292726325761
335		-0.43564140205427027
336		0.32465193978089063
337		0.3719153476660205
338		0.022880760290684764
339		0.028389594556159976
394		-0.43389697553068257
395		-0.4444423454344379
396		-1.5430146480315812
397		-0.07824920172186435
398		-0.12253860018607632
399		-0.8279175591166812
400		-0.07127462357010857
401		-0.9394072496404932
402		-0.03468607890840514
403		-1.0376133470964468
332		-0.4734357326574749
333		1.0726445179917388
334		-0.46709906955309205
335		0.31068543544381544
336		-0.05382933813968141
337		-0.36182394021665554
338		-0.10572608182279014
352		-0.18631488145908326
353		-0.5388850576821851
354		-0.2230210664097079
355		-0.03618893498920996
356		-0.6753295279182033
357		-0.39824115386276426
358		-0.09801248681840623
359		-0.01854785732068619
360		-0.4240639472451535
361		-0.3547302683113642
360		-0.22919139336678693
361		-1.1792807329287303
362		-0.22543986858822615
363		-0.4091976556548336
364		-0.27227276278280393
365		-0.19391892731971683
366		-0.8245936235152895
367		-0.48576362918996974
368		-0.5032511047383318
369		-2.0325160804709697
365		0.002173328303484825
366		-0.14693670395082045
367		-0.041532627581387614
368		0.19032683750339266
369		-0.3150485486282188
370		0.6639619518228184
371		0.04200314434529306
416		0.186370043576733
417		-0.625868839458535
418		-0.39948105187122585
419		0.44237945244853544
420		-0.2668501290363305
421		-0.25099938155051105
422		0.36342805329960165
423		0.188341345617731
425		-0.9087013843428882
413		-0.27486728621896117
414		-1.3200059254987204
415		-0.7298522264106335
416		0.062499711118119104
417		-0.19756455172154533
418		0.2662158776422708
419		-0.7276858621609136
420		-0.4864479014560518
421		-0.03228384661323314
422		-1.2600078321168255
424		-0.5237661042244517
425		-0.8733298265583482
426		-0.46278931951504143
427		-2.358707701310425
428		-0.6624829287732568
429		-0.4956496838413815
430		-0.5610000588535301
431		-0.5555293316732813
433		-0.02164992914788263
417		0.03584502556872053
419		-1.0338051584946295
420		-0.0004914807983125507
421		-0.5856885702538704
422		-0.35427401307064343
423		0.13632706440554643
424		-0.0049974216671033935
425		-0.31700519339018474
426		-0.2618964789967612
408		-0.517292786639536
409		-0.22993270452937495
410		-0.03222984527195097
411		-0.16399425094378103
413		-0.046190469472333635
414		-0.9790657072133135
416		-0.20220657278810233
417		-0.3933651993782348
407		-0.3583834446900951
408		-1.048388937347695
409		-0.6643505006281439
410		0.2885933510180417
411		-0.25376024068250197
412		-1.449811349296403
413		-4.224107609646589
414		-0.5751993189401913
415		-0.577027288979514
416		-0.14436971784378527
412		-1.1101364592336342
413		0.17314126174838626
414		-0.3478281359446491
415		-0.3884481700969415
416		0.3880029608234327
417		-0.07663590055251177
418		-0.32006246287365364
419		-0.050698558624807405
420		-0.3165389827317596
421		-0.12473903840005225
418		-0.022843210846320034
419		-0.45980169454786407
420		0.013566752409853477
421		-4.0078479037504495
422		0.5213894629596423
423		-0.37624174549625594
424		-0.16348905446560041
425		0.19185201313168465
426		-0.13956971765955878
427		0.1097135014630603
419		0.03140682335005396
420		1.080542256423344
421		-0.6412315485810552
422		-2.7411422747252145
423		-0.09990266877772189
424		-0.5681182777334042
425		-0.6600929500637754
426		0.14841031791163106
427		0.12498727850588158
428		0.16452227086754212
423		0.7475691060418251
424		-0.478209014212651
425		-0.34268757405240813
427		-2.6093007428098027
428		-0.5651986451307988
429		0.1961224118921981
430		-0.6151605121909738
431		0.002786670856210216
432		-0.6331799091921915
415		0.34013978896289154
416		-0.1292641358107191
418		0.02972040907717915
420		-0.7024100441516049
421		-0.6880030509125227
422		-0.09099061672213367
423		-1.2741945028413746
424		-0.5819732363324197
411		-0.22027327388846146
412		-0.19799683081606284
413		-0.9393632142184242
414		-0.47898896018309006
415		0.07910044884905362
416		-0.07530448069696542
417		-0.2813228627875093
418		-0.08349593772056894
419		0.3529721952910033
420		-0.06552165781813375
409		0.28838161413463165
410		-0.776613033013816
411		-0.020102047333018846
412		0.9517445403483853
413		0.029294701334827842
414		0.1074398804530814
415		0.017784982695612624
416		-0.5438525940898618
417		0.35204905105258866
418		0.09092768870641355
420		0.363012017560964
421		-0.11507559603673814
422		-0.4088202446035331
423		0.6290292641691936
424		0.026698011244295286
426		0.12751751824542926
427		-0.242482309221394
428		-0.4432094973671666
429		-0.8290514436063924
422		0.1028855001822978
423		-0.18657683318526688
424		-0.2572624628287498
425		-0.1664069414162472
426		-2.0330691636630296
427		-0.6300644187463296
428		0.10589918272989084
429		0.237460954426262
430		-1.2017824499853078
431		-0.8984087549936354
414		-2.2323858142697555
415		-1.358688118187906
416		0.06449687550085773
417		0.44629624468243567
418		0.13343353094162475
419		-0.15859844631863557
420		-0.006654002910259865
421		-0.0752367749789655
422		-1.0450113701111396
423		-9.93601390373693
421		0.28681758681197483
423		-0.21349013271100203
424		-0.39913835286020183
425		-0.1715940575818994
426		-0.20544764422565034
427		-0.9740773493876291
428		-0.3881139868792327
429		-0.07046768694734805
430		-1.0571703366744805
410		-0.37488072980573434
411		-0.8024289323186752
412		-0.08637937333454924
413		0.6251713008182533
414		-0.03837912468901716
415		-0.1749655927668212
416		-0.45405375276746857
417		-0.15631076049677706
425		-0.34317766785511544
426		0.3063447872560181
427		0.28013717516146436
428		-3.161624273923871
429		-0.033174970029977394
430		0.24025426295279848
431		0.032101731704654676
432		-0.601012334902456
427		-1.0865020467504554
428		-0.103353968461041
429		-0.4843287809222843
430		-0.060534400944188306
431		-0.01387519446749021
432		-0.6160769623826784
433		0.04978521739199295
434		-0.15114109623220195
435		-0.123444267177019
436		-0.8256609877984399
426		-0.09816398774633393
427		0.13720142366000632
428		-0.11467862314115841
429		-0.024529328228362336
430		-1.1265795882946228
431		-0.5227928964601241
432		-0.22177547796556832
433		-0.8379110529153783
434		-0.30206942812261955
435		-0.01390996007284867
435		-0.11058460665994414
436		-1.196030143658653
437		-0.20440266463657375
438		-0.4313210731608276
439		0.10484404156490995
440		-0.1986819328055878
441		-0.3438733931042395
442		-0.41016888566378745
443		-0.3879124915898531
444		0.27646576055370115
465		-0.05844014808707489
466		-0.1554754498494042
467		0.13887595420927193
468		0.027473259092670146
469		0.15742772976213418
470		0.08037068957983506
471		-0.11358361227934592
472		-0.9848382658371615
473		0.25310691602168023
474		-0.37165864737518783
461		0.0023857234027730165
462		-0.4927752214716832
463		-0.2216864207974618
464		-0.11718811509430395
465		0.09802193883384075
467		-0.36015144077215466
468		-0.6352387031515789
469		-0.8186546257897396
470		0.20685486186119464
467		-0.15393977344070636
468		-0.07385887593615714
469		-1.5808970436084935
470		-0.8112292238292326
471		-0.14069962605073053
472		0.546278764124471
