15		-1.639035581895368
16		-0.8629357008644755
17		0.09369483208775083
18		0.8071197753571331
19		-0.15765084133923526
20		-0.5562602471838001
21		0.47952323915522643
22		0.1797939450817121
23		-1.1292779029621232
24		-0.025104380397890917
0		0.629477624433396
1		-1.9318205933638832
2		-1.419732186580997
3		-0.38944475421111163
4		-0.3280755428992062
5		-1.0606909111505962
6		-0.015365045825350747
7		-0.6450117791420409
8		-0.060901280342716586
9		-0.39791593468655134
16		-0.9456438491838335
17		0.15041882258838266
18		-0.23496358741423243
19		0.7315768574388418
20		-1.1193051581586826
21		-0.9947726433531741
22		-0.336774281012676
23		0.29851352447433477
24		-0.7105539606941659
25		-1.0663493517502691
22		-0.10907181629517217
23		-0.2340061223484949
24		0.5525931177004261
25		-1.2351234344301303
26		-0.39841251263196925
27		-0.4891371172304407
28		-0.6887283791083009
29		-1.1614590408942327
30		0.27220467357004074
31		0.14239374481550127
18		-0.14551991141123646
19		-0.39079879191174727
20		0.7141707997402996
21		0.764743005173389
22		0.5730528067733571
23		-0.5331793172223728
24		1.9858085011357407
25		-1.332201037783357
26		-1.751842567648517
27		0.4387646016064578
14		-1.0351264214920235
15		-0.4735624466867231
16		-0.37139076531996607
17		-1.497133965237392
18		-0.5490731506578216
19		-0.6725995602178755
20		-0.5895628183559688
21		0.454246086000923
22		-0.47497040405766916
23		-0.5290351849435067
13		-0.2537395538504712
14		0.2251369062974418
15		-1.1867705510359603
16		0.3895397916284307
17		-0.09098464662076515
18		-0.6832861184120324
19		0.25416214302854745
20		0.07617574565702094
21		-0.34465430735466995
22		-0.22277560648691036
8		-0.9812526173268645
9		0.275090358899447
10		0.4431275529858265
11		-0.13485507841056685
12		-1.584059195431363
13		-0.05436775503531758
14		-0.37164001856917744
15		-0.15557347715686465
16		-0.5825711992776335
17		-0.9725002415504883
9		-0.4647857454882536
10		-0.5954794816105622
11		-0.5189058753607927
12		2.126683691313233
13		0.10725716109651381
14		0.15395657974814786
15		-0.4484427565936394
16		-0.5484770216607767
17		-0.1519989849249838
18		-0.9807570274384237
7		-1.194657562084714
8		-0.4963460171552721
9		1.9765681465971678
10		-0.28662085739642545
11		0.40609832133236307
12		-0.1069167885606186
13		-0.1816927267807204
14		0.7600647414548866
15		0.5501003839083313
16		-0.5015073405159225
24		-0.45974777445073667
25		0.34893605774663433
26		-0.27973009155219647
27		0.017815711003982514
28		0.0950056783326546
29		0.004027927368150724
30		-1.3763133823760432
31		-0.09342079538504842
32		1.1625904279684118
33		0.2957301309864571
25		-0.18380182961179195
26		-0.8169347485661147
27		-0.5624844127279012
28		-0.7723808222719005
29		-0.9247995449708872
30		-1.0974451424885994
31		-0.4033320145543709
32		-0.1257122815869741
33		-0.6787898234746264
34		-1.1954072673289664
10		-0.5485346055167495
11		0.2035045381846067
12		0.5274896968278617
13		0.05169152990176335
14		-1.0938867480101961
15		-0.3279115031628872
16		0.054754503694928826
17		1.2842343531231986
18		1.2365515907204951
19		1.0620458856161363
17		-0.6161794414289626
18		-1.0476658717091412
19		0.771348339820607
20		-0.5211072389118724
21		-0.3509194433248577
22		0.030026563295644834
23		-0.5494234582723255
24		-1.1253576074520184
25		0.2897968115132971
26		-0.3977862002699222
11		-0.7053935676875355
12		-0.1656183899039682
13		-1.3947845766993916
14		0.9978183370047995
15		-0.8880160728219955
16		1.2815764260752875
17		-0.6424214110176163
18		-0.3267866716210609
19		-0.7473618550670695
20		-0.42452610348408615
20		-1.0333178910261982
21		0.22141412745770153
22		-1.237869003580006
23		0.01381340121209395
24		0.3482765874547225
25		-0.02665391053183102
26		1.4014746473246678
27		-0.335846220618589
28		0.5986833569432912
29		-0.9042851226022054
19		0.00836393769646637
20		1.428270613368735
21		-1.324441864415047
22		-0.6675552582109591
23		0.24409173264008202
24		-0.053824899511812095
25		1.4728658632282978
26		-0.23444202881403992
27		-1.2541685122587232
28		0.20062114946753842
3		-0.19786246219322998
4		-0.1443872484117259
5		-1.4664253204376314
6		0.7832820745344508
7		-1.3977084567912066
8		-0.02944660662943767
9		0.27919542075657
10		-0.08210814157859032
11		-0.5803278680271983
12		1.0490821131341057
1		0.009667843587636157
2		0.5396298030382313
3		-0.5110061594509078
4		-0.5918212396280553
5		-0.4725201515340971
6		-0.27769813888295497
7		0.5851823423715298
8		-1.0273409176216644
9		-0.8252327838725981
10		0.13602710274480623
6		-0.0023362073295389424
7		-1.243046645236021
9		-1.2830746743463317
10		-0.18693820955693669
11		-1.0508238630317392
12		0.33619951101956236
13		0.09891675952141803
14		0.9492114555193147
15		-0.3606383245190728
5		0.7346734272527659
6		0.6851044340551887
7		-1.1696907045391605
8		-0.12206302975142219
9		0.061504086436935654
10		0.668055079114898
11		-1.062439141229255
12		-0.32706678549816776
13		-0.7626755713466304
14		-0.5966087068330507
12		0.8532211461529559
13		-0.41316223488676235
14		-0.9994780304583635
15		-1.113035026346928
16		-0.875169670431392
17		-0.9921723790151671
18		-1.0088350861255841
19		0.8310789991732931
20		0.30938530714451595
21		-1.6399158606638926
4		0.15229287200103322
5		-0.17815476980287726
6		-0.7446393750093315
7		-0.7651655762265687
8		-0.5493929864696669
9		-0.060901551878700645
10		-0.7311406957688052
11		-0.14404001548144163
12		-0.4241850232923948
13		-1.06227913804438
23		0.06406783092629129
24		-1.2340869671239934
25		-1.3288401647381727
26		-0.8504861762631061
27		-0.5391302192290391
28		-0.4626554078516867
29		-0.20807391656240473
30		-1.1098456205601568
31		0.3774145377472844
32		-0.09770848654682367
2		-0.7772363448772637
3		-0.39377394577193886
4		-0.39861142476342537
5		0.4750862713278607
6		0.126534150577337
7		-0.7397895456910788
8		0.7943532143807884
9		1.5215178832963945
10		-0.666325489093687
11		-0.2890492509087705
21		0.07540033794123759
22		-0.5520348487678106
23		-1.242276774643796
24		-0.7320423678782292
25		-0.2505389756700073
26		0.8901852446068625
27		0.055684902213765645
28		-0.8831638700636015
29		0.20350144284476063
30		-0.24425455586124215
28		0.7110286819370748
29		-0.09917505278553523
30		-0.8252146276216176
31		0.5536844606081682
32		-0.8352735326022749
33		0.24063629334073053
34		0.035437169298190595
35		-0.05556533863561612
36		-1.2740304172890677
37		-0.2725151973148783
30		-0.03917087058888569
31		0.05564505208512585
32		-0.9803352251267053
33		-0.5757484711468739
34		0.2973478865832187
35		-0.5100802594771544
36		1.729867036931867
37		-0.857293758519079
38		-0.8718640784278523
39		-0.21967869144455665
26		-1.0694619493512973
27		0.6181829748260566
28		-0.9304867551220081
29		-0.411143803306641
30		0.8449129343361362
31		0.2952787038876712
32		0.6089478262959659
33		-0.16815295883680045
34		-1.2288620967645696
35		-1.3233904125581837
29		0.7825162613627736
30		0.5685481081942799
31		-1.0698608435740042
32		-1.7346007595204596
33		0.09419545668550242
34		-1.0861285951093502
35		-1.5737098210667815
37		-1.5814311945586548
38		-0.5669007857223398
27		-2.7148066657207326
28		-0.600826374341463
29		-0.3141596676559339
30		-0.3961715158089413
31		-0.20067142364624735
32		-0.6441785354491885
33		0.16569619185182485
34		-0.7154627298518315
35		-1.1675998423286642
36		0.5842743812481366
33		0.36105484596023074
34		0.2044710227635933
35		-0.9082206078907179
36		-0.6634691786740476
37		-0.03970545818062421
38		-0.6879338907999982
39		-1.3802610912892748
40		-1.528197901652479
41		-0.37693199278650014
42		-0.425813926874548
31		-0.4345783775338438
32		-1.0225734235887765
33		1.2730586771126626
34		-0.34569715982319493
35		0.557093270317201
36		0.6397689465760622
37		-0.005971668188675861
38		-0.5719936096082069
39		-1.9455522653732
40		0.06300372961545857
34		-0.23161050235908234
35		1.9565084017086207
36		-0.2160798774801235
37		0.1160082597846974
38		-0.14054147778732562
39		-0.4875587753971641
40		-0.4792906614008667
41		-0.5691010046796305
42		0.07347768424914763
43		0.27792925406217844
40		-0.6249606201423887
41		-0.01616575631561363
42		-1.3285644258788971
43		-0.29493188943714926
44		-0.5770190888378642
45		-0.40982604348841434
46		0.8353196121703175
47		-1.1194842019833142
48		0.19257257862447177
49		0.004822956983134244
35		0.13177833612674242
36		-0.7708700358773224
37		-0.7372553010128691
38		0.6942680069143548
39		-0.18235630834826846
40		-0.7809189266222143
41		0.3044237295150323
42		0.5485984257765426
43		-1.1467820995543163
44		-1.097566013255229
37		-0.4587449303721481
38		0.0634744691898808
39		-0.3699139812508263
40		-0.9741167692003001
41		-0.032913829008815544
42		-0.4897259426491812
43		-0.855824256077472
44		-0.42112009564807423
45		0.2084737405700012
46		-0.7251880938145056
38		-0.8758714643950167
39		1.5252908917602
40		0.500317178148476
41		0.5915777054039283
42		-0.9951255920137273
43		-1.4258022739640637
44		-0.11154048536244782
45		-0.6908441916922896
46		-1.0123779588202897
47		-0.8702974023458532
32		-0.314827803807043
33		0.6361299122254117
34		-0.4458328467529102
35		-0.980209963090173
36		0.07051070312695668
37		1.0336574623124066
38		0.08633905144200797
39		1.100769337055875
40		-1.4162848548705134
41		-0.7823714340821647
39		-1.692713379918391
40		-0.740481211983394
41		-1.8360456376074274
42		-0.3062814723302577
43		-0.09417973268158242
44		0.7562108409840318
45		-0.42862164276969533
46		-0.5071396535243888
47		0.6268413208377124
48		0.6620450702436379
43		-0.6927599840753393
44		-0.4425697035029994
45		0.6386318281483898
46		0.4669390902143069
47		1.1095361427806083
48		0.4935973173123414
49		-0.43942583781406563
50		1.9178523748950635
51		0.33375137149462997
52		0.3399753354912845
42		-0.5230021484970988
43		-0.44165453652651926
44		-0.030287271236019684
45		-0.01026944034603721
46		-0.40381834427728736
47		-0.30604351796265283
48		-0.7233861076620185
49		0.5407699169953117
50		-0.28146862707129566
51		0.7059009388513954
45		-1.5523518149133966
46		0.49945830755439896
47		-0.8750946979078433
48		0.23427246423667136
49		-0.15912162756597925
50		-0.29405536195992804
51		-0.558452516443717
52		-0.7620966281025041
53		0.0044780140803189344
54		-0.3427796736264035
36		-0.44792396053981914
37		-0.08704574394424726
38		-0.0993873139043947
39		0.5745460846712218
40		-0.45247433528626724
41		-0.7862172696141155
42		-0.7048710172478713
43		-0.5028367382410581
44		-1.007024986637853
45		-1.1439400193022882
44		0.10494568113703466
45		1.050618691669574
46		0.6695317779694145
47		-0.4578883174795664
48		0.41898494105093104
49		-0.1508668316735684
50		-0.5046412259331754
51		-0.2526472791630413
52		-0.7423500139560848
53		-0.017984292280022376
41		1.6263405546226344
42		-0.6496352988889953
43		-1.106978847368797
44		-0.9263336859496341
45		-0.3005338349366968
46		-0.4102223806392165
47		-0.10853629591751769
48		-0.501262670160074
49		-0.437469132517951
50		-1.324907015055689
48		0.12134034351674905
49		-0.022178081220949553
50		-1.214954791951099
51		-2.038308144597168
52		0.6216473855987332
53		1.269263957325351
54		-0.399090568479295
55		-0.040064488991997466
56		-0.5500561321167663
57		0.780670321903174
53		-0.7643508076568507
54		-0.48154760322088214
55		0.4960765888020849
56		-0.18737758469331092
57		-0.32010606051498913
58		-0.4977391154072814
59		-0.6121273409600134
60		-1.2410774488524483
61		-0.9749073829998914
62		0.9295547546148358
58		-1.0112532280724047
59		-0.9885813273201277
60		0.5161727236781369
61		-2.462134097889614
62		-0.521250087181019
63		0.14090681276072098
64		-0.06407309405378749
65		-0.36302691489175204
66		1.09703431816378
67		0.10446010937540874
57		-0.705874794051791
58		-0.875749142612503
59		-0.2699029578104936
60		-0.4927118168162239
61		1.3025001348485996
62		-0.8584880849969182
63		-0.7927321088578719
64		0.481547911660004
65		-0.2794571686805242
46		-0.8638297264474138
47		-0.7348410488167004
48		0.13306678949980208
49		0.3386084291152861
50		-0.8159153637757223
51		-0.3061370744973579
52		0.3129658891519859
53		-0.026859432364026964
54		0.3238441821978256
55		-0.5898593321192152
49		-0.22558314819903447
50		-0.3531361782838442
51		-0.24737251780786118
52		-0.18462298709204794
53		0.22130752184809813
54		-0.5857963315968182
55		-0.42916660964857684
56		0.5728074055436065
57		0.5676443437687254
58		-3.627805996542456
50		-0.8046284608498938
51		0.4696685609940159
52		-0.5486497232747753
53		-0.279343447016654
54		0.5306709989253999
55		0.7302289155058452
56		-0.852197412264882
57		0.9095786331910195
58		-1.1466779488873662
59		1.4168958617232372
55		-0.892697802062894
56		-0.8635737437170906
57		-0.9686507605104484
58		0.801535886070924
59		0.9871224255503197
60		0.29469867435301117
61		-1.1733474190635338
62		-0.8234271685706648
63		-0.3223568612848096
64		1.3398033815283497
59		-0.8631120405218891
60		0.018720229529296493
61		0.06349927574757917
62		-0.3336949200856026
63		-1.2761940302781936
64		0.2057741302940511
65		-0.3390868601835755
66		1.3824539571197556
67		-0.41947261812954206
68		-0.45739362408925294
52		1.7781909038551007
53		0.35489885823281336
54		0.5892643902941704
55		-0.09074609315947467
56		-0.5493922431146842
57		-0.17700451390142083
58		-0.20986432648348902
59		1.4225894451226933
60		-0.8673839627919527
61		-0.008740035675752173
47		-0.39648506399463496
48		-0.2546845948508243
49		0.53562841688008
50		-0.6274823203702348
51		-0.36813432329064655
52		-0.1309412210511798
53		-0.04606228536835483
54		-0.1267249626022782
55		1.4312170435642593
56		1.4959993174338928
57		-0.6158463545055265
58		-0.5100678504036704
59		0.0057764241064640395
60		0.35547064887311236
61		-0.4758161932848783
62		0.6165968203161254
63		-6.0165312270436235
64		0.03715477086757302
65		-0.6294477403882085
66		-1.13162845672531
51		-0.5011736606076854
52		-0.3130979427496499
53		-0.37596332740352434
54		-0.8279976553286328
55		0.6919779789862058
56		-0.3857933465462384
57		0.18056368749956803
58		0.09420115761389973
59		-0.7494794532314344
60		-0.9995048559864451
60		0.8648360805196385
61		0.6407136678629785
62		-0.3674242165946417
63		0.0781158132118378
64		0.2098268221263782
65		-0.41190813918761704
66		-0.66568539223725
67		-1.15544008807846
68		-0.2679049572210616
69		-0.43302932321130383
54		-0.7358242643430948
55		-1.0621190762918673
56		-0.5961154298302129
57		-0.38296094213283133
58		-0.10974208195151454
59		-0.44724571900277005
60		-1.5437557115846965
61		0.2740466328476617
62		-0.11209978947622633
63		-1.1334970467587984
61		-0.19833916736095067
62		0.02520520668231114
63		-0.5051720455250732
64		0.8690642329029697
65		-0.36255391271980353
66		-0.14423246447701762
67		-0.14661529318549582
68		-0.6635401072821492
69		-0.5135903205542676
70		-0.2722047436796415
62		0.13599953809924262
63		-1.1665143394839603
64		-0.786600205434532
65		-1.3692592708829179
66		-0.014763304942524284
67		1.1414137187056255
68		-1.0258923925485934
69		-0.2951048661914951
70		-1.52519709812979
71		0.4935386749396912
64		-1.1870087641431835
65		1.165312014143155
66		-1.3253565160230227
67		-0.9691594710681423
68		-1.0036440511979061
69		-0.4619746160818063
70		-0.45916187011012166
71		-0.9068472160918839
72		-0.5244909986141991
73		-0.7454913543078298
63		-0.2467681396735028
64		0.11496461474752165
65		-0.5187492431825634
66		0.08361434990091521
67		-0.744422128752756
68		-0.6423562803593429
69		0.08431561777174587
70		0.13187230602610553
71		-0.5892889400907387
72		-0.6451861356670711
82		-0.8811347978454809
83		0.7281068256038594
84		0.6350349335895694
85		1.1738723871478423
86		-0.7093977839675676
87		0.4242887044631253
88		0.06749695811392392
89		-0.04517457673102397
90		0.27079524167907676
91		0.25809072511990744
75		-0.08151821521370654
76		0.6757437782234378
77		0.11778792266751326
78		-0.6087399589812303
79		-0.2787368241132119
80		-0.26055002097692637
81		-0.28893994798921696
82		-1.159887564452507
83		-0.490941301877818
84		-1.175747480607942
79		-0.3183586302640049
80		-1.1289939471643764
81		-0.33296925391017534
82		-1.1640423431567566
83		-0.9940841259041242
84		-0.7027998561530374
85		-0.027611545546759063
86		0.8058328018962858
87		-0.3224912027727464
88		0.16956763876153108
65		-1.4858926966388648
66		-0.7427735395392265
67		-0.6683957806821054
68		0.004170602449999053
69		1.128143197787061
70		-0.9769225989058107
71		-0.6457586358856184
72		-0.23652347440838448
73		-0.9179668059458278
74		0.39123568901735994
66		0.4876944131669314
67		-1.1327858929775114
68		-0.5964037002596322
69		0.18080996261872215
70		0.7883867204674767
71		-0.961051933644046
72		0.12039494656671905
73		-0.10315604415599212
74		-0.422572380466466
75		-0.05075290351355501
76		-0.07220413610293201
77		-0.2912057436630939
78		0.48592559405784225
79		-0.40849868504156217
80		0.5683895459480173
81		0.34908036812334853
82		0.23978727612347198
83		-0.8332335094347655
84		0.673257823202398
85		-1.429430182793674
80		-0.8548788875743256
81		0.004116103538375658
82		-0.49906866818198276
83		-0.3564839573598762
84		-1.4895664316456652
85		0.7198512475179492
86		-0.845148356441114
87		-0.14621432123344344
88		-0.38255457373585827
89		-0.013721510515617617
83		-0.6640953020064896
84		-0.33820112948770187
85		-0.05868497808857228
86		-0.31939492801182673
87		-0.2818792332966026
88		-0.8580123744933822
89		-0.5464036178435518
90		1.4157193610783465
91		0.11535575567629647
92		-0.052274237834554434
81		0.15916344618189934
82		-0.34570938518047134
83		0.9248157599850783
84		-0.5613877525988914
85		-1.5797817611804044
86		-0.7766553798182857
87		-0.41006399607575894
88		0.500729242020413
89		-1.049515859884983
90		0.7020726384157387
77		-1.5338947034486987
78		-0.016530381536391123
79		1.8313677279490237
80		-0.8537263032628092
81		-0.6834640356188119
82		-0.26934487570934784
83		-1.4240776436720959
84		-0.4663702578447327
85		-1.3206346338560366
67		-0.33874303515856946
68		0.40187705280756664
69		-1.0680746612116658
70		0.3280813442514175
71		-0.5639144310633291
72		0.3997433891547808
73		-0.6795078949097421
74		-1.0108004103157073
75		-0.6218410750993961
76		-0.5088518736529163
68		-0.4472619139231306
69		-0.14288996166534462
70		-0.9072363951349871
71		-0.00027653052883373265
72		0.6046600592077596
73		-1.1306944154819873
74		-0.1670932993936657
75		-0.3240812803980996
76		-0.5492860225829056
77		-0.21150606776310638
71		-0.10634067059859924
72		-0.9926127491846097
73		0.628494617899045
74		-1.2735685005937152
75		-1.0029659719603867
76		-0.1800710595213076
77		-0.16176631920637735
78		-1.1064402763526986
79		-0.3527419349723252
80		0.939314206306381
78		-0.11349963712371838
79		0.2163543183285913
80		-0.5614705397637286
81		-0.09770423188037466
82		0.6864928885239407
83		-0.5248579809341651
84		-0.8546928588481449
85		-0.4309843953033159
86		-1.4937880255490037
87		-0.6792974147456476
74		0.9336208357981095
75		-0.557673462379765
76		-0.29442419650652085
77		-0.5174871231521834
78		0.1107088309772498
79		-0.6884169940870195
80		0.9991863703876268
81		-0.20088583741110996
82		-0.6494617896344194
83		-1.5564896665614512
73		-0.9244657610525008
74		-0.5498418365858281
75		-0.7650827292062725
76		-0.08344447572443714
77		-0.3612926099356095
78		-0.3724638123227629
79		-0.3737974413852756
80		-0.6169757686495422
81		-0.34990911351955095
82		-1.1735473147941153
69		0.18758489702630113
70		-0.9348903840716442
71		0.09224181770175098
72		-0.616057791547215
73		0.04587101650709518
74		-0.13753224643922962
75		-1.1654245471967568
76		0.2990527703435907
77		-0.6707686792341632
78		-0.6739160171464117
70		-0.22244330951214164
71		0.02118766576712259
72		-0.6207124638007497
73		-0.3340127228504682
74		-0.8054300873731494
75		-0.11533166651276405
76		0.9930732149028478
77		0.1386833291754821
78		-0.04905548828295067
79		0.6618014057069536
72		-1.020238185662568
73		-0.022081230812958853
74		-0.4167877822169226
75		-0.17909847672999038
76		-1.1375874639639398
77		0.3941881421943955
78		-1.0382390354368471
79		0.06722609924533682
80		-1.1053384852124557
81		-0.1729853208032289
87		0.364035241312926
88		-0.029998920662618993
90		-0.8735946915162699
91		-0.3532304190578922
93		-0.9290412385110037
94		-0.25446406417624495
95		-1.8020121987576865
96		0.15977937574825782
90		-1.9282245428210776
91		-0.5388904873594772
92		-0.7715877683122894
93		-1.0718134508646546
94		0.03340450843359534
95		-0.9934856984878292
96		0.010277289983669042
97		-0.5683971354059296
98		-0.09621468034084676
99		-0.26139172567876606
89		1.4967664441538497
90		0.07019593246875598
91		-2.3702069962729384
92		-0.09371944699109232
93		-1.0483932504562141
94		-0.197112313012468
95		-0.7133917032011153
96		-0.537808083730192
97		-0.8179333850951883
98		-0.4678160447113449
85		1.2524796977163626
86		-0.7053105346431969
87		-1.1477623037700646
88		0.3917679673100079
89		-1.002579812702144
90		-1.993240304075909
91		-0.5458265635294542
92		0.15076653120685524
93		-1.646580345744177
94		-0.5936474793947064
86		-0.7700364040748637
87		-1.001986014887532
88		-0.5089301046526563
89		-1.0808088447448478
90		-1.2728704901537728
91		-0.6591974709286423
92		-0.4789697842773139
93		0.24319885039143746
94		-1.144153850076924
95		0.22320569227301276
84		0.37219692027846285
85		-0.30409221753850907
86		2.5332412345821886
87		-0.46057727826867423
88		-0.622989229836937
89		-0.7405514235806584
90		0.8482007827412559
91		-1.0100313910611625
92		-0.3553500242047434
93		-0.7337864471847821
89		0.09057762648405794
90		-0.7332544450531471
91		-0.28727421035733014
92		-0.34671212138601104
93		-0.5952230458380031
94		-0.35127796797002503
95		-1.060806634908612
96		0.8288978562781105
97		-0.1920603041287196
92		-0.8414360357135744
93		-0.3032447835335609
94		-0.6956411117262583
95		-0.7659462506654606
96		0.6456853677933794
97		-0.9612224972232921
98		0.7023857404814685
99		-0.27865058099434964
100		1.3747097169249802
101		-0.5787810228901087
94		-0.47523878116166024
95		-2.252359678541373
96		-0.6434323698639028
97		-0.34223428047629345
98		-0.8996028764375512
99		-0.29086801129687023
100		-0.5275031457191154
101		-1.6579679561573863
102		0.11154889483269817
103		-0.6447192543013288
96		-0.21479302746744533
97		-0.8549755276811191
98		-0.10343291941723329
99		-0.4437794254179589
100		-1.247523111162784
101		0.8881588154846223
102		-0.9606534883192359
103		-0.6838963466198085
104		-1.0973307419481901
93		0.6097710545965315
94		-0.18057965755157582
95		0.16021565691973355
96		-0.8946302956943013
97		-0.14163458059794454
98		-1.0791166836402806
99		0.8081406102356852
100		-0.3332561738764393
101		-1.0095463861136833
102		1.1234410253324607
96		-0.9969583996626269
97		-0.5888541430998673
98		0.4721085653855392
99		-0.7016547349528006
100		0.08559697984053122
101		0.9910353989036346
102		-1.1270271521849242
103		-2.1537621259164563
104		-0.6220695819239441
105		-0.9960685093948602
98		0.18705755743320102
99		-0.06521928013947116
100		-0.6639872091210829
101		0.5510283666357693
102		-0.7835582985649739
103		0.5887096244808208
104		1.2708090618045422
105		-1.3799768693420713
106		-1.2671541006204619
107		-0.4130380589126803
91		-0.8465044528006594
92		-0.3168372705341257
93		0.49380360109492016
94		0.6283193849265304
95		-0.7581984246120913
96		0.02081108641675977
97		-1.394634089879816
98		-1.0604964065032196
99		-0.5360119667967936
100		-0.9372142621400259
99		-1.3760321122009977
100		-0.09407984025081347
101		-1.7281427293922353
102		0.8568233701984223
103		-0.5623980444924719
104		0.5187341491302759
105		-0.7698481204280132
106		-0.07182517559470791
107		-0.6761691413313923
108		0.3142285768343298
100		-0.5653325514256343
101		-0.0571026741679224
102		0.945100773974679
103		0.7249245598022187
104		-0.01009130653086563
105		-0.07481894221548725
106		-0.470040723128593
107		-0.7474651208797248
108		-0.5415615844517466
109		-0.6065890286617288
102		0.4409451500599518
103		-0.8641596876194679
104		0.15127413667203535
105		-0.25269002507653454
106		-1.0033353938238878
107		0.0392073326446268
108		0.7179045564000687
109		-0.42495946976530147
110		-0.6860200006684517
111		-0.2650271321214127
101		0.1326182981820174
102		0.11479995953350473
103		-0.8834356946821418
104		-0.5564215750496746
105		-1.3114234985185893
106		-0.017598212772010752
107		-1.0706726566075346
108		-0.5008743782268328
109		-0.7127489130220988
110		0.4494748403576725
97		0.17413743622768593
98		-1.3111544244031474
99		-0.5651263743758939
100		-0.26888446649405623
101		0.09389099590758891
102		-1.0376098887752017
103		-0.4874854399587858
104		0.40828530817137104
105		0.01693339559370537
110		0.05952412886962495
111		-0.9811641293539651
112		0.7211138845754654
113		-0.46668833122556586
114		-1.3771089314206717
115		-0.37809083663274573
116		-0.4626726136293714
117		-0.9425212639422109
118		0.3014726599064398
119		1.0455952628085865
104		0.07773787083070226
105		-0.1562918506146633
106		-1.7359683531540229
107		-0.34981416458240827
108		-0.8129632030076521
109		-0.5882219043760101
110		1.0403966980228585
111		1.1375948491349894
112		-0.5130136218758663
113		0.7532327414110789
106		0.03154145676072378
107		-0.4121806105137339
108		0.28737444826075503
109		-0.37151749096824227
110		0.6531155939168551
111		-5.299038839587321
112		0.013611753147466639
113		-0.6125104859587561
114		-0.3570573525828388
115		0.9209557066857385
111		1.3316074068141008
112		-0.8089066360973386
113		0.9940553007181189
114		-0.0951856147084605
115		-1.1963414639102772
116		-0.5788153976691183
117		-1.0856761591252753
118		0.6099734549586103
119		-0.04068175590895985
120		-0.3279419255147548
109		-0.7336317686475569
110		0.07642073145878774
111		-0.809651830012721
112		-0.5037611304923133
113		-1.0721966197349377
114		-1.38746320444673
115		0.0015865597746841378
116		0.5093369622335285
117		-0.6328727674642379
118		-0.24514300129629008
112		-0.5548062666770696
113		0.05992904251138812
114		-0.9053262601725104
115		-0.9548286747186094
116		-0.0030042605860822655
117		-0.08894679554479033
118		-1.1604908127708398
119		1.3710181284175076
120		0.4645184874576508
121		0.6034153877937538
105		0.006705057165909458
106		-1.00755587159059
107		0.7084782064086518
108		1.7753544094924092
109		0.9656611902426379
110		-2.48167073253467
111		0.38841619559934987
112		-0.8478898742485228
113		-0.18457376276126872
114		-1.1166453476206424
103		1.7495009993513952
104		-1.6167768669256841
105		-0.5200779526501123
107		0.385600228757315
108		0.9402856301999174
109		-0.6240036213419444
110		-0.6716180457500075
111		-0.748941219467715
112		-0.408049681821495
108		-1.049317139772608
109		0.40618237881749164
110		-0.736464016742199
111		-1.077787248980661
112		0.2726760841490851
113		-1.3076624313152756
114		-0.02091786102512297
115		-0.9756274657181608
116		0.04669412918624755
117		-0.1917840903380615
107		-1.1983166796023017
108		0.5685942683644706
109		-0.6857709972087719
110		-0.5512882233599675
111		0.20778755044169128
112		-0.2758216614090414
113		0.6424570236800139
114		-0.037290627494344586
115		-1.0941816915369003
116		-0.07949922878731012
115		-0.26274101772302
116		-0.8523544736257774
117		-1.1393341265642434
118		1.5016395967084109
119		-0.5589382109422503
120		-1.0545052058982773
121		-0.43158224064521644
122		-0.9743283009790878
123		0.08754001757541871
124		-0.8176131217538259
118		-0.4490828546663344
119		0.1360058731572272
120		-0.9037492509411196
121		-0.08641649392529094
122		-0.7976554314162239
123		-0.22468512525172485
124		0.18366464040132802
125		0.2570447091665284
126		-1.113856711537705
127		-1.0099126278276802
117		-2.4164358277494347
118		0.25698029879536916
119		-0.9176293709098733
120		-1.7549098006444013
121		-0.40988845960792997
122		-0.01803827229670968
123		0.7712235487077138
124		-1.2988254981071374
125		-0.01468870801839997
126		-0.8806363100461246
121		-0.7323102024249311
122		-1.6764157178794348
123		0.015763999710300413
124		-1.243610741409789
125		-2.2226226414298793
126		0.29461323450342886
127		-0.9449748734377981
128		-0.2874644062544996
129		0.5102198164670924
130		-0.9601318810724723
114		0.07094266905950308
115		-1.9293292854188828
116		0.7415446879469729
117		0.8199043880121918
118		-0.1542622361592059
119		-0.02123523427687284
120		-0.47479184222132487
121		0.2879523780761645
122		0.17042825168125292
123		-0.20629449214528484
119		0.2760609828384271
120		-0.24201429904878458
121		-0.4260999312172516
123		-0.27958246925637603
124		-1.030126535468067
125		-0.8784090014226897
126		-0.194272066451959
127		-0.9546460583862932
128		0.9809687766009688
120		-1.0185860186637743
121		-0.022252202635149473
122		-0.5804805547238938
123		-1.2930238728050754
124		-0.35968162527807773
125		-0.6732575692384598
126		-0.18921692938547405
127		-1.1025979640340327
128		-0.53574996084203
129		0.27338455402408574
116		-0.21768508294381286
117		0.07217456408372588
118		-0.6310198983898138
119		-0.5459751909732526
120		0.8402589228052885
121		-1.3412281776808634
122		-0.07056852344716284
123		0.03089867268228274
124		-0.16207597666460682
125		-0.1412114098775208
113		-0.4443108419155795
114		-0.855081349171021
115		0.6611145555255786
116		0.12315978852650691
117		-1.1179697455816662
118		-1.2707512933212723
119		-0.8516829141891001
120		0.05096013317244432
121		0.4179000055585642
122		-0.11025116643991752
122		-0.4970204488199265
123		0.021866535225505995
124		-1.073664369365149
125		-0.8334118944527691
127		-0.7694982495839683
128		-0.39153964280790254
129		0.11593084853870736
130		-0.9783470390954088
131		-0.2549516939761368
124		0.06773708080082982
125		-0.5904068135484251
126		-0.06358711374422517
127		-1.0249868459214695
128		-0.7214495334600074
129		-1.360308952834909
130		-0.7363018256271393
131		-0.9679140360894389
132		-0.5309436875980763
133		-0.20651771573005365
125		-0.4098471138756201
126		-0.38828845208447205
127		1.184176799246996
128		0.40355731990714405
129		0.057051564830668956
130		-0.2543509784701623
131		-0.055497752899740516
132		-0.8492654182541415
133		-0.6472526498181723
134		-1.0542402424999953
123		-0.9571857541512976
124		-0.014968153215392565
125		0.30002210627268483
126		0.11359687404001598
127		-0.8835340246822638
128		-0.4100361853838535
129		-0.9974880625115489
130		-0.4711240930853071
131		0.6134952314164049
132		-0.4357385828716631
127		0.28368422266299664
128		-0.10159706170596954
129		0.8800478200932929
130		-0.9912208290887782
131		0.11684888212270383
132		0.34553001407002454
133		0.07054748909974108
134		1.7174508675952003
135		-0.2309908482857871
136		0.20749249811275935
126		-0.9810842313661041
127		-0.17109712994710025
128		-0.8945335223191496
129		0.39039367066845576
130		-0.7554948584981145
131		1.3642429556737583
132		1.0097196265860766
133		-0.01696921479608537
134		0.38950969055517237
135		-0.09630860646803405
132		-0.8559998191343883
133		-0.28355760393850055
134		0.35826662966032796
135		-1.2460559999679057
136		0.25572609557073095
137		-0.720862113403653
138		-0.8868706906128567
139		3.3218445431868195
140		0.21811084970604863
141		-0.6145744325481604
128		0.25998750176972163
129		-0.5379470051082773
130		0.15350862071037724
131		-0.35795075903463114
132		-0.9541730333571524
133		0.2814469891564648
134		-0.6108975826081293
135		-0.07916217790921212
136		-0.5733942462610228
137		-0.20048093312405946
129		1.0444402723763173
130		-0.32877335666136903
131		0.052656849834937944
132		-1.1816507928387245
133		-0.6298627109592829
134		-0.12594158075789427
135		-0.5456574085041594
136		-0.2949928647191983
137		0.09088533439314547
138		1.1532972163239168
130		-0.9068723636125714
131		-0.18731360079340706
132		1.1944582698594792
133		2.0475210702860185
134		0.03842238778438145
135		-0.49857433329350637
136		-0.5597245287403629
137		-0.3180779602999229
138		-0.0937100059852838
139		-0.9970888955130592
131		1.9304487590878008
133		-0.35708363656591696
134		0.004816225179348724
135		0.7375161159509711
136		-0.6725686349242606
137		2.081496196123208
138		-0.4914381499039812
139		1.4724693209926782
140		-0.7362266772277414
136		-0.5550600326667924
137		0.30448471011793565
138		-0.15956128594762156
139		0.11896205999665227
140		-0.6401452777812835
141		-1.026165645336359
142		-0.3564621935643735
143		-0.8631265270278228
144		-0.35779434874412797
145		1.7756286468008746
137		-1.7310353184474085
138		-1.0882828252172463
139		0.5919742244646634
140		0.17301135169091914
141		0.3684703672421987
142		-0.715281809085947
143		-0.6088715248857366
144		-0.3225877944343718
145		-0.7141326236742892
146		-1.271521987648109
133		-0.5195474362089681
134		-0.6979583623155402
135		-0.04361496368039566
136		-0.09220734189506952
137		-0.2265632068706236
138		-1.018721750293412
139		-0.5406373213794108
140		-1.443820183260449
141		-0.44299214233516415
142		0.3682202664211957
134		-0.47049968248608703
135		0.16638060200439286
136		-1.001949683160046
137		-0.6114007508370078
138		-1.0161028655270268
139		0.18093840551379375
140		-0.3761695315150332
141		-0.6823525464030183
142		-1.2732139331396752
143		-0.40462477738622304
138		-0.465706928571657
139		0.18087603688214823
141		-1.430578536401049
142		0.29944514394548494
143		0.40173505703314744
144		-0.26420076016071675
145		-0.645176829441474
146		-0.021720561697915135
147		-0.1775598716702905
135		-0.5762033249874666
136		-1.8519409324995075
137		0.20551752821093364
138		0.9815509473172571
139		0.29100063673199505
140		-0.10267718495017612
141		-0.3966758306043623
142		-0.6864141474678727
143		1.588541572306597
144		0.7329620591990565
142		-0.5748963781711549
143		-1.616014795724309
144		-0.0017912683857394538
145		-0.0845187711433584
146		-0.3329494384054284
147		-0.018930678666119236
148		-0.1142674923832935
149		-1.2233176644656112
150		-0.7824262432734406
151		0.3513834794137256
140		-0.14384676967206075
141		-0.8732241753269342
142		0.964353661964884
143		-0.6276572957975057
144		0.3998729751618064
145		0.48183456953215403
146		-0.2519825357228091
147		0.3144343934554857
148		-1.0209167474718348
149		0.1152115167013495
139		-0.5370612994871306
141		0.9720435033947199
143		-0.9364691688687121
144		-0.2779885961552349
145		-0.20021787812243527
146		-0.21628510250322913
147		0.1781815839947922
148		-0.09277927721680058
143		0.5204227418780428
144		0.5260211155680014
145		0.04628853243198
146		-0.3303344101281109
147		-0.237238745041971
148		-0.34101570323595987
149		-1.6138086573769153
150		0.19739107536854797
151		0.3723013745430733
152		-0.04976361527144091
141		-0.6657411178152851
142		-0.7231787261828896
143		-0.06287666769787625
144		0.37506474865235034
145		-0.6792661307938941
146		0.27878966233929686
147		0.23876985463439965
148		0.05427013736676978
149		-0.40326372024995133
150		0.8132537090279378
148		-0.5926799369873345
149		-0.8114818489115873
150		0.7153367568063048
151		-0.5003109516441169
152		-0.2353183818462081
153		-0.43481431657075725
154		-0.7469206467388851
155		0.6378875972589736
156		0.0486674421592523
157		1.8485759891529074
145		-0.19708369900618541
146		-0.09700085854886006
147		-0.1748063311854864
148		-0.27049338460357214
149		-0.3106002879463768
150		-1.3488705394659848
151		-0.04770934095110143
152		-0.34400255227343673
153		0.6328239154664327
154		-0.6282545099331917
147		0.2357353964420933
148		-0.4590314338076506
149		0.5264697335581005
150		-0.9733245951474844
151		-0.770731465096828
152		0.593331578945876
153		-0.7431497467122662
154		0.21554592912272075
155		1.318623487053161
156		-0.8138004746024942
146		-0.672783473651537
147		0.6167988135780125
148		-0.867482270513804
149		-0.5704026598442246
150		-0.5390965076593123
152		0.34958698662610016
153		-0.18960668436708272
154		-1.1036277030122836
155		-0.13701791502132823
149		0.15123725680650446
150		-0.2788210651103873
151		-0.12429038522086897
152		0.38631515713554526
153		-0.7344502148802888
154		0.11962749117756101
155		1.0250597507462305
156		-0.43964226747169716
157		0.2747229297945678
158		-0.13799130205710936
152		0.24600887347434075
153		-0.8446589324067484
154		-0.06051807536850629
155		-0.9286520102459763
156		0.6337931556190743
157		0.44602755326402127
158		-0.3566131353698673
159		1.2412324255521985
160		0.6878684833718549
161		-1.2129836109479917
150		0.0941560290755023
151		-0.5465510979753172
152		0.3260262792023799
153		-0.39922313411117816
154		0.32654879639489526
155		-1.444978141519292
156		0.07916964703678152
157		-0.675936218406996
158		2.5208484267026625
159		-1.0135674131489139
156		-0.13769379771439638
157		-0.8155487416568956
158		0.9602109083155622
159		-0.053050982724041865
160		-0.8117987621115763
161		1.162105370434305
162		0.3401169721048173
163		-0.46506734950080647
164		-0.8309102192950518
165		0.8060386752843814
158		0.26245703834382283
159		0.16037365819211205
160		-0.16663169646465395
161		-0.6380962671463337
162		-1.2156386468043965
163		-1.1834202731825407
164		0.7959098426980117
165		0.7566572903003053
166		-0.03794967092085065
167		-0.26486659999794954
155		-1.5717349111671783
156		-0.165759117462732
157		-0.5512293013980236
158		0.02185767381270644
159		-2.639361871237633
160		-0.39054490816255605
161		0.15354180468076592
162		0.6843992713383804
163		-0.6264172985743353
164		0.6697364873191072
157		-0.11693049712392414
158		-1.0722161125017533
159		-0.3211046269096118
160		-0.27714230800719264
161		-0.932131740925206
162		-1.6050237140329504
163		-0.7745206125899744
164		0.49842428081470275
165		-0.4896186098607673
166		-0.023910340614137826
153		-1.1734537125051177
154		0.3062669915121182
155		0.7774115203128621
156		-1.474715126656241
157		0.11834653223639517
158		0.16719997753650387
159		-0.8914726488324151
160		-0.4971585873017195
161		0.7343875822608023
162		-0.3698006781977984
144		-0.14130331572726582
145		-0.8905128577891145
146		-0.6132327128311121
147		-0.9949328135934273
148		-0.5048521999965881
149		0.11333841643657927
150		-2.201442117150891
151		0.023759055037193347
152		0.09503832267318614
153		0.2892326497485636
159		1.6537564730810388
160		-0.7048912986180379
161		-0.3015821942387345
162		-0.4761100488458964
163		-0.35550899657165735
164		1.4727856946587534
165		-0.1846770179687601
166		0.12770057305829507
167		-1.1945173914416949
168		-0.21498669762646883
161		-0.988413191892737
162		2.0901786918552103
163		-0.804235929758763
164		0.950260118292945
165		-0.19281588182566003
166		-0.08857430579075896
167		0.20725888187484445
168		-0.3844215747948571
169		-0.5145395795567395
170		-0.5415833305648773
160		-1.0271512267890999
161		-0.8882094392802277
162		-1.3151323377382271
163		-0.5486456313921162
164		-0.5418693632770881
165		-0.30159705572267376
166		-0.8554759548202985
167		1.7367647062040383
168		0.1041099457985431
169		-0.6550493014232971
232		-0.9851763713421664
233		0.20442347673171352
235		-0.03148514572314143
236		0.12299335802719284
237		0.09584213589095222
238		-0.7750080212720127
239		-1.0247560654628545
240		-0.3889483490098
241		-0.3968039839419321
168		-1.0288509999570206
169		-0.3027288430622199
170		-1.7512682130911004
171		-0.5792778587842066
172		-0.5634678156150191
173		-0.6026981865409324
174		-1.1075376527538954
175		-0.6061031845440269
176		-0.3084877030419396
177		-0.7457289619405022
197		-0.5457275290112832
198		-1.2225254696217713
199		0.29737342322823185
200		-0.45836805597542624
201		0.560658683693256
202		-0.9201185992792051
203		-0.5980358994963494
204		-0.6596042874668732
205		0.16741900478562677
206		-0.5797980840042319
174		1.475960142162058
175		0.7473562709650141
176		-0.7347095186900651
177		-0.5022733323963785
178		0.3526329014483449
179		-0.594969545114134
180		-0.2553888123934936
181		-0.40306169638788947
182		-0.45561838041360553
183		0.06172635286899368
223		-0.20779821669688178
224		-0.5993842080380742
225		-0.05537555175304242
226		0.8167730205558608
227		-0.14510991589180613
228		0.4490332075753277
229		0.268468128316311
230		0.6381091658267269
231		-0.4948078334662966
232		-0.438269608601038
212		-0.5415832548864064
213		0.42057234695715534
214		0.34131501266770664
215		-1.1675738651965715
216		-0.5104357287889478
217		-0.8036580445919187
218		1.273334195313529
219		-0.2544494939872886
220		0.029395245021711293
221		0.39903393757255406
205		-0.9798133310648673
206		0.4196380116877847
207		-0.4637963283808441
208		-0.09298717285805208
209		-0.682826174110465
210		2.155101025523428
211		-0.4795558240204406
212		-0.5465429673106849
213		0.47028194144896807
214		-0.21717931323111533
221		-0.9874992123098814
222		-0.9351121866360883
223		1.0172515635600548
224		-1.1980952411440244
225		-0.19997716377043548
226		-0.26181852901533215
227		-0.1882951560364548
228		0.08698409583541923
229		0.16473185155999817
230		-0.09999859953027647
154		-0.346270171868741
155		0.9385538139740166
156		-0.4868912324324736
157		-0.7042065473998659
158		-0.5228821211101905
159		-0.3693593940988296
160		-0.22259489314337122
161		0.8083298236439512
162		0.4472292410223347
163		0.08679414505280464
198		-1.1103027361370432
199		-0.4177569368701655
200		-1.0504657642815955
201		0.7421779011997758
202		-0.4254831366258929
203		0.7492930136067023
204		-0.07987237783835924
205		-0.6593570679304537
206		-0.8555951456224926
207		-0.3570049505129467
234		-0.4613922706106307
235		-0.39719301743954366
236		-0.7772607348593993
237		-0.7736233999296478
238		-0.7273189269290993
239		-0.8303549913880046
240		-0.5034720755550671
241		-0.9558212886102335
242		-1.0556429455597833
243		-1.0392383334011266
163		0.10440779450253171
164		-0.9668434593982741
165		-0.7014390062814428
166		-0.782864000205967
167		-0.22733063844551446
168		-0.8354365347348515
169		-0.17965643294703482
170		0.2456430592235378
171		0.05611427808386815
172		-0.8340365212861397
203		0.03132005108403705
204		-0.6275917712163371
205		1.2673048964932552
206		0.3433786820674733
207		1.8466273076883968
208		-0.24994444497986817
209		-0.49853690654072363
210		-0.7852607736647511
211		-0.1601627989525661
212		-1.1013726439195066
233		-0.3218484401861548
234		0.9536337176764355
235		-0.2921275661109062
236		0.5855994903533245
237		-0.9059227625732724
238		-1.5067641183752316
239		0.6936857995162438
240		0.28955848883101065
241		-0.4289939218746537
242		-0.631813732845673
196		0.5523774842482824
197		0.12294910865953987
198		0.4108887964011274
199		-0.5198768670067652
200		-0.004562134109248188
201		-0.6974655234124194
202		-0.09189672246127771
203		0.7468913714126816
204		-0.06713739977986828
205		-1.7962660441105802
214		-0.9815393766859709
215		-1.1726577371996374
216		-0.9876387387494315
217		-0.7808656816751943
218		-0.7878517736218228
219		-0.16323344132030876
220		1.6389752567459124
221		-2.0223835928547547
222		0.511052342422091
223		-1.121295447304256
194		-0.1002567501424827
195		-1.6119923763021664
196		-0.9415708554801336
197		-0.19331294265307006
198		-1.5679183479177778
199		0.2359653460396599
200		-0.4352148495419399
201		-1.4643737601600293
202		-0.24757403106882342
217		-0.41429124194343814
218		-0.7543283400599575
219		-1.83349556726101
220		0.05012526281274055
221		-0.5324995804211781
222		0.12061159745132843
223		-0.7561202427149064
224		-0.872881238330209
225		0.1545890373314367
226		-0.8341563177755319
162		0.3442741732902211
164		0.35655336460040304
165		-0.35968718115063497
166		-0.8514699044734524
167		-0.9039012167659106
168		-0.15622412411529507
169		-0.49327371662889474
170		0.233465208362926
171		0.0149406127070002
189		-0.7876016344164056
190		-0.9774552788170202
191		0.5110835972864922
192		0.7975427586805522
193		-0.7160522035802087
194		0.3114615461116994
195		-0.5655209115898892
196		-0.16170941732702374
197		0.14231013728490643
198		0.1744680816441207
208		-1.2075645395482277
209		-0.32339843779095756
210		-0.7991962708255635
211		-0.6132258085514327
212		0.5394109119448108
213		-0.6321983922146225
214		0.23837734839556007
215		0.3859941340268516
216		-0.40587922316997826
217		0.3100122753055473
185		-0.7122797233914167
186		-0.3475609619119544
187		0.36921038043779375
188		1.579600310061081
189		0.7341779300704837
190		-0.05688102203457287
191		0.23451549778652367
192		-0.8234491433289255
193		-0.5465951048086782
194		-0.27782427318160907
227		0.3688673628128176
228		-0.22362151674607678
229		-0.1767696583567005
230		-0.8881796749626625
231		1.4051081307941116
232		0.2947189769536032
233		-0.5733988389576804
234		1.4643117530607197
235		0.4143327469789105
236		1.4981358190683403
226		-0.11326954867476911
227		-0.18321146840861124
228		0.23615404460517395
229		-0.36441943088064577
230		-1.0065608792117404
231		-0.9755405992228076
232		-0.03713472224389323
233		-0.3969272605183374
234		0.6470425289894751
235		0.006597201286414912
228		-1.1032879056768132
229		-0.617546502449779
230		0.31713469050769527
231		-1.136812600735275
232		0.3419183957054673
233		-1.0167984795505058
234		0.24359032959275767
235		0.3947095932806229
236		-0.6477070419721797
237		-0.6083145507313971
179		-2.18337187904228
180		-2.0862000159985947
181		-0.8880495110875823
182		1.1816668753050965
183		-1.4305271342307657
184		-2.0836971648019276
185		0.5636202165317764
186		-0.9221023903859427
187		-0.13945398822773028
188		0.08612926176915191
183		-0.06276747822468609
184		0.6865057417369856
185		-0.2510918838098583
186		-0.1264675609300169
187		-0.36123773863470293
188		-0.5065796670274176
189		-0.9603126674688002
190		0.5764895442187624
191		-0.41491824557973683
192		-0.936060303722967
200		-0.2964996188033679
201		-1.0339118994117302
202		-0.9585171006466262
203		-0.23726973592513906
204		0.0177754277836339
205		-0.3560987457557819
206		-0.08069877433462766
207		-0.5153710218303897
208		0.020021909320847207
209		-0.3337461656423738
199		-0.10318078102310584
200		0.16952667790129752
201		-0.37286502289988
202		0.3265726426097593
203		-1.2124121455673962
204		-0.8039287531911022
205		0.3035374294089385
206		0.06328503819973598
207		-0.8034883711383763
208		-1.173127807784019
242		-0.7979944987463584
243		-2.3739596507179077
244		-0.6986391389972831
245		0.5801914286688293
246		-0.6469171022621938
247		-0.1842751289013001
248		-0.6497052472178871
249		0.5673044005987524
250		0.13719761543260772
201		-1.626425368071357
202		-5.218391111023539
203		-0.4214793037784063
204		0.3753272319639177
205		-0.1479534164743016
206		-0.31761598967289123
207		-0.3014962314960428
208		-1.1950386078536763
209		0.2495677437793461
210		-0.7648818451274565
213		-0.9289994747116744
214		0.18412091570712483
215		-0.15572100858565563
216		-0.56424320951098
217		1.3655395582307621
218		-0.9890050669376691
219		-0.5590821549291464
220		-0.5341163728883626
221		-0.4948596390929687
222		0.172102141711773
191		0.3640464657752681
192		-0.9162573736111157
193		-0.015376031653586903
194		0.6823236915036129
195		-0.6058180780685904
196		-1.613747002102162
197		-0.4165378650887268
198		-0.6220874016226925
199		0.3556439713978963
200		1.2311981786075268
216		-0.4720646829193966
217		-1.5919681692531709
218		-0.5272757971609051
219		0.13081668437442923
220		1.1522351684028094
221		-0.4861312490638915
222		0.6859498948553016
223		-0.6918627666135667
224		-0.2851110118214978
225		-0.3343977469885996
215		0.38123880498808993
216		-1.373368404216327
217		-0.43048206813094525
218		0.9890026708606632
219		-0.40948567113666146
220		0.5807174866762587
221		-0.9286322022554432
222		-0.07681748868138819
223		-0.6025232244076331
224		-0.4380154391612871
237		-1.086125495810912
238		0.056358279611060644
239		-0.6097544465121886
240		-0.06123359626674496
241		-1.141275858530883
242		-0.5739266182886495
243		0.6185232655864499
244		-0.6404825830234371
245		-0.32006862188488505
246		-0.17661669286683726
175		0.6389080578839101
176		-0.17419897882785615
177		0.8989700030369453
178		-0.2689798874401178
179		-0.2400852073149001
180		-1.9005109567543894
181		-0.7006437425946671
182		-0.3540697561217833
183		-0.939124706095243
184		-0.666489143807564
225		-0.17210357520172262
226		0.14281076699522396
227		-0.8298428882934764
228		-0.7115381434597275
229		-0.8075233048077799
230		-0.005149905441703269
231		0.3744475610495705
232		-0.4106622047496998
233		-0.8616974506943121
234		0.5940902266030778
220		-0.6768788772126247
221		-0.7432842888487036
222		2.338202962180918
223		0.4449458753179363
224		-0.46158998029605286
225		-1.3847204488162848
226		-0.09379185936858485
227		-0.3218400301067234
228		0.11315545648030507
229		-0.9362035920357423
206		-0.9097415629305284
207		-0.6706999678167104
208		0.13210953547252655
209		1.0018171431418486
210		-0.931078325743004
211		-3.8697893043567597
212		-0.46924835477265175
213		-0.7911948503351779
214		0.19998705979341708
215		1.338580694965036
182		0.09020451611131546
183		-0.6286938231426916
184		-0.3937722565527306
185		-0.628007603846597
186		-0.6482089381611625
187		-0.9001438065484313
188		-1.0364054881287599
189		-1.0864343127330323
190		-0.32625054261142056
191		1.299021107263206
207		-1.169069311979359
208		-0.9047194690336755
209		-0.9722752319292469
210		0.0358443309765802
211		1.158398253281081
212		-1.0170025557544744
213		-0.8025475584977685
214		-0.02255892483081908
215		-0.5966920142190757
216		0.4600407553051958
186		-0.2480960952914519
187		-1.2919112610452788
188		-0.41849868657253086
189		-0.44078984439586427
190		1.1168865264328962
191		-0.9477578066613349
192		-0.30409867207945784
193		-0.3033202829379968
194		-0.5876208974003195
195		-0.6051080099491549
188		0.3842649999062078
189		2.212943831680386
190		-0.6193689141853181
191		-0.39160483932252865
192		-0.272969808066333
193		0.1765124204685373
194		0.5148712828345794
195		-0.33519276314386776
196		1.948329874173084
197		0.15033053832303606
239		-0.6179095156638643
240		-0.06297673766016952
241		1.3061159415441483
242		0.15730383244884183
243		0.30612976200482406
244		-0.03291410232917414
245		-0.19894543015463934
246		-0.5507718661505068
247		-0.254208875968701
248		-0.383469672267758
170		-0.06819056364695582
171		-0.227167840605129
172		0.12584347426831213
173		0.7087070012448299
174		-1.6169256163769954
175		1.8382769482961563
176		1.4611673007021593
177		1.2077695231214591
178		-0.2661766184020157
179		0.37351234065070904
195		0.17958567574832382
196		-0.8737389995742448
197		-0.7694242377186798
198		-0.18281077329065906
199		-0.24928671643591355
200		0.2118305291765264
201		-0.25427289992184776
202		0.2948394107024757
203		1.9951768547460034
204		-0.5651608908884205
187		-1.2050917691728809
188		-0.2782276176722555
189		-0.7788517070322154
190		-0.6035382685995629
191		-0.06685888321401692
192		-0.553331647905167
193		-0.0804541924812504
194		-0.571191907797384
195		-0.3328136468630537
196		-2.0855519771952897
211		0.16082003180582088
212		-0.11851350150589475
213		-0.02220595771959795
214		-0.7701918369408641
215		-1.2864791342653317
216		-0.3089810496920373
217		-0.009033408941423253
218		-0.2242228008392424
219		-0.5879773694336023
220		-0.263627393317482
218		-0.6913099671588753
219		-0.22741168333749523
220		0.7883882237962672
221		0.1625606287032095
222		-0.4310281873552558
223		-0.47239011449938595
224		-0.5249261835671679
225		-0.8281690510016032
226		-0.14493794033730795
227		-1.2810868817026868
178		-1.405219957889716
179		-0.0016359293447959502
180		0.24885506034719362
181		0.20603219478284085
182		0.7089031290545074
183		0.8793263790989817
184		-0.4525661569825183
185		-0.5948090890636017
186		-0.48100636253289125
187		-1.0853336075902118
164		-0.0812580559267014
165		0.49336644549354103
166		-1.1771861827003267
167		0.5432426762502455
168		0.5633704441861253
169		1.5387034100377268
170		0.2295112945520332
171		-0.2632741069252479
172		0.4895099888461519
173		-0.2841143382110142
235		-0.025190673388523908
236		-1.2301144213153894
237		-0.5713349162282239
238		0.03427450040976756
239		-1.3292709239054485
240		-0.0325588773262526
241		-1.1090139012614462
242		0.223975536948358
243		-0.6904888882985706
244		-0.6589731288796598
171		-0.46722496970627364
172		-1.0032595188923215
173		-0.04905495323317317
174		-0.28643702559331896
175		0.20091064813426854
176		-1.378193546717395
177		-0.7926190561122907
178		-0.4413098290322404
179		-0.165254177084264
180		0.44215190043773694
238		-1.4205494140676407
239		-0.5505074399803244
240		-0.7042452142818673
241		1.4087298099198309
242		-1.400162582145855
243		0.19294361303175384
244		0.5151732597415171
245		-0.527370874086003
246		-0.17548794952805433
247		-1.2449700564738715
177		0.1052863250598197
178		-0.24998701892956104
179		-0.5461346917910486
180		-0.15738789826902064
181		-0.06454507080018215
182		0.148838132057513
183		-0.09260068134116248
184		0.3097708364987182
186		-0.23231958344642573
240		0.05861552909107037
241		-0.2934410878012252
242		-0.07558969797921515
243		-0.439690316089997
244		-0.6024047609455556
245		0.44945180718188965
246		-0.37998066618538806
247		0.3655249149294639
248		-0.5139523286500087
249		-0.8808614873548685
192		-1.4870611875253683
193		-0.4520900957627438
194		-0.5028754049002837
195		-0.9058015992576821
196		-0.7889955164823783
197		0.23125417045596905
198		-0.8967675858525966
199		0.0953970742033668
200		-0.164165927328503
201		-0.17063668389075265
224		-0.3109818298790986
225		-0.831863435414663
226		1.787577435149329
227		-0.6515055981597464
228		-0.2838249006558149
229		-1.007109175675824
230		-0.10764831462868983
231		-0.07873362148613881
232		0.17479918937294092
233		0.5386560812207862
172		-1.0049763465336665
173		-0.16156322382004712
174		0.6925949255044422
175		-0.48809642074311127
176		-0.3918083124845073
177		-0.2521282449652935
178		-1.1583602763572718
179		-0.6732665723800332
180		-0.42584454420948264
181		0.12513763238187006
219		-1.2053399111181111
220		-0.6947678253183522
221		-0.3575496255606441
222		-0.02479617694861031
223		0.35653778883234477
224		2.7500454487650914
225		-1.253116392876968
226		-1.351613376198217
227		0.5905554548292122
228		-1.1224368720795415
204		0.14982874642476152
205		1.522958240732479
206		-0.3502779946144901
208		-1.0472121755688073
209		-0.3255848616086736
210		-0.254474611626661
211		-0.5386415997301917
212		-0.38615349275259425
213		-1.0619155005037515
236		-0.6278074305997016
237		0.29606195548348174
238		-0.15600007484582878
239		-0.4595746605325947
240		-0.4392443752467392
241		0.22319756502135946
242		-0.8508896952354292
243		-0.8884645423915198
244		1.0286909097810628
173		-0.8179275441858763
174		-1.3343802054089162
175		-0.8168726602669265
176		-0.48356254711092295
177		-0.8816345123854774
178		0.8000144167489202
179		-0.7553376895508754
180		-1.1621484711901047
181		-0.0952806424790284
182		0.6727684976229348
202		0.0695862576646834
203		-0.47890514411763646
204		-0.6338147657209847
205		-0.07866580088879799
206		0.21709388607778032
207		-0.05688953535134624
208		-0.9582299109541371
209		-0.10179761857102396
210		-0.8877633599925806
211		-1.4699307606381822
193		0.18666934609635452
194		-0.45681438617742987
195		-0.3493146135365944
196		-0.11617520398253173
197		-0.04753851532733851
198		1.5629902687714259
199		-0.29756755390680106
200		0.5876842138162466
201		-1.017697275194123
202		-0.7342584020838333
229		0.5568663092420498
230		-0.682493481911811
231		0.5245502659457468
232		0.08803433637955262
233		-0.6633697519998039
234		0.1898994483502436
235		-0.8089343960453983
236		-0.3398948674991187
237		-0.4175465812951609
238		-1.4012471838493739
169		-0.6723430638066956
170		0.7465744796735685
171		-0.7384286638873487
172		-0.4680305790031794
173		0.04147940817507958
174		-0.33109961029112706
175		0.35785650962968696
176		1.8916195053759572
177		0.27597376722239486
178		-1.0056414654880714
230		0.09978362882566164
231		0.001112673400255606
232		0.15984671611381182
233		0.06964246543956155
234		-0.32146170431977583
235		0.6440475331862552
236		0.07528950036522446
237		0.17409305437353076
238		-1.2982650220287588
239		-0.3592816660000473
209		0.4019381562641864
210		0.7839847139093957
211		0.22369594312481053
212		-0.7454069144139533
213		-0.1501411647168487
214		1.1501801791266946
215		-0.228962145246095
216		-0.5729795587199106
217		-0.6240449510520991
218		-1.2261293440475933
222		-1.1244405518726084
223		0.9650057393982682
224		-0.609725407792626
225		0.06626800140021566
226		-0.7503004474616639
227		1.204472555465412
228		0.0696974236783879
229		-0.5847775500333308
230		1.9770061154228968
231		0.7927784455475477
167		0.36646778128625795
168		-0.08360186618684563
169		-0.057823889712184585
170		-0.6101980067451878
171		-0.5483075306470698
172		-0.34657082125807254
173		-0.20029588382739097
174		0.2543812831897431
175		1.01973837631815
176		-0.9889035899867353
180		-0.5231216395902818
181		-0.7541429141453171
182		0.5197668514676083
183		-0.47473903555013386
184		0.1335695349312709
185		-0.717713893156412
186		-0.6758035168910383
187		-0.4652259617638324
188		0.6763781070213545
189		-0.6877698178446702
166		1.0092667362356371
167		0.008713491366085433
168		-0.833034678934077
169		0.08081590923381396
170		-0.6423945114926048
171		-0.7499987953838506
172		-1.843983078612441
173		1.8250041083920625
174		-0.438053208316464
175		-0.5342999003108387
181		-0.9694252412683351
182		-0.0031946897957975447
183		-1.3682564237215593
184		0.10656703304924046
185		-0.8214720791797299
186		-0.769794994054123
187		0.030756998860417478
188		-1.0282419133959733
189		2.5395453679844344
190		-0.6543353183951853
165		2.5600543490980274
166		-0.7233067552942113
167		1.0602866710142207
168		-0.6649175372831067
169		-0.9677159019177166
170		-0.3124690730545479
171		0.3515622025652843
172		-0.9182817105681366
173		-0.33144733554039013
174		-0.8625082301238395
190		-0.2873181133579674
191		-0.5913577289181318
192		0.07814208357017861
193		-0.018279074020196955
194		-0.5429967028253965
195		0.1778545908211912
196		-0.2007728107472733
197		-0.35740308149578254
198		0.48071524085456757
199		-0.6881989970847521
151		-0.6636073780034673
152		-0.9279471253881171
153		-0.3805997049206365
154		1.357180937564728
155		-0.3800775053673315
156		-1.1204374851646388
157		0.5036794633950565
158		0.25115619515066484
159		1.3207815709993123
160		0.5128446663094522
250		-0.6607801062949452
251		-0.0755088473506661
252		-1.4360875387054883
253		-0.789981989994142
254		-0.2503225950160297
255		0.4232917449558014
256		-0.06596697140829402
257		-0.3522853676157721
258		-0.752330327561765
259		-0.6201182935236708
251		-0.27163194905251814
252		-0.08302880524569325
253		-0.26964891308149785
254		-0.5629565808664639
255		-0.709165521067115
256		-0.1586122719395119
257		-0.3079092960393096
258		1.4660787041809082
259		1.696282617283925
260		-0.0324713596343297
252		-0.4964089790225944
253		-1.1028233956674138
254		-0.7633896089493472
255		-0.476163771073137
256		0.7139521753146355
257		-1.0197067632671715
258		0.7527594143978511
259		0.4963812011456258
260		-0.08639275716859265
261		-1.1016536864140183
210		-0.9579556717648204
211		-0.49891889947888707
212		0.344341368874117
213		-0.6335300960192833
214		0.47546338357145523
215		1.7996519905356634
216		-0.22995651694131383
217		0.7327336294363054
218		-0.2894274439540862
219		-0.9043435625864847
248		0.29539096384685076
249		0.00598103044597512
250		-1.267768513866528
251		-0.16330399696618006
252		-0.10907413283054776
253		-0.18036490474468583
254		-0.025305187148504105
255		-1.1632718371243798
256		-0.3588963395310615
257		0.52644221154753
253		0.18267123892586337
254		0.3168488391239523
256		-0.02207158539415276
257		-0.6348358140760801
258		-0.09776125006218343
259		0.2256093135448039
260		-0.5410735863642218
261		-1.2944063890128523
262		-2.536851410867699
243		-1.2142963420180046
244		1.0496183855248864
245		-0.010451164520694532
246		-1.3698220505019685
248		-0.6474743281072224
249		-0.331860675892758
250		1.2470902213649868
251		-0.6734941919060466
252		-0.7806223677634764
254		-0.8545654800168125
255		1.4144205340253293
256		0.7284043619391148
257		-1.2776477544627132
258		-0.2185898820804676
259		-0.8492295086047613
260		-0.3422236886233691
261		0.23724817495455683
262		-0.2789390107507418
263		-0.10964966843630988
249		-0.08429384262879512
250		-0.33600534550212824
251		-0.504510142609383
252		0.034485897609481835
253		0.9904274717148827
254		-0.7412847856714351
255		-0.2108525222432572
256		0.5857830463948817
257		-1.8521896007320056
258		-0.35464090054003977
247		-0.2793261637644897
248		0.19523555771299023
249		-0.2092078062941184
250		-0.3659937568440852
251		-0.28581357643613164
252		0.8339420515252277
253		0.3413711940318661
254		0.698638032071736
255		-0.8506963734922008
256		-0.3526710904503438
184		-0.23857849190324915
185		1.7004339432947606
186		-1.1857379224290023
187		-0.5640314729593033
188		-0.777062988855963
189		-0.022238370738241132
190		0.8640970229099126
191		-1.3673311291012966
192		-0.532043463191258
193		-0.8487438519852398
231		-0.4874052382076954
232		0.12781400629025033
233		-1.1411439634151872
234		-0.15619461558113104
235		0.4431751157563244
236		-0.1116042203088064
237		-0.2969348565982723
238		-1.32588625979898
239		0.5007953124612051
240		-1.2525655097403328
259		0.034010404890196785
260		-1.6513399067305212
261		-0.6740536789038514
262		-0.1967995078181957
263		1.2588882123889478
264		0.36560858872590507
265		-0.3193277785764556
266		0.1493532514002426
267		-0.7252027791691787
268		-1.0937281387232864
258		-0.9018491233708243
259		-0.9307046598238036
260		-0.5209458463804393
261		-0.876253473674659
262		0.7179262164475562
263		0.43860117204897875
264		0.39632104510217225
265		-0.3468955548661958
266		-0.9064344281594219
267		-0.2819413647696087
256		0.38593954317592905
257		2.5207326866142314
258		0.646903943320581
259		-0.5190681689923156
260		-0.2015524978970252
261		-0.6054185954253768
262		0.5050732140780186
263		-0.15146180791615155
264		0.6214820721669257
265		-0.9163507516664186
255		-0.4075695320278525
256		-0.7607288593016392
257		-0.7520399557102552
258		-0.39786367060361544
259		0.7526259875360068
260		0.7207748361872265
261		-0.8685808020991691
262		-0.6200840055430425
263		1.2820803207120217
264		-0.029012768672955935
257		-0.05373823782351091
258		0.5525607723143993
259		-1.355767139152292
260		0.9225439595109821
261		0.6315015851642364
262		-0.19442188654388368
263		0.7588868502468632
264		-0.7648646340678681
265		-0.04197717963836759
266		0.4201786191978406
260		-0.19419405101309573
261		-0.17434790363818897
262		-0.6929521632483789
263		-0.7592627559288924
264		-0.5044979132212847
265		-0.5742847117038393
266		-0.024640782810816973
267		0.10300273370503647
268		0.17174674260627135
269		-0.19656054611525167
261		-0.6373050464392374
262		0.028727345953871504
263		0.1265622351009518
264		0.44621590282455803
265		-0.16318485455018297
266		-0.7599139300644222
267		0.8776284840349307
268		-0.38675151588344625
269		-0.24785766611360235
270		-0.5892110768732833
176		0.8464653389324571
177		-0.3518024351730418
178		-1.3025034478009283
179		-2.8509716483034895
180		-1.006583435610363
181		-0.11186273673981957
182		0.2845282757031063
183		-0.08252089805243326
184		-0.6674841697387238
185		0.9473105273905454
245		-0.3343886158445044
246		-0.45599585794803255
247		0.9959259593448282
248		0.6515568372170673
249		-0.36293257607106916
250		-0.9870035719060865
251		-1.2258754838387615
252		-0.07941820787013583
253		-0.9504517884402892
254		-0.2374422453529041
278		-1.4709307545918398
279		-1.1287388032275842
280		-0.8393836496477816
281		0.05053896863440947
282		-0.46929946087150143
283		-0.6519871917567899
284		-0.029349580022447835
285		0.5214353133843953
286		-0.7161583094941433
287		1.5701859886288752
279		0.5577034915569153
280		-0.39362917759957966
281		1.695961938247815
282		-0.4245279810692334
283		-1.0686676600676106
284		-1.1771357964937184
285		-0.8338673329147253
286		-0.11931440965490006
287		0.10704084634234665
288		-0.8230064607375938
270		-1.14409199571651
271		-0.4030736780369213
272		-0.2896146093982678
273		0.21626566457747312
274		-0.7042621555391002
275		-0.58492515249934
276		-1.11653448322149
277		0.09722339753263357
278		0.2492341246317156
279		0.45055970090801384
271		-0.9032302070047216
272		1.689267230402645
273		-0.04830106232993631
274		0.029322030726239193
275		-0.8257421182974541
276		-0.487316768387186
277		-0.8949049161835577
278		-0.576625506659897
279		-0.5696624468950877
280		0.17087206322610982
273		-0.7478007435229838
274		-0.5509220063299375
275		0.18466977863369038
276		-0.6142151096129521
277		-0.7386630195714314
278		-0.6495494072121711
279		-1.4317055379998331
280		-0.42943983017250764
281		-0.7057446260858216
282		0.3213329679422195
269		-1.0460793579801084
270		1.3011518935116313
271		-0.9242760228854391
272		-1.4868873173963684
273		-1.009350888036077
274		-0.38922294589540996
275		0.045096021478849474
276		-0.3883292227723788
277		0.1631106780888745
278		0.5490977205878118
280		-0.1114148517893034
281		-0.4994403829285061
282		1.217877413440721
283		0.13088808533335833
284		0.7775550206434203
285		-0.616103584608328
286		-0.20453634385487657
287		0.07613516290578984
288		0.14580542825748427
289		-0.5658655870204296
274		-0.6174705273866298
275		-0.6050776418824507
276		0.22077941583192942
277		-0.1710883077066654
278		-0.7845963804965064
279		0.21640107502281133
280		0.6642913678368904
281		-0.16246447225931013
282		0.14853019466151846
283		-0.8124304640151929
268		-0.7517949176822273
269		-1.119390632718494
270		-0.5997664408933372
271		0.6492313183161593
272		-0.20216045481415326
273		-1.2167501469353914
274		-0.9110964615066398
275		0.3096605858633791
276		-0.42198005541101696
277		1.6381949350262786
266		-0.4481647269498593
267		-0.4870983853775106
268		0.518326578596509
269		-0.40230185420375647
270		0.14941237289079645
271		-0.6385543684402474
272		0.13953830329556421
273		-0.052644889726369416
274		-0.04390719856415049
275		-0.7564735420317008
277		0.6504695366708885
278		-0.9711526550128532
279		-0.9127963211230555
280		-1.4733130476934075
281		-0.11612622296287013
282		-0.8850340952408771
283		1.1276933241861382
284		0.418894661813987
285		1.7282080792023606
286		-0.9669069301497742
267		-0.2969879331595894
268		-0.29922228353631863
269		-0.6661513465230261
270		-1.0790917499297235
271		0.12326592691588086
272		-0.086792653044945
273		-0.8647483942972057
274		-0.08408469068343297
275		-0.49804670363578757
276		1.0111223384517352
276		0.4897063638800907
277		-0.28893628768756263
278		-0.24046419969442911
279		-0.8869711391690384
280		-0.6879759849888664
281		-0.9212599341988028
282		-1.0760969796739641
283		-0.8706392320812302
284		-1.1096463626372053
285		0.33031785593202917
272		0.22105297749635008
273		-0.05922076173878021
274		1.0674048257743514
275		0.7111747053995114
276		1.1150570214711752
277		-0.9845411718060327
278		-0.6613652957691428
279		-1.1505898074496712
280		-1.3735895088684302
281		-0.6098405748859367
242		-0.546595354795865
243		1.799992510843505
244		-0.8346036759668939
245		0.7530318424266212
246		-0.7283712926506258
247		-0.7477521887838461
248		1.6053676310877194
249		0.28219698269574495
250		-0.6420206745997902
251		-0.907959099505079
262		0.014104774747319512
263		1.0030787613229188
264		-0.5336884797999647
265		-1.23079852803146
266		-0.9320494772198098
267		-0.971943808280127
268		0.4950130998793125
269		0.4446169979217277
270		-0.4045563346564249
271		-0.08866896479902817
275		-0.2052081642704512
276		-0.7246464472850329
277		-0.23169276103585817
278		-0.2388209392903598
279		-0.024426037160202408
280		-0.38814711464512525
281		-0.8035145580140417
282		0.5193476799685859
283		0.1795884099014435
284		0.9511152771649776
264		-0.9239840457276939
265		-0.5873749336786983
266		-1.2906247017731665
267		0.39774272600539573
268		0.35911979396589694
269		5.328949004551822
270		0.2848710963440164
271		-0.1383468526777924
272		1.519355355806687
273		-0.13600607205922502
265		-0.7050845103997703
266		0.19078459263749317
267		-0.8572297793312842
268		-1.4053104123739797
269		0.707737814142358
270		0.8276907690650526
271		0.6475792809121763
272		0.9271040947419715
273		1.7873537602150258
274		-1.8050380963258759
246		-0.7646732606768516
247		-0.5474663166778845
248		-0.9196920298890456
249		-0.5268496743950564
250		1.3598514795227956
251		0.8502581065531362
252		-1.1362967327415814
253		-0.39824350196944297
254		0.05241741987269077
255		2.2016613816207466
244		-0.9132279859841028
245		-0.32539637647311853
246		0.737569219753559
248		-0.31753295548603233
249		1.1208756628671859
250		-0.5383770201078286
251		-1.4224282657435836
252		0.1555324716438731
253		-1.0347035425166209
293		-0.08560005116984724
294		1.6580593880817376
295		1.2442912116745877
296		0.2458787071199946
297		-1.199728031299315
298		-0.1382607061154615
299		1.9676395302365721
300		1.1664248987035384
301		-0.2201363575091558
302		-0.05278961186494621
281		-0.5893756973163982
282		-0.44674952425800246
283		0.16381694018349774
284		0.010541953042616858
285		-0.07982923055132692
286		0.8200675041033123
287		-0.3139287994913815
288		0.06787019958603381
289		-0.09034871087191101
290		-1.1320199892112432
315		-0.17913619958819207
316		-0.7043491077726748
317		-1.1164258344837494
318		1.0866274846394175
319		-0.1626116202858185
320		-1.0818420165081153
321		0.10277956759519506
322		-0.3085273041241631
323		-1.1397820682078021
324		0.06559764059391134
299		0.9132366590330189
300		-0.041237161009028904
301		0.0008622359352377564
302		-0.013632080979792707
303		0.056640433244305094
304		-0.7811581124117738
305		-0.8263656664466845
306		-0.5502910370172065
307		-0.2663726418904745
308		0.7406111832402448
318		-0.02490213941121957
319		0.8072389131728194
320		-0.8260062966355748
321		0.1463525615695931
322		-0.9325391960006455
323		-0.4867163270347482
324		0.09566937229607048
325		0.6979752784139948
326		0.7342175991159073
327		0.4038083249030083
314		-0.2583639341671254
315		-0.11179599047020228
316		0.6581484068448129
317		-0.953684427087872
318		2.32174956172434
319		-1.6178823312724269
320		-0.5790284551597911
321		-0.37198892592772226
322		-0.6107490857251213
323		-1.224022437941778
303		-0.30945739921686793
304		0.058010098311784594
305		-0.956820190542453
306		-0.4716057021850587
307		0.9229531807303631
308		1.3795133107112074
309		-1.3503205503696085
310		0.489401902765227
311		0.20857645414165288
312		-0.7159557521110457
306		-1.285176008623179
307		-0.31317067498065165
308		0.8579339452239745
309		-0.49503764041455295
310		0.36933143171336547
311		-1.2123443482627883
312		-1.3280937326429358
313		-0.9522995313841195
314		-0.3173559119113057
315		-0.8965637603929314
288		0.33816071952629123
289		-0.6173081310485743
290		-0.5819372963236075
291		-0.04265919607181146
292		-0.3907277440304248
293		-0.08589781139664728
294		-0.2100625437024073
295		-0.5453194172280443
296		0.05715693210885937
297		-0.37660640461655487
305		-0.4003181948703
306		0.09840586766697139
307		-0.11443742192484618
308		0.9609590049132535
309		-0.38251368392235663
310		-0.4942486902731587
311		-0.8848717025979712
312		0.8016003425359017
313		-0.6303776129270255
314		0.29265222197299173
301		-0.026331475201629297
302		1.0294595921551581
303		0.4644088928644418
304		-0.2830066779814584
305		-0.2639965601502397
306		-0.5894629496834798
307		-0.3049030247977975
308		-1.2327201971413975
309		-0.39574844388479474
310		-0.509000210511184
316		-0.6734358505504406
317		0.7961801423497135
318		-0.8770112016352463
319		0.001591755907320579
320		1.197984522901711
321		-1.5873296468844516
322		0.37815721530312724
323		-0.04026803492509945
324		-0.23098176062698497
325		-0.4449131613795831
297		-0.040665939521387647
298		-0.4888824483275303
299		-0.3937954310150271
300		1.122840949066201
301		0.14089470862589945
302		-0.8313621497437497
303		-0.10164950161955
304		0.9186681792410976
305		-0.36522064799179205
306		-0.21842823684528792
287		-0.6029070063856651
288		-0.6420756833232323
289		0.8023580307456188
290		-0.4822114014076661
291		-0.7161505121627625
293		-0.42481098703407016
294		-0.23536507135330764
295		-1.1257091562623565
296		0.5697828255861674
296		-0.8870391478375661
297		-0.005664865089767404
298		-1.057260545194342
299		0.5792194853986603
300		-0.47777637990294136
301		0.5142722796407572
302		0.41257887944817356
303		0.2086275664748786
304		-0.8546660012707228
305		-0.37158098389002314
293		-0.8132701690988087
294		-0.3937776426798032
295		0.11297173668811843
296		-0.5857129018834468
297		-0.758643139546054
298		-0.3600431231065396
299		0.2768715774234768
300		-0.04965827614990459
301		-0.24902864381290407
263		-0.6469065101268558
264		-0.13205326486855443
265		-1.0413025603124932
266		-0.577347983352419
267		-0.43838426596621477
268		-0.25271625791263014
269		0.5427695455864242
270		-1.732054272153576
271		0.9057594007270634
272		-0.7764767477020981
295		-2.6958511065601622
296		-0.32002680110450477
297		-0.37629842364181454
298		-0.677343657812807
299		-0.9714406631449376
300		0.10221763587499721
301		0.23046219971338916
302		-0.412186997560474
303		-0.4039541551603593
304		-0.6338276206329369
298		-0.9584684601482351
299		-0.10833747412108764
300		-0.8245611737902058
301		-0.7013922488316967
302		0.2872640880164666
303		-0.4412450429871008
304		0.4254550814070224
305		-1.7878234805014743
306		0.029116986843228568
307		-0.3849223193814789
307		-0.1150879726264331
308		-0.7785090819203154
309		-1.3268110875434667
310		-0.6014961549931339
311		0.09444221067612087
312		0.23132311219955
313		-0.875159639054909
314		0.8453320501682127
315		-1.0534936091669884
316		-0.748802444025602
311		0.3810223948166355
312		-0.42396953168606755
313		0.06068782427526211
314		-0.4970936518014879
315		1.4358370047589293
316		-0.8794242472908935
317		-0.2245663474260048
318		-0.8809481175292634
319		0.16376195379772132
320		-0.5036580995105011
283		-0.7381013768498497
284		-0.3314693594960924
285		-0.7961768116656726
286		-1.2926198151690493
287		-0.17191251393505042
288		-0.02816736115579248
289		-1.0438176546229647
290		-0.4594156847760226
291		-0.6094702479802151
292		0.25403951547012654
284		-0.5802043546249848
285		0.7564713722915722
286		-0.0555023777355675
287		1.3952727892213188
288		0.4233480625256908
289		-0.9292311956189597
290		-0.6908203943170421
291		-0.8353165199925736
292		-0.7398247752464578
293		-1.2196089193840671
300		0.6683661476270971
301		-0.21420838392765504
302		-1.0018874013135233
303		-0.8955794982164197
304		-0.1653724075761658
305		0.5020986026499649
306		-0.058227395378392256
307		-0.5821447686004728
308		-0.2510952113338533
309		-0.18563209460352711
289		-1.3612050514024885
290		-0.26845357801903225
291		-1.2393226887537112
292		-0.607208121620125
293		0.3076765227836481
294		-0.740298243976808
295		-1.5905449475591606
296		0.4206352236081448
297		1.2497609883585559
298		-0.011401110400141818
308		0.24188148333903445
309		-0.3741546484060486
310		-0.23476775108367284
311		-0.21957427182595102
312		-0.114864025020542
313		-2.149644571919637
314		-1.3961662602145029
315		0.7304816671636192
316		-0.31887830118821875
317		0.5378940705015104
312		-0.55962342995728
313		-0.5755414427628673
314		-0.8451676191612251
315		-0.08395831322474691
316		-0.18262805079987193
317		-0.866800347544238
318		-0.48802779737358426
319		-0.759043391344169
320		-0.3786208883396521
321		-0.627532294993792
285		0.2358950385772271
286		-0.2664636743344169
287		-1.087185624333327
288		0.08533483450925093
289		-0.5297669565469775
290		-0.15597725001295154
291		0.48560751227350657
292		1.683033848242129
293		-0.49273232046423676
294		-0.7433399078660364
291		-0.24015028698693267
292		-0.367986805185495
293		-0.431620274034657
294		1.7578263063490347
295		-0.193875895750234
296		0.15867921924818149
297		-0.012173761504990516
298		-0.41514174265728065
299		-1.0429844130605306
300		-0.4602270176193638
290		0.17778031033329866
291		0.1447626968797524
292		-1.3481410991392777
293		0.6473268022855038
294		0.5687809093095033
295		-0.5390737642562559
296		-1.5499494000921166
297		1.0269712085736002
298		1.0220739470322993
299		0.05180896843168318
309		-0.418159784431318
310		-0.0294380184596744
311		-0.43483137322357485
312		0.029080706089230083
313		-1.4311918902943834
314		0.0780996856460283
315		-0.9708965467797079
316		0.2939968944413395
317		-0.6214127293829002
318		0.03525100835429205
302		0.3711139016797508
303		-0.08022160508640731
304		-1.7153758530826588
305		0.357745067256238
306		-0.5549142873715597
307		-0.41860312007876893
308		-0.14593695083894617
309		-0.9271999231069366
310		0.31053284536617937
311		-0.17442561145725666
294		-0.09254543599727107
295		0.09514236764187355
296		-1.234109195327684
297		0.2626510772392024
298		-0.37786896066674097
299		-0.47720471240596923
300		0.018933564102767638
301		-0.19887506053434892
302		-0.4195479737935853
303		-0.16191157660049543
350		-0.6097590207224577
351		-0.34619621538757706
352		-0.9330612912799552
353		-0.06467206465239904
354		-0.9329425971066408
355		0.13278914259856445
356		0.46692342274742504
357		0.11829357288190419
358		-0.46809136861498657
359		-0.9716785916128164
385		-2.431834890295308
386		0.7092987719649353
387		0.04800487100836277
388		-0.5642233638648108
389		0.24424273459266957
390		-0.9270999461632387
391		-0.6648170217562616
392		-0.08043427645034558
393		-0.1518307359435204
394		0.5584370362137793
322		-1.0132010536931415
323		-0.24265113089595977
324		-0.0007174635784123523
325		-0.42142787695140504
326		-1.9906528153911742
327		0.1263384128592703
328		-0.5120130814695014
329		-1.42187905646497
330		-0.5080799686380446
331		-0.37971065922365543
345		-0.6513513360121532
346		1.6536033968237769
347		0.1681039473272778
348		1.292667129186316
349		-0.35890907180859616
350		0.4111321735506735
351		-0.4043334032397393
352		-1.39960275748205
353		-0.0018129605756679506
354		0.012376066766816119
382		-0.6237945348251692
383		-0.6368793928904904
384		-0.40235566737251544
385		0.4382184269562233
386		0.7947010885056932
387		-0.19153079338079532
388		0.19293133263407983
389		-0.08096983483617147
390		-1.850646434074367
391		-0.4094818781054651
368		-0.06487827322077656
369		-0.38141894469292364
370		-1.577890083715702
371		1.2442821221566862
372		-1.0676074661973463
373		0.8372471864522324
374		-0.17077634911887407
375		0.6702537462246592
376		-0.6004448045620744
377		-0.8750729293819536
381		0.5973337989259903
382		0.4640517505694843
383		-0.862020397249341
384		-0.5379862434394809
385		0.7098679250219315
386		0.9514521843038793
387		-0.2428331709456363
388		0.3026418424599136
389		0.3259152730848095
390		-0.2167799990992773
330		-1.126567410826626
331		0.15755707833169896
332		-0.3522272456570746
333		-0.7965044400613672
334		-0.230508128509154
335		0.18451920592325666
336		0.07890200487471269
337		-0.5160691668553159
338		0.5296743260019764
339		0.4023818185297932
366		-0.14364801602131005
367		1.4780259775923181
368		-0.6368709898608091
369		-0.7996534823979042
370		-0.35401637414882986
371		0.323764905096008
372		-1.0888963698431744
373		-0.40253916478693297
374		-0.4376078236754265
355		-1.201128980877175
356		0.6907183809198022
357		-0.9844664617398958
358		-2.4075245824178
359		-0.3911513197671394
360		-0.5980924983127288
361		0.43346936423624216
362		-0.8482901549116352
363		-1.719551724885065
364		0.17918483252502673
338		-0.704931555191469
339		0.11380623143304797
340		-1.0434690703052456
341		-1.0524196163869317
342		-0.49021795963053777
343		-0.507296414996293
344		0.759199602590459
345		-0.6845993976863769
346		-0.3459497465839665
347		0.9069923349667967
317		-0.17197788943209563
318		3.3437482502173284
319		-0.5734266538029109
320		-1.4806638124589946
321		-1.0335915724457418
322		0.04034488108593737
323		-0.15825329113731257
324		0.10910523243224463
325		-0.3137582363660258
326		-0.1090401525199234
387		-0.578018493442235
388		0.1161878352614966
389		0.7608978003988495
390		0.13997071007958523
391		0.35359726763457483
392		-0.7111016722348391
393		-0.47059232051983113
394		0.07139992885494463
395		-1.3094193028260213
396		0.9767471490322468
361		-0.8317416823807581
362		-0.16107804630192862
363		0.05546946866772898
364		-0.9067474218489059
365		-0.9258133803644907
366		-0.059955251091925295
367		0.7799650651565779
368		0.08679621329432802
369		0.7250680333899909
370		0.11069444350051712
388		1.5498478759898193
389		-0.8326911928830487
390		-0.2050396558727845
391		-0.9403353559352948
392		0.773663266754403
393		-0.20388495273928306
394		-1.2805510250202827
395		-0.23514769306840794
396		-0.8083353775221634
397		-0.6364713531531473
286		-0.541096994068068
287		-0.1286367558889539
288		-0.7341870538359153
289		-1.093844490575565
290		-0.3070974132172171
291		-0.3213892886932456
292		-0.8414237898702485
293		-0.8978345268621313
294		0.37664154214729595
295		0.16845690384234693
395		-0.9183721422109424
396		-0.8523482292592764
397		-1.4866425169965447
398		0.1213231283850589
399		-0.5452398748644022
400		-0.834176660443419
401		2.6509999711892553
402		-0.5976900028783849
403		-1.196683182789719
404		-1.0373853307433656
353		-0.15279597967303224
354		-0.8653264828191485
355		0.48987736082745315
356		0.853381345031053
357		0.03691180808183752
358		-0.7563756718760043
359		0.09320851544418521
360		0.4102911140838676
361		1.0464261642154604
362		-0.07007250522119131
366		-0.7867317077668019
367		0.16967729641841817
368		-0.4406516566564569
369		-0.8168960765891335
370		-0.5616219044146372
371		-0.9150597851416322
372		0.39790857065932167
373		0.2621016691828461
374		-0.5390891513979046
375		0.32873709260438133
370		-1.0769223140450226
371		-0.06182161091474976
372		0.32553806720151085
373		0.10954467239883935
374		-0.10201094308722647
375		-0.5634997691458631
376		-1.3723934364476418
377		-1.1607583488767816
378		-0.2747956156179165
379		-0.8469686217957215
334		-1.0983175349647236
335		0.8178878367404162
336		-0.31552209226661715
337		-1.259205776279009
338		-0.7602818292374203
339		-0.593282136624422
340		-0.5745989608888938
341		-1.0633521478809131
342		-1.1092397399584595
343		0.17584991073174236
383		-0.8903600563301238
384		-0.13666314811930894
385		-1.178979997829148
386		-0.37629419249529816
387		0.6190424524178438
388		-0.5041285679044208
389		-0.24021386948842505
390		-0.931256082987219
391		0.6332878291911005
392		1.5196924273930412
341		0.5563951304568844
342		-0.5428407106222539
343		-0.7579859619472856
344		-0.4641389938432806
345		0.7790117930102126
346		0.5939478306834473
347		-1.2175809624613896
348		0.49309625133968693
349		-0.5629067447343675
350		-0.7936146461046727
376		0.0923003373934664
377		-0.557787390258877
378		1.1984047863132217
380		-0.6514506397986664
381		-1.1832049296555358
382		0.003399781730476286
383		-0.4924248467604266
384		-2.432433379153973
385		-1.6608672898885524
357		-0.39366645376042014
358		0.9093425244268385
359		-0.3265762208830983
360		-0.2363928189133689
361		-1.0518475638577969
362		-0.1283010985002796
363		-1.4693166997576121
364		-0.20211577412841084
365		0.3176840425500291
366		0.22886695281401162
282		-0.5108290436688577
283		-0.6331398613620971
284		0.0881846907171959
285		0.3835039576684194
286		-0.003830886914926761
287		-1.3221504122975736
288		-0.8904059486145369
289		-0.8935342714095823
290		-0.9902676588232856
291		-0.39380626303092364
379		-0.4398006032529202
380		-0.9671159096182197
381		0.06625045528388943
382		0.10874822414398524
383		0.13523982531872275
384		1.1226553789768783
385		-0.4334574245255888
386		-0.0019854830087641918
387		-1.6086329640655377
388		0.6042575170790807
400		-0.6900373085281426
401		-2.546314158316086
402		-1.1780377703202616
403		0.6706222500996581
404		-0.4359657738179716
405		0.3474613270515015
406		-0.6647850359076076
407		-0.48488796304257353
408		-0.27677162769143104
409		-1.5096636162648571
359		-0.3347618535022706
360		-0.9330514587309805
361		-1.016575642959884
362		-0.5047997866678633
363		-1.2738130836973138
364		-0.880220180807595
365		0.13126822657602585
366		-0.0782560387530219
367		-0.241017086470445
368		-0.6301666574330075
346		0.08338671575179035
347		-0.520585565123248
348		-0.7841917639375405
349		-0.5157365342615097
350		-0.2315167674606025
351		-1.7893845639953094
352		0.23784425842898824
353		-1.1586620525260136
354		-1.3135287657886403
355		-0.5986890298329546
327		-0.6320201678162771
328		0.8373297103497545
329		-0.6560420031661232
330		-1.3404649130086992
331		-0.482850316994587
332		-0.6954171709910592
333		0.7326282301309942
334		-0.13447209198133983
335		-0.22188122015790784
336		-1.4366063322728098
398		1.1023879077793584
399		-1.425535522251329
400		-1.133485831730456
401		-0.0702632317792788
402		-0.5470685276581563
403		3.342248526294573
404		0.6036810755244751
405		-0.3356327329076969
406		-1.0300954620956877
407		-1.156799248929313
364		-0.278377585177684
365		0.011970598721057792
366		-0.8350030793902801
367		0.028745557039783362
368		-0.9482528037773805
369		-0.10112663553544379
370		0.009694242097299733
371		-0.9039316384990989
372		-0.7856497515892877
373		-1.0786583751281156
375		-1.141250965057616
376		0.049190211549412895
377		-0.7344851280702369
378		0.457627857284435
379		2.341109547856885
380		-0.5641723725217385
381		-1.1430086489019613
382		-1.12951559086915
383		0.2719208366459933
384		0.5546055786698144
356		-0.07235373459878856
357		-0.6956203421119697
358		-0.6518067242924672
359		-0.9643999954967
360		0.8433600369981628
361		1.248744989957467
362		-0.9391081755644829
363		-0.32006695672121965
364		0.05404873612184777
365		0.09492109682554141
367		-0.6491362805503264
368		0.20779162214397875
369		2.3382646215517613
370		-0.9032171473240861
371		-0.5003441468905009
372		-0.24395658571034295
373		-0.23037353612559752
374		-0.19592473500573046
375		-0.29657014072965526
376		-0.4881539714036812
321		-1.0761237618763952
322		-0.46613799905908604
323		-0.26342885063543686
324		-0.7345675476643609
325		0.022645278495453707
326		-0.684579500503504
328		-0.8208165845767554
329		0.3389273413830243
330		-0.024464703713246876
386		-1.0505861827992067
387		-0.5616673469990585
388		-0.9211016777859308
389		1.0483594187405956
390		-0.3697885137923979
391		-0.26237400567332386
392		-0.34396819481177787
393		-0.19547378654463732
394		-0.7578028264030113
395		-0.054688831304424194
371		-0.3563081413766977
372		-0.14682974291913575
373		-0.767323907706988
374		-0.4825290825847402
375		0.11710022539901242
376		1.7684739463727412
377		0.5277184627554565
378		0.1888208351174061
379		-1.2233316241158887
380		0.1443147342614545
369		0.03502285847843401
370		-0.06245028750021205
371		0.46493318616521845
372		0.42741725954399645
373		0.37034649820747395
374		0.6157541512464816
375		0.8186708296939192
376		-0.6154660391418015
377		0.3043940607094788
378		-1.436626366401074
363		1.358945026602577
364		-0.4935476717195601
365		0.24127256792265947
366		-2.6122956628076284
367		-0.7476338196039359
368		0.9116655717712177
369		0.2118049220455984
370		-0.9792758020712402
371		-0.7083439565135968
372		0.885350720458406
397		0.49928704857252143
398		1.2582421859766781
399		-0.4808231842537941
400		0.5442174255617078
401		0.04640432142996936
402		-1.0557767667977438
403		-1.1334134889796026
404		-2.5838593567266326
405		-0.3809809229254371
406		-0.4456986666822702
310		-1.0883113060003309
311		-0.8404538817349458
312		-1.991936422417737
313		-0.26581416190448126
314		0.4224280130314147
315		-0.4267134809095123
316		-0.5689854219102105
317		-0.5448949341219805
318		-0.5335533068397424
319		1.2406519858717089
394		-0.6008255583729449
395		-0.028063499324923517
396		-0.24674451316881701
397		-1.056421840603665
398		-0.22591072533296608
399		2.063556488115047
400		0.17913649231295117
401		-0.4269781239628664
402		-0.5108048270553289
403		-0.7928220274501854
352		-0.9718296647198601
353		-0.3244778545269872
354		0.4760292509393305
355		-0.2401744649009289
356		-1.2704829189936893
357		0.470440751069115
358		-0.007933185581839941
359		-1.3163201096896435
360		0.5875454891951547
361		-0.9326981186064589
343		-0.39724528682795945
344		-0.4077357520515071
345		0.68919888832278
346		0.07999393959450928
347		-1.0395387055165624
348		-0.7143079904987064
349		-0.39502257679607045
350		0.24576032670319217
351		0.07190599567463703
352		-0.9198075944950068
329		-0.0030568469121264206
330		-2.0443157157939584
331		-0.21624916718547602
332		-0.6418962349529457
333		-0.879632640737117
334		-0.782976029711037
335		-1.278166338616573
336		-0.010041668333804033
337		-0.23079254529391222
338		-1.472794996092012
328		0.3475093272722011
329		-1.2649474391915965
330		-0.6928876995198218
331		-1.2460048946316216
332		-0.9244063048757393
333		-0.41824865971817693
334		0.7836281529101294
335		-0.005591784022157998
336		0.06137539370332978
337		-0.6746647671739832
360		-0.3218870841442566
361		0.24035480780443985
362		-0.9303851030090847
363		-1.135723629560198
364		-0.14352524369203476
365		0.1738289386056294
366		-1.356408407455541
367		-0.9725565419068409
368		0.2627250896242198
369		-0.46109350535743443
362		1.0812400097035548
363		-0.5519321389350114
364		-0.34538679536497957
365		-0.18788287766077832
366		0.1760697168543953
367		-0.32239359972189296
368		-1.150574552608343
369		-0.9264759873830056
370		-0.8877109258463403
371		-0.26307743654136695
335		0.1291921966891865
336		-0.10624909659780159
337		0.4550307616826104
338		-0.8675943199875609
339		-1.1351372107811482
340		-0.6135177027094215
341		-0.12711332150200108
342		-1.246166946372083
343		-0.28510419529719855
344		-0.6420636431649185
384		0.12215246229103023
385		-0.7224789053186818
386		-0.34262778080252904
387		0.6060018724591226
388		0.1951412356376966
389		0.39960598144297055
390		0.0072917756441046155
391		-0.6943146079970719
392		0.4718703030993494
393		-0.06633541208277453
358		0.057563716649751656
359		-0.6052849894682747
360		0.8290764875703543
361		-0.013901890709293277
362		0.5357112504721405
363		-0.39151937615081117
364		-0.24514250973888246
365		-0.45988287695020763
366		-0.37287875671900367
367		0.3693355495980618
327		-0.19028286472862813
328		-2.1012352721178864
329		-0.8672100914754027
330		1.623208900731594
331		0.003391490612184058
332		-2.0348562209685443
333		-0.5997166985614245
334		-0.03044159394419734
335		0.24075006278847771
347		-3.420838180979578
348		-0.13276177374424109
349		0.15689488753616776
350		-0.6425727829833623
351		-0.6393497822950064
352		1.8148308548011416
353		-1.002256896876924
354		-0.45865623010329465
355		-0.979287886292107
356		1.220324304338929
324		-1.1106206122889903
325		-0.6963483827532767
326		-0.9818737362112532
327		-1.2888591192095784
328		-0.23264841498179936
329		0.4057179583458948
330		-0.5946998644838228
331		-0.5051177707008028
332		0.16600315129762194
333		-0.9683068503336142
372		-0.26117996194443327
373		-0.014005740413770965
374		1.1397716773814857
375		-0.5573112826135711
376		-0.16340868482983395
377		-0.37626196820962876
378		0.47265632154475407
379		0.25930654115350094
380		-1.2969096036053849
381		1.79251492337327
390		-0.19422335512096703
391		0.46643866414385315
392		-0.7273738509976527
393		-0.31084091170261796
394		-0.2763981770687343
395		0.7475710358388453
396		-1.276697826497629
397		-1.4577947856441111
398		0.04786300644304024
399		0.6712078487967319
332		-1.6968000603359918
333		0.6187092806413246
334		-0.3490816450973108
335		-1.3698304022999872
336		0.4132968281650746
337		-0.06788098128459874
338		-0.03653068672922018
339		-0.06728799864848714
340		0.6996336773743531
341		-0.06047611379534806
396		-0.8302400558348335
397		0.43740357925769735
398		0.7078023989696404
399		-0.990739804937142
400		0.1301081742217957
401		1.221015726791778
402		-0.041873629001633564
403		-0.12087688183559872
404		0.9905447093720927
405		-0.04793689962797069
333		-0.9735894043697644
334		-0.09914155646431565
335		-0.9029618720999496
336		-0.6745871622440532
337		0.3921831820806518
338		-0.07557833730534505
339		0.7156688660619739
340		0.9002704798384522
341		-0.5745861355858157
342		0.5876518739401392
354		-0.7420609894243324
355		0.6848202655240481
356		-0.05447241634311125
357		0.8229479163180886
359		-0.2741089324807573
360		-0.8133916147860543
361		-0.6720010888041573
362		-0.05332499482462485
363		0.6564990105292938
349		-1.1043435248404347
350		-0.30200744383539163
351		-0.4751768513214933
352		-0.19601654709065966
353		0.11772825469866584
354		-1.0684819918892576
355		0.5516377500866502
356		-1.0685950036442953
357		-0.6541954326769143
358		0.6534749697823435
374		-0.711646191423477
375		0.5150587541870697
376		-0.7199219405685267
377		-1.5795003468965347
378		1.1005152987302298
379		0.13669075509334827
380		-0.15409092314127923
381		0.15855428897896295
382		0.8211577226199082
383		0.4330691077110014
380		-1.004299299021411
381		0.13896248382780158
382		-0.2551901842207792
383		0.6333381976765983
384		-0.03314432679833366
385		1.3699088851498422
386		1.0925971517038795
387		-0.8218793311512606
388		0.3111426867382744
389		-0.2767511296835193
348		-0.12203661171676654
349		-0.0030766552465587393
350		0.7585973743220814
351		-0.3971403309232526
352		0.1641300513595006
353		0.14533463937341498
354		0.35994363112326533
355		-0.021540929852565317
356		-0.7429278661657979
357		-0.2510324846444236
344		-0.003699527531928258
345		-0.12022140417213174
346		-0.19836175906298245
347		-0.31337896757103473
348		-1.4404180316541997
349		0.7291548197779189
350		0.4177104881678677
351		0.9210495856911693
352		-0.04962285844113003
353		-0.10265544328264771
323		-0.8842640657566928
324		-0.4123419112169891
325		3.3469419470672896
326		-0.12330279600231266
327		-0.4006887376654383
328		-0.33072025634492414
329		0.05318657097043971
330		0.025294638030166464
331		-0.8795695466776693
332		-0.8189560457275108
336		-0.924757697696093
337		-0.4540225217712433
338		-0.7374986446557046
339		-0.6885099605675223
340		-0.8002895057975072
341		0.5405535739559076
342		0.16426793597683842
343		-0.7335300825122791
344		-0.49772135356069336
345		0.9208352020178431
391		0.109715014870892
392		-0.5995849625609997
393		-1.2299436432870785
394		-0.30889362608742427
395		-0.4415232267238536
396		0.4674952950079757
397		0.4534009256387166
398		-0.5688168234880325
399		-0.8424385449883279
400		0.8275199792932826
402		-1.0777065957422924
403		0.18753793160035467
404		-0.4697064504923918
405		-0.8321589834155647
406		-0.0734487007261125
407		0.9100795398531647
408		-0.06501223105042313
409		-1.915039405359058
410		-1.3633505489828324
411		-0.3276064185359067
378		-0.9057328236274288
379		-0.175295599774572
380		-1.1526757363668731
381		0.2978336204686722
382		-0.14617429988268127
383		-0.799612234529852
384		-2.244177674652944
385		-0.7063242986445715
386		1.2684667916361991
387		0.3229595441702641
399		-0.6170629871093305
400		0.024080622917327727
401		-1.2737715108046523
402		-1.7544351349815899
403		0.7035313973777905
404		-0.6914589412402158
405		-4.092449407908409
406		-0.5183174657063018
407		-0.9896442099777152
408		-0.8983254461969418
319		-0.37225371389318596
320		-0.5036290521255146
321		-0.5000736316604715
322		-0.3310965760800467
323		-0.321465630219616
324		1.4530602627589686
325		-1.0220872632231948
326		0.38374180186027806
327		-0.3878299251157415
328		-1.3887595617787731
337		-0.9842494717695611
338		-1.0533117752135903
339		0.8749078059692927
340		-0.9116037763446355
341		-0.988953919266293
342		0.11980965801463271
343		0.7483982982346945
345		-0.42661044025991995
346		-0.9906395652780371
389		-0.0453687694928409
390		-0.011847846765086798
391		0.42978566330273826
392		-0.15073585278673607
393		-0.5912198324564407
394		-0.13294302071798578
395		0.6479701393469002
396		-0.6893643457257521
397		0.38380860505677394
398		0.21635358314008185
401		-0.7439555649896914
402		-1.0502864107008876
403		-1.3035116214214275
404		-0.6374965564092154
405		-0.028441768910453264
406		-1.1994058001411734
407		0.7344190664190922
408		1.6054883532660185
409		0.2052491050367239
410		-0.9339299389035489
331		-0.12883139376939923
332		-0.35160037224854834
333		0.5742032025451237
334		-1.422154716002828
335		1.1568476510479007
336		-1.017281428369135
337		-0.3071552311241774
338		0.2565913348762009
339		-0.26288648588585767
340		-1.1317355521352226
340		1.4131026622545284
341		-0.38299320875449705
342		-0.3824366417240713
343		-1.6108913806974385
344		0.032865490933682406
345		-0.23487535131291712
346		1.146235090081042
347		-0.3211343996876199
348		-0.3337979618432529
349		-0.7416030681152068
392		-0.561648801399823
393		-1.2264846573220716
394		0.46065005496320977
395		-0.5728311810157601
396		0.70508758543753
397		-1.125686121525144
398		-1.0717683839931336
399		-0.34213026588183154
400		-0.8530695891383142
401		0.9262080902420141
304		0.1526747108778256
305		-0.18218157826873688
306		-1.1781577364331897
307		0.49708084568451205
308		0.011014502610968467
309		1.0893362419006012
310		0.5043594975994027
311		-1.2285505035642457
312		-0.43901655849449955
313		-0.7228937396117513
342		0.13894513323501562
343		0.03997525294281549
344		-0.6639554551172984
345		0.009487300452983653
346		-0.8099556436379621
347		0.7132022284051966
348		0.08018331912878374
349		0.24434487469347133
350		-1.4064540568663386
351		-0.12506476944119949
320		0.5382618669779565
321		1.5481618135528894
322		-0.018930129910218894
323		-0.7482851773773869
324		-0.3371021254870665
325		0.12899751096253637
326		0.3545279302127688
327		0.43156746003448626
328		-0.7878221448812838
329		-0.38076919450201185
377		0.9713942823003339
378		-0.12197393944827468
379		-0.1057268183865993
381		0.0721336818160899
382		0.050707150230695525
383		-0.0861670645661907
384		0.04387434084116687
385		0.9430567269564379
386		-0.29478018299272846
393		-0.27057752334396085
394		0.6279922169646741
395		0.031134063063459626
396		0.2625887040855931
397		0.6469218243711666
398		-0.6238815727739758
399		0.491173863589854
400		-0.7032353786177462
401		-0.09187460382290286
402		-0.07137752725485645
351		0.4824193227308796
352		0.1745128354141037
353		-0.8875025375340596
354		-0.9832018507992057
355		-0.8576302879204349
356		-0.0856937516013045
357		0.40378187341799576
358		0.8332932336189232
359		-0.39100105362952087
360		-0.2674118998169046
325		0.2625620711850018
326		-0.9001264382920677
327		1.3412710874617395
328		-0.4324561188121958
329		-0.9586304956246398
330		0.7852721227767827
331		-0.7271906415263777
332		1.7316654016141773
333		0.715716053489721
334		-0.908173335347005
339		1.1165790370046256
340		0.5483468756997876
341		-0.12312245667496577
342		-0.9160292520037054
343		0.3771370535739726
344		0.1866580802226625
345		-0.1430465102622831
346		0.28530196966749327
347		1.6750062227566354
348		0.3652776588453278
410		0.5122396789411732
411		0.4421135012307001
412		-0.8262434899020995
413		-1.0926102772829036
414		0.8629291739366367
415		-0.3986057660061931
416		-0.9817646655579502
417		-0.9990106604995297
418		0.6549194812220804
419		0.3017101651287387
437		-0.20138303316026582
438		-0.2513552547448875
439		0.7602787015564124
440		-0.13548952456158497
441		-1.0501630913225979
442		-0.09461125271553426
443		-0.8232369405009602
444		-0.19101338136286916
445		-1.1568767607410035
446		-0.8757414489600197
421		-1.161543741988416
422		0.376876404448499
423		-0.32121171064040827
424		-1.1485474897001418
425		0.6193673119869892
426		-0.5258002360681534
427		-1.0096216099498043
428		0.2422105950077727
429		0.7668499047437626
430		-1.275052563144894
415		-0.9241063357970337
416		0.6813618196223858
417		0.5833197757612669
418		-0.28799294259608443
419		-0.4138420628286886
420		-0.9515052989643582
421		-1.7212950113217094
422		0.26677414016477524
423		-0.5706307403854926
424		-0.9838894699537973
439		-0.5374615006379372
440		-0.030674484696590926
441		-0.1143643700776086
442		-0.30704800141903776
443		-1.520283769466632
444		-0.38846579664745556
445		-0.13155874594372788
446		0.08277872959810495
447		-0.021337148274992602
448		-0.3120291792352293
446		0.5101064504037065
447		-0.8784950010486051
448		1.13246883778
449		-0.7157535539918212
450		0.4497783056208178
451		-0.45830706427722157
452		-0.7092943110521701
453		-0.8635826862217949
454		-0.9387890861716958
455		0.1844853013746559
445		-0.3058905143572076
446		-0.6421981058206424
447		-0.1984457289061811
448		0.04942260225153213
449		-0.7852361361895301
450		-0.7129914722412224
451		-0.9643918488681561
452		-0.2638388540746713
453		-1.1943785856845954
454		0.18425255481306518
442		0.20767211533559032
443		0.0022624304134070106
444		0.9081358140230668
445		-0.7181094739278496
446		-0.5859723797264897
447		-0.4033257598048547
448		-1.0075508838835534
449		-0.27329212591446156
450		1.0464269290011308
451		-0.5232500084323857
425		-0.42240712103284306
426		-0.1361540713771646
427		-0.21483699995935251
