150		-1.639035581895368
151		-0.8629357008644755
152		0.09369483208775083
153		0.8071197753571331
154		-0.15765084133923526
155		-0.5562602471838001
156		0.47952323915522643
157		0.1797939450817121
158		-1.1292779029621232
159		-0.025104380397890917
0		0.629477624433396
1		-1.9318205933638832
2		-1.419732186580997
3		-0.38944475421111163
4		-0.3280755428992062
5		-1.0606909111505962
6		-0.015365045825350747
7		-0.6450117791420409
8		-0.060901280342716586
9		-0.39791593468655134
160		-0.9456438491838335
161		0.15041882258838266
162		-0.23496358741423243
163		0.7315768574388418
164		-1.1193051581586826
165		-0.9947726433531741
166		-0.336774281012676
167		0.29851352447433477
168		-0.7105539606941659
169		-1.0663493517502691
220		-0.10907181629517217
221		-0.2340061223484949
222		0.5525931177004261
223		-1.2351234344301303
224		-0.39841251263196925
225		-0.4891371172304407
226		-0.6887283791083009
227		-1.1614590408942327
228		0.27220467357004074
229		0.14239374481550127
180		-0.14551991141123646
181		-0.39079879191174727
182		0.7141707997402996
183		0.764743005173389
184		0.5730528067733571
185		-0.5331793172223728
186		1.9858085011357407
187		-1.332201037783357
188		-1.751842567648517
189		0.4387646016064578
140		-1.0351264214920235
141		-0.4735624466867231
142		-0.37139076531996607
143		-1.497133965237392
144		-0.5490731506578216
145		-0.6725995602178755
146		-0.5895628183559688
147		0.454246086000923
148		-0.47497040405766916
149		-0.5290351849435067
130		-0.2537395538504712
131		0.2251369062974418
132		-1.1867705510359603
133		0.3895397916284307
134		-0.09098464662076515
135		-0.6832861184120324
136		0.25416214302854745
137		0.07617574565702094
138		-0.34465430735466995
139		-0.22277560648691036
80		-0.9812526173268645
81		0.275090358899447
82		0.4431275529858265
83		-0.13485507841056685
84		-1.584059195431363
85		-0.05436775503531758
86		-0.37164001856917744
87		-0.15557347715686465
88		-0.5825711992776335
89		-0.9725002415504883
90		-0.4647857454882536
91		-0.5954794816105622
92		-0.5189058753607927
93		2.126683691313233
94		0.10725716109651381
95		0.15395657974814786
96		-0.4484427565936394
97		-0.5484770216607767
98		-0.1519989849249838
99		-0.9807570274384237
70		-1.194657562084714
71		-0.4963460171552721
72		1.9765681465971678
73		-0.28662085739642545
74		0.40609832133236307
75		-0.1069167885606186
76		-0.1816927267807204
77		0.7600647414548866
78		0.5501003839083313
79		-0.5015073405159225
240		-0.45974777445073667
241		0.34893605774663433
242		-0.27973009155219647
243		0.017815711003982514
244		0.0950056783326546
245		0.004027927368150724
246		-1.3763133823760432
247		-0.09342079538504842
248		1.1625904279684118
249		0.2957301309864571
250		-0.18380182961179195
251		-0.8169347485661147
252		-0.5624844127279012
253		-0.7723808222719005
254		-0.9247995449708872
255		-1.0974451424885994
256		-0.4033320145543709
257		-0.1257122815869741
258		-0.6787898234746264
259		-1.1954072673289664
100		-0.5485346055167495
101		0.2035045381846067
102		0.5274896968278617
103		0.05169152990176335
104		-1.0938867480101961
105		-0.3279115031628872
106		0.054754503694928826
107		1.2842343531231986
108		1.2365515907204951
109		1.0620458856161363
170		-0.6161794414289626
171		-1.0476658717091412
172		0.771348339820607
173		-0.5211072389118724
174		-0.3509194433248577
175		0.030026563295644834
176		-0.5494234582723255
177		-1.1253576074520184
178		0.2897968115132971
179		-0.3977862002699222
110		-0.7053935676875355
111		-0.1656183899039682
112		-1.3947845766993916
113		0.9978183370047995
114		-0.8880160728219955
115		1.2815764260752875
116		-0.6424214110176163
117		-0.3267866716210609
118		-0.7473618550670695
119		-0.42452610348408615
200		-1.0333178910261982
201		0.22141412745770153
202		-1.237869003580006
203		0.01381340121209395
204		0.3482765874547225
205		-0.02665391053183102
206		1.4014746473246678
207		-0.335846220618589
208		0.5986833569432912
209		-0.9042851226022054
190		0.00836393769646637
191		1.428270613368735
192		-1.324441864415047
193		-0.6675552582109591
194		0.24409173264008202
195		-0.053824899511812095
196		1.4728658632282978
197		-0.23444202881403992
198		-1.2541685122587232
199		0.20062114946753842
30		-0.19786246219322998
31		-0.1443872484117259
32		-1.4664253204376314
33		0.7832820745344508
34		-1.3977084567912066
35		-0.02944660662943767
36		0.27919542075657
37		-0.08210814157859032
38		-0.5803278680271983
39		1.0490821131341057
10		0.009667843587636157
11		0.5396298030382313
12		-0.5110061594509078
13		-0.5918212396280553
14		-0.4725201515340971
15		-0.27769813888295497
16		0.5851823423715298
17		-1.0273409176216644
18		-0.8252327838725981
19		0.13602710274480623
60		-0.0023362073295389424
61		-1.243046645236021
63		-1.2830746743463317
64		-0.18693820955693669
65		-1.0508238630317392
66		0.33619951101956236
67		0.09891675952141803
68		0.9492114555193147
69		-0.3606383245190728
50		0.7346734272527659
51		0.6851044340551887
52		-1.1696907045391605
53		-0.12206302975142219
54		0.061504086436935654
55		0.668055079114898
56		-1.062439141229255
57		-0.32706678549816776
58		-0.7626755713466304
59		-0.5966087068330507
120		0.8532211461529559
121		-0.41316223488676235
122		-0.9994780304583635
123		-1.113035026346928
124		-0.875169670431392
125		-0.9921723790151671
126		-1.0088350861255841
127		0.8310789991732931
128		0.30938530714451595
129		-1.6399158606638926
40		0.15229287200103322
41		-0.17815476980287726
42		-0.7446393750093315
43		-0.7651655762265687
44		-0.5493929864696669
45		-0.060901551878700645
46		-0.7311406957688052
47		-0.14404001548144163
48		-0.4241850232923948
49		-1.06227913804438
230		0.06406783092629129
231		-1.2340869671239934
232		-1.3288401647381727
233		-0.8504861762631061
234		-0.5391302192290391
235		-0.4626554078516867
236		-0.20807391656240473
237		-1.1098456205601568
238		0.3774145377472844
239		-0.09770848654682367
20		-0.7772363448772637
21		-0.39377394577193886
22		-0.39861142476342537
23		0.4750862713278607
24		0.126534150577337
25		-0.7397895456910788
26		0.7943532143807884
27		1.5215178832963945
28		-0.666325489093687
29		-0.2890492509087705
210		0.07540033794123759
211		-0.5520348487678106
212		-1.242276774643796
213		-0.7320423678782292
214		-0.2505389756700073
215		0.8901852446068625
216		0.055684902213765645
217		-0.8831638700636015
218		0.20350144284476063
219		-0.24425455586124215
280		0.7110286819370748
281		-0.09917505278553523
282		-0.8252146276216176
283		0.5536844606081682
284		-0.8352735326022749
285		0.24063629334073053
286		0.035437169298190595
287		-0.05556533863561612
288		-1.2740304172890677
289		-0.2725151973148783
300		-0.03917087058888569
301		0.05564505208512585
302		-0.9803352251267053
303		-0.5757484711468739
304		0.2973478865832187
305		-0.5100802594771544
306		1.729867036931867
307		-0.857293758519079
308		-0.8718640784278523
309		-0.21967869144455665
260		-1.0694619493512973
261		0.6181829748260566
262		-0.9304867551220081
263		-0.411143803306641
264		0.8449129343361362
265		0.2952787038876712
266		0.6089478262959659
267		-0.16815295883680045
268		-1.2288620967645696
269		-1.3233904125581837
290		0.7825162613627736
291		0.5685481081942799
292		-1.0698608435740042
293		-1.7346007595204596
294		0.09419545668550242
295		-1.0861285951093502
296		-1.5737098210667815
298		-1.5814311945586548
299		-0.5669007857223398
270		-2.7148066657207326
271		-0.600826374341463
272		-0.3141596676559339
273		-0.3961715158089413
274		-0.20067142364624735
275		-0.6441785354491885
276		0.16569619185182485
277		-0.7154627298518315
278		-1.1675998423286642
279		0.5842743812481366
330		0.36105484596023074
331		0.2044710227635933
332		-0.9082206078907179
333		-0.6634691786740476
334		-0.03970545818062421
335		-0.6879338907999982
336		-1.3802610912892748
337		-1.528197901652479
338		-0.37693199278650014
339		-0.425813926874548
310		-0.4345783775338438
311		-1.0225734235887765
312		1.2730586771126626
313		-0.34569715982319493
314		0.557093270317201
315		0.6397689465760622
316		-0.005971668188675861
317		-0.5719936096082069
318		-1.9455522653732
319		0.06300372961545857
340		-0.23161050235908234
341		1.9565084017086207
342		-0.2160798774801235
343		0.1160082597846974
344		-0.14054147778732562
345		-0.4875587753971641
346		-0.4792906614008667
347		-0.5691010046796305
348		0.07347768424914763
349		0.27792925406217844
400		-0.6249606201423887
401		-0.01616575631561363
402		-1.3285644258788971
403		-0.29493188943714926
404		-0.5770190888378642
405		-0.40982604348841434
406		0.8353196121703175
407		-1.1194842019833142
408		0.19257257862447177
409		0.004822956983134244
350		0.13177833612674242
351		-0.7708700358773224
352		-0.7372553010128691
353		0.6942680069143548
354		-0.18235630834826846
355		-0.7809189266222143
356		0.3044237295150323
357		0.5485984257765426
358		-1.1467820995543163
359		-1.097566013255229
370		-0.4587449303721481
371		0.0634744691898808
372		-0.3699139812508263
373		-0.9741167692003001
374		-0.032913829008815544
375		-0.4897259426491812
376		-0.855824256077472
377		-0.42112009564807423
378		0.2084737405700012
379		-0.7251880938145056
380		-0.8758714643950167
381		1.5252908917602
382		0.500317178148476
383		0.5915777054039283
384		-0.9951255920137273
385		-1.4258022739640637
386		-0.11154048536244782
387		-0.6908441916922896
388		-1.0123779588202897
389		-0.8702974023458532
320		-0.314827803807043
321		0.6361299122254117
322		-0.4458328467529102
323		-0.980209963090173
324		0.07051070312695668
325		1.0336574623124066
326		0.08633905144200797
327		1.100769337055875
328		-1.4162848548705134
329		-0.7823714340821647
390		-1.692713379918391
391		-0.740481211983394
392		-1.8360456376074274
393		-0.3062814723302577
394		-0.09417973268158242
395		0.7562108409840318
396		-0.42862164276969533
397		-0.5071396535243888
398		0.6268413208377124
399		0.6620450702436379
430		-0.6927599840753393
431		-0.4425697035029994
432		0.6386318281483898
433		0.4669390902143069
434		1.1095361427806083
435		0.4935973173123414
436		-0.43942583781406563
437		1.9178523748950635
438		0.33375137149462997
439		0.3399753354912845
420		-0.5230021484970988
421		-0.44165453652651926
422		-0.030287271236019684
423		-0.01026944034603721
424		-0.40381834427728736
425		-0.30604351796265283
426		-0.7233861076620185
427		0.5407699169953117
428		-0.28146862707129566
429		0.7059009388513954
450		-1.5523518149133966
451		0.49945830755439896
452		-0.8750946979078433
453		0.23427246423667136
454		-0.15912162756597925
455		-0.29405536195992804
456		-0.558452516443717
457		-0.7620966281025041
458		0.0044780140803189344
459		-0.3427796736264035
360		-0.44792396053981914
361		-0.08704574394424726
362		-0.0993873139043947
363		0.5745460846712218
364		-0.45247433528626724
365		-0.7862172696141155
366		-0.7048710172478713
367		-0.5028367382410581
368		-1.007024986637853
369		-1.1439400193022882
440		0.10494568113703466
441		1.050618691669574
442		0.6695317779694145
443		-0.4578883174795664
444		0.41898494105093104
445		-0.1508668316735684
446		-0.5046412259331754
447		-0.2526472791630413
448		-0.7423500139560848
449		-0.017984292280022376
410		1.6263405546226344
411		-0.6496352988889953
412		-1.106978847368797
413		-0.9263336859496341
414		-0.3005338349366968
415		-0.4102223806392165
416		-0.10853629591751769
417		-0.501262670160074
418		-0.437469132517951
419		-1.324907015055689
480		0.12134034351674905
481		-0.022178081220949553
482		-1.214954791951099
483		-2.038308144597168
484		0.6216473855987332
485		1.269263957325351
486		-0.399090568479295
487		-0.040064488991997466
488		-0.5500561321167663
489		0.780670321903174
530		-0.7643508076568507
531		-0.48154760322088214
532		0.4960765888020849
533		-0.18737758469331092
534		-0.32010606051498913
535		-0.4977391154072814
536		-0.6121273409600134
537		-1.2410774488524483
538		-0.9749073829998914
539		0.9295547546148358
580		-1.0112532280724047
581		-0.9885813273201277
582		0.5161727236781369
583		-2.462134097889614
584		-0.521250087181019
585		0.14090681276072098
586		-0.06407309405378749
587		-0.36302691489175204
588		1.09703431816378
589		0.10446010937540874
561		-0.705874794051791
562		-0.875749142612503
563		-0.2699029578104936
564		-0.4927118168162239
565		1.3025001348485996
566		-0.8584880849969182
567		-0.7927321088578719
568		0.481547911660004
569		-0.2794571686805242
460		-0.8638297264474138
461		-0.7348410488167004
462		0.13306678949980208
463		0.3386084291152861
464		-0.8159153637757223
465		-0.3061370744973579
466		0.3129658891519859
467		-0.026859432364026964
468		0.3238441821978256
469		-0.5898593321192152
490		-0.22558314819903447
491		-0.3531361782838442
492		-0.24737251780786118
493		-0.18462298709204794
494		0.22130752184809813
495		-0.5857963315968182
496		-0.42916660964857684
497		0.5728074055436065
498		0.5676443437687254
499		-3.627805996542456
500		-0.8046284608498938
501		0.4696685609940159
502		-0.5486497232747753
503		-0.279343447016654
504		0.5306709989253999
505		0.7302289155058452
506		-0.852197412264882
507		0.9095786331910195
508		-1.1466779488873662
509		1.4168958617232372
550		-0.892697802062894
551		-0.8635737437170906
552		-0.9686507605104484
553		0.801535886070924
554		0.9871224255503197
555		0.29469867435301117
556		-1.1733474190635338
557		-0.8234271685706648
558		-0.3223568612848096
559		1.3398033815283497
590		-0.8631120405218891
591		0.018720229529296493
592		0.06349927574757917
593		-0.3336949200856026
594		-1.2761940302781936
595		0.2057741302940511
596		-0.3390868601835755
597		1.3824539571197556
598		-0.41947261812954206
599		-0.45739362408925294
520		1.7781909038551007
521		0.35489885823281336
522		0.5892643902941704
523		-0.09074609315947467
524		-0.5493922431146842
525		-0.17700451390142083
526		-0.20986432648348902
527		1.4225894451226933
528		-0.8673839627919527
529		-0.008740035675752173
470		-0.39648506399463496
471		-0.2546845948508243
472		0.53562841688008
473		-0.6274823203702348
474		-0.36813432329064655
475		-0.1309412210511798
476		-0.04606228536835483
477		-0.1267249626022782
478		1.4312170435642593
479		1.4959993174338928
570		-0.6158463545055265
571		-0.5100678504036704
572		0.0057764241064640395
573		0.35547064887311236
574		-0.4758161932848783
575		0.6165968203161254
576		-6.0165312270436235
577		0.03715477086757302
578		-0.6294477403882085
579		-1.13162845672531
510		-0.5011736606076854
511		-0.3130979427496499
512		-0.37596332740352434
513		-0.8279976553286328
514		0.6919779789862058
515		-0.3857933465462384
516		0.18056368749956803
517		0.09420115761389973
518		-0.7494794532314344
519		-0.9995048559864451
600		0.8648360805196385
601		0.6407136678629785
602		-0.3674242165946417
603		0.0781158132118378
604		0.2098268221263782
605		-0.41190813918761704
606		-0.66568539223725
607		-1.15544008807846
608		-0.2679049572210616
609		-0.43302932321130383
540		-0.7358242643430948
541		-1.0621190762918673
542		-0.5961154298302129
543		-0.38296094213283133
544		-0.10974208195151454
545		-0.44724571900277005
546		-1.5437557115846965
547		0.2740466328476617
548		-0.11209978947622633
549		-1.1334970467587984
610		-0.19833916736095067
611		0.02520520668231114
612		-0.5051720455250732
613		0.8690642329029697
614		-0.36255391271980353
615		-0.14423246447701762
616		-0.14661529318549582
617		-0.6635401072821492
618		-0.5135903205542676
619		-0.2722047436796415
620		0.13599953809924262
621		-1.1665143394839603
622		-0.786600205434532
623		-1.3692592708829179
624		-0.014763304942524284
625		1.1414137187056255
626		-1.0258923925485934
627		-0.2951048661914951
628		-1.52519709812979
629		0.4935386749396912
640		-1.1870087641431835
641		1.165312014143155
642		-1.3253565160230227
643		-0.9691594710681423
644		-1.0036440511979061
645		-0.4619746160818063
646		-0.45916187011012166
647		-0.9068472160918839
648		-0.5244909986141991
649		-0.7454913543078298
630		-0.2467681396735028
631		0.11496461474752165
632		-0.5187492431825634
633		0.08361434990091521
634		-0.744422128752756
635		-0.6423562803593429
636		0.08431561777174587
637		0.13187230602610553
638		-0.5892889400907387
639		-0.6451861356670711
820		-0.8811347978454809
821		0.7281068256038594
822		0.6350349335895694
823		1.1738723871478423
824		-0.7093977839675676
825		0.4242887044631253
826		0.06749695811392392
827		-0.04517457673102397
828		0.27079524167907676
829		0.25809072511990744
750		-0.08151821521370654
751		0.6757437782234378
752		0.11778792266751326
753		-0.6087399589812303
754		-0.2787368241132119
755		-0.26055002097692637
756		-0.28893994798921696
757		-1.159887564452507
758		-0.490941301877818
759		-1.175747480607942
790		-0.3183586302640049
791		-1.1289939471643764
792		-0.33296925391017534
793		-1.1640423431567566
794		-0.9940841259041242
795		-0.7027998561530374
796		-0.027611545546759063
797		0.8058328018962858
798		-0.3224912027727464
799		0.16956763876153108
650		-1.4858926966388648
651		-0.7427735395392265
652		-0.6683957806821054
653		0.004170602449999053
654		1.128143197787061
655		-0.9769225989058107
656		-0.6457586358856184
657		-0.23652347440838448
658		-0.9179668059458278
659		0.39123568901735994
660		0.4876944131669314
661		-1.1327858929775114
662		-0.5964037002596322
663		0.18080996261872215
664		0.7883867204674767
665		-0.961051933644046
666		0.12039494656671905
667		-0.10315604415599212
668		-0.422572380466466
669		-0.05075290351355501
760		-0.07220413610293201
761		-0.2912057436630939
762		0.48592559405784225
763		-0.40849868504156217
764		0.5683895459480173
765		0.34908036812334853
766		0.23978727612347198
767		-0.8332335094347655
768		0.673257823202398
769		-1.429430182793674
800		-0.8548788875743256
801		0.004116103538375658
802		-0.49906866818198276
803		-0.3564839573598762
804		-1.4895664316456652
805		0.7198512475179492
806		-0.845148356441114
807		-0.14621432123344344
808		-0.38255457373585827
809		-0.013721510515617617
830		-0.6640953020064896
831		-0.33820112948770187
832		-0.05868497808857228
833		-0.31939492801182673
834		-0.2818792332966026
835		-0.8580123744933822
836		-0.5464036178435518
837		1.4157193610783465
838		0.11535575567629647
839		-0.052274237834554434
810		0.15916344618189934
811		-0.34570938518047134
812		0.9248157599850783
813		-0.5613877525988914
814		-1.5797817611804044
815		-0.7766553798182857
816		-0.41006399607575894
817		0.500729242020413
818		-1.049515859884983
819		0.7020726384157387
770		-1.5338947034486987
771		-0.016530381536391123
772		1.8313677279490237
773		-0.8537263032628092
774		-0.6834640356188119
775		-0.26934487570934784
776		-1.4240776436720959
777		-0.4663702578447327
778		-1.3206346338560366
670		-0.33874303515856946
671		0.40187705280756664
672		-1.0680746612116658
673		0.3280813442514175
674		-0.5639144310633291
675		0.3997433891547808
676		-0.6795078949097421
677		-1.0108004103157073
678		-0.6218410750993961
679		-0.5088518736529163
680		-0.4472619139231306
681		-0.14288996166534462
682		-0.9072363951349871
683		-0.00027653052883373265
684		0.6046600592077596
685		-1.1306944154819873
686		-0.1670932993936657
687		-0.3240812803980996
688		-0.5492860225829056
689		-0.21150606776310638
710		-0.10634067059859924
711		-0.9926127491846097
712		0.628494617899045
713		-1.2735685005937152
714		-1.0029659719603867
715		-0.1800710595213076
716		-0.16176631920637735
717		-1.1064402763526986
718		-0.3527419349723252
719		0.939314206306381
780		-0.11349963712371838
781		0.2163543183285913
782		-0.5614705397637286
783		-0.09770423188037466
784		0.6864928885239407
785		-0.5248579809341651
786		-0.8546928588481449
787		-0.4309843953033159
788		-1.4937880255490037
789		-0.6792974147456476
740		0.9336208357981095
741		-0.557673462379765
742		-0.29442419650652085
743		-0.5174871231521834
744		0.1107088309772498
745		-0.6884169940870195
746		0.9991863703876268
747		-0.20088583741110996
748		-0.6494617896344194
749		-1.5564896665614512
730		-0.9244657610525008
731		-0.5498418365858281
732		-0.7650827292062725
733		-0.08344447572443714
734		-0.3612926099356095
735		-0.3724638123227629
736		-0.3737974413852756
737		-0.6169757686495422
738		-0.34990911351955095
739		-1.1735473147941153
690		0.18758489702630113
691		-0.9348903840716442
692		0.09224181770175098
693		-0.616057791547215
694		0.04587101650709518
695		-0.13753224643922962
696		-1.1654245471967568
697		0.2990527703435907
698		-0.6707686792341632
699		-0.6739160171464117
700		-0.22244330951214164
701		0.02118766576712259
702		-0.6207124638007497
703		-0.3340127228504682
704		-0.8054300873731494
705		-0.11533166651276405
706		0.9930732149028478
707		0.1386833291754821
708		-0.04905548828295067
709		0.6618014057069536
720		-1.020238185662568
721		-0.022081230812958853
722		-0.4167877822169226
723		-0.17909847672999038
724		-1.1375874639639398
725		0.3941881421943955
726		-1.0382390354368471
727		0.06722609924533682
728		-1.1053384852124557
729		-0.1729853208032289
870		0.364035241312926
871		-0.029998920662618993
873		-0.8735946915162699
874		-0.3532304190578922
876		-0.9290412385110037
877		-0.25446406417624495
878		-1.8020121987576865
879		0.15977937574825782
900		-1.9282245428210776
901		-0.5388904873594772
902		-0.7715877683122894
903		-1.0718134508646546
904		0.03340450843359534
905		-0.9934856984878292
906		0.010277289983669042
907		-0.5683971354059296
908		-0.09621468034084676
909		-0.26139172567876606
890		1.4967664441538497
891		0.07019593246875598
892		-2.3702069962729384
893		-0.09371944699109232
894		-1.0483932504562141
895		-0.197112313012468
896		-0.7133917032011153
897		-0.537808083730192
898		-0.8179333850951883
899		-0.4678160447113449
850		1.2524796977163626
851		-0.7053105346431969
852		-1.1477623037700646
853		0.3917679673100079
854		-1.002579812702144
855		-1.993240304075909
856		-0.5458265635294542
857		0.15076653120685524
858		-1.646580345744177
859		-0.5936474793947064
860		-0.7700364040748637
861		-1.001986014887532
862		-0.5089301046526563
863		-1.0808088447448478
864		-1.2728704901537728
865		-0.6591974709286423
866		-0.4789697842773139
867		0.24319885039143746
868		-1.144153850076924
869		0.22320569227301276
840		0.37219692027846285
841		-0.30409221753850907
842		2.5332412345821886
843		-0.46057727826867423
844		-0.622989229836937
845		-0.7405514235806584
846		0.8482007827412559
847		-1.0100313910611625
848		-0.3553500242047434
849		-0.7337864471847821
881		0.09057762648405794
882		-0.7332544450531471
883		-0.28727421035733014
884		-0.34671212138601104
885		-0.5952230458380031
886		-0.35127796797002503
887		-1.060806634908612
888		0.8288978562781105
889		-0.1920603041287196
920		-0.8414360357135744
921		-0.3032447835335609
922		-0.6956411117262583
923		-0.7659462506654606
924		0.6456853677933794
925		-0.9612224972232921
926		0.7023857404814685
927		-0.27865058099434964
928		1.3747097169249802
929		-0.5787810228901087
940		-0.47523878116166024
941		-2.252359678541373
942		-0.6434323698639028
943		-0.34223428047629345
944		-0.8996028764375512
945		-0.29086801129687023
946		-0.5275031457191154
947		-1.6579679561573863
948		0.11154889483269817
949		-0.6447192543013288
951		-0.21479302746744533
952		-0.8549755276811191
953		-0.10343291941723329
954		-0.4437794254179589
955		-1.247523111162784
956		0.8881588154846223
957		-0.9606534883192359
958		-0.6838963466198085
959		-1.0973307419481901
930		0.6097710545965315
931		-0.18057965755157582
932		0.16021565691973355
933		-0.8946302956943013
934		-0.14163458059794454
935		-1.0791166836402806
936		0.8081406102356852
937		-0.3332561738764393
938		-1.0095463861136833
939		1.1234410253324607
960		-0.9969583996626269
961		-0.5888541430998673
962		0.4721085653855392
963		-0.7016547349528006
964		0.08559697984053122
965		0.9910353989036346
966		-1.1270271521849242
967		-2.1537621259164563
968		-0.6220695819239441
969		-0.9960685093948602
980		0.18705755743320102
981		-0.06521928013947116
982		-0.6639872091210829
983		0.5510283666357693
984		-0.7835582985649739
985		0.5887096244808208
986		1.2708090618045422
987		-1.3799768693420713
988		-1.2671541006204619
989		-0.4130380589126803
910		-0.8465044528006594
911		-0.3168372705341257
912		0.49380360109492016
913		0.6283193849265304
914		-0.7581984246120913
915		0.02081108641675977
916		-1.394634089879816
917		-1.0604964065032196
918		-0.5360119667967936
919		-0.9372142621400259
990		-1.3760321122009977
991		-0.09407984025081347
992		-1.7281427293922353
993		0.8568233701984223
994		-0.5623980444924719
995		0.5187341491302759
996		-0.7698481204280132
997		-0.07182517559470791
998		-0.6761691413313923
999		0.3142285768343298
1000		-0.5653325514256343
1001		-0.0571026741679224
1002		0.945100773974679
1003		0.7249245598022187
1004		-0.01009130653086563
1005		-0.07481894221548725
1006		-0.470040723128593
1007		-0.7474651208797248
1008		-0.5415615844517466
1009		-0.6065890286617288
1020		0.4409451500599518
1021		-0.8641596876194679
1022		0.15127413667203535
1023		-0.25269002507653454
1024		-1.0033353938238878
1025		0.0392073326446268
1026		0.7179045564000687
1027		-0.42495946976530147
1028		-0.6860200006684517
1029		-0.2650271321214127
1010		0.1326182981820174
1011		0.11479995953350473
1012		-0.8834356946821418
1013		-0.5564215750496746
1014		-1.3114234985185893
1015		-0.017598212772010752
1016		-1.0706726566075346
1017		-0.5008743782268328
1018		-0.7127489130220988
1019		0.4494748403576725
970		0.17413743622768593
971		-1.3111544244031474
972		-0.5651263743758939
973		-0.26888446649405623
974		0.09389099590758891
975		-1.0376098887752017
976		-0.4874854399587858
977		0.40828530817137104
978		0.01693339559370537
1100		0.05952412886962495
1101		-0.9811641293539651
1102		0.7211138845754654
1103		-0.46668833122556586
1104		-1.3771089314206717
1105		-0.37809083663274573
1106		-0.4626726136293714
1107		-0.9425212639422109
1108		0.3014726599064398
1109		1.0455952628085865
1040		0.07773787083070226
1041		-0.1562918506146633
1042		-1.7359683531540229
1043		-0.34981416458240827
1044		-0.8129632030076521
1045		-0.5882219043760101
1046		1.0403966980228585
1047		1.1375948491349894
1048		-0.5130136218758663
1049		0.7532327414110789
1060		0.03154145676072378
1061		-0.4121806105137339
1062		0.28737444826075503
1063		-0.37151749096824227
1064		0.6531155939168551
1065		-5.299038839587321
1066		0.013611753147466639
1067		-0.6125104859587561
1068		-0.3570573525828388
1069		0.9209557066857385
1110		1.3316074068141008
1111		-0.8089066360973386
1112		0.9940553007181189
1113		-0.0951856147084605
1114		-1.1963414639102772
1115		-0.5788153976691183
1116		-1.0856761591252753
1117		0.6099734549586103
1118		-0.04068175590895985
1119		-0.3279419255147548
1090		-0.7336317686475569
1091		0.07642073145878774
1092		-0.809651830012721
1093		-0.5037611304923133
1094		-1.0721966197349377
1095		-1.38746320444673
1096		0.0015865597746841378
1097		0.5093369622335285
1098		-0.6328727674642379
1099		-0.24514300129629008
1120		-0.5548062666770696
1121		0.05992904251138812
1122		-0.9053262601725104
1123		-0.9548286747186094
1124		-0.0030042605860822655
1125		-0.08894679554479033
1126		-1.1604908127708398
1127		1.3710181284175076
1128		0.4645184874576508
1129		0.6034153877937538
1050		0.006705057165909458
1051		-1.00755587159059
1052		0.7084782064086518
1053		1.7753544094924092
1054		0.9656611902426379
1055		-2.48167073253467
1056		0.38841619559934987
1057		-0.8478898742485228
1058		-0.18457376276126872
1059		-1.1166453476206424
1030		1.7495009993513952
1031		-1.6167768669256841
1032		-0.5200779526501123
1034		0.385600228757315
1035		0.9402856301999174
1036		-0.6240036213419444
1037		-0.6716180457500075
1038		-0.748941219467715
1039		-0.408049681821495
1080		-1.049317139772608
1081		0.40618237881749164
1082		-0.736464016742199
1083		-1.077787248980661
1084		0.2726760841490851
1085		-1.3076624313152756
1086		-0.02091786102512297
1087		-0.9756274657181608
1088		0.04669412918624755
1089		-0.1917840903380615
1070		-1.1983166796023017
1071		0.5685942683644706
1072		-0.6857709972087719
1073		-0.5512882233599675
1074		0.20778755044169128
1075		-0.2758216614090414
1076		0.6424570236800139
1077		-0.037290627494344586
1078		-1.0941816915369003
1079		-0.07949922878731012
1150		-0.26274101772302
1151		-0.8523544736257774
1152		-1.1393341265642434
1153		1.5016395967084109
1154		-0.5589382109422503
1155		-1.0545052058982773
1156		-0.43158224064521644
1157		-0.9743283009790878
1158		0.08754001757541871
1159		-0.8176131217538259
1180		-0.4490828546663344
1181		0.1360058731572272
1182		-0.9037492509411196
1183		-0.08641649392529094
1184		-0.7976554314162239
1185		-0.22468512525172485
1186		0.18366464040132802
1187		0.2570447091665284
1188		-1.113856711537705
1189		-1.0099126278276802
1170		-2.4164358277494347
1171		0.25698029879536916
1172		-0.9176293709098733
1173		-1.7549098006444013
1174		-0.40988845960792997
1175		-0.01803827229670968
1176		0.7712235487077138
1177		-1.2988254981071374
1178		-0.01468870801839997
1179		-0.8806363100461246
1210		-0.7323102024249311
1211		-1.6764157178794348
1212		0.015763999710300413
1213		-1.243610741409789
1214		-2.2226226414298793
1215		0.29461323450342886
1216		-0.9449748734377981
1217		-0.2874644062544996
1218		0.5102198164670924
1219		-0.9601318810724723
1140		0.07094266905950308
1141		-1.9293292854188828
1142		0.7415446879469729
1143		0.8199043880121918
1144		-0.1542622361592059
1145		-0.02123523427687284
1146		-0.47479184222132487
1147		0.2879523780761645
1148		0.17042825168125292
1149		-0.20629449214528484
1190		0.2760609828384271
1191		-0.24201429904878458
1192		-0.4260999312172516
1194		-0.27958246925637603
1195		-1.030126535468067
1196		-0.8784090014226897
1197		-0.194272066451959
1198		-0.9546460583862932
1199		0.9809687766009688
1200		-1.0185860186637743
1201		-0.022252202635149473
1202		-0.5804805547238938
1203		-1.2930238728050754
1204		-0.35968162527807773
1205		-0.6732575692384598
1206		-0.18921692938547405
1207		-1.1025979640340327
1208		-0.53574996084203
1209		0.27338455402408574
1160		-0.21768508294381286
1161		0.07217456408372588
1162		-0.6310198983898138
1163		-0.5459751909732526
1164		0.8402589228052885
1165		-1.3412281776808634
1166		-0.07056852344716284
1167		0.03089867268228274
1168		-0.16207597666460682
1169		-0.1412114098775208
1130		-0.4443108419155795
1131		-0.855081349171021
1132		0.6611145555255786
1133		0.12315978852650691
1134		-1.1179697455816662
1135		-1.2707512933212723
1136		-0.8516829141891001
1137		0.05096013317244432
1138		0.4179000055585642
1139		-0.11025116643991752
1220		-0.4970204488199265
1221		0.021866535225505995
1222		-1.073664369365149
1223		-0.8334118944527691
1225		-0.7694982495839683
1226		-0.39153964280790254
1227		0.11593084853870736
1228		-0.9783470390954088
1229		-0.2549516939761368
1240		0.06773708080082982
1241		-0.5904068135484251
1242		-0.06358711374422517
1243		-1.0249868459214695
1244		-0.7214495334600074
1245		-1.360308952834909
1246		-0.7363018256271393
1247		-0.9679140360894389
1248		-0.5309436875980763
1249		-0.20651771573005365
1250		-0.4098471138756201
1251		-0.38828845208447205
1252		1.184176799246996
1253		0.40355731990714405
1254		0.057051564830668956
1255		-0.2543509784701623
1256		-0.055497752899740516
1257		-0.8492654182541415
1258		-0.6472526498181723
1259		-1.0542402424999953
1230		-0.9571857541512976
1231		-0.014968153215392565
1232		0.30002210627268483
1233		0.11359687404001598
1234		-0.8835340246822638
1235		-0.4100361853838535
1236		-0.9974880625115489
1237		-0.4711240930853071
1238		0.6134952314164049
1239		-0.4357385828716631
1270		0.28368422266299664
1271		-0.10159706170596954
1272		0.8800478200932929
1273		-0.9912208290887782
1274		0.11684888212270383
1275		0.34553001407002454
1276		0.07054748909974108
1277		1.7174508675952003
1278		-0.2309908482857871
1279		0.20749249811275935
1260		-0.9810842313661041
1261		-0.17109712994710025
1262		-0.8945335223191496
1263		0.39039367066845576
1264		-0.7554948584981145
1265		1.3642429556737583
1266		1.0097196265860766
1267		-0.01696921479608537
1268		0.38950969055517237
1269		-0.09630860646803405
1320		-0.8559998191343883
1321		-0.28355760393850055
1322		0.35826662966032796
1323		-1.2460559999679057
1324		0.25572609557073095
1325		-0.720862113403653
1326		-0.8868706906128567
1327		3.3218445431868195
1328		0.21811084970604863
1329		-0.6145744325481604
1280		0.25998750176972163
1281		-0.5379470051082773
1282		0.15350862071037724
1283		-0.35795075903463114
1284		-0.9541730333571524
1285		0.2814469891564648
1286		-0.6108975826081293
1287		-0.07916217790921212
1288		-0.5733942462610228
1289		-0.20048093312405946
1290		1.0444402723763173
1291		-0.32877335666136903
1292		0.052656849834937944
1293		-1.1816507928387245
1294		-0.6298627109592829
1295		-0.12594158075789427
1296		-0.5456574085041594
1297		-0.2949928647191983
1298		0.09088533439314547
1299		1.1532972163239168
1300		-0.9068723636125714
1301		-0.18731360079340706
1302		1.1944582698594792
1303		2.0475210702860185
1304		0.03842238778438145
1305		-0.49857433329350637
1306		-0.5597245287403629
1307		-0.3180779602999229
1308		-0.0937100059852838
1309		-0.9970888955130592
1310		1.9304487590878008
1312		-0.35708363656591696
1313		0.004816225179348724
1314		0.7375161159509711
1315		-0.6725686349242606
1316		2.081496196123208
1317		-0.4914381499039812
1318		1.4724693209926782
1319		-0.7362266772277414
1360		-0.5550600326667924
1361		0.30448471011793565
1362		-0.15956128594762156
1363		0.11896205999665227
1364		-0.6401452777812835
1365		-1.026165645336359
1366		-0.3564621935643735
1367		-0.8631265270278228
1368		-0.35779434874412797
1369		1.7756286468008746
1370		-1.7310353184474085
1371		-1.0882828252172463
1372		0.5919742244646634
1373		0.17301135169091914
1374		0.3684703672421987
1375		-0.715281809085947
1376		-0.6088715248857366
1377		-0.3225877944343718
1378		-0.7141326236742892
1379		-1.271521987648109
1330		-0.5195474362089681
1331		-0.6979583623155402
1332		-0.04361496368039566
1333		-0.09220734189506952
1334		-0.2265632068706236
1335		-1.018721750293412
1336		-0.5406373213794108
1337		-1.443820183260449
1338		-0.44299214233516415
1339		0.3682202664211957
1340		-0.47049968248608703
1341		0.16638060200439286
1342		-1.001949683160046
1343		-0.6114007508370078
1344		-1.0161028655270268
1345		0.18093840551379375
1346		-0.3761695315150332
1347		-0.6823525464030183
1348		-1.2732139331396752
1349		-0.40462477738622304
1380		-0.465706928571657
1381		0.18087603688214823
1383		-1.430578536401049
1384		0.29944514394548494
1385		0.40173505703314744
1386		-0.26420076016071675
1387		-0.645176829441474
1388		-0.021720561697915135
1389		-0.1775598716702905
1350		-0.5762033249874666
1351		-1.8519409324995075
1352		0.20551752821093364
1353		0.9815509473172571
1354		0.29100063673199505
1355		-0.10267718495017612
1356		-0.3966758306043623
1357		-0.6864141474678727
1358		1.588541572306597
1359		0.7329620591990565
1420		-0.5748963781711549
1421		-1.616014795724309
1422		-0.0017912683857394538
1423		-0.0845187711433584
1424		-0.3329494384054284
1425		-0.018930678666119236
1426		-0.1142674923832935
1427		-1.2233176644656112
1428		-0.7824262432734406
1429		0.3513834794137256
1400		-0.14384676967206075
1401		-0.8732241753269342
1402		0.964353661964884
1403		-0.6276572957975057
1404		0.3998729751618064
1405		0.48183456953215403
1406		-0.2519825357228091
1407		0.3144343934554857
1408		-1.0209167474718348
1409		0.1152115167013495
1390		-0.5370612994871306
1392		0.9720435033947199
1394		-0.9364691688687121
1395		-0.2779885961552349
1396		-0.20021787812243527
1397		-0.21628510250322913
1398		0.1781815839947922
1399		-0.09277927721680058
1430		0.5204227418780428
1431		0.5260211155680014
1432		0.04628853243198
1433		-0.3303344101281109
1434		-0.237238745041971
1435		-0.34101570323595987
1436		-1.6138086573769153
1437		0.19739107536854797
1438		0.3723013745430733
1439		-0.04976361527144091
1410		-0.6657411178152851
1411		-0.7231787261828896
1412		-0.06287666769787625
1413		0.37506474865235034
1414		-0.6792661307938941
1415		0.27878966233929686
1416		0.23876985463439965
1417		0.05427013736676978
1418		-0.40326372024995133
1419		0.8132537090279378
1480		-0.5926799369873345
1481		-0.8114818489115873
1482		0.7153367568063048
1483		-0.5003109516441169
1484		-0.2353183818462081
1485		-0.43481431657075725
1486		-0.7469206467388851
1487		0.6378875972589736
1488		0.0486674421592523
1489		1.8485759891529074
1450		-0.19708369900618541
1451		-0.09700085854886006
1452		-0.1748063311854864
1453		-0.27049338460357214
1454		-0.3106002879463768
1455		-1.3488705394659848
1456		-0.04770934095110143
1457		-0.34400255227343673
1458		0.6328239154664327
1459		-0.6282545099331917
1470		0.2357353964420933
1471		-0.4590314338076506
1472		0.5264697335581005
1473		-0.9733245951474844
1474		-0.770731465096828
1475		0.593331578945876
1476		-0.7431497467122662
1477		0.21554592912272075
1478		1.318623487053161
1479		-0.8138004746024942
1460		-0.672783473651537
1461		0.6167988135780125
1462		-0.867482270513804
1463		-0.5704026598442246
1464		-0.5390965076593123
1466		0.34958698662610016
1467		-0.18960668436708272
1468		-1.1036277030122836
1469		-0.13701791502132823
1490		0.15123725680650446
1491		-0.2788210651103873
1492		-0.12429038522086897
1493		0.38631515713554526
1494		-0.7344502148802888
1495		0.11962749117756101
1496		1.0250597507462305
1497		-0.43964226747169716
1498		0.2747229297945678
1499		-0.13799130205710936
1520		0.24600887347434075
1521		-0.8446589324067484
1522		-0.06051807536850629
1523		-0.9286520102459763
1524		0.6337931556190743
1525		0.44602755326402127
1526		-0.3566131353698673
1527		1.2412324255521985
1528		0.6878684833718549
1529		-1.2129836109479917
1500		0.0941560290755023
1501		-0.5465510979753172
1502		0.3260262792023799
1503		-0.39922313411117816
1504		0.32654879639489526
1505		-1.444978141519292
1506		0.07916964703678152
1507		-0.675936218406996
1508		2.5208484267026625
1509		-1.0135674131489139
1560		-0.13769379771439638
1561		-0.8155487416568956
1562		0.9602109083155622
1563		-0.053050982724041865
1564		-0.8117987621115763
1565		1.162105370434305
1566		0.3401169721048173
1567		-0.46506734950080647
1568		-0.8309102192950518
1569		0.8060386752843814
1580		0.26245703834382283
1581		0.16037365819211205
1582		-0.16663169646465395
1583		-0.6380962671463337
1584		-1.2156386468043965
1585		-1.1834202731825407
1586		0.7959098426980117
1587		0.7566572903003053
1588		-0.03794967092085065
1589		-0.26486659999794954
1550		-1.5717349111671783
1551		-0.165759117462732
1552		-0.5512293013980236
1553		0.02185767381270644
1554		-2.639361871237633
1555		-0.39054490816255605
1556		0.15354180468076592
1557		0.6843992713383804
1558		-0.6264172985743353
1559		0.6697364873191072
1570		-0.11693049712392414
1571		-1.0722161125017533
1572		-0.3211046269096118
1573		-0.27714230800719264
1574		-0.932131740925206
1575		-1.6050237140329504
1576		-0.7745206125899744
1577		0.49842428081470275
1578		-0.4896186098607673
1579		-0.023910340614137826
1530		-1.1734537125051177
1531		0.3062669915121182
1532		0.7774115203128621
1533		-1.474715126656241
1534		0.11834653223639517
1535		0.16719997753650387
1536		-0.8914726488324151
1537		-0.4971585873017195
1538		0.7343875822608023
1539		-0.3698006781977984
1440		-0.14130331572726582
1441		-0.8905128577891145
1442		-0.6132327128311121
1443		-0.9949328135934273
1444		-0.5048521999965881
1445		0.11333841643657927
1446		-2.201442117150891
1447		0.023759055037193347
1448		0.09503832267318614
1449		0.2892326497485636
1590		1.6537564730810388
1591		-0.7048912986180379
1592		-0.3015821942387345
1593		-0.4761100488458964
1594		-0.35550899657165735
1595		1.4727856946587534
1596		-0.1846770179687601
1597		0.12770057305829507
1598		-1.1945173914416949
1599		-0.21498669762646883
1610		-0.988413191892737
1611		2.0901786918552103
1612		-0.804235929758763
1613		0.950260118292945
1614		-0.19281588182566003
1615		-0.08857430579075896
1616		0.20725888187484445
1617		-0.3844215747948571
1618		-0.5145395795567395
1619		-0.5415833305648773
1600		-1.0271512267890999
1601		-0.8882094392802277
1602		-1.3151323377382271
1603		-0.5486456313921162
1604		-0.5418693632770881
1605		-0.30159705572267376
1606		-0.8554759548202985
1607		1.7367647062040383
1608		0.1041099457985431
1609		-0.6550493014232971
2320		-0.9851763713421664
2321		0.20442347673171352
2323		-0.03148514572314143
2324		0.12299335802719284
2325		0.09584213589095222
2326		-0.7750080212720127
2327		-1.0247560654628545
2328		-0.3889483490098
2329		-0.3968039839419321
1680		-1.0288509999570206
1681		-0.3027288430622199
1682		-1.7512682130911004
1683		-0.5792778587842066
1684		-0.5634678156150191
1685		-0.6026981865409324
1686		-1.1075376527538954
1687		-0.6061031845440269
1688		-0.3084877030419396
1689		-0.7457289619405022
1970		-0.5457275290112832
1971		-1.2225254696217713
1972		0.29737342322823185
1973		-0.45836805597542624
1974		0.560658683693256
1975		-0.9201185992792051
1976		-0.5980358994963494
1977		-0.6596042874668732
1978		0.16741900478562677
1979		-0.5797980840042319
1740		1.475960142162058
1741		0.7473562709650141
1742		-0.7347095186900651
1743		-0.5022733323963785
1744		0.3526329014483449
1745		-0.594969545114134
1746		-0.2553888123934936
1747		-0.40306169638788947
1748		-0.45561838041360553
1749		0.06172635286899368
2230		-0.20779821669688178
2231		-0.5993842080380742
2232		-0.05537555175304242
2233		0.8167730205558608
2234		-0.14510991589180613
2235		0.4490332075753277
2236		0.268468128316311
2237		0.6381091658267269
2238		-0.4948078334662966
2239		-0.438269608601038
2120		-0.5415832548864064
2121		0.42057234695715534
2122		0.34131501266770664
2123		-1.1675738651965715
2124		-0.5104357287889478
2125		-0.8036580445919187
2126		1.273334195313529
2127		-0.2544494939872886
2128		0.029395245021711293
2129		0.39903393757255406
2050		-0.9798133310648673
2051		0.4196380116877847
2052		-0.4637963283808441
2053		-0.09298717285805208
2054		-0.682826174110465
2055		2.155101025523428
2056		-0.4795558240204406
2057		-0.5465429673106849
2058		0.47028194144896807
2059		-0.21717931323111533
2210		-0.9874992123098814
2211		-0.9351121866360883
2212		1.0172515635600548
2213		-1.1980952411440244
2214		-0.19997716377043548
2215		-0.26181852901533215
2216		-0.1882951560364548
2217		0.08698409583541923
2218		0.16473185155999817
2219		-0.09999859953027647
1540		-0.346270171868741
1541		0.9385538139740166
1542		-0.4868912324324736
1543		-0.7042065473998659
1544		-0.5228821211101905
1545		-0.3693593940988296
1546		-0.22259489314337122
1547		0.8083298236439512
1548		0.4472292410223347
1549		0.08679414505280464
1980		-1.1103027361370432
1981		-0.4177569368701655
1982		-1.0504657642815955
1983		0.7421779011997758
1984		-0.4254831366258929
1985		0.7492930136067023
1986		-0.07987237783835924
1987		-0.6593570679304537
1988		-0.8555951456224926
1989		-0.3570049505129467
2340		-0.4613922706106307
2341		-0.39719301743954366
2342		-0.7772607348593993
2343		-0.7736233999296478
2344		-0.7273189269290993
2345		-0.8303549913880046
2346		-0.5034720755550671
2347		-0.9558212886102335
2348		-1.0556429455597833
2349		-1.0392383334011266
1630		0.10440779450253171
1631		-0.9668434593982741
1632		-0.7014390062814428
1633		-0.782864000205967
1634		-0.22733063844551446
1635		-0.8354365347348515
1636		-0.17965643294703482
1637		0.2456430592235378
1638		0.05611427808386815
1639		-0.8340365212861397
2030		0.03132005108403705
2031		-0.6275917712163371
2032		1.2673048964932552
2033		0.3433786820674733
2034		1.8466273076883968
2035		-0.24994444497986817
2036		-0.49853690654072363
2037		-0.7852607736647511
2038		-0.1601627989525661
2039		-1.1013726439195066
2330		-0.3218484401861548
2331		0.9536337176764355
2332		-0.2921275661109062
2333		0.5855994903533245
2334		-0.9059227625732724
2335		-1.5067641183752316
2336		0.6936857995162438
2337		0.28955848883101065
2338		-0.4289939218746537
2339		-0.631813732845673
1960		0.5523774842482824
1961		0.12294910865953987
1962		0.4108887964011274
1963		-0.5198768670067652
1964		-0.004562134109248188
1965		-0.6974655234124194
1966		-0.09189672246127771
1967		0.7468913714126816
1968		-0.06713739977986828
1969		-1.7962660441105802
2140		-0.9815393766859709
2141		-1.1726577371996374
2142		-0.9876387387494315
2143		-0.7808656816751943
2144		-0.7878517736218228
2145		-0.16323344132030876
2146		1.6389752567459124
2147		-2.0223835928547547
2148		0.511052342422091
2149		-1.121295447304256
1940		-0.1002567501424827
1941		-1.6119923763021664
1942		-0.9415708554801336
1943		-0.19331294265307006
1944		-1.5679183479177778
1945		0.2359653460396599
1946		-0.4352148495419399
1947		-1.4643737601600293
1948		-0.24757403106882342
2170		-0.41429124194343814
2171		-0.7543283400599575
2172		-1.83349556726101
2173		0.05012526281274055
2174		-0.5324995804211781
2175		0.12061159745132843
2176		-0.7561202427149064
2177		-0.872881238330209
2178		0.1545890373314367
2179		-0.8341563177755319
1620		0.3442741732902211
1622		0.35655336460040304
1623		-0.35968718115063497
1624		-0.8514699044734524
1625		-0.9039012167659106
1626		-0.15622412411529507
1627		-0.49327371662889474
1628		0.233465208362926
1629		0.0149406127070002
1890		-0.7876016344164056
1891		-0.9774552788170202
1892		0.5110835972864922
1893		0.7975427586805522
1894		-0.7160522035802087
1895		0.3114615461116994
1896		-0.5655209115898892
1897		-0.16170941732702374
1898		0.14231013728490643
1899		0.1744680816441207
2080		-1.2075645395482277
2081		-0.32339843779095756
2082		-0.7991962708255635
2083		-0.6132258085514327
2084		0.5394109119448108
2085		-0.6321983922146225
2086		0.23837734839556007
2087		0.3859941340268516
2088		-0.40587922316997826
2089		0.3100122753055473
1850		-0.7122797233914167
1851		-0.3475609619119544
1852		0.36921038043779375
1853		1.579600310061081
1854		0.7341779300704837
1855		-0.05688102203457287
1856		0.23451549778652367
1857		-0.8234491433289255
1858		-0.5465951048086782
1859		-0.27782427318160907
2270		0.3688673628128176
2271		-0.22362151674607678
2272		-0.1767696583567005
2273		-0.8881796749626625
2274		1.4051081307941116
2275		0.2947189769536032
2276		-0.5733988389576804
2277		1.4643117530607197
2278		0.4143327469789105
2279		1.4981358190683403
2260		-0.11326954867476911
2261		-0.18321146840861124
2262		0.23615404460517395
2263		-0.36441943088064577
2264		-1.0065608792117404
2265		-0.9755405992228076
2266		-0.03713472224389323
2267		-0.3969272605183374
2268		0.6470425289894751
2269		0.006597201286414912
2280		-1.1032879056768132
2281		-0.617546502449779
2282		0.31713469050769527
2283		-1.136812600735275
2284		0.3419183957054673
2285		-1.0167984795505058
2286		0.24359032959275767
2287		0.3947095932806229
2288		-0.6477070419721797
2289		-0.6083145507313971
1790		-2.18337187904228
1791		-2.0862000159985947
1792		-0.8880495110875823
1793		1.1816668753050965
1794		-1.4305271342307657
1795		-2.0836971648019276
1796		0.5636202165317764
1797		-0.9221023903859427
1798		-0.13945398822773028
1799		0.08612926176915191
1830		-0.06276747822468609
1831		0.6865057417369856
1832		-0.2510918838098583
1833		-0.1264675609300169
1834		-0.36123773863470293
1835		-0.5065796670274176
1836		-0.9603126674688002
1837		0.5764895442187624
1838		-0.41491824557973683
1839		-0.936060303722967
2000		-0.2964996188033679
2001		-1.0339118994117302
2002		-0.9585171006466262
2003		-0.23726973592513906
2004		0.0177754277836339
2005		-0.3560987457557819
2006		-0.08069877433462766
2007		-0.5153710218303897
2008		0.020021909320847207
2009		-0.3337461656423738
1990		-0.10318078102310584
1991		0.16952667790129752
1992		-0.37286502289988
1993		0.3265726426097593
1994		-1.2124121455673962
1995		-0.8039287531911022
1996		0.3035374294089385
1997		0.06328503819973598
1998		-0.8034883711383763
1999		-1.173127807784019
2411		-0.7979944987463584
2412		-2.3739596507179077
2413		-0.6986391389972831
2414		0.5801914286688293
2415		-0.6469171022621938
2416		-0.1842751289013001
2417		-0.6497052472178871
2418		0.5673044005987524
2419		0.13719761543260772
2010		-1.626425368071357
2011		-5.218391111023539
2012		-0.4214793037784063
2013		0.3753272319639177
2014		-0.1479534164743016
2015		-0.31761598967289123
2016		-0.3014962314960428
2017		-1.1950386078536763
2018		0.2495677437793461
2019		-0.7648818451274565
2130		-0.9289994747116744
2131		0.18412091570712483
2132		-0.15572100858565563
2133		-0.56424320951098
2134		1.3655395582307621
2135		-0.9890050669376691
2136		-0.5590821549291464
2137		-0.5341163728883626
2138		-0.4948596390929687
2139		0.172102141711773
1910		0.3640464657752681
1911		-0.9162573736111157
1912		-0.015376031653586903
1913		0.6823236915036129
1914		-0.6058180780685904
1915		-1.613747002102162
1916		-0.4165378650887268
1917		-0.6220874016226925
1918		0.3556439713978963
1919		1.2311981786075268
2160		-0.4720646829193966
2161		-1.5919681692531709
2162		-0.5272757971609051
2163		0.13081668437442923
2164		1.1522351684028094
2165		-0.4861312490638915
2166		0.6859498948553016
2167		-0.6918627666135667
2168		-0.2851110118214978
2169		-0.3343977469885996
2150		0.38123880498808993
2151		-1.373368404216327
2152		-0.43048206813094525
2153		0.9890026708606632
2154		-0.40948567113666146
2155		0.5807174866762587
2156		-0.9286322022554432
2157		-0.07681748868138819
2158		-0.6025232244076331
2159		-0.4380154391612871
2370		-1.086125495810912
2371		0.056358279611060644
2372		-0.6097544465121886
2373		-0.06123359626674496
2374		-1.141275858530883
2375		-0.5739266182886495
2376		0.6185232655864499
2377		-0.6404825830234371
2378		-0.32006862188488505
2379		-0.17661669286683726
1750		0.6389080578839101
1751		-0.17419897882785615
1752		0.8989700030369453
1753		-0.2689798874401178
1754		-0.2400852073149001
1755		-1.9005109567543894
1756		-0.7006437425946671
1757		-0.3540697561217833
1758		-0.939124706095243
1759		-0.666489143807564
2250		-0.17210357520172262
2251		0.14281076699522396
2252		-0.8298428882934764
2253		-0.7115381434597275
2254		-0.8075233048077799
2255		-0.005149905441703269
2256		0.3744475610495705
2257		-0.4106622047496998
2258		-0.8616974506943121
2259		0.5940902266030778
2200		-0.6768788772126247
2201		-0.7432842888487036
2202		2.338202962180918
2203		0.4449458753179363
2204		-0.46158998029605286
2205		-1.3847204488162848
2206		-0.09379185936858485
2207		-0.3218400301067234
2208		0.11315545648030507
2209		-0.9362035920357423
2060		-0.9097415629305284
2061		-0.6706999678167104
2062		0.13210953547252655
2063		1.0018171431418486
2064		-0.931078325743004
2065		-3.8697893043567597
2066		-0.46924835477265175
2067		-0.7911948503351779
2068		0.19998705979341708
2069		1.338580694965036
1820		0.09020451611131546
1821		-0.6286938231426916
1822		-0.3937722565527306
1823		-0.628007603846597
1824		-0.6482089381611625
1825		-0.9001438065484313
1826		-1.0364054881287599
1827		-1.0864343127330323
1828		-0.32625054261142056
1829		1.299021107263206
2070		-1.169069311979359
2071		-0.9047194690336755
2072		-0.9722752319292469
2073		0.0358443309765802
2074		1.158398253281081
2075		-1.0170025557544744
2076		-0.8025475584977685
2077		-0.02255892483081908
2078		-0.5966920142190757
2079		0.4600407553051958
1860		-0.2480960952914519
1861		-1.2919112610452788
1862		-0.41849868657253086
1863		-0.44078984439586427
1864		1.1168865264328962
1865		-0.9477578066613349
1866		-0.30409867207945784
1867		-0.3033202829379968
1868		-0.5876208974003195
1869		-0.6051080099491549
1880		0.3842649999062078
1881		2.212943831680386
1882		-0.6193689141853181
1883		-0.39160483932252865
1884		-0.272969808066333
1885		0.1765124204685373
1886		0.5148712828345794
1887		-0.33519276314386776
1888		1.948329874173084
1889		0.15033053832303606
2390		-0.6179095156638643
2391		-0.06297673766016952
2392		1.3061159415441483
2393		0.15730383244884183
2394		0.30612976200482406
2395		-0.03291410232917414
2396		-0.19894543015463934
2397		-0.5507718661505068
2398		-0.254208875968701
2399		-0.383469672267758
1700		-0.06819056364695582
1701		-0.227167840605129
1702		0.12584347426831213
1703		0.7087070012448299
1704		-1.6169256163769954
1705		1.8382769482961563
1706		1.4611673007021593
1707		1.2077695231214591
1708		-0.2661766184020157
1709		0.37351234065070904
1950		0.17958567574832382
1951		-0.8737389995742448
1952		-0.7694242377186798
1953		-0.18281077329065906
1954		-0.24928671643591355
1955		0.2118305291765264
1956		-0.25427289992184776
1957		0.2948394107024757
1958		1.9951768547460034
1959		-0.5651608908884205
1870		-1.2050917691728809
1871		-0.2782276176722555
1872		-0.7788517070322154
1873		-0.6035382685995629
1874		-0.06685888321401692
1875		-0.553331647905167
1876		-0.0804541924812504
1877		-0.571191907797384
1878		-0.3328136468630537
1879		-2.0855519771952897
2110		0.16082003180582088
2111		-0.11851350150589475
2112		-0.02220595771959795
2113		-0.7701918369408641
2114		-1.2864791342653317
2115		-0.3089810496920373
2116		-0.009033408941423253
2117		-0.2242228008392424
2118		-0.5879773694336023
2119		-0.263627393317482
2180		-0.6913099671588753
2181		-0.22741168333749523
2182		0.7883882237962672
2183		0.1625606287032095
2184		-0.4310281873552558
2185		-0.47239011449938595
2186		-0.5249261835671679
2187		-0.8281690510016032
2188		-0.14493794033730795
2189		-1.2810868817026868
1780		-1.405219957889716
1781		-0.0016359293447959502
1782		0.24885506034719362
1783		0.20603219478284085
1784		0.7089031290545074
1785		0.8793263790989817
1786		-0.4525661569825183
1787		-0.5948090890636017
1788		-0.48100636253289125
1789		-1.0853336075902118
1640		-0.0812580559267014
1641		0.49336644549354103
1642		-1.1771861827003267
1643		0.5432426762502455
1644		0.5633704441861253
1645		1.5387034100377268
1646		0.2295112945520332
1647		-0.2632741069252479
1648		0.4895099888461519
1649		-0.2841143382110142
2350		-0.025190673388523908
2351		-1.2301144213153894
2352		-0.5713349162282239
2353		0.03427450040976756
2354		-1.3292709239054485
2355		-0.0325588773262526
2356		-1.1090139012614462
2357		0.223975536948358
2358		-0.6904888882985706
2359		-0.6589731288796598
1710		-0.46722496970627364
1711		-1.0032595188923215
1712		-0.04905495323317317
1713		-0.28643702559331896
1714		0.20091064813426854
1715		-1.378193546717395
1716		-0.7926190561122907
1717		-0.4413098290322404
1718		-0.165254177084264
1719		0.44215190043773694
2380		-1.4205494140676407
2381		-0.5505074399803244
2382		-0.7042452142818673
2383		1.4087298099198309
2384		-1.400162582145855
2385		0.19294361303175384
2386		0.5151732597415171
2387		-0.527370874086003
2388		-0.17548794952805433
2389		-1.2449700564738715
1770		0.1052863250598197
1771		-0.24998701892956104
1772		-0.5461346917910486
1773		-0.15738789826902064
1774		-0.06454507080018215
1775		0.148838132057513
1776		-0.09260068134116248
1777		0.3097708364987182
1779		-0.23231958344642573
2400		0.05861552909107037
2401		-0.2934410878012252
2402		-0.07558969797921515
2403		-0.439690316089997
2404		-0.6024047609455556
2405		0.44945180718188965
2406		-0.37998066618538806
2407		0.3655249149294639
2408		-0.5139523286500087
2409		-0.8808614873548685
1920		-1.4870611875253683
1921		-0.4520900957627438
1922		-0.5028754049002837
1923		-0.9058015992576821
1924		-0.7889955164823783
1925		0.23125417045596905
1926		-0.8967675858525966
1927		0.0953970742033668
1928		-0.164165927328503
1929		-0.17063668389075265
2240		-0.3109818298790986
2241		-0.831863435414663
2242		1.787577435149329
2243		-0.6515055981597464
2244		-0.2838249006558149
2245		-1.007109175675824
2246		-0.10764831462868983
2247		-0.07873362148613881
2248		0.17479918937294092
2249		0.5386560812207862
1720		-1.0049763465336665
1721		-0.16156322382004712
1722		0.6925949255044422
1723		-0.48809642074311127
1724		-0.3918083124845073
1725		-0.2521282449652935
1726		-1.1583602763572718
1727		-0.6732665723800332
1728		-0.42584454420948264
1729		0.12513763238187006
2190		-1.2053399111181111
2191		-0.6947678253183522
2192		-0.3575496255606441
2193		-0.02479617694861031
2194		0.35653778883234477
2195		2.7500454487650914
2196		-1.253116392876968
2197		-1.351613376198217
2198		0.5905554548292122
2199		-1.1224368720795415
2040		0.14982874642476152
2041		1.522958240732479
2042		-0.3502779946144901
2044		-1.0472121755688073
2045		-0.3255848616086736
2046		-0.254474611626661
2047		-0.5386415997301917
2048		-0.38615349275259425
2049		-1.0619155005037515
2360		-0.6278074305997016
2361		0.29606195548348174
2362		-0.15600007484582878
2363		-0.4595746605325947
2364		-0.4392443752467392
2365		0.22319756502135946
2366		-0.8508896952354292
2367		-0.8884645423915198
2368		1.0286909097810628
1730		-0.8179275441858763
1731		-1.3343802054089162
1732		-0.8168726602669265
1733		-0.48356254711092295
1734		-0.8816345123854774
1735		0.8000144167489202
1736		-0.7553376895508754
1737		-1.1621484711901047
1738		-0.0952806424790284
1739		0.6727684976229348
2020		0.0695862576646834
2021		-0.47890514411763646
2022		-0.6338147657209847
2023		-0.07866580088879799
2024		0.21709388607778032
2025		-0.05688953535134624
2026		-0.9582299109541371
2027		-0.10179761857102396
2028		-0.8877633599925806
2029		-1.4699307606381822
1930		0.18666934609635452
1931		-0.45681438617742987
1932		-0.3493146135365944
1933		-0.11617520398253173
1934		-0.04753851532733851
1935		1.5629902687714259
1936		-0.29756755390680106
1937		0.5876842138162466
1938		-1.017697275194123
1939		-0.7342584020838333
2290		0.5568663092420498
2291		-0.682493481911811
2292		0.5245502659457468
2293		0.08803433637955262
2294		-0.6633697519998039
2295		0.1898994483502436
2296		-0.8089343960453983
2297		-0.3398948674991187
2298		-0.4175465812951609
2299		-1.4012471838493739
1690		-0.6723430638066956
1691		0.7465744796735685
1692		-0.7384286638873487
1693		-0.4680305790031794
1694		0.04147940817507958
1695		-0.33109961029112706
1696		0.35785650962968696
1697		1.8916195053759572
1698		0.27597376722239486
1699		-1.0056414654880714
2300		0.09978362882566164
2301		0.001112673400255606
2302		0.15984671611381182
2303		0.06964246543956155
2304		-0.32146170431977583
2305		0.6440475331862552
2306		0.07528950036522446
2307		0.17409305437353076
2308		-1.2982650220287588
2309		-0.3592816660000473
2090		0.4019381562641864
2091		0.7839847139093957
2092		0.22369594312481053
2093		-0.7454069144139533
2094		-0.1501411647168487
2095		1.1501801791266946
2096		-0.228962145246095
2097		-0.5729795587199106
2098		-0.6240449510520991
2099		-1.2261293440475933
2220		-1.1244405518726084
2221		0.9650057393982682
2222		-0.609725407792626
2223		0.06626800140021566
2224		-0.7503004474616639
2225		1.204472555465412
2226		0.0696974236783879
2227		-0.5847775500333308
2228		1.9770061154228968
2229		0.7927784455475477
1670		0.36646778128625795
1671		-0.08360186618684563
1672		-0.057823889712184585
1673		-0.6101980067451878
1674		-0.5483075306470698
1675		-0.34657082125807254
1676		-0.20029588382739097
1677		0.2543812831897431
1678		1.01973837631815
1679		-0.9889035899867353
1800		-0.5231216395902818
1801		-0.7541429141453171
1802		0.5197668514676083
1803		-0.47473903555013386
1804		0.1335695349312709
1805		-0.717713893156412
1806		-0.6758035168910383
1807		-0.4652259617638324
1808		0.6763781070213545
1809		-0.6877698178446702
1660		1.0092667362356371
1661		0.008713491366085433
1662		-0.833034678934077
1663		0.08081590923381396
1664		-0.6423945114926048
1665		-0.7499987953838506
1666		-1.843983078612441
1667		1.8250041083920625
1668		-0.438053208316464
1669		-0.5342999003108387
1810		-0.9694252412683351
1811		-0.0031946897957975447
1812		-1.3682564237215593
1813		0.10656703304924046
1814		-0.8214720791797299
1815		-0.769794994054123
1816		0.030756998860417478
1817		-1.0282419133959733
1818		2.5395453679844344
1819		-0.6543353183951853
1650		2.5600543490980274
1651		-0.7233067552942113
1652		1.0602866710142207
1653		-0.6649175372831067
1654		-0.9677159019177166
1655		-0.3124690730545479
1656		0.3515622025652843
1657		-0.9182817105681366
1658		-0.33144733554039013
1659		-0.8625082301238395
1900		-0.2873181133579674
1901		-0.5913577289181318
1902		0.07814208357017861
1903		-0.018279074020196955
1904		-0.5429967028253965
1905		0.1778545908211912
1906		-0.2007728107472733
1907		-0.35740308149578254
1908		0.48071524085456757
1909		-0.6881989970847521
1510		-0.6636073780034673
1511		-0.9279471253881171
1512		-0.3805997049206365
1513		1.357180937564728
1514		-0.3800775053673315
1515		-1.1204374851646388
1516		0.5036794633950565
1517		0.25115619515066484
1518		1.3207815709993123
1519		0.5128446663094522
2500		-0.6607801062949452
2501		-0.0755088473506661
2502		-1.4360875387054883
2503		-0.789981989994142
2504		-0.2503225950160297
2505		0.4232917449558014
2506		-0.06596697140829402
2507		-0.3522853676157721
2508		-0.752330327561765
2509		-0.6201182935236708
2510		-0.27163194905251814
2511		-0.08302880524569325
2512		-0.26964891308149785
2513		-0.5629565808664639
2514		-0.709165521067115
2515		-0.1586122719395119
2516		-0.3079092960393096
2517		1.4660787041809082
2518		1.696282617283925
2519		-0.0324713596343297
2520		-0.4964089790225944
2521		-1.1028233956674138
2522		-0.7633896089493472
2523		-0.476163771073137
2524		0.7139521753146355
2525		-1.0197067632671715
2526		0.7527594143978511
2527		0.4963812011456258
2528		-0.08639275716859265
2529		-1.1016536864140183
2100		-0.9579556717648204
2101		-0.49891889947888707
2102		0.344341368874117
2103		-0.6335300960192833
2104		0.47546338357145523
2105		1.7996519905356634
2106		-0.22995651694131383
2107		0.7327336294363054
2108		-0.2894274439540862
2109		-0.9043435625864847
2480		0.29539096384685076
2481		0.00598103044597512
2482		-1.267768513866528
2483		-0.16330399696618006
2484		-0.10907413283054776
2485		-0.18036490474468583
2486		-0.025305187148504105
2487		-1.1632718371243798
2488		-0.3588963395310615
2489		0.52644221154753
2530		0.18267123892586337
2531		0.3168488391239523
2533		-0.02207158539415276
2534		-0.6348358140760801
2535		-0.09776125006218343
2536		0.2256093135448039
2537		-0.5410735863642218
2538		-1.2944063890128523
2539		-2.536851410867699
2430		-1.2142963420180046
2431		1.0496183855248864
2432		-0.010451164520694532
2433		-1.3698220505019685
2435		-0.6474743281072224
2436		-0.331860675892758
2437		1.2470902213649868
2438		-0.6734941919060466
2439		-0.7806223677634764
2540		-0.8545654800168125
2541		1.4144205340253293
2542		0.7284043619391148
2543		-1.2776477544627132
2544		-0.2185898820804676
2545		-0.8492295086047613
2546		-0.3422236886233691
2547		0.23724817495455683
2548		-0.2789390107507418
2549		-0.10964966843630988
2490		-0.08429384262879512
2491		-0.33600534550212824
2492		-0.504510142609383
2493		0.034485897609481835
2494		0.9904274717148827
2495		-0.7412847856714351
2496		-0.2108525222432572
2497		0.5857830463948817
2498		-1.8521896007320056
2499		-0.35464090054003977
2470		-0.2793261637644897
2471		0.19523555771299023
2472		-0.2092078062941184
2473		-0.3659937568440852
2474		-0.28581357643613164
2475		0.8339420515252277
2476		0.3413711940318661
2477		0.698638032071736
2478		-0.8506963734922008
2479		-0.3526710904503438
1840		-0.23857849190324915
1841		1.7004339432947606
1842		-1.1857379224290023
1843		-0.5640314729593033
1844		-0.777062988855963
1845		-0.022238370738241132
1846		0.8640970229099126
1847		-1.3673311291012966
1848		-0.532043463191258
1849		-0.8487438519852398
2310		-0.4874052382076954
2311		0.12781400629025033
2312		-1.1411439634151872
2313		-0.15619461558113104
2314		0.4431751157563244
2315		-0.1116042203088064
2316		-0.2969348565982723
2317		-1.32588625979898
2318		0.5007953124612051
2319		-1.2525655097403328
2590		0.034010404890196785
2591		-1.6513399067305212
2592		-0.6740536789038514
2593		-0.1967995078181957
2594		1.2588882123889478
2595		0.36560858872590507
2596		-0.3193277785764556
2597		0.1493532514002426
2598		-0.7252027791691787
2599		-1.0937281387232864
2580		-0.9018491233708243
2581		-0.9307046598238036
2582		-0.5209458463804393
2583		-0.876253473674659
2584		0.7179262164475562
2585		0.43860117204897875
2586		0.39632104510217225
2587		-0.3468955548661958
2588		-0.9064344281594219
2589		-0.2819413647696087
2560		0.38593954317592905
2561		2.5207326866142314
2562		0.646903943320581
2563		-0.5190681689923156
2564		-0.2015524978970252
2565		-0.6054185954253768
2566		0.5050732140780186
2567		-0.15146180791615155
2568		0.6214820721669257
2569		-0.9163507516664186
2550		-0.4075695320278525
2551		-0.7607288593016392
2552		-0.7520399557102552
2553		-0.39786367060361544
2554		0.7526259875360068
2555		0.7207748361872265
2556		-0.8685808020991691
2557		-0.6200840055430425
2558		1.2820803207120217
2559		-0.029012768672955935
2570		-0.05373823782351091
2571		0.5525607723143993
2572		-1.355767139152292
2573		0.9225439595109821
2574		0.6315015851642364
2575		-0.19442188654388368
2576		0.7588868502468632
2577		-0.7648646340678681
2578		-0.04197717963836759
2579		0.4201786191978406
2600		-0.19419405101309573
2601		-0.17434790363818897
2602		-0.6929521632483789
2603		-0.7592627559288924
2604		-0.5044979132212847
2605		-0.5742847117038393
2606		-0.024640782810816973
2607		0.10300273370503647
2608		0.17174674260627135
2609		-0.19656054611525167
2610		-0.6373050464392374
2611		0.028727345953871504
2612		0.1265622351009518
2613		0.44621590282455803
2614		-0.16318485455018297
2615		-0.7599139300644222
2616		0.8776284840349307
2617		-0.38675151588344625
2618		-0.24785766611360235
2619		-0.5892110768732833
1760		0.8464653389324571
1761		-0.3518024351730418
1762		-1.3025034478009283
1763		-2.8509716483034895
1764		-1.006583435610363
1765		-0.11186273673981957
1766		0.2845282757031063
1767		-0.08252089805243326
1768		-0.6674841697387238
1769		0.9473105273905454
2450		-0.3343886158445044
2451		-0.45599585794803255
2452		0.9959259593448282
2453		0.6515568372170673
2454		-0.36293257607106916
2455		-0.9870035719060865
2456		-1.2258754838387615
2457		-0.07941820787013583
2458		-0.9504517884402892
2459		-0.2374422453529041
2780		-1.4709307545918398
2781		-1.1287388032275842
2782		-0.8393836496477816
2783		0.05053896863440947
2784		-0.46929946087150143
2785		-0.6519871917567899
2786		-0.029349580022447835
2787		0.5214353133843953
2788		-0.7161583094941433
2789		1.5701859886288752
2790		0.5577034915569153
2791		-0.39362917759957966
2792		1.695961938247815
2793		-0.4245279810692334
2794		-1.0686676600676106
2795		-1.1771357964937184
2796		-0.8338673329147253
2797		-0.11931440965490006
2798		0.10704084634234665
2799		-0.8230064607375938
2700		-1.14409199571651
2701		-0.4030736780369213
2702		-0.2896146093982678
2703		0.21626566457747312
2704		-0.7042621555391002
2705		-0.58492515249934
2706		-1.11653448322149
2707		0.09722339753263357
2708		0.2492341246317156
2709		0.45055970090801384
2710		-0.9032302070047216
2711		1.689267230402645
2712		-0.04830106232993631
2713		0.029322030726239193
2714		-0.8257421182974541
2715		-0.487316768387186
2716		-0.8949049161835577
2717		-0.576625506659897
2718		-0.5696624468950877
2719		0.17087206322610982
2730		-0.7478007435229838
2731		-0.5509220063299375
2732		0.18466977863369038
2733		-0.6142151096129521
2734		-0.7386630195714314
2735		-0.6495494072121711
2736		-1.4317055379998331
2737		-0.42943983017250764
2738		-0.7057446260858216
2739		0.3213329679422195
2690		-1.0460793579801084
2691		1.3011518935116313
2692		-0.9242760228854391
2693		-1.4868873173963684
2694		-1.009350888036077
2695		-0.38922294589540996
2696		0.045096021478849474
2697		-0.3883292227723788
2698		0.1631106780888745
2699		0.5490977205878118
2800		-0.1114148517893034
2801		-0.4994403829285061
2802		1.217877413440721
2803		0.13088808533335833
2804		0.7775550206434203
2805		-0.616103584608328
2806		-0.20453634385487657
2807		0.07613516290578984
2808		0.14580542825748427
2809		-0.5658655870204296
2740		-0.6174705273866298
2741		-0.6050776418824507
2742		0.22077941583192942
2743		-0.1710883077066654
2744		-0.7845963804965064
2745		0.21640107502281133
2746		0.6642913678368904
2747		-0.16246447225931013
2748		0.14853019466151846
2749		-0.8124304640151929
2680		-0.7517949176822273
2681		-1.119390632718494
2682		-0.5997664408933372
2683		0.6492313183161593
2684		-0.20216045481415326
2685		-1.2167501469353914
2686		-0.9110964615066398
2687		0.3096605858633791
2688		-0.42198005541101696
2689		1.6381949350262786
2660		-0.4481647269498593
2661		-0.4870983853775106
2662		0.518326578596509
2663		-0.40230185420375647
2664		0.14941237289079645
2665		-0.6385543684402474
2666		0.13953830329556421
2667		-0.052644889726369416
2668		-0.04390719856415049
2669		-0.7564735420317008
2770		0.6504695366708885
2771		-0.9711526550128532
2772		-0.9127963211230555
2773		-1.4733130476934075
2774		-0.11612622296287013
2775		-0.8850340952408771
2776		1.1276933241861382
2777		0.418894661813987
2778		1.7282080792023606
2779		-0.9669069301497742
2670		-0.2969879331595894
2671		-0.29922228353631863
2672		-0.6661513465230261
2673		-1.0790917499297235
2674		0.12326592691588086
2675		-0.086792653044945
2676		-0.8647483942972057
2677		-0.08408469068343297
2678		-0.49804670363578757
2679		1.0111223384517352
2760		0.4897063638800907
2761		-0.28893628768756263
2762		-0.24046419969442911
2763		-0.8869711391690384
2764		-0.6879759849888664
2765		-0.9212599341988028
2766		-1.0760969796739641
2767		-0.8706392320812302
2768		-1.1096463626372053
2769		0.33031785593202917
2720		0.22105297749635008
2721		-0.05922076173878021
2722		1.0674048257743514
2723		0.7111747053995114
2724		1.1150570214711752
2725		-0.9845411718060327
2726		-0.6613652957691428
2727		-1.1505898074496712
2728		-1.3735895088684302
2729		-0.6098405748859367
2420		-0.546595354795865
2421		1.799992510843505
2422		-0.8346036759668939
2423		0.7530318424266212
2424		-0.7283712926506258
2425		-0.7477521887838461
2426		1.6053676310877194
2427		0.28219698269574495
2428		-0.6420206745997902
2429		-0.907959099505079
2620		0.014104774747319512
2621		1.0030787613229188
2622		-0.5336884797999647
2623		-1.23079852803146
2624		-0.9320494772198098
2625		-0.971943808280127
2626		0.4950130998793125
2627		0.4446169979217277
2628		-0.4045563346564249
2629		-0.08866896479902817
2750		-0.2052081642704512
2751		-0.7246464472850329
2752		-0.23169276103585817
2753		-0.2388209392903598
2754		-0.024426037160202408
2755		-0.38814711464512525
2756		-0.8035145580140417
2757		0.5193476799685859
2758		0.1795884099014435
2759		0.9511152771649776
2640		-0.9239840457276939
2641		-0.5873749336786983
2642		-1.2906247017731665
2643		0.39774272600539573
2644		0.35911979396589694
2645		5.328949004551822
2646		0.2848710963440164
2647		-0.1383468526777924
2648		1.519355355806687
2649		-0.13600607205922502
2650		-0.7050845103997703
2651		0.19078459263749317
2652		-0.8572297793312842
2653		-1.4053104123739797
2654		0.707737814142358
2655		0.8276907690650526
2656		0.6475792809121763
2657		0.9271040947419715
2658		1.7873537602150258
2659		-1.8050380963258759
2460		-0.7646732606768516
2461		-0.5474663166778845
2462		-0.9196920298890456
2463		-0.5268496743950564
2464		1.3598514795227956
2465		0.8502581065531362
2466		-1.1362967327415814
2467		-0.39824350196944297
2468		0.05241741987269077
2469		2.2016613816207466
2440		-0.9132279859841028
2441		-0.32539637647311853
2442		0.737569219753559
2444		-0.31753295548603233
2445		1.1208756628671859
2446		-0.5383770201078286
2447		-1.4224282657435836
2448		0.1555324716438731
2449		-1.0347035425166209
2930		-0.08560005116984724
2931		1.6580593880817376
2932		1.2442912116745877
2933		0.2458787071199946
2934		-1.199728031299315
2935		-0.1382607061154615
2936		1.9676395302365721
2937		1.1664248987035384
2938		-0.2201363575091558
2939		-0.05278961186494621
2810		-0.5893756973163982
2811		-0.44674952425800246
2812		0.16381694018349774
2813		0.010541953042616858
2814		-0.07982923055132692
2815		0.8200675041033123
2816		-0.3139287994913815
2817		0.06787019958603381
2818		-0.09034871087191101
2819		-1.1320199892112432
3150		-0.17913619958819207
3151		-0.7043491077726748
3152		-1.1164258344837494
3153		1.0866274846394175
3154		-0.1626116202858185
3155		-1.0818420165081153
3156		0.10277956759519506
3157		-0.3085273041241631
3158		-1.1397820682078021
3159		0.06559764059391134
2990		0.9132366590330189
2991		-0.041237161009028904
2992		0.0008622359352377564
2993		-0.013632080979792707
2994		0.056640433244305094
2995		-0.7811581124117738
2996		-0.8263656664466845
2997		-0.5502910370172065
2998		-0.2663726418904745
2999		0.7406111832402448
3180		-0.02490213941121957
3181		0.8072389131728194
3182		-0.8260062966355748
3183		0.1463525615695931
3184		-0.9325391960006455
3185		-0.4867163270347482
3186		0.09566937229607048
3187		0.6979752784139948
3188		0.7342175991159073
3189		0.4038083249030083
3140		-0.2583639341671254
3141		-0.11179599047020228
3142		0.6581484068448129
3143		-0.953684427087872
3144		2.32174956172434
3145		-1.6178823312724269
3146		-0.5790284551597911
3147		-0.37198892592772226
3148		-0.6107490857251213
3149		-1.224022437941778
3030		-0.30945739921686793
3031		0.058010098311784594
3032		-0.956820190542453
3033		-0.4716057021850587
3034		0.9229531807303631
3035		1.3795133107112074
3036		-1.3503205503696085
3037		0.489401902765227
3038		0.20857645414165288
3039		-0.7159557521110457
3060		-1.285176008623179
3061		-0.31317067498065165
3062		0.8579339452239745
3063		-0.49503764041455295
3064		0.36933143171336547
3065		-1.2123443482627883
3066		-1.3280937326429358
3067		-0.9522995313841195
3068		-0.3173559119113057
3069		-0.8965637603929314
2880		0.33816071952629123
2881		-0.6173081310485743
2882		-0.5819372963236075
2883		-0.04265919607181146
2884		-0.3907277440304248
2885		-0.08589781139664728
2886		-0.2100625437024073
2887		-0.5453194172280443
2888		0.05715693210885937
2889		-0.37660640461655487
3050		-0.4003181948703
3051		0.09840586766697139
3052		-0.11443742192484618
3053		0.9609590049132535
3054		-0.38251368392235663
3055		-0.4942486902731587
3056		-0.8848717025979712
3057		0.8016003425359017
3058		-0.6303776129270255
3059		0.29265222197299173
3010		-0.026331475201629297
3011		1.0294595921551581
3012		0.4644088928644418
3013		-0.2830066779814584
3014		-0.2639965601502397
3015		-0.5894629496834798
3016		-0.3049030247977975
3017		-1.2327201971413975
3018		-0.39574844388479474
3019		-0.509000210511184
3160		-0.6734358505504406
3161		0.7961801423497135
3162		-0.8770112016352463
3163		0.001591755907320579
3164		1.197984522901711
3165		-1.5873296468844516
3166		0.37815721530312724
3167		-0.04026803492509945
3168		-0.23098176062698497
3169		-0.4449131613795831
2970		-0.040665939521387647
2971		-0.4888824483275303
2972		-0.3937954310150271
2973		1.122840949066201
2974		0.14089470862589945
2975		-0.8313621497437497
2976		-0.10164950161955
2977		0.9186681792410976
2978		-0.36522064799179205
2979		-0.21842823684528792
2870		-0.6029070063856651
2871		-0.6420756833232323
2872		0.8023580307456188
2873		-0.4822114014076661
2874		-0.7161505121627625
2876		-0.42481098703407016
2877		-0.23536507135330764
2878		-1.1257091562623565
2879		0.5697828255861674
2960		-0.8870391478375661
2961		-0.005664865089767404
2962		-1.057260545194342
2963		0.5792194853986603
2964		-0.47777637990294136
2965		0.5142722796407572
2966		0.41257887944817356
2967		0.2086275664748786
2968		-0.8546660012707228
2969		-0.37158098389002314
2921		-0.8132701690988087
2922		-0.3937776426798032
2923		0.11297173668811843
2924		-0.5857129018834468
2925		-0.758643139546054
2926		-0.3600431231065396
2927		0.2768715774234768
2928		-0.04965827614990459
2929		-0.24902864381290407
2630		-0.6469065101268558
2631		-0.13205326486855443
2632		-1.0413025603124932
2633		-0.577347983352419
2634		-0.43838426596621477
2635		-0.25271625791263014
2636		0.5427695455864242
2637		-1.732054272153576
2638		0.9057594007270634
2639		-0.7764767477020981
2950		-2.6958511065601622
2951		-0.32002680110450477
2952		-0.37629842364181454
2953		-0.677343657812807
2954		-0.9714406631449376
2955		0.10221763587499721
2956		0.23046219971338916
2957		-0.412186997560474
2958		-0.4039541551603593
2959		-0.6338276206329369
2980		-0.9584684601482351
2981		-0.10833747412108764
2982		-0.8245611737902058
2983		-0.7013922488316967
2984		0.2872640880164666
2985		-0.4412450429871008
2986		0.4254550814070224
2987		-1.7878234805014743
2988		0.029116986843228568
2989		-0.3849223193814789
3070		-0.1150879726264331
3071		-0.7785090819203154
3072		-1.3268110875434667
3073		-0.6014961549931339
3074		0.09444221067612087
3075		0.23132311219955
3076		-0.875159639054909
3077		0.8453320501682127
3078		-1.0534936091669884
3079		-0.748802444025602
3110		0.3810223948166355
3111		-0.42396953168606755
3112		0.06068782427526211
3113		-0.4970936518014879
3114		1.4358370047589293
3115		-0.8794242472908935
3116		-0.2245663474260048
3117		-0.8809481175292634
3118		0.16376195379772132
3119		-0.5036580995105011
2830		-0.7381013768498497
2831		-0.3314693594960924
2832		-0.7961768116656726
2833		-1.2926198151690493
2834		-0.17191251393505042
2835		-0.02816736115579248
2836		-1.0438176546229647
2837		-0.4594156847760226
2838		-0.6094702479802151
2839		0.25403951547012654
2840		-0.5802043546249848
2841		0.7564713722915722
2842		-0.0555023777355675
2843		1.3952727892213188
2844		0.4233480625256908
2845		-0.9292311956189597
2846		-0.6908203943170421
2847		-0.8353165199925736
2848		-0.7398247752464578
2849		-1.2196089193840671
3000		0.6683661476270971
3001		-0.21420838392765504
3002		-1.0018874013135233
3003		-0.8955794982164197
3004		-0.1653724075761658
3005		0.5020986026499649
3006		-0.058227395378392256
3007		-0.5821447686004728
3008		-0.2510952113338533
3009		-0.18563209460352711
2890		-1.3612050514024885
2891		-0.26845357801903225
2892		-1.2393226887537112
2893		-0.607208121620125
2894		0.3076765227836481
2895		-0.740298243976808
2896		-1.5905449475591606
2897		0.4206352236081448
2898		1.2497609883585559
2899		-0.011401110400141818
3080		0.24188148333903445
3081		-0.3741546484060486
3082		-0.23476775108367284
3083		-0.21957427182595102
3084		-0.114864025020542
3085		-2.149644571919637
3086		-1.3961662602145029
3087		0.7304816671636192
3088		-0.31887830118821875
3089		0.5378940705015104
3120		-0.55962342995728
3121		-0.5755414427628673
3122		-0.8451676191612251
3123		-0.08395831322474691
3124		-0.18262805079987193
3125		-0.866800347544238
3126		-0.48802779737358426
3127		-0.759043391344169
3128		-0.3786208883396521
3129		-0.627532294993792
2850		0.2358950385772271
2851		-0.2664636743344169
2852		-1.087185624333327
2853		0.08533483450925093
2854		-0.5297669565469775
2855		-0.15597725001295154
2856		0.48560751227350657
2857		1.683033848242129
2858		-0.49273232046423676
2859		-0.7433399078660364
2910		-0.24015028698693267
2911		-0.367986805185495
2912		-0.431620274034657
2913		1.7578263063490347
2914		-0.193875895750234
2915		0.15867921924818149
2916		-0.012173761504990516
2917		-0.41514174265728065
2918		-1.0429844130605306
2919		-0.4602270176193638
2900		0.17778031033329866
2901		0.1447626968797524
2902		-1.3481410991392777
2903		0.6473268022855038
2904		0.5687809093095033
2905		-0.5390737642562559
2906		-1.5499494000921166
2907		1.0269712085736002
2908		1.0220739470322993
2909		0.05180896843168318
3090		-0.418159784431318
3091		-0.0294380184596744
3092		-0.43483137322357485
3093		0.029080706089230083
3094		-1.4311918902943834
3095		0.0780996856460283
3096		-0.9708965467797079
3097		0.2939968944413395
3098		-0.6214127293829002
3099		0.03525100835429205
3020		0.3711139016797508
3021		-0.08022160508640731
3022		-1.7153758530826588
3023		0.357745067256238
3024		-0.5549142873715597
3025		-0.41860312007876893
3026		-0.14593695083894617
3027		-0.9271999231069366
3028		0.31053284536617937
3029		-0.17442561145725666
2940		-0.09254543599727107
2941		0.09514236764187355
2942		-1.234109195327684
2943		0.2626510772392024
2944		-0.37786896066674097
2945		-0.47720471240596923
2946		0.018933564102767638
2947		-0.19887506053434892
2948		-0.4195479737935853
2949		-0.16191157660049543
3500		-0.6097590207224577
3501		-0.34619621538757706
3502		-0.9330612912799552
3503		-0.06467206465239904
3504		-0.9329425971066408
3505		0.13278914259856445
3506		0.46692342274742504
3507		0.11829357288190419
3508		-0.46809136861498657
3509		-0.9716785916128164
3850		-2.431834890295308
3851		0.7092987719649353
3852		0.04800487100836277
3853		-0.5642233638648108
3854		0.24424273459266957
3855		-0.9270999461632387
3856		-0.6648170217562616
3857		-0.08043427645034558
3858		-0.1518307359435204
3859		0.5584370362137793
3220		-1.0132010536931415
3221		-0.24265113089595977
3222		-0.0007174635784123523
3223		-0.42142787695140504
3224		-1.9906528153911742
3225		0.1263384128592703
3226		-0.5120130814695014
3227		-1.42187905646497
3228		-0.5080799686380446
3229		-0.37971065922365543
3450		-0.6513513360121532
3451		1.6536033968237769
3452		0.1681039473272778
3453		1.292667129186316
3454		-0.35890907180859616
3455		0.4111321735506735
3456		-0.4043334032397393
3457		-1.39960275748205
3458		-0.0018129605756679506
3459		0.012376066766816119
3820		-0.6237945348251692
3821		-0.6368793928904904
3822		-0.40235566737251544
3823		0.4382184269562233
3824		0.7947010885056932
3825		-0.19153079338079532
3826		0.19293133263407983
3827		-0.08096983483617147
3828		-1.850646434074367
3829		-0.4094818781054651
3680		-0.06487827322077656
3681		-0.38141894469292364
3682		-1.577890083715702
3683		1.2442821221566862
3684		-1.0676074661973463
3685		0.8372471864522324
3686		-0.17077634911887407
3687		0.6702537462246592
3688		-0.6004448045620744
3689		-0.8750729293819536
3810		0.5973337989259903
3811		0.4640517505694843
3812		-0.862020397249341
3813		-0.5379862434394809
3814		0.7098679250219315
3815		0.9514521843038793
3816		-0.2428331709456363
3817		0.3026418424599136
3818		0.3259152730848095
3819		-0.2167799990992773
3300		-1.126567410826626
3301		0.15755707833169896
3302		-0.3522272456570746
3303		-0.7965044400613672
3304		-0.230508128509154
3305		0.18451920592325666
3306		0.07890200487471269
3307		-0.5160691668553159
3308		0.5296743260019764
3309		0.4023818185297932
3651		-0.14364801602131005
3652		1.4780259775923181
3653		-0.6368709898608091
3654		-0.7996534823979042
3655		-0.35401637414882986
3656		0.323764905096008
3657		-1.0888963698431744
3658		-0.40253916478693297
3659		-0.4376078236754265
3550		-1.201128980877175
3551		0.6907183809198022
3552		-0.9844664617398958
3553		-2.4075245824178
3554		-0.3911513197671394
3555		-0.5980924983127288
3556		0.43346936423624216
3557		-0.8482901549116352
3558		-1.719551724885065
3559		0.17918483252502673
3380		-0.704931555191469
3381		0.11380623143304797
3382		-1.0434690703052456
3383		-1.0524196163869317
3384		-0.49021795963053777
3385		-0.507296414996293
3386		0.759199602590459
3387		-0.6845993976863769
3388		-0.3459497465839665
3389		0.9069923349667967
3170		-0.17197788943209563
3171		3.3437482502173284
3172		-0.5734266538029109
3173		-1.4806638124589946
3174		-1.0335915724457418
3175		0.04034488108593737
3176		-0.15825329113731257
3177		0.10910523243224463
3178		-0.3137582363660258
3179		-0.1090401525199234
3870		-0.578018493442235
3871		0.1161878352614966
3872		0.7608978003988495
3873		0.13997071007958523
3874		0.35359726763457483
3875		-0.7111016722348391
3876		-0.47059232051983113
3877		0.07139992885494463
3878		-1.3094193028260213
3879		0.9767471490322468
3610		-0.8317416823807581
3611		-0.16107804630192862
3612		0.05546946866772898
3613		-0.9067474218489059
3614		-0.9258133803644907
3615		-0.059955251091925295
3616		0.7799650651565779
3617		0.08679621329432802
3618		0.7250680333899909
3619		0.11069444350051712
3880		1.5498478759898193
3881		-0.8326911928830487
3882		-0.2050396558727845
3883		-0.9403353559352948
3884		0.773663266754403
3885		-0.20388495273928306
3886		-1.2805510250202827
3887		-0.23514769306840794
3888		-0.8083353775221634
3889		-0.6364713531531473
2860		-0.541096994068068
2861		-0.1286367558889539
2862		-0.7341870538359153
2863		-1.093844490575565
2864		-0.3070974132172171
2865		-0.3213892886932456
2866		-0.8414237898702485
2867		-0.8978345268621313
2868		0.37664154214729595
2869		0.16845690384234693
3950		-0.9183721422109424
3951		-0.8523482292592764
3952		-1.4866425169965447
3953		0.1213231283850589
3954		-0.5452398748644022
3955		-0.834176660443419
3956		2.6509999711892553
3957		-0.5976900028783849
3958		-1.196683182789719
3959		-1.0373853307433656
3530		-0.15279597967303224
3531		-0.8653264828191485
3532		0.48987736082745315
3533		0.853381345031053
3534		0.03691180808183752
3535		-0.7563756718760043
3536		0.09320851544418521
3537		0.4102911140838676
3538		1.0464261642154604
3539		-0.07007250522119131
3660		-0.7867317077668019
3661		0.16967729641841817
3662		-0.4406516566564569
3663		-0.8168960765891335
3664		-0.5616219044146372
3665		-0.9150597851416322
3666		0.39790857065932167
3667		0.2621016691828461
3668		-0.5390891513979046
3669		0.32873709260438133
3700		-1.0769223140450226
3701		-0.06182161091474976
3702		0.32553806720151085
3703		0.10954467239883935
3704		-0.10201094308722647
3705		-0.5634997691458631
3706		-1.3723934364476418
3707		-1.1607583488767816
3708		-0.2747956156179165
3709		-0.8469686217957215
3340		-1.0983175349647236
3341		0.8178878367404162
3342		-0.31552209226661715
3343		-1.259205776279009
3344		-0.7602818292374203
3345		-0.593282136624422
3346		-0.5745989608888938
3347		-1.0633521478809131
3348		-1.1092397399584595
3349		0.17584991073174236
3830		-0.8903600563301238
3831		-0.13666314811930894
3832		-1.178979997829148
3833		-0.37629419249529816
3834		0.6190424524178438
3835		-0.5041285679044208
3836		-0.24021386948842505
3837		-0.931256082987219
3838		0.6332878291911005
3839		1.5196924273930412
3410		0.5563951304568844
3411		-0.5428407106222539
3412		-0.7579859619472856
3413		-0.4641389938432806
3414		0.7790117930102126
3415		0.5939478306834473
3416		-1.2175809624613896
3417		0.49309625133968693
3418		-0.5629067447343675
3419		-0.7936146461046727
3760		0.0923003373934664
3761		-0.557787390258877
3762		1.1984047863132217
3764		-0.6514506397986664
3765		-1.1832049296555358
3766		0.003399781730476286
3767		-0.4924248467604266
3768		-2.432433379153973
3769		-1.6608672898885524
3570		-0.39366645376042014
3571		0.9093425244268385
3572		-0.3265762208830983
3573		-0.2363928189133689
3574		-1.0518475638577969
3575		-0.1283010985002796
3576		-1.4693166997576121
3577		-0.20211577412841084
3578		0.3176840425500291
3579		0.22886695281401162
2820		-0.5108290436688577
2821		-0.6331398613620971
2822		0.0881846907171959
2823		0.3835039576684194
2824		-0.003830886914926761
2825		-1.3221504122975736
2826		-0.8904059486145369
2827		-0.8935342714095823
2828		-0.9902676588232856
2829		-0.39380626303092364
3790		-0.4398006032529202
3791		-0.9671159096182197
3792		0.06625045528388943
3793		0.10874822414398524
3794		0.13523982531872275
3795		1.1226553789768783
3796		-0.4334574245255888
3797		-0.0019854830087641918
3798		-1.6086329640655377
3799		0.6042575170790807
4000		-0.6900373085281426
4001		-2.546314158316086
4002		-1.1780377703202616
4003		0.6706222500996581
4004		-0.4359657738179716
4005		0.3474613270515015
4006		-0.6647850359076076
4007		-0.48488796304257353
4008		-0.27677162769143104
4009		-1.5096636162648571
3590		-0.3347618535022706
3591		-0.9330514587309805
3592		-1.016575642959884
3593		-0.5047997866678633
3594		-1.2738130836973138
3595		-0.880220180807595
3596		0.13126822657602585
3597		-0.0782560387530219
3598		-0.241017086470445
3599		-0.6301666574330075
3460		0.08338671575179035
3461		-0.520585565123248
3462		-0.7841917639375405
3463		-0.5157365342615097
3464		-0.2315167674606025
3465		-1.7893845639953094
3466		0.23784425842898824
3467		-1.1586620525260136
3468		-1.3135287657886403
3469		-0.5986890298329546
3270		-0.6320201678162771
3271		0.8373297103497545
3272		-0.6560420031661232
3273		-1.3404649130086992
3274		-0.482850316994587
3275		-0.6954171709910592
3276		0.7326282301309942
3277		-0.13447209198133983
3278		-0.22188122015790784
3279		-1.4366063322728098
3980		1.1023879077793584
3981		-1.425535522251329
3982		-1.133485831730456
3983		-0.0702632317792788
3984		-0.5470685276581563
3985		3.342248526294573
3986		0.6036810755244751
3987		-0.3356327329076969
3988		-1.0300954620956877
3989		-1.156799248929313
3640		-0.278377585177684
3641		0.011970598721057792
3642		-0.8350030793902801
3643		0.028745557039783362
3644		-0.9482528037773805
3645		-0.10112663553544379
3646		0.009694242097299733
3647		-0.9039316384990989
3648		-0.7856497515892877
3649		-1.0786583751281156
3750		-1.141250965057616
3751		0.049190211549412895
3752		-0.7344851280702369
3753		0.457627857284435
3754		2.341109547856885
3755		-0.5641723725217385
3756		-1.1430086489019613
3757		-1.12951559086915
3758		0.2719208366459933
3759		0.5546055786698144
3560		-0.07235373459878856
3561		-0.6956203421119697
3562		-0.6518067242924672
3563		-0.9643999954967
3564		0.8433600369981628
3565		1.248744989957467
3566		-0.9391081755644829
3567		-0.32006695672121965
3568		0.05404873612184777
3569		0.09492109682554141
3670		-0.6491362805503264
3671		0.20779162214397875
3672		2.3382646215517613
3673		-0.9032171473240861
3674		-0.5003441468905009
3675		-0.24395658571034295
3676		-0.23037353612559752
3677		-0.19592473500573046
3678		-0.29657014072965526
3679		-0.4881539714036812
3210		-1.0761237618763952
3211		-0.46613799905908604
3212		-0.26342885063543686
3213		-0.7345675476643609
3214		0.022645278495453707
3215		-0.684579500503504
3217		-0.8208165845767554
3218		0.3389273413830243
3219		-0.024464703713246876
3860		-1.0505861827992067
3861		-0.5616673469990585
3862		-0.9211016777859308
3863		1.0483594187405956
3864		-0.3697885137923979
3865		-0.26237400567332386
3866		-0.34396819481177787
3867		-0.19547378654463732
3868		-0.7578028264030113
3869		-0.054688831304424194
3710		-0.3563081413766977
3711		-0.14682974291913575
3712		-0.767323907706988
3713		-0.4825290825847402
3714		0.11710022539901242
3715		1.7684739463727412
3716		0.5277184627554565
3717		0.1888208351174061
3718		-1.2233316241158887
3719		0.1443147342614545
3690		0.03502285847843401
3691		-0.06245028750021205
3692		0.46493318616521845
3693		0.42741725954399645
3694		0.37034649820747395
3695		0.6157541512464816
3696		0.8186708296939192
3697		-0.6154660391418015
3698		0.3043940607094788
3699		-1.436626366401074
3630		1.358945026602577
3631		-0.4935476717195601
3632		0.24127256792265947
3633		-2.6122956628076284
3634		-0.7476338196039359
3635		0.9116655717712177
3636		0.2118049220455984
3637		-0.9792758020712402
3638		-0.7083439565135968
3639		0.885350720458406
3970		0.49928704857252143
3971		1.2582421859766781
3972		-0.4808231842537941
3973		0.5442174255617078
3974		0.04640432142996936
3975		-1.0557767667977438
3976		-1.1334134889796026
3977		-2.5838593567266326
3978		-0.3809809229254371
3979		-0.4456986666822702
3100		-1.0883113060003309
3101		-0.8404538817349458
3102		-1.991936422417737
3103		-0.26581416190448126
3104		0.4224280130314147
3105		-0.4267134809095123
3106		-0.5689854219102105
3107		-0.5448949341219805
3108		-0.5335533068397424
3109		1.2406519858717089
3940		-0.6008255583729449
3941		-0.028063499324923517
3942		-0.24674451316881701
3943		-1.056421840603665
3944		-0.22591072533296608
3945		2.063556488115047
3946		0.17913649231295117
3947		-0.4269781239628664
3948		-0.5108048270553289
3949		-0.7928220274501854
3520		-0.9718296647198601
3521		-0.3244778545269872
3522		0.4760292509393305
3523		-0.2401744649009289
3524		-1.2704829189936893
3525		0.470440751069115
3526		-0.007933185581839941
3527		-1.3163201096896435
3528		0.5875454891951547
3529		-0.9326981186064589
3430		-0.39724528682795945
3431		-0.4077357520515071
3432		0.68919888832278
3433		0.07999393959450928
3434		-1.0395387055165624
3435		-0.7143079904987064
3436		-0.39502257679607045
3437		0.24576032670319217
3438		0.07190599567463703
3439		-0.9198075944950068
3290		-0.0030568469121264206
3291		-2.0443157157939584
3292		-0.21624916718547602
3293		-0.6418962349529457
3294		-0.879632640737117
3295		-0.782976029711037
3296		-1.278166338616573
3297		-0.010041668333804033
3298		-0.23079254529391222
3299		-1.472794996092012
3280		0.3475093272722011
3281		-1.2649474391915965
3282		-0.6928876995198218
3283		-1.2460048946316216
3284		-0.9244063048757393
3285		-0.41824865971817693
3286		0.7836281529101294
3287		-0.005591784022157998
3288		0.06137539370332978
3289		-0.6746647671739832
3600		-0.3218870841442566
3601		0.24035480780443985
3602		-0.9303851030090847
3603		-1.135723629560198
3604		-0.14352524369203476
3605		0.1738289386056294
3606		-1.356408407455541
3607		-0.9725565419068409
3608		0.2627250896242198
3609		-0.46109350535743443
3620		1.0812400097035548
3621		-0.5519321389350114
3622		-0.34538679536497957
3623		-0.18788287766077832
3624		0.1760697168543953
3625		-0.32239359972189296
3626		-1.150574552608343
3627		-0.9264759873830056
3628		-0.8877109258463403
3629		-0.26307743654136695
3350		0.1291921966891865
3351		-0.10624909659780159
3352		0.4550307616826104
3353		-0.8675943199875609
3354		-1.1351372107811482
3355		-0.6135177027094215
3356		-0.12711332150200108
3357		-1.246166946372083
3358		-0.28510419529719855
3359		-0.6420636431649185
3840		0.12215246229103023
3841		-0.7224789053186818
3842		-0.34262778080252904
3843		0.6060018724591226
3844		0.1951412356376966
3845		0.39960598144297055
3846		0.0072917756441046155
3847		-0.6943146079970719
3848		0.4718703030993494
3849		-0.06633541208277453
3580		0.057563716649751656
3581		-0.6052849894682747
3582		0.8290764875703543
3583		-0.013901890709293277
3584		0.5357112504721405
3585		-0.39151937615081117
3586		-0.24514250973888246
3587		-0.45988287695020763
3588		-0.37287875671900367
3589		0.3693355495980618
3261		-0.19028286472862813
3262		-2.1012352721178864
3263		-0.8672100914754027
3264		1.623208900731594
3265		0.003391490612184058
3266		-2.0348562209685443
3267		-0.5997166985614245
3268		-0.03044159394419734
3269		0.24075006278847771
3470		-3.420838180979578
3471		-0.13276177374424109
3472		0.15689488753616776
3473		-0.6425727829833623
3474		-0.6393497822950064
3475		1.8148308548011416
3476		-1.002256896876924
3477		-0.45865623010329465
3478		-0.979287886292107
3479		1.220324304338929
3240		-1.1106206122889903
3241		-0.6963483827532767
3242		-0.9818737362112532
3243		-1.2888591192095784
3244		-0.23264841498179936
3245		0.4057179583458948
3246		-0.5946998644838228
3247		-0.5051177707008028
3248		0.16600315129762194
3249		-0.9683068503336142
3720		-0.26117996194443327
3721		-0.014005740413770965
3722		1.1397716773814857
3723		-0.5573112826135711
3724		-0.16340868482983395
3725		-0.37626196820962876
3726		0.47265632154475407
3727		0.25930654115350094
3728		-1.2969096036053849
3729		1.79251492337327
3900		-0.19422335512096703
3901		0.46643866414385315
3902		-0.7273738509976527
3903		-0.31084091170261796
3904		-0.2763981770687343
3905		0.7475710358388453
3906		-1.276697826497629
3907		-1.4577947856441111
3908		0.04786300644304024
3909		0.6712078487967319
3320		-1.6968000603359918
3321		0.6187092806413246
3322		-0.3490816450973108
3323		-1.3698304022999872
3324		0.4132968281650746
3325		-0.06788098128459874
3326		-0.03653068672922018
3327		-0.06728799864848714
3328		0.6996336773743531
3329		-0.06047611379534806
3960		-0.8302400558348335
3961		0.43740357925769735
3962		0.7078023989696404
3963		-0.990739804937142
3964		0.1301081742217957
3965		1.221015726791778
3966		-0.041873629001633564
3967		-0.12087688183559872
3968		0.9905447093720927
3969		-0.04793689962797069
3330		-0.9735894043697644
3331		-0.09914155646431565
3332		-0.9029618720999496
3333		-0.6745871622440532
3334		0.3921831820806518
3335		-0.07557833730534505
3336		0.7156688660619739
3337		0.9002704798384522
3338		-0.5745861355858157
3339		0.5876518739401392
3540		-0.7420609894243324
3541		0.6848202655240481
3542		-0.05447241634311125
3543		0.8229479163180886
3545		-0.2741089324807573
3546		-0.8133916147860543
3547		-0.6720010888041573
3548		-0.05332499482462485
3549		0.6564990105292938
3490		-1.1043435248404347
3491		-0.30200744383539163
3492		-0.4751768513214933
3493		-0.19601654709065966
3494		0.11772825469866584
3495		-1.0684819918892576
3496		0.5516377500866502
3497		-1.0685950036442953
3498		-0.6541954326769143
3499		0.6534749697823435
3740		-0.711646191423477
3741		0.5150587541870697
3742		-0.7199219405685267
3743		-1.5795003468965347
3744		1.1005152987302298
3745		0.13669075509334827
3746		-0.15409092314127923
3747		0.15855428897896295
3748		0.8211577226199082
3749		0.4330691077110014
3800		-1.004299299021411
3801		0.13896248382780158
3802		-0.2551901842207792
3803		0.6333381976765983
3804		-0.03314432679833366
3805		1.3699088851498422
3806		1.0925971517038795
3807		-0.8218793311512606
3808		0.3111426867382744
3809		-0.2767511296835193
3480		-0.12203661171676654
3481		-0.0030766552465587393
3482		0.7585973743220814
3483		-0.3971403309232526
3484		0.1641300513595006
3485		0.14533463937341498
3486		0.35994363112326533
3487		-0.021540929852565317
3488		-0.7429278661657979
3489		-0.2510324846444236
3440		-0.003699527531928258
3441		-0.12022140417213174
3442		-0.19836175906298245
3443		-0.31337896757103473
3444		-1.4404180316541997
3445		0.7291548197779189
3446		0.4177104881678677
3447		0.9210495856911693
3448		-0.04962285844113003
3449		-0.10265544328264771
3230		-0.8842640657566928
3231		-0.4123419112169891
3232		3.3469419470672896
3233		-0.12330279600231266
3234		-0.4006887376654383
3235		-0.33072025634492414
3236		0.05318657097043971
3237		0.025294638030166464
3238		-0.8795695466776693
3239		-0.8189560457275108
3360		-0.924757697696093
3361		-0.4540225217712433
3362		-0.7374986446557046
3363		-0.6885099605675223
3364		-0.8002895057975072
3365		0.5405535739559076
3366		0.16426793597683842
3367		-0.7335300825122791
3368		-0.49772135356069336
3369		0.9208352020178431
3910		0.109715014870892
3911		-0.5995849625609997
3912		-1.2299436432870785
3913		-0.30889362608742427
3914		-0.4415232267238536
3915		0.4674952950079757
3916		0.4534009256387166
3917		-0.5688168234880325
3918		-0.8424385449883279
3919		0.8275199792932826
4020		-1.0777065957422924
4021		0.18753793160035467
4022		-0.4697064504923918
4023		-0.8321589834155647
4024		-0.0734487007261125
4025		0.9100795398531647
4026		-0.06501223105042313
4027		-1.915039405359058
4028		-1.3633505489828324
4029		-0.3276064185359067
3780		-0.9057328236274288
3781		-0.175295599774572
3782		-1.1526757363668731
3783		0.2978336204686722
3784		-0.14617429988268127
3785		-0.799612234529852
3786		-2.244177674652944
3787		-0.7063242986445715
3788		1.2684667916361991
3789		0.3229595441702641
3990		-0.6170629871093305
3991		0.024080622917327727
3992		-1.2737715108046523
3993		-1.7544351349815899
3994		0.7035313973777905
3995		-0.6914589412402158
3996		-4.092449407908409
3997		-0.5183174657063018
3998		-0.9896442099777152
3999		-0.8983254461969418
3190		-0.37225371389318596
3191		-0.5036290521255146
3192		-0.5000736316604715
3193		-0.3310965760800467
3194		-0.321465630219616
3195		1.4530602627589686
3196		-1.0220872632231948
3197		0.38374180186027806
3198		-0.3878299251157415
3199		-1.3887595617787731
3370		-0.9842494717695611
3371		-1.0533117752135903
3372		0.8749078059692927
3373		-0.9116037763446355
3374		-0.988953919266293
3375		0.11980965801463271
3376		0.7483982982346945
3378		-0.42661044025991995
3379		-0.9906395652780371
3890		-0.0453687694928409
3891		-0.011847846765086798
3892		0.42978566330273826
3893		-0.15073585278673607
3894		-0.5912198324564407
3895		-0.13294302071798578
3896		0.6479701393469002
3897		-0.6893643457257521
3898		0.38380860505677394
3899		0.21635358314008185
4010		-0.7439555649896914
4011		-1.0502864107008876
4012		-1.3035116214214275
4013		-0.6374965564092154
4014		-0.028441768910453264
4015		-1.1994058001411734
4016		0.7344190664190922
4017		1.6054883532660185
4018		0.2052491050367239
4019		-0.9339299389035489
3310		-0.12883139376939923
3311		-0.35160037224854834
3312		0.5742032025451237
3313		-1.422154716002828
3314		1.1568476510479007
3315		-1.017281428369135
3316		-0.3071552311241774
3317		0.2565913348762009
3318		-0.26288648588585767
3319		-1.1317355521352226
3400		1.4131026622545284
3401		-0.38299320875449705
3402		-0.3824366417240713
3403		-1.6108913806974385
3404		0.032865490933682406
3405		-0.23487535131291712
3406		1.146235090081042
3407		-0.3211343996876199
3408		-0.3337979618432529
3409		-0.7416030681152068
3920		-0.561648801399823
3921		-1.2264846573220716
3922		0.46065005496320977
3923		-0.5728311810157601
3924		0.70508758543753
3925		-1.125686121525144
3926		-1.0717683839931336
3927		-0.34213026588183154
3928		-0.8530695891383142
3929		0.9262080902420141
3040		0.1526747108778256
3041		-0.18218157826873688
3042		-1.1781577364331897
3043		0.49708084568451205
3044		0.011014502610968467
3045		1.0893362419006012
3046		0.5043594975994027
3047		-1.2285505035642457
3048		-0.43901655849449955
