0		-0.8489670184411205
1		-0.8220324324731931
2		0.9426952192862601
3		-0.26893984675084287
5		-0.09263871839339459
6		1.358410323740886
7		0.07644749641941241
8		0.16792847276553932
9		0.28670085534579093
1		0.04926311236860657
2		0.05001079343231439
3		-0.2991851784391786
4		-0.06143198962746841
5		-0.4736372700241776
6		3.102288529729004
7		-0.5380522289364388
8		0.2536185697080326
9		-0.05303426783531919
10		0.7821348278740331
3		-0.18951017318336005
4		0.3048661416280074
5		-0.18135029616452655
6		0.2634764662166449
7		-0.4561953137051241
8		-0.3018493593539584
9		-1.3626550395012293
10		-0.5631812813779751
11		2.0022194045906425
12		0.7302094110402433
4		-0.7206414599396341
5		2.3330390311539055
6		0.7674998294733236
7		-0.43679082974544703
8		-0.44621360111037167
9		0.011849471433607844
10		0.37228959597486183
11		0.2250437267424169
12		0.1878910240234041
13		0.29471823901789496
5		0.5377276078680602
6		0.13901266551731867
7		-0.15200195696452917
8		0.5181260422468358
9		0.09800539229094327
10		0.5149937002969434
11		0.7289137983074762
12		-0.03459687774192699
13		-0.741107693858238
14		0.7184319561051699
7		-0.8607246462885233
8		0.03845881080281994
9		0.10931523920980014
10		1.5388998386336143
11		-0.09914513135491025
12		0.4427616211395351
14		1.9524883059717997
15		0.6578774527588358
16		0.032566098060074405
8		-0.3660585796306635
9		-0.15865373359204935
10		-0.31303655980783535
11		1.6708909999559793
12		-0.36273789629593933
13		-0.34382531424324897
14		0.03391039790125743
15		-0.28950547964865797
16		-0.9991729978241932
17		-0.23585242847202229
9		-2.753511781131983
10		-0.29514660431550277
11		0.18773728446636356
12		0.11228636436936765
13		0.40627475422379744
14		0.014684766729159726
15		0.4951689675806817
16		-0.6326973897291723
17		0.27717942980074556
18		-2.935691672074507
10		0.21364729423172496
11		-1.1861177901440991
12		-0.40126132169427814
13		-0.8993517179140612
14		1.5354880811559832
15		-1.0819307545848393
16		0.10208442249217806
17		0.663123589925365
18		-0.3931979895122755
19		-0.30234257515838525
6		-0.29974170409475126
7		-0.6022746299990781
8		-0.37782791488608114
9		0.34412148043952434
10		0.9809468532385514
11		-1.3560803559082255
12		0.33905055269391443
13		-0.3563574854250164
14		-0.8891676860361571
15		-1.2582890872163788
12		-0.05922780063684811
14		-0.41176429427223726
15		0.06463681223765448
16		-0.03745025392878242
17		0.07373454445626208
18		0.304040557275603
19		0.17181659741640615
21		-0.09466840581923773
11		0.1747918335215697
12		0.8596675039622098
13		-0.4780145616551622
14		-0.8003104997758138
15		0.05969812260863584
16		0.11248877685250518
17		-0.0994193899103582
18		-0.15947492437813754
19		0.7824764321211891
20		0.4174257203611278
13		-0.4441818427880223
14		0.9138674413632292
15		0.6735884277890307
16		-0.848189258980863
17		1.071434651237671
18		-0.6033760698708652
19		-0.7096845324178558
20		-0.20642696481912803
21		-0.028771223243130008
14		-0.7042577070002384
15		-0.03173473307801452
16		-0.267837515658706
17		-0.1264218266181487
18		-0.006964629568945658
19		-0.03639181387636248
20		0.8665409607630858
21		-0.016964106869279544
22		-0.510846794174403
23		-0.12162401238557956
15		-0.5001526490566137
16		-0.7986508604446881
17		1.58808961241333
18		0.3239663900716579
20		-2.0885863974814383
21		0.2652909493646145
22		0.057422459869945576
23		0.8613429738349188
24		-0.2988912915431222
16		-0.26689151718942605
17		-0.6326154049978401
18		-0.29313345770390026
19		-0.6495156038402233
20		-0.32292188070284294
21		0.8115937928859468
22		0.004930826210004783
23		-2.093707392159067
24		0.7041362999249621
25		-0.15127701349989922
17		0.7080307684288132
18		0.25486433749087334
19		1.5161669467002061
20		0.0017219358493515073
21		-1.5631933909807836
22		0.7521728247644041
23		-0.5833596983208955
24		-0.2824050284020477
25		1.1427257958551054
26		-0.07011371460329836
18		-1.119334759765556
19		-0.5917216164773706
20		-0.2720069972670566
21		-0.5472408754723371
23		1.0085206599212624
24		0.03624851192544065
25		0.13875296416198352
26		-1.9135859788726175
27		0.19932010228340952
20		-0.7628077961917844
21		-0.32509535775217535
22		-0.10639685852266861
23		0.8615195239499319
24		0.6120189485839712
25		0.1367874611566634
26		-0.5003725207452622
27		0.05115923407470618
28		-0.2642079392417862
29		-0.047337635945765545
19		-0.638075643266825
20		-0.32099858447351187
21		0.055776625995881644
22		0.5303441802017964
23		-1.1949831284272112
25		-0.569819319934197
26		0.9274817980694522
27		2.007407035389214
28		-0.11094644627425652
21		0.10290215209447706
22		-0.1990355018075145
23		0.338994602137144
24		0.16305572972741772
25		1.9214202429811793
26		0.15300387509758
27		-0.7235888124991979
28		0.2981756189867761
29		-0.4181304676346258
30		0.3508159765777394
22		0.3412340599326407
23		-0.4011100406898022
24		-0.10367129752213386
25		-0.4262083238514017
26		0.2783547991095366
27		0.22343142522197765
28		-0.28971088973613796
29		-0.1305649957326326
30		0.4798539374867181
31		-2.034737799052858
23		0.05610211504454693
24		0.2543103701757886
25		-1.9455622747133394
26		-1.0402383661181107
27		0.039788447616882404
28		0.4167673853777681
29		1.3341906175795977
30		0.33106827353689716
31		0.013518182484366481
32		-1.3358367419459956
24		-0.3515611481564431
25		0.6156496468480146
26		-0.47943715984881147
27		-0.891481777727329
28		0.2790267463396455
29		-0.7851156672709056
30		0.4075112133087844
31		-0.25536404206321134
32		-0.931860507730985
33		-0.9969055924261628
26		0.6565929274197037
27		1.9691520599003174
28		-0.5200501013895884
29		1.8977019260506216
30		0.10065550989658813
31		0.47980064599292677
32		0.026970538822294946
33		-0.7235424990158781
34		-0.5068432435225331
35		-0.30956929974454006
25		-0.631244530142895
26		-0.04186469276450086
27		-3.2343285602756473
28		-0.22615786553251951
29		0.46475341415442
30		0.7523742125513214
31		-0.05497175357419765
32		-0.6516457383733002
33		0.6020278109072253
34		-0.11692060644117204
27		1.0154831049748032
28		-0.17844029253577767
29		1.296626338214569
30		1.4757442950239574
31		1.5406331025044262
32		-0.5120905733818522
33		3.3614133155159243
34		-0.7711060896444842
35		0.5662426340142781
36		0.2513085586576218
28		0.21366059091184386
30		-0.039480099937065284
31		0.5238548297900093
32		-0.440864822506517
33		-0.4058610705562178
34		-1.2115694074617447
35		-2.9561778843067517
36		-0.2829872535396143
37		0.14650666816327854
32		0.03743437315212794
33		1.1107318625758602
34		-0.2461262333840748
35		-0.1279844652007967
36		0.8239907663426616
38		-0.45586676559823475
39		0.1577371515892586
40		0.36481689527599165
41		0.24357863236764082
31		0.12603212323744603
32		-1.4469784717891399
33		-1.176935006395766
34		-0.5882425984098457
35		2.364195561691828
36		0.6295336740040647
37		-0.8774024781386051
38		-0.4405851255372918
39		0.14222969761936113
40		0.9608005689358957
30		0.03976804975364856
32		0.11316016602161919
33		-0.7083061647132858
34		0.4201217255760784
35		0.19008893574967775
36		-0.3859245109239443
37		0.06927093135532401
38		0.1076317994885895
39		-0.022804104714284533
35		1.075942386886503
36		-1.4561220622345914
37		-0.6318613072730456
38		-0.766806225794571
39		-0.018277289798599404
40		0.6877933983920896
41		0.2827037273224807
42		0.06871753356814997
43		0.17300392097323594
44		-0.01298035994607138
34		0.2662326476188871
35		0.2618937989258702
36		-0.4455940873547707
37		-1.7753641751549927
38		-0.29521382638787763
39		-1.1572659670823955
40		0.18834194225626116
41		-0.3714176280909254
42		-1.0352747511656157
38		1.3243847697966915
39		0.6405259005042556
40		0.1482713138579631
41		0.4679816257703613
42		-0.7772461974227234
43		-1.1249554087730973
44		-0.10404722779679727
45		-0.12689395885457155
46		-2.928510831428272
47		-0.011853005575882553
39		0.2673452089158034
40		-0.007049985507343958
41		-0.5392276876382959
42		0.239291302189997
43		-0.5044127561298278
44		-1.2556208339986055
45		0.5520472867502602
46		-0.0603486813948596
47		0.47191926515302607
48		0.07244303136450907
36		-1.1909718300986822
37		0.042800948247190114
38		-0.01283029061592526
39		-2.804047757252737
40		-0.5987696171179069
41		-0.0631673779712772
42		0.4184246165072851
43		0.5920402236905912
44		0.15545883092820695
45		0.35281131955249073
29		-0.6859400244462391
30		0.5812748658977953
31		0.2558808120411035
32		0.29840816978203194
33		0.4544096719908227
34		-0.1679986073266051
35		-1.920187732650941
36		0.19132952578603563
37		0.30187672546185473
38		-0.9179701666374857
37		0.413068246920297
38		0.20897086933765155
39		1.6591991951751073
40		0.6578960202528092
41		-0.46042101909944677
42		-0.016527926192951462
43		-0.21057683193765905
45		-0.6617557002407279
46		0.8494275000956059
33		-0.39563785147058983
34		0.1208615687705925
35		-0.09552042256043325
36		0.5877950305571595
37		-0.21850938715586746
39		1.5657355832181368
40		-0.3436696278384284
41		-0.6020863404661269
42		-7.4984919978803894
40		-0.46665671889070964
42		0.6966289978215591
43		-1.250447909496993
44		0.8221807059317543
46		-0.1651825561142866
47		-1.983054304323456
48		0.07101466586637215
49		0.44675969823276956
41		-0.8172240456244055
43		0.581755012100109
44		0.34233242609905645
46		0.4011160885359207
47		-1.3021273108890223
48		0.6311293024266657
49		1.5251005473000867
50		-1.4880237610603977
44		-1.1398963859549383
45		0.5730815799390179
46		-5.790530850257634
47		0.0736187653423766
48		0.1667476075549527
49		0.3404306390520656
50		1.146840269860042
51		0.4594632863508207
52		0.564210038259911
53		0.9879705341947898
46		-0.3046269808223214
47		1.0235001132744117
48		-0.6555889719689387
49		-0.8770980641473991
50		-0.7364605052173717
51		-1.4959471544157121
52		-0.008554404845776357
53		0.8523001748492285
54		0.6147053924672681
46		0.030134750115936214
47		-0.49700438490970217
48		-0.48690445867820503
49		-0.8982884945259375
50		0.7209656864095382
51		-1.1804701026221314
52		-1.151117987947387
53		0.05991649074045296
54		-0.4522887358900956
55		-0.0891929269802918
42		0.6567337125357933
43		-0.761799098597997
44		-0.23948474939706751
45		0.6173640269175373
46		-0.27211124276020426
47		0.7131244370934535
48		0.423533162558086
49		-0.2082865090818898
50		-0.09136694080622416
51		0.16885250939656163
43		-0.41661881128703093
44		-0.3644217189155678
45		0.04894720099382682
46		0.3750777623772552
47		-0.8652304377425382
48		0.8516547451373022
49		-0.5688271864204436
50		-0.12539716881371737
51		0.9970213098847792
52		-0.5095710919295429
51		-0.0031995032430615017
52		0.886144717506023
54		-0.6948133554516485
55		0.020107616029755096
56		0.5917009485189254
57		0.28685171216473065
58		0.8839952221129972
59		-0.8922887096102075
60		0.2884238451221152
50		0.06028750776448077
51		0.8899084678929426
52		-0.3974136304003811
53		-0.3083605336230215
54		-0.060818247061364274
55		0.247888896848883
56		0.19516247814770926
57		0.4658146093761413
58		-1.5304863998341007
59		0.14218082549075975
48		-0.45301547869759495
49		-0.7650116569641712
50		-0.26677626648843855
51		2.4661529780734774
52		-0.032381493276783004
53		-1.2592177505285724
54		-1.1990584085285814
55		-1.828895987550119
56		0.3209145303176568
48		-2.4606054325179505
49		0.9486727526626679
50		-0.5587281432088365
51		-0.34617731332814106
52		-0.2789251823100283
53		-0.2575050284897725
54		0.14638986530063683
55		-0.3121845651570681
56		-1.6235694458073335
49		0.6932354789326071
50		0.19523859123529658
52		0.1660168809235222
53		0.019933525472982282
54		0.03520973731955817
55		-0.10067821440718237
56		0.3051721937718128
57		0.5409751724220747
58		-0.6707918952532346
52		-0.6440129711849452
53		0.8263821891418222
54		-1.2696998226859244
55		-0.20892099951964946
56		-0.7928960704969257
57		-0.9017303116972711
58		-0.2235225354519738
59		0.050478896097057066
60		1.966448248300219
61		0.11135975675635916
53		-0.9100504018056753
54		-1.0212201067575482
55		-0.4246131033053019
56		0.5880653842265846
57		0.24093298727827542
58		-0.04853771631506819
59		0.020874154763818185
60		0.1941081330098998
61		0.5396865136208306
62		0.28227181427309855
56		-0.1588380832773073
57		-0.41479965048069267
58		-0.5580812607184202
59		-0.04124027621332985
60		0.4278294835954938
61		-0.1522706166653742
62		-0.4568858239486841
63		0.7235078719362561
64		0.084376623563128
65		0.3078341567488649
55		-0.35827690408199325
56		0.5430121557426465
57		0.1655890315607317
58		0.8434463647197252
59		-0.08368299236186877
60		-0.02128523080255886
61		-0.05634797454980723
62		-0.11362440001366778
63		-0.2705126309891514
64		-0.22691367394584236
54		-1.257801324684054
55		0.11253379534147252
56		-0.3750062984413072
57		0.46555105679502684
58		-0.19562205774017946
59		-0.3296866946144973
60		-0.5252919459585108
61		0.3406555779067501
62		0.8305389478815937
63		-0.18732397724073296
58		-0.2489838908135879
59		-1.926898396263836
60		-0.5275892279374105
61		0.005283422895879449
62		-0.4820432800466454
63		-0.7604270334166262
64		0.06041745378665876
65		0.3745318238860565
67		-0.8571993864430894
59		0.2794981117530531
60		-0.2575815383958393
61		-1.8974123282930233
62		0.319291345996669
63		-0.3373247057854424
64		-0.07770660090243905
65		-0.06723322929163651
66		1.4719221496490549
67		0.044383764219898404
68		-0.25196924702760065
57		0.7416094263272791
58		-0.3180679087193757
59		-0.6518979964961295
60		-0.26877276676026546
61		1.7383773384098542
62		-0.633308339672797
63		-2.138170369413609
64		-0.0942951348213948
65		-0.3989127000038339
66		0.38807078448714716
62		-0.31739929843599884
63		1.3619456527443763
64		0.36590163654448893
65		0.05535679640198951
66		-0.11965534976216409
67		2.258332577482319
68		0.3431193818692538
69		1.5746136699539974
70		0.16564351077963174
62		0.36728974486404664
63		-1.7427585873588076
64		0.3019227530085467
65		0.18844426344038862
66		-0.1302539927821343
67		-0.41651263637059477
68		0.3474309460398421
69		-1.5295683557734023
70		-0.053174042063192074
71		-0.0851143982539134
63		-0.6468213350958169
64		-0.8890450208182719
65		0.1685185758945265
66		0.07758147940086474
67		0.43114826900164516
68		-1.2210948944150777
69		1.2309519662468724
70		-0.11515413532296902
71		-1.7723429871454492
72		-0.3840005124626501
60		0.3102344977532112
61		0.04647634751720994
62		-0.5669931644018351
63		0.10359441496572301
64		0.03062178509854731
65		-0.5377247835534998
66		-1.203931919944674
67		0.3198749993776347
69		0.37651766693517075
64		-0.34211613956206083
65		-0.45000123206474374
66		1.4068896476159427
67		-0.20343770249538168
68		-12.726847697946079
69		-0.6305460216868592
70		-0.9841328339051968
71		0.08325518447185994
72		-0.316636592907764
73		0.7665568553322705
68		0.1996636328137986
69		-1.488608775432817
70		0.2422563498833521
71		-0.4838544531730155
72		-0.6769957511190932
73		-0.9840504288096369
74		-0.35321007010464917
75		-1.2347339110275248
76		0.6210383493328248
77		-0.43488790034493086
70		-0.2576590110126767
71		0.6111991756790724
72		-0.9673184066325824
73		-0.7462532754128748
74		-0.09259089786517088
75		1.9867947990217767
76		0.4864466780913566
77		0.04808209338031862
78		-0.8816259862010909
79		-0.19193888402703407
67		-0.3634112271491988
68		-1.0036134746104697
69		-0.02131186049031058
70		0.4633435599978647
71		-0.39080308669264496
72		0.23007416551296472
73		0.003170900175249912
74		0.06958081788218291
76		-1.1130853913678933
65		0.35112724647721427
66		-0.28164492238885086
67		-0.2894500809590855
68		-0.20008169429424844
69		-0.1574959243128869
70		3.1939970437140235
71		0.46927135759407357
72		-0.5503310206643154
73		0.08443098921019149
74		-0.8206477122459683
66		0.44507120879564654
67		-0.11694628995599009
68		-0.07360908712231919
69		0.35662205210749515
70		0.601446141588252
71		0.20793603446260286
72		-0.2197973735426755
73		0.6253692379287988
74		-0.06123599518807191
75		0.19550547119998996
69		-0.0673706269455028
70		0.7537894539537545
71		0.1577199942232807
72		0.006244932522896469
73		0.35335264652189774
74		-0.9110011599261885
75		-1.5811759231883193
76		-0.11343578918590752
77		1.2493229381708535
78		-0.1919131147373774
72		0.1748673269666653
73		-1.2383403323424962
74		0.5430018318646744
75		-0.1042215177399785
76		-1.0044050302263614
77		0.8792329157382356
78		0.2955298941665381
79		-0.5279502709368755
80		0.7882398037035495
81		0.6682788045653386
71		-0.4486517796238497
72		0.05496259964029957
73		0.40446692707703336
74		0.12330092968454737
75		-0.2457936033411162
76		-0.2861729926855774
77		-0.06524835442962562
78		0.2917452897909815
79		-0.21208415348570236
80		0.628717812580029
73		-0.23257641585416128
74		0.07550975588974213
75		-0.032568695293161386
77		0.19951309854125915
78		-1.3183109504022386
79		-0.03505272552839417
80		-0.8220058159753035
81		-0.8242672805656468
82		0.4407248540937777
74		-0.07760095064004872
75		-0.5434460397616394
76		-1.9877451978824943
77		-0.18633560087841294
78		-0.5068082904167382
79		-0.07963906263993516
80		0.32661306229168896
81		0.09517416635189868
82		0.23561914607066387
83		0.7703474437145219
75		0.1497459705590795
76		0.18467006829907057
77		-0.3223442291954781
78		-0.7008897643664255
79		-0.1416600125175684
80		0.4676060726331793
81		0.9387607453471559
82		0.18132634176502607
83		-0.24203936150706598
84		-0.9441190188262226
80		-3.679158435363773
81		0.6878455747186334
82		-0.8273976743071241
83		0.9680426226850396
84		-0.18819420229513903
85		0.6691091695091288
86		0.4702913606641736
87		-0.3535531797356494
88		-0.8667923636429491
77		-1.1880741386721398
78		-1.1596773258492636
79		0.7079756609052937
80		0.35329707324291937
81		0.8156114100642948
82		-1.121164334384633
83		0.5593967184334784
84		-0.020205947047542683
85		-1.288948561271751
86		-0.11248511795881047
79		0.35046334991099404
80		-0.259893995898532
81		0.3558043783248162
82		1.1693218031554193
83		-0.6143676100228813
84		-0.9592439946779678
85		0.977451610501069
86		0.5357400591855589
87		-0.6438690259257498
88		0.22348184207208893
76		0.29850703912237425
77		0.20426892071025796
78		-0.957807335051205
80		0.5740313426259062
81		-0.22385041839350464
82		-0.051335390891952826
84		-1.509304249386871
85		0.29949287242715084
81		-0.03186311354524437
82		0.406052980439935
83		0.4113060241693929
84		0.1869474434136973
85		-0.6493264149310192
86		1.1569513322620484
87		0.32506209471772224
88		-0.23506752501634118
89		0.18895313732862193
90		0.5510542618921688
78		-0.5180942184631074
79		-0.08052790699124235
80		0.33552898436828765
81		0.8707500900803644
82		-0.1692325355179309
83		0.37156709957190753
84		0.21689204036583196
85		-0.5592124871793247
86		0.010167058813773368
87		0.4263556141354725
85		-0.4661167703322204
86		-0.22679638646155034
87		-0.31977725339180435
88		1.0484050945949777
89		0.22344522807997932
90		-2.5012042469375317
91		0.3761227897512307
92		-0.07420424491194626
93		-0.22060544048771571
94		0.38794475886061325
86		-0.4765675066055993
87		-2.1755761516146657
88		0.051472277067594566
89		-1.2907021124709879
90		0.8756576901552179
91		-0.004967968105854839
92		-0.4090993066217721
93		-0.11012714704405846
94		0.9900581275124988
95		0.6938981497226201
83		0.7027362667518827
85		-3.165345558069096
86		-0.24792227125723582
87		0.2943049852281986
88		-0.19959639425617556
89		-0.03038171699303864
90		0.595652309822208
91		-0.5876112441915141
84		0.5197785042036965
85		-0.11153256371702455
86		-0.7606547263459258
87		-0.10535718651715682
88		-0.2340157265099272
89		-0.14272096659378833
90		-0.9234997398154794
91		0.0945514660041896
92		-0.48370896133783664
93		0.20812831996082756
83		0.2768023381641665
84		1.3984829592060795
85		-0.21033442582311943
86		-0.49090253107367293
87		-0.21094057975004338
88		-0.07196407367960463
89		-0.27046661087548424
90		-0.2953324154655213
91		0.2874893698235275
92		0.21506820741510038
87		0.5040441194647877
88		0.4251698098464846
89		-0.2340079681263204
90		-0.9527311796698991
91		0.3083339363621563
92		0.7340468262304063
93		-0.6188093750993123
94		0.5705204777989297
95		-0.0014635106574569293
96		-0.027917798087627562
88		-0.6722337934616821
89		0.8463043439609319
90		0.19624750497639162
91		-0.8959380995654695
92		2.32941142179317
93		-0.38812181408304885
94		-0.5370873917726625
95		0.7803711634698177
96		0.45399365736597513
97		-2.833967082665713
89		0.12867324192559668
90		-3.195259450409377
91		0.04174717533944871
92		0.522547979863999
93		-0.02224923003876658
96		-0.3522726440613128
98		0.40229255063472447
90		0.5287970784368652
91		-2.9346890130969867
92		0.08428465574102967
93		-5.305230583157697
94		0.5691831309383516
95		0.2785381520355875
96		0.23038193624909553
97		0.36633511772083854
98		0.08528959877378982
91		-3.4406265064693695
92		0.6411322257872919
93		0.13765160960586542
94		0.045944745221596014
95		-1.4092215001780082
96		1.1521130444113827
97		-0.7401225250014563
98		1.0888909713694537
99		-0.39862916602779114
100		-0.4284687653311841
94		-0.9349128612083576
95		0.9693658896591549
96		-0.6386376229819216
97		0.5146695826817497
98		0.17911759148057368
99		-0.15737963587260953
100		0.16124015217140672
101		-0.11558885841544579
102		-1.3548495865615138
103		-0.986773860210688
92		-0.23429324465647694
93		0.23787859709391165
94		-0.05221903575154895
95		0.15752538088819265
96		-1.422373154372065
97		1.6024456165004108
98		-1.6414369339779447
99		0.3291264475529332
100		0.6635304125340574
101		-0.5858202290243507
93		0.39428023306021803
94		-0.6737405532286694
95		0.3054850569729237
96		-1.5136875413220519
97		-0.9839817937442467
98		0.8364786115082891
99		0.25676841593753724
100		0.5919437588052762
101		0.47590173904256505
102		0.6315304010252974
95		-0.8118946288891442
96		-0.5624511826216875
97		-0.30915015868038764
98		-0.7694374492545679
99		0.23813129122319285
100		-0.07309959098662194
101		1.3761537076308339
102		0.5024971218186589
103		-0.8936060141711885
104		-1.340709872474441
98		-0.12437586667951667
99		0.6082849031128515
100		0.0686574251516627
101		-0.7417141489817132
102		0.8688970711827986
103		0.7578087529790573
104		0.249372381273699
105		0.22337357500803806
106		0.1782589939044258
96		0.1682315635489991
97		-0.18283804531280126
99		0.6738672444848228
100		-0.47593668469964134
101		-0.15401522045863147
103		-1.360768511248754
104		0.3093570311409224
105		-0.1728597902807759
97		-0.2216631504152855
98		-0.5332200412793997
99		-0.5865365535676396
100		0.745930085103064
101		-2.201339927660591
102		-2.5493083373476986
103		0.10581169989352958
104		0.15052845151646058
105		0.5920181383002078
106		-0.34730481168021843
102		-0.3459216633791738
103		0.2535692266225617
104		-1.1753590305594266
105		-0.33943721532158505
106		0.07435662340178477
107		1.171568650556962
108		0.17644816714043815
109		-1.3623356231078407
110		0.44658179717877394
111		0.3079945920145172
104		-0.8470240233610843
105		-0.3363762314461459
106		-0.18378907026831928
107		0.2736414253200843
108		1.2081479637303536
109		0.44835977931900506
110		-0.04242423790552315
111		-0.5274090574649573
112		0.827017097315935
105		1.20891261105555
106		-0.9580700028622734
107		0.24699737540150538
108		0.21855610555281146
109		0.1604454058836724
110		0.28770214016532564
111		0.18271855247593166
112		-0.4226438036859452
113		1.717699807415879
114		0.37048237750204
104		1.0594030848185008
105		-0.434014966637256
106		-0.49000838072567365
107		-0.8577192296516499
108		-0.1444784526890119
109		0.017037184698769067
110		-0.13623893234484624
111		-0.6108896462060672
112		0.5730901030619838
113		-0.11599915208163825
101		-0.0036514023719180196
102		0.5278324472944811
103		0.9412395794143437
104		1.0433355529808936
105		-0.7548337994329424
106		-0.2280413399097536
107		-0.06605950454782732
108		-0.015540789655536427
109		-0.05683633870912403
110		0.441911647782355
100		0.3773563469756924
101		0.6238257365439659
102		0.4282145296767009
103		-0.9353771650403706
104		-0.4379197230783327
105		-0.7638446836922853
106		-0.5657815625805844
107		1.8124763077134312
108		-6.587612684189387
109		-0.1273927909842973
99		0.024636829778385536
100		0.57711743897741
101		-0.1724989867742886
102		-1.0371271412101981
103		0.19882647126065195
104		-0.019996656562098786
105		-0.10041283022755752
107		0.2077294896248517
108		0.033671265047530693
106		-0.7943797475787758
107		0.3435516042335565
108		0.6324907453668429
109		-0.8870192965435538
110		-0.010356674704699908
111		-0.16300654923621646
112		-0.92051430867769
113		0.35450567118307474
114		-0.4702340946509926
115		0.3234167829938775
108		0.41082268392597626
109		-0.8833941710648502
110		0.6136144126364989
111		0.8934070012885428
112		-0.09793043680521342
114		-0.20500374155441595
115		-2.09478367505376
116		0.7625718551008157
117		-0.2907715916576963
107		0.3896020276547517
108		-1.2083589777958013
109		-0.06344797748540479
110		-1.247615599565074
111		-0.9271194258119168
112		0.09802776775299331
113		0.8693016210797964
115		-0.11032395078854323
116		-0.05834303096268484
114		-0.28533860900157265
115		0.2937659426407317
116		-1.261295683862114
117		-0.2822121997823518
118		-0.16494948413672317
119		0.016944123292945493
120		-1.2948629171163435
121		-0.3702859389184161
123		-0.4674414792637918
109		0.6170474662675276
110		0.08096747014443333
111		0.9238763893672132
112		-0.18909736339418623
113		0.20694411544028252
114		1.1118841049065655
115		-0.01753503331638975
116		0.16739020498665763
117		-0.9964858080957774
118		0.19474583062048367
116		0.3630548104865645
117		-1.3279290425376187
118		1.5940650606529974
119		1.6622885048218639
120		0.721691338757595
121		0.05052204694182755
122		-1.513107716817801
123		-0.8715959690218985
124		0.11099598855281441
125		0.5896744778813738
110		-0.5089582573184225
111		-0.452485318277298
112		1.8844180425628279
113		-0.19548164183640415
114		-0.11130760623507903
115		-1.1689464629197384
116		0.2514339117325758
117		0.05317184821473538
118		-0.36694037764296716
119		-0.29328579774362773
112		-0.6419031311766056
113		-1.1668452226257948
114		-0.24438962392809815
115		0.04467572852942312
116		-0.5901275899059418
117		0.28210946532738934
118		0.37411949789867344
119		0.5602846128976303
120		-0.19427630477889896
121		1.075405452622311
113		0.31500071489762294
115		-1.1234914160290632
116		0.378838972267113
117		-1.318519409865598
118		-0.2703203939630299
119		0.27167501156147
120		0.4898539812431227
121		-1.379579400213469
122		0.07975485285403808
115		0.5841110917389439
116		-0.297064506420125
117		-0.24101693918968392
118		-0.06392949612567204
120		-0.02502423226177655
121		0.10784467367470002
122		0.408984684825587
123		0.02837207303671165
124		2.146013361075074
111		-0.27034286899686877
112		-1.6572946714543886
113		-0.7008182221239192
114		0.0655272463708097
115		0.09486364158932081
116		-0.11571287330403716
117		0.8784480437077441
118		-0.9899441800450017
119		-0.8289516909288205
120		-1.4503774542823933
120		1.226382036445259
121		0.10941624295129121
122		0.5854864859802047
123		0.06116575961375059
124		0.07807373704807472
125		-1.2232596869847352
126		0.4247327003843188
127		0.1361165422050086
128		0.30430783647652654
129		0.054697338563917716
118		0.5016012195186276
119		-0.17416924464032518
120		-3.463435573955882
121		0.30464778266000786
122		-0.7569265175693012
123		0.8942688844857856
124		-0.4985428224990239
125		0.027302133858278243
126		0.45124182640704147
127		-1.3394188272216316
119		-0.28359995245901326
120		0.6761860858901182
121		-0.06537014791975068
122		0.11260026338772638
123		-0.5067500454067928
124		-4.082643280557165
126		-1.1648117684369508
127		0.373675411377355
128		-3.030700073614344
121		-0.9929563369486778
122		-0.5222329259475728
123		-0.18076400157034828
124		0.7781618233066264
125		1.611396568331479
126		0.13393458860752852
127		-0.11156592347531973
128		-0.0379500957242563
129		0.19803535741374598
130		-1.9371801509183413
117		0.3987473850659178
118		0.21334435696601847
119		0.2474700404609421
120		-0.6747082797117784
121		-0.054247654150386015
122		0.5333427657022852
123		0.942009130695664
124		0.28202743891244786
125		-0.42364145482372906
126		-1.629212296759737
123		-1.619443055629575
124		-0.5050645108504291
125		-0.07387068445355313
126		-0.5080915722290029
127		0.7010822668958724
128		1.2777430858763714
129		-0.46860860783557795
130		0.6713651766474442
131		-0.06705972802084208
132		-0.16943923458445537
124		1.1269127092190259
125		0.6722970986497951
126		0.12669219765600245
127		-0.18388167332336983
128		0.7376410152594
129		-1.3231428333333397
130		-0.16457413479942545
131		-0.08007474045537358
132		-1.2509861387694048
133		-1.7080286061698025
125		0.7515549847091323
126		0.08568242229718667
127		-0.36033437254903694
128		-0.2618456950075412
129		-0.16811858869266552
130		-0.6958778587413395
131		0.06793584412673387
133		0.06749607154912725
134		0.5556483092548198
122		0.008667189469324989
123		-0.003976948521063204
124		0.18518519377934728
125		0.2205092275239856
127		-0.27982553712688535
128		-1.7262016119818455
129		1.0568911376977803
130		0.6966855236823072
131		-0.2006174273396278
126		-0.374037574682708
128		0.6460796551949483
129		0.05034244370501959
130		0.6228875541494706
131		0.2695990908877054
132		-0.26692722360944415
133		-0.2547480953441634
134		0.2172480231577785
135		-0.773525187015189
127		-1.3200382132768271
129		-0.6661487196131667
130		0.14259370388198592
131		0.2155066225632578
132		-1.5245272912382368
133		-1.0479982736241948
134		0.34360492230254547
135		0.3749029383101099
136		-0.3057114024498901
128		0.4111123447654506
129		-0.8008084254310945
130		1.984716357851715
131		-2.878173312471186
132		-0.3832530157458425
133		-0.4889427265609634
134		-1.0699661340530822
135		-0.23855297598313338
136		0.39534958873344117
137		-1.0397321491783211
129		0.28656115631606743
130		0.3789828743153542
131		-0.7939219596148048
132		-0.2832045805524223
133		-1.4767211822741668
134		-0.08334142013984754
135		-0.7804524429953631
136		0.001958099197251617
137		-1.060344585343946
138		-0.4263663953065274
131		-0.8943582725255352
132		-0.3058515893199537
133		-0.08896607924949325
134		0.2570064017709711
135		0.059610504871883456
136		-0.2846414711897857
137		0.7669317824522578
138		0.5950612205084155
139		0.8769493837677449
140		0.4566765109229737
130		-1.7527230737659447
131		-3.6473598037807777
132		0.5429114539519899
133		-0.217858155422041
134		-0.11079280323729652
135		0.13519164938511247
136		0.3943744057033645
137		0.6155751825239476
138		-0.09817481545321395
139		-0.4693237908071376
134		-0.42515179374231055
135		-0.5801623726958798
136		0.27927384454086657
137		-0.08127248610040497
138		0.5958203733645814
140		0.5566855851722079
141		0.16279104096180388
142		0.046169716231599135
143		-0.455225559477251
132		-0.8679834987295264
133		0.34444424847243754
134		-0.2492707499852157
135		-0.4400171854962375
136		-1.7178916827962485
137		0.3318696797051153
138		-0.33027827575643454
139		-0.5475167756141781
140		0.23309917285773282
141		0.054319762472561504
133		-0.8678140839380192
135		0.392844695570596
136		-0.4802987831421686
137		-1.0316544477172216
138		-0.5979070453239801
139		-0.003268021597082736
140		1.0917596865676844
141		-0.4153705472088451
142		-0.20619058028639412
139		0.4144234993921397
140		1.309137797091883
141		0.0504965480513104
142		1.0076124798517885
143		-0.7490253636192379
144		-0.004821878900161151
145		1.5785607642139747
146		-0.6469410376215818
147		0.17113663692503697
136		2.2830847342893503
137		-0.0633166648815233
138		-0.21800394022287808
139		0.7164455515422105
140		-0.030702643069542464
141		0.04031230184694442
142		0.15220362386102476
143		0.03155845812873155
144		0.9004017605803015
145		-0.961667239794457
139		-1.0275406992161853
140		0.07065577634612866
141		-0.813928462281949
142		-0.43857283372878375
143		-0.032841002184233976
144		-0.5341015759778336
145		0.4742157875912141
146		0.23272838295055498
147		-0.19518929974576368
148		0.3427177561057975
137		0.536965877367439
138		-2.022901792032613
139		0.4335250035261542
140		0.21214844837222166
141		0.36054168044123197
142		0.4704343653653354
143		0.3172719710403558
144		0.08245671980806187
145		0.3415349693931288
146		-0.9283287129992066
140		-1.0082187864898302
141		0.05355461372398685
142		1.9740340205828035
143		-0.11786755532660062
144		0.5814958507035214
145		0.00414748544655693
146		-1.056018877530036
147		-0.20010655347743433
148		0.3507110062092938
149		-2.8422232895170536
135		-0.3739904547996924
136		0.14497176680792878
137		-0.9319125789294962
138		1.0547593941868496
139		-0.13567905138171998
140		0.09775286079236253
141		-0.25321962917429297
142		1.40931129752938
143		0.4676647709236592
144		0.2996153740653527
142		2.074958093112977
143		-0.3718700677783569
144		0.41265587351961924
145		0.14933812316546685
146		-0.40171859959466777
147		-0.348502755596377
148		-2.1217205831857964
149		0.3988340145124038
150		-0.40711304394754155
151		-1.3741836613855378
145		-0.018519819356659875
146		-0.9324259774544861
147		0.13439802890464636
148		0.19574697218622256
149		-0.5614602459885066
150		-0.6653529134796967
151		-0.45834591580605116
152		-0.522956647090404
153		0.14541779453183318
154		0.11028560811649357
144		-0.7805494369568332
145		-1.4158036357474957
146		0.6544136900296266
147		0.7632561431198067
148		-0.07186100878463825
149		-1.0792406909592744
150		0.0544802527009043
151		0.10354510306761329
152		0.0735894394218357
153		-0.5798538891010871
141		0.7193786943094278
142		2.82056851507264
143		0.6518765109545812
144		0.3310329244523408
145		0.1416669388769844
146		-0.3199965694758915
147		-0.6805344936156458
148		-0.285012397133855
149		0.431331647451306
150		-0.7694695510189614
143		-0.4305575461390871
144		-1.627865386814821
145		-0.5164839518288553
146		0.6826655240407467
147		-0.10021710785718126
148		3.7075395497028034
149		0.13249241322293015
150		-0.005744991964476253
151		0.08801023235148454
152		-0.4238408760583116
148		0.3231133192900201
149		0.35672775755460284
150		-0.19297076134018828
151		0.5479330694668343
152		-0.061552091680573656
153		0.26669359965991757
154		-0.9395546841356673
155		-1.0502964731588809
156		0.6299780392978123
148		-0.3160094083171768
149		-0.6832148250145982
150		-0.8582773691501924
151		0.03773317438032312
152		0.5264225917531092
153		-0.8073401409271481
154		0.6338159565476966
155		-2.1775471413639993
156		-0.8093847983411693
157		-0.1341306796292564
150		-3.613413583021223
151		-1.1129683305667077
152		0.3791311429041325
154		0.07639113089193157
155		-0.17192247041339326
156		0.04188404757705848
157		-0.6053753278409952
158		-2.359590374425949
159		-0.9168416667520616
149		-0.6823861768517472
150		0.762954533958209
151		-0.9319433222330228
152		-0.2975203910892009
153		-2.4743805820145672
154		0.5825375170747232
155		0.1543089167900525
156		-0.2920681864057159
157		-0.8880086717431888
158		0.7472854977568367
151		-1.1781319181310959
152		0.484038161400483
153		1.1592780007170107
154		-1.2114645555491885
155		-0.30532246558913484
156		-0.09432937844002103
157		-0.4361000968896542
158		0.3843865098754054
159		-0.8399736247888844
160		-0.23570472027823208
146		-0.7923215603306507
147		-0.5877007153389969
148		-1.1366049231582092
149		-0.06357732747395513
150		-1.199330096755328
151		-1.473973333629018
152		0.00851158630821912
153		0.24838395606252175
154		0.779504397776201
155		1.373399170432244
153		0.556572401013381
154		1.7848727239734958
155		0.8308046918196298
156		1.026264353043689
157		0.3980242420856077
158		0.061515442041582345
160		-0.3845851767600599
161		-0.6169269257783045
162		0.08956181825218605
152		1.954055642357914
153		0.14475751687272712
154		-0.9244308637190721
155		0.5078579319670363
156		-0.3129368823550438
157		-0.3685422107352257
158		-0.8187389600401285
159		-0.42705605437975924
160		-0.09633264113523171
161		-0.7451540550640566
155		-0.10508750021304099
156		-1.6050911680615707
157		0.937541378787912
158		-1.3621887403402682
159		-0.26168914873019883
160		0.766128896758113
161		-0.3155492972700785
162		-1.4962105666287537
163		0.03715972635011432
164		-1.2107126547198748
156		0.045739150170954576
157		0.10180240351454678
158		-1.013067799688163
159		-0.3138800239781489
160		-0.5258956561778578
161		1.2154217298020633
162		0.3975190766407966
163		0.30094075562233824
164		0.3417970811605629
154		0.6151922370850739
155		-0.03305730338229031
156		-0.8667571225405778
157		0.032439471674653234
158		-1.8903162285229422
159		-0.4023899289455263
160		0.2800651856465272
161		0.0038840567758183036
162		-0.08675686813527628
163		0.06675446153687123
157		0.5519878805720488
158		-0.24138567278564405
159		-0.9755591382309095
160		-0.09736394852632516
161		-0.32021824069232135
162		-0.9457452882459998
163		-1.010500954607342
164		-0.9587534412174366
165		0.25458967534238647
166		0.48689547458141247
162		-0.4226820049952907
163		-0.20649399244641045
164		0.12923744681875998
165		0.7497820123951198
166		1.1945523457804266
167		-0.306982558007154
168		0.39516599849940703
169		0.26392126795962195
170		0.1009502029572186
171		0.2841330550632462
158		0.14007831342905655
159		-0.29964893360015965
160		-0.060545628771717826
161		1.127734352794958
162		0.9602614643818632
163		0.31893489356821214
164		-0.8602011529756024
165		0.23429528345757358
166		0.12078765595561486
167		-0.011850972115631884
159		1.1402314050155888
160		0.331017636016339
161		0.22250808991964258
162		1.178803220040336
163		-1.016622646025548
164		-0.030216038529798452
165		-2.299260197126959
166		0.49940369104157717
167		-0.004080839666551358
168		-1.3557882219585864
163		0.20823235198550602
164		-0.20862362146201816
165		-0.24340508472881517
166		-0.10060090493393425
167		0.20109148508891428
168		-0.163783865370476
169		-0.08423255023970729
170		0.3361206146079922
171		-0.5583907628002697
172		-0.6096191383035466
161		0.2852744342281071
162		0.4878731646347615
163		-0.8849201649375853
164		-1.1532617642496423
165		-0.23049776440784367
166		1.2708483915044095
167		0.05032120067968103
169		0.011402877495423165
170		0.2736238259635849
160		0.7388831292012233
161		0.26375624480294185
162		-0.3599209435503064
163		0.9613897682626926
164		0.9972053951564507
165		-1.1595455542644308
166		0.8905484435369704
167		0.1928817754542778
168		-0.7093307209205795
169		0.03978526445261368
164		-1.0740068813049501
165		0.03844471808001403
166		0.11907507547084878
167		0.6125377891961304
168		-0.12656755976978676
169		-0.8896854839365536
170		-0.042846195163791755
171		0.9548868905576959
172		-0.3969056118728835
173		-0.6676109097638343
166		-0.19328684769776414
167		0.28796197565692333
169		-0.38220905725847604
170		0.2088820477733169
171		1.5031060658302047
172		0.16884468346977893
173		-0.8558036585104543
174		-0.662439738019381
166		-4.141290530553296
167		-0.4046397378272764
168		0.2985820271475206
169		-0.3709893094493287
170		-2.899375537026424
171		-0.008604531036892444
172		1.0174683367854702
173		-0.3452462765120163
175		-0.6820166485703599
167		-0.8825026191905518
168		-1.2272956055132536
169		-0.7166471805915666
170		-0.3384535557159345
171		1.2471419133621013
172		0.4209069156224685
174		-2.527695369578136
175		0.04141082446015688
176		0.960049694931621
171		3.044167143252196
172		0.6199791207147238
173		-0.635190466077094
174		0.6436176634311415
175		-0.05586852711274537
176		-0.051073700369323786
177		0.4277159564670465
178		0.11611556329168798
179		-0.16738282743253136
180		0.14139953145068432
169		0.772979182948036
170		-0.06559163245016726
171		0.07844933149390948
172		0.508554212123039
173		-0.12420522902461151
174		0.5149419352948751
175		0.2824918908323869
176		-0.2006864991311437
177		-0.575254875825491
169		0.706086083546538
172		1.1339406820106794
173		0.1184069511650945
174		1.1862430389723353
175		0.7389743981586586
176		-0.4370107557220969
177		0.0758545208664328
178		-0.6881532153320224
172		2.055029497663353
173		-0.41556415553174086
174		0.4743003142229718
175		1.5622761422391958
176		0.08129633929587528
177		0.0391713064362154
178		-0.687247426753456
179		-0.46298903807865843
180		-0.06306545885769134
181		1.075439256498276
170		-0.7563887405726042
172		-1.8938680201919271
173		0.559686115359911
174		0.19440251383422136
175		0.7331745540156279
176		-1.3871587166346968
177		-0.7680695497997364
178		0.12837473795650267
179		0.0493115064143005
174		-0.8027782693364822
175		-0.1750471442197059
176		-2.1385835058266003
177		0.632858727736702
178		-0.44904815777892837
179		0.42906818621585685
180		-0.5815092415361304
181		-2.6810978405418653
182		-0.47640842756626034
183		1.0560285124435027
173		-0.3276397853469342
174		0.10780920349802477
175		-0.18916691664590438
176		1.1754398610253454
177		0.19349094502335407
178		0.5040247385815703
179		0.018559338385375126
180		-1.0518609060057658
182		0.7110485950007006
175		-0.245199489289897
178		-0.26609053926608733
179		1.4596741853254067
180		-0.44584619154378247
181		0.53946897170953
182		-1.536012744380657
183		-0.2597828346789985
184		0.30553269344374184
176		-0.24639811055044247
177		-0.011184900191097582
178		-0.838649132534668
180		1.059544575291524
181		0.14212817980826936
182		0.340027739670661
183		0.03145076589428984
184		0.29117523530097217
181		0.4029568797711858
182		-0.6040122196817488
183		0.12659935590094754
184		-0.5751896070395531
185		-0.19550971156766955
187		-0.3307646134581126
188		-0.7668814706387
189		-0.08299865744529387
190		-2.186496294583923
177		-0.3137352996467814
178		-2.725262470937572
179		-0.32892439350267266
180		-0.015932180235711725
181		-0.2832987770486829
182		-1.143677102254715
183		-0.21117369052193996
184		-1.0685970806288105
185		-0.30627670781432637
186		-0.6063328764264757
179		0.3415397725500531
180		1.6111098016469196
181		0.5961328015497983
182		0.0413963567032213
183		0.16531464089984071
184		-0.03539800882025404
185		0.07722364225410328
186		-0.6016335833910154
187		-0.3106591584541824
188		0.29020446093169533
178		-1.5283382301724133
179		0.17613067443564406
180		-0.5722696023015892
181		-0.18992615650910674
182		0.23310253728996108
183		-0.8267725152772151
184		0.06345984320506122
185		0.04559161300729533
186		0.3507316851752503
187		-0.8241386566853361
180		0.9304737030220727
181		1.1188580026179173
182		0.18191861933085188
184		0.7117059182129836
185		-1.6776527855621177
186		-0.018183904032261403
187		-0.08981852977072095
188		0.36412166576662763
189		0.18533788705728693
185		0.14803769858736066
186		-2.9624227093273467
187		-0.5393941370615922
188		0.7992070543674125
189		-0.6933413135267242
190		-1.1888807464871658
191		-0.30104621380892116
192		-1.07668124634334
193		0.9630154964110643
187		0.5475529940381862
188		0.14907660748192372
189		-0.7941647705963835
190		0.764058046001642
191		0.36288686192715824
192		-0.2712108323307186
193		-0.45625311689733317
194		0.16505572302196353
195		-0.07291832208602979
196		0.05476283382849575
182		-0.6743690279999868
183		0.1769640537600951
184		0.7387452210338913
185		-0.8579732237174095
186		0.021305622816475876
187		-0.24474412813635169
188		-0.22626122783997601
189		-0.5398486857453407
190		1.6873779603025139
191		-0.2397731950276833
186		-1.649321230692235
187		-0.3429576998937957
188		-0.38181683950960854
189		-0.13090115022355656
190		0.021132157066842124
191		0.3450869913941591
192		1.2923805035328195
193		1.6727300027694065
194		-0.45288367957463743
195		-0.4002872965193058
189		1.7051075846376793
190		-0.24459811069972465
191		-0.026548389293743407
192		0.21176823859495306
194		-0.7270012595213216
195		-0.10131000207111764
196		0.2523649479745259
197		0.6749932053011413
198		-0.09207971299078073
185		-0.6303965897141812
186		2.0840820348277695
187		0.06716145661976881
188		0.7064747627075542
189		-0.3399895419657647
190		-0.30592572462793044
191		0.16558486159900926
192		-0.186980717396802
193		0.9700267126299658
194		0.19122834686624565
188		-0.4107261305889271
189		0.17809827647744264
190		0.9461976442491424
191		-1.5749892566660015
192		0.25349585594287055
193		0.34370197741852
194		0.2972301470793543
195		-1.310508999075095
196		-1.1354736832500172
197		-0.6318453015315912
183		-0.34361967502840585
184		-0.03943787623996083
185		-0.41235486994747483
187		-4.95019857957916
188		-0.4593417562033815
189		-0.7890973851243477
190		0.43962896269198926
191		-0.5293284077578654
192		0.11926298239111213
193		0.420100245754686
194		0.6078745572847921
195		0.12286013965233232
196		0.3346905855735575
197		-0.35208335819541436
198		0.5137887097752624
199		0.28623443773741025
200		-0.7843800996943745
201		0.959068361540991
202		-0.36601278490070777
191		0.39102019350285605
192		0.19312470886848548
193		0.19054293011589782
194		0.577596928686519
195		-0.09095072663567472
196		-0.5042073632227185
197		0.1280452405784836
198		-0.023483912451861218
199		0.39976671264195096
200		0.11572036467694559
192		-1.9632024900895475
193		-0.12627778886827953
194		-1.0430959363169747
195		-0.293332892905461
196		0.9952310725422358
197		1.3798559516979083
198		0.41774812253338045
199		0.4853564378005451
200		-0.10300718569861766
201		-0.22960214296933731
191		1.155011632311803
192		-0.5634463023502218
193		0.06722680515636738
194		-1.1376172745364264
195		0.9605907648807335
196		-0.3065987360096913
197		0.8461931477491813
198		-0.4170530485296397
199		0.38669105737614073
197		-1.0135257879519879
199		-0.1241461301587654
200		0.16082685605353061
201		-0.6626672147922498
202		-0.03410082947153943
203		-0.25877091713382216
204		-0.2920705277251714
205		0.34179378033112356
206		0.40530119603197556
197		0.04597135664425632
198		-0.36898251885327127
199		-0.1629151211277249
200		-0.9455089735849428
201		0.4154504425321179
202		0.3162450853449102
203		0.38847941609376707
204		0.06699635878094028
205		-0.1124323719623638
195		0.05612768408926923
196		0.38071183459130503
197		-0.750004453280632
198		-0.05854249436885659
199		-0.646036198483503
200		0.21124809478111026
201		0.01184901966446894
202		0.8042665716511609
203		-0.25370450805394057
194		-0.543917522763825
195		0.7761190088403036
196		-0.46529367758825524
197		0.6952696494971231
198		-0.9712966074026291
199		1.0368106657938732
200		0.4455235175437135
201		0.2450898978820031
202		0.5732802312445366
203		0.21458667143799062
199		0.14888393025318725
200		0.7836735160459137
201		0.25869467220692016
202		-1.2376168523381712
203		0.7594847457826573
204		-0.35406422562228224
205		0.04376961902417543
206		0.0012597346737324476
207		0.1276979750986985
208		0.05349135126227425
198		-0.8317055046999552
199		-0.5072298954298602
200		-0.0290595882435974
201		0.04648344413688773
202		2.092734234875009
203		-0.531117495924452
204		-0.8483454322939338
205		0.7582531618827377
207		0.26651823401568153
200		-0.7148674401098136
201		-0.4801653596782719
202		-2.2090397212332453
203		-0.6677310051977758
204		-0.24850015656360436
205		-0.3623978124213238
206		0.012741908934255438
207		-0.14380542108467684
208		0.5960668852908344
209		-0.24653205953273807
201		0.7998592155825801
202		-0.5771133487970364
203		1.744894111507058
204		0.09629822963645446
205		-0.5971249863802697
207		0.7770307270971604
208		-0.7332424838830582
209		1.0349671409375945
210		0.23396602188298574
204		0.9494786496773784
205		0.01506235271862233
207		-1.6958833490134115
208		-0.41611023194902014
209		-0.16136821201110696
210		-0.39057467186745487
211		0.48863557667161966
212		-0.28239022357719723
213		0.4751852107012726
204		0.12303220605666303
205		-0.6469723953244713
206		0.41339766374365866
207		-0.39321406043944535
208		-1.5970513082517563
209		-0.6523315702219574
210		0.2730314465718645
211		-0.1732038283798257
212		0.3438601633437805
202		-0.1720167858466403
203		-1.0220360209759227
204		0.19796350238563146
205		-0.4471560958477628
206		-0.37712618517456253
207		0.011138920254376489
208		0.28899828537191075
209		-0.634370669917766
211		0.1491347795884113
206		-0.6729751171909611
207		-0.4318968952005921
208		0.7756714722184856
209		0.024057376235258665
210		-0.4138442226756506
211		1.547309897953233
212		-0.6379062558478977
213		0.5376098638582599
214		-2.153577286978607
205		-1.000686765267793
206		0.4853368202666095
207		0.27382092483939086
208		0.7980575860313361
209		-0.0025929130515485186
210		-0.1465628719763869
211		-0.42726020890166094
213		-0.2507876531196245
214		-1.0485631705439817
207		1.7169570568735069
208		-0.049309819478078325
209		0.5707946999397759
210		1.136318786728247
211		-0.623224234492855
212		0.03235309179554801
213		-0.4373567701479187
214		-1.2957388723653793
215		0.8011760869170182
216		-0.04550109682166721
208		-0.1570264371084459
209		0.4766909601976377
210		0.4651552922998957
211		0.29431355354446304
212		-1.278880383870833
213		-0.13760994332280577
214		-0.0006412315822978573
215		1.0649299342374137
216		-0.20903204123992625
217		-0.11518457646372701
210		0.20396257960107222
211		0.030777804873897707
212		-0.23646489441063911
213		0.11509888435367589
214		-0.3840477469655096
215		0.1656864740255575
216		-0.06719302441502985
217		1.4958707758083543
218		-1.2184756804549386
219		-0.27365667158586854
212		-0.9454967769856065
213		-0.5674510751489888
215		1.3971823657323885
216		0.06814023684807327
218		-0.06267504561827895
219		-0.46484102514262904
220		0.4480589430883343
221		-0.6869489899434125
209		-0.237176909992218
210		0.4196557792932537
211		-0.03971582119797859
212		0.23597987667030326
213		-0.08305734679295668
214		-0.7167627916887214
215		-0.20549091013906892
216		-1.1074734315944053
217		0.1910033550291745
218		-0.7716134126731323
211		-0.967343485205667
212		0.04453458425129589
213		-0.0059330537899643905
214		-0.8463326704425687
216		-0.5699642949572474
217		-0.8192175320761346
218		-0.0016077974819346736
219		0.41721041626735056
220		0.5668640968867843
213		-0.2663340426879532
214		0.6864783234754614
215		-3.043278622010085
216		-0.7643825722972142
217		-0.09860282267849758
218		-0.15482560535166004
219		-0.41505617490802044
220		-0.012760941158766229
222		0.6443614824389966
214		-0.3841242253077124
216		0.767510553642631
217		0.09591049387745809
218		0.9255190754300235
219		-0.257651864282443
220		0.2986881536365713
221		0.43541398144373505
222		0.7554865635300335
223		-0.12210605918705116
215		0.9352504366608778
217		-0.2515125696218665
218		-1.0945982791625666
219		-1.1129549872740239
221		1.656685066384454
222		0.17809146558687608
223		0.7388978003555264
224		-0.051856376787319095
216		-0.19737235345617146
217		-1.3306546306453901
218		-0.18500262071049947
219		-0.3852299092826942
220		-0.34415502565994666
221		-0.7895694617627448
222		0.953052108691015
223		1.1207593549903703
224		-1.6324032812457159
225		0.740443093407517
217		1.3230527495657667
218		-2.965520680557806
219		-0.650680376129213
220		-0.10198299337481981
221		0.014222240386117182
222		-0.21027505314372333
223		0.9538330102463022
224		0.23441891089853192
225		-0.7556887884067081
226		0.48134831164621955
221		-0.025821965432832984
222		0.8530504510136955
223		-0.5660495566466255
224		-0.44732553609742853
225		-0.4289539335299335
226		0.37316833812445466
227		0.7504900140430143
228		-0.20095933116779577
229		-0.6008266661069982
230		0.7041233318597853
220		0.4873579196930781
221		0.10990796745527498
222		-0.4527625985384214
224		0.49853046496506614
226		-1.2467316792749952
227		-0.43219729372277205
228		-0.7455400858880772
229		-0.1836965002676675
223		-0.5527903849574655
224		-0.479874779457354
225		0.5746453381517126
226		0.2170377659903938
227		-1.023329846386062
228		0.25791734532543004
229		-0.37829465094150505
230		0.6013711902834524
231		-0.09216351309318643
232		0.28435033645280233
224		0.09625184022917613
225		-0.1489088906390031
226		-1.1974118762410524
227		-0.3480258449282731
228		-0.4584901844604364
229		-0.26432460570831773
230		0.6643309671113254
231		-0.17055557673847727
232		-1.213494907999891
233		0.26616790561773324
218		0.01225104746908869
219		-0.305853907367571
220		0.42307124437644206
221		-3.065238934762835
222		-0.2880179468473948
223		-0.5742914489820116
224		0.001530289916361986
225		-0.8467025752908206
226		-0.10191311262834732
227		0.5399209953997258
222		0.19399099567503772
223		-0.42601811020946057
224		-1.2862962027023168
225		-0.05305062907943742
226		0.15086300279264603
227		-0.16204890499568173
228		-0.5828621143683492
229		0.5094945160472878
230		-0.5271318989870929
231		0.896488044028348
219		0.09533145552744242
220		2.310197484385736
221		0.3176895988901978
222		0.02911464763530171
223		0.12134728240886375
224		-0.4823509705365664
225		0.6783563256396727
226		0.04699630283029201
227		-0.5473787481856036
228		-1.3664969646477247
225		-4.947858652344533
226		-0.5770655622517671
227		-0.23783561317623297
228		-0.15555747898397124
229		-0.6205976142813091
230		0.6959613826800747
231		-0.6161485550276321
232		-0.21180945044601854
233		0.11224914833614044
234		-2.0490979458958662
227		-0.23063235963594983
228		0.23644875169403334
229		-1.1008304966377334
230		-0.2674503833357712
231		-0.6039418258187839
232		0.5669814913936907
233		-0.34691047081146
234		0.036677567350303406
235		-1.4705201121356797
236		1.4893361514404992
226		-0.5291969467773946
227		-0.2709554785168693
228		1.3551604946969238
229		-0.2949091273337106
230		0.5752257455568885
231		1.3922564681565626
232		-0.9005669634561959
233		-0.28666175234958596
234		0.5693200862263587
228		-0.3545707420989964
229		0.7552600040099893
230		0.10736094946368238
231		-0.7012712542062322
232		0.1320129233089333
233		-0.22213441269467554
234		-3.449684924863188
235		-0.7283728355141404
236		-0.17652040301618735
237		-0.8103487974357829
232		0.393491185485294
233		0.42610236904074567
234		-0.6582815876159299
235		0.33283597468375853
236		-1.0873192219936054
237		-0.9300043918955853
238		-0.4442903237079182
239		2.7546807219663245
240		-0.2985344940203192
241		-0.904957575944744
233		0.927569492153798
234		-0.41159356678902964
235		-0.1606483626732162
236		-2.7783498959796384
237		0.1925464427581456
238		-2.882846770604517
239		-0.38829126602742015
240		0.6397657070420525
241		0.7844132264440827
242		-0.13671963482256083
231		-0.09513753361901356
232		-1.9329666189693455
233		0.22488533773472072
234		-0.09094548423578598
235		0.18558693262333295
236		-0.02485431023584219
237		-0.3873124920296394
238		-1.893990816451897
239		0.4216885194715995
240		0.609913976053766
230		-0.5395114386844055
231		-1.33854699636119
232		-0.25925602867910885
233		0.5270518374699289
234		0.7365956736691839
235		0.26950701008177036
236		-1.4819076189034197
237		-0.17072015398057716
238		-1.909937004768528
239		-0.0056838249650875165
235		0.8009604177489745
236		0.921723481534903
237		1.596390259201873
238		1.355047736323292
239		-0.2931246889548698
240		-0.2298320609903007
241		-0.2028066731217331
242		-0.7732783291763773
243		-0.14143869002440965
244		-1.307334488785448
237		0.6099439074141662
238		0.1812783768332226
240		-0.5413197184609039
241		-0.11882282053883231
242		-0.022265591897556995
243		0.5882307169832045
244		-0.8926930419017218
245		-0.11996339879782703
246		0.41546836492895367
243		1.353013986561865
244		-1.8172881901770055
245		-0.4684334192748693
246		-1.1530337890851095
248		-0.7094720900300947
249		-0.1847099200830941
250		0.3147995551130224
251		-0.36610016733776346
252		0.11853413948535332
240		-0.28608150548982825
241		-0.7344091818558949
242		-0.36828483038673593
243		0.9165567130047281
244		-0.20402870323007496
245		0.9319093335215117
246		-0.33311956018155653
247		0.56317606050696
248		-0.9424210420033902
249		0.12630828282765114
241		-1.1727599041756769
242		-0.21426073876649152
243		0.23777997541936016
244		0.3279596289806115
245		0.33371852526575574
246		0.7679735486740712
247		-0.41826028573558016
248		0.02515735247697074
249		-0.8742593072885461
250		-0.17606890301481973
238		0.3622439362827499
239		0.16353399942356603
240		0.20891586757036312
241		0.2291394863277622
242		0.22872881586895963
243		-0.003351566221028176
245		-0.4191025412980328
246		0.09263876526042435
247		0.19516367019072328
242		0.9150397193036679
243		0.49219037169400365
244		0.509815153673257
245		0.8161723820465631
246		-2.199084207020141
247		1.4913382418994152
248		-1.1806516110326686
249		-0.6845121614349148
250		-1.241245714460516
251		-0.12442510220236448
239		-1.8425551669605682
241		-0.6970390676397278
242		0.4765934438927004
243		0.037372926609280606
244		0.21073544409127656
245		-0.05562761651425369
246		0.4861045511261198
247		0.01635574023512029
248		0.5991357740629547
236		-0.8208247571596883
238		0.5939791712786231
239		-0.2818230987835819
240		0.7146324785942196
241		-3.340356877719721
242		-0.06435721142680143
243		-0.1579332272528384
244		-1.3157644682775484
245		-0.8704363380014004
229		-0.38342242136584603
230		-0.37000614726257536
231		0.5087156500994611
232		-0.286230160728743
233		-0.8696401815659138
234		0.1350005433263716
235		0.331655625994738
236		-0.11776882803314485
237		-0.41633770452824176
238		0.06840438752149339
234		0.15370604898764612
235		0.02846000770373057
236		-1.2874537912122104
237		-0.10000975836603826
238		-0.31103337642832146
239		0.18037319323747525
240		-0.041752984162932445
241		-0.042552547640047546
242		-0.10113358470826712
243		0.020408195578003302
245		-2.271361132461634
246		-0.12734612819633667
247		-1.0509606996174632
248		0.3127591360289761
249		-0.46405688180219284
250		1.7318931651808955
251		-0.21487218951217174
252		0.17948780852336418
253		0.9138178490831922
254		-1.1498223082564856
244		-0.18770325277855196
245		0.6928728920451395
246		0.4646822522968795
248		-0.5911336717723341
249		0.15168545965115926
250		0.10404419898643857
251		-0.1853470650566732
252		-0.19729172562638758
253		0.1343679824709289
247		-0.10149309359012829
248		-1.0901398108837161
249		0.6499248307771163
250		0.9928490412178487
251		-0.2866178487256342
252		0.7412028869446357
253		0.20052691173087978
254		-0.8316897794788385
255		0.6514630136811788
256		-0.8217015250793216
248		0.16197360343861722
249		0.37346894454142127
250		-0.3754366807718434
251		-0.8808706551717707
252		-0.7522303295630598
253		0.16738776311485035
254		-0.32685072329614684
255		1.240502032651763
256		-0.014447063714993455
257		-0.344141903848916
246		0.3945627095299815
247		0.44828331034214325
248		0.14048950130852753
250		1.1026269010664778
251		0.05085281537688471
252		-0.15557060962323466
253		0.4043649939733472
254		1.2006628895314004
255		0.46488728686022074
249		0.3796094306334108
250		0.301409952871883
251		-0.4511059217681187
252		0.5071451178832245
253		-0.449911515263987
254		-0.6811869563999314
255		-0.13815965173934627
256		0.7162210038157432
258		-0.34380985147023857
254		-0.6335580136212007
255		-0.3007882249486531
256		0.03213209975991658
257		0.22688685914997853
258		-0.2566226327286612
259		-0.04615340301697519
260		0.8623670235244314
261		0.8528090402367561
262		-0.12278101233395944
263		-2.047206309842573
252		1.0334088861447914
253		-0.31424534276501637
254		-1.4372888313536378
255		0.19425494417526407
256		-0.4743706316354984
257		1.356020558186916
258		0.1904009405431258
259		0.2822398759122878
260		0.18798038690593805
261		-0.25537740739052045
251		-0.4703868365744952
252		-0.4311399516142546
253		0.8133398644069918
254		1.4599074164908221
255		-0.007769581893301811
256		0.44577210320416727
257		-0.5018613855962103
258		-1.0990044215316435
259		-0.18263996460098758
260		-0.25580143662960697
250		-0.13463584273811094
251		-2.7944508798952667
252		-0.021685557176199344
253		-0.5256562278171493
254		0.35736892615876975
255		0.728869995700595
256		-0.4066924394886942
257		0.5419062739781895
258		0.12982014092846447
259		0.38329775278788186
253		-0.03240575397565221
254		0.4038248640962153
255		-0.05316749229442478
256		-0.8136005308842008
257		-0.06350190477780614
258		-0.444547790519463
259		-0.5982802839629073
260		-3.92953153546705
261		-0.6952593515134194
262		0.2235122326913412
255		0.31255823317292797
256		-3.2558179169002965
257		-0.05629037382319018
258		-0.24144512256898004
259		0.035696855923159
260		0.7544283632788055
262		0.5892618307464106
263		-1.662705771973715
264		0.267675995821997
260		0.18348937204719187
261		0.11560856343089168
262		-1.3536772301309983
263		0.5562345515481364
264		-0.02838988507022317
265		-0.519082696738017
266		0.23748652963279643
267		0.33527244209615603
268		-0.3498495348085001
269		0.47662134399289124
261		-0.11743572572840934
262		-3.630883687970217
263		-0.6943522207466392
264		-0.22363403753245653
265		-0.04105190256770779
266		0.6067093273374872
267		-0.20933509149779356
268		0.05768362768045875
269		-0.44590788687495014
270		0.538608925472681
260		-1.4018913377695876
261		0.3733772409857162
262		0.36118915136446283
263		-0.1802429842646327
264		0.31480045777623566
265		0.38844235346533257
266		-0.023515426071288033
267		0.08408939811579116
268		0.35788563424102576
256		-0.13968253807990708
257		0.05181078232246512
258		-0.0326625968866481
259		-0.35876514480275956
260		-0.2485119948082008
261		-0.07142065207702779
262		0.1499357937933255
263		0.14906374736779568
264		0.33001795797071803
265		0.40142406706689376
258		-0.2207372508472852
259		-1.1050845687710777
260		-0.02588136977265638
261		-0.2644337654141131
262		0.48663748484891445
263		0.5486398554890717
264		-0.17168712680361206
265		-0.3971594733355128
267		-0.7202429286436702
257		-0.7184260657880385
258		-1.2783537475018876
259		0.32216197343925723
261		0.05140449738031289
262		0.034758824897253265
263		1.154329090366457
264		-0.5080314364782686
265		-0.3195616986685416
266		0.3803082802568051
263		-1.4234457504820768
264		-0.8264366822278792
265		-0.4621028302930929
266		-0.19717386653241342
267		0.4748971285003569
268		-0.8269250418163258
269		-0.050943917800274574
270		-0.2776728269025121
271		-0.7762786015235472
272		-0.58893266613542
262		0.04291735824521799
263		-0.5701818758483375
264		0.04334780267801487
265		0.6488730994494701
266		-2.1221607872856776
267		0.7091561744868943
268		0.05528026080517765
270		-6.526258703777197
271		-0.7645025589275226
268		-0.12960443568590407
269		-0.35908334719469376
270		-1.5671821030080912
271		-0.6680471820023253
272		-1.4554883194808952
273		0.41189115459673725
274		0.18069028387565642
275		-5.305134434598979
276		1.0583431824319844
277		0.6005047113532826
270		0.5907696430552741
271		-0.7244739434572525
272		0.8324573993286691
273		-0.10170966511358227
274		0.6521719390212872
275		0.05923945968621071
276		-0.1654804026378172
277		0.6102980483104204
278		0.40043969374685967
279		1.265238960318754
267		0.38623171824245844
268		0.8553349640567459
269		0.746279726149783
270		0.518595329410442
271		0.6259660987320297
272		-0.48452070423582044
273		-0.20664123983287883
274		-0.18304160427214072
275		-0.45385716944823407
276		0.9760826086668825
266		1.175573732388409
267		-0.8344895416311238
268		-1.8602117109182053
269		-0.14040103418930594
270		-0.8003946900327484
271		0.3566454161699561
273		-0.20796541885353861
274		-0.38070953021283493
275		0.03473371313302619
269		-1.8969755894966562
270		-0.6047932099540271
271		0.5614446025562185
272		0.08140828561533621
273		-1.159271663647373
274		-0.47798710820276036
275		-0.9841352777424395
276		0.3258830220911622
277		0.4278407500214614
278		1.3455785740815864
272		-0.2932634260490371
273		0.17389841411790818
274		0.519777281879314
275		0.2666780531896075
276		1.5941611125266526
277		-0.47338839178732356
278		-0.16263363812135326
279		-0.17406330423800712
280		-0.20283225130233196
281		0.6667931693203308
264		0.5526673135543588
265		-0.06582128493723224
266		-0.04825042243114518
267		-0.9420071468327179
268		-0.9705016774824469
269		-0.3840207291872261
270		-0.07036254302386508
271		0.05979365914710183
272		-0.15397243171764372
273		0.009298338172952567
271		0.18735804848101642
273		0.24030806550478884
274		-0.6335460947378935
275		0.7839403321178551
276		-0.046884494773561144
277		0.6738997731584045
278		-0.7482183026058548
279		-0.3357709773218023
280		-0.42923644230875196
265		0.7005258464036461
266		0.4753383019069032
267		-0.10816886257291257
268		0.6041861843520652
269		0.7717854864627165
270		0.17366516387377448
271		-0.46099383911142006
272		0.09403523985477572
273		0.7462529544906642
274		0.04406433935820241
273		0.017298118182176657
274		-0.7554188468257393
275		-0.4082899799626305
276		0.8395616140457771
277		0.7597871188636985
278		-1.415154605484478
279		-0.494312008582873
280		-0.32602494695239476
281		-0.09989322714714398
282		0.27040109115133043
274		0.15850459426248054
275		0.023287530254110695
276		-0.04382709975655439
277		0.4630438140643448
278		-1.20950305271169
279		0.049561512844515425
280		-1.512806147647494
281		0.030792294386234702
282		0.09341923427930666
283		0.09584594357231163
280		0.4288499561156194
281		-2.346182129376405
282		0.06178316057196788
283		0.3252135828250683
284		-1.0584063574980092
285		0.8933462853877244
286		0.8242185533058474
287		0.3265029316859788
288		-0.05521947531019283
289		-0.41392012400335587
277		0.33500886536281305
278		0.3727235765683851
279		0.010594438359096977
280		0.823448022452321
281		0.36557485304762677
282		0.18540718129224487
283		0.06102225615832788
284		-0.3378071814687449
285		-0.4847496289856932
286		-0.6341531151718197
279		-1.0879581597777261
280		0.11823871517610088
281		0.13596282563321954
282		-5.217373351256913
283		0.46872141415268
284		-0.2647834063670153
285		-0.5619320443421387
286		-1.4115782408265083
287		-0.6903553924088094
288		0.6702267714747195
275		0.8327437657086008
276		0.584180001954536
277		0.35129388566465075
278		-2.4741035181889033
279		-0.4602533336840819
280		-0.08701395161363182
281		-0.05693135873002236
283		-0.3134524436045557
276		-1.3481843701354737
277		-0.3831457361549377
278		0.5246696569581509
279		0.9006722517990424
280		-0.5789775283608543
281		0.13025624603875588
283		0.9020834154395032
284		0.4614045040112459
285		0.8104287944498527
278		-0.4279898290310955
279		0.11071807849866665
280		-0.802975764860854
281		-0.7226688173770062
282		-0.30730886377401884
283		1.1113942589073884
284		-0.07051821459036417
285		0.06991698489525201
286		0.2392011410152477
287		-0.6685428347301698
284		-0.1262866059669041
285		0.7835516125743476
286		-0.3948599969597841
287		-0.9508837871516219
288		0.2547981723328281
289		-0.12285035749776087
290		0.6364360241722512
291		-0.9824204794871007
292		0.0812251475180636
293		-0.48979887134618916
281		0.13713454606712672
282		-4.024933992160997
283		-0.7938744801368911
284		-1.3103440780716151
285		0.7567703429772089
286		-1.1771852725000471
287		-0.3637687444614655
288		0.4801699201962097
289		1.0199623030370515
290		-1.6864929213773359
288		0.6601139558193009
289		1.0673434861125608
290		0.6263818475838655
291		-0.5020874799380681
292		0.909230154030772
293		0.4505121141111516
294		0.05436912153564169
295		0.16092696720113894
296		0.20301976221955403
297		0.2618681350748216
282		-0.6415145566036177
283		0.06145682797254008
286		-0.0525839168706518
287		-1.3004415245501193
288		-0.015638586380661453
289		-0.10705520907426556
291		-0.952722378729947
287		1.7636867150972413
288		0.280262033277183
289		-1.1520567895827993
290		0.007059822311196835
291		-0.94100645203754
292		0.24431625367765752
293		0.5185296113575272
294		-1.2821541724193692
295		-0.5399217586387499
296		0.02912626187369752
283		0.15063733877369717
285		0.6842154102631974
286		0.42038811963895245
287		1.3650708670951792
288		-0.5663261083750901
289		-0.10350407388198819
290		0.20891120654301737
291		-0.8666391811622558
292		-2.991046947037684
285		-1.2807667565905323
286		-1.0393210867245204
287		-0.6883588458480793
288		-0.002983274441005359
289		-0.5465349821453468
290		-0.19209844355934574
291		0.5485540834065739
292		-0.20843880469222612
293		1.843433858214029
294		0.6073196741511543
286		0.8233910273966807
287		-1.3773641490824213
289		-0.138040742882564
290		-0.09737288192519605
291		0.15624755317640132
292		-0.639881729536771
293		4.031309240361623
294		2.450586780972362
295		0.8059117685824373
290		-0.32744616076811367
291		0.6087794221546885
292		-1.6973182003019835
293		-0.3420841843055349
294		0.49993368011825307
295		0.04613373921752371
296		-0.008759456546570316
297		-0.6976204789269909
298		-0.4047674628073665
299		-0.8083820902691244
294		-0.159993385015172
295		-0.5438416475406617
296		0.4290267249512934
297		0.9573256955997531
298		0.1657310431925546
299		-0.831683567106445
300		-0.2466762932484465
301		-0.5267735903675704
302		-2.233577280052209
303		-0.2740918576391692
291		-0.23188466618666
293		-3.1578375870286948
294		-1.801190156777503
295		-1.4376432313595287
296		-0.10341360251148794
297		0.034958775341673874
298		0.13006322023444997
299		0.5924966085957455
300		-0.042758465570453444
292		-0.4716814794393761
294		0.4685020050162146
296		-0.14220443757412712
297		0.7384548414469885
298		-0.8948077127683429
299		-0.7438421087850898
300		0.08016796427873224
301		0.4584626401528012
289		0.612002710175525
290		-0.4965668590939135
291		-0.056612561526845975
292		-3.2559281918456042
293		-0.3431748944777052
294		-0.05620439663026601
295		-0.0971672414681974
296		0.053533463105585044
297		0.02582673622287398
298		0.003452020325799398
293		0.3118009824024153
294		-0.033831952119067185
295		0.17136925888049823
296		0.7151862048863461
297		-0.1926219564915674
298		-0.05388821465348358
299		-0.4648814979600526
300		-0.03620842147614299
301		-0.19670585420640044
302		1.836627221071399
298		-0.31112349560340624
299		-0.12806194203502086
300		0.4287923368657965
301		0.15067538241361952
302		-0.14071464802511377
303		-1.1690870585332434
304		-0.1127902985793992
305		0.38205245561867185
306		-0.3141621226110992
307		-0.09063443283442991
296		0.19955262444888833
298		0.2526387158667062
299		-0.07074725788903535
300		0.24475665210378186
301		-1.8423966309006454
302		-0.8860521117631672
303		-0.7391143014840379
304		0.4835224707733047
305		-0.16532230874730694
299		-0.18867610522030484
300		1.1268243515576604
301		-0.29275899861314614
302		-0.47946275788638903
303		0.15894481198001992
304		0.21607687301020911
305		0.07545290722619619
306		0.7876422329452538
307		0.22073440570184386
308		0.4978654138237999
295		0.1775830775255931
296		-0.33789674310762263
297		-0.57264950222736
298		-0.5958997213674077
299		-1.0685811580063402
300		-0.009160377165478163
301		-0.002504368483382693
302		-0.2088428299317051
303		-0.29526986705306923
304		0.9299210112943247
300		0.26458257787675066
301		0.07672106561076891
302		-0.47511498455296364
303		-0.8529103761300186
304		1.817970819093506
305		0.07651285907843292
306		1.0006742546164422
307		-0.5301438171693187
308		-0.6751229220427785
309		-0.33349151510779523
297		-1.3407034856668456
299		-1.5734016349735245
300		-0.45068215900565584
301		-0.33058779109685793
302		0.297988688539504
303		-0.11001852545263752
304		0.35945612336165234
305		-0.5332478523788469
306		0.08160485924670384
302		-0.6634781038868549
303		0.7987055658771528
304		-0.4227885321786638
305		0.13158893115274883
306		1.051944992785849
307		-2.800477334015453
308		0.6585529930924197
309		0.04479723965031736
310		-0.40382006030124085
311		0.08710686243542502
305		-0.3863840213239644
306		-0.16359530728898514
307		-0.39253755672261437
308		3.4264019259269256
309		-0.6101891498799873
310		0.9139776508165729
311		0.4539874260000262
312		-0.39215851499549975
313		-0.7719609907951582
314		-0.24404391046080393
306		-0.034353101443677696
307		0.43119724853044367
310		0.6474725328556569
311		-0.9318220534541177
312		1.1563435237773156
313		-0.2876879620477707
314		0.8049053044206911
315		-1.707098568987144
308		0.24424233558903094
309		0.3404123815174906
310		0.40437616465365245
311		-0.1030731441002118
312		-0.6029244180157418
313		0.8252848990757802
314		0.2613062147445133
315		-0.47309534372107453
316		0.15705749299149924
317		0.3403756454249032
301		-0.07435131177421167
302		-1.4824788137734928
303		0.1548498588629676
304		0.1489069119521517
305		0.4215059534804567
306		0.8797929443662958
307		-0.09209749381666164
309		-0.08989636700528968
310		1.2283597776329547
310		-0.1601828416499254
312		0.8838768964699742
313		0.2839571360910636
314		-0.6684696246771114
315		0.9563799192150013
316		1.3429344822963722
317		-0.5001382064554327
318		-1.497652619340727
319		0.07946315933121138
303		-0.7368277697051367
304		-0.8559139266403414
305		-0.5806558392797817
306		0.29716688613669456
307		0.11497731140922879
308		-0.6785015383116848
309		0.24654436239400454
310		0.2900489846949599
311		0.1958179020248748
312		0.8602954275152654
309		0.5538535799841935
310		0.11247676524824601
311		-0.597669887313409
312		0.08313460677795328
313		-0.41474088443499235
314		-0.11085779672615163
315		-0.5675634037006825
316		0.17198082305193985
317		0.4844355033431976
318		-0.2718908952728168
307		0.07165015008705909
308		0.14781488210051183
309		-0.7589792255536418
310		0.5911456144192173
311		0.30194640628276886
312		-0.1972289874114437
313		0.3836765405634869
314		-2.671032347377167
315		0.6473190212023973
316		-0.40683618134365324
304		0.3769689261942623
305		-4.586198627498506
306		-1.1628099308871132
307		-0.7179369285259976
308		0.40056966499852137
309		-2.5354771997690877
310		2.1316075064371875
311		0.06433476022545297
312		-0.02416250069358111
313		0.12300997909896798
318		-1.3549461035992911
319		0.2594855502836846
320		-1.1109182616804596
321		0.07302883749249363
322		0.506552693603584
323		0.10522784151295488
324		-0.43480920096047854
325		-0.66386432632463
326		0.43955585089197036
327		-0.288930629075262
320		-0.22964511724338324
321		-0.37938027045550626
322		-2.8240763010838816
323		0.3915003453102831
324		0.27089298619529717
325		0.33269152190823165
326		-0.2366582289327186
327		-0.24027873614111456
328		-0.22208287557911613
329		0.8550288076619178
317		-0.3939928173673278
318		-0.054348476246526604
319		-5.331193148962853
320		0.9082477538376813
321		0.3368254855625998
322		-0.46794230577444307
323		-0.5053042317980745
324		1.1075966682163068
325		0.6056145672102452
326		-0.13237758646946696
311		-0.06280842216283225
312		0.5594677767129497
313		0.3501512986139745
314		0.01774830447159421
315		-0.11422131574091356
316		-0.17901677905181007
317		-0.6494905483251213
318		1.4408952503352364
319		-0.16815761411556954
320		0.13465585378164324
319		0.17749393482969866
321		0.08577979650505398
322		0.5053500481620902
323		-0.5939688860154003
324		1.1416086726515475
325		0.5009656823662367
326		-0.4947323309516983
327		-0.08343576871304866
328		-0.25370371394615643
314		0.5330856788825208
315		0.7422683616084144
316		-0.26535102572466823
317		0.07930009356962207
319		0.08616275796439055
320		-0.6433879169943106
321		-5.790792739963808
322		-0.259431722367098
323		0.6994623595517515
312		-0.7691865575386576
313		0.2433189134408491
314		0.25363886714536676
315		0.11354038467547582
316		-0.26027907986745513
317		0.7972868193621467
318		0.8681167296895484
319		-0.4473969678587102
320		-2.307083425209133
321		-0.3525093281967851
316		0.49322468164097105
317		0.6015518528834203
319		-0.09154418413805628
320		1.0792073738061967
321		1.0762111380613
322		0.5493110834592824
323		0.977486209343731
324		-0.011034717972143258
325		0.42840392220110757
313		-0.0903112106205058
314		-0.2172894247181095
315		-0.1680967057007114
316		-0.4190452021819966
317		-2.5614137667627253
318		1.177866875739227
319		-0.5390662978294515
320		1.0336704181869671
321		1.942335298584275
322		-0.5495820913610799
315		0.013165364235227668
316		-0.222562296903417
317		0.796691793793724
318		0.15254322359781716
319		0.08052862329623309
320		-0.43357942771130187
321		-1.4532752498790704
322		-0.7905772208761627
323		0.3571548739799557
324		1.0905952110431187
322		0.06253989054600818
323		0.4906386013169504
325		0.5013532952882627
326		-0.10644120335840736
327		0.5948387405638675
328		-0.22722867405343256
329		-4.148696690623809
330		-0.19657538654129586
331		-0.05933451391641567
330		0.4068236551903446
331		0.9455663954046881
332		-0.2902793761853218
333		-0.43064355202518434
334		-0.04450628347513763
336		0.33544305718964945
337		-1.8990158219327553
338		-0.7278586396109599
339		0.41946677623750667
327		-0.24959012796772292
328		-0.9671729288222167
330		0.5900288955517903
331		-0.31518753015091083
332		0.601591893095443
333		-1.7368906223914948
334		0.19421984560701158
335		-1.509860939011196
336		0.20405078702773458
321		0.31752590017347143
322		-0.23332756688801962
323		1.0742805022779292
324		0.06346370304095335
325		0.11538393646024868
326		-0.3450380364037278
327		-0.1630405162915006
328		-0.4774012834371683
329		-0.12760682929321485
330		0.7675140891155653
329		-0.6808143554420854
330		-1.2905765640695743
331		0.11117710595631032
332		0.41755747875212074
333		0.08968983186911436
334		-0.33735063178216707
335		-0.556065362534704
336		0.07420959381743243
337		0.7405709972483467
338		-1.0384261080061934
323		0.40233268420125995
324		0.02227755103354963
326		-0.46501256336939784
327		0.4643434901580247
328		-0.7692873090077822
329		0.197404587457475
330		0.5541868661199352
331		0.7698645590842805
332		-0.025787351714089645
324		-0.01832715158279981
325		0.24828121439703835
326		0.28992513986143553
327		-0.4856837585248887
328		-0.6406742517688246
329		-0.180387623412025
330		-0.58103555367017
331		-0.4116747054531361
332		-1.091969489921154
333		0.09009481264755351
328		-0.48084275001981963
329		0.1798059576833266
330		0.6887543800397951
331		-0.25960465202408173
332		0.3057067008207223
333		-0.007070668019509342
334		-2.451995522375756
335		0.9901868795299344
336		-2.7351477014618406
337		0.28762129320680707
326		-0.6646490959856443
327		-0.2576843684152312
328		-2.0012913156511147
329		0.2852345649122555
330		-0.9402084754016433
331		0.6249200901699609
332		0.38560250973211224
333		-0.460705129621333
334		-0.07810444452928378
326		1.1538529356850353
327		-0.5172304186313073
328		-0.5046856283370111
329		0.3637073006166821
330		-0.09088217531805709
331		-0.47337185461429737
332		0.13514692259136327
333		-0.7616032341437293
334		-0.06167544038794821
335		-0.2273140989858846
341		-0.03169043144688751
342		1.100276982742804
343		-0.08990876065918184
344		-0.3959025276364419
345		0.33890095859667063
346		-0.3959109201834016
347		-0.5847981372699809
348		-0.4658358754224426
349		-0.8275718607111541
350		0.4046931682640794
337		0.54101949571852
338		0.5143309176545672
339		-0.33396631749269934
341		0.07546122630897477
343		0.5887962366827882
344		-0.6127655989828907
345		-0.2135245176826576
346		-0.4816856892007023
342		0.01655142998441863
343		0.8977383416999117
344		0.05466905774305551
346		0.32910263909964677
347		0.31139916439560755
348		-0.3117718078163879
349		-0.516449056945165
350		-3.049019904077146
351		-0.3604005374356564
339		-0.3729999370744956
340		-0.0015136527883172035
341		0.04494379181334789
342		-0.12535894238574719
343		-1.0683580091329266
344		1.0836698477953073
345		0.4806550307227717
346		-0.6628485706800622
347		0.3433527604586961
348		-0.2226265773732878
335		-0.42855038076717944
336		-0.8657614426668262
337		-0.21447486411382782
338		0.3302584795749033
339		-0.8228610131703553
340		0.03838600754032493
342		0.27106575640740804
343		-0.13360342480449952
344		-0.3202325514419187
334		0.06809191612717573
335		-0.4523749152608701
336		-0.04476191618574396
337		0.1966198264353029
338		0.7725010329262648
339		-0.41893823361551336
340		-0.23199055397436374
341		-0.04194047639747165
342		-0.38619629688201407
343		-1.3098754680932747
332		0.3785861407394044
333		-0.19591634384134074
334		-0.1885855970794485
335		0.43638474484940815
336		0.177658441841054
337		-1.0677884854613178
338		-0.5986880301936576
339		-0.04577272010738614
340		-0.22559109198797575
341		-0.41255665972766903
340		0.4256410619901506
341		-0.3300910992189807
342		0.02427072139640693
343		0.2554190907906645
344		-0.05549065735775727
345		0.3727162164345107
346		0.512534551230841
347		0.011699905474857997
348		-0.32720692726628187
349		-0.22466669510783882
336		-0.41622532476331525
337		-0.050378784199503736
338		-0.05276676689596408
339		0.09820943598243795
340		0.40130939750110156
341		-0.17672434170742243
342		0.2749198608944628
343		0.006959338169569828
344		0.6609294186734493
345		0.6204044141317864
343		-0.5679997832658065
344		-0.03177411455306113
345		-0.5057058001203997
346		1.0706087879436479
347		0.22503120975210916
348		-1.6426328991305161
349		1.1238706310279418
350		2.910620155679352
351		-0.5535478021331568
352		0.4434172569689471
331		0.11580602794418615
332		-0.5903289235190954
333		0.11099413662098423
334		0.015981107439267034
335		-0.18221810457109713
336		-0.01938181959995962
337		-0.1696338343755962
338		-0.6627698146206331
339		-0.2511716869768458
340		0.5479632036652786
338		-3.3432690936901013
339		0.014827234533609528
341		-0.21621094434270813
342		0.07426985921324941
343		-0.19239443562914132
344		-0.5610810953204528
345		0.6655514503545806
346		0.9171019633597691
347		0.5711419614828022
344		-0.20441400730292672
345		-0.48256095567696905
346		0.23480032535932052
347		-0.4134674427135118
348		0.28709466006967493
349		0.5344673561553033
350		0.008183567624636586
351		0.8799382886167939
352		-0.1698468414530471
353		-0.5436485885923066
333		-1.6857785148174436
335		-0.3714488971632363
336		-0.7067303980205106
337		-0.11634726693580577
338		0.1392347032753369
339		-0.6072463400710353
340		0.5489546937649316
341		1.45262803211581
342		-0.0029003049439978554
348		-0.27343106293890923
349		-0.6973209978852245
350		-4.63190012230102
351		0.1923323378420273
352		-0.34909464037661186
353		-0.24960716983496728
354		0.7809900810533995
355		0.02415605430866598
356		-0.7471681123981412
357		-0.7280696315228965
349		-0.0530450508976616
350		-0.5136160789214173
351		-0.5520282455118292
352		-0.2650157392136795
353		0.42257018699032217
354		0.15852883759608113
355		-0.4699635759946798
356		0.25926532424730026
357		-0.24249279283226774
358		-0.128883158722307
347		-1.8489926991271797
348		0.35037663644253364
349		-0.41999904182690095
350		-0.2351360241011474
351		0.16372097882618258
352		0.2088816009433347
353		-1.455069349124828
354		0.8188141997627156
355		-0.22307124634643732
356		-0.08612139908128534
345		0.07202802475464326
346		0.26470100596392526
347		-0.07763669050217273
348		-1.02307501580073
349		0.2391651139549811
350		0.6846997671390287
351		0.12703338003314996
352		-1.2378290272187922
353		0.6251600458314999
354		0.022136904579268906
350		-0.41431099755798234
351		0.8624149834596613
352		1.0662711757455983
353		-0.0985576390975089
354		0.07335529846781495
355		0.15629344953362337
356		0.89816934178917
357		0.1888440877074271
358		-3.256568852635384
359		-0.1476548492024371
346		-0.8115715174037132
347		0.09003552883127403
348		-0.7541254873689699
350		-1.090446829871878
351		1.6176604542895787
352		0.0307220415668235
353		0.20588769533152837
354		1.1160018024586285
355		0.36984576164815364
352		-0.7295016101394504
353		0.08574087466214293
355		-0.04125960956262838
356		0.37210834723538233
357		-0.4636255796052209
358		-0.003281628456558488
359		-0.3035684572440666
360		-0.1278587255912051
361		-0.3113632045884252
351		-0.6435465276854568
352		0.10795682717723422
353		0.38873528482270076
354		-0.299740257229176
355		0.8165712980958384
356		-3.4627578200589584
358		-0.23782310463629278
359		-0.40882718316781974
360		-0.03471004830321952
356		-1.1384545728643365
357		0.6865180798418856
359		1.0868353767170318
360		-0.09229564472876511
361		-1.2299529812318153
362		0.47151244848610535
364		0.17008757066660474
365		0.1289160951486817
357		-1.196894289684593
358		-0.17164205359210896
359		-0.36642784003508194
360		-0.7767713158852018
361		-0.336374810847553
362		-1.8764755310927763
363		-0.3253988978501888
364		-0.7484513061700809
365		0.7355558394612869
366		0.40749925878633586
355		-0.09792664182718372
356		2.199789850687887
357		-0.10715582125492173
358		-0.21412349139838058
359		0.08147352731753849
360		0.357821007204705
362		0.11329251045986515
363		-0.27794691423665924
364		-0.2869511108914984
354		-0.312071667513529
355		-1.9863337037103783
356		-0.3355668429734598
357		-0.2987593565355896
358		-0.4529393154236272
359		0.09100464798902397
360		0.04120293281218084
361		0.0971445948264181
362		0.28583824375517103
363		0.25494668448273683
353		-1.532655255402484
354		0.978264259088977
355		-0.014626421674004185
356		0.23063341387772818
357		0.13371671148294678
358		0.14192807251489062
359		-0.08793037821049275
360		-0.16463601339977046
361		0.4978191442885348
358		-0.752938653024533
359		-0.8993180072587961
360		-0.3053829411644232
361		1.08982027779638
362		-0.3984662273946915
363		-1.0313731486914153
364		-0.8937713206448891
365		0.8031114327883894
366		-0.6162646576906267
367		0.12835473754977092
360		-0.3057166653642548
361		0.26474164786895077
362		0.09805996458318174
363		-0.17710893057330884
364		0.3407775639255383
365		-0.9278676871552175
366		0.04643883296590067
367		0.2126408619913842
368		0.14353259039835295
369		0.08339048262297942
359		0.37973264027989995
360		0.593788650039814
361		-0.19087446135586933
362		0.0591443800001703
363		0.5240315325977325
364		-1.0110903771540065
365		-0.41607145823036507
366		-2.707800521286282
367		-0.1902853895474756
361		-0.08741274785975271
362		0.03969307154258281
363		-0.19522012882647607
364		0.3009745956303896
365		0.04853103533707166
366		0.39861405092752245
367		-1.6148004286022781
368		-0.36940386370408934
369		0.24411159907906793
370		0.6751949689410551
362		-0.37275625409659546
363		-0.03230975840056581
364		-0.6081479558750288
365		-0.18291638051743536
366		0.08324944737768526
367		0.6350894864416766
368		-0.5316403300035673
369		0.24628473338227655
370		-0.6516352744588838
363		0.8099119372621776
364		-0.08330579318288683
365		0.3557509575330377
366		1.3629852102910682
367		0.6243911563871142
368		-1.148928677470595
369		-1.0779542839514
370		0.4587848781601464
371		0.340822247775457
372		-0.7152498352612573
368		-1.5216141167838328
369		0.12462915101716787
370		-0.46135425324274154
371		0.3468465650704308
372		-0.20856329655105943
373		-0.27386747176563087
374		1.4408451256450931
375		0.24244610772328745
376		-0.26769402687971566
377		-0.8902822223478847
369		-0.1734968624885161
370		0.37197528705891847
372		-0.35286210415929814
373		0.18959122155643468
374		0.6114484002825761
375		0.5630199496010406
376		-0.05927148015418865
377		0.1709083367985508
378		0.46956631357390416
364		-0.8092758574236667
365		0.7103254896582085
366		0.17655285647257818
367		-1.0569101344832306
368		1.2045757477437289
369		0.34991128025584
370		0.5051801731093973
371		0.09229078511523083
372		1.9661140991461206
373		0.012392503598520283
366		0.0484054123279559
367		-0.13867796785284284
368		-0.6237074963102395
369		-0.675100051918507
370		0.22453696004197427
372		-0.22596252067870884
373		0.19595424279404636
374		0.9579373152659589
375		-0.13528323387529673
374		0.049214602498395245
375		-0.12421109392506365
376		-0.34890138488447975
377		-0.2678197368330242
378		-0.7317555028001369
379		1.2195853868674895
381		-0.6595911151332893
383		0.3607732912663679
370		0.26681341329266167
371		-0.07717830765634445
372		0.09213385430108269
373		0.3096921436865465
374		0.5197945303157878
375		0.5617663862179031
376		0.010151537947225802
377		-0.37502249088903267
378		-0.832972903968307
379		-0.5388241167119251
365		-0.02935998272745044
366		-0.4639528525179911
367		-0.322332156840835
368		0.012553826650771252
369		-0.4154033816939466
370		-1.0800751904091217
371		0.5035074322603819
372		0.47518759396938
373		1.306983145123059
374		0.3468862841342342
367		-0.2718861971290661
368		-1.06863746255669
369		-0.3378828394625017
370		-0.5697797907203305
371		-0.2687700996792769
372		0.15214114894057898
373		0.34106015307341386
374		-0.19269322185445045
375		0.17562384225274907
376		0.2971493543154212
373		0.378139490058637
374		0.44919987822854135
375		0.8633905978639815
376		-0.08098959271151186
377		0.245241822667463
378		0.28156786351149676
379		0.12289265479112244
380		0.08383132153470088
381		0.6736414608780664
382		-0.6747689195123348
371		0.757056007865663
372		-0.6997264178442285
373		0.40955153731492705
374		0.31623329042302994
375		-0.24522871474072694
376		0.0034169859239699635
377		-0.1462093832686688
378		0.2323015867636759
379		-0.04913513339064728
380		0.9630242270838918
377		0.31930171307587335
378		0.21078142047020454
379		0.6283752475416274
380		-0.8547676646517656
381		-1.0672761161726732
382		0.924756621627025
383		0.14807543773886248
384		-0.3303441669530558
385		-0.449810560732869
386		0.1436844830685423
375		0.4452677688300165
376		-0.1146149315902404
377		-0.3069743392730973
379		-0.25374793406654217
381		0.30761117168783414
382		-0.1332709804551722
383		-0.8509219887048023
384		0.4138293717410754
378		1.95720730651951
379		0.35508515927327444
380		1.0717241595740674
381		0.014777326008327561
382		0.4198658974576455
383		-0.40222114759626554
384		-0.14912525360359302
385		0.16459804482805168
386		1.0921928318282774
387		-0.9589961408997819
372		0.43445779064476453
373		-1.711512497034081
374		-0.7497526492416094
375		0.275564560711966
376		-0.04900300336012031
377		-0.07182177922940519
378		0.36987228885456447
379		1.1122660633538648
380		0.4146328803043418
381		0.32254328266890114
376		0.041210201122733284
377		-0.4410712158974207
378		0.2666222093934552
379		-0.6484232493293313
380		0.09900790691009212
381		-0.5607599024602054
382		0.07857646925282344
383		0.19669297532464092
384		-0.14223422324248836
385		-0.019309071272218495
385		-0.27672577383463376
386		0.19683877032954422
387		0.2633249316299691
388		-0.16400213760962845
389		-0.9814255603862913
390		0.4257541517804173
392		0.23520188362187022
393		-0.7079085751332189
389		0.07829223426374009
390		0.7567012067380796
391		0.5218632605434022
392		-0.3208148828687665
393		0.2307665161059598
394		0.472689556688248
395		0.6441746100371871
396		0.6479327897762479
397		0.29385714216887837
398		-0.8019202187483684
386		-0.017026155074722753
387		-1.2101808324039707
388		0.5912506070450404
389		0.49063328670683193
390		0.49326891441721077
391		0.8779411262858495
393		0.06810807668471218
394		2.188757690018084
395		0.10001658757823721
385		-4.1719687807863925
386		-2.7757216004714453
387		-0.7119452404647202
389		0.31989694181498973
390		0.09229601049127731
391		0.6268040860705776
392		1.0787588032377926
393		0.3083591262923049
394		0.09425429707673463
380		0.10228928857959617
381		-0.2963014922976942
382		-0.15491484863133992
383		-0.41487559874968893
384		0.28985801555743534
385		0.22217630141629138
386		0.9327813113423425
387		-0.3969545662345474
388		0.07869857300253302
389		-0.8093895244201359
381		0.5624500239347642
382		0.24715626360847592
383		0.18296363555545103
384		0.06323821398565627
385		-0.15150214956294342
387		0.01891183900546378
388		0.0886867791830826
389		-0.35458526942797214
390		0.06774160197348805
379		0.7417550715625612
380		1.2174611206516108
381		-2.2432602344829067
382		0.33396882325980354
383		-0.22711454828912855
384		-1.198257335413475
385		-0.06740982415414026
386		0.2145179036858194
387		0.36388665465472303
388		0.11514181510886405
387		0.30313978185729423
388		0.00683602621974731
389		0.46880061966330977
390		0.2272317838123552
391		-0.4761118835233887
392		0.23063682672827499
393		-0.8169228038190008
394		0.4845836668246073
395		-1.3753838172750905
396		-0.7875199987628978
383		0.9143592718372917
384		0.6648724017950292
385		-0.14142384288385496
386		-0.2548326235304187
388		-0.011357596475608854
389		-0.726556602010713
390		-0.5436008277445481
391		0.22002272792901806
392		0.8321565252975558
382		-0.34953193711831393
383		-0.10374520761875587
384		0.1904199497468502
385		-0.1164528329177633
386		0.0035730359120030096
387		0.3946563753519519
388		-1.1130706984450245
389		0.12956415860797127
390		0.09827103490293844
391		-0.06854112007482077
393		0.08073212979868993
394		2.0664125733990457
395		0.10506418425747022
396		0.5164161300829864
397		0.6703523773064066
398		-2.3442547494927224
399		0.2071531242604992
400		1.112997234787591
401		0.021155620331640188
402		0.6656687405776688
394		0.10188223110686033
395		-0.4323700521051458
396		0.2385412243286333
397		-0.18145746052175837
398		0.9425829499913467
399		1.1363180805887823
400		0.16062450651348406
401		0.37612587662414276
402		-0.20085567416229927
403		-0.535442368871758
388		-0.1695652766892335
389		0.2129855678030154
390		-0.6372242242448725
391		0.12684072799242463
392		0.33493421241632304
393		-0.39534594210453416
394		-0.698983942868172
395		0.5298792660940812
396		-0.41572732062283724
397		-0.3931914245935502
396		-1.0542741778072817
397		-0.43775140679899854
398		-1.9518398484648918
399		-0.3802008415355437
400		0.12126244928927524
401		0.9041677286353789
402		-0.197133845089868
403		0.6670113670529901
404		-0.26729557757465683
405		0.4493562493674744
397		0.3366476885717238
399		-0.2708662079179692
400		1.2091524684753259
401		-0.07630854522159766
402		-0.7410047322655168
403		0.2901226639190516
404		-0.4208952689366075
405		1.176382108238158
406		0.8569366362409142
395		0.5176414222006418
396		-0.5697845349709217
397		0.35050831089301765
398		-0.5652594514544603
399		0.15110292398753056
400		-0.9743328683335246
401		0.6989824184401247
402		0.38606433147794383
403		0.33318591351197624
404		0.5680823032345919
392		-0.034587924434602665
393		1.7035442442469135
394		-9.474515544256041
395		-1.6036706708801534
396		-1.0889994609331142
397		-0.00990321389795507
398		0.009658195668728414
399		-1.1273233202104365
400		-0.18712877729185293
401		-1.7469709469260546
391		-0.032842507970970436
392		0.1512181071572185
393		0.3888852874851923
394		-0.31867316208306223
395		0.2852788586768716
396		0.22856776460868505
397		-1.8690869775748449
398		-0.6090711705739741
399		0.014409644200439617
400		-0.5997699616723741
390		0.2108605412325171
391		-0.16081168484088967
392		0.3535992707339752
393		-1.0026865812699928
394		0.12039917267234373
395		-0.1618720915074335
396		0.7360031576270413
397		0.2866799451665726
398		-1.909929579977534
400		-0.13564960025738082
401		-0.4048928445164931
402		0.46039367691423666
403		-1.556461049385056
405		-0.068337211999312
406		0.35720057002219346
407		-0.11053329796134956
408		0.6607394095404133
409		0.026672611614970133
402		0.3451731162734367
403		1.015017108085088
404		-0.48505827580532224
405		-0.17967366666889106
406		0.4207224624353985
407		1.3857196066992492
409		0.6181532029132962
410		-0.1991222336949955
411		-0.30917188926615735
398		1.2625199847951152
399		-3.186868498467825
400		0.36882723812228924
401		0.13506568675053607
402		-0.38178727611521807
403		-1.0165505021907106
404		0.024068183585106068
405		0.64253170392487
406		-0.14229655751728104
407		1.4382412771686746
404		0.2591573599631105
405		-0.8025970850392632
406		-0.11780612765036767
407		0.07189862543485048
408		0.2172273472850078
409		-0.061262265854451346
410		-0.2807045543494643
411		-0.10935345661966127
412		-0.20694331401431093
399		0.22507614585206093
400		0.38215433540972354
401		1.6436162153969387
402		-1.5375450396181283
403		-0.4322419574604523
404		1.4303770459238567
405		-0.9733761562294998
406		-1.2925901389558097
407		-0.1324536136540245
408		-0.15123459224385585
401		0.026535637227016837
402		2.183988688524463
403		-0.01226974933702147
404		0.26258625962951787
405		0.011706207988790246
406		1.0832070185585907
407		-0.06081248332410579
409		0.5337254922307665
410		-0.31773339857362864
404		0.518473545538428
405		-0.35482533852531395
406		0.725134938563695
407		0.04150094291680805
408		-0.05120600729720069
409		0.4823286544435168
410		-0.6083488897425887
411		0.19508678225300005
412		0.4969868682442751
413		-0.31103594777384697
406		0.1394593770557429
407		-0.8516204619485532
408		0.24786854053163676
409		-1.030138215399068
410		0.33481093366647435
411		-0.08657793352335892
412		-0.40169529234410406
413		-0.6669457373733815
414		-0.10413936126015202
415		-0.5756759249173887
410		0.2208185504856813
411		0.05381273251850882
412		0.2838184632109699
413		-0.7181476099154895
414		0.794102335664289
415		-0.4568869585489699
416		-0.33310568148167224
417		-0.4354091795108315
418		0.8656722577667126
419		-0.7846967583771819
405		0.8639913631825377
407		-0.2848638394075695
408		-0.5033136376209121
409		-0.712493256538589
410		-0.6544324850288735
411		-0.7101625216815771
412		0.3897536408875718
413		1.720425295781175
414		0.03446541497618206
409		2.643371298726664
410		-0.7724633619756416
411		-0.8900425700107277
412		-0.39794495641748473
413		0.13860763573840806
414		0.0891306078655684
415		0.504929564695375
416		-0.25157525726337804
417		0.09378175996638298
418		0.4975212496891344
412		0.7168055668009798
413		-0.5203508539480343
414		-0.10963382364425273
415		0.00627585781232402
416		-1.0494546582388327
417		-0.053648706224756385
418		0.1426865336742116
419		-0.4130517277129467
420		-0.20254988032625018
421		-0.5180717225919166
408		-0.3297977539573649
409		0.35086558368409526
410		-0.2634961557404934
411		-0.37623888593735644
412		-0.2237151006194508
413		-1.1376366850862794
414		0.3349480897843321
415		-0.7701773246032534
416		0.5362057580745706
417		0.4088133707203264
407		-0.48493515023112255
408		-0.25213659631134233
409		-1.0986232696467442
410		0.6125432779073446
411		1.6202775637248858
412		0.20388218947996017
413		0.28278638180586474
414		0.10788471692598665
415		0.8522306132669734
416		-0.9692236766958308
411		-1.068720295188386
412		-0.7063182538411965
413		0.09918072895326674
414		-0.8451794492012357
415		-0.2656909231559428
416		-0.21539512728811835
417		0.5071193587844997
418		0.0014116382749160196
419		0.11712947899655692
420		0.43472283270792594
413		-9.504919168539015
414		-0.5679273212950003
415		-0.7308086536154419
416		-0.534805896391017
417		0.09062577636693424
418		0.4728760893072821
419		0.27989049235095914
420		0.21026704584301598
421		-0.08798066776038331
422		-0.496185016260282
415		-0.583494073038789
416		-0.9403380287669946
417		-0.6250988983128013
418		0.677684442473289
419		-0.3823727649054425
420		0.43739784656554864
422		0.08959978283688451
423		-0.11506685365293584
418		-1.1570484234523855
419		-2.2286028931578064
420		-2.2199526406010377
421		-0.3096144270340902
422		0.19464044335042083
423		0.07673501027780918
424		0.7179905597048177
425		1.230832157214126
426		-0.04997049192632105
427		-1.5882252641262462
421		0.26994143444774654
422		0.1603810116170558
423		0.3015746527063506
424		-0.6200815370967989
425		0.024238906447642514
427		-0.1288517488197129
428		-0.679870163984278
429		-0.003695454724759032
430		0.0018232874263361446
416		-0.47580311891678845
417		0.3377239125932173
418		0.06664119327135364
419		-0.36227317962924915
420		-0.5232670720521602
421		-0.17001584513622742
422		-0.49225595319633364
423		0.1373076451253989
424		0.583707154985769
425		-0.5368705657979982
420		-0.46915336399556135
421		-0.375591722027189
422		-0.011081420471492081
423		0.5594611114008133
424		0.19713456184287187
425		-0.7923822484215806
426		2.015170922721523
427		0.160079623871779
428		0.03502057620631856
429		-0.5853490512084378
419		-0.4246092310381211
420		-0.3248766477277112
421		-0.5053783981687329
422		-0.7427439513277676
423		-0.21062405519225577
424		-0.18589629753832007
425		0.00361784303294905
426		1.1762029098781104
427		0.315617226468428
428		-0.2517290794889347
417		1.0136494247545604
418		0.0586239711569492
419		-0.009893601094674112
420		-0.36614729529087975
421		0.2434920898791806
422		-0.4835183974983537
423		1.288660973229126
424		0.8552050656971355
425		-0.42624923233984324
426		-3.7212485841317777
415		0.11613868631924079
416		0.30913062604497543
417		-0.038472603816800684
418		1.8752290786752817
419		-3.1053980285978082
420		0.24703882783083347
421		0.25072172025599815
422		-0.08454722560884018
423		-0.17393372485854958
424		-0.27582966104700873
424		0.1999807019519217
425		-0.2867533854703142
426		0.24622673215328592
427		1.4743344386385309
428		0.351590667180638
429		0.05468300348384398
430		-0.5372658975625582
431		0.9030858321349108
432		-0.30585934134007303
433		-1.6798367096670777
422		-0.2653894112155567
423		-1.0837411600998725
424		-0.33713726834880686
425		0.3837112595992527
427		0.7630227726117914
428		-0.7654225704897684
429		-0.7564983542882624
430		0.45941126109087854
431		-0.08886773199705805
423		0.011097761037089406
424		-0.06104223246855642
425		-0.0746537039373104
426		0.18077385983313643
427		-0.6085892651787428
428		0.40523596996060157
429		-0.4129366493504586
430		0.816143545290068
431		-0.5568991323568523
432		-0.2833384864177959
