0		-0.8489670184411205
1		-0.8220324324731931
2		0.9426952192862601
3		-0.26893984675084287
5		-0.09263871839339459
6		1.358410323740886
7		0.07644749641941241
8		0.16792847276553932
9		0.28670085534579093
10		0.04926311236860657
11		0.05001079343231439
12		-0.2991851784391786
13		-0.06143198962746841
14		-0.4736372700241776
15		3.102288529729004
16		-0.5380522289364388
17		0.2536185697080326
18		-0.05303426783531919
19		0.7821348278740331
30		-0.18951017318336005
31		0.3048661416280074
32		-0.18135029616452655
33		0.2634764662166449
34		-0.4561953137051241
35		-0.3018493593539584
36		-1.3626550395012293
37		-0.5631812813779751
38		2.0022194045906425
39		0.7302094110402433
40		-0.7206414599396341
41		2.3330390311539055
42		0.7674998294733236
43		-0.43679082974544703
44		-0.44621360111037167
45		0.011849471433607844
46		0.37228959597486183
47		0.2250437267424169
48		0.1878910240234041
49		0.29471823901789496
50		0.5377276078680602
51		0.13901266551731867
52		-0.15200195696452917
53		0.5181260422468358
54		0.09800539229094327
55		0.5149937002969434
56		0.7289137983074762
57		-0.03459687774192699
58		-0.741107693858238
59		0.7184319561051699
70		-0.8607246462885233
71		0.03845881080281994
72		0.10931523920980014
73		1.5388998386336143
74		-0.09914513135491025
75		0.4427616211395351
77		1.9524883059717997
78		0.6578774527588358
79		0.032566098060074405
80		-0.3660585796306635
81		-0.15865373359204935
82		-0.31303655980783535
83		1.6708909999559793
84		-0.36273789629593933
85		-0.34382531424324897
86		0.03391039790125743
87		-0.28950547964865797
88		-0.9991729978241932
89		-0.23585242847202229
90		-2.753511781131983
91		-0.29514660431550277
92		0.18773728446636356
93		0.11228636436936765
94		0.40627475422379744
95		0.014684766729159726
96		0.4951689675806817
97		-0.6326973897291723
98		0.27717942980074556
99		-2.935691672074507
100		0.21364729423172496
101		-1.1861177901440991
102		-0.40126132169427814
103		-0.8993517179140612
104		1.5354880811559832
105		-1.0819307545848393
106		0.10208442249217806
107		0.663123589925365
108		-0.3931979895122755
109		-0.30234257515838525
60		-0.29974170409475126
61		-0.6022746299990781
62		-0.37782791488608114
63		0.34412148043952434
64		0.9809468532385514
65		-1.3560803559082255
66		0.33905055269391443
67		-0.3563574854250164
68		-0.8891676860361571
69		-1.2582890872163788
120		-0.05922780063684811
122		-0.41176429427223726
123		0.06463681223765448
124		-0.03745025392878242
125		0.07373454445626208
126		0.304040557275603
127		0.17181659741640615
129		-0.09466840581923773
110		0.1747918335215697
111		0.8596675039622098
112		-0.4780145616551622
113		-0.8003104997758138
114		0.05969812260863584
115		0.11248877685250518
116		-0.0994193899103582
117		-0.15947492437813754
118		0.7824764321211891
119		0.4174257203611278
130		-0.4441818427880223
131		0.9138674413632292
132		0.6735884277890307
133		-0.848189258980863
134		1.071434651237671
135		-0.6033760698708652
136		-0.7096845324178558
137		-0.20642696481912803
138		-0.028771223243130008
140		-0.7042577070002384
141		-0.03173473307801452
142		-0.267837515658706
143		-0.1264218266181487
144		-0.006964629568945658
145		-0.03639181387636248
146		0.8665409607630858
147		-0.016964106869279544
148		-0.510846794174403
149		-0.12162401238557956
150		-0.5001526490566137
151		-0.7986508604446881
152		1.58808961241333
153		0.3239663900716579
155		-2.0885863974814383
156		0.2652909493646145
157		0.057422459869945576
158		0.8613429738349188
159		-0.2988912915431222
160		-0.26689151718942605
161		-0.6326154049978401
162		-0.29313345770390026
163		-0.6495156038402233
164		-0.32292188070284294
165		0.8115937928859468
166		0.004930826210004783
167		-2.093707392159067
168		0.7041362999249621
169		-0.15127701349989922
170		0.7080307684288132
171		0.25486433749087334
172		1.5161669467002061
173		0.0017219358493515073
174		-1.5631933909807836
175		0.7521728247644041
176		-0.5833596983208955
177		-0.2824050284020477
178		1.1427257958551054
179		-0.07011371460329836
180		-1.119334759765556
181		-0.5917216164773706
182		-0.2720069972670566
183		-0.5472408754723371
185		1.0085206599212624
186		0.03624851192544065
187		0.13875296416198352
188		-1.9135859788726175
189		0.19932010228340952
200		-0.7628077961917844
201		-0.32509535775217535
202		-0.10639685852266861
203		0.8615195239499319
204		0.6120189485839712
205		0.1367874611566634
206		-0.5003725207452622
207		0.05115923407470618
208		-0.2642079392417862
209		-0.047337635945765545
190		-0.638075643266825
191		-0.32099858447351187
192		0.055776625995881644
193		0.5303441802017964
194		-1.1949831284272112
196		-0.569819319934197
197		0.9274817980694522
198		2.007407035389214
199		-0.11094644627425652
210		0.10290215209447706
211		-0.1990355018075145
212		0.338994602137144
213		0.16305572972741772
214		1.9214202429811793
215		0.15300387509758
216		-0.7235888124991979
217		0.2981756189867761
218		-0.4181304676346258
219		0.3508159765777394
220		0.3412340599326407
221		-0.4011100406898022
222		-0.10367129752213386
223		-0.4262083238514017
224		0.2783547991095366
225		0.22343142522197765
226		-0.28971088973613796
227		-0.1305649957326326
228		0.4798539374867181
229		-2.034737799052858
230		0.05610211504454693
231		0.2543103701757886
232		-1.9455622747133394
233		-1.0402383661181107
234		0.039788447616882404
235		0.4167673853777681
236		1.3341906175795977
237		0.33106827353689716
238		0.013518182484366481
239		-1.3358367419459956
240		-0.3515611481564431
241		0.6156496468480146
242		-0.47943715984881147
243		-0.891481777727329
244		0.2790267463396455
245		-0.7851156672709056
246		0.4075112133087844
247		-0.25536404206321134
248		-0.931860507730985
249		-0.9969055924261628
260		0.6565929274197037
261		1.9691520599003174
262		-0.5200501013895884
263		1.8977019260506216
264		0.10065550989658813
265		0.47980064599292677
266		0.026970538822294946
267		-0.7235424990158781
268		-0.5068432435225331
269		-0.30956929974454006
250		-0.631244530142895
251		-0.04186469276450086
252		-3.2343285602756473
253		-0.22615786553251951
254		0.46475341415442
255		0.7523742125513214
256		-0.05497175357419765
257		-0.6516457383733002
258		0.6020278109072253
259		-0.11692060644117204
270		1.0154831049748032
271		-0.17844029253577767
272		1.296626338214569
273		1.4757442950239574
274		1.5406331025044262
275		-0.5120905733818522
276		3.3614133155159243
277		-0.7711060896444842
278		0.5662426340142781
279		0.2513085586576218
280		0.21366059091184386
282		-0.039480099937065284
283		0.5238548297900093
284		-0.440864822506517
285		-0.4058610705562178
286		-1.2115694074617447
287		-2.9561778843067517
288		-0.2829872535396143
289		0.14650666816327854
320		0.03743437315212794
321		1.1107318625758602
322		-0.2461262333840748
323		-0.1279844652007967
324		0.8239907663426616
326		-0.45586676559823475
327		0.1577371515892586
328		0.36481689527599165
329		0.24357863236764082
310		0.12603212323744603
311		-1.4469784717891399
312		-1.176935006395766
313		-0.5882425984098457
314		2.364195561691828
315		0.6295336740040647
316		-0.8774024781386051
317		-0.4405851255372918
318		0.14222969761936113
319		0.9608005689358957
300		0.03976804975364856
302		0.11316016602161919
303		-0.7083061647132858
304		0.4201217255760784
305		0.19008893574967775
306		-0.3859245109239443
307		0.06927093135532401
308		0.1076317994885895
309		-0.022804104714284533
350		1.075942386886503
351		-1.4561220622345914
352		-0.6318613072730456
353		-0.766806225794571
354		-0.018277289798599404
355		0.6877933983920896
356		0.2827037273224807
357		0.06871753356814997
358		0.17300392097323594
359		-0.01298035994607138
340		0.2662326476188871
341		0.2618937989258702
342		-0.4455940873547707
343		-1.7753641751549927
344		-0.29521382638787763
345		-1.1572659670823955
346		0.18834194225626116
347		-0.3714176280909254
348		-1.0352747511656157
380		1.3243847697966915
381		0.6405259005042556
382		0.1482713138579631
383		0.4679816257703613
384		-0.7772461974227234
385		-1.1249554087730973
386		-0.10404722779679727
387		-0.12689395885457155
388		-2.928510831428272
389		-0.011853005575882553
390		0.2673452089158034
391		-0.007049985507343958
392		-0.5392276876382959
393		0.239291302189997
394		-0.5044127561298278
395		-1.2556208339986055
396		0.5520472867502602
397		-0.0603486813948596
398		0.47191926515302607
399		0.07244303136450907
360		-1.1909718300986822
361		0.042800948247190114
362		-0.01283029061592526
363		-2.804047757252737
364		-0.5987696171179069
365		-0.0631673779712772
366		0.4184246165072851
367		0.5920402236905912
368		0.15545883092820695
369		0.35281131955249073
290		-0.6859400244462391
291		0.5812748658977953
292		0.2558808120411035
293		0.29840816978203194
294		0.4544096719908227
295		-0.1679986073266051
296		-1.920187732650941
297		0.19132952578603563
298		0.30187672546185473
299		-0.9179701666374857
370		0.413068246920297
371		0.20897086933765155
372		1.6591991951751073
373		0.6578960202528092
374		-0.46042101909944677
375		-0.016527926192951462
376		-0.21057683193765905
378		-0.6617557002407279
379		0.8494275000956059
330		-0.39563785147058983
331		0.1208615687705925
332		-0.09552042256043325
333		0.5877950305571595
334		-0.21850938715586746
336		1.5657355832181368
337		-0.3436696278384284
338		-0.6020863404661269
339		-7.4984919978803894
400		-0.46665671889070964
402		0.6966289978215591
403		-1.250447909496993
404		0.8221807059317543
406		-0.1651825561142866
407		-1.983054304323456
408		0.07101466586637215
409		0.44675969823276956
410		-0.8172240456244055
412		0.581755012100109
413		0.34233242609905645
415		0.4011160885359207
416		-1.3021273108890223
417		0.6311293024266657
418		1.5251005473000867
419		-1.4880237610603977
440		-1.1398963859549383
441		0.5730815799390179
442		-5.790530850257634
443		0.0736187653423766
444		0.1667476075549527
445		0.3404306390520656
446		1.146840269860042
447		0.4594632863508207
448		0.564210038259911
449		0.9879705341947898
451		-0.3046269808223214
452		1.0235001132744117
453		-0.6555889719689387
454		-0.8770980641473991
455		-0.7364605052173717
456		-1.4959471544157121
457		-0.008554404845776357
458		0.8523001748492285
459		0.6147053924672681
460		0.030134750115936214
461		-0.49700438490970217
462		-0.48690445867820503
463		-0.8982884945259375
464		0.7209656864095382
465		-1.1804701026221314
466		-1.151117987947387
467		0.05991649074045296
468		-0.4522887358900956
469		-0.0891929269802918
420		0.6567337125357933
421		-0.761799098597997
422		-0.23948474939706751
423		0.6173640269175373
424		-0.27211124276020426
425		0.7131244370934535
426		0.423533162558086
427		-0.2082865090818898
428		-0.09136694080622416
429		0.16885250939656163
430		-0.41661881128703093
431		-0.3644217189155678
432		0.04894720099382682
433		0.3750777623772552
434		-0.8652304377425382
435		0.8516547451373022
436		-0.5688271864204436
437		-0.12539716881371737
438		0.9970213098847792
439		-0.5095710919295429
510		-0.0031995032430615017
511		0.886144717506023
513		-0.6948133554516485
514		0.020107616029755096
515		0.5917009485189254
516		0.28685171216473065
517		0.8839952221129972
518		-0.8922887096102075
519		0.2884238451221152
500		0.06028750776448077
501		0.8899084678929426
502		-0.3974136304003811
503		-0.3083605336230215
504		-0.060818247061364274
505		0.247888896848883
506		0.19516247814770926
507		0.4658146093761413
508		-1.5304863998341007
509		0.14218082549075975
480		-0.45301547869759495
481		-0.7650116569641712
482		-0.26677626648843855
483		2.4661529780734774
484		-0.032381493276783004
485		-1.2592177505285724
486		-1.1990584085285814
487		-1.828895987550119
488		0.3209145303176568
471		-2.4606054325179505
472		0.9486727526626679
473		-0.5587281432088365
474		-0.34617731332814106
475		-0.2789251823100283
476		-0.2575050284897725
477		0.14638986530063683
478		-0.3121845651570681
479		-1.6235694458073335
490		0.6932354789326071
491		0.19523859123529658
493		0.1660168809235222
494		0.019933525472982282
495		0.03520973731955817
496		-0.10067821440718237
497		0.3051721937718128
498		0.5409751724220747
499		-0.6707918952532346
520		-0.6440129711849452
521		0.8263821891418222
522		-1.2696998226859244
523		-0.20892099951964946
524		-0.7928960704969257
525		-0.9017303116972711
526		-0.2235225354519738
527		0.050478896097057066
528		1.966448248300219
529		0.11135975675635916
530		-0.9100504018056753
531		-1.0212201067575482
532		-0.4246131033053019
533		0.5880653842265846
534		0.24093298727827542
535		-0.04853771631506819
536		0.020874154763818185
537		0.1941081330098998
538		0.5396865136208306
539		0.28227181427309855
560		-0.1588380832773073
561		-0.41479965048069267
562		-0.5580812607184202
563		-0.04124027621332985
564		0.4278294835954938
565		-0.1522706166653742
566		-0.4568858239486841
567		0.7235078719362561
568		0.084376623563128
569		0.3078341567488649
550		-0.35827690408199325
551		0.5430121557426465
552		0.1655890315607317
553		0.8434463647197252
554		-0.08368299236186877
555		-0.02128523080255886
556		-0.05634797454980723
557		-0.11362440001366778
558		-0.2705126309891514
559		-0.22691367394584236
540		-1.257801324684054
541		0.11253379534147252
542		-0.3750062984413072
543		0.46555105679502684
544		-0.19562205774017946
545		-0.3296866946144973
546		-0.5252919459585108
547		0.3406555779067501
548		0.8305389478815937
549		-0.18732397724073296
580		-0.2489838908135879
581		-1.926898396263836
582		-0.5275892279374105
583		0.005283422895879449
584		-0.4820432800466454
585		-0.7604270334166262
586		0.06041745378665876
587		0.3745318238860565
589		-0.8571993864430894
590		0.2794981117530531
591		-0.2575815383958393
592		-1.8974123282930233
593		0.319291345996669
594		-0.3373247057854424
595		-0.07770660090243905
596		-0.06723322929163651
597		1.4719221496490549
598		0.044383764219898404
599		-0.25196924702760065
570		0.7416094263272791
571		-0.3180679087193757
572		-0.6518979964961295
573		-0.26877276676026546
574		1.7383773384098542
575		-0.633308339672797
576		-2.138170369413609
577		-0.0942951348213948
578		-0.3989127000038339
579		0.38807078448714716
611		-0.31739929843599884
612		1.3619456527443763
613		0.36590163654448893
614		0.05535679640198951
615		-0.11965534976216409
616		2.258332577482319
617		0.3431193818692538
618		1.5746136699539974
619		0.16564351077963174
620		0.36728974486404664
621		-1.7427585873588076
622		0.3019227530085467
623		0.18844426344038862
624		-0.1302539927821343
625		-0.41651263637059477
626		0.3474309460398421
627		-1.5295683557734023
628		-0.053174042063192074
629		-0.0851143982539134
630		-0.6468213350958169
631		-0.8890450208182719
632		0.1685185758945265
633		0.07758147940086474
634		0.43114826900164516
635		-1.2210948944150777
636		1.2309519662468724
637		-0.11515413532296902
638		-1.7723429871454492
639		-0.3840005124626501
600		0.3102344977532112
601		0.04647634751720994
602		-0.5669931644018351
603		0.10359441496572301
604		0.03062178509854731
605		-0.5377247835534998
606		-1.203931919944674
607		0.3198749993776347
609		0.37651766693517075
640		-0.34211613956206083
641		-0.45000123206474374
642		1.4068896476159427
643		-0.20343770249538168
644		-12.726847697946079
645		-0.6305460216868592
646		-0.9841328339051968
647		0.08325518447185994
648		-0.316636592907764
649		0.7665568553322705
680		0.1996636328137986
681		-1.488608775432817
682		0.2422563498833521
683		-0.4838544531730155
684		-0.6769957511190932
685		-0.9840504288096369
686		-0.35321007010464917
687		-1.2347339110275248
688		0.6210383493328248
689		-0.43488790034493086
700		-0.2576590110126767
701		0.6111991756790724
702		-0.9673184066325824
703		-0.7462532754128748
704		-0.09259089786517088
705		1.9867947990217767
706		0.4864466780913566
707		0.04808209338031862
708		-0.8816259862010909
709		-0.19193888402703407
670		-0.3634112271491988
671		-1.0036134746104697
672		-0.02131186049031058
673		0.4633435599978647
674		-0.39080308669264496
675		0.23007416551296472
676		0.003170900175249912
677		0.06958081788218291
679		-1.1130853913678933
650		0.35112724647721427
651		-0.28164492238885086
652		-0.2894500809590855
653		-0.20008169429424844
654		-0.1574959243128869
655		3.1939970437140235
656		0.46927135759407357
657		-0.5503310206643154
658		0.08443098921019149
659		-0.8206477122459683
660		0.44507120879564654
661		-0.11694628995599009
662		-0.07360908712231919
663		0.35662205210749515
664		0.601446141588252
665		0.20793603446260286
666		-0.2197973735426755
667		0.6253692379287988
668		-0.06123599518807191
669		0.19550547119998996
690		-0.0673706269455028
691		0.7537894539537545
692		0.1577199942232807
693		0.006244932522896469
694		0.35335264652189774
695		-0.9110011599261885
696		-1.5811759231883193
697		-0.11343578918590752
698		1.2493229381708535
699		-0.1919131147373774
720		0.1748673269666653
721		-1.2383403323424962
722		0.5430018318646744
723		-0.1042215177399785
724		-1.0044050302263614
725		0.8792329157382356
726		0.2955298941665381
727		-0.5279502709368755
728		0.7882398037035495
729		0.6682788045653386
710		-0.4486517796238497
711		0.05496259964029957
712		0.40446692707703336
713		0.12330092968454737
714		-0.2457936033411162
715		-0.2861729926855774
716		-0.06524835442962562
717		0.2917452897909815
718		-0.21208415348570236
719		0.628717812580029
730		-0.23257641585416128
731		0.07550975588974213
732		-0.032568695293161386
734		0.19951309854125915
735		-1.3183109504022386
736		-0.03505272552839417
737		-0.8220058159753035
738		-0.8242672805656468
739		0.4407248540937777
740		-0.07760095064004872
741		-0.5434460397616394
742		-1.9877451978824943
743		-0.18633560087841294
744		-0.5068082904167382
745		-0.07963906263993516
746		0.32661306229168896
747		0.09517416635189868
748		0.23561914607066387
749		0.7703474437145219
750		0.1497459705590795
751		0.18467006829907057
752		-0.3223442291954781
753		-0.7008897643664255
754		-0.1416600125175684
755		0.4676060726331793
756		0.9387607453471559
757		0.18132634176502607
758		-0.24203936150706598
759		-0.9441190188262226
800		-3.679158435363773
801		0.6878455747186334
802		-0.8273976743071241
803		0.9680426226850396
804		-0.18819420229513903
805		0.6691091695091288
806		0.4702913606641736
807		-0.3535531797356494
808		-0.8667923636429491
770		-1.1880741386721398
771		-1.1596773258492636
772		0.7079756609052937
773		0.35329707324291937
774		0.8156114100642948
775		-1.121164334384633
776		0.5593967184334784
777		-0.020205947047542683
778		-1.288948561271751
779		-0.11248511795881047
790		0.35046334991099404
791		-0.259893995898532
792		0.3558043783248162
793		1.1693218031554193
794		-0.6143676100228813
795		-0.9592439946779678
796		0.977451610501069
797		0.5357400591855589
798		-0.6438690259257498
799		0.22348184207208893
760		0.29850703912237425
761		0.20426892071025796
762		-0.957807335051205
764		0.5740313426259062
765		-0.22385041839350464
766		-0.051335390891952826
768		-1.509304249386871
769		0.29949287242715084
810		-0.03186311354524437
811		0.406052980439935
812		0.4113060241693929
813		0.1869474434136973
814		-0.6493264149310192
815		1.1569513322620484
816		0.32506209471772224
817		-0.23506752501634118
818		0.18895313732862193
819		0.5510542618921688
780		-0.5180942184631074
781		-0.08052790699124235
782		0.33552898436828765
783		0.8707500900803644
784		-0.1692325355179309
785		0.37156709957190753
786		0.21689204036583196
787		-0.5592124871793247
788		0.010167058813773368
789		0.4263556141354725
850		-0.4661167703322204
851		-0.22679638646155034
852		-0.31977725339180435
853		1.0484050945949777
854		0.22344522807997932
855		-2.5012042469375317
856		0.3761227897512307
857		-0.07420424491194626
858		-0.22060544048771571
859		0.38794475886061325
860		-0.4765675066055993
861		-2.1755761516146657
862		0.051472277067594566
863		-1.2907021124709879
864		0.8756576901552179
865		-0.004967968105854839
866		-0.4090993066217721
867		-0.11012714704405846
868		0.9900581275124988
869		0.6938981497226201
821		0.7027362667518827
823		-3.165345558069096
824		-0.24792227125723582
825		0.2943049852281986
826		-0.19959639425617556
827		-0.03038171699303864
828		0.595652309822208
829		-0.5876112441915141
840		0.5197785042036965
841		-0.11153256371702455
842		-0.7606547263459258
843		-0.10535718651715682
844		-0.2340157265099272
845		-0.14272096659378833
846		-0.9234997398154794
847		0.0945514660041896
848		-0.48370896133783664
849		0.20812831996082756
830		0.2768023381641665
831		1.3984829592060795
832		-0.21033442582311943
833		-0.49090253107367293
834		-0.21094057975004338
835		-0.07196407367960463
836		-0.27046661087548424
837		-0.2953324154655213
838		0.2874893698235275
839		0.21506820741510038
870		0.5040441194647877
871		0.4251698098464846
872		-0.2340079681263204
873		-0.9527311796698991
874		0.3083339363621563
875		0.7340468262304063
876		-0.6188093750993123
877		0.5705204777989297
878		-0.0014635106574569293
879		-0.027917798087627562
880		-0.6722337934616821
881		0.8463043439609319
882		0.19624750497639162
883		-0.8959380995654695
884		2.32941142179317
885		-0.38812181408304885
886		-0.5370873917726625
887		0.7803711634698177
888		0.45399365736597513
889		-2.833967082665713
890		0.12867324192559668
891		-3.195259450409377
892		0.04174717533944871
893		0.522547979863999
894		-0.02224923003876658
897		-0.3522726440613128
899		0.40229255063472447
900		0.5287970784368652
901		-2.9346890130969867
902		0.08428465574102967
903		-5.305230583157697
904		0.5691831309383516
905		0.2785381520355875
906		0.23038193624909553
907		0.36633511772083854
908		0.08528959877378982
910		-3.4406265064693695
911		0.6411322257872919
912		0.13765160960586542
913		0.045944745221596014
914		-1.4092215001780082
915		1.1521130444113827
916		-0.7401225250014563
917		1.0888909713694537
918		-0.39862916602779114
919		-0.4284687653311841
940		-0.9349128612083576
941		0.9693658896591549
942		-0.6386376229819216
943		0.5146695826817497
944		0.17911759148057368
945		-0.15737963587260953
946		0.16124015217140672
947		-0.11558885841544579
948		-1.3548495865615138
949		-0.986773860210688
920		-0.23429324465647694
921		0.23787859709391165
922		-0.05221903575154895
923		0.15752538088819265
924		-1.422373154372065
925		1.6024456165004108
926		-1.6414369339779447
927		0.3291264475529332
928		0.6635304125340574
929		-0.5858202290243507
930		0.39428023306021803
931		-0.6737405532286694
932		0.3054850569729237
933		-1.5136875413220519
934		-0.9839817937442467
935		0.8364786115082891
936		0.25676841593753724
937		0.5919437588052762
938		0.47590173904256505
939		0.6315304010252974
950		-0.8118946288891442
951		-0.5624511826216875
952		-0.30915015868038764
953		-0.7694374492545679
954		0.23813129122319285
955		-0.07309959098662194
956		1.3761537076308339
957		0.5024971218186589
958		-0.8936060141711885
959		-1.340709872474441
980		-0.12437586667951667
981		0.6082849031128515
982		0.0686574251516627
983		-0.7417141489817132
984		0.8688970711827986
985		0.7578087529790573
986		0.249372381273699
987		0.22337357500803806
988		0.1782589939044258
960		0.1682315635489991
961		-0.18283804531280126
963		0.6738672444848228
964		-0.47593668469964134
965		-0.15401522045863147
967		-1.360768511248754
968		0.3093570311409224
969		-0.1728597902807759
970		-0.2216631504152855
971		-0.5332200412793997
972		-0.5865365535676396
973		0.745930085103064
974		-2.201339927660591
975		-2.5493083373476986
976		0.10581169989352958
977		0.15052845151646058
978		0.5920181383002078
979		-0.34730481168021843
1020		-0.3459216633791738
1021		0.2535692266225617
1022		-1.1753590305594266
1023		-0.33943721532158505
1024		0.07435662340178477
1025		1.171568650556962
1026		0.17644816714043815
1027		-1.3623356231078407
1028		0.44658179717877394
1029		0.3079945920145172
1031		-0.8470240233610843
1032		-0.3363762314461459
1033		-0.18378907026831928
1034		0.2736414253200843
1035		1.2081479637303536
1036		0.44835977931900506
1037		-0.04242423790552315
1038		-0.5274090574649573
1039		0.827017097315935
1050		1.20891261105555
1051		-0.9580700028622734
1052		0.24699737540150538
1053		0.21855610555281146
1054		0.1604454058836724
1055		0.28770214016532564
1056		0.18271855247593166
1057		-0.4226438036859452
1058		1.717699807415879
1059		0.37048237750204
1040		1.0594030848185008
1041		-0.434014966637256
1042		-0.49000838072567365
1043		-0.8577192296516499
1044		-0.1444784526890119
1045		0.017037184698769067
1046		-0.13623893234484624
1047		-0.6108896462060672
1048		0.5730901030619838
1049		-0.11599915208163825
1010		-0.0036514023719180196
1011		0.5278324472944811
1012		0.9412395794143437
1013		1.0433355529808936
1014		-0.7548337994329424
1015		-0.2280413399097536
1016		-0.06605950454782732
1017		-0.015540789655536427
1018		-0.05683633870912403
1019		0.441911647782355
1000		0.3773563469756924
1001		0.6238257365439659
1002		0.4282145296767009
1003		-0.9353771650403706
1004		-0.4379197230783327
1005		-0.7638446836922853
1006		-0.5657815625805844
1007		1.8124763077134312
1008		-6.587612684189387
1009		-0.1273927909842973
990		0.024636829778385536
991		0.57711743897741
992		-0.1724989867742886
993		-1.0371271412101981
994		0.19882647126065195
995		-0.019996656562098786
996		-0.10041283022755752
998		0.2077294896248517
999		0.033671265047530693
1060		-0.7943797475787758
1061		0.3435516042335565
1062		0.6324907453668429
1063		-0.8870192965435538
1064		-0.010356674704699908
1065		-0.16300654923621646
1066		-0.92051430867769
1067		0.35450567118307474
1068		-0.4702340946509926
1069		0.3234167829938775
1080		0.41082268392597626
1081		-0.8833941710648502
1082		0.6136144126364989
1083		0.8934070012885428
1084		-0.09793043680521342
1086		-0.20500374155441595
1087		-2.09478367505376
1088		0.7625718551008157
1089		-0.2907715916576963
1070		0.3896020276547517
1071		-1.2083589777958013
1072		-0.06344797748540479
1073		-1.247615599565074
1074		-0.9271194258119168
1075		0.09802776775299331
1076		0.8693016210797964
1078		-0.11032395078854323
1079		-0.05834303096268484
1140		-0.28533860900157265
1141		0.2937659426407317
1142		-1.261295683862114
1143		-0.2822121997823518
1144		-0.16494948413672317
1145		0.016944123292945493
1146		-1.2948629171163435
1147		-0.3702859389184161
1149		-0.4674414792637918
1090		0.6170474662675276
1091		0.08096747014443333
1092		0.9238763893672132
1093		-0.18909736339418623
1094		0.20694411544028252
1095		1.1118841049065655
1096		-0.01753503331638975
1097		0.16739020498665763
1098		-0.9964858080957774
1099		0.19474583062048367
1160		0.3630548104865645
1161		-1.3279290425376187
1162		1.5940650606529974
1163		1.6622885048218639
1164		0.721691338757595
1165		0.05052204694182755
1166		-1.513107716817801
1167		-0.8715959690218985
1168		0.11099598855281441
1169		0.5896744778813738
1100		-0.5089582573184225
1101		-0.452485318277298
1102		1.8844180425628279
1103		-0.19548164183640415
1104		-0.11130760623507903
1105		-1.1689464629197384
1106		0.2514339117325758
1107		0.05317184821473538
1108		-0.36694037764296716
1109		-0.29328579774362773
1120		-0.6419031311766056
1121		-1.1668452226257948
1122		-0.24438962392809815
1123		0.04467572852942312
1124		-0.5901275899059418
1125		0.28210946532738934
1126		0.37411949789867344
1127		0.5602846128976303
1128		-0.19427630477889896
1129		1.075405452622311
1130		0.31500071489762294
1132		-1.1234914160290632
1133		0.378838972267113
1134		-1.318519409865598
1135		-0.2703203939630299
1136		0.27167501156147
1137		0.4898539812431227
1138		-1.379579400213469
1139		0.07975485285403808
1150		0.5841110917389439
1151		-0.297064506420125
1152		-0.24101693918968392
1153		-0.06392949612567204
1155		-0.02502423226177655
1156		0.10784467367470002
1157		0.408984684825587
1158		0.02837207303671165
1159		2.146013361075074
1110		-0.27034286899686877
1111		-1.6572946714543886
1112		-0.7008182221239192
1113		0.0655272463708097
1114		0.09486364158932081
1115		-0.11571287330403716
1116		0.8784480437077441
1117		-0.9899441800450017
1118		-0.8289516909288205
1119		-1.4503774542823933
1200		1.226382036445259
1201		0.10941624295129121
1202		0.5854864859802047
1203		0.06116575961375059
1204		0.07807373704807472
1205		-1.2232596869847352
1206		0.4247327003843188
1207		0.1361165422050086
1208		0.30430783647652654
1209		0.054697338563917716
1180		0.5016012195186276
1181		-0.17416924464032518
1182		-3.463435573955882
1183		0.30464778266000786
1184		-0.7569265175693012
1185		0.8942688844857856
1186		-0.4985428224990239
1187		0.027302133858278243
1188		0.45124182640704147
1189		-1.3394188272216316
1190		-0.28359995245901326
1191		0.6761860858901182
1192		-0.06537014791975068
1193		0.11260026338772638
1194		-0.5067500454067928
1195		-4.082643280557165
1197		-1.1648117684369508
1198		0.373675411377355
1199		-3.030700073614344
1210		-0.9929563369486778
1211		-0.5222329259475728
1212		-0.18076400157034828
1213		0.7781618233066264
1214		1.611396568331479
1215		0.13393458860752852
1216		-0.11156592347531973
1217		-0.0379500957242563
1218		0.19803535741374598
1219		-1.9371801509183413
1170		0.3987473850659178
1171		0.21334435696601847
1172		0.2474700404609421
1173		-0.6747082797117784
1174		-0.054247654150386015
1175		0.5333427657022852
1176		0.942009130695664
1177		0.28202743891244786
1178		-0.42364145482372906
1179		-1.629212296759737
1230		-1.619443055629575
1231		-0.5050645108504291
1232		-0.07387068445355313
1233		-0.5080915722290029
1234		0.7010822668958724
1235		1.2777430858763714
1236		-0.46860860783557795
1237		0.6713651766474442
1238		-0.06705972802084208
1239		-0.16943923458445537
1240		1.1269127092190259
1241		0.6722970986497951
1242		0.12669219765600245
1243		-0.18388167332336983
1244		0.7376410152594
1245		-1.3231428333333397
1246		-0.16457413479942545
1247		-0.08007474045537358
1248		-1.2509861387694048
1249		-1.7080286061698025
1250		0.7515549847091323
1251		0.08568242229718667
1252		-0.36033437254903694
1253		-0.2618456950075412
1254		-0.16811858869266552
1255		-0.6958778587413395
1256		0.06793584412673387
1258		0.06749607154912725
1259		0.5556483092548198
1220		0.008667189469324989
1221		-0.003976948521063204
1222		0.18518519377934728
1223		0.2205092275239856
1225		-0.27982553712688535
1226		-1.7262016119818455
1227		1.0568911376977803
1228		0.6966855236823072
1229		-0.2006174273396278
1260		-0.374037574682708
1262		0.6460796551949483
1263		0.05034244370501959
1264		0.6228875541494706
1265		0.2695990908877054
1266		-0.26692722360944415
1267		-0.2547480953441634
1268		0.2172480231577785
1269		-0.773525187015189
1270		-1.3200382132768271
1272		-0.6661487196131667
1273		0.14259370388198592
1274		0.2155066225632578
1275		-1.5245272912382368
1276		-1.0479982736241948
1277		0.34360492230254547
1278		0.3749029383101099
1279		-0.3057114024498901
1280		0.4111123447654506
1281		-0.8008084254310945
1282		1.984716357851715
1283		-2.878173312471186
1284		-0.3832530157458425
1285		-0.4889427265609634
1286		-1.0699661340530822
1287		-0.23855297598313338
1288		0.39534958873344117
1289		-1.0397321491783211
1290		0.28656115631606743
1291		0.3789828743153542
1292		-0.7939219596148048
1293		-0.2832045805524223
1294		-1.4767211822741668
1295		-0.08334142013984754
1296		-0.7804524429953631
1297		0.001958099197251617
1298		-1.060344585343946
1299		-0.4263663953065274
1310		-0.8943582725255352
1311		-0.3058515893199537
1312		-0.08896607924949325
1313		0.2570064017709711
1314		0.059610504871883456
1315		-0.2846414711897857
1316		0.7669317824522578
1317		0.5950612205084155
1318		0.8769493837677449
1319		0.4566765109229737
1300		-1.7527230737659447
1301		-3.6473598037807777
1302		0.5429114539519899
1303		-0.217858155422041
1304		-0.11079280323729652
1305		0.13519164938511247
1306		0.3943744057033645
1307		0.6155751825239476
1308		-0.09817481545321395
1309		-0.4693237908071376
1340		-0.42515179374231055
1341		-0.5801623726958798
1342		0.27927384454086657
1343		-0.08127248610040497
1344		0.5958203733645814
1346		0.5566855851722079
1347		0.16279104096180388
1348		0.046169716231599135
1349		-0.455225559477251
1320		-0.8679834987295264
1321		0.34444424847243754
1322		-0.2492707499852157
1323		-0.4400171854962375
1324		-1.7178916827962485
1325		0.3318696797051153
1326		-0.33027827575643454
1327		-0.5475167756141781
1328		0.23309917285773282
1329		0.054319762472561504
1330		-0.8678140839380192
1332		0.392844695570596
1333		-0.4802987831421686
1334		-1.0316544477172216
1335		-0.5979070453239801
1336		-0.003268021597082736
1337		1.0917596865676844
1338		-0.4153705472088451
1339		-0.20619058028639412
1381		0.4144234993921397
1382		1.309137797091883
1383		0.0504965480513104
1384		1.0076124798517885
1385		-0.7490253636192379
1386		-0.004821878900161151
1387		1.5785607642139747
1388		-0.6469410376215818
1389		0.17113663692503697
1360		2.2830847342893503
1361		-0.0633166648815233
1362		-0.21800394022287808
1363		0.7164455515422105
1364		-0.030702643069542464
1365		0.04031230184694442
1366		0.15220362386102476
1367		0.03155845812873155
1368		0.9004017605803015
1369		-0.961667239794457
1390		-1.0275406992161853
1391		0.07065577634612866
1392		-0.813928462281949
1393		-0.43857283372878375
1394		-0.032841002184233976
1395		-0.5341015759778336
1396		0.4742157875912141
1397		0.23272838295055498
1398		-0.19518929974576368
1399		0.3427177561057975
1370		0.536965877367439
1371		-2.022901792032613
1372		0.4335250035261542
1373		0.21214844837222166
1374		0.36054168044123197
1375		0.4704343653653354
1376		0.3172719710403558
1377		0.08245671980806187
1378		0.3415349693931288
1379		-0.9283287129992066
1400		-1.0082187864898302
1401		0.05355461372398685
1402		1.9740340205828035
1403		-0.11786755532660062
1404		0.5814958507035214
1405		0.00414748544655693
1406		-1.056018877530036
1407		-0.20010655347743433
1408		0.3507110062092938
1409		-2.8422232895170536
1350		-0.3739904547996924
1351		0.14497176680792878
1352		-0.9319125789294962
1353		1.0547593941868496
1354		-0.13567905138171998
1355		0.09775286079236253
1356		-0.25321962917429297
1357		1.40931129752938
1358		0.4676647709236592
1359		0.2996153740653527
1420		2.074958093112977
1421		-0.3718700677783569
1422		0.41265587351961924
1423		0.14933812316546685
1424		-0.40171859959466777
1425		-0.348502755596377
1426		-2.1217205831857964
1427		0.3988340145124038
1428		-0.40711304394754155
1429		-1.3741836613855378
1450		-0.018519819356659875
1451		-0.9324259774544861
1452		0.13439802890464636
1453		0.19574697218622256
1454		-0.5614602459885066
1455		-0.6653529134796967
1456		-0.45834591580605116
1457		-0.522956647090404
1458		0.14541779453183318
1459		0.11028560811649357
1440		-0.7805494369568332
1441		-1.4158036357474957
1442		0.6544136900296266
1443		0.7632561431198067
1444		-0.07186100878463825
1445		-1.0792406909592744
1446		0.0544802527009043
1447		0.10354510306761329
1448		0.0735894394218357
1449		-0.5798538891010871
1410		0.7193786943094278
1411		2.82056851507264
1412		0.6518765109545812
1413		0.3310329244523408
1414		0.1416669388769844
1415		-0.3199965694758915
1416		-0.6805344936156458
1417		-0.285012397133855
1418		0.431331647451306
1419		-0.7694695510189614
1430		-0.4305575461390871
1431		-1.627865386814821
1432		-0.5164839518288553
1433		0.6826655240407467
1434		-0.10021710785718126
1435		3.7075395497028034
1436		0.13249241322293015
1437		-0.005744991964476253
1438		0.08801023235148454
1439		-0.4238408760583116
1471		0.3231133192900201
1472		0.35672775755460284
1473		-0.19297076134018828
1474		0.5479330694668343
1475		-0.061552091680573656
1476		0.26669359965991757
1477		-0.9395546841356673
1478		-1.0502964731588809
1479		0.6299780392978123
1480		-0.3160094083171768
1481		-0.6832148250145982
1482		-0.8582773691501924
1483		0.03773317438032312
1484		0.5264225917531092
1485		-0.8073401409271481
1486		0.6338159565476966
1487		-2.1775471413639993
1488		-0.8093847983411693
1489		-0.1341306796292564
1500		-3.613413583021223
1501		-1.1129683305667077
1502		0.3791311429041325
1504		0.07639113089193157
1505		-0.17192247041339326
1506		0.04188404757705848
1507		-0.6053753278409952
1508		-2.359590374425949
1509		-0.9168416667520616
1490		-0.6823861768517472
1491		0.762954533958209
1492		-0.9319433222330228
1493		-0.2975203910892009
1494		-2.4743805820145672
1495		0.5825375170747232
1496		0.1543089167900525
1497		-0.2920681864057159
1498		-0.8880086717431888
1499		0.7472854977568367
1510		-1.1781319181310959
1511		0.484038161400483
1512		1.1592780007170107
1513		-1.2114645555491885
1514		-0.30532246558913484
1515		-0.09432937844002103
1516		-0.4361000968896542
1517		0.3843865098754054
1518		-0.8399736247888844
1519		-0.23570472027823208
1460		-0.7923215603306507
1461		-0.5877007153389969
1462		-1.1366049231582092
1463		-0.06357732747395513
1464		-1.199330096755328
1465		-1.473973333629018
1466		0.00851158630821912
1467		0.24838395606252175
1468		0.779504397776201
1469		1.373399170432244
1530		0.556572401013381
1531		1.7848727239734958
1532		0.8308046918196298
1533		1.026264353043689
1534		0.3980242420856077
1535		0.061515442041582345
1537		-0.3845851767600599
1538		-0.6169269257783045
1539		0.08956181825218605
1520		1.954055642357914
1521		0.14475751687272712
1522		-0.9244308637190721
1523		0.5078579319670363
1524		-0.3129368823550438
1525		-0.3685422107352257
1526		-0.8187389600401285
1527		-0.42705605437975924
1528		-0.09633264113523171
1529		-0.7451540550640566
1550		-0.10508750021304099
1551		-1.6050911680615707
1552		0.937541378787912
1553		-1.3621887403402682
1554		-0.26168914873019883
1555		0.766128896758113
1556		-0.3155492972700785
1557		-1.4962105666287537
1558		0.03715972635011432
1559		-1.2107126547198748
1560		0.045739150170954576
1561		0.10180240351454678
1562		-1.013067799688163
1563		-0.3138800239781489
1564		-0.5258956561778578
1565		1.2154217298020633
1566		0.3975190766407966
1567		0.30094075562233824
1568		0.3417970811605629
1540		0.6151922370850739
1541		-0.03305730338229031
1542		-0.8667571225405778
1543		0.032439471674653234
1544		-1.8903162285229422
1545		-0.4023899289455263
1546		0.2800651856465272
1547		0.0038840567758183036
1548		-0.08675686813527628
1549		0.06675446153687123
1570		0.5519878805720488
1571		-0.24138567278564405
1572		-0.9755591382309095
1573		-0.09736394852632516
1574		-0.32021824069232135
1575		-0.9457452882459998
1576		-1.010500954607342
1577		-0.9587534412174366
1578		0.25458967534238647
1579		0.48689547458141247
1620		-0.4226820049952907
1621		-0.20649399244641045
1622		0.12923744681875998
1623		0.7497820123951198
1624		1.1945523457804266
1625		-0.306982558007154
1626		0.39516599849940703
1627		0.26392126795962195
1628		0.1009502029572186
1629		0.2841330550632462
1580		0.14007831342905655
1581		-0.29964893360015965
1582		-0.060545628771717826
1583		1.127734352794958
1584		0.9602614643818632
1585		0.31893489356821214
1586		-0.8602011529756024
1587		0.23429528345757358
1588		0.12078765595561486
1589		-0.011850972115631884
1590		1.1402314050155888
1591		0.331017636016339
1592		0.22250808991964258
1593		1.178803220040336
1594		-1.016622646025548
1595		-0.030216038529798452
1596		-2.299260197126959
1597		0.49940369104157717
1598		-0.004080839666551358
1599		-1.3557882219585864
1630		0.20823235198550602
1631		-0.20862362146201816
1632		-0.24340508472881517
1633		-0.10060090493393425
1634		0.20109148508891428
1635		-0.163783865370476
1636		-0.08423255023970729
1637		0.3361206146079922
1638		-0.5583907628002697
1639		-0.6096191383035466
1610		0.2852744342281071
1611		0.4878731646347615
1612		-0.8849201649375853
1613		-1.1532617642496423
1614		-0.23049776440784367
1615		1.2708483915044095
1616		0.05032120067968103
1618		0.011402877495423165
1619		0.2736238259635849
1600		0.7388831292012233
1601		0.26375624480294185
1602		-0.3599209435503064
1603		0.9613897682626926
1604		0.9972053951564507
1605		-1.1595455542644308
1606		0.8905484435369704
1607		0.1928817754542778
1608		-0.7093307209205795
1609		0.03978526445261368
1640		-1.0740068813049501
1641		0.03844471808001403
1642		0.11907507547084878
1643		0.6125377891961304
1644		-0.12656755976978676
1645		-0.8896854839365536
1646		-0.042846195163791755
1647		0.9548868905576959
1648		-0.3969056118728835
1649		-0.6676109097638343
1651		-0.19328684769776414
1652		0.28796197565692333
1654		-0.38220905725847604
1655		0.2088820477733169
1656		1.5031060658302047
1657		0.16884468346977893
1658		-0.8558036585104543
1659		-0.662439738019381
1660		-4.141290530553296
1661		-0.4046397378272764
1662		0.2985820271475206
1663		-0.3709893094493287
1664		-2.899375537026424
1665		-0.008604531036892444
1666		1.0174683367854702
1667		-0.3452462765120163
1669		-0.6820166485703599
1670		-0.8825026191905518
1671		-1.2272956055132536
1672		-0.7166471805915666
1673		-0.3384535557159345
1674		1.2471419133621013
1675		0.4209069156224685
1677		-2.527695369578136
1678		0.04141082446015688
1679		0.960049694931621
1710		3.044167143252196
1711		0.6199791207147238
1712		-0.635190466077094
1713		0.6436176634311415
1714		-0.05586852711274537
1715		-0.051073700369323786
1716		0.4277159564670465
1717		0.11611556329168798
1718		-0.16738282743253136
1719		0.14139953145068432
1681		0.772979182948036
1682		-0.06559163245016726
1683		0.07844933149390948
1684		0.508554212123039
1685		-0.12420522902461151
1686		0.5149419352948751
1687		0.2824918908323869
1688		-0.2006864991311437
1689		-0.575254875825491
1690		0.706086083546538
1693		1.1339406820106794
1694		0.1184069511650945
1695		1.1862430389723353
1696		0.7389743981586586
1697		-0.4370107557220969
1698		0.0758545208664328
1699		-0.6881532153320224
1720		2.055029497663353
1721		-0.41556415553174086
1722		0.4743003142229718
1723		1.5622761422391958
1724		0.08129633929587528
1725		0.0391713064362154
1726		-0.687247426753456
1727		-0.46298903807865843
1728		-0.06306545885769134
1729		1.075439256498276
1700		-0.7563887405726042
1702		-1.8938680201919271
1703		0.559686115359911
1704		0.19440251383422136
1705		0.7331745540156279
1706		-1.3871587166346968
1707		-0.7680695497997364
1708		0.12837473795650267
1709		0.0493115064143005
1740		-0.8027782693364822
1741		-0.1750471442197059
1742		-2.1385835058266003
1743		0.632858727736702
1744		-0.44904815777892837
1745		0.42906818621585685
1746		-0.5815092415361304
1747		-2.6810978405418653
1748		-0.47640842756626034
1749		1.0560285124435027
1730		-0.3276397853469342
1731		0.10780920349802477
1732		-0.18916691664590438
1733		1.1754398610253454
1734		0.19349094502335407
1735		0.5040247385815703
1736		0.018559338385375126
1737		-1.0518609060057658
1739		0.7110485950007006
1750		-0.245199489289897
1753		-0.26609053926608733
1754		1.4596741853254067
1755		-0.44584619154378247
1756		0.53946897170953
1757		-1.536012744380657
1758		-0.2597828346789985
1759		0.30553269344374184
1760		-0.24639811055044247
1761		-0.011184900191097582
1762		-0.838649132534668
1764		1.059544575291524
1765		0.14212817980826936
1766		0.340027739670661
1767		0.03145076589428984
1768		0.29117523530097217
1810		0.4029568797711858
1811		-0.6040122196817488
1812		0.12659935590094754
1813		-0.5751896070395531
1814		-0.19550971156766955
1816		-0.3307646134581126
1817		-0.7668814706387
1818		-0.08299865744529387
1819		-2.186496294583923
1770		-0.3137352996467814
1771		-2.725262470937572
1772		-0.32892439350267266
1773		-0.015932180235711725
1774		-0.2832987770486829
1775		-1.143677102254715
1776		-0.21117369052193996
1777		-1.0685970806288105
1778		-0.30627670781432637
1779		-0.6063328764264757
1790		0.3415397725500531
1791		1.6111098016469196
1792		0.5961328015497983
1793		0.0413963567032213
1794		0.16531464089984071
1795		-0.03539800882025404
1796		0.07722364225410328
1797		-0.6016335833910154
1798		-0.3106591584541824
1799		0.29020446093169533
1780		-1.5283382301724133
1781		0.17613067443564406
1782		-0.5722696023015892
1783		-0.18992615650910674
1784		0.23310253728996108
1785		-0.8267725152772151
1786		0.06345984320506122
1787		0.04559161300729533
1788		0.3507316851752503
1789		-0.8241386566853361
1800		0.9304737030220727
1801		1.1188580026179173
1802		0.18191861933085188
1804		0.7117059182129836
1805		-1.6776527855621177
1806		-0.018183904032261403
1807		-0.08981852977072095
1808		0.36412166576662763
1809		0.18533788705728693
1841		0.14803769858736066
1842		-2.9624227093273467
1843		-0.5393941370615922
1844		0.7992070543674125
1845		-0.6933413135267242
1846		-1.1888807464871658
1847		-0.30104621380892116
1848		-1.07668124634334
1849		0.9630154964110643
1870		0.5475529940381862
1871		0.14907660748192372
1872		-0.7941647705963835
1873		0.764058046001642
1874		0.36288686192715824
1875		-0.2712108323307186
1876		-0.45625311689733317
1877		0.16505572302196353
1878		-0.07291832208602979
1879		0.05476283382849575
1820		-0.6743690279999868
1821		0.1769640537600951
1822		0.7387452210338913
1823		-0.8579732237174095
1824		0.021305622816475876
1825		-0.24474412813635169
1826		-0.22626122783997601
1827		-0.5398486857453407
1828		1.6873779603025139
1829		-0.2397731950276833
1860		-1.649321230692235
1861		-0.3429576998937957
1862		-0.38181683950960854
1863		-0.13090115022355656
1864		0.021132157066842124
1865		0.3450869913941591
1866		1.2923805035328195
1867		1.6727300027694065
1868		-0.45288367957463743
1869		-0.4002872965193058
1890		1.7051075846376793
1891		-0.24459811069972465
1892		-0.026548389293743407
1893		0.21176823859495306
1895		-0.7270012595213216
1896		-0.10131000207111764
1897		0.2523649479745259
1898		0.6749932053011413
1899		-0.09207971299078073
1850		-0.6303965897141812
1851		2.0840820348277695
1852		0.06716145661976881
1853		0.7064747627075542
1854		-0.3399895419657647
1855		-0.30592572462793044
1856		0.16558486159900926
1857		-0.186980717396802
1858		0.9700267126299658
1859		0.19122834686624565
1880		-0.4107261305889271
1881		0.17809827647744264
1882		0.9461976442491424
1883		-1.5749892566660015
1884		0.25349585594287055
1885		0.34370197741852
1886		0.2972301470793543
1887		-1.310508999075095
1888		-1.1354736832500172
1889		-0.6318453015315912
1830		-0.34361967502840585
1831		-0.03943787623996083
1832		-0.41235486994747483
1834		-4.95019857957916
1835		-0.4593417562033815
1836		-0.7890973851243477
1837		0.43962896269198926
1838		-0.5293284077578654
1839		0.11926298239111213
1930		0.420100245754686
1931		0.6078745572847921
1932		0.12286013965233232
1933		0.3346905855735575
1934		-0.35208335819541436
1935		0.5137887097752624
1936		0.28623443773741025
1937		-0.7843800996943745
1938		0.959068361540991
1939		-0.36601278490070777
1910		0.39102019350285605
1911		0.19312470886848548
1912		0.19054293011589782
1913		0.577596928686519
1914		-0.09095072663567472
1915		-0.5042073632227185
1916		0.1280452405784836
1917		-0.023483912451861218
1918		0.39976671264195096
1919		0.11572036467694559
1920		-1.9632024900895475
1921		-0.12627778886827953
1922		-1.0430959363169747
1923		-0.293332892905461
1924		0.9952310725422358
1925		1.3798559516979083
1926		0.41774812253338045
1927		0.4853564378005451
1928		-0.10300718569861766
1929		-0.22960214296933731
1901		1.155011632311803
1902		-0.5634463023502218
1903		0.06722680515636738
1904		-1.1376172745364264
1905		0.9605907648807335
1906		-0.3065987360096913
1907		0.8461931477491813
1908		-0.4170530485296397
1909		0.38669105737614073
1970		-1.0135257879519879
1972		-0.1241461301587654
1973		0.16082685605353061
1974		-0.6626672147922498
1975		-0.03410082947153943
1976		-0.25877091713382216
1977		-0.2920705277251714
1978		0.34179378033112356
1979		0.40530119603197556
1961		0.04597135664425632
1962		-0.36898251885327127
1963		-0.1629151211277249
1964		-0.9455089735849428
1965		0.4154504425321179
1966		0.3162450853449102
1967		0.38847941609376707
1968		0.06699635878094028
1969		-0.1124323719623638
1950		0.05612768408926923
1951		0.38071183459130503
1952		-0.750004453280632
1953		-0.05854249436885659
1954		-0.646036198483503
1955		0.21124809478111026
1956		0.01184901966446894
1957		0.8042665716511609
1958		-0.25370450805394057
1940		-0.543917522763825
1941		0.7761190088403036
1942		-0.46529367758825524
1943		0.6952696494971231
1944		-0.9712966074026291
1945		1.0368106657938732
1946		0.4455235175437135
1947		0.2450898978820031
1948		0.5732802312445366
1949		0.21458667143799062
1990		0.14888393025318725
1991		0.7836735160459137
1992		0.25869467220692016
1993		-1.2376168523381712
1994		0.7594847457826573
1995		-0.35406422562228224
1996		0.04376961902417543
1997		0.0012597346737324476
1998		0.1276979750986985
1999		0.05349135126227425
1980		-0.8317055046999552
1981		-0.5072298954298602
1982		-0.0290595882435974
1983		0.04648344413688773
1984		2.092734234875009
1985		-0.531117495924452
1986		-0.8483454322939338
1987		0.7582531618827377
1989		0.26651823401568153
2000		-0.7148674401098136
2001		-0.4801653596782719
2002		-2.2090397212332453
2003		-0.6677310051977758
2004		-0.24850015656360436
2005		-0.3623978124213238
2006		0.012741908934255438
2007		-0.14380542108467684
2008		0.5960668852908344
2009		-0.24653205953273807
2010		0.7998592155825801
2011		-0.5771133487970364
2012		1.744894111507058
2013		0.09629822963645446
2014		-0.5971249863802697
2016		0.7770307270971604
2017		-0.7332424838830582
2018		1.0349671409375945
2019		0.23396602188298574
2040		0.9494786496773784
2041		0.01506235271862233
2043		-1.6958833490134115
2044		-0.41611023194902014
2045		-0.16136821201110696
2046		-0.39057467186745487
2047		0.48863557667161966
2048		-0.28239022357719723
2049		0.4751852107012726
2031		0.12303220605666303
2032		-0.6469723953244713
2033		0.41339766374365866
2034		-0.39321406043944535
2035		-1.5970513082517563
2036		-0.6523315702219574
2037		0.2730314465718645
2038		-0.1732038283798257
2039		0.3438601633437805
2020		-0.1720167858466403
2021		-1.0220360209759227
2022		0.19796350238563146
2023		-0.4471560958477628
2024		-0.37712618517456253
2025		0.011138920254376489
2026		0.28899828537191075
2027		-0.634370669917766
2029		0.1491347795884113
2060		-0.6729751171909611
2061		-0.4318968952005921
2062		0.7756714722184856
2063		0.024057376235258665
2064		-0.4138442226756506
2065		1.547309897953233
2066		-0.6379062558478977
2067		0.5376098638582599
2068		-2.153577286978607
2050		-1.000686765267793
2051		0.4853368202666095
2052		0.27382092483939086
2053		0.7980575860313361
2054		-0.0025929130515485186
2055		-0.1465628719763869
2056		-0.42726020890166094
2058		-0.2507876531196245
2059		-1.0485631705439817
2070		1.7169570568735069
2071		-0.049309819478078325
2072		0.5707946999397759
2073		1.136318786728247
2074		-0.623224234492855
2075		0.03235309179554801
2076		-0.4373567701479187
2077		-1.2957388723653793
2078		0.8011760869170182
2079		-0.04550109682166721
2080		-0.1570264371084459
2081		0.4766909601976377
2082		0.4651552922998957
2083		0.29431355354446304
2084		-1.278880383870833
2085		-0.13760994332280577
2086		-0.0006412315822978573
2087		1.0649299342374137
2088		-0.20903204123992625
2089		-0.11518457646372701
2100		0.20396257960107222
2101		0.030777804873897707
2102		-0.23646489441063911
2103		0.11509888435367589
2104		-0.3840477469655096
2105		0.1656864740255575
2106		-0.06719302441502985
2107		1.4958707758083543
2108		-1.2184756804549386
2109		-0.27365667158586854
2120		-0.9454967769856065
2121		-0.5674510751489888
2123		1.3971823657323885
2124		0.06814023684807327
2126		-0.06267504561827895
2127		-0.46484102514262904
2128		0.4480589430883343
2129		-0.6869489899434125
2090		-0.237176909992218
2091		0.4196557792932537
2092		-0.03971582119797859
2093		0.23597987667030326
2094		-0.08305734679295668
2095		-0.7167627916887214
2096		-0.20549091013906892
2097		-1.1074734315944053
2098		0.1910033550291745
2099		-0.7716134126731323
2110		-0.967343485205667
2111		0.04453458425129589
2112		-0.0059330537899643905
2113		-0.8463326704425687
2115		-0.5699642949572474
2116		-0.8192175320761346
2117		-0.0016077974819346736
2118		0.41721041626735056
2119		0.5668640968867843
2130		-0.2663340426879532
2131		0.6864783234754614
2132		-3.043278622010085
2133		-0.7643825722972142
2134		-0.09860282267849758
2135		-0.15482560535166004
2136		-0.41505617490802044
2137		-0.012760941158766229
2139		0.6443614824389966
2140		-0.3841242253077124
2142		0.767510553642631
2143		0.09591049387745809
2144		0.9255190754300235
2145		-0.257651864282443
2146		0.2986881536365713
2147		0.43541398144373505
2148		0.7554865635300335
2149		-0.12210605918705116
2150		0.9352504366608778
2152		-0.2515125696218665
2153		-1.0945982791625666
2154		-1.1129549872740239
2156		1.656685066384454
2157		0.17809146558687608
2158		0.7388978003555264
2159		-0.051856376787319095
2160		-0.19737235345617146
2161		-1.3306546306453901
2162		-0.18500262071049947
2163		-0.3852299092826942
2164		-0.34415502565994666
2165		-0.7895694617627448
2166		0.953052108691015
2167		1.1207593549903703
2168		-1.6324032812457159
2169		0.740443093407517
2170		1.3230527495657667
2171		-2.965520680557806
2172		-0.650680376129213
2173		-0.10198299337481981
2174		0.014222240386117182
2175		-0.21027505314372333
2176		0.9538330102463022
2177		0.23441891089853192
2178		-0.7556887884067081
2179		0.48134831164621955
2210		-0.025821965432832984
2211		0.8530504510136955
2212		-0.5660495566466255
2213		-0.44732553609742853
2214		-0.4289539335299335
2215		0.37316833812445466
2216		0.7504900140430143
2217		-0.20095933116779577
2218		-0.6008266661069982
2219		0.7041233318597853
2200		0.4873579196930781
2201		0.10990796745527498
2202		-0.4527625985384214
2204		0.49853046496506614
2206		-1.2467316792749952
2207		-0.43219729372277205
2208		-0.7455400858880772
2209		-0.1836965002676675
2230		-0.5527903849574655
2231		-0.479874779457354
2232		0.5746453381517126
2233		0.2170377659903938
2234		-1.023329846386062
2235		0.25791734532543004
2236		-0.37829465094150505
2237		0.6013711902834524
2238		-0.09216351309318643
2239		0.28435033645280233
2240		0.09625184022917613
2241		-0.1489088906390031
2242		-1.1974118762410524
2243		-0.3480258449282731
2244		-0.4584901844604364
2245		-0.26432460570831773
2246		0.6643309671113254
2247		-0.17055557673847727
2248		-1.213494907999891
2249		0.26616790561773324
2180		0.01225104746908869
2181		-0.305853907367571
2182		0.42307124437644206
2183		-3.065238934762835
2184		-0.2880179468473948
2185		-0.5742914489820116
2186		0.001530289916361986
2187		-0.8467025752908206
2188		-0.10191311262834732
2189		0.5399209953997258
2220		0.19399099567503772
2221		-0.42601811020946057
2222		-1.2862962027023168
2223		-0.05305062907943742
2224		0.15086300279264603
2225		-0.16204890499568173
2226		-0.5828621143683492
2227		0.5094945160472878
2228		-0.5271318989870929
2229		0.896488044028348
2190		0.09533145552744242
2191		2.310197484385736
2192		0.3176895988901978
2193		0.02911464763530171
2194		0.12134728240886375
2195		-0.4823509705365664
2196		0.6783563256396727
2197		0.04699630283029201
2198		-0.5473787481856036
2199		-1.3664969646477247
2250		-4.947858652344533
2251		-0.5770655622517671
2252		-0.23783561317623297
2253		-0.15555747898397124
2254		-0.6205976142813091
2255		0.6959613826800747
2256		-0.6161485550276321
2257		-0.21180945044601854
2258		0.11224914833614044
2259		-2.0490979458958662
2270		-0.23063235963594983
2271		0.23644875169403334
2272		-1.1008304966377334
2273		-0.2674503833357712
2274		-0.6039418258187839
2275		0.5669814913936907
2276		-0.34691047081146
2277		0.036677567350303406
2278		-1.4705201121356797
2279		1.4893361514404992
2260		-0.5291969467773946
2261		-0.2709554785168693
2262		1.3551604946969238
2263		-0.2949091273337106
2264		0.5752257455568885
2265		1.3922564681565626
2266		-0.9005669634561959
2267		-0.28666175234958596
2268		0.5693200862263587
2280		-0.3545707420989964
2281		0.7552600040099893
2282		0.10736094946368238
2283		-0.7012712542062322
2284		0.1320129233089333
2285		-0.22213441269467554
2286		-3.449684924863188
2287		-0.7283728355141404
2288		-0.17652040301618735
2289		-0.8103487974357829
2320		0.393491185485294
2321		0.42610236904074567
2322		-0.6582815876159299
2323		0.33283597468375853
2324		-1.0873192219936054
2325		-0.9300043918955853
2326		-0.4442903237079182
2327		2.7546807219663245
2328		-0.2985344940203192
2329		-0.904957575944744
2330		0.927569492153798
2331		-0.41159356678902964
2332		-0.1606483626732162
2333		-2.7783498959796384
2334		0.1925464427581456
2335		-2.882846770604517
2336		-0.38829126602742015
2337		0.6397657070420525
2338		0.7844132264440827
2339		-0.13671963482256083
2310		-0.09513753361901356
2311		-1.9329666189693455
2312		0.22488533773472072
2313		-0.09094548423578598
2314		0.18558693262333295
2315		-0.02485431023584219
2316		-0.3873124920296394
2317		-1.893990816451897
2318		0.4216885194715995
2319		0.609913976053766
2300		-0.5395114386844055
2301		-1.33854699636119
2302		-0.25925602867910885
2303		0.5270518374699289
2304		0.7365956736691839
2305		0.26950701008177036
2306		-1.4819076189034197
2307		-0.17072015398057716
2308		-1.909937004768528
2309		-0.0056838249650875165
2350		0.8009604177489745
2351		0.921723481534903
2352		1.596390259201873
2353		1.355047736323292
2354		-0.2931246889548698
2355		-0.2298320609903007
2356		-0.2028066731217331
2357		-0.7732783291763773
2358		-0.14143869002440965
2359		-1.307334488785448
2370		0.6099439074141662
2371		0.1812783768332226
2373		-0.5413197184609039
2374		-0.11882282053883231
2375		-0.022265591897556995
2376		0.5882307169832045
2377		-0.8926930419017218
2378		-0.11996339879782703
2379		0.41546836492895367
2430		1.353013986561865
2431		-1.8172881901770055
2432		-0.4684334192748693
2433		-1.1530337890851095
2435		-0.7094720900300947
2436		-0.1847099200830941
2437		0.3147995551130224
2438		-0.36610016733776346
2439		0.11853413948535332
2400		-0.28608150548982825
2401		-0.7344091818558949
2402		-0.36828483038673593
2403		0.9165567130047281
2404		-0.20402870323007496
2405		0.9319093335215117
2406		-0.33311956018155653
2407		0.56317606050696
2408		-0.9424210420033902
2409		0.12630828282765114
2410		-1.1727599041756769
2411		-0.21426073876649152
2412		0.23777997541936016
2413		0.3279596289806115
2414		0.33371852526575574
2415		0.7679735486740712
2416		-0.41826028573558016
2417		0.02515735247697074
2418		-0.8742593072885461
2419		-0.17606890301481973
2380		0.3622439362827499
2381		0.16353399942356603
2382		0.20891586757036312
2383		0.2291394863277622
2384		0.22872881586895963
2385		-0.003351566221028176
2387		-0.4191025412980328
2388		0.09263876526042435
2389		0.19516367019072328
2420		0.9150397193036679
2421		0.49219037169400365
2422		0.509815153673257
2423		0.8161723820465631
2424		-2.199084207020141
2425		1.4913382418994152
2426		-1.1806516110326686
2427		-0.6845121614349148
2428		-1.241245714460516
2429		-0.12442510220236448
2390		-1.8425551669605682
2392		-0.6970390676397278
2393		0.4765934438927004
2394		0.037372926609280606
2395		0.21073544409127656
2396		-0.05562761651425369
2397		0.4861045511261198
2398		0.01635574023512029
2399		0.5991357740629547
2360		-0.8208247571596883
2362		0.5939791712786231
2363		-0.2818230987835819
2364		0.7146324785942196
2365		-3.340356877719721
2366		-0.06435721142680143
2367		-0.1579332272528384
2368		-1.3157644682775484
2369		-0.8704363380014004
2290		-0.38342242136584603
2291		-0.37000614726257536
2292		0.5087156500994611
2293		-0.286230160728743
2294		-0.8696401815659138
2295		0.1350005433263716
2296		0.331655625994738
2297		-0.11776882803314485
2298		-0.41633770452824176
2299		0.06840438752149339
2340		0.15370604898764612
2341		0.02846000770373057
2342		-1.2874537912122104
2343		-0.10000975836603826
2344		-0.31103337642832146
2345		0.18037319323747525
2346		-0.041752984162932445
2347		-0.042552547640047546
2348		-0.10113358470826712
2349		0.020408195578003302
2450		-2.271361132461634
2451		-0.12734612819633667
2452		-1.0509606996174632
2453		0.3127591360289761
2454		-0.46405688180219284
2455		1.7318931651808955
2456		-0.21487218951217174
2457		0.17948780852336418
2458		0.9138178490831922
2459		-1.1498223082564856
2440		-0.18770325277855196
2441		0.6928728920451395
2442		0.4646822522968795
2444		-0.5911336717723341
2445		0.15168545965115926
2446		0.10404419898643857
2447		-0.1853470650566732
2448		-0.19729172562638758
2449		0.1343679824709289
2470		-0.10149309359012829
2471		-1.0901398108837161
2472		0.6499248307771163
2473		0.9928490412178487
2474		-0.2866178487256342
2475		0.7412028869446357
2476		0.20052691173087978
2477		-0.8316897794788385
2478		0.6514630136811788
2479		-0.8217015250793216
2480		0.16197360343861722
2481		0.37346894454142127
2482		-0.3754366807718434
2483		-0.8808706551717707
2484		-0.7522303295630598
2485		0.16738776311485035
2486		-0.32685072329614684
2487		1.240502032651763
2488		-0.014447063714993455
2489		-0.344141903848916
2460		0.3945627095299815
2461		0.44828331034214325
2462		0.14048950130852753
2464		1.1026269010664778
2465		0.05085281537688471
2466		-0.15557060962323466
2467		0.4043649939733472
2468		1.2006628895314004
2469		0.46488728686022074
2490		0.3796094306334108
2491		0.301409952871883
2492		-0.4511059217681187
2493		0.5071451178832245
2494		-0.449911515263987
2495		-0.6811869563999314
2496		-0.13815965173934627
2497		0.7162210038157432
2499		-0.34380985147023857
2540		-0.6335580136212007
2541		-0.3007882249486531
2542		0.03213209975991658
2543		0.22688685914997853
2544		-0.2566226327286612
2545		-0.04615340301697519
2546		0.8623670235244314
2547		0.8528090402367561
2548		-0.12278101233395944
2549		-2.047206309842573
2520		1.0334088861447914
2521		-0.31424534276501637
2522		-1.4372888313536378
2523		0.19425494417526407
2524		-0.4743706316354984
2525		1.356020558186916
2526		0.1904009405431258
2527		0.2822398759122878
2528		0.18798038690593805
2529		-0.25537740739052045
2510		-0.4703868365744952
2511		-0.4311399516142546
2512		0.8133398644069918
2513		1.4599074164908221
2514		-0.007769581893301811
2515		0.44577210320416727
2516		-0.5018613855962103
2517		-1.0990044215316435
2518		-0.18263996460098758
2519		-0.25580143662960697
2500		-0.13463584273811094
2501		-2.7944508798952667
2502		-0.021685557176199344
2503		-0.5256562278171493
2504		0.35736892615876975
2505		0.728869995700595
2506		-0.4066924394886942
2507		0.5419062739781895
2508		0.12982014092846447
2509		0.38329775278788186
2530		-0.03240575397565221
2531		0.4038248640962153
2532		-0.05316749229442478
2533		-0.8136005308842008
2534		-0.06350190477780614
2535		-0.444547790519463
2536		-0.5982802839629073
2537		-3.92953153546705
2538		-0.6952593515134194
2539		0.2235122326913412
2550		0.31255823317292797
2551		-3.2558179169002965
2552		-0.05629037382319018
2553		-0.24144512256898004
2554		0.035696855923159
2555		0.7544283632788055
2557		0.5892618307464106
2558		-1.662705771973715
2559		0.267675995821997
2600		0.18348937204719187
2601		0.11560856343089168
2602		-1.3536772301309983
2603		0.5562345515481364
2604		-0.02838988507022317
2605		-0.519082696738017
2606		0.23748652963279643
2607		0.33527244209615603
2608		-0.3498495348085001
2609		0.47662134399289124
2610		-0.11743572572840934
2611		-3.630883687970217
2612		-0.6943522207466392
2613		-0.22363403753245653
2614		-0.04105190256770779
2615		0.6067093273374872
2616		-0.20933509149779356
2617		0.05768362768045875
2618		-0.44590788687495014
2619		0.538608925472681
2591		-1.4018913377695876
2592		0.3733772409857162
2593		0.36118915136446283
2594		-0.1802429842646327
2595		0.31480045777623566
2596		0.38844235346533257
2597		-0.023515426071288033
2598		0.08408939811579116
2599		0.35788563424102576
2560		-0.13968253807990708
2561		0.05181078232246512
2562		-0.0326625968866481
2563		-0.35876514480275956
2564		-0.2485119948082008
2565		-0.07142065207702779
2566		0.1499357937933255
2567		0.14906374736779568
2568		0.33001795797071803
2569		0.40142406706689376
2580		-0.2207372508472852
2581		-1.1050845687710777
2582		-0.02588136977265638
2583		-0.2644337654141131
2584		0.48663748484891445
2585		0.5486398554890717
2586		-0.17168712680361206
2587		-0.3971594733355128
2589		-0.7202429286436702
2570		-0.7184260657880385
2571		-1.2783537475018876
2572		0.32216197343925723
2574		0.05140449738031289
2575		0.034758824897253265
2576		1.154329090366457
2577		-0.5080314364782686
2578		-0.3195616986685416
2579		0.3803082802568051
2630		-1.4234457504820768
2631		-0.8264366822278792
2632		-0.4621028302930929
2633		-0.19717386653241342
2634		0.4748971285003569
2635		-0.8269250418163258
2636		-0.050943917800274574
2637		-0.2776728269025121
2638		-0.7762786015235472
2639		-0.58893266613542
2620		0.04291735824521799
2621		-0.5701818758483375
2622		0.04334780267801487
2623		0.6488730994494701
2624		-2.1221607872856776
2625		0.7091561744868943
2626		0.05528026080517765
2628		-6.526258703777197
2629		-0.7645025589275226
2680		-0.12960443568590407
2681		-0.35908334719469376
2682		-1.5671821030080912
2683		-0.6680471820023253
2684		-1.4554883194808952
2685		0.41189115459673725
2686		0.18069028387565642
2687		-5.305134434598979
2688		1.0583431824319844
2689		0.6005047113532826
2700		0.5907696430552741
2701		-0.7244739434572525
2702		0.8324573993286691
2703		-0.10170966511358227
2704		0.6521719390212872
2705		0.05923945968621071
2706		-0.1654804026378172
2707		0.6102980483104204
2708		0.40043969374685967
2709		1.265238960318754
2670		0.38623171824245844
2671		0.8553349640567459
2672		0.746279726149783
2673		0.518595329410442
2674		0.6259660987320297
2675		-0.48452070423582044
2676		-0.20664123983287883
2677		-0.18304160427214072
2678		-0.45385716944823407
2679		0.9760826086668825
2660		1.175573732388409
2661		-0.8344895416311238
2662		-1.8602117109182053
2663		-0.14040103418930594
2664		-0.8003946900327484
2665		0.3566454161699561
2667		-0.20796541885353861
2668		-0.38070953021283493
2669		0.03473371313302619
2690		-1.8969755894966562
2691		-0.6047932099540271
2692		0.5614446025562185
2693		0.08140828561533621
2694		-1.159271663647373
2695		-0.47798710820276036
2696		-0.9841352777424395
2697		0.3258830220911622
2698		0.4278407500214614
2699		1.3455785740815864
2720		-0.2932634260490371
2721		0.17389841411790818
2722		0.519777281879314
2723		0.2666780531896075
2724		1.5941611125266526
2725		-0.47338839178732356
2726		-0.16263363812135326
2727		-0.17406330423800712
2728		-0.20283225130233196
2729		0.6667931693203308
2640		0.5526673135543588
2641		-0.06582128493723224
2642		-0.04825042243114518
2643		-0.9420071468327179
2644		-0.9705016774824469
2645		-0.3840207291872261
2646		-0.07036254302386508
2647		0.05979365914710183
2648		-0.15397243171764372
2649		0.009298338172952567
2710		0.18735804848101642
2712		0.24030806550478884
2713		-0.6335460947378935
2714		0.7839403321178551
2715		-0.046884494773561144
2716		0.6738997731584045
2717		-0.7482183026058548
2718		-0.3357709773218023
2719		-0.42923644230875196
2650		0.7005258464036461
2651		0.4753383019069032
2652		-0.10816886257291257
2653		0.6041861843520652
2654		0.7717854864627165
2655		0.17366516387377448
2656		-0.46099383911142006
2657		0.09403523985477572
2658		0.7462529544906642
2659		0.04406433935820241
2730		0.017298118182176657
2731		-0.7554188468257393
2732		-0.4082899799626305
2733		0.8395616140457771
2734		0.7597871188636985
2735		-1.415154605484478
2736		-0.494312008582873
2737		-0.32602494695239476
2738		-0.09989322714714398
2739		0.27040109115133043
2740		0.15850459426248054
2741		0.023287530254110695
2742		-0.04382709975655439
2743		0.4630438140643448
2744		-1.20950305271169
2745		0.049561512844515425
2746		-1.512806147647494
2747		0.030792294386234702
2748		0.09341923427930666
2749		0.09584594357231163
2800		0.4288499561156194
2801		-2.346182129376405
2802		0.06178316057196788
2803		0.3252135828250683
2804		-1.0584063574980092
2805		0.8933462853877244
2806		0.8242185533058474
2807		0.3265029316859788
2808		-0.05521947531019283
2809		-0.41392012400335587
2770		0.33500886536281305
2771		0.3727235765683851
2772		0.010594438359096977
2773		0.823448022452321
2774		0.36557485304762677
2775		0.18540718129224487
2776		0.06102225615832788
2777		-0.3378071814687449
2778		-0.4847496289856932
2779		-0.6341531151718197
2790		-1.0879581597777261
2791		0.11823871517610088
2792		0.13596282563321954
2793		-5.217373351256913
2794		0.46872141415268
2795		-0.2647834063670153
2796		-0.5619320443421387
2797		-1.4115782408265083
2798		-0.6903553924088094
2799		0.6702267714747195
2750		0.8327437657086008
2751		0.584180001954536
2752		0.35129388566465075
2753		-2.4741035181889033
2754		-0.4602533336840819
2755		-0.08701395161363182
2756		-0.05693135873002236
2758		-0.3134524436045557
2760		-1.3481843701354737
2761		-0.3831457361549377
2762		0.5246696569581509
2763		0.9006722517990424
2764		-0.5789775283608543
2765		0.13025624603875588
2767		0.9020834154395032
2768		0.4614045040112459
2769		0.8104287944498527
2780		-0.4279898290310955
2781		0.11071807849866665
2782		-0.802975764860854
2783		-0.7226688173770062
2784		-0.30730886377401884
2785		1.1113942589073884
2786		-0.07051821459036417
2787		0.06991698489525201
2788		0.2392011410152477
2789		-0.6685428347301698
2840		-0.1262866059669041
2841		0.7835516125743476
2842		-0.3948599969597841
2843		-0.9508837871516219
2844		0.2547981723328281
2845		-0.12285035749776087
2846		0.6364360241722512
2847		-0.9824204794871007
2848		0.0812251475180636
2849		-0.48979887134618916
2810		0.13713454606712672
2811		-4.024933992160997
2812		-0.7938744801368911
2813		-1.3103440780716151
2814		0.7567703429772089
2815		-1.1771852725000471
2816		-0.3637687444614655
2817		0.4801699201962097
2818		1.0199623030370515
2819		-1.6864929213773359
2880		0.6601139558193009
2881		1.0673434861125608
2882		0.6263818475838655
2883		-0.5020874799380681
2884		0.909230154030772
2885		0.4505121141111516
2886		0.05436912153564169
2887		0.16092696720113894
2888		0.20301976221955403
2889		0.2618681350748216
2820		-0.6415145566036177
2821		0.06145682797254008
2824		-0.0525839168706518
2825		-1.3004415245501193
2826		-0.015638586380661453
2827		-0.10705520907426556
2829		-0.952722378729947
2870		1.7636867150972413
2871		0.280262033277183
2872		-1.1520567895827993
2873		0.007059822311196835
2874		-0.94100645203754
2875		0.24431625367765752
2876		0.5185296113575272
2877		-1.2821541724193692
2878		-0.5399217586387499
2879		0.02912626187369752
2830		0.15063733877369717
2832		0.6842154102631974
2833		0.42038811963895245
2834		1.3650708670951792
2835		-0.5663261083750901
2836		-0.10350407388198819
2837		0.20891120654301737
2838		-0.8666391811622558
2839		-2.991046947037684
2850		-1.2807667565905323
2851		-1.0393210867245204
2852		-0.6883588458480793
2853		-0.002983274441005359
2854		-0.5465349821453468
2855		-0.19209844355934574
2856		0.5485540834065739
2857		-0.20843880469222612
2858		1.843433858214029
2859		0.6073196741511543
2860		0.8233910273966807
2861		-1.3773641490824213
2863		-0.138040742882564
2864		-0.09737288192519605
2865		0.15624755317640132
2866		-0.639881729536771
2867		4.031309240361623
2868		2.450586780972362
2869		0.8059117685824373
2900		-0.32744616076811367
2901		0.6087794221546885
2902		-1.6973182003019835
2903		-0.3420841843055349
2904		0.49993368011825307
2905		0.04613373921752371
2906		-0.008759456546570316
2907		-0.6976204789269909
2908		-0.4047674628073665
2909		-0.8083820902691244
2940		-0.159993385015172
2941		-0.5438416475406617
2942		0.4290267249512934
2943		0.9573256955997531
2944		0.1657310431925546
2945		-0.831683567106445
2946		-0.2466762932484465
2947		-0.5267735903675704
2948		-2.233577280052209
2949		-0.2740918576391692
2910		-0.23188466618666
2912		-3.1578375870286948
2913		-1.801190156777503
2914		-1.4376432313595287
2915		-0.10341360251148794
2916		0.034958775341673874
2917		0.13006322023444997
2918		0.5924966085957455
2919		-0.042758465570453444
2920		-0.4716814794393761
2922		0.4685020050162146
2924		-0.14220443757412712
2925		0.7384548414469885
2926		-0.8948077127683429
2927		-0.7438421087850898
2928		0.08016796427873224
2929		0.4584626401528012
2890		0.612002710175525
2891		-0.4965668590939135
2892		-0.056612561526845975
2893		-3.2559281918456042
2894		-0.3431748944777052
2895		-0.05620439663026601
2896		-0.0971672414681974
2897		0.053533463105585044
2898		0.02582673622287398
2899		0.003452020325799398
2930		0.3118009824024153
2931		-0.033831952119067185
2932		0.17136925888049823
2933		0.7151862048863461
2934		-0.1926219564915674
2935		-0.05388821465348358
2936		-0.4648814979600526
2937		-0.03620842147614299
2938		-0.19670585420640044
2939		1.836627221071399
2980		-0.31112349560340624
2981		-0.12806194203502086
2982		0.4287923368657965
2983		0.15067538241361952
2984		-0.14071464802511377
2985		-1.1690870585332434
2986		-0.1127902985793992
2987		0.38205245561867185
2988		-0.3141621226110992
2989		-0.09063443283442991
2960		0.19955262444888833
2962		0.2526387158667062
2963		-0.07074725788903535
2964		0.24475665210378186
2965		-1.8423966309006454
2966		-0.8860521117631672
2967		-0.7391143014840379
2968		0.4835224707733047
2969		-0.16532230874730694
2990		-0.18867610522030484
2991		1.1268243515576604
2992		-0.29275899861314614
2993		-0.47946275788638903
2994		0.15894481198001992
2995		0.21607687301020911
2996		0.07545290722619619
2997		0.7876422329452538
2998		0.22073440570184386
2999		0.4978654138237999
2950		0.1775830775255931
2951		-0.33789674310762263
2952		-0.57264950222736
2953		-0.5958997213674077
2954		-1.0685811580063402
2955		-0.009160377165478163
2956		-0.002504368483382693
2957		-0.2088428299317051
2958		-0.29526986705306923
2959		0.9299210112943247
3000		0.26458257787675066
3001		0.07672106561076891
3002		-0.47511498455296364
3003		-0.8529103761300186
3004		1.817970819093506
3005		0.07651285907843292
3006		1.0006742546164422
3007		-0.5301438171693187
3008		-0.6751229220427785
3009		-0.33349151510779523
2970		-1.3407034856668456
2972		-1.5734016349735245
2973		-0.45068215900565584
2974		-0.33058779109685793
2975		0.297988688539504
2976		-0.11001852545263752
2977		0.35945612336165234
2978		-0.5332478523788469
2979		0.08160485924670384
3020		-0.6634781038868549
3021		0.7987055658771528
3022		-0.4227885321786638
3023		0.13158893115274883
3024		1.051944992785849
3025		-2.800477334015453
3026		0.6585529930924197
3027		0.04479723965031736
3028		-0.40382006030124085
3029		0.08710686243542502
3050		-0.3863840213239644
3051		-0.16359530728898514
3052		-0.39253755672261437
3053		3.4264019259269256
3054		-0.6101891498799873
3055		0.9139776508165729
3056		0.4539874260000262
3057		-0.39215851499549975
3058		-0.7719609907951582
3059		-0.24404391046080393
3060		-0.034353101443677696
3061		0.43119724853044367
3064		0.6474725328556569
3065		-0.9318220534541177
3066		1.1563435237773156
3067		-0.2876879620477707
3068		0.8049053044206911
3069		-1.707098568987144
3080		0.24424233558903094
3081		0.3404123815174906
3082		0.40437616465365245
3083		-0.1030731441002118
3084		-0.6029244180157418
3085		0.8252848990757802
3086		0.2613062147445133
3087		-0.47309534372107453
3088		0.15705749299149924
3089		0.3403756454249032
3010		-0.07435131177421167
3011		-1.4824788137734928
3012		0.1548498588629676
3013		0.1489069119521517
3014		0.4215059534804567
3015		0.8797929443662958
3016		-0.09209749381666164
3018		-0.08989636700528968
3019		1.2283597776329547
3100		-0.1601828416499254
3102		0.8838768964699742
3103		0.2839571360910636
3104		-0.6684696246771114
3105		0.9563799192150013
3106		1.3429344822963722
3107		-0.5001382064554327
3108		-1.497652619340727
3109		0.07946315933121138
3030		-0.7368277697051367
3031		-0.8559139266403414
3032		-0.5806558392797817
3033		0.29716688613669456
3034		0.11497731140922879
3035		-0.6785015383116848
3036		0.24654436239400454
3037		0.2900489846949599
3038		0.1958179020248748
3039		0.8602954275152654
3090		0.5538535799841935
3091		0.11247676524824601
3092		-0.597669887313409
3093		0.08313460677795328
3094		-0.41474088443499235
3095		-0.11085779672615163
3096		-0.5675634037006825
3097		0.17198082305193985
3098		0.4844355033431976
3099		-0.2718908952728168
3070		0.07165015008705909
3071		0.14781488210051183
3072		-0.7589792255536418
3073		0.5911456144192173
3074		0.30194640628276886
3075		-0.1972289874114437
3076		0.3836765405634869
3077		-2.671032347377167
3078		0.6473190212023973
3079		-0.40683618134365324
3040		0.3769689261942623
3041		-4.586198627498506
3042		-1.1628099308871132
3043		-0.7179369285259976
3044		0.40056966499852137
3045		-2.5354771997690877
3046		2.1316075064371875
3047		0.06433476022545297
3048		-0.02416250069358111
3049		0.12300997909896798
3180		-1.3549461035992911
3181		0.2594855502836846
3182		-1.1109182616804596
3183		0.07302883749249363
3184		0.506552693603584
3185		0.10522784151295488
3186		-0.43480920096047854
3187		-0.66386432632463
3188		0.43955585089197036
3189		-0.288930629075262
3200		-0.22964511724338324
3201		-0.37938027045550626
3202		-2.8240763010838816
3203		0.3915003453102831
3204		0.27089298619529717
3205		0.33269152190823165
3206		-0.2366582289327186
3207		-0.24027873614111456
3208		-0.22208287557911613
3209		0.8550288076619178
3170		-0.3939928173673278
3171		-0.054348476246526604
3172		-5.331193148962853
3173		0.9082477538376813
3174		0.3368254855625998
3175		-0.46794230577444307
3176		-0.5053042317980745
3177		1.1075966682163068
3178		0.6056145672102452
3179		-0.13237758646946696
3110		-0.06280842216283225
3111		0.5594677767129497
3112		0.3501512986139745
3113		0.01774830447159421
3114		-0.11422131574091356
3115		-0.17901677905181007
3116		-0.6494905483251213
3117		1.4408952503352364
3118		-0.16815761411556954
3119		0.13465585378164324
3190		0.17749393482969866
3192		0.08577979650505398
3193		0.5053500481620902
3194		-0.5939688860154003
3195		1.1416086726515475
3196		0.5009656823662367
3197		-0.4947323309516983
3198		-0.08343576871304866
3199		-0.25370371394615643
3140		0.5330856788825208
3141		0.7422683616084144
3142		-0.26535102572466823
3143		0.07930009356962207
3145		0.08616275796439055
3146		-0.6433879169943106
3147		-5.790792739963808
3148		-0.259431722367098
3149		0.6994623595517515
3120		-0.7691865575386576
3121		0.2433189134408491
3122		0.25363886714536676
3123		0.11354038467547582
3124		-0.26027907986745513
3125		0.7972868193621467
3126		0.8681167296895484
3127		-0.4473969678587102
3128		-2.307083425209133
3129		-0.3525093281967851
3160		0.49322468164097105
3161		0.6015518528834203
3163		-0.09154418413805628
3164		1.0792073738061967
3165		1.0762111380613
3166		0.5493110834592824
3167		0.977486209343731
3168		-0.011034717972143258
3169		0.42840392220110757
3130		-0.0903112106205058
3131		-0.2172894247181095
3132		-0.1680967057007114
3133		-0.4190452021819966
3134		-2.5614137667627253
3135		1.177866875739227
3136		-0.5390662978294515
3137		1.0336704181869671
3138		1.942335298584275
3139		-0.5495820913610799
3150		0.013165364235227668
3151		-0.222562296903417
3152		0.796691793793724
3153		0.15254322359781716
3154		0.08052862329623309
3155		-0.43357942771130187
3156		-1.4532752498790704
3157		-0.7905772208761627
3158		0.3571548739799557
3159		1.0905952110431187
3220		0.06253989054600818
3221		0.4906386013169504
3223		0.5013532952882627
3224		-0.10644120335840736
3225		0.5948387405638675
3226		-0.22722867405343256
3227		-4.148696690623809
3228		-0.19657538654129586
3229		-0.05933451391641567
3300		0.4068236551903446
3301		0.9455663954046881
3302		-0.2902793761853218
3303		-0.43064355202518434
3304		-0.04450628347513763
3306		0.33544305718964945
3307		-1.8990158219327553
3308		-0.7278586396109599
3309		0.41946677623750667
3270		-0.24959012796772292
3271		-0.9671729288222167
3273		0.5900288955517903
3274		-0.31518753015091083
3275		0.601591893095443
3276		-1.7368906223914948
3277		0.19421984560701158
3278		-1.509860939011196
3279		0.20405078702773458
3210		0.31752590017347143
3211		-0.23332756688801962
3212		1.0742805022779292
3213		0.06346370304095335
3214		0.11538393646024868
3215		-0.3450380364037278
3216		-0.1630405162915006
3217		-0.4774012834371683
3218		-0.12760682929321485
3219		0.7675140891155653
3290		-0.6808143554420854
3291		-1.2905765640695743
3292		0.11117710595631032
3293		0.41755747875212074
3294		0.08968983186911436
3295		-0.33735063178216707
3296		-0.556065362534704
3297		0.07420959381743243
3298		0.7405709972483467
3299		-1.0384261080061934
3230		0.40233268420125995
3231		0.02227755103354963
3233		-0.46501256336939784
3234		0.4643434901580247
3235		-0.7692873090077822
3236		0.197404587457475
3237		0.5541868661199352
3238		0.7698645590842805
3239		-0.025787351714089645
3240		-0.01832715158279981
3241		0.24828121439703835
3242		0.28992513986143553
3243		-0.4856837585248887
3244		-0.6406742517688246
3245		-0.180387623412025
3246		-0.58103555367017
3247		-0.4116747054531361
3248		-1.091969489921154
3249		0.09009481264755351
3280		-0.48084275001981963
3281		0.1798059576833266
3282		0.6887543800397951
3283		-0.25960465202408173
3284		0.3057067008207223
3285		-0.007070668019509342
3286		-2.451995522375756
3287		0.9901868795299344
3288		-2.7351477014618406
3289		0.28762129320680707
3251		-0.6646490959856443
3252		-0.2576843684152312
3253		-2.0012913156511147
3254		0.2852345649122555
3255		-0.9402084754016433
3256		0.6249200901699609
3257		0.38560250973211224
3258		-0.460705129621333
3259		-0.07810444452928378
3260		1.1538529356850353
3261		-0.5172304186313073
3262		-0.5046856283370111
3263		0.3637073006166821
3264		-0.09088217531805709
3265		-0.47337185461429737
3266		0.13514692259136327
3267		-0.7616032341437293
3268		-0.06167544038794821
3269		-0.2273140989858846
3410		-0.03169043144688751
3411		1.100276982742804
3412		-0.08990876065918184
3413		-0.3959025276364419
3414		0.33890095859667063
3415		-0.3959109201834016
3416		-0.5847981372699809
3417		-0.4658358754224426
3418		-0.8275718607111541
3419		0.4046931682640794
3370		0.54101949571852
3371		0.5143309176545672
3372		-0.33396631749269934
3374		0.07546122630897477
3376		0.5887962366827882
3377		-0.6127655989828907
3378		-0.2135245176826576
3379		-0.4816856892007023
3420		0.01655142998441863
3421		0.8977383416999117
3422		0.05466905774305551
3424		0.32910263909964677
3425		0.31139916439560755
3426		-0.3117718078163879
3427		-0.516449056945165
3428		-3.049019904077146
3429		-0.3604005374356564
3390		-0.3729999370744956
3391		-0.0015136527883172035
3392		0.04494379181334789
3393		-0.12535894238574719
3394		-1.0683580091329266
3395		1.0836698477953073
3396		0.4806550307227717
3397		-0.6628485706800622
3398		0.3433527604586961
3399		-0.2226265773732878
3350		-0.42855038076717944
3351		-0.8657614426668262
3352		-0.21447486411382782
3353		0.3302584795749033
3354		-0.8228610131703553
3355		0.03838600754032493
3357		0.27106575640740804
3358		-0.13360342480449952
3359		-0.3202325514419187
3340		0.06809191612717573
3341		-0.4523749152608701
3342		-0.04476191618574396
3343		0.1966198264353029
3344		0.7725010329262648
3345		-0.41893823361551336
3346		-0.23199055397436374
3347		-0.04194047639747165
3348		-0.38619629688201407
3349		-1.3098754680932747
3320		0.3785861407394044
3321		-0.19591634384134074
3322		-0.1885855970794485
3323		0.43638474484940815
3324		0.177658441841054
3325		-1.0677884854613178
3326		-0.5986880301936576
3327		-0.04577272010738614
3328		-0.22559109198797575
3329		-0.41255665972766903
3400		0.4256410619901506
3401		-0.3300910992189807
3402		0.02427072139640693
3403		0.2554190907906645
3404		-0.05549065735775727
3405		0.3727162164345107
3406		0.512534551230841
3407		0.011699905474857997
3408		-0.32720692726628187
3409		-0.22466669510783882
3360		-0.41622532476331525
3361		-0.050378784199503736
3362		-0.05276676689596408
3363		0.09820943598243795
3364		0.40130939750110156
3365		-0.17672434170742243
3366		0.2749198608944628
3367		0.006959338169569828
3368		0.6609294186734493
3369		0.6204044141317864
3430		-0.5679997832658065
3431		-0.03177411455306113
3432		-0.5057058001203997
3433		1.0706087879436479
3434		0.22503120975210916
3435		-1.6426328991305161
3436		1.1238706310279418
3437		2.910620155679352
3438		-0.5535478021331568
3439		0.4434172569689471
3310		0.11580602794418615
3311		-0.5903289235190954
3312		0.11099413662098423
3313		0.015981107439267034
3314		-0.18221810457109713
3315		-0.01938181959995962
3316		-0.1696338343755962
3317		-0.6627698146206331
3318		-0.2511716869768458
3319		0.5479632036652786
3380		-3.3432690936901013
3381		0.014827234533609528
3383		-0.21621094434270813
3384		0.07426985921324941
3385		-0.19239443562914132
3386		-0.5610810953204528
3387		0.6655514503545806
3388		0.9171019633597691
3389		0.5711419614828022
3440		-0.20441400730292672
3441		-0.48256095567696905
3442		0.23480032535932052
3443		-0.4134674427135118
3444		0.28709466006967493
3445		0.5344673561553033
3446		0.008183567624636586
3447		0.8799382886167939
3448		-0.1698468414530471
3449		-0.5436485885923066
3330		-1.6857785148174436
3332		-0.3714488971632363
3333		-0.7067303980205106
3334		-0.11634726693580577
3335		0.1392347032753369
3336		-0.6072463400710353
3337		0.5489546937649316
3338		1.45262803211581
3339		-0.0029003049439978554
3480		-0.27343106293890923
3481		-0.6973209978852245
3482		-4.63190012230102
3483		0.1923323378420273
3484		-0.34909464037661186
3485		-0.24960716983496728
3486		0.7809900810533995
3487		0.02415605430866598
3488		-0.7471681123981412
3489		-0.7280696315228965
3490		-0.0530450508976616
3491		-0.5136160789214173
3492		-0.5520282455118292
3493		-0.2650157392136795
3494		0.42257018699032217
3495		0.15852883759608113
3496		-0.4699635759946798
3497		0.25926532424730026
3498		-0.24249279283226774
3499		-0.128883158722307
3470		-1.8489926991271797
3471		0.35037663644253364
3472		-0.41999904182690095
3473		-0.2351360241011474
3474		0.16372097882618258
3475		0.2088816009433347
3476		-1.455069349124828
3477		0.8188141997627156
3478		-0.22307124634643732
3479		-0.08612139908128534
3450		0.07202802475464326
3451		0.26470100596392526
3452		-0.07763669050217273
3453		-1.02307501580073
3454		0.2391651139549811
3455		0.6846997671390287
3456		0.12703338003314996
3457		-1.2378290272187922
3458		0.6251600458314999
3459		0.022136904579268906
3500		-0.41431099755798234
3501		0.8624149834596613
3502		1.0662711757455983
3503		-0.0985576390975089
3504		0.07335529846781495
3505		0.15629344953362337
3506		0.89816934178917
3507		0.1888440877074271
3508		-3.256568852635384
3509		-0.1476548492024371
3460		-0.8115715174037132
3461		0.09003552883127403
3462		-0.7541254873689699
3464		-1.090446829871878
3465		1.6176604542895787
3466		0.0307220415668235
3467		0.20588769533152837
3468		1.1160018024586285
3469		0.36984576164815364
3520		-0.7295016101394504
3521		0.08574087466214293
3523		-0.04125960956262838
3524		0.37210834723538233
3525		-0.4636255796052209
3526		-0.003281628456558488
3527		-0.3035684572440666
3528		-0.1278587255912051
3529		-0.3113632045884252
3510		-0.6435465276854568
3511		0.10795682717723422
3512		0.38873528482270076
3513		-0.299740257229176
3514		0.8165712980958384
3515		-3.4627578200589584
3517		-0.23782310463629278
3518		-0.40882718316781974
3519		-0.03471004830321952
3560		-1.1384545728643365
3561		0.6865180798418856
3563		1.0868353767170318
3564		-0.09229564472876511
3565		-1.2299529812318153
3566		0.47151244848610535
3568		0.17008757066660474
3569		0.1289160951486817
3570		-1.196894289684593
3571		-0.17164205359210896
3572		-0.36642784003508194
3573		-0.7767713158852018
3574		-0.336374810847553
3575		-1.8764755310927763
3576		-0.3253988978501888
3577		-0.7484513061700809
3578		0.7355558394612869
3579		0.40749925878633586
3550		-0.09792664182718372
3551		2.199789850687887
3552		-0.10715582125492173
3553		-0.21412349139838058
3554		0.08147352731753849
3555		0.357821007204705
3557		0.11329251045986515
3558		-0.27794691423665924
3559		-0.2869511108914984
3540		-0.312071667513529
3541		-1.9863337037103783
3542		-0.3355668429734598
3543		-0.2987593565355896
3544		-0.4529393154236272
3545		0.09100464798902397
3546		0.04120293281218084
3547		0.0971445948264181
3548		0.28583824375517103
3549		0.25494668448273683
3530		-1.532655255402484
3531		0.978264259088977
3532		-0.014626421674004185
3533		0.23063341387772818
3534		0.13371671148294678
3535		0.14192807251489062
3536		-0.08793037821049275
3537		-0.16463601339977046
3538		0.4978191442885348
3580		-0.752938653024533
3581		-0.8993180072587961
3582		-0.3053829411644232
3583		1.08982027779638
3584		-0.3984662273946915
3585		-1.0313731486914153
3586		-0.8937713206448891
3587		0.8031114327883894
3588		-0.6162646576906267
3589		0.12835473754977092
3600		-0.3057166653642548
3601		0.26474164786895077
3602		0.09805996458318174
3603		-0.17710893057330884
3604		0.3407775639255383
3605		-0.9278676871552175
3606		0.04643883296590067
3607		0.2126408619913842
3608		0.14353259039835295
3609		0.08339048262297942
3590		0.37973264027989995
3591		0.593788650039814
3592		-0.19087446135586933
3593		0.0591443800001703
3594		0.5240315325977325
3595		-1.0110903771540065
3596		-0.41607145823036507
3597		-2.707800521286282
3598		-0.1902853895474756
3610		-0.08741274785975271
3611		0.03969307154258281
3612		-0.19522012882647607
3613		0.3009745956303896
3614		0.04853103533707166
3615		0.39861405092752245
3616		-1.6148004286022781
3617		-0.36940386370408934
3618		0.24411159907906793
3619		0.6751949689410551
3620		-0.37275625409659546
3621		-0.03230975840056581
3622		-0.6081479558750288
3623		-0.18291638051743536
3624		0.08324944737768526
3625		0.6350894864416766
3626		-0.5316403300035673
3627		0.24628473338227655
3628		-0.6516352744588838
3630		0.8099119372621776
3631		-0.08330579318288683
3632		0.3557509575330377
3633		1.3629852102910682
3634		0.6243911563871142
3635		-1.148928677470595
3636		-1.0779542839514
3637		0.4587848781601464
3638		0.340822247775457
3639		-0.7152498352612573
3680		-1.5216141167838328
3681		0.12462915101716787
3682		-0.46135425324274154
3683		0.3468465650704308
3684		-0.20856329655105943
3685		-0.27386747176563087
3686		1.4408451256450931
3687		0.24244610772328745
3688		-0.26769402687971566
3689		-0.8902822223478847
3690		-0.1734968624885161
3691		0.37197528705891847
3693		-0.35286210415929814
3694		0.18959122155643468
3695		0.6114484002825761
3696		0.5630199496010406
3697		-0.05927148015418865
3698		0.1709083367985508
3699		0.46956631357390416
3640		-0.8092758574236667
3641		0.7103254896582085
3642		0.17655285647257818
3643		-1.0569101344832306
3644		1.2045757477437289
3645		0.34991128025584
3646		0.5051801731093973
3647		0.09229078511523083
3648		1.9661140991461206
3649		0.012392503598520283
3660		0.0484054123279559
3661		-0.13867796785284284
3662		-0.6237074963102395
3663		-0.675100051918507
3664		0.22453696004197427
3666		-0.22596252067870884
3667		0.19595424279404636
3668		0.9579373152659589
3669		-0.13528323387529673
3740		0.049214602498395245
3741		-0.12421109392506365
3742		-0.34890138488447975
3743		-0.2678197368330242
3744		-0.7317555028001369
3745		1.2195853868674895
3747		-0.6595911151332893
3749		0.3607732912663679
3700		0.26681341329266167
3701		-0.07717830765634445
3702		0.09213385430108269
3703		0.3096921436865465
3704		0.5197945303157878
3705		0.5617663862179031
3706		0.010151537947225802
3707		-0.37502249088903267
3708		-0.832972903968307
3709		-0.5388241167119251
3650		-0.02935998272745044
3651		-0.4639528525179911
3652		-0.322332156840835
3653		0.012553826650771252
3654		-0.4154033816939466
3655		-1.0800751904091217
3656		0.5035074322603819
3657		0.47518759396938
3658		1.306983145123059
3659		0.3468862841342342
3670		-0.2718861971290661
3671		-1.06863746255669
3672		-0.3378828394625017
3673		-0.5697797907203305
3674		-0.2687700996792769
3675		0.15214114894057898
3676		0.34106015307341386
3677		-0.19269322185445045
3678		0.17562384225274907
3679		0.2971493543154212
3730		0.378139490058637
3731		0.44919987822854135
3732		0.8633905978639815
3733		-0.08098959271151186
3734		0.245241822667463
3735		0.28156786351149676
3736		0.12289265479112244
3737		0.08383132153470088
3738		0.6736414608780664
3739		-0.6747689195123348
3710		0.757056007865663
3711		-0.6997264178442285
3712		0.40955153731492705
3713		0.31623329042302994
3714		-0.24522871474072694
3715		0.0034169859239699635
3716		-0.1462093832686688
3717		0.2323015867636759
3718		-0.04913513339064728
3719		0.9630242270838918
3770		0.31930171307587335
3771		0.21078142047020454
3772		0.6283752475416274
3773		-0.8547676646517656
3774		-1.0672761161726732
3775		0.924756621627025
3776		0.14807543773886248
3777		-0.3303441669530558
3778		-0.449810560732869
3779		0.1436844830685423
3750		0.4452677688300165
3751		-0.1146149315902404
3752		-0.3069743392730973
3754		-0.25374793406654217
3756		0.30761117168783414
3757		-0.1332709804551722
3758		-0.8509219887048023
3759		0.4138293717410754
3780		1.95720730651951
3781		0.35508515927327444
3782		1.0717241595740674
3783		0.014777326008327561
3784		0.4198658974576455
3785		-0.40222114759626554
3786		-0.14912525360359302
3787		0.16459804482805168
3788		1.0921928318282774
3789		-0.9589961408997819
3720		0.43445779064476453
3721		-1.711512497034081
3722		-0.7497526492416094
3723		0.275564560711966
3724		-0.04900300336012031
3725		-0.07182177922940519
3726		0.36987228885456447
3727		1.1122660633538648
3728		0.4146328803043418
3729		0.32254328266890114
3760		0.041210201122733284
3761		-0.4410712158974207
3762		0.2666222093934552
3763		-0.6484232493293313
3764		0.09900790691009212
3765		-0.5607599024602054
3766		0.07857646925282344
3767		0.19669297532464092
3768		-0.14223422324248836
3769		-0.019309071272218495
3841		-0.27672577383463376
3842		0.19683877032954422
3843		0.2633249316299691
3844		-0.16400213760962845
3845		-0.9814255603862913
3846		0.4257541517804173
3848		0.23520188362187022
3849		-0.7079085751332189
3890		0.07829223426374009
3891		0.7567012067380796
3892		0.5218632605434022
3893		-0.3208148828687665
3894		0.2307665161059598
3895		0.472689556688248
3896		0.6441746100371871
3897		0.6479327897762479
3898		0.29385714216887837
3899		-0.8019202187483684
3860		-0.017026155074722753
3861		-1.2101808324039707
3862		0.5912506070450404
3863		0.49063328670683193
3864		0.49326891441721077
3865		0.8779411262858495
3867		0.06810807668471218
3868		2.188757690018084
3869		0.10001658757823721
3850		-4.1719687807863925
3851		-2.7757216004714453
3852		-0.7119452404647202
3854		0.31989694181498973
3855		0.09229601049127731
3856		0.6268040860705776
3857		1.0787588032377926
3858		0.3083591262923049
3859		0.09425429707673463
3800		0.10228928857959617
3801		-0.2963014922976942
3802		-0.15491484863133992
3803		-0.41487559874968893
3804		0.28985801555743534
3805		0.22217630141629138
3806		0.9327813113423425
3807		-0.3969545662345474
3808		0.07869857300253302
3809		-0.8093895244201359
3810		0.5624500239347642
3811		0.24715626360847592
3812		0.18296363555545103
3813		0.06323821398565627
3814		-0.15150214956294342
3816		0.01891183900546378
3817		0.0886867791830826
3818		-0.35458526942797214
3819		0.06774160197348805
3790		0.7417550715625612
3791		1.2174611206516108
3792		-2.2432602344829067
3793		0.33396882325980354
3794		-0.22711454828912855
3795		-1.198257335413475
3796		-0.06740982415414026
3797		0.2145179036858194
3798		0.36388665465472303
3799		0.11514181510886405
3870		0.30313978185729423
3871		0.00683602621974731
3872		0.46880061966330977
3873		0.2272317838123552
3874		-0.4761118835233887
3875		0.23063682672827499
3876		-0.8169228038190008
3877		0.4845836668246073
3878		-1.3753838172750905
3879		-0.7875199987628978
3830		0.9143592718372917
3831		0.6648724017950292
3832		-0.14142384288385496
3833		-0.2548326235304187
3835		-0.011357596475608854
3836		-0.726556602010713
3837		-0.5436008277445481
3838		0.22002272792901806
3839		0.8321565252975558
3820		-0.34953193711831393
3821		-0.10374520761875587
3822		0.1904199497468502
3823		-0.1164528329177633
3824		0.0035730359120030096
3825		0.3946563753519519
3826		-1.1130706984450245
3827		0.12956415860797127
3828		0.09827103490293844
3829		-0.06854112007482077
3930		0.08073212979868993
3931		2.0664125733990457
3932		0.10506418425747022
3933		0.5164161300829864
3934		0.6703523773064066
3935		-2.3442547494927224
3936		0.2071531242604992
3937		1.112997234787591
3938		0.021155620331640188
3939		0.6656687405776688
3940		0.10188223110686033
3941		-0.4323700521051458
3942		0.2385412243286333
3943		-0.18145746052175837
3944		0.9425829499913467
3945		1.1363180805887823
3946		0.16062450651348406
3947		0.37612587662414276
3948		-0.20085567416229927
3949		-0.535442368871758
3880		-0.1695652766892335
3881		0.2129855678030154
3882		-0.6372242242448725
3883		0.12684072799242463
3884		0.33493421241632304
3885		-0.39534594210453416
3886		-0.698983942868172
3887		0.5298792660940812
3888		-0.41572732062283724
3889		-0.3931914245935502
3960		-1.0542741778072817
3961		-0.43775140679899854
3962		-1.9518398484648918
3963		-0.3802008415355437
3964		0.12126244928927524
3965		0.9041677286353789
3966		-0.197133845089868
3967		0.6670113670529901
3968		-0.26729557757465683
3969		0.4493562493674744
3970		0.3366476885717238
3972		-0.2708662079179692
3973		1.2091524684753259
3974		-0.07630854522159766
3975		-0.7410047322655168
3976		0.2901226639190516
3977		-0.4208952689366075
3978		1.176382108238158
3979		0.8569366362409142
3950		0.5176414222006418
3951		-0.5697845349709217
3952		0.35050831089301765
3953		-0.5652594514544603
3954		0.15110292398753056
3955		-0.9743328683335246
3956		0.6989824184401247
3957		0.38606433147794383
3958		0.33318591351197624
3959		0.5680823032345919
3920		-0.034587924434602665
3921		1.7035442442469135
3922		-9.474515544256041
3923		-1.6036706708801534
3924		-1.0889994609331142
3925		-0.00990321389795507
3926		0.009658195668728414
3927		-1.1273233202104365
3928		-0.18712877729185293
3929		-1.7469709469260546
3910		-0.032842507970970436
3911		0.1512181071572185
3912		0.3888852874851923
3913		-0.31867316208306223
3914		0.2852788586768716
3915		0.22856776460868505
3916		-1.8690869775748449
3917		-0.6090711705739741
3918		0.014409644200439617
3919		-0.5997699616723741
3900		0.2108605412325171
3901		-0.16081168484088967
3902		0.3535992707339752
3903		-1.0026865812699928
3904		0.12039917267234373
3905		-0.1618720915074335
3906		0.7360031576270413
3907		0.2866799451665726
3908		-1.909929579977534
4000		-0.13564960025738082
4001		-0.4048928445164931
4002		0.46039367691423666
4003		-1.556461049385056
4005		-0.068337211999312
4006		0.35720057002219346
4007		-0.11053329796134956
4008		0.6607394095404133
4009		0.026672611614970133
4020		0.3451731162734367
4021		1.015017108085088
4022		-0.48505827580532224
4023		-0.17967366666889106
4024		0.4207224624353985
4025		1.3857196066992492
4027		0.6181532029132962
4028		-0.1991222336949955
4029		-0.30917188926615735
3980		1.2625199847951152
3981		-3.186868498467825
3982		0.36882723812228924
3983		0.13506568675053607
3984		-0.38178727611521807
3985		-1.0165505021907106
3986		0.024068183585106068
3987		0.64253170392487
3988		-0.14229655751728104
3989		1.4382412771686746
4031		0.2591573599631105
4032		-0.8025970850392632
4033		-0.11780612765036767
4034		0.07189862543485048
4035		0.2172273472850078
4036		-0.061262265854451346
4037		-0.2807045543494643
4038		-0.10935345661966127
4039		-0.20694331401431093
3990		0.22507614585206093
3991		0.38215433540972354
3992		1.6436162153969387
3993		-1.5375450396181283
3994		-0.4322419574604523
3995		1.4303770459238567
3996		-0.9733761562294998
3997		-1.2925901389558097
3998		-0.1324536136540245
3999		-0.15123459224385585
4010		0.026535637227016837
4011		2.183988688524463
4012		-0.01226974933702147
4013		0.26258625962951787
4014		0.011706207988790246
4015		1.0832070185585907
4016		-0.06081248332410579
4018		0.5337254922307665
4019		-0.31773339857362864
4040		0.518473545538428
4041		-0.35482533852531395
4042		0.725134938563695
4043		0.04150094291680805
4044		-0.05120600729720069
4045		0.4823286544435168
4046		-0.6083488897425887
4047		0.19508678225300005
4048		0.4969868682442751
4049		-0.31103594777384697
4060		0.1394593770557429
4061		-0.8516204619485532
4062		0.24786854053163676
4063		-1.030138215399068
4064		0.33481093366647435
4065		-0.08657793352335892
4066		-0.40169529234410406
4067		-0.6669457373733815
4068		-0.10413936126015202
4069		-0.5756759249173887
4100		0.2208185504856813
4101		0.05381273251850882
4102		0.2838184632109699
4103		-0.7181476099154895
4104		0.794102335664289
4105		-0.4568869585489699
4106		-0.33310568148167224
4107		-0.4354091795108315
4108		0.8656722577667126
4109		-0.7846967583771819
4050		0.8639913631825377
4052		-0.2848638394075695
4053		-0.5033136376209121
4054		-0.712493256538589
4055		-0.6544324850288735
4056		-0.7101625216815771
4057		0.3897536408875718
4058		1.720425295781175
4059		0.03446541497618206
4090		2.643371298726664
4091		-0.7724633619756416
4092		-0.8900425700107277
4093		-0.39794495641748473
4094		0.13860763573840806
4095		0.0891306078655684
4096		0.504929564695375
4097		-0.25157525726337804
4098		0.09378175996638298
4099		0.4975212496891344
4120		0.7168055668009798
4121		-0.5203508539480343
4122		-0.10963382364425273
